\data\
ngram 1=2275
ngram 2=27530
ngram 3=6390
ngram 4=1737
ngram 5=447
ngram 6=98
ngram 7=25

\1-grams:
-4.363351	<unk>	0
0	<s>	-1.0041872
-1.1882383	</s>	0
-3.1235983	ပြာ	-0.21037404
-4.0893326	သာဒ်	-0.16578364
-2.7893887	ဆောင်	-0.48504418
-2.938592	ကိုယ်	-0.16920155
-3.029682	ပိုင်	-0.33579016
-2.2391982	စာ	-0.38766605
-2.997149	ကြည့်	-0.5461351
-2.5017304	တိုက်	-0.5161479
-4.006625	သိန်	-0.13537747
-4.0893326	ဓော	-0.09342168
-3.3712003	ဆား	-0.33161467
-2.313638	စား	-0.44884238
-3.2167954	သောက်	-0.2671945
-2.8519683	ဆိုင်	-0.59075975
-2.5903172	ကြိုး	-0.4906052
-2.7521763	စင်	-0.45485616
-4.206341	ကြဉ်း	-0.09342168
-3.10312	လော	-0.22795969
-3.029682	ဘ	-0.21099286
-2.7179024	သက်	-0.29655468
-2.554947	ကာ	-0.4241593
-2.8870003	ယ	-0.27084413
-3.1915553	ကမ်း	-0.23182951
-2.628826	ပါး	-0.31471986
-3.4099631	ရွှေ	-0.13976307
-3.2167954	ပြည်	-0.16891399
-3.1235983	စိုး	-0.20057815
-4.006625	ဟိုက်	-0.16578364
-2.8195522	ဒ	-0.21352555
-3.4099631	ရို	-0.21488737
-3.6830697	ဂျင်	-0.27673078
-2.6156068	ပွဲ	-0.4553615
-2.1372342	ကြီး	-0.44158787
-2.7097404	လမ်း	-0.32622987
-3.6830697	ကွပ်	-0.25647733
-3.0648506	သိမ်း	-0.4217179
-2.5328717	ချက်	-0.52374303
-3.1450906	ညှပ်	-0.445558
-2.7097404	ရိုး	-0.31959537
-3.3356156	ဆီး	-0.23173432
-2.9525077	စောင်း	-0.3409022
-2.9251082	ကူး	-0.42031354
-2.4918272	ရာ	-0.321421
-3.0648506	ဇ	-0.18893847
-2.5118647	ရေး	-0.34965053
-2.8408918	လေ	-0.1591813
-2.6355896	သာ	-0.301056
-2.3268282	ပေါက်	-0.5789459
-2.8408918	နား	-0.20208228
-2.8993351	တောင်း	-0.52016276
-2.9668844	ဝတ်	-0.24137376
-2.5606453	တံ	-0.439292
-3.0648506	ခါး	-0.2435208
-2.8750062	ခုံ	-0.593028
-2.8195522	မင်း	-0.2707227
-2.1852307	သ	-0.32796624
-2.9120305	ပိတ်	-0.3852011
-2.5903172	ဝင်	-0.44232702
-3.1235983	အိတ်	-0.42574072
-3.1915553	လယ်	-0.16753079
-2.3301895	ခံ	-0.5461485
-3.3356156	ပဲ့	-0.30368766
-2.830091	စီး	-0.4191081
-2.9251082	စိတ်	-0.20255809
-3.6129982	မှန်း	-0.21277492
-2.7179024	ဦး	-0.24535768
-2.9525077	ကျိုး	-0.3295231
-2.8195522	နေ	-0.24280027
-2.9668844	ထိုင်	-0.5803424
-1.963103	မ	-0.35556984
-2.7179024	ကောင်း	-0.40430993
-3.2721546	ခွင့်	-0.33286566
-2.7797825	စစ်	-0.23643066
-3.5526774	နိမ့်	-0.22705324
-3.302727	ဖန်	-0.22392288
-3.5526774	တွတ်	-0.38469756
-1.8580712	အ	-0.22139071
-2.7179024	ချင်း	-0.40193185
-2.622166	ဖြစ်	-0.5443268
-4.006625	ကြွက်	-0.11389314
-3.2435935	လျှောက်	-0.40996942
-3.4997222	သမ်	-0.1866734
-3.0131109	ဘာ	-0.2931305
-2.3726933	ရ	-0.31718588
-2.3104022	ပ	-0.30269778
-4.206341	ရိစ်	-0.09342168
-3.7666636	ဆေ	-0.21291445
-2.5222414	ရေ	-0.18402746
-2.8408918	မျက်	-0.25630197
-2.9120305	တွင်း	-0.2538725
-2.6156068	သံ	-0.23367658
-2.693863	ပတ်	-0.39512825
-2.830091	ကုန်	-0.34659111
-2.609145	ပေး	-0.7209563
-3.3356156	ယဉ်	-0.38954723
-2.8750062	သွား	-0.34213835
-3.4997222	ဘီး	-0.24001859
-3.2167954	လူး	-0.22998348
-2.9525077	စည်း	-0.28790563
-4.0893326	လူ့	-0.09342168
-4.0893326	မျှော့	-0.09342168
-2.981753	လား	-0.26835215
-2.7097404	လာ	-0.34478372
-4.006625	နန်	-0.14653182
-3.0835638	တော	-0.20365499
-2.0881813	တ	-0.30199954
-2.9120305	ငါး	-0.20967717
-3.3712003	ငြိမ်း	-0.51247185
-3.6129982	မွမ်း	-0.16932715
-4.0893326	ဖြင်	-0.09342168
-2.7262206	ဂ	-0.24517326
-4.206341	ဠုန်	-0.09342168
-4.006625	သံ့	-0.14653182
-2.997149	ဗ	-0.18047298
-3.1677017	ရွတ်	-0.36381552
-3.870278	ရွှတ်	-0.12809728
-3.7666636	လှောင်	-0.12809728
-2.7797825	ကန်	-0.52381706
-4.006625	ငုံး	-0.13537747
-3.302727	မြက်	-0.21232504
-2.4773834	ခ	-0.3998998
-3.6129982	ရီး	-0.16715436
-3.1235983	မတ်	-0.41795135
-3.1450906	တတ်	-0.24561031
-3.2167954	မက်	-0.30204022
-3.2721546	ဖမ်း	-0.5790471
-3.1915553	ဆတ်	-0.32488626
-3.7666636	ဆော့	-0.3205154
-3.2167954	သော	-0.21795292
-3.1677017	ကော	-0.29418173
-2.770384	ရော	-0.383707
-3.10312	စည်	-0.3317226
-3.5526774	ဒိုင်	-0.4347632
-4.0893326	ပြိုး	-0.09342168
-3.6830697	ပြွမ်း	-0.259176
-3.0131109	နှစ်	-0.25044388
-3.4997222	လျှို	-0.42777938
-2.7797825	အိမ်	-0.34822664
-2.506768	တက်	-0.5602289
-3.029682	ရံ	-0.38122144
-3.870278	ရွေ	-0.13537747
-2.432437	တော်	-0.37684107
-2.4115958	ချ	-1.0181699
-2.9525077	မဲ့	-0.42872003
-2.701729	ဝါ	-0.34536666
-2.981753	ဆံ	-0.27369404
-3.4997222	ခြည်	-0.39067414
-3.2435935	ထွေး	-0.4509852
-3.4997222	ရှူ	-0.16538498
-3.7666636	ရှိုက်	-0.14653182
-2.368988	နာ	-0.47411433
-3.302727	မည်	-0.20215829
-2.7992122	ပျက်	-0.5929121
-3.6830697	ခမ်း	-0.14067128
-3.0131109	ပြတ်	-0.541857
-3.452528	ကုန်း	-0.17150822
-2.701729	တန်း	-0.4556753
-2.7797825	သင်	-0.3726141
-2.3956141	လက်	-0.21528634
-2.7797825	ဆွဲ	-0.46962517
-3.2167954	ခြင်း	-0.25845832
-2.7097404	သူ	-0.35814166
-2.7262206	ရင်း	-0.27322593
-3.7666636	ငှား	-0.27986124
-3.870278	ယွန်း	-0.16932715
-2.5170221	ပန်း	-0.3040069
-3.3356156	ချီ	-0.3683824
-3.3712003	ဘော	-0.15095834
-2.7611847	ထား	-0.7427313
-4.0893326	ကြန်	-0.09342168
-2.770384	ပုံ	-0.29569834
-2.830091	လဲ	-0.47898632
-2.8993351	စိမ်း	-0.36821616
-3.10312	ကြက်	-0.20937096
-3.029682	ဆင်	-0.24839225
-2.8750062	ဆက်	-0.41995463
-2.997149	တိုင်း	-0.28436118
-3.1450906	ထက်	-0.20611651
-3.0835638	လွန်	-0.35842675
-2.981753	စု	-0.30016258
-2.8633344	ခဲ	-0.33418187
-3.2435935	ဝက်	-0.18684834
-4.006625	စိန်	-0.10610282
-3.1450906	ပြောင်း	-0.33763954
-3.2721546	ထိန်း	-0.60387063
-2.743351	ချုပ်	-0.48042214
-3.870278	...	-0.12809728
-2.9251082	လို	-0.26191917
-4.206341	ငြား	-0.09342168
-2.1594298	က	-0.276435
-3.6129982	လွင့်	-0.38900572
-4.0893326	ဗီ	-0.12809728
-3.029682	ဇာ	-0.25623277
-2.938592	ရုံ	-0.43929723
-2.830091	တန်	-0.3572997
-3.029682	မှန်	-0.25962937
-2.7179024	ကား	-0.31269187
-3.1677017	ဆာ	-0.39167097
-3.870278	ငှာ	-0.5032532
-3.6830697	ရုန်း	-0.22576347
-2.458843	လုံး	-0.34884068
-2.8870003	ရပ်	-0.2568634
-3.870278	သဏ်	-0.5032532
-3.4997222	ဌာန်	-0.3899908
-3.1915553	မုန့်	-0.26040334
-2.9525077	ဖတ်	-0.44382328
-2.8408918	အား	-0.26825574
-2.7893887	မီး	-0.19291663
-2.9525077	တောက်	-0.3815016
-2.8750062	ရက်	-0.2732755
-4.006625	တွေး	-0.09342168
-2.830091	ဆ	-0.40591145
-3.6830697	လျော့	-0.3378532
-3.0131109	ရဲ	-0.24971971
-2.9120305	ယူ	-0.40087354
-3.1915553	ထုံး	-0.3113747
-3.0835638	လင်း	-0.22314544
-3.4997222	သိုက်	-0.28920114
-3.302727	တူး	-0.3251625
-3.4997222	သဲ	-0.20979948
-2.8519683	ကွဲ	-0.6489335
-4.006625	နိမ်	-0.14653182
-2.743351	မိ	-0.35294068
-3.4997222	ဖီ	-0.28068262
-2.997149	နိုင်	-0.37176183
-3.6830697	ဖျောက်	-0.38746217
-3.1915553	ဖျက်	-0.4962824
-3.870278	စူ	-0.16932715
-4.006625	ဠာ	-0.09342168
-4.006625	ဏိ	-0.09342168
-3.10312	ပြည့်	-0.33579016
-3.6830697	ဖြိုး	-0.25168812
-3.4997222	ကြွပ်	-0.63997006
-3.7666636	ငုပ်	-0.27986124
-3.6830697	လျှိုး	-0.27986124
-3.452528	ရု	-0.19139938
-3.5526774	ဏာ	-0.1504082
-3.0835638	ကြေး	-0.26989838
-3.7666636	ထွန်း	-0.18383335
-2.8195522	ငယ်	-0.32007214
-3.0835638	ရုပ်	-0.20915654
-2.9668844	ကြောင်	-0.28072387
-3.1677017	ကျား	-0.3119454
-2.2419434	စ	-0.38268763
-3.452528	ရိတ်	-0.23138624
-3.870278	သူ့	-0.09342168
-2.8195522	ခြေ	-0.22604667
-2.7893887	ကြား	-0.3421059
-3.2721546	ဆူး	-0.17897421
-2.7797825	အိုး	-0.4196681
-2.981753	ကင်း	-0.22983769
-3.7666636	ညှို့	-0.38469756
-2.3104022	သား	-0.44998032
-2.693863	နီ	-0.42181793
-3.0835638	လန်	-0.445558
-3.5526774	ဖျင်း	-0.31812346
-2.6637495	ပစ်	-0.53637636
-2.9251082	ပြေး	-0.42671454
-3.5526774	လွှား	-0.8042832
-3.6830697	ထန်း	-0.117130026
-4.206341	နွှေး	-0.09342168
-2.997149	သန်	-0.37016356
-3.6830697	လျက်	-0.27673078
-2.8633344	တီး	-0.4002427
-3.4997222	နံ့	-0.30712685
-2.830091	ကြမ်း	-0.5532252
-3.0648506	လောင်း	-0.33443436
-4.206341	မျာ	-0.09342168
-4.206341	ရွှံ့	-0.09342168
-4.0893326	ညွန်	-0.09342168
-3.6830697	ပျောင်း	-0.38746217
-3.3356156	စွယ်	-0.33236885
-2.8993351	စုံ	-0.2841464
-3.1235983	တု	-0.27996328
-3.6830697	ဘဲ	-0.15236272
-3.029682	မြီး	-0.24072954
-2.9525077	အုပ်	-0.35059
-3.2167954	ဆိုင်း	-0.3593656
-3.029682	ထည်	-0.45215863
-3.3356156	လောက်	-0.30604285
-3.3712003	အောက်	-0.14708546
-2.7797825	လူ	-0.18889336
-4.006625	လှုံ	-0.28778756
-3.4997222	ဝိ	-0.14666139
-4.0893326	ညာဉ်	-0.09342168
-3.3712003	ဂြိုဟ်	-0.3251625
-3.870278	မွှေ	-0.5032532
-3.4997222	ငုတ်	-0.3312605
-3.3712003	ကုပ်	-0.29849073
-3.302727	ဝမ်း	-0.14549197
-4.006625	ဟု	-0.12809728
-3.452528	သု	-0.17873593
-3.0835638	ခိုး	-0.23708482
-3.0131109	ထုတ်	-0.42537352
-3.1915553	ကွယ်	-0.3751486
-3.2721546	သိုး	-0.28740692
-3.3356156	ဆောင်း	-0.34452984
-3.0648506	ဝိုင်း	-0.3921332
-2.997149	နေ့	-0.33091122
-3.1450906	ည	-0.21017434
-3.6830697	ရိက်	-0.16578364
-4.0893326	ခာ	-0.16578364
-3.10312	ချောင်း	-0.2720284
-2.9668844	ခေါက်	-0.28040868
-3.3712003	ဘု	-0.36727086
-3.029682	ရင်	-0.17339331
-3.870278	ဖျော်	-0.13537747
-3.452528	ဖြေ	-0.27401
-2.7262206	သတ်	-0.45880252
-3.452528	မုန်း	-0.24029239
-4.206341	ရုက်	-0.09342168
-3.1915553	ဗေ	-0.6708174
-2.9525077	ဖြူ	-0.41453132
-2.997149	တုံး	-0.33696592
-2.8408918	ဝါး	-0.3046267
-3.1450906	ယား	-0.26347008
-3.870278	ကျန်း	-0.17982078
-3.4099631	စဉ်း	-0.2206099
-4.006625	ယိုး	-0.13537747
-3.1235983	စွပ်	-0.3459135
-2.7797825	ရောင်	-0.5525653
-3.0469103	လင်	-0.28030252
-2.7992122	ရှိ	-0.562052
-3.0648506	တေ	-0.24561761
-2.596503	ဆေး	-0.3461467
-4.0893326	ဖိမ့်	-0.09342168
-3.302727	တုန်	-0.34355882
-3.6830697	ပျော့	-0.21508467
-3.302727	ကြွ	-0.3093383
-3.4997222	ချွန်	-0.3899908
-4.206341	ဒုံ	-0.09342168
-3.1677017	မဲ	-0.22277501
-2.596503	လိုက်	-0.5339684
-3.302727	ခွေး	-0.18697442
-2.8519683	ကွက်	-0.46572652
-2.9525077	စေ့	-0.2752115
-3.6830697	လှည်း	-0.17119601
-3.3356156	ထမ်း	-0.25502506
-3.302727	သည်း	-0.19801141
-2.997149	အေး	-0.37496307
-2.9120305	ခန်း	-0.400823
-3.0648506	ပိုင်း	-0.39109176
-3.1915553	ကဲ	-0.36170775
-3.452528	လှ	-0.46254146
-4.006625	ဘဏ်	-0.13537747
-4.0893326	ဍာ	-0.09342168
-2.4680142	တစ်	-0.22197488
-3.029682	ဖျား	-0.40353596
-3.2167954	အူ	-0.17928456
-3.870278	ညံ့	-0.16932715
-2.743351	မာ	-0.32158643
-2.6785452	န	-0.25213376
-3.2435935	တွက်	-0.3113747
-3.1235983	သေး	-0.25425112
-3.10312	ယောင်	-0.22516693
-2.6861365	တိ	-0.25122306
-2.8092632	တောင်	-0.25904337
-4.206341	ဆဋ်	-0.09342168
-3.452528	ဌ	-0.23199493
-4.006625	ရှေး	-0.105346546
-2.8408918	စဉ်	-0.36964232
-3.1235983	ပိုက်	-0.31603402
-2.997149	ထုပ်	-0.4465158
-3.2435935	ကိုး	-0.23161235
-3.3712003	ကန့်	-0.34859812
-3.3356156	ဆိတ်	-0.26057607
-3.4997222	နို့	-0.1423763
-2.938592	ဆီ	-0.33724818
-2.7262206	ပင်	-0.41128618
-3.6129982	ဟုတ်	-0.13686071
-4.006625	တယ်	-0.16578364
-2.7893887	လီ	-0.26770225
-4.206341	ဗီး	-0.09342168
-3.1235983	ရှင်း	-0.6167411
-3.6129982	နွား	-0.127023
-2.997149	နင်း	-0.5006175
-3.3712003	ရှု	-0.25697243
-3.2167954	စောင်	-0.52114034
-2.572272	ရည်	-0.37108985
-3.2721546	လု	-0.21281677
-3.452528	ကျူး	-0.51394445
-2.9120305	ကျော်	-0.4130502
-2.8092632	မြေ	-0.2093962
-2.9525077	ခွဲ	-0.5166097
-3.3712003	ကြပ်	-0.33696592
-3.6129982	မြော်	-0.38746217
-3.6830697	ဒုက်	-0.3378532
-4.206341	သုက်	-0.09342168
-3.870278	ထီ	-0.17982078
-3.1235983	ဖွင့်	-0.656942
-3.6830697	ဖပ်	-0.1546783
-2.938592	ပေါင်	-0.33671862
-3.6129982	နှာ	-0.11324775
-2.743351	ခေါင်း	-0.26813936
-3.302727	ကျည်	-0.28921905
-4.006625	ပွေ့	-0.12809728
-3.1235983	တွေ့	-0.47960535
-3.1450906	ဆုံး	-0.406713
-2.938592	မိုး	-0.22356081
-3.4997222	ညင်း	-0.32156795
-3.2167954	ဇာတ်	-0.2249968
-3.6129982	မြှုပ်	-0.38900572
-2.938592	ကျောက်	-0.2889371
-2.9668844	သွေး	-0.17467275
-2.997149	ဓ	-0.27042454
-3.6129982	လေ့	-0.26339102
-3.4997222	ယောက်	-0.19054036
-3.4099631	မား	-0.34452984
-3.2167954	မင်	-0.29694968
-3.870278	ပိန်း	-0.109082565
-2.8092632	ရိုက်	-0.59872156
-2.8092632	ပိုး	-0.30023453
-2.743351	ကောင်	-0.54844165
-3.1915553	ကြော်	-0.62934613
-2.2945747	ကျ	-0.68137044
-3.1677017	ညာ	-0.1806342
-2.506768	တာ	-0.41013518
-2.572272	ပါ	-0.4190215
-3.4997222	တေး	-0.23470466
-3.7666636	ကျေး	-0.10467537
-3.4997222	ပြစ်	-0.15089679
-3.870278	သော့	-0.14067128
-3.5526774	ဆွမ်း	-0.20513022
-3.5526774	တွန့်	-0.26431373
-2.9525077	လိပ်	-0.32625932
-3.870278	ငတ်	-0.13537747
-3.0648506	စိုက်	-0.41851375
-3.6830697	ပျိုး	-0.18383335
-4.006625	စွေ့	-0.09342168
-3.7666636	နဲ	-0.20667596
-4.006625	ဗျာ	-0.09342168
-3.6830697	ဗိုလ်	-0.12966959
-3.3356156	မှူး	-0.49765924
-3.6129982	လွှ	-0.31812346
-3.2435935	မှုတ်	-0.51611465
-2.8750062	ဆိုး	-0.42366296
-3.4997222	ရွယ်	-0.24534501
-3.6129982	မော်	-0.19866323
-3.5526774	ကြွား	-0.32450402
-3.4997222	လွန်း	-0.18562874
-2.5842185	တိုင်	-0.6038132
-3.3712003	ခေတ်	-0.21749598
-2.938592	တင်း	-0.28066632
-3.0835638	ဓာတ်	-0.25442502
-4.206341	ခြုပ်	-0.09342168
-3.5526774	ဒူး	-0.111991696
-3.6129982	ဂါ	-0.1172792
-4.206341	မုံး	-0.09342168
-2.628826	ပြန်	-0.39619794
-3.0131109	သစ်	-0.18972021
-3.6129982	စုန်း	-0.30835187
-2.9668844	ဝန်	-0.33521065
-2.628826	စက်	-0.41098854
-3.1450906	ခေါ်	-0.36170775
-3.4997222	မုန်	-0.17777526
-2.8408918	ဥ	-0.25529966
-3.302727	နန်း	-0.15276392
-3.2721546	မြစ်	-0.22940099
-2.8092632	ခြောက်	-0.42393887
-3.3712003	မြတ်	-0.33696592
-3.3356156	နိုး	-0.30033892
-4.206341	ဗျစ်	-0.09342168
-2.8092632	ခတ်	-0.66224265
-3.6830697	ချွဲ	-0.16218491
-3.4099631	ကျိ	-0.30982447
-4.206341	ပိဏ်	-0.09342168
-4.006625	ဍ	-0.09342168
-3.7666636	ပါတ်	-0.16111112
-3.2721546	ကယ်	-0.35280398
-3.4099631	ရော်	-0.3312605
-2.458843	တင်	-0.5355222
-3.5526774	ရုတ်	-0.16091846
-4.006625	ချွေး	-0.1149978
-2.8993351	ယာ	-0.35059
-3.870278	ဂု	-0.09342168
-3.6830697	ပိန်	-0.16111112
-3.452528	မြို့	-0.21041135
-3.1677017	ရမ်း	-0.31850383
-4.0893326	ပုလ်	-0.20705375
-3.6830697	လိင်	-0.2892525
-3.4099631	ယုတ်	-0.23639554
-3.4997222	ဖာ	-0.27505445
-3.1915553	ဟာ	-0.221934
-3.029682	မောင်း	-0.30846864
-2.8633344	ကွင်း	-0.51458037
-4.006625	ပြိုင်း	-0.13537747
-2.938592	ကြော	-0.29884708
-4.206341	ဇူး	-0.09342168
-2.8870003	တည်	-0.43866944
-3.7666636	ငြိမ်	-0.25168812
-2.6710844	စပ်	-0.42632115
-3.6830697	လင့်	-0.25168812
-3.3712003	ဆုံ	-0.3486436
-2.6861365	လည်	-0.36373672
-2.693863	လ	-0.20056325
-4.206341	ငြူ	-0.09342168
-3.2435935	ကူ	-0.2374479
-2.8408918	ထောက်	-0.40819973
-3.302727	ရား	-0.17731664
-3.4997222	ခန်	-0.4653437
-3.5526774	ဓာ	-0.12093714
-3.6830697	ရွေ့	-0.12297091
-4.0893326	စန်	-0.09342168
-2.8870003	ရစ်	-0.44847667
-3.0648506	ရွက်	-0.30296937
-3.6830697	ဓမ်	-0.30835187
-3.870278	ဓိဋ်	-0.5032532
-3.4997222	မေး	-0.15166034
-3.7666636	ခွန်း	-0.25168812
-3.6129982	နှော	-0.44545412
-3.1450906	ပွား	-0.5495279
-2.8092632	ထွက်	-0.5912925
-2.7893887	ကောက်	-0.3776623
-3.6129982	မြန်	-0.20667596
-2.7611847	ဆန်	-0.40205127
-3.2435935	သင်း	-0.25553843
-3.7666636	မွေ	-0.14907123
-2.997149	နံ	-0.19986229
-3.0835638	ထူ	-0.41969973
-2.8750062	ထောင်	-0.38534206
-3.2167954	ကြံ	-0.21858871
-3.7666636	နှပ်	-0.116228476
-3.2435935	အာ	-0.1466305
-3.0648506	ကျယ်	-0.5130572
-3.2435935	ကိန်း	-0.33006895
-3.6830697	ဘယ်	-0.1149978
-3.7666636	နှ	-0.16578364
-3.3356156	ပို	-0.2484221
-3.4099631	ဘေး	-0.20457894
-3.4997222	ဒေ	-0.21479769
-2.693863	ပြု	-0.73670673
-3.2435935	လွှတ်	-0.43948227
-2.9120305	ရီ	-0.51428574
-3.1450906	မြင်	-0.25662553
-3.2167954	ပျောက်	-0.3718774
-3.870278	သိမ့်	-0.09342168
-2.9525077	ဆို	-0.3998029
-4.006625	လျှင်	-0.37831447
-2.6565366	လေး	-0.33952084
-3.302727	နတ်	-0.16718446
-3.3712003	ကိုင်း	-0.25645283
-3.7666636	သုပ်	-0.6001632
-3.4099631	တွယ်	-0.41920462
-3.3356156	ဝဲ	-0.2846343
-3.870278	ဗွေ	-0.15450259
-3.1235983	ဖောက်	-0.39043963
-3.1450906	ဉာဏ်	-0.34098068
-3.0469103	မီ	-0.4953996
-3.452528	ဖိတ်	-0.24649608
-3.302727	ရောင်း	-0.22372118
-3.1235983	ပြေ	-0.29613477
-3.3712003	ရန်း	-0.58089125
-3.7666636	ဘိ	-0.11041349
-4.206341	ရဋ်	-0.09342168
-4.006625	ညောင်	-0.09342168
-3.870278	လဒ်	-0.28778756
-3.10312	ခို	-0.43838626
-3.4099631	တည့်	-0.46254146
-4.006625	ဃာ	-0.14653182
-2.8750062	ဖ	-0.22366469
-4.206341	ကျွန်ုပ်	-0.09342168
-3.0648506	မူ	-0.25064352
-3.6830697	ဂံ	-0.6793445
-2.9525077	တမ်း	-0.5150399
-4.006625	ဒေါ်	-0.12297091
-3.1915553	သုတ်	-0.27644324
-4.006625	မုံ	-0.28778756
-2.8633344	သည်	-0.5034235
-3.1235983	လိမ်	-0.346235
-3.870278	တျာ	-0.24133414
-3.870278	ဒြ	-0.09342168
-3.7666636	ကျီ	-0.21291445
-3.0469103	နု	-0.24248374
-3.870278	ရှိမ်း	-0.14653182
-4.006625	ပြည်း	-0.37831447
-3.10312	ခု	-0.30088595
-3.3356156	ကြွေ	-0.29557323
-3.5526774	ပျား	-0.17340505
-2.9525077	စွဲ	-0.51172537
-3.3712003	ချော	-0.26395005
-3.870278	ငြိမ့်	-0.12297091
-4.0893326	မြိုင်	-0.09342168
-3.4099631	ကင်	-0.26653433
-3.7666636	ပွန်း	-0.14029963
-2.981753	တပ်	-0.27216366
-3.2167954	ထိ	-0.28734836
-4.0893326	ငြီး	-0.09342168
-3.3712003	စော်	-0.33033782
-3.4997222	ခြံ	-0.4347632
-3.1915553	ပုန်း	-0.2674258
-3.6129982	တန့်	-0.5308256
-4.006625	ရှိန်	-0.13139136
-3.870278	ဇော်	-0.14452803
-3.870278	ဂျီ	-0.16932715
-3.7666636	ဘုံ	-0.15000671
-3.6129982	မျှော်	-0.13537747
-3.2721546	ဒီ	-0.21534392
-3.302727	စူး	-0.3486436
-3.0469103	စမ်း	-0.4181732
-4.006625	မျောက်	-0.100891635
-3.6830697	လျှော်	-0.25168812
-4.006625	သွင်	-0.12297091
-3.5526774	မှည့်	-0.38616252
-3.7666636	ခြွေ	-0.09342168
-3.4997222	ရည်း	-0.47920293
-4.206341	ဟိန်	-0.09342168
-3.7666636	ဒူ	-0.09342168
-3.3356156	နီး	-0.21373583
-3.6129982	အိုင်	-0.34859812
-3.10312	ပက်	-0.3259814
-3.2167954	မျိုး	-0.18234827
-3.3356156	မန်	-0.28870896
-2.7992122	ကိုင်	-0.5813705
-3.7666636	ဖို့	-0.21291445
-3.3712003	ဓား	-0.20069134
-2.8195522	ပြား	-0.6135197
-3.1235983	ချည်	-0.3006933
-3.7666636	မျှင်	-0.21508467
-3.0835638	ရှည်	-0.48727083
-3.302727	ချော်	-0.47178304
-3.4997222	သွတ်	-0.32156795
-3.302727	မျဉ်း	-0.20700297
-2.981753	မှတ်	-0.3403694
-4.006625	ဖွတ်	-0.09342168
-2.3726933	ထိုး	-0.6538135
-3.5526774	ရွာ	-0.1149978
-3.2721546	ဓိ	-0.20057815
-4.0893326	မာသ်	-0.20705375
-3.2721546	ခြမ်း	-0.4398647
-2.6355896	လုပ်	-0.41548693
-3.6830697	ရှေ့	-0.099523894
-3.1450906	ဖွဲ့	-0.5012537
-3.4099631	ဖိုး	-0.25257552
-3.2721546	ဘူး	-0.3459135
-3.4997222	ပြုတ်	-0.30033892
-2.7797825	တူ	-0.33333272
-3.6830697	မောင်	-0.10610282
-3.2167954	ထီး	-0.29545447
-3.1677017	ကု	-0.27920726
-2.9668844	ဖြတ်	-0.3718456
-3.2167954	ရှာ	-0.35920498
-3.6129982	မြဲ	-0.44545412
-4.206341	မဉ်	-0.09342168
-3.870278	ဇူ	-0.12809728
-2.8870003	မွေး	-0.3202603
-4.0893326	ရာဇ်	-0.09342168
-3.2721546	စွမ်း	-0.2735146
-3.5526774	ဆပ်	-0.31178814
-3.2721546	စံ	-0.21975467
-4.006625	မှင်	-0.09342168
-3.1450906	များ	-0.35454994
-3.1235983	ကျပ်	-0.33010286
-3.870278	ဏု	-0.12809728
-3.6830697	မြူ	-0.19229114
-3.7666636	ဗုံး	-0.19229114
-2.6424603	ကပ်	-0.52266026
-2.8633344	ပြော	-0.40782267
-3.3356156	ကော်	-0.15192422
-3.3356156	ရိုင်း	-0.48085076
-3.0131109	သွင်း	-0.7080946
-3.1677017	ချိန်	-0.275273
-4.006625	ဒေါင်း	-0.105346546
-3.4997222	ဆွေး	-0.30835187
-3.3712003	မြင်း	-0.18396309
-4.206341	မြု	-0.09342168
-3.6129982	ရှပ်	-0.18383335
-3.3712003	လျှော	-0.49472615
-3.3356156	ဆော်	-0.41465873
-3.452528	ဩ	-0.21389952
-3.3712003	လန့်	-0.26229498
-3.4099631	ကျွေး	-0.25236157
-3.6129982	တုံ့	-0.20250377
-3.0469103	လှည့်	-0.4814214
-4.206341	ဏေ	-0.09342168
-3.6830697	ကမ်	-0.22269674
-4.006625	ပည်း	-0.28778756
-3.2435935	စွန်း	-0.37300736
-2.9668844	နောက်	-0.17631155
-3.0648506	ထပ်	-0.3143303
-3.3356156	နုတ်	-0.3683824
-3.5526774	ဘော်	-0.19229114
-3.10312	ဒါ	-0.25903964
-3.3356156	စို့	-0.3650035
-3.2435935	ပို့	-0.39210927
-3.302727	ခွေ	-0.5622538
-3.2167954	ချပ်	-0.42852467
-3.870278	ဆံ့	-0.27986124
-3.6129982	ရယ်	-0.19229114
-4.0893326	ဘိုး	-0.09342168
-3.870278	ကွတ်	-0.21291445
-3.302727	ရှူး	-0.20250377
-3.4997222	သန့်	-0.3205154
-2.8993351	သင့်	-0.6810366
-2.830091	ကြောင်း	-0.35944045
-3.3356156	စေး	-0.30125782
-3.6830697	နှဲ	-0.12297091
-3.4099631	မော	-0.26103362
-3.6830697	ယျ	-0.38746217
-3.2167954	ကျင့်	-0.25443476
-4.0893326	နိက်	-0.09342168
-2.981753	သိ	-0.25062534
-3.6830697	အုတ်	-0.12156554
-3.5526774	မြှောက်	-0.20910983
-3.870278	တင့်	-0.12809728
-3.302727	တောင့်	-0.28585717
-3.3356156	ပယ်	-0.3486436
-3.6830697	ဆည်း	-0.2625944
-3.2167954	ရိပ်	-0.24644299
-3.3356156	သန်း	-0.38925245
-4.0893326	ဒွိ	-0.14653182
-3.1235983	ကန်း	-0.39304477
-4.006625	တြာ	-0.28778756
-3.1235983	ကျောင်း	-0.27492663
-3.6129982	ရှက်	-0.16080515
-3.6830697	ပြုံး	-0.2309733
-4.206341	ဘောက်	-0.09342168
-3.0648506	ချာ	-0.47949654
-3.302727	လစ်	-0.33161467
-3.6830697	ဖောင်း	-0.2032007
-3.302727	ဝေး	-0.3747545
-3.870278	ကေ	-0.12297091
-3.2721546	ထု	-0.29188207
-3.2167954	လွှဲ	-0.41147664
-3.2435935	အပ်	-0.2677729
-3.1235983	ပေ	-0.14810786
-3.870278	ဖီး	-0.13537747
-2.7097404	ပြ	-0.4874443
-3.4997222	ညွတ်	-0.32156795
-2.6861365	ဝ	-0.27739662
-3.3712003	တော့	-0.33720237
-3.5526774	ရွ	-0.34245735
-3.3712003	ကြာ	-0.1909662
-3.7666636	ကက်	-0.10610282
-3.10312	ချေး	-0.3593656
-3.10312	ရိ	-0.28935558
-3.2435935	စိ	-0.15822692
-3.10312	ပွင့်	-0.5364154
-3.0835638	ညီ	-0.4026164
-3.6129982	နောင်	-0.1568954
-3.3356156	စို	-0.3492716
-3.6129982	စွတ်	-0.22347215
-3.6830697	ရှုံး	-0.30284062
-2.8633344	ပေါ်	-0.46510446
-3.3356156	မန်း	-0.2484221
-3.7666636	ကျိုက်	-0.21291445
-2.9525077	ခါ	-0.29944542
-3.4997222	ပြီး	-0.18562874
-3.870278	အင်း	-0.12434352
-2.701729	ရှင်	-0.40254793
-4.206341	ပြယ်	-0.09342168
-3.870278	ဖုန်း	-0.09342168
-4.006625	ညွှန်	-0.09342168
-3.3356156	ဆုပ်	-0.79967093
-3.870278	ဘွား	-0.11389314
-3.2721546	ရုံး	-0.30580947
-4.0893326	ဋာ	-0.20705375
-3.6129982	ပင်း	-0.25236157
-3.1677017	လျား	-0.56111974
-3.4997222	ဒဏ်	-0.68572754
-3.870278	အုန်း	-0.10118152
-3.5526774	စွန်	-0.18772428
-3.7666636	သေ့	-0.16111112
-3.029682	ဖော်	-0.31140673
-4.0893326	ဂေါ	-0.09342168
-3.6830697	ဗျိုင်း	-0.30835187
-3.7666636	ကိ	-0.38746217
-3.7666636	ဝဋ်	-0.12809728
-3.1915553	နစ်	-0.33098525
-4.006625	ပဉ်	-0.18182424
-3.1915553	ပွတ်	-0.24633561
-3.302727	ဟင်း	-0.241929
-3.0835638	ဆင်း	-0.55091524
-2.8870003	တို	-0.43929723
-3.7666636	သို	-0.16932715
-3.452528	ပိ	-0.16517545
-3.7666636	ဆွေ	-0.12297091
-3.5526774	ပျို	-0.16552846
-3.4997222	မှုန်	-0.30982447
-3.6830697	အိပ်	-0.10220399
-4.0893326	ဠိ	-0.14653182
-2.7097404	သေ	-0.2912158
-4.206341	ချွေ	-0.09342168
-3.6830697	မိတ်	-0.15763694
-3.3712003	ခွာ	-0.25257552
-3.3356156	လျှာ	-0.16880909
-3.1915553	ဖူး	-0.30552056
-3.0835638	ခြား	-0.48788863
-2.8870003	တိုး	-0.2833903
-3.4997222	မြှောင်	-0.4761559
-3.7666636	လှိုက်	-0.14029963
-3.4997222	ကို	-0.18039142
-3.4997222	ကြုံ	-0.34859812
-4.006625	ယုံ့	-0.09342168
-4.006625	ရွဲ့	-0.16578364
-3.870278	ဖြော	-0.24133414
-3.302727	နိ	-0.16255583
-4.206341	မုဉ်	-0.09342168
-3.0835638	စေ	-0.40349284
-3.5526774	နှောင်း	-0.30284062
-3.2435935	တား	-0.45010123
-3.3356156	ချမ်း	-0.28620756
-3.7666636	ဖြီး	-0.27986124
-4.0893326	ဇယ်	-0.09342168
-3.870278	ဟူး	-0.19369616
-3.10312	အောင်	-0.25258124
-3.6129982	လှမ်း	-0.2990758
-3.1677017	ထူး	-0.26201284
-3.10312	နယ်	-0.33120906
-3.4997222	မာန်	-0.17063452
-3.6830697	မှောင်	-0.17671272
-3.6830697	မိုက်	-0.16538498
-2.9525077	စီ	-0.3560229
-3.6830697	ယွင်း	-0.38900572
-4.0893326	ဧ	-0.10610282
-3.3712003	ယက်	-0.29557323
-4.206341	ပုသ်	-0.09342168
-2.997149	သုံး	-0.24078657
-4.206341	ပည့်	-0.09342168
-3.3712003	နှံ	-0.48085076
-3.0835638	ပဲ	-0.19513322
-3.1915553	ကျင်	-0.35187998
-3.4997222	ခပ်	-0.35527748
-4.0893326	ယင်း	-0.09342168
-3.5526774	နှမ်း	-0.23538539
-3.7666636	ငေါ့	-0.38469756
-2.8750062	ပူ	-0.28561822
-3.870278	ဖင်	-0.09342168
-4.206341	ဈာန်	-0.09342168
-3.870278	ယီ	-0.24133414
-3.0648506	ရန်	-0.18447444
-3.6830697	ဖုတ်	-0.17594725
-3.3712003	ဟန်	-0.1825618
-3.5526774	ယပ်	-0.23470466
-3.870278	အီ	-0.09342168
-4.006625	မိန်း	-0.21291445
-3.5526774	မု	-0.11389314
-4.206341	ဝဇ်	-0.09342168
-4.206341	ဇန်း	-0.09342168
-2.8993351	နည်း	-0.35766548
-3.452528	ဟော	-0.25257552
-3.452528	ဖွယ်	-0.3899908
-2.830091	ပေါင်း	-0.32914397
-3.870278	ညား	-0.14653182
-4.0893326	ဒာ	-0.09342168
-3.4099631	ကျွတ်	-0.50010586
-2.8195522	သီ	-0.34475628
-3.302727	နပ်	-0.24392457
-3.6129982	ဆွယ်	-0.30284062
-3.5526774	ပွက်	-0.26431373
-3.4099631	ဆူ	-0.24981578
-3.302727	ပေါ့	-0.40906957
-3.7666636	ချို့	-0.21144186
-4.0893326	ငဲ့	-0.09342168
-3.302727	ကျက်	-0.41468063
-3.7666636	ဋီ	-0.30154175
-3.4099631	ချဲ့	-0.51394445
-4.0893326	ဗော	-0.09342168
-3.302727	လှန်	-0.5790471
-3.5526774	ရူ	-0.20246059
-3.7666636	နှက်	-0.38469756
-4.006625	စန့်	-0.09342168
-3.870278	ရန့်	-0.28778756
-4.206341	ချိုင်း	-0.09342168
-3.10312	လတ်	-0.37903225
-3.6129982	ဝံ	-0.17594725
-4.006625	ခိ	-0.16578364
-4.206341	လုံ့	-0.09342168
-2.997149	ရောက်	-0.6764942
-3.0469103	ကတ်	-0.34117192
-3.7666636	ဖဲ့	-0.25168812
-3.2721546	ဝန်း	-0.5902825
-2.9668844	နက်	-0.33603248
-3.3356156	ထင်	-0.18193099
-4.0893326	ဏှ	-0.09342168
-3.4997222	ဂူ	-0.3899908
-3.6830697	အန်	-0.16154832
-3.4997222	မှို	-0.26103362
-4.206341	ကုမ်	-0.09342168
-3.870278	ဝဂ်	-0.12809728
-4.006625	ဗျည်း	-0.14653182
-3.0835638	တွဲ	-0.4330637
-3.0469103	ဝေ	-0.2464538
-3.6830697	ဖျင်	-0.3378532
-3.7666636	မြ	-0.17982078
-2.8519683	ခွက်	-0.5191216
-3.870278	ပြွန်	-0.5032532
-2.981753	တီ	-0.36475834
-3.4997222	ချီး	-0.21373583
-3.870278	မြှင့်	-0.28778756
-3.452528	ဌာ	-0.22705324
-3.7666636	နာမ်	-0.30154175
-3.6129982	ကြောင့်	-0.23126054
-4.006625	ကြ	-0.09342168
-3.870278	ငြောင့်	-0.14653182
-3.4997222	လုတ်	-0.29337734
-3.1915553	မှား	-0.4962824
-4.206341	ဂေါ်	-0.09342168
-4.0893326	ဘိက်	-0.09342168
-4.006625	ကျွက်	-0.12297091
-3.7666636	ဟောက်	-0.27986124
-4.206341	ညဉ့်	-0.09342168
-3.2167954	ယံ	-0.7976366
-3.452528	ပီ	-0.17233288
-3.3356156	ဈေး	-0.16367525
-4.0893326	ဂျိန်	-0.09342168
-4.0893326	ဖော့	-0.09342168
-3.4099631	မံ	-0.27401
-3.6830697	ယောင်း	-0.20250377
-3.5526774	ညစ်	-0.16544786
-4.0893326	ထတ်	-0.09342168
-3.6129982	ဂန်	-0.14029963
-3.7666636	ခြင်	-0.14907123
-3.3356156	သိမ်	-0.41920462
-4.0893326	ပြီ	-0.09342168
-4.206341	သွာ	-0.09342168
-3.5526774	ပင့်	-0.19229114
-3.2435935	ဆင့်	-0.3295231
-3.4099631	မြင့်	-0.28920114
-4.0893326	ယဉ့်	-0.16578364
-3.870278	ညှော်	-0.18871003
-3.6129982	ချောက်	-0.22652514
-3.7666636	ချား	-0.27986124
-3.6830697	ဖွာ	-0.2625944
-4.006625	ဓု	-0.13537747
-2.7992122	မှု	-0.3923111
-3.6830697	ပြန့်	-0.2309733
-3.870278	ကျဲ	-0.13537747
-3.6830697	ပုဒ်	-0.27673078
-4.006625	အံ	-0.10353677
-3.4997222	မုတ်	-0.25168812
-3.5526774	ကျိတ်	-0.21601802
-3.870278	ညှိုး	-0.17982078
-3.4099631	စော	-0.33720237
-4.206341	ရှိန်း	-0.09342168
-4.006625	ဖိန်း	-0.16578364
-4.206341	ဒွန်	-0.09342168
-4.0893326	ညု	-0.09342168
-4.0893326	နွတ်	-0.09342168
-2.6861365	ထ	-0.5231593
-4.0893326	လျော	-0.20705375
-3.4997222	မြောင်း	-0.42777938
-3.3356156	ဖြောင့်	-0.3918635
-4.0893326	ဒုဗ်	-0.09342168
-4.206341	ရွား	-0.09342168
-3.870278	ရှယ်	-0.14653182
-3.029682	အင်	-0.3597384
-3.2721546	ခွင်	-0.33298665
-2.938592	တည်း	-0.590551
-3.870278	ဟူ	-0.14029963
-3.5526774	လှယ်	-0.3899908
-3.870278	ကြိုင်	-0.28778756
-4.0893326	နွင်း	-0.09342168
-3.1677017	ဏ	-0.25425112
-3.5526774	ကွာ	-0.24598129
-3.5526774	အက်	-0.27986124
-4.206341	ကီး	-0.09342168
-3.6129982	ဃ	-0.17982078
-4.206341	ဂိုး	-0.09342168
-4.206341	လာဘ်	-0.09342168
-3.0648506	ပုပ်	-0.46783
-4.206341	အဏ်	-0.09342168
-3.452528	ခိုက်	-0.32902798
-3.5526774	ဖယ်	-0.27505445
-3.6830697	ဒိ	-0.1191654
-3.3356156	ဖုံး	-0.3918635
-4.206341	ဖွက်	-0.09342168
-3.6129982	ဟပ်	-0.30284062
-3.6129982	စွန့်	-0.25647733
-3.870278	တံ့	-0.24133414
-3.1915553	ပန်	-0.30580947
-3.6129982	ဝေါ	-0.28778756
-3.870278	ဟိတ်	-0.12297091
-3.870278	ကျီး	-0.12532938
-3.870278	လျှပ်	-0.12809728
-3.3356156	ပြက်	-0.2790316
-3.6129982	နွဲ့	-0.30284062
-4.0893326	ဇောင်း	-0.09342168
-4.006625	နိစ်	-0.16578364
-3.7666636	နှေး	-0.12297091
-3.4099631	ယာဉ်	-0.3486436
-3.452528	ကြဲ	-0.5837568
-4.206341	ကုဗ်	-0.09342168
-3.3712003	ပျဉ်	-0.3683824
-3.3356156	စုတ်	-0.28689906
-3.3356156	သပ်	-0.25257552
-3.7666636	မြှေး	-0.6001632
-4.006625	ကြဉ်	-0.16578364
-2.8750062	ဖက်	-0.29997143
-4.0893326	ဗိ	-0.09342168
-4.006625	မှိန်	-0.37831447
-3.7666636	အေ	-0.24133414
-3.6830697	ဒိုး	-0.21508467
-3.870278	ဒေါက်	-0.09342168
-3.4099631	ကျွန်း	-0.23154393
-3.3712003	ထစ်	-0.3251625
-3.1915553	ဟ	-0.25713757
-3.1677017	လောင်	-0.26391733
-3.4997222	နှီး	-0.31722987
-3.3712003	နှုန်း	-0.58089125
-3.6129982	ဆန့်	-0.2892525
-4.0893326	ဗန်	-0.09342168
-3.870278	ငန်	-0.14653182
-2.6861365	သီး	-0.39231002
-4.006625	နှုတ်	-0.09992054
-3.6129982	သွက်	-0.24849792
-4.006625	ကျုံ့	-0.09342168
-4.206341	ဖျ	-0.09342168
-4.006625	ဖြ	-0.16578364
-3.4997222	ဝယ်	-0.21601802
-3.5526774	တွေ	-0.25168812
-3.302727	ပုတ်	-0.37092
-3.7666636	ပလ်	-0.6001632
-4.006625	ဇီး	-0.14653182
-3.3356156	လွယ်	-0.38925245
-3.6830697	ဖော	-0.16111112
-4.0893326	ငုံ့	-0.16578364
-3.0835638	ကိုက်	-0.6235091
-3.6129982	ပျ	-0.4476698
-4.0893326	ဒြပ်	-0.09342168
-3.5526774	ဆွ	-0.49660665
-3.3356156	ခေါင်	-0.2271711
-3.6129982	ထုံ	-0.24598129
-3.0835638	လွတ်	-0.3469997
-4.0893326	ဆိန်	-0.16578364
-3.7666636	ထိုက်	-0.12297091
-3.7666636	လျောက်	-0.16578364
-3.302727	ဆယ်	-0.27329683
-3.870278	ဘွဲ့	-0.17982078
-3.6129982	ရတ်	-0.3378532
-4.006625	ထွတ်	-0.12809728
-3.7666636	ထိပ်	-0.14067128
-3.3356156	ပြင်း	-0.31064585
-4.006625	ဗိန်	-0.09342168
-4.006625	ဒု	-0.116228476
-3.6830697	ထွင်း	-0.30284062
-4.0893326	နုန်း	-0.09342168
-3.5526774	ဖောင်	-0.27505445
-4.006625	နိဗ်	-0.28778756
-4.206341	ဗာန်	-0.09342168
-3.870278	ပံ့	-0.24133414
-3.2435935	ဝှက်	-0.66521215
-4.0893326	ကျာ	-0.09342168
-4.206341	ဏှိ	-0.09342168
-3.1235983	မျှ	-0.48162025
-4.006625	ဝစ်	-0.16578364
-3.452528	ပြဲ	-0.31812346
-3.870278	ဝုတ်	-0.14653182
-4.206341	ရိုဏ်း	-0.09342168
-2.997149	ချဉ်	-0.45948076
-4.0893326	ဒက်	-0.16578364
-3.870278	ညှစ်	-0.28778756
-3.4997222	ညွှန်း	-0.5423641
-4.206341	ငေး	-0.09342168
-3.870278	ပွေ	-0.24133414
-3.3356156	သိပ်	-0.36030102
-3.3712003	ပြောက်	-0.4544799
-3.7666636	မြန်း	-0.6001632
-4.006625	လွမ်း	-0.12297091
-3.6830697	သယ်	-0.27986124
-4.206341	ဂေ	-0.09342168
-3.7666636	ဇက်	-0.12093714
-4.206341	ဗောက်	-0.09342168
-3.6830697	ဖြဲ	-0.259176
-4.206341	ဘွာ	-0.09342168
-4.006625	နွံ	-0.09342168
-3.2167954	စောင့်	-0.37421143
-3.870278	ဝိန်	-0.14653182
-3.3712003	တွင်	-0.48085076
-3.4997222	ကျွန်	-0.32902798
-3.1235983	ပျံ	-0.4953996
-3.870278	ယှဉ်	-0.12297091
-3.2435935	ပြိုင်	-0.36940166
-3.3712003	ကြယ်	-0.27238572
-4.206341	ဘိန်း	-0.09342168
-4.206341	ဘိုင်	-0.09342168
-3.6129982	ယင်	-0.22705324
-3.870278	ခြိုက်	-0.3205154
-3.6830697	တိန်	-0.17982078
-4.006625	ညင်	-0.13537747
-3.1450906	ချို	-0.3132824
-3.5526774	ကျွမ်း	-0.2786905
-3.4997222	ညှိ	-0.4761559
-4.206341	ကျတ်	-0.09342168
-3.5526774	သောင်း	-0.20371246
-4.206341	ပုဗ်	-0.09342168
-4.0893326	ကဋ်	-0.09342168
-4.206341	ပဗ်	-0.09342168
-4.206341	ဗဇ်	-0.09342168
-3.7666636	ကြိမ်	-0.20250377
-3.10312	ဖို	-0.49298266
-3.1450906	ဆစ်	-0.45934403
-3.3356156	ညောင်း	-0.2786905
-4.0893326	ဂါး	-0.116228476
-3.7666636	လွင်	-0.3205154
-3.7666636	ရွပ်	-0.23126054
-3.4099631	ဖား	-0.19543985
-3.452528	ချင်	-0.12297091
-4.206341	ဿံ	-0.09342168
-3.6129982	အောင်း	-0.27673078
-3.6830697	ချိ	-0.2625944
-4.206341	အော့	-0.09342168
-4.206341	ချော့	-0.09342168
-4.006625	မြှူ	-0.16578364
-4.0893326	ဝိဇ်	-0.20705375
-4.006625	ဇီ	-0.116228476
-3.4997222	ဖြုတ်	-0.39067414
-3.6830697	သို့	-0.15457095
-4.0893326	မို့	-0.09342168
-3.452528	တွန်း	-0.2970958
-3.1235983	လွှာ	-0.7771859
-3.7666636	နှိမ်	-0.3205154
-4.006625	မေတ်	-0.16578364
-3.5526774	လျင်	-0.28920114
-3.870278	ခုပ်	-0.2309733
-3.870278	မိုင်	-0.14653182
-3.7666636	ဖြုန်း	-0.2309733
-3.3712003	တုပ်	-0.3650035
-3.6830697	ပျာ	-0.21056063
-4.006625	လိုင်း	-0.14653182
-4.206341	ငင်း	-0.09342168
-4.0893326	မုဒ်	-0.09342168
-3.870278	ကွန်း	-0.12532938
-4.006625	ဖျပ်	-0.09342168
-3.870278	မှောင့်	-0.24133414
-4.206341	ရောင့်	-0.09342168
-3.7666636	လော်	-0.11389314
-4.0893326	ထို	-0.09342168
-3.870278	လှိုင်း	-0.14907123
-3.870278	ခွပ်	-0.14653182
-4.006625	သည့်	-0.09342168
-2.9525077	ပြင်	-0.40254688
-3.3712003	ကွေး	-0.42285883
-4.206341	ပြုဗ်	-0.09342168
-3.870278	ပိုဒ်	-0.28778756
-3.870278	တေ့	-0.09342168
-3.1450906	လွဲ	-0.40591145
-3.1450906	ငင်	-0.6910208
-4.006625	နှိုင်း	-0.116228476
-3.5526774	မေ့	-0.17982078
-3.7666636	ကျွံ	-0.38469756
-3.10312	ပု	-0.2352207
-3.870278	ရှ	-0.21291445
-3.1915553	နှင့်	-0.34919825
-4.206341	ခြွင်း	-0.09342168
-4.006625	ရမ်	-0.16578364
-3.870278	ဘား	-0.24133414
-4.206341	ကဏ်	-0.09342168
-4.0893326	ဆွန်း	-0.20705375
-3.7666636	ဇဉ်	-0.6001632
-3.7666636	ယန်	-0.30154175
-3.6830697	ရှစ်	-0.1191654
-4.206341	ဒေါင့်	-0.09342168
-4.006625	ဇွန်း	-0.37831447
-3.6830697	ထွင်	-0.3205154
-4.0893326	ပါဌ်	-0.09342168
-4.206341	ဈာ	-0.09342168
-3.3712003	ကြို	-0.23470466
-4.006625	ကျိန်း	-0.12809728
-3.1450906	ကျေ	-0.406713
-4.206341	နောင့်	-0.09342168
-4.0893326	ဗူ	-0.09342168
-3.2721546	လိ	-0.22063753
-3.6129982	ဇော	-0.15450259
-3.302727	မှောက်	-0.3650035
-4.206341	ပိုင့်	-0.09342168
-3.5526774	အော်	-0.19330336
-3.1915553	ချိတ်	-0.55750734
-3.452528	ဝပ်	-0.39067414
-4.0893326	ယွန်	-0.09342168
-3.7666636	ဘင်	-0.16111112
-3.4099631	ခက်	-0.41920462
-4.0893326	ဆယ့်	-0.09342168
-3.7666636	ရို့	-0.3205154
-3.6830697	ထင်း	-0.19229114
-3.302727	ချေ	-0.55271816
-4.006625	ပြိုက်	-0.14653182
-4.206341	ဧည့်	-0.09342168
-3.6830697	သိုင်း	-0.21144186
-3.5526774	သွန်	-0.27505445
-2.9120305	ခင်း	-0.4845692
-4.0893326	လဂ်	-0.09342168
-3.6129982	မွတ်	-0.30284062
-3.6830697	ကီ	-0.17671272
-3.870278	ပ်	-0.14653182
-3.2435935	အို	-0.34225506
-3.870278	သော်	-0.18513249
-3.3712003	ခိုင်	-0.28952098
-3.029682	လုံ	-0.3788772
-4.0893326	ဆော	-0.16578364
-3.452528	စွာ	-0.48102474
-4.0893326	နာ့	-0.14653182
-4.0893326	ဖန်း	-0.09342168
-3.0648506	ကျင်း	-0.69170415
-4.006625	ခွေ့	-0.37831447
-4.0893326	ဟန်း	-0.1191654
-3.5526774	ကိစ်	-0.5888176
-4.0893326	ဖြန်	-0.16578364
-3.4997222	ဒေါ	-0.27401
-3.1915553	ပြောင်	-0.35187998
-3.7666636	နွှဲ	-0.38469756
-3.2167954	ခုတ်	-0.34147623
-3.452528	င	-0.16285828
-3.3712003	နှိပ်	-0.38954723
-4.0893326	ထေ့	-0.09342168
-4.206341	ကိုဋ်	-0.09342168
-3.7666636	ကျုံး	-0.13537747
-3.1677017	လံ	-0.27329478
-3.0469103	ချိုး	-0.33589664
-4.006625	ရှိုင်း	-0.37831447
-3.6830697	မှိုင်	-0.21291445
-3.6830697	လှီး	-0.27986124
-3.3356156	ချွတ်	-0.3486436
-4.0893326	ရာ့	-0.09342168
-4.006625	ဇွတ်	-0.12297091
-4.206341	မှက်	-0.09342168
-3.7666636	လိုး	-0.09342168
-3.6830697	သေတ်	-0.5308256
-3.7666636	ကြံ့	-0.18513249
-3.1235983	မြောက်	-0.46783
-3.7666636	နူး	-0.19369616
-3.6129982	ဆောက်	-0.19866323
-3.4997222	လျှံ	-0.4347632
-3.6129982	ရိုင်	-0.14907123
-3.6830697	အစ်	-0.29669988
-3.5526774	ငါ	-0.12809728
-4.006625	ခြာ	-0.24133414
-3.5526774	မြား	-0.30723915
-3.870278	မှိတ်	-0.14653182
-3.7666636	နှံ့	-0.3205154
-3.6129982	ငန်း	-0.20253189
-4.206341	ငပ်	-0.09342168
-3.5526774	ကျော	-0.18562874
-3.7666636	ထန်	-0.38469756
-3.452528	မျော	-0.2412163
-3.870278	လိုင်	-0.13537747
-3.7666636	သွမ်း	-0.380723
-3.452528	ဟောင်း	-0.22433285
-3.7666636	နှောင်	-0.25168812
-3.452528	ချိုင့်	-0.51394445
-3.5526774	ထောင့်	-0.63997006
-3.4099631	ခြစ်	-0.30723915
-3.2721546	ဘက်	-0.2632297
-3.4997222	ညွန့်	-0.2524089
-4.0893326	လိန်	-0.20705375
-3.870278	ယောက်ျား	-0.24133414
-4.0893326	ဖျန်	-0.20705375
-3.4997222	နွေး	-0.19905737
-4.0893326	မိန်	-0.09342168
-3.3356156	ညက်	-0.5308256
-4.206341	ဗြောင်	-0.09342168
-3.6129982	ယိုင်	-0.32612276
-3.6830697	မြွှာ	-0.3378532
-3.7666636	ပူး	-0.21291445
-3.4997222	တွန်	-0.38900572
-4.0893326	ငု	-0.09342168
-3.4997222	ကျဉ်း	-0.26103362
-3.870278	ဒါး	-0.24133414
-3.870278	ဋ	-0.09342168
-3.6830697	ကြိုက်	-0.2892525
-3.3712003	သွယ်	-0.3650035
-3.6129982	ကျည်း	-0.22705324
-3.4997222	ကြွေး	-0.26431373
-3.870278	ငိုက်	-0.1546783
-3.5526774	မောက်	-0.34859812
-4.0893326	ဟော့	-0.09342168
-4.206341	ဉ	-0.09342168
-3.4099631	ဂုဏ်	-0.2337707
-3.5526774	ဆန်း	-0.35591203
-4.206341	ရာယ်	-0.09342168
-3.7666636	ငံ့	-0.19369616
-3.870278	ချည့်	-0.12809728
-3.6129982	နဲ့	-0.38900572
-3.870278	ဖေး	-0.19369616
-4.006625	သောင်	-0.1191654
-4.006625	ကြော့	-0.16578364
-3.870278	လို့	-0.24133414
-3.3712003	ညို	-0.49472615
-4.0893326	တျင်း	-0.09342168
-3.3356156	ဘီ	-0.3055127
-4.206341	ဂျိုက်	-0.09342168
-3.6830697	မွေ့	-0.32612276
-3.1235983	တုတ်	-0.4234295
-4.006625	ငံ	-0.11389314
-4.206341	နိုင့်	-0.09342168
-3.7666636	ဖျဉ်း	-0.19662924
-4.0893326	ပျမ်း	-0.09342168
-4.206341	ဒိတ်	-0.09342168
-3.6129982	ဂီ	-0.24238668
-4.006625	ဇင်	-0.13537747
-4.0893326	ဖြိုင်	-0.09342168
-3.870278	လှိမ့်	-0.28778756
-3.7666636	ဂုံ	-0.25168812
-3.4997222	ထည့်	-0.63997006
-4.0893326	ဆိမ့်	-0.20705375
-3.4099631	ထွေ	-0.23620419
-3.870278	ပျင်း	-0.09342168
-3.1677017	အုံ	-0.4353292
-3.6129982	ဖြည့်	-0.27505445
-3.3356156	မယ်	-0.25022116
-3.452528	နွယ်	-0.36121267
-3.2435935	ငွေ	-0.7464841
-4.0893326	ပမ်း	-0.09342168
-4.006625	တုန်း	-0.09342168
-4.006625	ဖေ	-0.13537747
-3.5526774	နှင်း	-0.16209844
-3.6129982	ခြုံ	-0.27673078
-4.206341	ရိမ်	-0.09342168
-4.0893326	ခြိမ်း	-0.09342168
-4.0893326	ပျော်	-0.09342168
-4.206341	ဂတ်	-0.09342168
-4.006625	ဋိ	-0.09342168
-3.6129982	ဟစ်	-0.3378532
-3.870278	ဘတ်	-0.17982078
-4.006625	ဂျက်	-0.16578364
-3.7666636	ဟို	-0.21508467
-4.0893326	ဒင်း	-0.20705375
-3.4997222	လှုပ်	-0.4761559
-3.5526774	ရှောင်	-0.24029239
-3.3712003	ခင်	-0.27505445
-4.0893326	ဗောင်	-0.09342168
-3.6129982	စိမ်	-0.34859812
-4.206341	ဗြို့	-0.09342168
-3.5526774	ဟတ်	-0.3899908
-4.0893326	ကုဋ်	-0.20705375
-3.7666636	ဆွတ်	-0.14452803
-3.302727	ခွ	-0.4398647
-3.7666636	စဲ	-0.38469756
-3.2721546	ပျစ်	-0.35648268
-4.0893326	ထော	-0.14653182
-3.7666636	မြူး	-0.38469756
-4.006625	ကွန်	-0.09342168
-4.006625	ညွှတ်	-0.16578364
-4.0893326	ငြို	-0.09342168
-4.0893326	ငြင်	-0.20705375
-4.206341	ဓမ်း	-0.09342168
-4.206341	ဖျတ်	-0.09342168
-3.6830697	ရွဲ	-0.6793445
-3.870278	ဒိဋ်	-0.28778756
-3.4997222	မည်း	-0.19866323
-4.206341	ဂိုင်	-0.09342168
-3.870278	ကြုတ်	-0.14653182
-4.206341	ဂျူ	-0.09342168
-3.7666636	ဒို	-0.21291445
-4.206341	ဆာန်	-0.09342168
-3.302727	စင်း	-0.3683824
-3.870278	ပြုံ	-0.09342168
-4.206341	ဒုံး	-0.09342168
-4.006625	ခွင်း	-0.16578364
-3.6129982	ဘောင်	-0.21508467
-3.5526774	အုံး	-0.27673078
-3.6830697	ခိုင်း	-0.16111112
-4.0893326	မျဉ်	-0.20705375
-3.302727	ဆိပ်	-0.37300736
-4.206341	ဒုဂ်	-0.09342168
-3.7666636	ထွာ	-0.38469756
-4.206341	ဒယ်	-0.09342168
-4.006625	မြှုံး	-0.14653182
-3.4997222	တိမ်	-0.27673078
-4.206341	ဘွိုင်	-0.09342168
-4.206341	ပျင်	-0.09342168
-4.0893326	အဲ	-0.09342168
-3.870278	ယိမ်း	-0.13537747
-3.6830697	သုဉ်း	-0.4638788
-4.0893326	ကုက်	-0.13537747
-4.206341	ကုစ်	-0.09342168
-4.0893326	ဇိုင်း	-0.20705375
-3.4997222	ခုံး	-0.27401
-3.870278	ကြင်	-0.15169826
-3.1677017	ရူး	-0.30942172
-3.6129982	ခန့်	-0.18383335
-3.7666636	ဗာ	-0.09342168
-4.0893326	ဒံ	-0.09342168
-4.206341	ယျာဉ်	-0.09342168
-3.3712003	ကုတ်	-0.2822515
-3.5526774	၍	-0.8042832
-3.2721546	ခုန်	-0.31179738
-4.206341	ကွီ	-0.09342168
-4.006625	ပံ	-0.24133414
-3.6129982	ချန်	-0.2309733
-4.006625	သဲ့	-0.16578364
-3.6830697	ဆု	-0.21601802
-3.7666636	ပြူး	-0.3205154
-4.0893326	ဖျံ	-0.20705375
-3.452528	ဖု	-0.27505445
-3.870278	ပြွတ်	-0.24133414
-4.206341	ဒုလ်	-0.09342168
-3.3356156	လှေ	-0.31812346
-4.0893326	နှတ်	-0.09342168
-3.6129982	နွမ်း	-0.34040502
-4.006625	ဒင်	-0.13537747
-4.006625	ချည်း	-0.14653182
-4.0893326	ရှော	-0.09342168
-4.206341	သျှိုး	-0.09342168
-4.006625	ဖဲ	-0.1069615
-3.4997222	မွှေး	-0.28920114
-3.870278	ပျံ့	-0.24133414
-4.206341	ဂျောက်	-0.09342168
-4.206341	ဣန်	-0.09342168
-4.006625	ဒြေ	-0.15450259
-4.0893326	အီး	-0.16578364
-3.452528	ပေါ	-0.25923797
-3.5526774	မြွေ	-0.1392399
-3.7666636	ပပ်	-0.27986124
-4.206341	ခယ်	-0.09342168
-3.5526774	ပုံး	-0.49660665
-3.6129982	ဖွဲ	-0.27673078
-3.4997222	ငို	-0.20667596
-4.206341	ငိုး	-0.09342168
-4.006625	ငေါက်	-0.1191654
-3.6129982	ဖြန်း	-0.19229114
-3.452528	တို့	-0.20294099
-4.0893326	ရှို့	-0.16578364
-3.4099631	ရင့်	-0.27730143
-3.6129982	ယော	-0.2309733
-4.006625	ခေါ	-0.09342168
-4.0893326	သဒ်	-0.14653182
-3.870278	ငြိုး	-0.1546783
-4.206341	ဪ	-0.09342168
-4.0893326	ဝင်း	-0.09342168
-3.3356156	ထာ	-0.26603988
-3.870278	ဘုန်း	-0.11041349
-4.0893326	ဟိုင်း	-0.09342168
-3.5526774	မွှား	-0.49660665
-3.870278	ကျော့	-0.28778756
-4.0893326	ညှီ	-0.09342168
-3.2721546	ချောင်	-0.40906957
-4.006625	ထယ်	-0.1191654
-4.206341	အိုင်း	-0.09342168
-4.206341	အမ်	-0.09342168
-4.206341	ဗုန်	-0.09342168
-4.006625	အတ်	-0.12809728
-4.0893326	ခွန့်	-0.20705375
-3.302727	ခွံ	-0.37092
-3.1677017	ခွန်	-0.40541634
-4.206341	ဖျော့	-0.09342168
-4.0893326	နွှယ်	-0.20705375
-4.0893326	သုဒ်	-0.09342168
-4.0893326	ဒိန်	-0.20705375
-3.870278	ထွန်	-0.14067128
-4.206341	ညတ်	-0.09342168
-3.870278	ဒေါင်	-0.12297091
-4.006625	မှော်	-0.12297091
-3.6830697	နုပ်	-0.27986124
-3.3712003	မူး	-0.2597674
-4.0893326	ဝမ်	-0.09342168
-4.206341	လွေး	-0.09342168
-3.7666636	ခူး	-0.38469756
-3.3712003	ဆိုက်	-0.58089125
-4.0893326	အယ်	-0.09342168
-4.206341	ဒုမ်	-0.09342168
-4.0893326	မဏ်	-0.16578364
-4.206341	ဍိုင်	-0.09342168
-4.206341	ဉတ်	-0.09342168
-4.006625	ထိန်	-0.09342168
-3.7666636	ကြောက်	-0.1302259
-3.870278	ရွံ့	-0.24133414
-4.206341	ဘယ့်	-0.09342168
-3.7666636	နှယ်	-0.12809728
-3.302727	ဆုတ်	-0.30604285
-4.0893326	မုခ်	-0.09342168
-4.206341	ဂွ	-0.09342168
-3.870278	ဖြာ	-0.28778756
-4.006625	နန့်	-0.14653182
-3.2435935	ရှား	-0.4317481
-4.0893326	ဗြုန်း	-0.09342168
-4.0893326	ဗြင်း	-0.09342168
-3.6830697	ထောင်း	-0.27986124
-4.0893326	ဗိုက်	-0.09342168
-3.870278	ညည်း	-0.12297091
-4.0893326	ညူ	-0.16578364
-4.206341	ရွံ	-0.09342168
-3.7666636	ချူ	-0.3205154
-3.2435935	လပ်	-0.37421143
-3.7666636	စိမ့်	-0.17982078
-4.0893326	လဇ်	-0.20705375
-4.206341	သွေ	-0.09342168
-4.206341	ဖည်	-0.09342168
-4.206341	ခေါင့်	-0.09342168
-3.452528	နော	-0.25923797
-4.0893326	ထည်း	-0.20705375
-3.6830697	ဆဲ	-0.3205154
-4.006625	စိန်း	-0.09342168
-3.7666636	ညှာ	-0.13537747
-3.6129982	မေ	-0.16111112
-3.7666636	မြုံ	-0.24133414
-3.870278	သိက်	-0.12809728
-4.006625	ဿာ	-0.09342168
-4.206341	ဗြဲ	-0.09342168
-3.3356156	ယို	-0.34355882
-3.870278	မွဲ	-0.12297091
-4.006625	ပါယ်	-0.24133414
-4.206341	တွပ်	-0.09342168
-3.5526774	ကွမ်း	-0.109082565
-3.3712003	ငွေ့	-0.49472615
-4.0893326	ဗျတ်	-0.20705375
-3.870278	ထော့	-0.20705375
-3.7666636	တဲ့	-0.3205154
-4.006625	စွက်	-0.16578364
-4.006625	ဘောင်း	-0.37831447
-3.4099631	ရွေး	-0.27056867
-4.206341	ခွား	-0.09342168
-4.006625	ယုန်	-0.12297091
-3.870278	လှေး	-0.12809728
-4.006625	ထုံ့	-0.16578364
-4.0893326	ဏန်း	-0.12297091
-4.206341	ရှုတ်	-0.09342168
-4.206341	ညပ်	-0.09342168
-3.1677017	ကံ	-0.20925078
-3.870278	ယုံ	-0.09342168
-4.0893326	ဝှေး	-0.09342168
-3.7666636	ညှင်း	-0.16111112
-4.006625	ဗုဒ်	-0.16578364
-3.870278	မြေး	-0.13537747
-3.2721546	ငှက်	-0.6552942
-3.870278	ဖြင့်	-0.38469756
-4.006625	မွှန်	-0.16578364
-4.0893326	ပုဂ်	-0.20705375
-4.206341	ဝှန့်	-0.09342168
-4.006625	ဖြည်း	-0.12297091
-4.006625	ဒီး	-0.14653182
-3.1450906	ဖိ	-0.42536682
-4.0893326	ရိုဏ်	-0.20705375
-3.3712003	လျော်	-0.22433285
-4.0893326	ညှောက်	-0.20705375
-4.006625	မျို	-0.16578364
-4.006625	မှာ	-0.11389314
-4.206341	ဗွတ်	-0.09342168
-4.006625	လိုဏ်	-0.13537747
-3.1915553	တဲ	-0.4123127
-4.206341	ရှီ	-0.09342168
-3.870278	ဝှေ့	-0.09342168
-4.206341	ရွင်း	-0.09342168
-4.006625	မွ	-0.16578364
-3.6129982	မွန်	-0.34859812
-4.206341	ဆွံ့	-0.09342168
-4.206341	ချူပ်	-0.09342168
-3.4997222	ဖွား	-0.36121267
-4.0893326	အန်း	-0.09342168
-4.0893326	သျှ	-0.20705375
-3.452528	ဝီ	-0.2699772
-4.206341	ဂေး	-0.09342168
-3.870278	မြီ	-0.16578364
-4.006625	ဠ	-0.09342168
-3.870278	ညိတ်	-0.14653182
-4.206341	ဟင်	-0.09342168
-4.0893326	ဌေး	-0.16578364
-4.0893326	ဓါ	-0.13537747
-4.0893326	ပုဏ်	-0.16578364
-4.206341	ဏား	-0.09342168
-3.7666636	ချွန်း	-0.16932715
-3.6129982	လျာ	-0.44545412
-4.006625	အော	-0.14653182
-3.6830697	ချစ်	-0.38746217
-4.206341	ဟိန်း	-0.09342168
-3.6129982	ကျန်	-0.44545412
-4.206341	ဟယ်	-0.09342168
-3.7666636	ကော့	-0.16578364
-4.006625	လျ	-0.14653182
-3.870278	ဗုံ	-0.09342168
-4.0893326	ပိမ့်	-0.20705375
-4.206341	မိုရ်	-0.09342168
-4.006625	ထိမ်	-0.14653182
-3.870278	လဲ့	-0.21291445
-4.0893326	ဂုတ်	-0.09342168
-3.4099631	စောက်	-0.39117593
-3.7666636	ရှုံ့	-0.27986124
-4.006625	မြုပ်	-0.37831447
-4.206341	ရွိုင်	-0.09342168
-3.4099631	ထိုင်း	-0.6215454
-4.206341	သဇ်	-0.09342168
-3.6129982	ဘုတ်	-0.26534864
-3.7666636	ခူ	-0.16932715
-4.0893326	ဒါန်း	-0.09342168
-3.4099631	ယှက်	-0.42285883
-3.870278	ချိပ်	-0.17982078
-3.6830697	မိန့်	-0.16544786
-4.206341	ပြော့	-0.09342168
-3.4099631	ကြေ	-0.29337734
-4.006625	ဟီ	-0.09342168
-3.302727	ကျစ်	-0.46583316
-4.206341	ရှန်	-0.09342168
-3.3356156	ရှုပ်	-0.44040495
-4.0893326	ဝုစ်	-0.09342168
-4.206341	ဆုန်	-0.09342168
-4.206341	မြှိုက်	-0.09342168
-3.1915553	ဿ	-0.16549371
-4.006625	ကျွဲ	-0.11389314
-4.0893326	ဓေ	-0.09342168
-4.006625	ကိတ်	-0.09342168
-4.206341	ခွတ်	-0.09342168
-3.6830697	မြောင်	-0.3205154
-4.0893326	ရှော့	-0.20705375
-3.4099631	လည်း	-0.5949681
-3.2721546	ကျမ်း	-0.29944184
-4.206341	မှိုက်	-0.09342168
-4.206341	ဟွန်း	-0.09342168
-3.870278	အိုက်	-0.24133414
-4.206341	ဘော့	-0.09342168
-4.0893326	နုံ	-0.09342168
-4.006625	ချုန်း	-0.16578364
-4.206341	မြှောင့်	-0.09342168
-3.452528	ရွှင်	-0.31812346
-3.4997222	နှိုက်	-0.49660665
-4.006625	မှီး	-0.37831447
-3.870278	ဘန်	-0.09342168
-4.206341	ပျော	-0.09342168
-3.6830697	နှင်	-0.2309733
-4.0893326	မစ်	-0.09342168
-4.006625	ဇေ	-0.24133414
-4.0893326	သိုလ်	-0.14653182
-3.7666636	ယီး	-0.12297091
-4.206341	ဂေါက်	-0.09342168
-4.0893326	မြုန့်	-0.09342168
-4.0893326	ကြင်း	-0.16578364
-3.6129982	ဂိုဏ်း	-0.38746217
-3.6830697	မှီ	-0.20250377
-4.206341	ဗြာ	-0.09342168
-3.7666636	စိုင်း	-0.38469756
-4.206341	ဆုန်း	-0.09342168
-4.006625	ချွံ	-0.14653182
-3.7666636	ပြို	-0.27986124
-4.206341	တြင်း	-0.09342168
-3.452528	ကြည်	-0.3269952
-3.7666636	ဖြူး	-0.259176
-3.7666636	ဗျူ	-0.4638788
-3.6830697	ဓူ	-0.3205154
-4.0893326	ရှဲ	-0.09342168
-4.006625	ပြုပ်	-0.13537747
-4.206341	မြော့	-0.09342168
-3.870278	ကစ်	-0.14653182
-3.7666636	ယမ်း	-0.14907123
-3.870278	ထော်	-0.12297091
-3.6830697	မိုင်း	-0.21601802
-4.006625	လျဉ်း	-0.09342168
-4.006625	ဖုံ	-0.16578364
-4.006625	ပဏ်	-0.12809728
-4.206341	ဍု	-0.09342168
-3.452528	ကြိတ်	-0.23470466
-4.006625	မွန်း	-0.11389314
-3.7666636	သုန်	-0.2309733
-4.206341	မုက်	-0.09342168
-3.7666636	ချင့်	-0.19369616
-4.0893326	ရိန်	-0.20705375
-4.206341	ဂါမ်	-0.09342168
-4.206341	လျင်း	-0.09342168
-4.206341	ဖင့်	-0.09342168
-4.206341	ဥဒ်	-0.09342168
-4.206341	ဇိမ်	-0.09342168
-4.0893326	ငြာ	-0.09342168
-4.206341	ကြီ	-0.09342168
-4.0893326	ထေ	-0.09342168
-3.6129982	ဆည်	-0.3378532
-4.006625	မို	-0.09342168
-3.6830697	စိပ်	-0.38746217
-4.206341	သျှူး	-0.09342168
-4.0893326	လွေ	-0.20705375
-3.6830697	ကုံး	-0.2309733
-4.206341	ဉာ	-0.09342168
-4.206341	ရဲ့	-0.09342168
-3.2435935	မှုန့်	-1.1053132
-3.302727	တိတ်	-0.3186941
-4.206341	ကံ့	-0.09342168
-4.206341	တဏ်	-0.09342168
-4.0893326	ဖိုင်	-0.09342168
-4.006625	ပွန်	-0.37831447
-4.0893326	ရှဉ့်	-0.09342168
-4.0893326	ကိုယ့်	-0.09342168
-3.870278	ရွှန်း	-0.09342168
-4.206341	ရွန်	-0.09342168
-4.206341	ဂျ	-0.09342168
-3.7666636	မြော	-0.38469756
-3.3356156	ပွ	-0.33867455
-4.206341	ယှေ	-0.09342168
-4.206341	လာပ်	-0.09342168
-4.206341	တွဲ့	-0.09342168
-4.206341	ဿန်	-0.09342168
-4.206341	နှောက်	-0.09342168
-4.0893326	ထိမ်း	-0.09342168
-4.206341	အံ့	-0.09342168
-4.0893326	ဝုဍ်	-0.20705375
-4.206341	ဎိ	-0.09342168
-3.870278	ထေရ်	-0.28778756
-4.0893326	ဂင်	-0.09342168
-4.006625	လွှမ်း	-0.14653182
-3.870278	ဖွပ်	-0.28778756
-3.7666636	ဝဏ်	-0.24133414
-4.206341	ဟုပ်	-0.09342168
-4.0893326	လျစ်	-0.09342168
-4.206341	လျူ	-0.09342168
-4.206341	မြိုင်း	-0.09342168
-3.870278	မြည်	-0.17982078
-4.0893326	ရုဏ်	-0.12809728
-3.6830697	ကြည်း	-0.25168812
-4.0893326	ဖြို	-0.09342168
-4.206341	ဗတ်	-0.09342168
-3.870278	မှိုင်း	-0.17982078
-4.206341	နဂ်	-0.09342168
-4.0893326	ဆွံ	-0.20705375
-3.452528	ဒိုင်း	-0.21291445
-4.0893326	ဓိုရ်	-0.20705375
-4.006625	ဖုန်	-0.12809728
-4.0893326	ငြင်း	-0.09342168
-3.4997222	လှဲ	-0.3899908
-3.870278	ကြွယ်	-0.24133414
-4.006625	ပါဒ်	-0.37831447
-4.0893326	မှုန်း	-0.09342168
-4.206341	ညှို	-0.09342168
-4.0893326	တြိ	-0.09342168
-4.206341	ဋုက်	-0.09342168
-3.452528	စုပ်	-0.31812346
-4.206341	ရှမ်း	-0.09342168
-4.006625	ဓံ	-0.37831447
-3.7666636	လွှင့်	-0.27986124
-4.206341	ဗြာဟ်	-0.09342168
-3.6830697	မြိတ်	-0.27673078
-4.0893326	ကွန့်	-0.09342168
-4.0893326	ထံ	-0.09342168
-3.870278	ကြိမ်း	-0.09342168
-3.452528	ဆို့	-0.39067414
-4.206341	ဗင်	-0.09342168
-3.870278	စွ	-0.09342168
-4.006625	မှေး	-0.16578364
-4.006625	ပြိန်း	-0.16578364
-4.206341	စွင့်	-0.09342168
-3.870278	ဋ်	-0.09342168
-4.0893326	ကေး	-0.20705375
-3.6830697	လှော်	-0.27673078
-3.5526774	မှ	-0.2892525
-4.0893326	မပ်	-0.09342168
-4.206341	သိုဏ်း	-0.09342168
-3.870278	ပြူ	-0.14653182
-3.6830697	ဟေ	-0.11389314
-4.206341	ဝှန်	-0.09342168
-4.206341	ဇွဲ	-0.09342168
-4.206341	ယဇ်	-0.09342168
-4.0893326	ညှောင့်	-0.16578364
-4.0893326	ညည့်	-0.09342168
-4.006625	ဗိုင်း	-0.09342168
-4.006625	ယု	-0.09342168
-4.006625	ဖြန့်	-0.14653182
-3.870278	လိန်း	-0.12297091
-4.0893326	တာန်	-0.20705375
-4.006625	ဖြောက်	-0.16578364
-4.206341	ဘမ်	-0.09342168
-4.206341	ကိန်	-0.09342168
-4.206341	ဇစ်	-0.09342168
-4.0893326	နှောင့်	-0.09342168
-3.6129982	နင့်	-0.2625944
-4.0893326	ရှောက်	-0.09342168
-3.870278	ထိတ်	-0.09342168
-4.206341	ခို့	-0.09342168
-3.870278	ဖွ	-0.09342168
-4.206341	နျူ	-0.09342168
-4.006625	ယတ်	-0.16578364
-4.0893326	ဂိ	-0.09342168
-3.870278	ပဋ်	-0.09342168
-4.206341	ဌီ	-0.09342168
-4.006625	ဖန့်	-0.16578364
-4.0893326	ချဉ်း	-0.09342168
-4.206341	ဘုဉ်း	-0.09342168
-3.4099631	လန်း	-0.4761559
-4.206341	ဎ	-0.09342168
-4.006625	ယျာ	-0.09342168
-4.206341	အဂ်	-0.09342168
-4.206341	မည့်	-0.09342168
-4.006625	ဒါန်	-0.28778756
-4.206341	နှိုး	-0.09342168
-4.0893326	တွဒ်	-0.20705375
-3.6830697	လျှော့	-0.15169826
-4.206341	ဖွန်း	-0.09342168
-4.206341	လိဒ်	-0.09342168
-4.206341	သလ်	-0.09342168
-4.006625	ဖိုလ်	-0.16578364
-4.206341	အဋ်	-0.09342168
-4.206341	မိဒ်	-0.09342168
-3.7666636	တွား	-0.38469756
-4.006625	မြည့်	-0.37831447
-4.206341	ဓွန့်	-0.09342168
-3.4997222	ညံ	-0.38616252
-4.006625	သမ်း	-0.16578364
-4.206341	ဂုံး	-0.09342168
-4.0893326	လှေ့	-0.09342168
-3.7666636	လှပ်	-0.38469756
-4.006625	ဇောက်	-0.24133414
-3.6830697	အောင့်	-0.19369616
-4.006625	ဝင့်	-0.12809728
-4.0893326	လျောင်း	-0.09342168
-3.870278	ကျဉ်	-0.09342168
-3.7666636	အိ	-0.38469756
-4.206341	ဝါက်	-0.09342168
-4.206341	ယမ်	-0.09342168
-3.870278	ဘူ	-0.116228476
-3.870278	လိမ့်	-0.12809728
-3.870278	စုန်	-0.24133414
-4.206341	ဣတ်	-0.09342168
-4.0893326	လျှို့	-0.16578364
-3.7666636	ကြွင်း	-0.19369616
-4.206341	မလ်	-0.09342168
-4.206341	လှီ	-0.09342168
-4.0893326	ကျိန်	-0.13537747
-4.0893326	မွှန်း	-0.20705375
-3.7666636	ယစ်	-0.27986124
-4.006625	တိပ်	-0.09342168
-4.206341	ဂျပ်	-0.09342168
-4.206341	စော့	-0.09342168
-4.0893326	ခြိမ့်	-0.09342168
-4.206341	ဝိုး	-0.09342168
-4.206341	ဥုံ	-0.09342168
-4.006625	လျဉ်	-0.28778756
-4.006625	ကဲ့	-0.37831447
-4.0893326	ဝူး	-0.09342168
-4.206341	ထိန့်	-0.09342168
-4.0893326	ညှဉ်း	-0.09342168
-4.206341	စုန့်	-0.09342168
-3.7666636	ကုံ	-0.21144186
-4.206341	လှူ	-0.09342168
-3.6830697	ကြတ်	-0.3205154
-3.870278	ခံ့	-0.21291445
-4.206341	ဗြဟ်	-0.09342168
-4.206341	စိုရ်	-0.09342168
-4.0893326	ပျူ	-0.09342168
-4.0893326	ယူး	-0.09342168
-4.206341	ရှေ	-0.09342168
-3.7666636	ထေး	-0.38469756
-4.206341	ဍိ	-0.09342168
-4.006625	ချိန်း	-0.09342168
-3.870278	သွန်း	-0.24133414
-4.206341	သွဲ့	-0.09342168
-4.206341	တိက်	-0.09342168
-4.0893326	စန်း	-0.09342168
-3.6830697	ကွေ့	-0.30284062
-4.206341	အို့	-0.09342168
-4.206341	ရွှေ့	-0.09342168
-3.870278	ပျပ်	-0.24133414
-4.206341	ဘန်း	-0.09342168
-4.206341	ဍပ်	-0.09342168
-4.0893326	သိဒ်	-0.09342168
-4.206341	စုဒ်	-0.09342168
-4.206341	မျစ်	-0.09342168
-4.206341	ဗက်	-0.09342168
-4.206341	ဆမ်း	-0.09342168
-4.206341	ငှန်း	-0.09342168
-4.206341	ညမ်း	-0.09342168
-4.0893326	လှိုင်	-0.09342168
-4.206341	ဂုန်	-0.09342168
-4.206341	ဗြုံး	-0.09342168
-4.0893326	စွံ	-0.09342168
-4.206341	ငိုင်	-0.09342168
-4.206341	ဓိပ်	-0.09342168
-4.206341	ရှတ်	-0.09342168
-4.006625	ဟဲ	-0.16578364
-4.0893326	ငြမ်း	-0.09342168
-4.206341	ဥတ်	-0.09342168
-4.206341	လှော	-0.09342168
-4.0893326	ဌိ	-0.09342168
-4.006625	ကြိ	-0.37831447
-4.006625	နောင်း	-0.37831447
-4.0893326	ငေါ်	-0.09342168
-3.7666636	ခြယ်	-0.3205154
-4.0893326	လွှံ့	-0.09342168
-4.0893326	ဗျပ်	-0.09342168
-4.0893326	ဒွေး	-0.09342168
-4.206341	ပဒ်	-0.09342168
-4.006625	တုံ	-0.16578364
-4.206341	ဘျမ်း	-0.09342168
-4.206341	ပြဋ်	-0.09342168
-4.006625	ဌာန်း	-0.14653182
-4.206341	မဇ်	-0.09342168
-4.206341	ဈိ	-0.09342168
-3.870278	လှန့်	-0.5032532
-4.206341	ပီး	-0.09342168
-4.006625	နင်	-0.14653182
-4.206341	အဉ်	-0.09342168
-4.206341	စိန့်	-0.09342168
-4.206341	ဥဏ်	-0.09342168
-4.206341	မင့်	-0.09342168
-4.006625	လှံ	-0.09342168
-3.870278	မော့	-0.5032532
-4.0893326	ဆောင့်	-0.09342168
-4.206341	ယုဂ်	-0.09342168
-3.870278	ကြူး	-0.5032532
-4.206341	ရသ်	-0.09342168
-4.206341	သိင်	-0.09342168
-4.006625	မြိန်	-0.09342168
-4.0893326	ပြိတ်	-0.16578364
-4.006625	သုန်း	-0.14653182
-4.0893326	စည့်	-0.09342168
-4.006625	မြွက်	-0.13537747
-4.206341	ခင့်	-0.09342168
-4.206341	မာရ်	-0.09342168
-4.206341	ထင့်	-0.09342168
-4.0893326	ရှိုး	-0.09342168
-3.6830697	ငုံ	-0.27986124
-4.206341	ထို့	-0.09342168
-4.206341	ယျော	-0.09342168
-4.206341	ဒိုက်	-0.09342168
-4.006625	ဟိ	-0.16578364
-4.206341	ဟို့	-0.09342168
-3.870278	ဥစ်	-0.38469756
-4.0893326	ကြစ်	-0.20705375
-4.206341	ငူး	-0.09342168
-4.206341	စွမ်	-0.09342168
-4.206341	ထဗ်	-0.09342168
-4.206341	ပါက်	-0.09342168
-4.206341	ဝိတ်	-0.09342168
-4.206341	ဒိမ်း	-0.09342168
-4.0893326	ဟော်	-0.09342168
-4.0893326	ဘို	-0.09342168
-4.206341	ယိ	-0.09342168
-3.6830697	ထဲ	-0.12297091
-3.7666636	ယဉ်း	-0.30154175
-4.206341	ဏိဇ်	-0.09342168
-4.006625	နိဋ်	-0.09342168
-4.0893326	ခြုတ်	-0.09342168
-4.206341	လုန်	-0.09342168
-4.206341	ကြူ	-0.09342168
-3.6830697	ဖျာ	-0.3205154
-4.206341	ဥက်	-0.09342168
-4.0893326	ဋေ	-0.09342168
-4.206341	အို့ဝ်	-0.09342168
-3.7666636	ဤ	-0.13537747
-4.006625	ကျို	-0.28778756
-4.206341	သိဉ်	-0.09342168
-4.0893326	ဇိုး	-0.20705375
-3.6129982	ဏီ	-0.5308256
-4.206341	ဗူး	-0.09342168
-4.0893326	ဟန့်	-0.20705375
-4.006625	ဂို	-0.09342168
-4.006625	ဝိုက်	-0.16578364
-4.0893326	မြည်း	-0.20705375
-4.0893326	ပုန်	-0.09342168
-4.006625	ထွန့်	-0.09342168
-4.006625	နည်	-0.13537747
-4.206341	ဂိုက်	-0.09342168
-4.006625	လွန့်	-0.09342168
-4.0893326	နွေ	-0.09342168
-4.206341	သွပ်	-0.09342168
-4.0893326	မိစ်	-0.20705375
-4.206341	ဗြူး	-0.09342168
-3.870278	ဖူ	-0.14653182
-3.870278	ကြန့်	-0.14653182
-4.206341	ကျုံ	-0.09342168
-4.206341	ဟား	-0.09342168
-3.7666636	ကျူ	-0.09342168
-4.206341	ပြင်...	-0.09342168
-4.006625	သျှောင်	-0.09342168
-4.006625	မြိုက်	-0.14653182
-4.006625	ချုံး	-0.14653182
-4.0893326	ဦ	-0.09342168
-4.206341	ဇိ	-0.09342168
-4.206341	ကြုပ်	-0.09342168
-3.6129982	စိုင်	-0.17982078
-4.206341	နမ်	-0.09342168
-3.870278	ပြုန်း	-0.14653182
-4.0893326	ဘွင်း	-0.09342168
-4.206341	လွံ	-0.09342168
-4.206341	မဋ်	-0.09342168
-4.206341	ယာယ်	-0.09342168
-4.206341	လည့်	-0.09342168
-4.206341	လွင်း	-0.09342168
-3.7666636	ပျဉ်း	-0.27986124
-3.7666636	တိမ်း	-0.38469756
-4.206341	နှန့်	-0.09342168
-4.006625	ဟက်	-0.12809728
-4.206341	ဟိုရ်	-0.09342168
-4.206341	ရုန့်	-0.09342168
-3.870278	ချယ်	-0.13537747
-4.0893326	လျှင်း	-0.20705375
-4.0893326	ဒွ	-0.20705375
-4.0893326	၌	-0.20705375
-4.006625	ဆွေ့	-0.16578364
-4.0893326	အုံ့	-0.09342168
-4.0893326	ရံ့	-0.09342168
-4.206341	ဖြိုက်	-0.09342168
-3.6830697	ငြိ	-0.17982078
-4.206341	အင့်	-0.09342168
-4.206341	ဂဲ	-0.09342168
-3.870278	ဟည်း	-0.28778756
-4.006625	ဝှမ်း	-0.37831447
-4.206341	မြုံ့	-0.09342168
-4.206341	ရှမ်	-0.09342168
-4.206341	ဖွံ့	-0.09342168
-3.7666636	ထွား	-0.38469756
-4.006625	ခြောင်း	-0.09342168
-4.006625	ဂန်း	-0.37831447
-4.206341	တမ်	-0.09342168
-4.206341	ဇွာ	-0.09342168
-4.206341	ဇုန်း	-0.09342168
-4.0893326	ဖျစ်	-0.09342168
-4.0893326	တိုရ်	-0.09342168
-3.6830697	လိမ်း	-0.09342168
-4.0893326	မျှစ်	-0.09342168
-4.0893326	ကြမ်	-0.20705375
-4.206341	ရွှာ	-0.09342168
-4.0893326	ဗောင်း	-0.09342168
-4.206341	မြိုင့်	-0.09342168
-4.0893326	ပာယ်	-0.20705375
-3.870278	ဖွေး	-0.09342168
-4.206341	ဝိက်	-0.09342168
-3.870278	ကျုတ်	-0.5032532
-4.206341	ဆုံ့	-0.09342168
-3.870278	ကွ	-0.5032532
-4.206341	သွေ့	-0.09342168
-4.206341	ယာန်	-0.09342168
-4.206341	ဍိတ်	-0.09342168
-4.206341	ရှော်	-0.09342168
-4.206341	သဉ်	-0.09342168
-4.206341	ပါ့	-0.09342168
-4.206341	ပွဲ့	-0.09342168
-4.206341	ဒန်	-0.09342168
-4.0893326	စဏ်	-0.09342168
-4.206341	ယယ်	-0.09342168
-4.206341	ဝုန်	-0.09342168
-4.006625	ဖျန်း	-0.14653182
-4.206341	လော့	-0.09342168
-4.0893326	ရွမ်း	-0.09342168
-4.206341	ဗြား	-0.09342168
-4.206341	ရော့	-0.09342168
-4.206341	လှုံ့	-0.09342168
-4.206341	ဒိဗ်	-0.09342168
-4.206341	ဩတ်	-0.09342168
-4.206341	ဗိန်း	-0.09342168
-4.0893326	ဂျို	-0.09342168
-4.206341	ဗန်း	-0.09342168
-4.006625	ဟောင်	-0.14653182
-4.206341	ရှံ	-0.09342168
-4.006625	ဟုန်း	-0.09342168
-4.0893326	လမ်	-0.09342168
-4.0893326	ဇမ်	-0.09342168
-4.206341	ဗု	-0.09342168
-4.0893326	ဘေ	-0.09342168
-4.206341	ဈေ	-0.09342168
-4.206341	ဒွန်း	-0.09342168
-4.206341	ဍား	-0.09342168
-4.006625	ဗား	-0.16578364
-4.206341	မွှမ်း	-0.09342168
-4.206341	ဒန်း	-0.09342168
-4.206341	တဉ်း	-0.09342168
-4.206341	ဗွီ	-0.09342168
-4.206341	ဝုဏ်	-0.09342168
-4.206341	ဟံ	-0.09342168
-4.0893326	လှောင်း	-0.09342168
-4.206341	ဘုမ်	-0.09342168
-4.0893326	ဝံ့	-0.09342168
-4.206341	ဖျင့်	-0.09342168
-4.206341	ပဇ်	-0.09342168
-4.206341	ဈာယ်	-0.09342168
-4.0893326	ညိုး	-0.09342168
-4.206341	သေဋ်	-0.09342168
-4.0893326	ဖွေ	-0.09342168
-4.206341	နှည်	-0.09342168
-4.206341	ဖိုက်	-0.09342168
-4.0893326	ကျု	-0.20705375
-4.206341	ငူ	-0.09342168
-4.206341	ဒွီ	-0.09342168
-4.206341	ခြ	-0.09342168
-4.006625	မှဲ့	-0.16578364
-4.206341	ဂျီး	-0.09342168
-4.006625	မြေ့	-0.37831447
-4.206341	ငေါင်း	-0.09342168
-4.206341	ဝေ့	-0.09342168
-4.0893326	ခွံ့	-0.20705375
-4.0893326	သုံ့	-0.14653182
-4.006625	ကျံ	-0.37831447
-4.206341	မျှော	-0.09342168
-4.206341	နိဂ်	-0.09342168
-4.206341	ခြည်း	-0.09342168
-4.0893326	သျှတ်	-0.20705375
-4.206341	နိုင်း	-0.09342168
-4.206341	ပည်	-0.09342168
-4.0893326	ဂျာ	-0.09342168
-4.206341	လှစ်	-0.09342168
-4.206341	ယှ	-0.09342168
-4.206341	သုံ	-0.09342168
-4.206341	ဒေါ့	-0.09342168
-4.206341	ဗြိစ်	-0.09342168
-4.206341	ဂျုံ	-0.09342168
-4.0893326	ပုစ်	-0.20705375
-4.006625	ကြို့	-0.20705375
-4.206341	ဒား	-0.09342168
-4.206341	အိမ်း	-0.09342168
-4.0893326	အည်း	-0.09342168
-4.206341	ဝိုင်	-0.09342168
-4.206341	နှိမ့်	-0.09342168
-4.206341	ဃာတ်	-0.09342168
-4.0893326	ဖြား	-0.09342168
-4.206341	ဗြောက်	-0.09342168
-4.0893326	ဗျ	-0.09342168
-4.206341	ရှန့်	-0.09342168
-4.0893326	နွန်	-0.09342168
-4.206341	သောင့်	-0.09342168
-4.206341	ရိန်း	-0.09342168
-4.206341	နိပ်	-0.09342168
-4.0893326	ဟုံး	-0.09342168
-4.206341	နုန့်	-0.09342168
-4.206341	ခိုသ်	-0.09342168
-4.206341	ဂေါ့	-0.09342168
-4.006625	တွ	-0.37831447
-4.206341	လိတ်	-0.09342168
-4.0893326	ကြင့်	-0.09342168
-4.206341	ဂိုရ်	-0.09342168
-4.206341	တိန်း	-0.09342168
-4.206341	ဍုက်	-0.09342168
-4.0893326	နော်	-0.09342168
-4.206341	ကြုံး	-0.09342168
-4.0893326	ယေ	-0.09342168
-4.206341	ဘာ့	-0.09342168
-4.0893326	ဗုန်း	-0.09342168
-4.206341	ဒိပ်	-0.09342168
-4.206341	ဗော့	-0.09342168
-4.206341	ဗျိုး	-0.09342168
-4.0893326	ဟုံ	-0.09342168
-4.206341	ရှည့်	-0.09342168
-4.206341	ယွတ်	-0.09342168
-4.0893326	မဂ်	-0.20705375
-4.206341	ဗျဂ်	-0.09342168
-4.206341	ထမ်	-0.09342168
-3.7666636	ငမ်း	-0.16578364
-4.206341	သျှိ	-0.09342168
-4.206341	သျှား	-0.09342168
-4.0893326	အိုင့်	-0.09342168
-4.206341	ဝိစ်	-0.09342168
-4.206341	တိံ	-0.09342168
-4.0893326	ဟိဒ်	-0.09342168
-4.206341	မွှ	-0.09342168
-4.206341	ဟေ့	-0.09342168
-4.0893326	ကွေ	-0.09342168
-4.206341	ဂျစ်	-0.09342168
-4.0893326	ဂွမ်း	-0.09342168
-4.206341	ဟင့်	-0.09342168
-4.0893326	ဝထ်	-0.20705375
-4.206341	ညဲ	-0.09342168
-4.206341	ဓေး	-0.09342168
-4.206341	သဗ်	-0.09342168
-4.206341	ဏက်	-0.09342168
-4.206341	ဣဒ်	-0.09342168
-4.206341	ဗွန်	-0.09342168
-4.0893326	သာန်	-0.20705375
-4.206341	ဏှာ	-0.09342168
-4.206341	ဗြုတ်	-0.09342168
-4.206341	ဗျင်း	-0.09342168
-4.206341	မျှား	-0.09342168
-4.206341	ညှက်	-0.09342168
-4.206341	သေဉ်	-0.09342168
-4.206341	အဗ်	-0.09342168
-4.206341	လှင်	-0.09342168
-4.206341	ဘွတ်	-0.09342168
-4.206341	ဩဋ်	-0.09342168
-4.206341	ဝေါ်	-0.09342168
-4.206341	ဌဗ်	-0.09342168
-4.206341	ဇာစ်	-0.09342168
-4.206341	နူ	-0.09342168
-4.206341	ဖွိုက်	-0.09342168
-4.206341	ဗွီး	-0.09342168
-4.206341	နိတ်	-0.09342168
-3.7666636	အမ်း	-0.09342168
-4.0893326	ဈ	-0.09342168
-4.0893326	ပုံ့	-0.09342168
-4.206341	ဟုမ်း	-0.09342168
-4.206341	ရာမ်	-0.09342168
-4.0893326	ညုန်း	-0.09342168
-4.206341	ဆွက်	-0.09342168
-4.206341	ညီး	-0.09342168
-4.0893326	ဃော	-0.20705375
-4.206341	သာဠ်	-0.09342168
-4.206341	ဂွင်	-0.09342168
-4.206341	ဇုန်	-0.09342168
-4.0893326	ဒတ်	-0.20705375
-4.0893326	ခြူး	-0.09342168
-4.0893326	နမ်း	-0.09342168
-4.006625	ပွေး	-0.28778756
-4.206341	ဘန့်	-0.09342168
-4.206341	သျှု	-0.09342168
-4.0893326	နုံ့	-0.09342168
-4.206341	ဂျိန်း	-0.09342168
-4.206341	ဂွန်	-0.09342168
-4.0893326	ဿီ	-0.09342168
-4.0893326	စွေ	-0.09342168
-4.206341	ဣ	-0.09342168
-4.206341	ဗိုး	-0.09342168
-4.0893326	မြိုး	-0.09342168
-4.0893326	ဠှီ	-0.20705375
-4.206341	နျာ	-0.09342168
-4.0893326	ကာယ်	-0.20705375
-4.0893326	စဉ့်	-0.09342168
-4.206341	ဃိ	-0.09342168
-4.0893326	ဇင်း	-0.16578364
-4.206341	ရွှပ်	-0.09342168
-4.206341	ရုဏ်း	-0.09342168
-4.206341	ဇိန်	-0.09342168
-4.206341	ဥမ်	-0.09342168
-4.206341	သိန်း	-0.09342168
-4.206341	ကျံ့	-0.09342168
-4.206341	မှို့	-0.09342168
-4.206341	ရုဒ်	-0.09342168
-4.206341	ဂိဇ်	-0.09342168
-4.206341	အိမ့်	-0.09342168
-4.206341	ဌော	-0.09342168
-4.206341	ချာတ်	-0.09342168
-4.0893326	ဟုန်	-0.09342168
-4.206341	စမ်	-0.09342168
-4.206341	ပာ	-0.09342168
-4.206341	မုစ်	-0.09342168
-4.206341	မွှေ့	-0.09342168
-4.206341	ဗွက်	-0.09342168
-4.206341	ဗျဉ်	-0.09342168
-4.206341	မြှောင်း	-0.09342168
-4.206341	ဟိုး	-0.09342168
-4.006625	ညို့	-0.16578364
-4.206341	ဟမ်း	-0.09342168
-4.0893326	ကျိပ်	-0.20705375
-4.206341	ဓစ်	-0.09342168
-4.206341	ထုန်	-0.09342168
-4.206341	ငို့	-0.09342168
-4.206341	ပြွေ့	-0.09342168
-4.206341	ရှိတ်	-0.09342168
-4.0893326	ရွှဲ	-0.20705375
-4.206341	ဒွါ	-0.09342168
-4.206341	ဝှဲ	-0.09342168
-4.206341	ခဏ်	-0.09342168
-4.206341	ချုံ	-0.09342168
-4.206341	ခေ	-0.09342168
-4.206341	ဝုန်း	-0.09342168
-4.206341	ဒုတ်	-0.09342168
-4.0893326	လှု	-0.09342168
-4.006625	လျှမ်း	-0.09342168
-4.206341	ဉာသ်	-0.09342168
-4.206341	နို	-0.09342168
-4.206341	ဋိစ်	-0.09342168
-4.206341	မုပ်	-0.09342168
-4.206341	ပာဒ်	-0.09342168
-4.206341	ဟိုဠ်	-0.09342168
-4.206341	ရာဏ်	-0.09342168
-4.206341	မိလ်	-0.09342168
-4.206341	ဒဂ်	-0.09342168
-4.0893326	ကျိုင်း	-0.09342168
-4.0893326	စွေး	-0.09342168
-4.206341	ဘစ်	-0.09342168
-4.206341	ဗြတ်	-0.09342168
-4.206341	ဌင်	-0.09342168
-4.206341	ဗို့	-0.09342168
-4.0893326	ဟေး	-0.09342168
-4.206341	ဓာန်	-0.09342168
-4.206341	ဣစ်	-0.09342168
-4.206341	မ...	-0.09342168
-4.206341	ဂျူး	-0.09342168
-4.206341	ဒေး	-0.09342168
-4.206341	စယ်	-0.09342168
-4.206341	ဖျူး	-0.09342168
-4.206341	ညူး	-0.09342168
-4.206341	နှီ	-0.09342168
-4.206341	မြံ	-0.09342168
-4.206341	ယော်	-0.09342168
-4.206341	ဂိတ်	-0.09342168
-4.206341	ဗျား	-0.09342168
-4.206341	ဒုန်း	-0.09342168
-4.206341	ဆွန့်	-0.09342168
-4.206341	ကဂ်	-0.09342168
-4.206341	မှိန်း	-0.09342168
-4.206341	ဘာန်	-0.09342168
-4.206341	ဟီး	-0.09342168
-4.0893326	စုံး	-0.09342168
-4.206341	ပြိန်	-0.09342168
-4.206341	ဓီ	-0.09342168
-4.206341	ဖျဉ်	-0.09342168
-4.206341	ငါ့	-0.09342168
-4.206341	ဗျု	-0.09342168
-4.206341	စုဏ်	-0.09342168
-4.0893326	ဖြော်	-0.09342168
-4.206341	ခိပ်	-0.09342168
-4.206341	ဗြောင်း	-0.09342168
-4.206341	လိဋ်	-0.09342168

\2-grams:
-0.5473683	ပြာ </s>	0
-0.5271532	သာဒ် </s>	0
-0.23316357	ဆောင် </s>	0
-0.8107908	ကိုယ် </s>	0
-0.36812878	ပိုင် </s>	0
-0.4153701	စာ </s>	0
-0.1890579	ကြည့် </s>	0
-0.20120364	တိုက် </s>	0
-0.70082116	သိန် </s>	0
-0.9325695	ဓော </s>	0
-0.33027765	ဆား </s>	0
-0.2904563	စား </s>	0
-0.4450124	သောက် </s>	0
-0.16431355	ဆိုင် </s>	0
-0.22820395	ကြိုး </s>	0
-0.24846701	စင် </s>	0
-0.609367	ကြဉ်း </s>	0
-0.98422474	လော </s>	0
-0.7304766	ဘ </s>	0
-0.6539748	သက် </s>	0
-0.45505673	ကာ </s>	0
-0.51496714	ယ </s>	0
-0.55142266	ကမ်း </s>	0
-0.41094562	ပါး </s>	0
-0.86483973	ရွှေ </s>	0
-0.70071876	ပြည် </s>	0
-0.59583443	စိုး </s>	0
-0.5271532	ဟိုက် </s>	0
-0.7960098	ဒ </s>	0
-0.56295013	ရို </s>	0
-0.38856125	ဂျင် </s>	0
-0.26495102	ပွဲ </s>	0
-0.2726463	ကြီး </s>	0
-0.3983939	လမ်း </s>	0
-0.42443419	ကွပ် </s>	0
-0.2481856	သိမ်း </s>	0
-0.21462086	ချက် </s>	0
-0.2289011	ညှပ် </s>	0
-0.3955424	ရိုး </s>	0
-0.540881	ဆီး </s>	0
-0.3639937	စောင်း </s>	0
-0.3033499	ကူး </s>	0
-0.5302812	ရာ </s>	0
-0.8411894	ဇ </s>	0
-0.4172967	ရေး </s>	0
-0.8580979	လေ </s>	0
-0.4944359	သာ </s>	0
-0.18506967	ပေါက် </s>	0
-0.70390725	နား </s>	0
-0.1927789	တောင်း </s>	0
-0.5666673	ဝတ် </s>	0
-0.46808803	တံ </s>	0
-0.49736035	ခါး </s>	0
-0.18239594	ခုံ </s>	0
-0.61363995	မင်း </s>	0
-1.0471398	သ </s>	0
-0.30460128	ပိတ် </s>	0
-0.2869458	ဝင် </s>	0
-0.2573071	အိတ် </s>	0
-0.73211527	လယ် </s>	0
-0.21114913	ခံ </s>	0
-0.36683995	ပဲ့ </s>	0
-0.31129643	စီး </s>	0
-0.64928055	စိတ် </s>	0
-0.6275377	မှန်း </s>	0
-0.6846043	ဦး </s>	0
-0.38715467	ကျိုး </s>	0
-0.63862157	နေ </s>	0
-0.20687157	ထိုင် </s>	0
-0.709734	မ </s>	0
-0.27676663	ကောင်း </s>	0
-0.33244863	ခွင့် </s>	0
-0.5744389	စစ် </s>	0
-0.48615134	နိမ့် </s>	0
-0.5743164	ဖန် </s>	0
-0.39665323	တွတ် </s>	0
-1.3710593	အ </s>	0
-0.32958016	ချင်း </s>	0
-0.17877182	ဖြစ် </s>	0
-0.9006132	ကြွက် </s>	0
-0.2709532	လျှောက် </s>	0
-1.2711316	သမ် </s>	0
-0.76065063	ဘာ </s>	0
-0.5778314	ရ </s>	0
-0.9919278	ပ </s>	0
-1.1428891	ဆေ </s>	0
-0.81970453	ရေ </s>	0
-1.0764723	မျက် </s>	0
-0.5295331	တွင်း </s>	0
-0.58628297	သံ </s>	0
-0.42813534	ပတ် </s>	0
-0.33516324	ကုန် </s>	0
-0.11092046	ပေး </s>	0
-0.43930018	ယဉ် </s>	0
-0.33442393	သွား </s>	0
-0.4689728	ဘီး </s>	0
-0.49950275	လူး </s>	0
-0.42248237	စည်း </s>	0
-0.9971101	မျှော့ </s>	0
-0.4394366	လား </s>	0
-0.36319768	လာ </s>	0
-0.6203427	တော </s>	0
-0.8729274	တ </s>	0
-0.82817745	ငါး </s>	0
-0.20138174	ငြိမ်း </s>	0
-0.62390965	မွမ်း </s>	0
-0.9325695	ဖြင် </s>	0
-0.86929333	ဂ </s>	0
-0.9325695	ဠုန် </s>	0
-1.0238808	သံ့ </s>	0
-1.3349733	ဗ </s>	0
-0.31318343	ရွတ် </s>	0
-0.75777876	ရွှတ် </s>	0
-0.75777876	လှောင် </s>	0
-0.22294898	ကန် </s>	0
-1.0646144	ငုံး </s>	0
-0.5615498	မြက် </s>	0
-0.78664696	ခ </s>	0
-0.712426	ရီး </s>	0
-0.45645213	မတ် </s>	0
-0.51507556	တတ် </s>	0
-0.37281558	မက် </s>	0
-0.15000138	ဖမ်း </s>	0
-0.55205953	ဆတ် </s>	0
-0.3112126	ဆော့ </s>	0
-0.7160286	သော </s>	0
-0.41913432	ကော </s>	0
-0.78094727	ရော </s>	0
-0.3830674	စည် </s>	0
-0.2230984	ဒိုင် </s>	0
-0.486186	ပြွမ်း </s>	0
-0.5719376	နှစ် </s>	0
-0.23191462	လျှို </s>	0
-0.39206272	အိမ် </s>	0
-0.18104705	တက် </s>	0
-0.28411993	ရံ </s>	0
-0.70082116	ရွေ </s>	0
-0.3565325	တော် </s>	0
-0.05063871	ချ </s>	0
-0.25352708	မဲ့ </s>	0
-0.5469798	ဝါ </s>	0
-0.43964958	ဆံ </s>	0
-0.26346126	ခြည် </s>	0
-0.23877932	ထွေး </s>	0
-0.6658876	ရှူ </s>	0
-0.8505821	ရှိုက် </s>	0
-0.3126878	နာ </s>	0
-0.78098714	မည် </s>	0
-0.15676335	ပျက် </s>	0
-0.76573515	ခမ်း </s>	0
-0.19836737	ပြတ် </s>	0
-0.65876263	ကုန်း </s>	0
-0.27918068	တန်း </s>	0
-0.84731483	သင် </s>	0
-0.90141094	လက် </s>	0
-0.2325942	ဆွဲ </s>	0
-0.46150994	ခြင်း </s>	0
-0.62157077	သူ </s>	0
-0.4588487	ရင်း </s>	0
-0.37047973	ငှား </s>	0
-0.62390965	ယွန်း </s>	0
-0.47359353	ပန်း </s>	0
-0.28940493	ချီ </s>	0
-0.8232161	ဘော </s>	0
-0.10079522	ထား </s>	0
-1.1648831	ကြန် </s>	0
-0.44463885	ပုံ </s>	0
-0.22279808	လဲ </s>	0
-0.2987269	စိမ်း </s>	0
-0.59169316	ကြက် </s>	0
-0.515064	ဆင် </s>	0
-0.3124191	ဆက် </s>	0
-0.42486465	တိုင်း </s>	0
-0.6295712	ထက် </s>	0
-0.3066892	လွန် </s>	0
-0.41557726	စု </s>	0
-0.35006273	ခဲ </s>	0
-0.63402617	ဝက် </s>	0
-1.201537	စိန် </s>	0
-0.3423599	ပြောင်း </s>	0
-0.1401601	ထိန်း </s>	0
-0.22400267	ချုပ် </s>	0
-0.5126802	လို </s>	0
-0.609367	ငြား </s>	0
-0.9076116	က </s>	0
-0.25677252	လွင့် </s>	0
-0.6536671	ဇာ </s>	0
-0.24459594	ရုံ </s>	0
-0.54350793	တန် </s>	0
-0.49920347	မှန် </s>	0
-0.3737585	ကား </s>	0
-0.2858443	ဆာ </s>	0
-0.15090041	ငှာ </s>	0
-0.6337934	ရုန်း </s>	0
-0.3678541	လုံး </s>	0
-0.5031039	ရပ် </s>	0
-0.26071247	ဌာန် </s>	0
-0.46721193	မုန့် </s>	0
-0.24950732	ဖတ် </s>	0
-0.6087135	အား </s>	0
-0.81875485	မီး </s>	0
-0.34361932	တောက် </s>	0
-0.4990099	ရက် </s>	0
-1.1320264	တွေး </s>	0
-0.66778904	ဆ </s>	0
-0.30290586	လျော့ </s>	0
-0.5908339	ရဲ </s>	0
-0.27555817	ယူ </s>	0
-0.35988173	ထုံး </s>	0
-0.590155	လင်း </s>	0
-0.38061708	သိုက် </s>	0
-0.33638057	တူး </s>	0
-0.8488134	သဲ </s>	0
-0.1404889	ကွဲ </s>	0
-1.0238808	နိမ် </s>	0
-0.36321592	မိ </s>	0
-0.42845	ဖီ </s>	0
-0.43128413	နိုင် </s>	0
-0.25065255	ဖျောက် </s>	0
-0.20882548	ဖျက် </s>	0
-0.62390965	စူ </s>	0
-0.9325695	ဠာ </s>	0
-1.1320264	ဏိ </s>	0
-0.36812878	ပြည့် </s>	0
-0.42092553	ဖြိုး </s>	0
-0.11676779	ကြွပ် </s>	0
-0.37047973	ငုပ် </s>	0
-0.37047973	လျှိုး </s>	0
-0.58942163	ရု </s>	0
-0.74573076	ဏာ </s>	0
-0.4475351	ကြေး </s>	0
-0.5958978	ထွန်း </s>	0
-0.4280349	ငယ် </s>	0
-0.62686735	ရုပ် </s>	0
-0.47055495	ကြောင် </s>	0
-0.36065271	ကျား </s>	0
-0.83196735	စ </s>	0
-0.48774493	ရိတ် </s>	0
-0.65025336	ခြေ </s>	0
-0.34616387	ကြား </s>	0
-0.6966233	ဆူး </s>	0
-0.28810608	အိုး </s>	0
-0.50488853	ကင်း </s>	0
-0.23984924	ညှို့ </s>	0
-0.28796557	သား </s>	0
-0.30004296	နီ </s>	0
-0.2289011	လန် </s>	0
-0.33490357	ဖျင်း </s>	0
-0.3371065	ပစ် </s>	0
-0.2750056	ပြေး </s>	0
-0.06892891	လွှား </s>	0
-1.1041751	ထန်း </s>	0
-0.609367	နွှေး </s>	0
-0.3524323	သန် </s>	0
-0.38856125	လျက် </s>	0
-0.29210958	တီး </s>	0
-0.68525887	နံ့ </s>	0
-0.20445646	ကြမ်း </s>	0
-0.33517766	လောင်း </s>	0
-0.609367	မျာ </s>	0
-0.8266542	ညွန် </s>	0
-0.25065255	ပျောင်း </s>	0
-0.3990876	စွယ် </s>	0
-0.4130981	စုံ </s>	0
-0.43282306	တု </s>	0
-0.7906257	ဘဲ </s>	0
-0.5498747	မြီး </s>	0
-0.4018028	အုပ် </s>	0
-0.3341168	ဆိုင်း </s>	0
-0.24504316	ထည် </s>	0
-0.3848511	လောက် </s>	0
-0.89412737	အောက် </s>	0
-0.8649329	လူ </s>	0
-0.32831845	လှုံ </s>	0
-1.2830465	ဝိ </s>	0
-0.9325695	ညာဉ် </s>	0
-0.33638057	ဂြိုဟ် </s>	0
-0.15090041	မွှေ </s>	0
-0.35599703	ငုတ် </s>	0
-0.39643228	ကုပ် </s>	0
-0.9592391	ဝမ်း </s>	0
-0.75777876	ဟု </s>	0
-0.512782	ခိုး </s>	0
-0.24727552	ထုတ် </s>	0
-0.3350659	ကွယ် </s>	0
-0.5879354	သိုး </s>	0
-0.3376425	ဆောင်း </s>	0
-0.28467894	ဝိုင်း </s>	0
-0.3483124	နေ့ </s>	0
-0.7556871	ည </s>	0
-1.1162553	ရိက် </s>	0
-0.5271532	ခာ </s>	0
-0.46155876	ချောင်း </s>	0
-0.5751139	ခေါက် </s>	0
-0.8082864	ရင် </s>	0
-1.0646144	ဖျော် </s>	0
-0.4050247	ဖြေ </s>	0
-0.36949733	သတ် </s>	0
-0.4567722	မုန်း </s>	0
-0.26474258	ဖြူ </s>	0
-0.36338723	တုံး </s>	0
-0.47605345	ဝါး </s>	0
-0.44870216	ယား </s>	0
-0.5835008	ကျန်း </s>	0
-0.6405649	စဉ်း </s>	0
-0.3332819	စွပ် </s>	0
-0.21886294	ရောင် </s>	0
-0.5735594	လင် </s>	0
-0.1862207	ရှိ </s>	0
-0.5426196	တေ </s>	0
-0.34396347	ဆေး </s>	0
-0.31430238	တုန် </s>	0
-0.5031255	ပျော့ </s>	0
-0.3571335	ကြွ </s>	0
-0.26071247	ချွန် </s>	0
-0.54745996	မဲ </s>	0
-0.1874524	လိုက် </s>	0
-0.6582953	ခွေး </s>	0
-0.25351274	ကွက် </s>	0
-0.41756016	စေ့ </s>	0
-0.6536091	လှည်း </s>	0
-0.4705958	ထမ်း </s>	0
-0.66952944	သည်း </s>	0
-0.36241475	အေး </s>	0
-0.283454	ခန်း </s>	0
-0.29691648	ပိုင်း </s>	0
-0.3157391	ကဲ </s>	0
-0.20895529	လှ </s>	0
-1.0646144	ဘဏ် </s>	0
-1.0729449	ဍာ </s>	0
-1.1436284	တစ် </s>	0
-0.27419522	ဖျား </s>	0
-0.79550767	အူ </s>	0
-0.62390965	ညံ့ </s>	0
-0.43386787	မာ </s>	0
-0.60172766	န </s>	0
-0.35988173	တွက် </s>	0
-0.46773392	သေး </s>	0
-0.69228715	ယောင် </s>	0
-0.6368573	တိ </s>	0
-0.50611925	တောင် </s>	0
-0.63071674	ဌ </s>	0
-0.3193605	စဉ် </s>	0
-0.3568274	ပိုက် </s>	0
-0.25111452	ထုပ် </s>	0
-0.5155795	ကိုး </s>	0
-0.49993154	ကန့် </s>	0
-0.45603377	ဆိတ် </s>	0
-0.8243453	နို့ </s>	0
-0.36424485	ဆီ </s>	0
-0.31071377	ပင် </s>	0
-0.8711783	ဟုတ် </s>	0
-0.5271532	တယ် </s>	0
-0.4579162	လီ </s>	0
-0.20064314	ရှင်း </s>	0
-0.9253274	နွား </s>	0
-0.2044774	နင်း </s>	0
-0.4654101	ရှု </s>	0
-0.1954112	စောင် </s>	0
-0.37429377	ရည် </s>	0
-0.7521726	လု </s>	0
-0.1770282	ကျူး </s>	0
-0.25751004	ကျော် </s>	0
-0.6567581	မြေ </s>	0
-0.19494504	ခွဲ </s>	0
-0.32534742	ကြပ် </s>	0
-0.25065255	မြော် </s>	0
-0.5835008	ထီ </s>	0
-0.12283702	ဖွင့် </s>	0
-0.8131906	ဖပ် </s>	0
-0.33182284	ပေါင် </s>	0
-1.135442	နှာ </s>	0
-0.4881075	ခေါင်း </s>	0
-0.48605308	ကျည် </s>	0
-0.75777876	ပွေ့ </s>	0
-0.21851982	တွေ့ </s>	0
-0.27258515	ဆုံး </s>	0
-0.5713288	မိုး </s>	0
-0.37029064	ညင်း </s>	0
-0.5885623	ဇာတ် </s>	0
-0.25677252	မြှုပ် </s>	0
-0.41881496	ကျောက် </s>	0
-0.71052325	သွေး </s>	0
-0.5544356	ဓ </s>	0
-0.5782987	လေ့ </s>	0
-0.8741232	ယောက် </s>	0
-0.3376425	မား </s>	0
-0.6844567	မင် </s>	0
-0.96349674	ပိန်း </s>	0
-0.14897107	ရိုက် </s>	0
-0.39959386	ပိုး </s>	0
-0.17712922	ကောင် </s>	0
-0.17410582	ကြော် </s>	0
-0.15299663	ကျ </s>	0
-0.68887246	ညာ </s>	0
-0.37179253	တာ </s>	0
-0.30113563	ပါ </s>	0
-0.4758698	တေး </s>	0
-1.2097436	ကျေး </s>	0
-0.95698327	ပြစ် </s>	0
-0.76573515	သော့ </s>	0
-0.55318546	ဆွမ်း </s>	0
-0.45927334	တွန့် </s>	0
-0.37065196	လိပ် </s>	0
-0.90900964	ငတ် </s>	0
-0.2515877	စိုက် </s>	0
-0.5958978	ပျိုး </s>	0
-0.9325695	စွေ့ </s>	0
-0.53772944	နဲ </s>	0
-1.1448724	ဗျာ </s>	0
-1.0911466	ဗိုလ် </s>	0
-0.20934233	မှူး </s>	0
-0.33490357	လွှ </s>	0
-0.18244779	မှုတ် </s>	0
-0.2698021	ဆိုး </s>	0
-0.4893549	ရွယ် </s>	0
-0.5605682	မော် </s>	0
-0.40266448	ကြွား </s>	0
-0.6015233	လွန်း </s>	0
-0.15141559	တိုင် </s>	0
-0.5291142	ခေတ် </s>	0
-0.47207335	တင်း </s>	0
-0.4986146	ဓာတ် </s>	0
-0.8266542	ခြုပ် </s>	0
-1.0728061	ဒူး </s>	0
-0.9427212	ဂါ </s>	0
-0.609367	မုံး </s>	0
-0.30856246	ပြန် </s>	0
-0.7819063	သစ် </s>	0
-0.39112654	စုန်း </s>	0
-0.4381671	ဝန် </s>	0
-0.37195012	စက် </s>	0
-0.3157391	ခေါ် </s>	0
-1.0435804	မုန် </s>	0
-0.58642805	ဥ </s>	0
-0.79978323	နန်း </s>	0
-0.51750207	မြစ် </s>	0
-0.25609654	ခြောက် </s>	0
-0.32534742	မြတ် </s>	0
-0.36733773	နိုး </s>	0
-0.14036132	ခတ် </s>	0
-0.7475854	ချွဲ </s>	0
-0.45833832	ကျိ </s>	0
-0.9325695	ဍ </s>	0
-0.65918285	ပါတ် </s>	0
-0.30733252	ကယ် </s>	0
-0.35599703	ရော် </s>	0
-0.19704796	တင် </s>	0
-0.83444583	ရုတ် </s>	0
-0.38083795	ယာ </s>	0
-0.9971101	ဂု </s>	0
-1.1932086	ပိန် </s>	0
-0.5690936	မြို့ </s>	0
-0.41225487	ရမ်း </s>	0
-0.42438376	လိင် </s>	0
-0.8879559	ယုတ် </s>	0
-0.39861855	ဖာ </s>	0
-0.6311933	ဟာ </s>	0
-0.41940823	မောင်း </s>	0
-0.19542113	ကွင်း </s>	0
-0.70082116	ပြိုင်း </s>	0
-0.44952086	ကြော </s>	0
-1.0972885	ဇူး </s>	0
-0.27047357	တည် </s>	0
-0.42092553	ငြိမ် </s>	0
-0.28720942	စပ် </s>	0
-0.42092553	လင့် </s>	0
-0.3104368	ဆုံ </s>	0
-0.40793392	လည် </s>	0
-0.7646453	လ </s>	0
-0.484236	ကူ </s>	0
-0.26908663	ထောက် </s>	0
-0.6813977	ရား </s>	0
-1.4164345	ခန် </s>	0
-1.0016011	ဓာ </s>	0
-0.803584	ရွေ့ </s>	0
-0.26873884	ရစ် </s>	0
-0.38513234	ရွက် </s>	0
-0.9151787	မေး </s>	0
-0.42092553	ခွန်း </s>	0
-0.21020083	နှော </s>	0
-0.17893791	ပွား </s>	0
-0.17963126	ထွက် </s>	0
-0.29628047	ကောက် </s>	0
-0.53772944	မြန် </s>	0
-0.4042763	ဆန် </s>	0
-0.46473125	သင်း </s>	0
-0.7181256	မွေ </s>	0
-0.61983144	နံ </s>	0
-0.2612746	ထူ </s>	0
-0.2960471	ထောင် </s>	0
-0.6316896	ကြံ </s>	0
-0.8733028	နှပ် </s>	0
-1.2529591	အာ </s>	0
-0.18807983	ကျယ် </s>	0
-0.33739895	ကိန်း </s>	0
-1.0473855	ဘယ် </s>	0
-1.1162553	နှ </s>	0
-0.4817119	ပို </s>	0
-0.5821185	ဘေး </s>	0
-1.1307282	ဒေ </s>	0
-0.10681569	ပြု </s>	0
-0.39983147	လွှတ် </s>	0
-0.188591	ရီ </s>	0
-0.4622187	မြင် </s>	0
-0.34562117	ပျောက် </s>	0
-0.9971101	သိမ့် </s>	0
-0.29109836	ဆို </s>	0
-0.21563996	လျှင် </s>	0
-0.47711444	လေး </s>	0
-0.70437384	နတ် </s>	0
-0.51470613	ကိုင်း </s>	0
-0.1162343	သုပ် </s>	0
-0.24319272	တွယ် </s>	0
-0.4163001	ဝဲ </s>	0
-0.6903384	ဗွေ </s>	0
-0.3249674	ဖောက် </s>	0
-0.33810997	ဉာဏ် </s>	0
-0.20849356	မီ </s>	0
-0.61122394	ဖိတ် </s>	0
-0.50545806	ရောင်း </s>	0
-0.38036984	ပြေ </s>	0
-0.14687741	ရန်း </s>	0
-1.2004304	ညောင် </s>	0
-0.32831845	လဒ် </s>	0
-0.2352441	ခို </s>	0
-0.20895529	တည့် </s>	0
-1.0238808	ဃာ </s>	0
-0.90492254	ဖ </s>	0
-0.609367	ကျွန်ုပ် </s>	0
-0.48671606	မူ </s>	0
-0.09457128	ဂံ </s>	0
-0.20494266	တမ်း </s>	0
-0.803584	ဒေါ် </s>	0
-0.49331057	သုတ် </s>	0
-0.32831845	မုံ </s>	0
-0.21300118	သည် </s>	0
-0.44922566	လိမ် </s>	0
-0.41330484	တျာ </s>	0
-0.9971101	ဒြ </s>	0
-0.48088115	ကျီ </s>	0
-0.5028674	နု </s>	0
-0.62733376	ရှိမ်း </s>	0
-0.21563996	ပြည်း </s>	0
-0.6810258	ခု </s>	0
-0.3766988	ကြွေ </s>	0
-0.7430102	ပျား </s>	0
-0.21163562	စွဲ </s>	0
-0.429888	ချော </s>	0
-0.803584	ငြိမ့် </s>	0
-1.0972885	မြိုင် </s>	0
-0.44823098	ကင် </s>	0
-0.8820673	ပွန်း </s>	0
-0.47651216	တပ် </s>	0
-0.43205735	ထိ </s>	0
-1.0410053	ငြီး </s>	0
-0.8099265	စော် </s>	0
-0.2230984	ခြံ </s>	0
-0.4438915	ပုန်း </s>	0
-0.15683855	တန့် </s>	0
-0.93236864	ရှိန် </s>	0
-0.7431115	ဇော် </s>	0
-0.62390965	ဂျီ </s>	0
-0.73726344	ဘုံ </s>	0
-0.90900964	မျှော် </s>	0
-0.5843138	ဒီ </s>	0
-0.3104368	စူး </s>	0
-0.26229176	စမ်း </s>	0
-1.2324178	မျောက် </s>	0
-0.42092553	လျှော် </s>	0
-0.803584	သွင် </s>	0
-0.30007833	မှည့် </s>	0
-1.0410053	ခြွေ </s>	0
-0.30455437	ရည်း </s>	0
-1.0729449	ဒူ </s>	0
-0.7085153	နီး </s>	0
-0.29799706	အိုင် </s>	0
-0.6173155	ပက် </s>	0
-0.80964255	မျိုး </s>	0
-0.5480466	မန် </s>	0
-0.15648568	ကိုင် </s>	0
-0.48088115	ဖို့ </s>	0
-0.68942773	ဓား </s>	0
-0.14832863	ပြား </s>	0
-0.39010888	ချည် </s>	0
-0.5031255	မျှင် </s>	0
-0.23712568	ရှည် </s>	0
-0.2706241	ချော် </s>	0
-0.37029064	သွတ် </s>	0
-0.6002988	မျဉ်း </s>	0
-0.47424668	မှတ် </s>	0
-0.13559894	ထိုး </s>	0
-1.0473855	ရွာ </s>	0
-0.59583443	ဓိ </s>	0
-0.37731728	မာသ် </s>	0
-0.22985047	ခြမ်း </s>	0
-0.31621426	လုပ် </s>	0
-1.2409656	ရှေ့ </s>	0
-0.19340698	ဖွဲ့ </s>	0
-0.4468359	ဖိုး </s>	0
-0.3332819	ဘူး </s>	0
-0.36733773	ပြုတ် </s>	0
-0.40025944	တူ </s>	0
-1.201537	မောင် </s>	0
-0.3981037	ထီး </s>	0
-1.2134573	ကု </s>	0
-0.3221411	ဖြတ် </s>	0
-0.30265608	ရှာ </s>	0
-0.21020083	မြဲ </s>	0
-0.75777876	ဇူ </s>	0
-0.46291772	မွေး </s>	0
-1.0410053	ရာဇ် </s>	0
-0.546229	စွမ်း </s>	0
-0.72075665	ဆပ် </s>	0
-0.5906584	စံ </s>	0
-1.0972885	မှင် </s>	0
-0.33505884	များ </s>	0
-0.3923797	ကျပ် </s>	0
-0.56807864	မြူ </s>	0
-0.56807864	ဗုံး </s>	0
-0.19383222	ကပ် </s>	0
-0.27602112	ပြော </s>	0
-0.89820766	ကော် </s>	0
-0.20034413	ရိုင်း </s>	0
-0.10734236	သွင်း </s>	0
-0.4976506	ချိန် </s>	0
-1.0201001	ဒေါင်း </s>	0
-0.39112654	ဆွေး </s>	0
-0.64428836	မြင်း </s>	0
-0.5958978	ရှပ် </s>	0
-0.19019796	လျှော </s>	0
-0.31829542	ဆော် </s>	0
-0.92477435	ဩ </s>	0
-0.42868227	လန့် </s>	0
-0.4778288	ကျွေး </s>	0
-0.5373459	တုံ့ </s>	0
-0.21669479	လှည့် </s>	0
-0.609367	ဏေ </s>	0
-0.32831845	ပည်း </s>	0
-0.28747568	စွန်း </s>	0
-0.8462293	နောက် </s>	0
-0.41737252	ထပ် </s>	0
-0.28940493	နုတ် </s>	0
-0.56807864	ဘော် </s>	0
-0.5276913	ဒါ </s>	0
-0.31557232	စို့ </s>	0
-0.26927754	ပို့ </s>	0
-0.17561516	ခွေ </s>	0
-0.24112676	ချပ် </s>	0
-0.37047973	ဆံ့ </s>	0
-0.56807864	ရယ် </s>	0
-0.48088115	ကွတ် </s>	0
-0.6759763	ရှူး </s>	0
-0.58552384	သန့် </s>	0
-0.13756973	သင့် </s>	0
-0.34333795	ကြောင်း </s>	0
-0.50240904	စေး </s>	0
-0.803584	နှဲ </s>	0
-0.4277625	မော </s>	0
-0.25065255	ယျ </s>	0
-0.49090582	ကျင့် </s>	0
-0.62179327	သိ </s>	0
-0.90361464	အုတ် </s>	0
-0.53795165	မြှောက် </s>	0
-0.75777876	တင့် </s>	0
-0.3890606	တောင့် </s>	0
-0.3104368	ပယ် </s>	0
-0.921972	ဆည်း </s>	0
-0.5946184	ရိပ် </s>	0
-0.29201433	သန်း </s>	0
-0.2731004	ကန်း </s>	0
-0.32831845	တြာ </s>	0
-0.50299627	ကျောင်း </s>	0
-0.6856908	ရှက် </s>	0
-0.4646607	ပြုံး </s>	0
-0.3241793	ချာ </s>	0
-0.33027765	လစ် </s>	0
-0.5990808	ဖောင်း </s>	0
-0.2867544	ဝေး </s>	0
-1.1163869	ကေ </s>	0
-0.40449008	ထု </s>	0
-0.270204	လွှဲ </s>	0
-0.44221556	အပ် </s>	0
-0.9646877	ပေ </s>	0
-0.70082116	ဖီး </s>	0
-0.23830108	ပြ </s>	0
-0.37029064	ညွတ် </s>	0
-0.53725624	ဝ </s>	0
-0.31924874	တော့ </s>	0
-1.3114048	ရွ </s>	0
-0.6001966	ကြာ </s>	0
-1.0079901	ကက် </s>	0
-0.3341168	ချေး </s>	0
-0.6621603	ရိ </s>	0
-0.8141159	စိ </s>	0
-0.18536313	ပွင့် </s>	0
-0.32563743	ညီ </s>	0
-0.7701112	နောင် </s>	0
-0.33139735	စို </s>	0
-0.6022873	စွတ် </s>	0
-0.34839463	ရှုံး </s>	0
-0.22604857	ပေါ် </s>	0
-0.4817119	မန်း </s>	0
-0.48088115	ကျိုက် </s>	0
-0.49361706	ခါ </s>	0
-0.6015233	ပြီး </s>	0
-0.88021517	အင်း </s>	0
-0.28670305	ရှင် </s>	0
-0.609367	ပြယ် </s>	0
-1.0410053	ညွှန် </s>	0
-0.07738635	ဆုပ် </s>	0
-0.9006132	ဘွား </s>	0
-0.3665268	ရုံး </s>	0
-0.37731728	ဋာ </s>	0
-0.4778288	ပင်း </s>	0
-0.19916992	လျား </s>	0
-0.10357308	ဒဏ် </s>	0
-1.230631	အုန်း </s>	0
-0.63959074	စွန် </s>	0
-0.65918285	သေ့ </s>	0
-0.3848856	ဖော် </s>	0
-1.1320264	ဂေါ </s>	0
-0.39112654	ဗျိုင်း </s>	0
-0.9528425	ဝဋ် </s>	0
-0.34993112	နစ် </s>	0
-0.48379713	ပွတ် </s>	0
-0.6057134	ဟင်း </s>	0
-0.2784659	ဆင်း </s>	0
-0.24459594	တို </s>	0
-0.62390965	သို </s>	0
-0.94271517	ပိ </s>	0
-0.9871027	ဆွေ </s>	0
-0.8122995	ပျို </s>	0
-0.45833832	မှုန် </s>	0
-1.2243962	အိပ် </s>	0
-0.62733376	ဠိ </s>	0
-0.5643268	သေ </s>	0
-0.8922224	မိတ် </s>	0
-0.4468359	ခွာ </s>	0
-0.8005061	လျှာ </s>	0
-0.39892152	ဖူး </s>	0
-0.21284826	ခြား </s>	0
-0.41413364	တိုး </s>	0
-0.19736557	မြှောင် </s>	0
-0.8820673	လှိုက် </s>	0
-0.6689255	ကို </s>	0
-0.29799706	ကြုံ </s>	0
-0.9325695	ယုံ့ </s>	0
-0.5271532	ရွဲ့ </s>	0
-0.41330484	ဖြော </s>	0
-1.1503409	နိ </s>	0
-0.5724843	စေ </s>	0
-0.34839463	နှောင်း </s>	0
-0.22498325	တား </s>	0
-0.69091266	ချမ်း </s>	0
-0.37047973	ဖြီး </s>	0
-1.1164857	ဇယ် </s>	0
-0.536525	ဟူး </s>	0
-0.526909	အောင် </s>	0
-0.4006368	လှမ်း </s>	0
-0.4523723	ထူး </s>	0
-0.33763433	နယ် </s>	0
-0.64448404	မာန် </s>	0
-0.6212487	မှောင် </s>	0
-0.6658876	မိုက် </s>	0
-0.4081655	စီ </s>	0
-0.25677252	ယွင်း </s>	0
-0.3766988	ယက် </s>	0
-0.6941584	သုံး </s>	0
-1.0410053	ပည့် </s>	0
-0.20034413	နှံ </s>	0
-0.62902546	ပဲ </s>	0
-0.32587	ကျင် </s>	0
-0.49942264	ခပ် </s>	0
-0.51545906	နှမ်း </s>	0
-0.23984924	ငေါ့ </s>	0
-0.5663904	ပူ </s>	0
-1.0410053	ဖင် </s>	0
-0.41330484	ယီ </s>	0
-0.7446412	ရန် </s>	0
-0.6950219	ဖုတ် </s>	0
-0.7290889	ဟန် </s>	0
-0.4758698	ယပ် </s>	0
-1.1320264	အီ </s>	0
-1.2251126	မု </s>	0
-0.9325695	ဇန်း </s>	0
-0.38186383	နည်း </s>	0
-0.4468359	ဟော </s>	0
-0.26071247	ဖွယ် </s>	0
-0.37984797	ပေါင်း </s>	0
-0.62733376	ညား </s>	0
-0.8266542	ဒာ </s>	0
-0.21025835	ကျွတ် </s>	0
-0.6108556	သီ </s>	0
-0.46402466	နပ် </s>	0
-0.34839463	ဆွယ် </s>	0
-0.45927334	ပွက် </s>	0
-0.44902438	ဆူ </s>	0
-0.28932193	ပေါ့ </s>	0
-0.58853835	ချို့ </s>	0
-0.9971101	ငဲ့ </s>	0
-0.29329616	ကျက် </s>	0
-0.73504317	ဋီ </s>	0
-0.1770282	ချဲ့ </s>	0
-0.15000138	လှန် </s>	0
-0.75729203	ရူ </s>	0
-0.23984924	နှက် </s>	0
-0.32831845	ရန့် </s>	0
-0.8266542	ချိုင်း </s>	0
-0.29740405	လတ် </s>	0
-0.6950219	ဝံ </s>	0
-0.12647673	ရောက် </s>	0
-0.45693523	ကတ် </s>	0
-0.42092553	ဖဲ့ </s>	0
-0.16229443	ဝန်း </s>	0
-0.35724628	နက် </s>	0
-0.7650704	ထင် </s>	0
-0.26071247	ဂူ </s>	0
-0.7401273	အန် </s>	0
-0.4277625	မှို </s>	0
-0.75777876	ဝဂ် </s>	0
-0.62733376	ဗျည်း </s>	0
-0.25055006	တွဲ </s>	0
-0.49489617	ဝေ </s>	0
-0.30290586	ဖျင် </s>	0
-0.5835008	မြ </s>	0
-0.19983095	ခွက် </s>	0
-0.15090041	ပြွန် </s>	0
-0.30150226	တီ </s>	0
-0.57131314	ချီး </s>	0
-0.32831845	မြှင့် </s>	0
-0.41875428	နာမ် </s>	0
-0.5416928	ကြောင့် </s>	0
-1.1448724	ကြ </s>	0
-0.62733376	ငြောင့် </s>	0
-0.4066882	လုတ် </s>	0
-0.20882548	မှား </s>	0
-1.1163869	ကျွက် </s>	0
-0.37047973	ဟောက် </s>	0
-0.08119874	ယံ </s>	0
-1.0544975	ပီ </s>	0
-0.73810184	ဈေး </s>	0
-0.9325695	ဂျိန် </s>	0
-1.0729449	ဖော့ </s>	0
-0.4050247	မံ </s>	0
-0.5373459	ယောင်း </s>	0
-0.7241367	ညစ် </s>	0
-0.8266542	ထတ် </s>	0
-0.8820673	ဂန် </s>	0
-0.7181256	ခြင် </s>	0
-0.24319272	သိမ် </s>	0
-0.8266542	ပြီ </s>	0
-0.56807864	ပင့် </s>	0
-0.3530019	ဆင့် </s>	0
-0.38061708	မြင့် </s>	0
-0.7273271	ညှော် </s>	0
-0.9688865	ချောက် </s>	0
-0.37047973	ချား </s>	0
-0.4680602	ဖွာ </s>	0
-1.0646144	ဓု </s>	0
-0.30333513	မှု </s>	0
-0.4646607	ပြန့် </s>	0
-0.70082116	ကျဲ </s>	0
-0.38856125	ပုဒ် </s>	0
-1.050621	အံ </s>	0
-0.6822562	မုတ် </s>	0
-0.51301897	ကျိတ် </s>	0
-0.5835008	ညှိုး </s>	0
-0.31924874	စော </s>	0
-0.5271532	ဖိန်း </s>	0
-0.8266542	ညု </s>	0
-0.8266542	နွတ် </s>	0
-0.33692884	ထ </s>	0
-0.37731728	လျော </s>	0
-0.23191462	မြောင်း </s>	0
-0.26827714	ဖြောင့် </s>	0
-0.609367	ရွား </s>	0
-1.0238808	ရှယ် </s>	0
-1.0355438	အင် </s>	0
-0.3501585	ခွင် </s>	0
-0.15855934	တည်း </s>	0
-0.8820673	ဟူ </s>	0
-0.26071247	လှယ် </s>	0
-0.32831845	ကြိုင် </s>	0
-0.9971101	နွင်း </s>	0
-0.46773392	ဏ </s>	0
-0.45210695	ကွာ </s>	0
-0.7995812	အက် </s>	0
-0.5835008	ဃ </s>	0
-0.21334952	ပုပ် </s>	0
-0.32580316	ခိုက် </s>	0
-0.39861855	ဖယ် </s>	0
-1.1339189	ဒိ </s>	0
-0.26827714	ဖုံး </s>	0
-0.609367	ဖွက် </s>	0
-0.34839463	ဟပ် </s>	0
-0.42443419	စွန့် </s>	0
-0.41330484	တံ့ </s>	0
-0.3665268	ပန် </s>	0
-0.5994903	ဝေါ </s>	0
-0.803584	ဟိတ် </s>	0
-0.9709538	ကျီး </s>	0
-0.9528425	လျှပ် </s>	0
-0.50152385	ပြက် </s>	0
-0.34839463	နွဲ့ </s>	0
-0.9325695	ဇောင်း </s>	0
-0.803584	နှေး </s>	0
-0.3104368	ယာဉ် </s>	0
-0.14209324	ကြဲ </s>	0
-0.28940493	ပျဉ် </s>	0
-0.4797098	စုတ် </s>	0
-0.4468359	သပ် </s>	0
-0.1162343	မြှေး </s>	0
-0.5271532	ကြဉ် </s>	0
-0.4595022	ဖက် </s>	0
-0.21563996	မှိန် </s>	0
-0.41330484	အေ </s>	0
-0.5031255	ဒိုး </s>	0
-1.1648831	ဒေါက် </s>	0
-0.5205356	ကျွန်း </s>	0
-0.33638057	ထစ် </s>	0
-0.4799754	ဟ </s>	0
-0.465603	လောင် </s>	0
-0.3441318	နှီး </s>	0
-0.14687741	နှုန်း </s>	0
-0.42438376	ဆန့် </s>	0
-0.9971101	ဗန် </s>	0
-0.62733376	ငန် </s>	0
-0.29577076	သီး </s>	0
-1.2384666	နှုတ် </s>	0
-0.4886216	သွက် </s>	0
-0.9971101	ကျုံ့ </s>	0
-0.609367	ဖျ </s>	0
-0.96347994	ဖြ </s>	0
-0.51301897	ဝယ် </s>	0
-0.42092553	တွေ </s>	0
-0.2883428	ပုတ် </s>	0
-0.62733376	ဇီး </s>	0
-0.29201433	လွယ် </s>	0
-0.65918285	ဖော </s>	0
-0.13622847	ကိုက် </s>	0
-0.25332052	ပျ </s>	0
-0.9325695	ဒြပ် </s>	0
-0.1811527	ဆွ </s>	0
-0.6060134	ခေါင် </s>	0
-0.45210695	ထုံ </s>	0
-0.34228832	လွတ် </s>	0
-0.5271532	ဆိန် </s>	0
-0.803584	ထိုက် </s>	0
-0.76787025	လျောက် </s>	0
-0.40946293	ဆယ် </s>	0
-0.5835008	ဘွဲ့ </s>	0
-0.30290586	ရတ် </s>	0
-0.75777876	ထွတ် </s>	0
-0.76573515	ထိပ် </s>	0
-0.38229457	ပြင်း </s>	0
-1.1480615	ဒု </s>	0
-0.34839463	ထွင်း </s>	0
-0.9325695	နုန်း </s>	0
-0.39861855	ဖောင် </s>	0
-1.0729449	ဗာန် </s>	0
-0.41330484	ပံ့ </s>	0
-0.11708191	ဝှက် </s>	0
-0.8266542	ကျာ </s>	0
-0.23026548	မျှ </s>	0
-0.33490357	ပြဲ </s>	0
-1.0238808	ဝုတ် </s>	0
-0.9325695	ရိုဏ်း </s>	0
-0.24122828	ချဉ် </s>	0
-0.32831845	ညှစ် </s>	0
-0.15923673	ညွှန်း </s>	0
-0.41330484	ပွေ </s>	0
-0.5560895	သိပ် </s>	0
-0.23961794	ပြောက် </s>	0
-0.1162343	မြန်း </s>	0
-0.803584	လွမ်း </s>	0
-0.37047973	သယ် </s>	0
-1.2077891	ဇက် </s>	0
-0.7902282	ဖြဲ </s>	0
-0.9325695	နွံ </s>	0
-0.30349636	စောင့် </s>	0
-0.62733376	ဝိန် </s>	0
-0.20034413	တွင် </s>	0
-0.32580316	ကျွန် </s>	0
-0.20849356	ပျံ </s>	0
-0.803584	ယှဉ် </s>	0
-0.37143642	ပြိုင် </s>	0
-0.41521087	ကြယ် </s>	0
-0.48615134	ယင် </s>	0
-0.3112126	ခြိုက် </s>	0
-1.1736493	တိန် </s>	0
-0.70082116	ညင် </s>	0
-0.37241596	ချို </s>	0
-0.4294123	ကျွမ်း </s>	0
-0.19736557	ညှိ </s>	0
-0.6506758	သောင်း </s>	0
-0.8266542	ကဋ် </s>	0
-0.5373459	ကြိမ် </s>	0
-0.19879216	ဖို </s>	0
-0.30136093	ဆစ် </s>	0
-0.4294123	ညောင်း </s>	0
-0.8733028	ဂါး </s>	0
-0.3112126	လွင် </s>	0
-0.5416928	ရွပ် </s>	0
-0.58123684	ဖား </s>	0
-0.9871027	ချင် </s>	0
-0.609367	ဿံ </s>	0
-0.38856125	အောင်း </s>	0
-0.4680602	ချိ </s>	0
-0.5271532	မြှူ </s>	0
-1.1480615	ဇီ </s>	0
-0.26346126	ဖြုတ် </s>	0
-0.8466963	သို့ </s>	0
-0.43106836	တွန်း </s>	0
-0.08756636	လွှာ </s>	0
-0.3112126	နှိမ် </s>	0
-0.38061708	လျင် </s>	0
-0.4646607	ခုပ် </s>	0
-0.62733376	မိုင် </s>	0
-0.4646607	ဖြုန်း </s>	0
-0.31557232	တုပ် </s>	0
-0.6688282	ပျာ </s>	0
-0.62733376	လိုင်း </s>	0
-0.609367	ငင်း </s>	0
-0.9709538	ကွန်း </s>	0
-0.9325695	ဖျပ် </s>	0
-0.41330484	မှောင့် </s>	0
-0.609367	ရောင့် </s>	0
-1.159717	လော် </s>	0
-0.7181256	လှိုင်း </s>	0
-0.62733376	ခွပ် </s>	0
-0.9971101	သည့် </s>	0
-0.2666675	ပြင် </s>	0
-0.23832335	ကွေး </s>	0
-0.32831845	ပိုဒ် </s>	0
-1.0729449	တေ့ </s>	0
-0.2729897	လွဲ </s>	0
-0.11107955	ငင် </s>	0
-0.8733028	နှိုင်း </s>	0
-0.8184935	မေ့ </s>	0
-0.23984924	ကျွံ </s>	0
-0.48088115	ရှ </s>	0
-0.40033728	နှင့် </s>	0
-0.96347994	ရမ် </s>	0
-0.41330484	ဘား </s>	0
-0.37731728	ဆွန်း </s>	0
-0.1162343	ဇဉ် </s>	0
-0.41875428	ယန် </s>	0
-0.21563996	ဇွန်း </s>	0
-0.3112126	ထွင် </s>	0
-0.9325695	ပါဌ် </s>	0
-0.4758698	ကြို </s>	0
-0.75777876	ကျိန်း </s>	0
-0.27258515	ကျေ </s>	0
-0.8266542	နောင့် </s>	0
-0.6269301	လိ </s>	0
-0.6903384	ဇော </s>	0
-0.31557232	မှောက် </s>	0
-0.609367	ပိုင့် </s>	0
-0.6222937	အော် </s>	0
-0.16230825	ချိတ် </s>	0
-0.26346126	ဝပ် </s>	0
-0.8266542	ယွန် </s>	0
-0.65918285	ဘင် </s>	0
-0.24319272	ခက် </s>	0
-0.3112126	ရို့ </s>	0
-0.56807864	ထင်း </s>	0
-0.16134603	ချေ </s>	0
-1.0238808	ပြိုက် </s>	0
-0.58853835	သိုင်း </s>	0
-0.39861855	သွန် </s>	0
-0.21356738	ခင်း </s>	0
-0.9325695	လဂ် </s>	0
-0.34839463	မွတ် </s>	0
-0.6212487	ကီ </s>	0
-1.0238808	ပ် </s>	0
-0.33794165	အို </s>	0
-0.9274938	သော် </s>	0
-0.41087782	ခိုင် </s>	0
-0.319076	လုံ </s>	0
-0.22484933	စွာ </s>	0
-0.8266542	ဖန်း </s>	0
-0.11205137	ကျင်း </s>	0
-0.21563996	ခွေ့ </s>	0
-0.8414158	ဟန်း </s>	0
-0.5271532	ဖြန် </s>	0
-0.32587	ပြောင် </s>	0
-0.23984924	နွှဲ </s>	0
-0.32128116	ခုတ် </s>	0
-0.8563775	င </s>	0
-0.38335273	နှိပ် </s>	0
-0.9971101	ထေ့ </s>	0
-0.609367	ကိုဋ် </s>	0
-0.70082116	ကျုံး </s>	0
-0.43205202	လံ </s>	0
-0.36331347	ချိုး </s>	0
-0.21563996	ရှိုင်း </s>	0
-0.48088115	မှိုင် </s>	0
-0.37047973	လှီး </s>	0
-0.3104368	ချွတ် </s>	0
-0.66397876	ကြံ့ </s>	0
-0.21334952	မြောက် </s>	0
-0.536525	နူး </s>	0
-0.5605682	ဆောက် </s>	0
-0.2230984	လျှံ </s>	0
-0.7181256	ရိုင် </s>	0
-0.47148645	အစ် </s>	0
-0.9528425	ငါ </s>	0
-0.41330484	ခြာ </s>	0
-0.35430536	မြား </s>	0
-1.0238808	မှိတ် </s>	0
-0.3112126	နှံ့ </s>	0
-0.5561235	ငန်း </s>	0
-0.6015233	ကျော </s>	0
-0.23984924	ထန် </s>	0
-0.49991435	မျော </s>	0
-0.70082116	လိုင် </s>	0
-0.31479475	သွမ်း </s>	0
-0.54014015	ဟောင်း </s>	0
-0.42092553	နှောင် </s>	0
-0.1770282	ချိုင့် </s>	0
-0.11676779	ထောင့် </s>	0
-0.35430536	ခြစ် </s>	0
-0.42936337	ဘက် </s>	0
-0.5436859	ညွန့် </s>	0
-0.37731728	လိန် </s>	0
-0.41330484	ယောက်ျား </s>	0
-0.37731728	ဖျန် </s>	0
-0.71339464	နွေး </s>	0
-0.8266542	မိန် </s>	0
-0.30029422	ညက် </s>	0
-0.37399885	ယိုင် </s>	0
-0.30290586	မြွှာ </s>	0
-0.48088115	ပူး </s>	0
-0.25677252	တွန် </s>	0
-1.0729449	ငု </s>	0
-0.4277625	ကျဉ်း </s>	0
-0.41330484	ဒါး </s>	0
-0.42438376	ကြိုက် </s>	0
-0.31557232	သွယ် </s>	0
-0.48615134	ကျည်း </s>	0
-0.5612539	ကြွေး </s>	0
-0.8131906	ငိုက် </s>	0
-0.29799706	မောက် </s>	0
-0.51197886	ဂုဏ် </s>	0
-0.29475504	ဆန်း </s>	0
-0.8266542	ရာယ် </s>	0
-0.536525	ငံ့ </s>	0
-0.75777876	ချည့် </s>	0
-0.25677252	နဲ့ </s>	0
-0.536525	ဖေး </s>	0
-0.8414158	သောင် </s>	0
-0.5271532	ကြော့ </s>	0
-0.41330484	လို့ </s>	0
-0.19019796	ညို </s>	0
-0.8266542	တျင်း </s>	0
-0.71021783	ဘီ </s>	0
-0.37399885	မွေ့ </s>	0
-0.2588143	တုတ် </s>	0
-0.9006132	ငံ </s>	0
-0.6288234	ဖျဉ်း </s>	0
-0.9325695	ပျမ်း </s>	0
-0.609367	ဒိတ် </s>	0
-0.5064681	ဂီ </s>	0
-0.70082116	ဇင် </s>	0
-0.8266542	ဖြိုင် </s>	0
-0.32831845	လှိမ့် </s>	0
-0.42092553	ဂုံ </s>	0
-0.11676779	ထည့် </s>	0
-0.37731728	ဆိမ့် </s>	0
-0.5874127	ထွေ </s>	0
-1.1164857	ပျင်း </s>	0
-0.2342902	အုံ </s>	0
-0.39861855	ဖြည့် </s>	0
-0.5086582	မယ် </s>	0
-0.29245406	နွယ် </s>	0
-0.092505366	ငွေ </s>	0
-0.8266542	ပမ်း </s>	0
-1.0410053	တုန်း </s>	0
-0.70082116	ဖေ </s>	0
-0.78525925	နှင်း </s>	0
-0.38856125	ခြုံ </s>	0
-0.9325695	ရိမ် </s>	0
-0.9325695	ခြိမ်း </s>	0
-1.1164857	ပျော် </s>	0
-0.609367	ဂတ် </s>	0
-1.1797628	ဋိ </s>	0
-0.30290586	ဟစ် </s>	0
-0.5835008	ဘတ် </s>	0
-0.5271532	ဂျက် </s>	0
-0.5031255	ဟို </s>	0
-0.37731728	ဒင်း </s>	0
-0.19736557	လှုပ် </s>	0
-0.4567722	ရှောင် </s>	0
-0.47849804	ခင် </s>	0
-0.8266542	ဗောင် </s>	0
-0.29799706	စိမ် </s>	0
-0.26071247	ဟတ် </s>	0
-0.37731728	ကုဋ် </s>	0
-0.7431115	ဆွတ် </s>	0
-0.22985047	ခွ </s>	0
-0.23984924	စဲ </s>	0
-0.3221949	ပျစ် </s>	0
-0.23984924	မြူး </s>	0
-1.1648831	ကွန် </s>	0
-0.5271532	ညွှတ် </s>	0
-0.37731728	ငြင် </s>	0
-0.609367	ဓမ်း </s>	0
-0.09457128	ရွဲ </s>	0
-0.5605682	မည်း </s>	0
-0.62733376	ကြုတ် </s>	0
-0.48088115	ဒို </s>	0
-1.0410053	ဆာန် </s>	0
-0.28940493	စင်း </s>	0
-0.9971101	ပြုံ </s>	0
-0.5271532	ခွင်း </s>	0
-0.5031255	ဘောင် </s>	0
-0.38856125	အုံး </s>	0
-0.65918285	ခိုင်း </s>	0
-0.37731728	မျဉ် </s>	0
-0.28747568	ဆိပ် </s>	0
-0.23984924	ထွာ </s>	0
-0.62733376	မြှုံး </s>	0
-0.38856125	တိမ် </s>	0
-0.609367	ပျင် </s>	0
-0.70082116	ယိမ်း </s>	0
-0.18952118	သုဉ်း </s>	0
-0.37731728	ဇိုင်း </s>	0
-0.4050247	ခုံး </s>	0
-0.94057906	ကြင် </s>	0
-0.39545578	ရူး </s>	0
-0.5958978	ခန့် </s>	0
-1.1448724	ဗာ </s>	0
-0.8266542	ဒံ </s>	0
-0.8266542	ယျာဉ် </s>	0
-0.52661353	ကုတ် </s>	0
-0.06892891	၍ </s>	0
-0.377945	ခုန် </s>	0
-0.41330484	ပံ </s>	0
-0.4646607	ချန် </s>	0
-0.5271532	သဲ့ </s>	0
-0.51301897	ဆု </s>	0
-0.3112126	ပြူး </s>	0
-0.37731728	ဖျံ </s>	0
-0.39861855	ဖု </s>	0
-0.41330484	ပြွတ် </s>	0
-0.41658926	လှေ </s>	0
-1.1556729	နှတ် </s>	0
-0.35099325	နွမ်း </s>	0
-1.0646144	ဒင် </s>	0
-0.62733376	ချည်း </s>	0
-0.99466157	ဖဲ </s>	0
-0.38061708	မွှေး </s>	0
-0.41330484	ပျံ့ </s>	0
-0.6903384	ဒြေ </s>	0
-0.42645192	ပေါ </s>	0
-0.8486767	မြွေ </s>	0
-0.37047973	ပပ် </s>	0
-0.1811527	ပုံး </s>	0
-0.38856125	ဖွဲ </s>	0
-0.53772944	ငို </s>	0
-1.1339189	ငေါက် </s>	0
-0.56807864	ဖြန်း </s>	0
-0.5912718	တို့ </s>	0
-0.96347994	ရှို့ </s>	0
-0.43008715	ရင့် </s>	0
-0.4646607	ယော </s>	0
-1.0410053	ခေါ </s>	0
-0.8131906	ငြိုး </s>	0
-1.0972885	ဝင်း </s>	0
-0.45066068	ထာ </s>	0
-0.8266542	ဟိုင်း </s>	0
-0.1811527	မွှား </s>	0
-0.32831845	ကျော့ </s>	0
-1.0410053	ညှီ </s>	0
-0.28932193	ချောင် </s>	0
-0.8414158	ထယ် </s>	0
-0.609367	ဗုန် </s>	0
-1.0940604	အတ် </s>	0
-0.37731728	ခွန့် </s>	0
-0.2883428	ခွံ </s>	0
-0.3289564	ခွန် </s>	0
-0.37731728	နွှယ် </s>	0
-0.37731728	ဒိန် </s>	0
-0.76573515	ထွန် </s>	0
-0.8266542	ညတ် </s>	0
-0.803584	ဒေါင် </s>	0
-0.803584	မှော် </s>	0
-0.37047973	နုပ် </s>	0
-0.49097085	မူး </s>	0
-0.8266542	ဝမ် </s>	0
-0.609367	လွေး </s>	0
-0.23984924	ခူး </s>	0
-0.14687741	ဆိုက် </s>	0
-0.609367	ဍိုင် </s>	0
-0.9325695	ထိန် </s>	0
-1.0331768	ကြောက် </s>	0
-0.41330484	ရွံ့ </s>	0
-0.75777876	နှယ် </s>	0
-0.3848511	ဆုတ် </s>	0
-0.9971101	မုခ် </s>	0
-0.32831845	ဖြာ </s>	0
-1.0238808	နန့် </s>	0
-0.2711324	ရှား </s>	0
-0.9325695	ဗြင်း </s>	0
-0.37047973	ထောင်း </s>	0
-1.0410053	ဗိုက် </s>	0
-1.1163869	ညည်း </s>	0
-0.5271532	ညူ </s>	0
-0.3112126	ချူ </s>	0
-0.30349636	လပ် </s>	0
-1.1736493	စိမ့် </s>	0
-0.609367	ဖည် </s>	0
-0.42645192	နော </s>	0
-0.37731728	ထည်း </s>	0
-0.3112126	ဆဲ </s>	0
-0.70082116	ညှာ </s>	0
-0.65918285	မေ </s>	0
-0.41330484	မြုံ </s>	0
-1.0940604	သိက် </s>	0
-0.9325695	ဿာ </s>	0
-0.31430238	ယို </s>	0
-0.803584	မွဲ </s>	0
-0.41330484	ပါယ် </s>	0
-1.2375237	ကွမ်း </s>	0
-0.19019796	ငွေ့ </s>	0
-0.3112126	တဲ့ </s>	0
-0.5271532	စွက် </s>	0
-0.47222495	ရွေး </s>	0
-0.9971101	ခွား </s>	0
-0.803584	ယုန် </s>	0
-0.75777876	လှေး </s>	0
-0.96347994	ထုံ့ </s>	0
-0.803584	ဏန်း </s>	0
-0.58727956	ကံ </s>	0
-1.1164857	ယုံ </s>	0
-0.9325695	ဝှေး </s>	0
-0.65918285	ညှင်း </s>	0
-0.70082116	မြေး </s>	0
-0.2238032	ငှက် </s>	0
-0.23984924	ဖြင့် </s>	0
-0.5271532	မွှန် </s>	0
-0.609367	ဝှန့် </s>	0
-1.1163869	ဖြည်း </s>	0
-1.0238808	ဒီး </s>	0
-1.2522401	ဖိ </s>	0
-0.37731728	ရိုဏ် </s>	0
-0.54014015	လျော် </s>	0
-0.37731728	ညှောက် </s>	0
-0.5271532	မျို </s>	0
-0.9006132	မှာ </s>	0
-1.0646144	လိုဏ် </s>	0
-0.2526432	တဲ </s>	0
-0.9971101	ဝှေ့ </s>	0
-0.609367	ရွင်း </s>	0
-0.5271532	မွ </s>	0
-0.29799706	မွန် </s>	0
-0.609367	ချူပ် </s>	0
-0.29245406	ဖွား </s>	0
-0.8266542	အန်း </s>	0
-0.37731728	သျှ </s>	0
-0.634705	ဝီ </s>	0
-0.609367	ဂေး </s>	0
-0.76787025	မြီ </s>	0
-0.62733376	ညိတ် </s>	0
-0.5271532	ဌေး </s>	0
-0.70082116	ဓါ </s>	0
-0.9325695	ဏား </s>	0
-0.62390965	ချွန်း </s>	0
-0.21020083	လျာ </s>	0
-0.62733376	အော </s>	0
-0.25065255	ချစ် </s>	0
-0.609367	ဟိန်း </s>	0
-0.21020083	ကျန် </s>	0
-0.76787025	ကော့ </s>	0
-0.62733376	လျ </s>	0
-1.1448724	ဗုံ </s>	0
-0.37731728	ပိမ့် </s>	0
-0.9971101	မိုရ် </s>	0
-0.62733376	ထိမ် </s>	0
-0.48088115	လဲ့ </s>	0
-0.8266542	ဂုတ် </s>	0
-0.26548812	စောက် </s>	0
-0.37047973	ရှုံ့ </s>	0
-0.21563996	မြုပ် </s>	0
-0.12830648	ထိုင်း </s>	0
-0.4540853	ဘုတ် </s>	0
-0.62390965	ခူ </s>	0
-0.9325695	ဒါန်း </s>	0
-0.23832335	ယှက် </s>	0
-0.5835008	ချိပ် </s>	0
-0.7241367	မိန့် </s>	0
-0.4066882	ကြေ </s>	0
-0.9971101	ဟီ </s>	0
-0.24907449	ကျစ် </s>	0
-0.24804507	ရှုပ် </s>	0
-0.8266542	ဝုစ် </s>	0
-0.8266542	ဆုန် </s>	0
-0.609367	မြှိုက် </s>	0
-0.772017	ဿ </s>	0
-0.9006132	ကျွဲ </s>	0
-1.0972885	ဓေ </s>	0
-0.9325695	ကိတ် </s>	0
-0.609367	ခွတ် </s>	0
-0.3112126	မြောင် </s>	0
-0.37731728	ရှော့ </s>	0
-0.16169895	လည်း </s>	0
-0.37436467	ကျမ်း </s>	0
-0.41330484	အိုက် </s>	0
-0.5271532	ချုန်း </s>	0
-0.609367	မြှောင့် </s>	0
-0.33490357	ရွှင် </s>	0
-0.1811527	နှိုက် </s>	0
-0.21563996	မှီး </s>	0
-1.0972885	ဘန် </s>	0
-0.609367	ပျော </s>	0
-0.4646607	နှင် </s>	0
-0.9325695	မစ် </s>	0
-0.62733376	သိုလ် </s>	0
-0.803584	ယီး </s>	0
-0.8266542	မြုန့် </s>	0
-0.5271532	ကြင်း </s>	0
-0.25065255	ဂိုဏ်း </s>	0
-0.5373459	မှီ </s>	0
-0.23984924	စိုင်း </s>	0
-1.0238808	ချွံ </s>	0
-0.37047973	ပြို </s>	0
-0.3583875	ကြည် </s>	0
-0.486186	ဖြူး </s>	0
-0.8266542	ရှဲ </s>	0
-0.70082116	ပြုပ် </s>	0
-0.609367	မြော့ </s>	0
-1.0238808	ကစ် </s>	0
-0.7181256	ယမ်း </s>	0
-0.803584	ထော် </s>	0
-0.51301897	မိုင်း </s>	0
-0.5271532	ဖုံ </s>	0
-0.4758698	ကြိတ် </s>	0
-1.159717	မွန်း </s>	0
-0.4646607	သုန် </s>	0
-0.536525	ချင့် </s>	0
-0.37731728	ရိန် </s>	0
-0.9971101	ငြာ </s>	0
-0.30290586	ဆည် </s>	0
-0.9971101	မို </s>	0
-0.25065255	စိပ် </s>	0
-1.0729449	သျှူး </s>	0
-0.37731728	လွေ </s>	0
-0.4646607	ကုံး </s>	0
-0.03309838	မှုန့် </s>	0
-0.36794725	တိတ် </s>	0
-0.609367	တဏ် </s>	0
-0.9325695	ဖိုင် </s>	0
-0.21563996	ပွန် </s>	0
-1.0972885	ရှဉ့် </s>	0
-1.0729449	ရွှန်း </s>	0
-0.8266542	ရွန် </s>	0
-0.23984924	မြော </s>	0
-0.34557733	ပွ </s>	0
-0.9325695	လာပ် </s>	0
-0.609367	တွဲ့ </s>	0
-0.9971101	နှောက် </s>	0
-0.609367	ဎိ </s>	0
-0.32831845	ထေရ် </s>	0
-0.9325695	ဂင် </s>	0
-0.62733376	လွှမ်း </s>	0
-0.32831845	ဖွပ် </s>	0
-1.1197593	ဝဏ် </s>	0
-0.8266542	လျစ် </s>	0
-0.9325695	လျူ </s>	0
-0.5835008	မြည် </s>	0
-0.75777876	ရုဏ် </s>	0
-0.42092553	ကြည်း </s>	0
-0.8266542	ဖြို </s>	0
-0.609367	ဗတ် </s>	0
-0.5835008	မှိုင်း </s>	0
-0.37731728	ဆွံ </s>	0
-0.7326344	ဒိုင်း </s>	0
-0.37731728	ဓိုရ် </s>	0
-1.0940604	ဖုန် </s>	0
-1.1164857	ငြင်း </s>	0
-0.26071247	လှဲ </s>	0
-0.41330484	ကြွယ် </s>	0
-0.21563996	ပါဒ် </s>	0
-0.8266542	မှုန်း </s>	0
-0.609367	ညှို </s>	0
-1.0410053	တြိ </s>	0
-0.609367	ဋုက် </s>	0
-0.33490357	စုပ် </s>	0
-0.21563996	ဓံ </s>	0
-0.37047973	လွှင့် </s>	0
-0.38856125	မြိတ် </s>	0
-0.9971101	ကွန့် </s>	0
-1.0410053	ထံ </s>	0
-1.0729449	ကြိမ်း </s>	0
-0.26346126	ဆို့ </s>	0
-0.9971101	စွ </s>	0
-0.5271532	မှေး </s>	0
-0.5271532	ပြိန်း </s>	0
-0.609367	စွင့် </s>	0
-0.37731728	ကေး </s>	0
-0.38856125	လှော် </s>	0
-0.42438376	မှ </s>	0
-0.8266542	သိုဏ်း </s>	0
-1.0238808	ပြူ </s>	0
-0.9006132	ဟေ </s>	0
-0.8266542	ဝှန် </s>	0
-0.8266542	ညည့် </s>	0
-0.62733376	ဖြန့် </s>	0
-1.1163869	လိန်း </s>	0
-0.37731728	တာန် </s>	0
-0.96347994	ဖြောက် </s>	0
-0.609367	ဘမ် </s>	0
-0.9971101	နှောင့် </s>	0
-0.4680602	နင့် </s>	0
-1.0410053	ရှောက် </s>	0
-1.0972885	ထိတ် </s>	0
-0.9971101	ဖွ </s>	0
-0.5271532	ယတ် </s>	0
-0.96347994	ဖန့် </s>	0
-0.8266542	ချဉ်း </s>	0
-0.19736557	လန်း </s>	0
-0.9325695	ယျာ </s>	0
-0.609367	မည့် </s>	0
-0.32831845	ဒါန် </s>	0
-0.37731728	တွဒ် </s>	0
-0.94057906	လျှော့ </s>	0
-0.609367	ဖွန်း </s>	0
-0.5271532	ဖိုလ် </s>	0
-0.23984924	တွား </s>	0
-0.21563996	မြည့် </s>	0
-0.609367	ဓွန့် </s>	0
-0.30007833	ညံ </s>	0
-0.5271532	သမ်း </s>	0
-0.8266542	ဂုံး </s>	0
-0.8266542	လှေ့ </s>	0
-0.23984924	လှပ် </s>	0
-0.536525	အောင့် </s>	0
-0.75777876	ဝင့် </s>	0
-0.9971101	ကျဉ် </s>	0
-0.23984924	အိ </s>	0
-0.609367	ဝါက် </s>	0
-0.75777876	လိမ့် </s>	0
-0.41330484	စုန် </s>	0
-0.536525	ကြွင်း </s>	0
-0.609367	လှီ </s>	0
-1.0646144	ကျိန် </s>	0
-0.37731728	မွှန်း </s>	0
-0.37047973	ယစ် </s>	0
-0.9325695	တိပ် </s>	0
-0.8266542	စော့ </s>	0
-0.32831845	လျဉ် </s>	0
-1.0410053	ညှဉ်း </s>	0
-0.609367	စုန့် </s>	0
-0.58853835	ကုံ </s>	0
-0.3112126	ကြတ် </s>	0
-0.48088115	ခံ့ </s>	0
-0.8266542	ယူး </s>	0
-0.609367	ရှေ </s>	0
-0.23984924	ထေး </s>	0
-1.0972885	ချိန်း </s>	0
-0.41330484	သွန်း </s>	0
-0.609367	သွဲ့ </s>	0
-0.34839463	ကွေ့ </s>	0
-0.609367	အို့ </s>	0
-0.41330484	ပျပ် </s>	0
-0.8266542	ဍပ် </s>	0
-0.609367	မျစ် </s>	0
-0.8266542	ဆမ်း </s>	0
-0.8266542	ငှန်း </s>	0
-0.8266542	ညမ်း </s>	0
-0.8266542	လှိုင် </s>	0
-0.8266542	စွံ </s>	0
-0.5271532	ဟဲ </s>	0
-0.609367	လှော </s>	0
-0.8266542	ဌိ </s>	0
-0.21563996	နောင်း </s>	0
-0.9325695	ငေါ် </s>	0
-0.3112126	ခြယ် </s>	0
-0.8266542	လွှံ့ </s>	0
-0.9325695	ပဒ် </s>	0
-0.5271532	တုံ </s>	0
-0.609367	ဘျမ်း </s>	0
-0.62733376	ဌာန်း </s>	0
-0.15090041	လှန့် </s>	0
-0.609367	ပီး </s>	0
-1.0238808	နင် </s>	0
-0.609367	မင့် </s>	0
-0.15090041	မော့ </s>	0
-0.9971101	ဆောင့် </s>	0
-0.609367	ယုဂ် </s>	0
-0.15090041	ကြူး </s>	0
-0.609367	ရသ် </s>	0
-0.9325695	မြိန် </s>	0
-0.62733376	သုန်း </s>	0
-0.8266542	စည့် </s>	0
-0.70082116	မြွက် </s>	0
-0.609367	ထင့် </s>	0
-1.0410053	ရှိုး </s>	0
-0.37047973	ငုံ </s>	0
-0.37731728	ကြစ် </s>	0
-0.609367	ငူး </s>	0
-0.609367	စွမ် </s>	0
-0.609367	ပါက် </s>	0
-0.609367	ဒိမ်း </s>	0
-0.803584	ထဲ </s>	0
-0.73504317	ယဉ်း </s>	0
-0.9325695	ခြုတ် </s>	0
-0.609367	လုန် </s>	0
-0.609367	ကြူ </s>	0
-0.3112126	ဖျာ </s>	0
-0.9325695	ဋေ </s>	0
-0.609367	အို့ဝ် </s>	0
-0.70082116	ဤ </s>	0
-0.32831845	ကျို </s>	0
-0.37731728	ဇိုး </s>	0
-0.15683855	ဏီ </s>	0
-0.37731728	ဟန့် </s>	0
-0.9325695	ဂို </s>	0
-0.5271532	ဝိုက် </s>	0
-0.37731728	မြည်း </s>	0
-0.9325695	ထွန့် </s>	0
-0.70082116	နည် </s>	0
-0.9325695	လွန့် </s>	0
-1.0410053	နွေ </s>	0
-1.0238808	ဖူ </s>	0
-1.0238808	ကြန့် </s>	0
-0.609367	ကျုံ </s>	0
-1.1320264	ကျူ </s>	0
-0.9971101	သျှောင် </s>	0
-0.62733376	မြိုက် </s>	0
-1.0238808	ချုံး </s>	0
-0.8266542	ဦ </s>	0
