a baun ||| အာ ပေါင် ||| 0.6 0.2 0.2 0.6 0.2 0.2
a ga- ||| အာ က ||| 0.6 0.2 0.2 0.6 0.2 0.2
a ga- ||| အာ ဂ ||| 0.6 0.2 0.2 0.6 0.2 0.2
a jaun ||| အ ရုဏ် ||| 0.6 0.2 0.2 0.6 0.2 0.2
a ju. ||| အာ ယု ||| 0.6 0.2 0.2 0.6 0.2 0.2
a ka ||| အာ ကာ ||| 0.818182 0.0909091 0.0909091 0.818182 0.0909091 0.0909091
a ma. gan ||| အာ မ ခံ ||| 0.92 0.04 0.04 0.92 0.04 0.04
a ma. ||| အာ မ ||| 0.935484 0.0322581 0.0322581 0.935484 0.0322581 0.0322581
a sa- ri. ||| အာ စ ရိ ||| 0.714286 0.142857 0.142857 0.714286 0.142857 0.142857
a sa- ||| အာ စ ||| 0.714286 0.142857 0.142857 0.714286 0.142857 0.142857
a tha ||| အာ သာ ||| 0.818182 0.0909091 0.0909091 0.818182 0.0909091 0.0909091
a wa tha. ||| အာ ဝါ သ ||| 0.6 0.2 0.2 0.6 0.2 0.2
a wa ||| အာ ဝါ ||| 0.777778 0.111111 0.111111 0.777778 0.111111 0.111111
a ||| နာ ||| 0.714286 0.142857 0.142857 0.714286 0.142857 0.142857
a ||| အ ||| 0.963636 0.0181818 0.0181818 0.963636 0.0181818 0.0181818
a ||| အာ ||| 0.99322 0.00338983 0.00338983 0.99322 0.00338983 0.00338983
a ||| အား ||| 0.6 0.2 0.2 0.6 0.2 0.2
a ||| အံ ||| 0.6 0.2 0.2 0.6 0.2 0.2
a' chi ||| အပ် ချည် ||| 0.6 0.2 0.2 0.6 0.2 0.2
a' ||| တံ ||| 0.6 0.2 0.2 0.6 0.2 0.2
a' ||| အဋ် ||| 0.777778 0.111111 0.111111 0.777778 0.111111 0.111111
a' ||| အတ် ||| 0.92 0.04 0.04 0.92 0.04 0.04
a' ||| အပ် ||| 0.974684 0.0126582 0.0126582 0.974684 0.0126582 0.0126582
a' ||| အဗ် ||| 0.714286 0.142857 0.142857 0.714286 0.142857 0.142857
a- bei' ||| အ ဘိ ||| 0.714286 0.142857 0.142857 0.714286 0.142857 0.142857
a- bi. ||| အ ဘိ ||| 0.714286 0.142857 0.142857 0.714286 0.142857 0.142857
a- cha' ||| အ ချပ် ||| 0.6 0.2 0.2 0.6 0.2 0.2
a- chan: ||| အ ချမ်း ||| 0.6 0.2 0.2 0.6 0.2 0.2
a- chan: ||| အ ခြမ်း ||| 0.714286 0.142857 0.142857 0.714286 0.142857 0.142857
a- chau' ||| အ ခြောက် ||| 0.846154 0.0769231 0.0769231 0.846154 0.0769231 0.0769231
a- chaun ||| အ ချောင် ||| 0.818182 0.0909091 0.0909091 0.818182 0.0909091 0.0909091
a- che' a- ||| အ ချက် အ ||| 0.714286 0.142857 0.142857 0.714286 0.142857 0.142857
a- che' ||| အ ချက် ||| 0.913043 0.0434783 0.0434783 0.913043 0.0434783 0.0434783
a- chei ||| အ ချေ ||| 0.6 0.2 0.2 0.6 0.2 0.2
a- chei ||| အ ခြေ ||| 0.925926 0.037037 0.037037 0.925926 0.037037 0.037037
a- chei' ||| အ ချိတ် ||| 0.777778 0.111111 0.111111 0.777778 0.111111 0.111111
a- chein ma- ||| အ ချိန် မ ||| 0.818182 0.0909091 0.0909091 0.818182 0.0909091 0.0909091
a- chein ||| အ ချိန် ||| 0.966102 0.0169492 0.0169492 0.966102 0.0169492 0.0169492
a- chi: ||| အ ချည်း ||| 0.714286 0.142857 0.142857 0.714286 0.142857 0.142857
a- chi: ||| အ ချီး ||| 0.6 0.2 0.2 0.6 0.2 0.2
a- chin ||| အ ချဉ် ||| 0.846154 0.0769231 0.0769231 0.846154 0.0769231 0.0769231
a- chin ||| အ ခြင် ||| 0.714286 0.142857 0.142857 0.714286 0.142857 0.142857
a- chin: ||| အ ချင်း ||| 0.894737 0.0526316 0.0526316 0.894737 0.0526316 0.0526316
a- chin: ||| အ ခြင်း ||| 0.714286 0.142857 0.142857 0.714286 0.142857 0.142857
a- cho: ||| အ ချော ||| 0.777778 0.111111 0.111111 0.777778 0.111111 0.111111
a- chou ||| အ ချို ||| 0.882353 0.0588235 0.0588235 0.882353 0.0588235 0.0588235
a- chou' ||| အ ချုပ် ||| 0.894737 0.0526316 0.0526316 0.894737 0.0526316 0.0526316
a- chou' ||| အ ခြောက် ||| 0.6 0.2 0.2 0.6 0.2 0.2
a- chwe: ||| အ ချွဲ ||| 0.777778 0.111111 0.111111 0.777778 0.111111 0.111111
a- ei: ||| အ အေး ||| 0.846154 0.0769231 0.0769231 0.846154 0.0769231 0.0769231
a- han. ||| အ ဟန့် ||| 0.6 0.2 0.2 0.6 0.2 0.2
a- hpan ||| အ ဖန် ||| 0.777778 0.111111 0.111111 0.777778 0.111111 0.111111
a- hpe' ||| အ ဖက် ||| 0.818182 0.0909091 0.0909091 0.818182 0.0909091 0.0909091
a- hpe' ||| အ ဘက် ||| 0.6 0.2 0.2 0.6 0.2 0.2
a- hpja: ||| အ ဖျား ||| 0.939394 0.030303 0.030303 0.939394 0.030303 0.030303
a- hpjai' ||| အ ဖြိုက် ||| 0.6 0.2 0.2 0.6 0.2 0.2
a- hpjei. gan ||| အ ဖြည့် ခံ ||| 0.6 0.2 0.2 0.6 0.2 0.2
a- hpjei. ||| အ ဖြည့် ||| 0.714286 0.142857 0.142857 0.714286 0.142857 0.142857
a- hpji' ||| အ ဖြစ် ||| 0.846154 0.0769231 0.0769231 0.846154 0.0769231 0.0769231
a- hpjin: ||| အ ဖျင်း ||| 0.846154 0.0769231 0.0769231 0.846154 0.0769231 0.0769231
a- hpjo ||| အ ဖျော် ||| 0.6 0.2 0.2 0.6 0.2 0.2
a- hpou: ||| အ ဖိုး ||| 0.882353 0.0588235 0.0588235 0.882353 0.0588235 0.0588235
a- hpou: ||| အ ဘို ||| 0.6 0.2 0.2 0.6 0.2 0.2
a- hpou: ||| အ ဘိုး ||| 0.6 0.2 0.2 0.6 0.2 0.2
a- hpoun boun ||| အ ဖုံ ဖုံ ||| 0.6 0.2 0.2 0.6 0.2 0.2
a- hpoun ||| အ ဖုံ ||| 0.6 0.2 0.2 0.6 0.2 0.2
a- hpu: ||| အ ဖူး ||| 0.6 0.2 0.2 0.6 0.2 0.2
a- hpwe. ||| အ ဖွဲ့ ||| 0.948718 0.025641 0.025641 0.948718 0.025641 0.025641
a- hpwe: ||| အ ဖွဲ ||| 0.6 0.2 0.2 0.6 0.2 0.2
a- hsa ||| အ ဆာ ||| 0.846154 0.0769231 0.0769231 0.846154 0.0769231 0.0769231
a- hsei' ||| အ ဆိပ် ||| 0.6 0.2 0.2 0.6 0.2 0.2
a- hsi' a- ||| အ ဆစ် အ ||| 0.6 0.2 0.2 0.6 0.2 0.2
a- hsi' ||| အ ဆစ် ||| 0.818182 0.0909091 0.0909091 0.818182 0.0909091 0.0909091
a- hsi: ||| အ ဆီး ||| 0.777778 0.111111 0.111111 0.777778 0.111111 0.111111
a- hsin a- ||| အ ဆင့် အ ||| 0.6 0.2 0.2 0.6 0.2 0.2
a- hsin ||| အ ဆင့် ||| 0.714286 0.142857 0.142857 0.714286 0.142857 0.142857
a- hsin ||| အ ဆင် ||| 0.846154 0.0769231 0.0769231 0.846154 0.0769231 0.0769231
a- hsin. ||| အ ဆင့် ||| 0.777778 0.111111 0.111111 0.777778 0.111111 0.111111
a- hsou a- ||| အ ဆို့ အ ||| 0.6 0.2 0.2 0.6 0.2 0.2
a- hsou ||| အ ဆို ||| 0.894737 0.0526316 0.0526316 0.894737 0.0526316 0.0526316
a- hsou ||| အ ဆို့ ||| 0.6 0.2 0.2 0.6 0.2 0.2
a- hsou ||| အ ဆုတ် ||| 0.6 0.2 0.2 0.6 0.2 0.2
a- hsoun: ||| အ ဆုံး ||| 0.882353 0.0588235 0.0588235 0.882353 0.0588235 0.0588235
a- hta: ||| အ ထား ||| 0.714286 0.142857 0.142857 0.714286 0.142857 0.142857
a- htai' ||| အ ထိုက် ||| 0.714286 0.142857 0.142857 0.714286 0.142857 0.142857
a- htan ||| အ ထန် ||| 0.6 0.2 0.2 0.6 0.2 0.2
a- hte ||| အ ထည် ||| 0.894737 0.0526316 0.0526316 0.894737 0.0526316 0.0526316
a- hte ||| အ ထဲ ||| 0.6 0.2 0.2 0.6 0.2 0.2
a- hte' ||| အ ထက် ||| 0.942857 0.0285714 0.0285714 0.942857 0.0285714 0.0285714
a- hti' ||| အ ထစ် ||| 0.714286 0.142857 0.142857 0.714286 0.142857 0.142857
a- hti: ||| အ ထီး ||| 0.714286 0.142857 0.142857 0.714286 0.142857 0.142857
a- htoun ||| အ ထုံ ||| 0.714286 0.142857 0.142857 0.714286 0.142857 0.142857
a- htu: ||| အ ထူး ||| 0.894737 0.0526316 0.0526316 0.894737 0.0526316 0.0526316
a- hwa ||| အ မြွှာ ||| 0.6 0.2 0.2 0.6 0.2 0.2
a- ja ||| အ ယာ ||| 0.6 0.2 0.2 0.6 0.2 0.2
a- ja ||| အ ရာ ||| 0.953488 0.0232558 0.0232558 0.953488 0.0232558 0.0232558
a- ja' ||| အ ရပ် ||| 0.960784 0.0196078 0.0196078 0.960784 0.0196078 0.0196078
a- ja. ||| အ ယ ||| 0.714286 0.142857 0.142857 0.714286 0.142857 0.142857
a- ja. ||| အ ရ ||| 0.894737 0.0526316 0.0526316 0.894737 0.0526316 0.0526316
a- jan ||| အ ရန် ||| 0.714286 0.142857 0.142857 0.714286 0.142857 0.142857
a- jan ||| အ ရမ်း ||| 0.6 0.2 0.2 0.6 0.2 0.2
a- jan ||| အ ရံ ||| 0.777778 0.111111 0.111111 0.777778 0.111111 0.111111
a- jaun ||| အ ယောင် ||| 0.818182 0.0909091 0.0909091 0.818182 0.0909091 0.0909091
a- jaun ||| အ ရောင် ||| 0.913043 0.0434783 0.0434783 0.913043 0.0434783 0.0434783
a- je: ||| အ ရဲ ||| 0.6 0.2 0.2 0.6 0.2 0.2
a- jei' ||| အ ရိပ် ||| 0.913043 0.0434783 0.0434783 0.913043 0.0434783 0.0434783
a- jei: ||| အ ရေး ||| 0.964912 0.0175439 0.0175439 0.964912 0.0175439 0.0175439
a- ji ||| အ ရည် ||| 0.904762 0.047619 0.047619 0.904762 0.047619 0.047619
a- ji ||| အ ရီ ||| 0.6 0.2 0.2 0.6 0.2 0.2
a- ji: ||| အ ရည်း ||| 0.6 0.2 0.2 0.6 0.2 0.2
a- ji: ||| အ ရီး ||| 0.6 0.2 0.2 0.6 0.2 0.2
a- jin: ||| အ ရင်း ||| 0.939394 0.030303 0.030303 0.939394 0.030303 0.030303
a- joun: ||| အ ရုံး ||| 0.6 0.2 0.2 0.6 0.2 0.2
a- jwe ||| အ ရွယ် ||| 0.92 0.04 0.04 0.92 0.04 0.04
a- ka a- ||| အ ကာ အ ||| 0.6 0.2 0.2 0.6 0.2 0.2
a- ka ||| အ ကာ ||| 0.777778 0.111111 0.111111 0.777778 0.111111 0.111111
a- kan: ||| အ ကန်း ||| 0.6 0.2 0.2 0.6 0.2 0.2
a- kan: ||| အ ကမ်း ||| 0.714286 0.142857 0.142857 0.714286 0.142857 0.142857
a- ke: ||| အ ကဲ ||| 0.894737 0.0526316 0.0526316 0.894737 0.0526316 0.0526316
a- kha le ||| အ ခါ လည် ||| 0.6 0.2 0.2 0.6 0.2 0.2
a- kha ||| အ ခါ ||| 0.955556 0.0222222 0.0222222 0.955556 0.0222222 0.0222222
a- kha. ||| အ ခ ||| 0.818182 0.0909091 0.0909091 0.818182 0.0909091 0.0909091
a- khan ||| အ ခံ ||| 0.894737 0.0526316 0.0526316 0.894737 0.0526316 0.0526316
a- khan. ||| အ ခန့် ||| 0.714286 0.142857 0.142857 0.714286 0.142857 0.142857
a- khan. ||| အ ခံ့ ||| 0.714286 0.142857 0.142857 0.714286 0.142857 0.142857
a- khau' ||| အ ခေါက် ||| 0.714286 0.142857 0.142857 0.714286 0.142857 0.142857
a- khe: lai' ||| အ ခဲ လိုက် ||| 0.6 0.2 0.2 0.6 0.2 0.2
a- khe: ||| အ ခဲ ||| 0.92 0.04 0.04 0.92 0.04 0.04
a- khin: ||| အ ခင်း ||| 0.866667 0.0666667 0.0666667 0.866667 0.0666667 0.0666667
a- khu. ||| အ ခု ||| 0.846154 0.0769231 0.0769231 0.846154 0.0769231 0.0769231
a- khwin. a- jei: ||| အ ခွင့် အ ရေး ||| 0.6 0.2 0.2 0.6 0.2 0.2
a- khwin. a- ||| အ ခွင့် အ ||| 0.777778 0.111111 0.111111 0.777778 0.111111 0.111111
a- khwin. ||| အ ခွင့် ||| 0.92 0.04 0.04 0.92 0.04 0.04
a- kin: ||| အ ကင်း ||| 0.714286 0.142857 0.142857 0.714286 0.142857 0.142857
a- ko ||| အ ကော် ||| 0.714286 0.142857 0.142857 0.714286 0.142857 0.142857
a- koun ||| အ ကုန် ||| 0.818182 0.0909091 0.0909091 0.818182 0.0909091 0.0909091
a- ku ||| အ ကူ ||| 0.818182 0.0909091 0.0909091 0.818182 0.0909091 0.0909091
a- kya. ||| အ ကျ ||| 0.913043 0.0434783 0.0434783 0.913043 0.0434783 0.0434783
a- kya: ||| အ ကျား ||| 0.6 0.2 0.2 0.6 0.2 0.2
a- kya: ||| အ ကြား ||| 0.6 0.2 0.2 0.6 0.2 0.2
a- kyai' ||| အ ကြိုက် ||| 0.714286 0.142857 0.142857 0.714286 0.142857 0.142857
a- kyan pei: ||| အ ကြံ ပေး ||| 0.6 0.2 0.2 0.6 0.2 0.2
a- kyan ||| အ ကျန် ||| 0.6 0.2 0.2 0.6 0.2 0.2
a- kyan ||| အ ကြံ ||| 0.935484 0.0322581 0.0322581 0.935484 0.0322581 0.0322581
a- kyau' ||| အ ကျောက် ||| 0.6 0.2 0.2 0.6 0.2 0.2
a- kyau' ||| အ ကြောက် ||| 0.714286 0.142857 0.142857 0.714286 0.142857 0.142857
a- kyaun: chin: ||| အ ကြောင်း ချင်း ||| 0.6 0.2 0.2 0.6 0.2 0.2
a- kyaun: ||| အ ကြောင်း ||| 0.964912 0.0175439 0.0175439 0.964912 0.0175439 0.0175439
a- kyi ||| အ ကြည် ||| 0.818182 0.0909091 0.0909091 0.818182 0.0909091 0.0909091
a- kyi: ||| အ ကျည်း ||| 0.6 0.2 0.2 0.6 0.2 0.2
a- kyi: ||| အ ကြီး ||| 0.818182 0.0909091 0.0909091 0.818182 0.0909091 0.0909091
a- kyin lin ma- ja: ||| အ ကြင် လင် မ ယား ||| 0.6 0.2 0.2 0.6 0.2 0.2
a- kyin lin ma- ||| အ ကြင် လင် မ ||| 0.6 0.2 0.2 0.6 0.2 0.2
a- kyin lin ||| အ ကြင် လင် ||| 0.6 0.2 0.2 0.6 0.2 0.2
a- kyin ||| အ ကျဉ် ||| 0.6 0.2 0.2 0.6 0.2 0.2
a- kyin ||| အ ကြင် ||| 0.818182 0.0909091 0.0909091 0.818182 0.0909091 0.0909091
a- kyin ||| အ ကြည် ||| 0.6 0.2 0.2 0.6 0.2 0.2
a- kyin: ||| အ ကျဉ်း ||| 0.866667 0.0666667 0.0666667 0.866667 0.0666667 0.0666667
a- kyo: ||| အ ကျော ||| 0.6 0.2 0.2 0.6 0.2 0.2
a- kyo: ||| အ ကြော ||| 0.935484 0.0322581 0.0322581 0.935484 0.0322581 0.0322581
a- kyou: zaun ||| အ ကျိုး ဆောင် ||| 0.6 0.2 0.2 0.6 0.2 0.2
a- kyou: ||| အ ကျိုး ||| 0.95122 0.0243902 0.0243902 0.95122 0.0243902 0.0243902
a- kywei: ||| အ ကျွေး ||| 0.777778 0.111111 0.111111 0.777778 0.111111 0.111111
a- kywei: ||| အ ကြွေး ||| 0.866667 0.0666667 0.0666667 0.866667 0.0666667 0.0666667
a- lai' ||| အ လိုက် ||| 0.882353 0.0588235 0.0588235 0.882353 0.0588235 0.0588235
a- lan ||| အ လံ ||| 0.939394 0.030303 0.030303 0.939394 0.030303 0.030303
a- laun: ||| အ လောင်း ||| 0.846154 0.0769231 0.0769231 0.846154 0.0769231 0.0769231
a- le' ||| အ လက် ||| 0.777778 0.111111 0.111111 0.777778 0.111111 0.111111
a- le: ||| အ လဲ ||| 0.818182 0.0909091 0.0909091 0.818182 0.0909091 0.0909091
a- lei' ||| အ လိပ် ||| 0.777778 0.111111 0.111111 0.777778 0.111111 0.111111
a- lhan: ||| အ လှမ်း ||| 0.846154 0.0769231 0.0769231 0.846154 0.0769231 0.0769231
a- lhe ||| အ လှယ် ||| 0.6 0.2 0.2 0.6 0.2 0.2
a- lja: ||| အ လျား ||| 0.777778 0.111111 0.111111 0.777778 0.111111 0.111111
a- lou ||| အ လို ||| 0.939394 0.030303 0.030303 0.939394 0.030303 0.030303
a- lou' tha- ma: ||| အ လုပ် သ မား ||| 0.714286 0.142857 0.142857 0.714286 0.142857 0.142857
a- lou' tha- ||| အ လုပ် သ ||| 0.714286 0.142857 0.142857 0.714286 0.142857 0.142857
a- lou' ||| အ လုတ် ||| 0.6 0.2 0.2 0.6 0.2 0.2
a- lou' ||| အ လုပ် ||| 0.969231 0.0153846 0.0153846 0.969231 0.0153846 0.0153846
a- loun: ||| အ လုံး ||| 0.904762 0.047619 0.047619 0.904762 0.047619 0.047619
a- ma. ||| အ မ ||| 0.846154 0.0769231 0.0769231 0.846154 0.0769231 0.0769231
a- ma. ||| အစ် မ ||| 0.777778 0.111111 0.111111 0.777778 0.111111 0.111111
a- man ||| အ မံ ||| 0.6 0.2 0.2 0.6 0.2 0.2
a- me: ||| အ မည်း ||| 0.714286 0.142857 0.142857 0.714286 0.142857 0.142857
a- me: ||| အ မဲ ||| 0.935484 0.0322581 0.0322581 0.935484 0.0322581 0.0322581
a- mein. ||| အ မိန့် ||| 0.942857 0.0285714 0.0285714 0.942857 0.0285714 0.0285714
a- mha' ||| အ မှတ် ||| 0.935484 0.0322581 0.0322581 0.935484 0.0322581 0.0322581
a- mhai' ||| အ မှိုက် ||| 0.6 0.2 0.2 0.6 0.2 0.2
a- mhja. ||| အ မျှ ||| 0.846154 0.0769231 0.0769231 0.846154 0.0769231 0.0769231
a- mhu. a' ||| အ မှတ် တံ ||| 0.6 0.2 0.2 0.6 0.2 0.2
a- mhu. ma- ||| အ မှု မ ||| 0.6 0.2 0.2 0.6 0.2 0.2
a- mhu. zaun ||| အ မှု ဆောင် ||| 0.714286 0.142857 0.142857 0.714286 0.142857 0.142857
a- mhu. ||| အ မြှောက် ||| 0.6 0.2 0.2 0.2 0.2 0.6
a- mhu. ||| အ မှတ် ||| 0.6 0.2 0.2 0.6 0.2 0.2
a- mhu. ||| အ မှု ||| 0.962264 0.0188679 0.0188679 0.962264 0.0188679 0.0188679
a- mhwa ||| အ မြွှာ ||| 0.714286 0.142857 0.142857 0.714286 0.142857 0.142857
a- mhwei: ||| အ မွှေး ||| 0.818182 0.0909091 0.0909091 0.818182 0.0909091 0.0909091
a- mi. a- ||| အ မိ အ ||| 0.6 0.2 0.2 0.6 0.2 0.2
a- mi. ||| အ မိ ||| 0.818182 0.0909091 0.0909091 0.818182 0.0909091 0.0909091
a- mi: ||| အ မီး ||| 0.6 0.2 0.2 0.6 0.2 0.2
a- mi: ||| အ မြီး ||| 0.866667 0.0666667 0.0666667 0.866667 0.0666667 0.0666667
a- mja' ||| အ မြတ် ||| 0.92 0.04 0.04 0.92 0.04 0.04
a- mjan ||| အ မြန် ||| 0.6 0.2 0.2 0.6 0.2 0.2
a- mjau' ||| အ မြောက် ||| 0.866667 0.0666667 0.0666667 0.866667 0.0666667 0.0666667
a- mje' ||| အ မျက် ||| 0.866667 0.0666667 0.0666667 0.866667 0.0666667 0.0666667
a- mje: ||| အ မြဲ ||| 0.777778 0.111111 0.111111 0.777778 0.111111 0.111111
a- mjin mhan ||| အ မြင် မှန် ||| 0.6 0.2 0.2 0.6 0.2 0.2
a- mjin ||| အ မြင် ||| 0.913043 0.0434783 0.0434783 0.913043 0.0434783 0.0434783
a- mjou: a- ||| အ မျိုး အ ||| 0.777778 0.111111 0.111111 0.777778 0.111111 0.111111
a- mjou: ||| အ မျိုး ||| 0.959184 0.0204082 0.0204082 0.959184 0.0204082 0.0204082
a- mjoun ||| အ မြုံ ||| 0.6 0.2 0.2 0.6 0.2 0.2
a- mo: ||| အ မော ||| 0.846154 0.0769231 0.0769231 0.846154 0.0769231 0.0769231
a- mu a- ja ||| အ မူ အ ရာ ||| 0.6 0.2 0.2 0.6 0.2 0.2
a- mu a- ||| အ မူ အ ||| 0.714286 0.142857 0.142857 0.714286 0.142857 0.142857
a- mu ||| အ မူ ||| 0.866667 0.0666667 0.0666667 0.866667 0.0666667 0.0666667
a- mun: ||| အ မွမ်း ||| 0.6 0.2 0.2 0.6 0.2 0.2
a- mwei gan ||| အ မွေ ခံ ||| 0.6 0.2 0.2 0.6 0.2 0.2
a- mwei ||| အ မွေ ||| 0.913043 0.0434783 0.0434783 0.913043 0.0434783 0.0434783
a- mwei: ||| အ မွေး ||| 0.846154 0.0769231 0.0769231 0.846154 0.0769231 0.0769231
a- na ||| အ နာ ||| 0.945946 0.027027 0.027027 0.945946 0.027027 0.027027
a- na: ||| အ နား ||| 0.92 0.04 0.04 0.92 0.04 0.04
a- nan. ||| အ နံ့ ||| 0.714286 0.142857 0.142857 0.714286 0.142857 0.142857
a- nau' ||| အ နောက် ||| 0.882353 0.0588235 0.0588235 0.882353 0.0588235 0.0588235
a- ne ||| အ နည် ||| 0.714286 0.142857 0.142857 0.714286 0.142857 0.142857
a- ne ||| အ နယ် ||| 0.6 0.2 0.2 0.6 0.2 0.2
a- ne' ||| အ နက် ||| 0.882353 0.0588235 0.0588235 0.882353 0.0588235 0.0588235
a- ne' ||| အ နဂ် ||| 0.714286 0.142857 0.142857 0.714286 0.142857 0.142857
a- ne: ||| အ နည်း ||| 0.777778 0.111111 0.111111 0.777778 0.111111 0.111111
a- nei a- ||| အ နေ အ ||| 0.6 0.2 0.2 0.6 0.2 0.2
a- nei ||| အ နေ ||| 0.939394 0.030303 0.030303 0.939394 0.030303 0.030303
a- nga. ||| အ င ||| 0.6 0.2 0.2 0.6 0.2 0.2
a- ngan. ||| အ ငံ့ ||| 0.6 0.2 0.2 0.6 0.2 0.2
a- nge ||| အ ငယ် ||| 0.6 0.2 0.2 0.6 0.2 0.2
a- ngou ||| အ ငို ||| 0.6 0.2 0.2 0.6 0.2 0.2
a- nhaun: ||| အ နှောင်း ||| 0.6 0.2 0.2 0.6 0.2 0.2
a- nhou' ||| အ နုတ် ||| 0.6 0.2 0.2 0.6 0.2 0.2
a- nhoun: ||| အ နှုန်း ||| 0.777778 0.111111 0.111111 0.777778 0.111111 0.111111
a- ni: ||| အ နည်း ||| 0.777778 0.111111 0.111111 0.777778 0.111111 0.111111
a- ni: ||| အ နီး ||| 0.846154 0.0769231 0.0769231 0.846154 0.0769231 0.0769231
a- nin. ||| အ နင့် ||| 0.6 0.2 0.2 0.6 0.2 0.2
a- njha ||| အ ညှာ ||| 0.6 0.2 0.2 0.6 0.2 0.2
a- njhau' ||| အ ညှောက် ||| 0.6 0.2 0.2 0.6 0.2 0.2
a- njho ||| အ ညှော် ||| 0.777778 0.111111 0.111111 0.777778 0.111111 0.111111
a- nji' a- ||| အ ညစ် အ ||| 0.6 0.2 0.2 0.6 0.2 0.2
a- nji' ||| အ ညစ် ||| 0.6 0.2 0.2 0.6 0.2 0.2
a- njun. ||| အ ညွန့် ||| 0.894737 0.0526316 0.0526316 0.894737 0.0526316 0.0526316
a- nou' ||| အ နုပ် ||| 0.714286 0.142857 0.142857 0.714286 0.142857 0.142857
a- noun nja ta. ||| အ နု ညာ တ ||| 0.6 0.2 0.2 0.6 0.2 0.2
a- noun nja ||| အ နု ညာ ||| 0.6 0.2 0.2 0.6 0.2 0.2
a- noun ||| အ နု ||| 0.6 0.2 0.2 0.6 0.2 0.2
a- nu. mju ||| အ ဏု မြူ ||| 0.6 0.2 0.2 0.6 0.2 0.2
a- nu. ||| အ ဏု ||| 0.777778 0.111111 0.111111 0.777778 0.111111 0.111111
a- nu. ||| အ နု ||| 0.92 0.04 0.04 0.92 0.04 0.04
a- nwe ||| အ နွယ် ||| 0.714286 0.142857 0.142857 0.714286 0.142857 0.142857
a- pain: ||| အ ပိုင်း ||| 0.6 0.2 0.2 0.6 0.2 0.2
a- pja ||| အ ပြာ ||| 0.6 0.2 0.2 0.6 0.2 0.2
a- pja' ||| အ ပြတ် ||| 0.818182 0.0909091 0.0909091 0.818182 0.0909091 0.0909091
a- pja: ||| အ ပျား ||| 0.6 0.2 0.2 0.6 0.2 0.2
a- pja: ||| အ ပြား ||| 0.777778 0.111111 0.111111 0.777778 0.111111 0.111111
a- pjan ||| အ ပြန် ||| 0.846154 0.0769231 0.0769231 0.846154 0.0769231 0.0769231
a- pjaun: a- ||| အ ပြောင်း အ ||| 0.6 0.2 0.2 0.6 0.2 0.2
a- pjaun: ||| အ ပျောင်း ||| 0.6 0.2 0.2 0.6 0.2 0.2
a- pjaun: ||| အ ပြောင်း ||| 0.714286 0.142857 0.142857 0.714286 0.142857 0.142857
a- pje: ||| အ ပြဲ ||| 0.714286 0.142857 0.142857 0.714286 0.142857 0.142857
a- pji' a- ||| အ ပြစ် အ ||| 0.714286 0.142857 0.142857 0.714286 0.142857 0.142857
a- pji' ||| အ ပျစ် ||| 0.6 0.2 0.2 0.6 0.2 0.2
a- pji' ||| အ ပြစ် ||| 0.939394 0.030303 0.030303 0.939394 0.030303 0.030303
a- pji: a- ||| အ ပြီး အ ||| 0.6 0.2 0.2 0.6 0.2 0.2
a- pji: ||| အ ပြီး ||| 0.818182 0.0909091 0.0909091 0.818182 0.0909091 0.0909091
a- pjin ||| အ ပျဉ် ||| 0.6 0.2 0.2 0.6 0.2 0.2
a- pjin ||| အ ပြင် ||| 0.904762 0.047619 0.047619 0.904762 0.047619 0.047619
a- pjin ||| အ ပြင်... ||| 0.6 0.2 0.2 0.6 0.2 0.2
a- pjou jei ||| အ ပျို ရည် ||| 0.6 0.2 0.2 0.6 0.2 0.2
a- pjou ||| အ ပျို ||| 0.894737 0.0526316 0.0526316 0.894737 0.0526316 0.0526316
a- pjou ||| အ ပြုတ် ||| 0.6 0.2 0.2 0.6 0.2 0.2
a- sa. ||| အ စ ||| 0.945946 0.027027 0.027027 0.945946 0.027027 0.027027
a- sa: ||| အ စား ||| 0.945946 0.027027 0.027027 0.945946 0.027027 0.027027
a- she' ||| အ ယှက် ||| 0.6 0.2 0.2 0.6 0.2 0.2
a- she' ||| အ ရှက် ||| 0.894737 0.0526316 0.0526316 0.894737 0.0526316 0.0526316
a- shei ||| အ ရှည် ||| 0.777778 0.111111 0.111111 0.777778 0.111111 0.111111
a- shin ||| အ ရှင် ||| 0.777778 0.111111 0.111111 0.777778 0.111111 0.111111
a- shin ||| အ ရှတ် ||| 0.6 0.2 0.2 0.6 0.2 0.2
a- shou' a- ||| အ ရှုပ် အ ||| 0.6 0.2 0.2 0.6 0.2 0.2
a- shou' ||| အ ရှုပ် ||| 0.714286 0.142857 0.142857 0.714286 0.142857 0.142857
a- si jin khan ||| အ စီ ရင် ခံ ||| 0.714286 0.142857 0.142857 0.714286 0.142857 0.142857
a- si jin ||| အ စီ ရင် ||| 0.777778 0.111111 0.111111 0.777778 0.111111 0.111111
a- si ||| အ စည် ||| 0.6 0.2 0.2 0.6 0.2 0.2
a- si ||| အ စီ ||| 0.904762 0.047619 0.047619 0.904762 0.047619 0.047619
a- si' khan ||| အ စစ် ခံ ||| 0.6 0.2 0.2 0.6 0.2 0.2
a- si' ||| အ စစ် ||| 0.818182 0.0909091 0.0909091 0.818182 0.0909091 0.0909091
a- si. a- ||| အ စေ့ အ ||| 0.6 0.2 0.2 0.6 0.2 0.2
a- si. ||| အ စေ့ ||| 0.882353 0.0588235 0.0588235 0.882353 0.0588235 0.0588235
a- sou' a- ||| အ စုတ် အ ||| 0.6 0.2 0.2 0.6 0.2 0.2
a- sou' ||| အ စုတ် ||| 0.818182 0.0909091 0.0909091 0.818182 0.0909091 0.0909091
a- sou. ||| အ စို့ ||| 0.6 0.2 0.2 0.6 0.2 0.2
a- su' ||| အ စွတ် ||| 0.6 0.2 0.2 0.6 0.2 0.2
a- su' ||| အ စွပ် ||| 0.6 0.2 0.2 0.6 0.2 0.2
a- su. a- ||| အ စု အ ||| 0.846154 0.0769231 0.0769231 0.846154 0.0769231 0.0769231
a- su. ||| အ စု ||| 0.92 0.04 0.04 0.92 0.04 0.04
a- sun: ||| အ စွန်း ||| 0.904762 0.047619 0.047619 0.904762 0.047619 0.047619
a- sun: ||| အ စွမ်း ||| 0.6 0.2 0.2 0.6 0.2 0.2
a- ta ||| အ တာ ||| 0.866667 0.0666667 0.0666667 0.866667 0.0666667 0.0666667
a- ta' thin ||| အ တတ် သင် ||| 0.6 0.2 0.2 0.6 0.2 0.2
a- ta' ||| အ တတ် ||| 0.882353 0.0588235 0.0588235 0.882353 0.0588235 0.0588235
a- ta' ||| အ တပ် ||| 0.6 0.2 0.2 0.6 0.2 0.2
a- ta: ||| အ တား ||| 0.777778 0.111111 0.111111 0.777778 0.111111 0.111111
a- tain: a- ||| အ တိုင်း အ ||| 0.714286 0.142857 0.142857 0.714286 0.142857 0.142857
a- tain: ||| အ တိုင်း ||| 0.866667 0.0666667 0.0666667 0.866667 0.0666667 0.0666667
a- tan: ||| အ တန်း ||| 0.818182 0.0909091 0.0909091 0.818182 0.0909091 0.0909091
a- tei' ||| အ တိတ် ||| 0.777778 0.111111 0.111111 0.777778 0.111111 0.111111
a- tha- ||| အ သ ||| 0.846154 0.0769231 0.0769231 0.846154 0.0769231 0.0769231
a- tha- ||| အ သား ||| 0.818182 0.0909091 0.0909091 0.818182 0.0909091 0.0909091
a- tha- ||| အ ဿ ||| 0.6 0.2 0.2 0.6 0.2 0.2
a- tha: ||| အ သား ||| 0.955556 0.0222222 0.0222222 0.955556 0.0222222 0.0222222
a- than dwe' ||| အ သံ ထွက် ||| 0.6 0.2 0.2 0.6 0.2 0.2
a- than ||| အ သန် ||| 0.6 0.2 0.2 0.6 0.2 0.2
a- than ||| အ သံ ||| 0.964912 0.0175439 0.0175439 0.964912 0.0175439 0.0175439
a- thau' ||| အ သောက် ||| 0.6 0.2 0.2 0.6 0.2 0.2
a- the' shu ||| အ သက် ရှူ ||| 0.846154 0.0769231 0.0769231 0.846154 0.0769231 0.0769231
a- the' thwe: ||| အ သက် သွေး ||| 0.6 0.2 0.2 0.6 0.2 0.2
a- the' ||| အ သက် ||| 0.959184 0.0204082 0.0204082 0.959184 0.0204082 0.0204082
a- the: ||| အ သည်း ||| 0.931034 0.0344828 0.0344828 0.931034 0.0344828 0.0344828
a- thei: ||| အ သေး ||| 0.714286 0.142857 0.142857 0.714286 0.142857 0.142857
a- thi. ||| အ သိ ||| 0.92 0.04 0.04 0.92 0.04 0.04
a- thin chei ||| အ သင် ချေ ||| 0.6 0.2 0.2 0.6 0.2 0.2
a- thin ||| အ သ ||| 0.6 0.2 0.2 0.6 0.2 0.2
a- thin ||| အ သင် ||| 0.777778 0.111111 0.111111 0.777778 0.111111 0.111111
a- thin: ||| အ သင်း ||| 0.904762 0.047619 0.047619 0.904762 0.047619 0.047619
a- thoun: a- ||| အ သုံး အ ||| 0.6 0.2 0.2 0.6 0.2 0.2
a- thoun: ||| အ သုံး ||| 0.925926 0.037037 0.037037 0.925926 0.037037 0.037037
a- tou ||| အ တို ||| 0.714286 0.142857 0.142857 0.714286 0.142857 0.142857
a- toun: a- ||| အ တုံး အ ||| 0.6 0.2 0.2 0.6 0.2 0.2
a- toun: ||| အ တုံး ||| 0.818182 0.0909091 0.0909091 0.818182 0.0909091 0.0909091
a- tu ||| အ တူ ||| 0.882353 0.0588235 0.0588235 0.882353 0.0588235 0.0588235
a- twe' ||| အ တွက် ||| 0.866667 0.0666667 0.0666667 0.866667 0.0666667 0.0666667
a- twei: ||| အ တွေး ||| 0.777778 0.111111 0.111111 0.777778 0.111111 0.111111
a- twin: ||| အ တွင်း ||| 0.967213 0.0163934 0.0163934 0.967213 0.0163934 0.0163934
a- wain: ||| အ ဝိုင်း ||| 0.6 0.2 0.2 0.6 0.2 0.2
a- we ||| အ ဝယ် ||| 0.777778 0.111111 0.111111 0.777778 0.111111 0.111111
a- wun: ||| အ ဝန်း ||| 0.6 0.2 0.2 0.6 0.2 0.2
a- ||| ဍာ ||| 0.6 0.2 0.2 0.6 0.2 0.2
a- ||| န ||| 0.6 0.2 0.2 0.6 0.2 0.2
a- ||| အ ||| 0.999672 0.000163908 0.000163908 0.999672 0.000163908 0.000163908
a- ||| အစ် ||| 0.882353 0.0588235 0.0588235 0.882353 0.0588235 0.0588235
a- ||| အဋ် ||| 0.714286 0.142857 0.142857 0.714286 0.142857 0.142857
a- ||| အာ ||| 0.6 0.2 0.2 0.6 0.2 0.2
a. thu. ba. ||| အ သု ဘ ||| 0.777778 0.111111 0.111111 0.777778 0.111111 0.111111
a. thu. ||| အ သု ||| 0.777778 0.111111 0.111111 0.777778 0.111111 0.111111
a. ||| ဏ ||| 0.6 0.2 0.2 0.6 0.2 0.2
a. ||| န ||| 0.6 0.2 0.2 0.6 0.2 0.2
a. ||| အ ||| 0.967213 0.0163934 0.0163934 0.967213 0.0163934 0.0163934
a: ljo zwa ||| အား လျော် စွာ ||| 0.6 0.2 0.2 0.6 0.2 0.2
a: ljo ||| အား လျော် ||| 0.6 0.2 0.2 0.6 0.2 0.2
a: shi. ||| အား ရှိ ||| 0.6 0.2 0.2 0.6 0.2 0.2
a: ||| အား ||| 0.989744 0.00512821 0.00512821 0.989744 0.00512821 0.00512821
ain gyin: ||| အိုင် ချင်း ||| 0.6 0.2 0.2 0.6 0.2 0.2
ain ||| အိုင် ||| 0.92 0.04 0.04 0.92 0.04 0.04
an ba' ||| အန် ဖတ် ||| 0.6 0.2 0.2 0.6 0.2 0.2
an da- je ||| အန် တ ရာယ် ||| 0.777778 0.111111 0.111111 0.777778 0.111111 0.111111
an da- ||| အန် တ ||| 0.866667 0.0666667 0.0666667 0.866667 0.0666667 0.0666667
an da- ||| အန် ဒ ||| 0.6 0.2 0.2 0.6 0.2 0.2
an ||| နံ ||| 0.6 0.2 0.2 0.6 0.2 0.2
an ||| အ ||| 0.6 0.2 0.2 0.6 0.2 0.2
an ||| အဏ် ||| 0.714286 0.142857 0.142857 0.714286 0.142857 0.142857
an ||| အန် ||| 0.966102 0.0169492 0.0169492 0.966102 0.0169492 0.0169492
an ||| အမ် ||| 0.714286 0.142857 0.142857 0.714286 0.142857 0.142857
an ||| အံ ||| 0.95122 0.0243902 0.0243902 0.95122 0.0243902 0.0243902
an. ||| အံ့ ||| 0.913043 0.0434783 0.0434783 0.913043 0.0434783 0.0434783
an: da. ||| အန် ဓ ||| 0.6 0.2 0.2 0.6 0.2 0.2
an: ||| အန် ||| 0.777778 0.111111 0.111111 0.777778 0.111111 0.111111
an: ||| အန်း ||| 0.714286 0.142857 0.142857 0.714286 0.142857 0.142857
an: ||| အမ်း ||| 0.846154 0.0769231 0.0769231 0.846154 0.0769231 0.0769231
au' chin: za ||| အောက် ချင်း စာ ||| 0.6 0.2 0.2 0.6 0.2 0.2
au' chin: ||| အောက် ချင်း ||| 0.6 0.2 0.2 0.6 0.2 0.2
au' mei. ||| အောက် မေ့ ||| 0.6 0.2 0.2 0.6 0.2 0.2
au' tan: ||| အောက် တန်း ||| 0.6 0.2 0.2 0.6 0.2 0.2
au' ||| နောက် ||| 0.6 0.2 0.2 0.6 0.2 0.2
au' ||| အောက် ||| 0.981651 0.00917431 0.00917431 0.981651 0.00917431 0.00917431
aun bwe: ||| အောင် ပွဲ ||| 0.777778 0.111111 0.111111 0.777778 0.111111 0.111111
aun ||| အောင် ||| 0.979381 0.0103093 0.0103093 0.979381 0.0103093 0.0103093
aun. ||| အောင့် ||| 0.866667 0.0666667 0.0666667 0.866667 0.0666667 0.0666667
ba ga. ||| ဘာ ဂ ||| 0.777778 0.111111 0.111111 0.777778 0.111111 0.111111
ba gi ||| ဘာ ဂီ ||| 0.6 0.2 0.2 0.6 0.2 0.2
ba pji' si: ||| ပါ ပစ် စည်း ||| 0.6 0.2 0.2 0.6 0.2 0.2
ba pji' ||| ပါ ပစ် ||| 0.6 0.2 0.2 0.6 0.2 0.2
ba ta ||| ဘာ တာ ||| 0.6 0.2 0.2 0.6 0.2 0.2
ba wa. ||| ဘာ ဝ ||| 0.931034 0.0344828 0.0344828 0.931034 0.0344828 0.0344828
ba ||| ပ ||| 0.714286 0.142857 0.142857 0.714286 0.142857 0.142857
ba ||| ပန်း ||| 0.6 0.2 0.2 0.6 0.2 0.2
ba ||| ပလ် ||| 0.6 0.2 0.2 0.6 0.2 0.2
ba ||| ပါ ||| 0.975904 0.0120482 0.0120482 0.975904 0.0120482 0.0120482
ba ||| ပါး ||| 0.6 0.2 0.2 0.6 0.2 0.2
ba ||| ဗ ||| 0.6 0.2 0.2 0.6 0.2 0.2
ba ||| ဗာ ||| 0.904762 0.047619 0.047619 0.904762 0.047619 0.047619
ba ||| ဘ ||| 0.714286 0.142857 0.142857 0.714286 0.142857 0.142857
ba ||| ဘာ ||| 0.986577 0.00671141 0.00671141 0.986577 0.00671141 0.00671141
ba' hpju jo ||| ဖပ် ဖြူ ရော် ||| 0.6 0.2 0.2 0.6 0.2 0.2
ba' hpju ||| ဖပ် ဖြူ ||| 0.6 0.2 0.2 0.6 0.2 0.2
ba' hsun: ||| ပါတ် ဆွမ်း ||| 0.6 0.2 0.2 0.6 0.2 0.2
ba' lan: ||| ပတ် လမ်း ||| 0.714286 0.142857 0.142857 0.714286 0.142857 0.142857
ba' ||| ပတ် ||| 0.980583 0.00970874 0.00970874 0.980583 0.00970874 0.00970874
ba' ||| ပဒ် ||| 0.818182 0.0909091 0.0909091 0.818182 0.0909091 0.0909091
ba' ||| ပပ် ||| 0.714286 0.142857 0.142857 0.714286 0.142857 0.142857
ba' ||| ပါဌ် ||| 0.6 0.2 0.2 0.6 0.2 0.2
ba' ||| ပါတ် ||| 0.904762 0.047619 0.047619 0.904762 0.047619 0.047619
ba' ||| ပါဒ် ||| 0.714286 0.142857 0.142857 0.714286 0.142857 0.142857
ba' ||| ဖတ် ||| 0.962264 0.0188679 0.0188679 0.962264 0.0188679 0.0188679
ba' ||| ဖပ် ||| 0.6 0.2 0.2 0.6 0.2 0.2
ba' ||| ဗတ် ||| 0.6 0.2 0.2 0.6 0.2 0.2
ba' ||| ဘ ||| 0.6 0.2 0.2 0.6 0.2 0.2
ba' ||| ဘတ် ||| 0.92 0.04 0.04 0.92 0.04 0.04
ba- be: ||| ပန်း ပဲ ||| 0.714286 0.142857 0.142857 0.714286 0.142857 0.142857
ba- da: ||| ပ ဒါး ||| 0.6 0.2 0.2 0.6 0.2 0.2
ba- da: ||| ပြ ဒါး ||| 0.6 0.2 0.2 0.6 0.2 0.2
ba- dei ||| ပ တေ ||| 0.6 0.2 0.2 0.6 0.2 0.2
ba- dei ||| ပ ဒေ ||| 0.945946 0.027027 0.027027 0.945946 0.027027 0.027027
ba- dein ||| ပ ဋိ ||| 0.6 0.2 0.2 0.6 0.2 0.2
ba- dein ||| ပန်း ထိမ် ||| 0.6 0.2 0.2 0.6 0.2 0.2
ba- di: ||| ပ တီး ||| 0.6 0.2 0.2 0.6 0.2 0.2
ba- di: ||| ပု တီး ||| 0.777778 0.111111 0.111111 0.777778 0.111111 0.111111
ba- du ||| ပျား တူ ||| 0.777778 0.111111 0.111111 0.777778 0.111111 0.111111
ba- ga- ||| ပ က ||| 0.846154 0.0769231 0.0769231 0.846154 0.0769231 0.0769231
ba- ga- ||| ဗ က ||| 0.6 0.2 0.2 0.6 0.2 0.2
ba- gyi ||| ပန်း ချီ ||| 0.777778 0.111111 0.111111 0.777778 0.111111 0.111111
ba- gyi ||| ပါး ကျီ ||| 0.6 0.2 0.2 0.6 0.2 0.2
ba- ja ||| ပ ရာ ||| 0.714286 0.142857 0.142857 0.714286 0.142857 0.142857
ba- ja ||| ဗ ယာ ||| 0.6 0.2 0.2 0.6 0.2 0.2
ba- ja ||| ဘ ယာ ||| 0.714286 0.142857 0.142857 0.714286 0.142857 0.142857
ba- ja: ||| ဖု ရား ||| 0.714286 0.142857 0.142857 0.714286 0.142857 0.142857
ba- laun ||| ပ လောင် ||| 0.6 0.2 0.2 0.6 0.2 0.2
ba- laun ||| ဗ လောင် ||| 0.6 0.2 0.2 0.6 0.2 0.2
ba- lin: ||| ပ လင်း ||| 0.6 0.2 0.2 0.6 0.2 0.2
ba- lu: ba ||| ဘီ လူး ပါ ||| 0.6 0.2 0.2 0.6 0.2 0.2
ba- lu: ||| ဘီ လူး ||| 0.945946 0.027027 0.027027 0.945946 0.027027 0.027027
ba- lu: ||| ဘီး လူး ||| 0.6 0.2 0.2 0.6 0.2 0.2
ba- ra- ||| ဗ ရ ||| 0.866667 0.0666667 0.0666667 0.866667 0.0666667 0.0666667
ba- wa. ||| ဘ ဝ ||| 0.92 0.04 0.04 0.92 0.04 0.04
ba- wa: ||| ဖ ဝါး ||| 0.714286 0.142857 0.142857 0.714286 0.142857 0.142857
ba- za ||| ပ စာ ||| 0.714286 0.142857 0.142857 0.714286 0.142857 0.142857
ba- za ||| ပ ဇာ ||| 0.6 0.2 0.2 0.6 0.2 0.2
ba- za' ||| ပ စပ် ||| 0.6 0.2 0.2 0.6 0.2 0.2
ba- za' ||| ပါး စပ် ||| 0.894737 0.0526316 0.0526316 0.894737 0.0526316 0.0526316
ba- zun gyau' ||| ပု စွန် ခြောက် ||| 0.6 0.2 0.2 0.6 0.2 0.2
ba- zun ||| ပု စွန် ||| 0.931034 0.0344828 0.0344828 0.931034 0.0344828 0.0344828
ba- ||| တု ||| 0.6 0.2 0.2 0.6 0.2 0.2
ba- ||| ပ ||| 0.988304 0.00584795 0.00584795 0.988304 0.00584795 0.00584795
ba- ||| ပဉ် ||| 0.777778 0.111111 0.111111 0.777778 0.111111 0.111111
ba- ||| ပတ် ||| 0.6 0.2 0.2 0.6 0.2 0.2
ba- ||| ပန် ||| 0.6 0.2 0.2 0.6 0.2 0.2
ba- ||| ပန်း ||| 0.945946 0.027027 0.027027 0.945946 0.027027 0.027027
ba- ||| ပါ ||| 0.6 0.2 0.2 0.6 0.2 0.2
ba- ||| ပါး ||| 0.960784 0.0196078 0.0196078 0.960784 0.0196078 0.0196078
ba- ||| ပိ ||| 0.714286 0.142857 0.142857 0.714286 0.142857 0.142857
ba- ||| ပု ||| 0.962264 0.0188679 0.0188679 0.962264 0.0188679 0.0188679
ba- ||| ပုံ ||| 0.6 0.2 0.2 0.6 0.2 0.2
ba- ||| ပဲ ||| 0.6 0.2 0.2 0.6 0.2 0.2
ba- ||| ပျား ||| 0.777778 0.111111 0.111111 0.777778 0.111111 0.111111
ba- ||| ပြ ||| 0.777778 0.111111 0.111111 0.777778 0.111111 0.111111
ba- ||| ဖ ||| 0.894737 0.0526316 0.0526316 0.894737 0.0526316 0.0526316
ba- ||| ဖု ||| 0.714286 0.142857 0.142857 0.714286 0.142857 0.142857
ba- ||| ဗ ||| 0.986014 0.00699301 0.00699301 0.986014 0.00699301 0.00699301
ba- ||| ဗာ ||| 0.6 0.2 0.2 0.6 0.2 0.2
ba- ||| ဘ ||| 0.978495 0.0107527 0.0107527 0.978495 0.0107527 0.0107527
ba- ||| ဘဏ် ||| 0.6 0.2 0.2 0.6 0.2 0.2
ba- ||| ဘာ ||| 0.6 0.2 0.2 0.6 0.2 0.2
ba- ||| ဘိ ||| 0.6 0.2 0.2 0.6 0.2 0.2
ba- ||| ဘီ ||| 0.945946 0.027027 0.027027 0.945946 0.027027 0.027027
ba- ||| ဘီး ||| 0.6 0.2 0.2 0.6 0.2 0.2
ba- ||| ဘု ||| 0.882353 0.0588235 0.0588235 0.882353 0.0588235 0.0588235
ba. ||| ပ ||| 0.818182 0.0909091 0.0909091 0.818182 0.0909091 0.0909091
ba. ||| ပါ့ ||| 0.6 0.2 0.2 0.6 0.2 0.2
ba. ||| ဗ ||| 0.92 0.04 0.04 0.92 0.04 0.04
ba. ||| ဘ ||| 0.964912 0.0175439 0.0175439 0.964912 0.0175439 0.0175439
ba. ||| ဘာ့ ||| 0.6 0.2 0.2 0.6 0.2 0.2
ba: ||| ပါး ||| 0.989744 0.00512821 0.00512821 0.989744 0.00512821 0.00512821
ba: ||| ဖား ||| 0.818182 0.0909091 0.0909091 0.818182 0.0909091 0.0909091
ba: ||| ဗား ||| 0.777778 0.111111 0.111111 0.777778 0.111111 0.111111
ba: ||| ဘား ||| 0.846154 0.0769231 0.0769231 0.846154 0.0769231 0.0769231
ba: ||| ဝါး ||| 0.6 0.2 0.2 0.6 0.2 0.2
bain ||| ပိုင့် ||| 0.6 0.2 0.2 0.6 0.2 0.2
bain ||| ပိုင် ||| 0.963636 0.0181818 0.0181818 0.963636 0.0181818 0.0181818
bain ||| ဖိုင် ||| 0.6 0.2 0.2 0.6 0.2 0.2
bain ||| ဘိုင် ||| 0.846154 0.0769231 0.0769231 0.846154 0.0769231 0.0769231
ban da ||| ဗာ ဒံ ||| 0.6 0.2 0.2 0.6 0.2 0.2
ban da ||| ဘဏ် ဍာ ||| 0.866667 0.0666667 0.0666667 0.866667 0.0666667 0.0666667
ban ||| ပန် ||| 0.882353 0.0588235 0.0588235 0.882353 0.0588235 0.0588235
ban ||| ပံ ||| 0.714286 0.142857 0.142857 0.714286 0.142857 0.142857
ban ||| ဖန် ||| 0.894737 0.0526316 0.0526316 0.894737 0.0526316 0.0526316
ban ||| ဗန် ||| 0.846154 0.0769231 0.0769231 0.846154 0.0769231 0.0769231
ban ||| ဗာ ||| 0.6 0.2 0.2 0.6 0.2 0.2
ban ||| ဗာန် ||| 0.894737 0.0526316 0.0526316 0.894737 0.0526316 0.0526316
ban ||| ဘဏ် ||| 0.904762 0.047619 0.047619 0.904762 0.047619 0.047619
ban ||| ဘန် ||| 0.866667 0.0666667 0.0666667 0.866667 0.0666667 0.0666667
ban ||| ဘမ် ||| 0.6 0.2 0.2 0.6 0.2 0.2
ban ||| ဘာန် ||| 0.6 0.2 0.2 0.6 0.2 0.2
ban: ||| ပန်း ||| 0.983471 0.00826446 0.00826446 0.983471 0.00826446 0.00826446
ban: ||| ပမ်း ||| 0.714286 0.142857 0.142857 0.714286 0.142857 0.142857
ban: ||| ဗန်း ||| 0.777778 0.111111 0.111111 0.777778 0.111111 0.111111
ban: ||| ဘန် ||| 0.6 0.2 0.2 0.6 0.2 0.2
ban: ||| ဘန်း ||| 0.6 0.2 0.2 0.6 0.2 0.2
bau' ||| ပေါက် ||| 0.990338 0.00483092 0.00483092 0.990338 0.00483092 0.00483092
bau' ||| ဖောက် ||| 0.6 0.2 0.2 0.6 0.2 0.2
bau' ||| ဗောက် ||| 0.6 0.2 0.2 0.6 0.2 0.2
bau' ||| ဘောက် ||| 0.866667 0.0666667 0.0666667 0.866667 0.0666667 0.0666667
baun ||| ပေါင် ||| 0.968254 0.015873 0.015873 0.968254 0.015873 0.015873
baun ||| ဖောင် ||| 0.6 0.2 0.2 0.6 0.2 0.2
baun ||| ဗောင် ||| 0.714286 0.142857 0.142857 0.714286 0.142857 0.142857
baun ||| ဘောင် ||| 0.92 0.04 0.04 0.92 0.04 0.04
baun: ||| ပေါင်း ||| 0.975904 0.0120482 0.0120482 0.975904 0.0120482 0.0120482
baun: ||| ဖောင်း ||| 0.777778 0.111111 0.111111 0.777778 0.111111 0.111111
baun: ||| ဗောင်း ||| 0.714286 0.142857 0.142857 0.714286 0.142857 0.142857
baun: ||| ဘောင်း ||| 0.714286 0.142857 0.142857 0.714286 0.142857 0.142857
be ||| ပယ် ||| 0.866667 0.0666667 0.0666667 0.866667 0.0666667 0.0666667
be ||| ပါယ် ||| 0.777778 0.111111 0.111111 0.777778 0.111111 0.111111
be ||| ပဲ ||| 0.6 0.2 0.2 0.6 0.2 0.2
be ||| ဘယ် ||| 0.953488 0.0232558 0.0232558 0.953488 0.0232558 0.0232558
be' ||| ပက် ||| 0.777778 0.111111 0.111111 0.777778 0.111111 0.111111
be' ||| ပါက် ||| 0.6 0.2 0.2 0.6 0.2 0.2
be' ||| ဖက် ||| 0.963636 0.0181818 0.0181818 0.963636 0.0181818 0.0181818
be' ||| ဗက် ||| 0.714286 0.142857 0.142857 0.714286 0.142857 0.142857
be' ||| ဘက် ||| 0.959184 0.0204082 0.0204082 0.959184 0.0204082 0.0204082
be: ||| ပိန်း ||| 0.714286 0.142857 0.142857 0.714286 0.142857 0.142857
be: ||| ပဲ ||| 0.925926 0.037037 0.037037 0.925926 0.037037 0.037037
be: ||| ဘဲ ||| 0.95122 0.0243902 0.0243902 0.95122 0.0243902 0.0243902
bei da. ||| ဗေ ဒ ||| 0.957447 0.0212766 0.0212766 0.957447 0.0212766 0.0212766
bei khan ||| ဘိက် ခန် ||| 0.6 0.2 0.2 0.6 0.2 0.2
bei ||| ပိတ် ||| 0.6 0.2 0.2 0.6 0.2 0.2
bei ||| ပေ ||| 0.92 0.04 0.04 0.92 0.04 0.04
bei ||| ဗေ ||| 0.968254 0.015873 0.015873 0.968254 0.015873 0.015873
bei ||| ဘိက် ||| 0.6 0.2 0.2 0.6 0.2 0.2
bei ||| ဘေ ||| 0.777778 0.111111 0.111111 0.777778 0.111111 0.111111
bei' khu. ||| ဘိက် ခု ||| 0.6 0.2 0.2 0.6 0.2 0.2
bei' nei. ||| ဖိတ် နေ့ ||| 0.714286 0.142857 0.142857 0.714286 0.142857 0.142857
bei' ||| ပိ ||| 0.6 0.2 0.2 0.6 0.2 0.2
bei' ||| ပိတ် ||| 0.963636 0.0181818 0.0181818 0.963636 0.0181818 0.0181818
bei' ||| ဖိတ် ||| 0.777778 0.111111 0.111111 0.777778 0.111111 0.111111
bei' ||| ဗိ ||| 0.714286 0.142857 0.142857 0.714286 0.142857 0.142857
bei' ||| ဘိ ||| 0.846154 0.0769231 0.0769231 0.846154 0.0769231 0.0769231
bei' ||| ဘိက် ||| 0.6 0.2 0.2 0.6 0.2 0.2
bei: ||| ပေး ||| 0.953488 0.0232558 0.0232558 0.953488 0.0232558 0.0232558
bei: ||| ဘေး ||| 0.974026 0.012987 0.012987 0.974026 0.012987 0.012987
bein: cha. ||| ပိန်း ချ ||| 0.6 0.2 0.2 0.6 0.2 0.2
bein: ||| ပိန်း ||| 0.894737 0.0526316 0.0526316 0.894737 0.0526316 0.0526316
bein: ||| ပြိန်း ||| 0.6 0.2 0.2 0.6 0.2 0.2
bein: ||| ဗိန် ||| 0.6 0.2 0.2 0.6 0.2 0.2
bein: ||| ဗိန်း ||| 0.6 0.2 0.2 0.6 0.2 0.2
bein: ||| ဘိန်း ||| 0.846154 0.0769231 0.0769231 0.846154 0.0769231 0.0769231
bein: ||| ဘီး ||| 0.882353 0.0588235 0.0588235 0.882353 0.0588235 0.0588235
bi za- ||| ဗီ ဇ ||| 0.6 0.2 0.2 0.6 0.2 0.2
bi ||| ပီ ||| 0.777778 0.111111 0.111111 0.777778 0.111111 0.111111
bi ||| ဖီ ||| 0.777778 0.111111 0.111111 0.777778 0.111111 0.111111
bi ||| ဗီ ||| 0.882353 0.0588235 0.0588235 0.882353 0.0588235 0.0588235
bi ||| ဘင် ||| 0.6 0.2 0.2 0.6 0.2 0.2
bi ||| ဘစ် ||| 0.6 0.2 0.2 0.6 0.2 0.2
bi ||| ဘိ ||| 0.6 0.2 0.2 0.6 0.2 0.2
bi ||| ဘီ ||| 0.948718 0.025641 0.025641 0.948718 0.025641 0.025641
bi. da- ga' ||| ပိ ဋ ကတ် ||| 0.818182 0.0909091 0.0909091 0.818182 0.0909091 0.0909091
bi. da- ||| ပိ ဋ ||| 0.818182 0.0909091 0.0909091 0.818182 0.0909091 0.0909091
bi. da- ||| ပိ တ ||| 0.6 0.2 0.2 0.6 0.2 0.2
bi. da- ||| ဘိ ဓ ||| 0.6 0.2 0.2 0.6 0.2 0.2
bi. da- ||| ဘိ ဓမ် ||| 0.6 0.2 0.2 0.6 0.2 0.2
bi. ||| ပိ ||| 0.894737 0.0526316 0.0526316 0.894737 0.0526316 0.0526316
bi. ||| ဖိ ||| 0.818182 0.0909091 0.0909091 0.818182 0.0909091 0.0909091
bi. ||| ဗိ ||| 0.714286 0.142857 0.142857 0.714286 0.142857 0.142857
bi. ||| ဘိ ||| 0.894737 0.0526316 0.0526316 0.894737 0.0526316 0.0526316
bi: ||| ပြီး ||| 0.6 0.2 0.2 0.6 0.2 0.2
bi: ||| ဗီး ||| 0.6 0.2 0.2 0.6 0.2 0.2
bi: ||| ဘီး ||| 0.939394 0.030303 0.030303 0.939394 0.030303 0.030303
bin dain ||| ပင် တိုင် ||| 0.6 0.2 0.2 0.6 0.2 0.2
bin ||| ပင် ||| 0.978022 0.010989 0.010989 0.978022 0.010989 0.010989
bin ||| ဗင် ||| 0.6 0.2 0.2 0.6 0.2 0.2
bin ||| ဘင် ||| 0.948718 0.025641 0.025641 0.948718 0.025641 0.025641
bin: ||| ပင်း ||| 0.935484 0.0322581 0.0322581 0.935484 0.0322581 0.0322581
bin: ||| ဘင် ||| 0.6 0.2 0.2 0.6 0.2 0.2
bja dei' ||| ဗျာ ဒိတ် ||| 0.6 0.2 0.2 0.6 0.2 0.2
bja ka- ||| ပျာ က ||| 0.6 0.2 0.2 0.6 0.2 0.2
bja ka- ||| ဗျာ က ||| 0.6 0.2 0.2 0.6 0.2 0.2
bja ||| ပျာ ||| 0.866667 0.0666667 0.0666667 0.866667 0.0666667 0.0666667
bja ||| ပြာ ||| 0.913043 0.0434783 0.0434783 0.913043 0.0434783 0.0434783
bja ||| ဖျာ ||| 0.6 0.2 0.2 0.6 0.2 0.2
bja ||| ဖြာ ||| 0.6 0.2 0.2 0.6 0.2 0.2
bja ||| ဗျာ ||| 0.925926 0.037037 0.037037 0.925926 0.037037 0.037037
bja ||| ဗြာ ||| 0.714286 0.142857 0.142857 0.714286 0.142857 0.142857
bja' ||| ပျပ် ||| 0.6 0.2 0.2 0.6 0.2 0.2
bja' ||| ပြတ် ||| 0.894737 0.0526316 0.0526316 0.894737 0.0526316 0.0526316
bja' ||| ဖြတ် ||| 0.882353 0.0588235 0.0588235 0.882353 0.0588235 0.0588235
bja' ||| ဗျတ် ||| 0.714286 0.142857 0.142857 0.714286 0.142857 0.142857
bja' ||| ဗျပ် ||| 0.777778 0.111111 0.111111 0.777778 0.111111 0.111111
bja' ||| ဗြတ် ||| 0.6 0.2 0.2 0.6 0.2 0.2
bja. ||| ပျ ||| 0.714286 0.142857 0.142857 0.714286 0.142857 0.142857
bja. ||| ပြ ||| 0.945946 0.027027 0.027027 0.945946 0.027027 0.027027
bja. ||| ဖြ ||| 0.714286 0.142857 0.142857 0.714286 0.142857 0.142857
bja. ||| ဗျ ||| 0.714286 0.142857 0.142857 0.714286 0.142857 0.142857
bja: ||| ပျား ||| 0.714286 0.142857 0.142857 0.714286 0.142857 0.142857
bja: ||| ပြား ||| 0.972603 0.0136986 0.0136986 0.972603 0.0136986 0.0136986
bja: ||| ဖျား ||| 0.939394 0.030303 0.030303 0.939394 0.030303 0.030303
bja: ||| ဖြား ||| 0.6 0.2 0.2 0.6 0.2 0.2
bja: ||| ဗြား ||| 0.6 0.2 0.2 0.6 0.2 0.2
bjain: ||| ပြိုင်း ||| 0.6 0.2 0.2 0.6 0.2 0.2
bjain: ||| ဗျိုင်း ||| 0.913043 0.0434783 0.0434783 0.913043 0.0434783 0.0434783
bjan kyi. ||| ပြန် ကြည့် ||| 0.6 0.2 0.2 0.6 0.2 0.2
bjan ||| ပျံ ||| 0.945946 0.027027 0.027027 0.945946 0.027027 0.027027
bjan ||| ပြန် ||| 0.977011 0.0114943 0.0114943 0.977011 0.0114943 0.0114943
bjan ||| ဖျန် ||| 0.6 0.2 0.2 0.6 0.2 0.2
bjaun ||| ပြောင် ||| 0.913043 0.0434783 0.0434783 0.913043 0.0434783 0.0434783
bjaun ||| ဗြောင် ||| 0.714286 0.142857 0.142857 0.714286 0.142857 0.142857
bjaun: ||| ပျောင်း ||| 0.714286 0.142857 0.142857 0.714286 0.142857 0.142857
bjaun: ||| ပြောင်း ||| 0.925926 0.037037 0.037037 0.925926 0.037037 0.037037
bjaun: ||| ဗြောင်း ||| 0.6 0.2 0.2 0.6 0.2 0.2
bje' ||| ပျက် ||| 0.942857 0.0285714 0.0285714 0.942857 0.0285714 0.0285714
bje' ||| ပြက် ||| 0.904762 0.047619 0.047619 0.904762 0.047619 0.047619
bje' ||| ဖျက် ||| 0.777778 0.111111 0.111111 0.777778 0.111111 0.111111
bje' ||| ဗျဂ် ||| 0.6 0.2 0.2 0.6 0.2 0.2
bje' ||| မြက် ||| 0.818182 0.0909091 0.0909091 0.818182 0.0909091 0.0909091
bjei ||| ပြည့် ||| 0.714286 0.142857 0.142857 0.714286 0.142857 0.142857
bjei ||| ပြည် ||| 0.714286 0.142857 0.142857 0.714286 0.142857 0.142857
bjei ||| ပြေ ||| 0.935484 0.0322581 0.0322581 0.935484 0.0322581 0.0322581
bjei ||| ဖြေ ||| 0.714286 0.142857 0.142857 0.714286 0.142857 0.142857
bjei. kya' pjei. ||| ပြည့် ကျပ် ပြည့် ||| 0.6 0.2 0.2 0.6 0.2 0.2
bjei. kya' ||| ပြည့် ကျပ် ||| 0.6 0.2 0.2 0.6 0.2 0.2
bjei. ||| ပြည့် ||| 0.866667 0.0666667 0.0666667 0.866667 0.0666667 0.0666667
bjei: ||| ပြေး ||| 0.95122 0.0243902 0.0243902 0.95122 0.0243902 0.0243902
bjei: ||| ဖြည်း ||| 0.714286 0.142857 0.142857 0.714286 0.142857 0.142857
bji' ||| ပစ် ||| 0.931034 0.0344828 0.0344828 0.931034 0.0344828 0.0344828
bji' ||| ပျစ် ||| 0.939394 0.030303 0.030303 0.939394 0.030303 0.030303
bji' ||| ပြစ် ||| 0.714286 0.142857 0.142857 0.714286 0.142857 0.142857
bji' ||| ဖျစ် ||| 0.6 0.2 0.2 0.6 0.2 0.2
bji' ||| ဖြစ် ||| 0.882353 0.0588235 0.0588235 0.882353 0.0588235 0.0588235
bji' ||| ဗျစ် ||| 0.714286 0.142857 0.142857 0.714286 0.142857 0.142857
bji. ||| ပည့် ||| 0.6 0.2 0.2 0.6 0.2 0.2
bji. ||| ပြည့် ||| 0.846154 0.0769231 0.0769231 0.846154 0.0769231 0.0769231
bji: ||| ပည်း ||| 0.714286 0.142857 0.142857 0.714286 0.142857 0.142857
bji: ||| ပြည့် ||| 0.6 0.2 0.2 0.6 0.2 0.2
bji: ||| ပြည်း ||| 0.714286 0.142857 0.142857 0.714286 0.142857 0.142857
bji: ||| ပြီး ||| 0.777778 0.111111 0.111111 0.777778 0.111111 0.111111
bji: ||| ဖြည်း ||| 0.6 0.2 0.2 0.6 0.2 0.2
bji: ||| ဖြဲ ||| 0.6 0.2 0.2 0.6 0.2 0.2
bji: ||| ဗျည်း ||| 0.818182 0.0909091 0.0909091 0.818182 0.0909091 0.0909091
bjin ||| ပျင် ||| 0.6 0.2 0.2 0.6 0.2 0.2
bjin ||| ပျဉ် ||| 0.882353 0.0588235 0.0588235 0.882353 0.0588235 0.0588235
bjin ||| ပြင် ||| 0.968254 0.015873 0.015873 0.968254 0.015873 0.015873
bjin ||| ဖျင် ||| 0.6 0.2 0.2 0.6 0.2 0.2
bjin ||| ဗျဉ် ||| 0.6 0.2 0.2 0.6 0.2 0.2
bjin: ka' ||| ပြင်း ကတ် ||| 0.714286 0.142857 0.142857 0.714286 0.142857 0.142857
bjin: ||| ပျင်း ||| 0.6 0.2 0.2 0.6 0.2 0.2
bjin: ||| ပျဉ်း ||| 0.846154 0.0769231 0.0769231 0.846154 0.0769231 0.0769231
bjin: ||| ပြင်း ||| 0.92 0.04 0.04 0.92 0.04 0.04
bjin: ||| ဖျင်း ||| 0.6 0.2 0.2 0.6 0.2 0.2
bjin: ||| ဖျဉ်း ||| 0.714286 0.142857 0.142857 0.714286 0.142857 0.142857
bjin: ||| ဗျင်း ||| 0.6 0.2 0.2 0.6 0.2 0.2
bjin: ||| ဗြင်း ||| 0.777778 0.111111 0.111111 0.777778 0.111111 0.111111
bjo ||| ဖြော် ||| 0.6 0.2 0.2 0.6 0.2 0.2
bjo: ||| ပျော ||| 0.6 0.2 0.2 0.6 0.2 0.2
bjo: ||| ပြော ||| 0.925926 0.037037 0.037037 0.925926 0.037037 0.037037
bjo: ||| ဖြော ||| 0.6 0.2 0.2 0.6 0.2 0.2
bjou ||| ပျို ||| 0.935484 0.0322581 0.0322581 0.935484 0.0322581 0.0322581
bjou ||| ပြို ||| 0.777778 0.111111 0.111111 0.777778 0.111111 0.111111
bjou' ||| ပြုတ် ||| 0.777778 0.111111 0.111111 0.777778 0.111111 0.111111
bjou' ||| ပြုပ် ||| 0.818182 0.0909091 0.0909091 0.818182 0.0909091 0.0909091
bjou' ||| ဗျု ||| 0.6 0.2 0.2 0.2 0.2 0.6
bjou' ||| ဗျု ပ် ||| 0.6 0.2 0.2 0.6 0.2 0.2
bjou' ||| ဗြုတ် ||| 0.6 0.2 0.2 0.6 0.2 0.2
bju ha ||| ဗျူ ဟာ ||| 0.846154 0.0769231 0.0769231 0.846154 0.0769231 0.0769231
bju rou ||| ဗျူ ရို ||| 0.714286 0.142857 0.142857 0.714286 0.142857 0.142857
bju ||| ဖြူ ||| 0.957447 0.0212766 0.0212766 0.957447 0.0212766 0.0212766
bju ||| ဗျူ ||| 0.882353 0.0588235 0.0588235 0.882353 0.0588235 0.0588235
bju' ||| ပြွတ် ||| 0.777778 0.111111 0.111111 0.777778 0.111111 0.111111
bju: ||| ပြူး ||| 0.846154 0.0769231 0.0769231 0.846154 0.0769231 0.0769231
bju: ||| ဖြူး ||| 0.777778 0.111111 0.111111 0.777778 0.111111 0.111111
bju: ||| ဗြူး ||| 0.777778 0.111111 0.111111 0.777778 0.111111 0.111111
bo li ||| ဘော် လီ ||| 0.777778 0.111111 0.111111 0.777778 0.111111 0.111111
bo ||| ပေါ် ||| 0.95122 0.0243902 0.0243902 0.95122 0.0243902 0.0243902
bo ||| ဖော် ||| 0.913043 0.0434783 0.0434783 0.913043 0.0434783 0.0434783
bo ||| ဘော ||| 0.6 0.2 0.2 0.6 0.2 0.2
bo ||| ဘော် ||| 0.942857 0.0285714 0.0285714 0.942857 0.0285714 0.0285714
bo: ga. ||| ဘော ဂ ||| 0.818182 0.0909091 0.0909091 0.818182 0.0909091 0.0909091
bo: ||| ပေါ ||| 0.882353 0.0588235 0.0588235 0.882353 0.0588235 0.0588235
bo: ||| ဖော ||| 0.714286 0.142857 0.142857 0.714286 0.142857 0.142857
bo: ||| ဗော ||| 0.882353 0.0588235 0.0588235 0.882353 0.0588235 0.0588235
bo: ||| ဘော ||| 0.987578 0.00621118 0.00621118 0.987578 0.00621118 0.00621118
bou za: ||| ဗိုလ် စား ||| 0.6 0.2 0.2 0.6 0.2 0.2
bou ||| ပို ||| 0.913043 0.0434783 0.0434783 0.913043 0.0434783 0.0434783
bou ||| ဖို ||| 0.942857 0.0285714 0.0285714 0.942857 0.0285714 0.0285714
bou ||| ဗိုလ် ||| 0.964912 0.0175439 0.0175439 0.964912 0.0175439 0.0175439
bou ||| ဘို ||| 0.6 0.2 0.2 0.6 0.2 0.2
bou ||| ဘုံ ||| 0.714286 0.142857 0.142857 0.714286 0.142857 0.142857
bou' da. ||| ဗုဒ် ဓ ||| 0.846154 0.0769231 0.0769231 0.846154 0.0769231 0.0769231
bou' ||| ပုတ် ||| 0.904762 0.047619 0.047619 0.904762 0.047619 0.047619
bou' ||| ပုဒ် ||| 0.846154 0.0769231 0.0769231 0.846154 0.0769231 0.0769231
bou' ||| ပုပ် ||| 0.939394 0.030303 0.030303 0.939394 0.030303 0.030303
bou' ||| ပုသ် ||| 0.913043 0.0434783 0.0434783 0.913043 0.0434783 0.0434783
bou' ||| ဖုတ် ||| 0.818182 0.0909091 0.0909091 0.818182 0.0909091 0.0909091
bou' ||| ဗုဒ် ||| 0.92 0.04 0.04 0.92 0.04 0.04
bou' ||| ဘုတ် ||| 0.939394 0.030303 0.030303 0.939394 0.030303 0.030303
bou: ||| ပိုး ||| 0.969231 0.0153846 0.0153846 0.969231 0.0153846 0.0153846
bou: ||| ဖိုး ||| 0.931034 0.0344828 0.0344828 0.931034 0.0344828 0.0344828
bou: ||| ဗိုး ||| 0.6 0.2 0.2 0.6 0.2 0.2
bou: ||| ဘိုး ||| 0.818182 0.0909091 0.0909091 0.818182 0.0909091 0.0909091
boun bain ||| ဘုံ ပိုင် ||| 0.6 0.2 0.2 0.6 0.2 0.2
boun hsai' ||| ပုံ ဆိုက် ||| 0.6 0.2 0.2 0.6 0.2 0.2
boun ma- ||| ဗုံ မ ||| 0.6 0.2 0.2 0.6 0.2 0.2
boun ma- ||| ဘုမ် မ ||| 0.714286 0.142857 0.142857 0.714286 0.142857 0.142857
boun ngwei ||| ပုံ ငွေ ||| 0.777778 0.111111 0.111111 0.777778 0.111111 0.111111
boun ngwei ||| ဘုံ ငွေ ||| 0.6 0.2 0.2 0.6 0.2 0.2
boun ||| ပုန် ||| 0.777778 0.111111 0.111111 0.777778 0.111111 0.111111
boun ||| ပုံ ||| 0.978022 0.010989 0.010989 0.978022 0.010989 0.010989
boun ||| ဖုန် ||| 0.714286 0.142857 0.142857 0.714286 0.142857 0.142857
boun ||| ဖုံ ||| 0.6 0.2 0.2 0.6 0.2 0.2
boun ||| ဗုန် ||| 0.6 0.2 0.2 0.6 0.2 0.2
boun ||| ဗုံ ||| 0.92 0.04 0.04 0.92 0.04 0.04
boun ||| ဘု ||| 0.6 0.2 0.2 0.6 0.2 0.2
boun ||| ဘုမ် ||| 0.714286 0.142857 0.142857 0.714286 0.142857 0.142857
boun ||| ဘုံ ||| 0.95122 0.0243902 0.0243902 0.95122 0.0243902 0.0243902
boun: ||| ပုန်း ||| 0.945946 0.027027 0.027027 0.945946 0.027027 0.027027
boun: ||| ပုံး ||| 0.882353 0.0588235 0.0588235 0.882353 0.0588235 0.0588235
boun: ||| ပေါင်း ||| 0.6 0.2 0.2 0.6 0.2 0.2
boun: ||| ဖုံး ||| 0.904762 0.047619 0.047619 0.904762 0.047619 0.047619
boun: ||| ဗုန်း ||| 0.818182 0.0909091 0.0909091 0.818182 0.0909091 0.0909091
boun: ||| ဗုံး ||| 0.931034 0.0344828 0.0344828 0.931034 0.0344828 0.0344828
boun: ||| ဘုန်း ||| 0.6 0.2 0.2 0.6 0.2 0.2
boun: ||| ဘောင်း ||| 0.6 0.2 0.2 0.6 0.2 0.2
bu za ||| ပူ ဆာ ||| 0.714286 0.142857 0.142857 0.714286 0.142857 0.142857
bu ||| ပူ ||| 0.962264 0.0188679 0.0188679 0.962264 0.0188679 0.0188679
bu ||| ဗူ ||| 0.777778 0.111111 0.111111 0.777778 0.111111 0.111111
bu ||| ဘူ ||| 0.931034 0.0344828 0.0344828 0.931034 0.0344828 0.0344828
bu ||| ဘူး ||| 0.6 0.2 0.2 0.6 0.2 0.2
bu' tain le ||| ပွတ် တိုင် လည် ||| 0.6 0.2 0.2 0.6 0.2 0.2
bu' tain ||| ပွတ် တိုင် ||| 0.6 0.2 0.2 0.6 0.2 0.2
bu' ||| ပွတ် ||| 0.942857 0.0285714 0.0285714 0.942857 0.0285714 0.0285714
bu' ||| ဗွတ် ||| 0.846154 0.0769231 0.0769231 0.846154 0.0769231 0.0769231
bu' ||| ဘွတ် ||| 0.6 0.2 0.2 0.6 0.2 0.2
bu. ||| ခု ||| 0.6 0.2 0.2 0.6 0.2 0.2
bu. ||| ပု ||| 0.714286 0.142857 0.142857 0.714286 0.142857 0.142857
bu. ||| ဖု ||| 0.882353 0.0588235 0.0588235 0.882353 0.0588235 0.0588235
bu. ||| ဗု ||| 0.6 0.2 0.2 0.6 0.2 0.2
bu. ||| ဘု ||| 0.866667 0.0666667 0.0666667 0.866667 0.0666667 0.0666667
bu: daun: ||| ဘူး တောင်း ||| 0.714286 0.142857 0.142857 0.714286 0.142857 0.142857
bu: ||| ပူး ||| 0.714286 0.142857 0.142857 0.714286 0.142857 0.142857
bu: ||| ဖူး ||| 0.939394 0.030303 0.030303 0.939394 0.030303 0.030303
bu: ||| ဗူး ||| 0.6 0.2 0.2 0.6 0.2 0.2
bu: ||| ဘူး ||| 0.966102 0.0169492 0.0169492 0.966102 0.0169492 0.0169492
bwa: pje' ||| ပွား ပျက် ||| 0.6 0.2 0.2 0.6 0.2 0.2
bwa: ||| ပွား ||| 0.948718 0.025641 0.025641 0.948718 0.025641 0.025641
bwa: ||| ဖား ||| 0.6 0.2 0.2 0.6 0.2 0.2
bwa: ||| ဖွား ||| 0.777778 0.111111 0.111111 0.777778 0.111111 0.111111
bwa: ||| ဘွား ||| 0.866667 0.0666667 0.0666667 0.866667 0.0666667 0.0666667
bwe' hta. ||| ပွက် ထ ||| 0.714286 0.142857 0.142857 0.714286 0.142857 0.142857
bwe' ||| ပွက် ||| 0.866667 0.0666667 0.0666667 0.866667 0.0666667 0.0666667
bwe' ||| ဗွက် ||| 0.6 0.2 0.2 0.6 0.2 0.2
bwe. ||| ဖွဲ့ ||| 0.714286 0.142857 0.142857 0.714286 0.142857 0.142857
bwe. ||| ဘွဲ့ ||| 0.894737 0.0526316 0.0526316 0.894737 0.0526316 0.0526316
bwe: ||| ပွဲ ||| 0.985612 0.00719424 0.00719424 0.985612 0.00719424 0.00719424
bwe: ||| ဖွဲ ||| 0.777778 0.111111 0.111111 0.777778 0.111111 0.111111
bwei ||| ပွေ ||| 0.714286 0.142857 0.142857 0.714286 0.142857 0.142857
bwei ||| ဗွေ ||| 0.935484 0.0322581 0.0322581 0.935484 0.0322581 0.0322581
bwei. ||| ပွေ့ ||| 0.818182 0.0909091 0.0909091 0.818182 0.0909091 0.0909091
bwei: ||| ပွေး ||| 0.777778 0.111111 0.111111 0.777778 0.111111 0.111111
bwei: ||| ဖွေး ||| 0.6 0.2 0.2 0.6 0.2 0.2
cha gya ||| ချာ ချာ ||| 0.714286 0.142857 0.142857 0.714286 0.142857 0.142857
cha ||| ချ ||| 0.714286 0.142857 0.142857 0.714286 0.142857 0.142857
cha ||| ချာ ||| 0.968254 0.015873 0.015873 0.968254 0.015873 0.015873
cha ||| ခြာ ||| 0.866667 0.0666667 0.0666667 0.866667 0.0666667 0.0666667
cha' ||| ကြပ် ||| 0.6 0.2 0.2 0.6 0.2 0.2
cha' ||| ချပ် ||| 0.913043 0.0434783 0.0434783 0.913043 0.0434783 0.0434783
cha' ||| ချာတ် ||| 0.6 0.2 0.2 0.6 0.2 0.2
cha. ||| ချ ||| 0.991903 0.00404858 0.00404858 0.991903 0.00404858 0.00404858
cha. ||| ခြ ||| 0.818182 0.0909091 0.0909091 0.818182 0.0909091 0.0909091
cha: ||| ချ ||| 0.6 0.2 0.2 0.6 0.2 0.2
cha: ||| ချား ||| 0.904762 0.047619 0.047619 0.904762 0.047619 0.047619
cha: ||| ခြား ||| 0.935484 0.0322581 0.0322581 0.935484 0.0322581 0.0322581
chai' ||| ခြိုက် ||| 0.866667 0.0666667 0.0666667 0.866667 0.0666667 0.0666667
chan ||| ချန် ||| 0.904762 0.047619 0.047619 0.904762 0.047619 0.047619
chan ||| ခြံ ||| 0.846154 0.0769231 0.0769231 0.846154 0.0769231 0.0769231
chan: ||| ချမ်း ||| 0.939394 0.030303 0.030303 0.939394 0.030303 0.030303
chan: ||| ခြမ်း ||| 0.92 0.04 0.04 0.92 0.04 0.04
chan: ||| ခြံ ||| 0.6 0.2 0.2 0.6 0.2 0.2
chau' pau' ||| ခြောက် ပေါက် ||| 0.6 0.2 0.2 0.6 0.2 0.2
chau' ||| ချောက် ||| 0.882353 0.0588235 0.0588235 0.882353 0.0588235 0.0588235
chau' ||| ခြောက် ||| 0.976471 0.0117647 0.0117647 0.976471 0.0117647 0.0117647
chaun ||| ချောင် ||| 0.939394 0.030303 0.030303 0.939394 0.030303 0.030303
chaun: mjaun: ||| ချောင်း မြောင်း ||| 0.6 0.2 0.2 0.6 0.2 0.2
chaun: ||| ချောင်း ||| 0.971014 0.0144928 0.0144928 0.971014 0.0144928 0.0144928
chaun: ||| ခြောင်း ||| 0.714286 0.142857 0.142857 0.714286 0.142857 0.142857
che ||| ချယ် ||| 0.846154 0.0769231 0.0769231 0.846154 0.0769231 0.0769231
che ||| ချဲ့ ||| 0.714286 0.142857 0.142857 0.714286 0.142857 0.142857
che ||| ခြယ် ||| 0.866667 0.0666667 0.0666667 0.866667 0.0666667 0.0666667
che' a- ||| ချက် အ ||| 0.777778 0.111111 0.111111 0.777778 0.111111 0.111111
che' kywei ||| ချက် ကြွေ ||| 0.6 0.2 0.2 0.6 0.2 0.2
che' ||| ချက် ||| 0.982609 0.00869565 0.00869565 0.982609 0.00869565 0.00869565
che. ||| ချဲ့ ||| 0.913043 0.0434783 0.0434783 0.913043 0.0434783 0.0434783
chei cha. ||| ခြေ ချ ||| 0.6 0.2 0.2 0.6 0.2 0.2
chei goun ||| ခြေ ကုန် ||| 0.714286 0.142857 0.142857 0.714286 0.142857 0.142857
chei goun ||| ခြေ ခုံ ||| 0.6 0.2 0.2 0.6 0.2 0.2
chei gyin: ||| ခြေ ချင်း ||| 0.6 0.2 0.2 0.6 0.2 0.2
chei kya. ||| ခြေ ကျ ||| 0.6 0.2 0.2 0.6 0.2 0.2
chei ma- ||| ခြေ မ ||| 0.714286 0.142857 0.142857 0.714286 0.142857 0.142857
chei mjan ||| ခြေ မြန် ||| 0.777778 0.111111 0.111111 0.777778 0.111111 0.111111
chei zin: ||| ခြေ ဆင်း ||| 0.6 0.2 0.2 0.6 0.2 0.2
chei ||| ချေ ||| 0.939394 0.030303 0.030303 0.939394 0.030303 0.030303
chei ||| ခြည် ||| 0.6 0.2 0.2 0.6 0.2 0.2
chei ||| ခြေ ||| 0.987879 0.00606061 0.00606061 0.987879 0.00606061 0.00606061
chei' ||| ချိတ် ||| 0.925926 0.037037 0.037037 0.925926 0.037037 0.037037
chei' ||| ချိပ် ||| 0.904762 0.047619 0.047619 0.904762 0.047619 0.047619
chein gwin ||| ချိန် ခွင် ||| 0.846154 0.0769231 0.0769231 0.846154 0.0769231 0.0769231
chein ma- ||| ချိန် မ ||| 0.818182 0.0909091 0.0909091 0.818182 0.0909091 0.0909091
chein ||| ချိန် ||| 0.978495 0.0107527 0.0107527 0.978495 0.0107527 0.0107527
chi gwin ||| ခြေ ခွင် ||| 0.6 0.2 0.2 0.6 0.2 0.2
chi loun: ||| ချည် လုံး ||| 0.6 0.2 0.2 0.6 0.2 0.2
chi ||| ချည် ||| 0.966102 0.0169492 0.0169492 0.966102 0.0169492 0.0169492
chi ||| ချိ ||| 0.6 0.2 0.2 0.6 0.2 0.2
chi ||| ချီ ||| 0.942857 0.0285714 0.0285714 0.942857 0.0285714 0.0285714
chi ||| ချေ ||| 0.6 0.2 0.2 0.6 0.2 0.2
chi ||| ခြည် ||| 0.882353 0.0588235 0.0588235 0.882353 0.0588235 0.0588235
chi ||| ခြယ် ||| 0.6 0.2 0.2 0.6 0.2 0.2
chi ||| ခြေ ||| 0.986014 0.00699301 0.00699301 0.986014 0.00699301 0.00699301
chi' chi' ||| ခြစ် ခြစ် ||| 0.6 0.2 0.2 0.6 0.2 0.2
chi' ||| ချစ် ||| 0.866667 0.0666667 0.0666667 0.866667 0.0666667 0.0666667
chi' ||| ခြစ် ||| 0.818182 0.0909091 0.0909091 0.818182 0.0909091 0.0909091
chi' ||| ခြည် ||| 0.6 0.2 0.2 0.6 0.2 0.2
chi. ||| ချည့် ||| 0.846154 0.0769231 0.0769231 0.846154 0.0769231 0.0769231
chi. ||| ချိ ||| 0.866667 0.0666667 0.0666667 0.866667 0.0666667 0.0666667
chi: ||| ချည်း ||| 0.818182 0.0909091 0.0909091 0.818182 0.0909091 0.0909091
chi: ||| ချီး ||| 0.925926 0.037037 0.037037 0.925926 0.037037 0.037037
chi: ||| ချေး ||| 0.92 0.04 0.04 0.92 0.04 0.04
chi: ||| ခြည်း ||| 0.6 0.2 0.2 0.6 0.2 0.2
chin pau' ||| ချဉ် ပေါက် ||| 0.6 0.2 0.2 0.6 0.2 0.2
chin ||| ချင် ||| 0.894737 0.0526316 0.0526316 0.894737 0.0526316 0.0526316
chin ||| ချဉ် ||| 0.953488 0.0232558 0.0232558 0.953488 0.0232558 0.0232558
chin ||| ချည် ||| 0.6 0.2 0.2 0.6 0.2 0.2
chin ||| ခြင် ||| 0.931034 0.0344828 0.0344828 0.931034 0.0344828 0.0344828
chin. ||| ချင့် ||| 0.882353 0.0588235 0.0588235 0.882353 0.0588235 0.0588235
chin: loun: ||| ခြင်း လုံး ||| 0.6 0.2 0.2 0.6 0.2 0.2
chin: za ||| ချင်း စာ ||| 0.6 0.2 0.2 0.6 0.2 0.2
chin: ||| ကျင်း ||| 0.6 0.2 0.2 0.6 0.2 0.2
chin: ||| ချင်း ||| 0.971831 0.0140845 0.0140845 0.971831 0.0140845 0.0140845
chin: ||| ချဉ်း ||| 0.714286 0.142857 0.142857 0.714286 0.142857 0.142857
chin: ||| ခြင်း ||| 0.925926 0.037037 0.037037 0.925926 0.037037 0.037037
cho ||| ချော် ||| 0.939394 0.030303 0.030303 0.939394 0.030303 0.030303
cho: ||| ချော ||| 0.955556 0.0222222 0.0222222 0.955556 0.0222222 0.0222222
chou ||| ချို ||| 0.953488 0.0232558 0.0232558 0.953488 0.0232558 0.0232558
chou' jou: ||| ချုပ် ရိုး ||| 0.6 0.2 0.2 0.6 0.2 0.2
chou' ||| ချုပ် ||| 0.980952 0.00952381 0.00952381 0.980952 0.00952381 0.00952381
chou' ||| ခြုတ် ||| 0.714286 0.142857 0.142857 0.714286 0.142857 0.142857
chou' ||| ခြုပ် ||| 0.777778 0.111111 0.111111 0.777778 0.111111 0.111111
chou' ||| ခြောက် ||| 0.6 0.2 0.2 0.6 0.2 0.2
chou: ||| ချိုး ||| 0.968254 0.015873 0.015873 0.968254 0.015873 0.015873
chu ||| ချူ ||| 0.866667 0.0666667 0.0666667 0.866667 0.0666667 0.0666667
chu' ||| ချွတ် ||| 0.955556 0.0222222 0.0222222 0.955556 0.0222222 0.0222222
chun ||| ချွန် ||| 0.866667 0.0666667 0.0666667 0.866667 0.0666667 0.0666667
chun ||| ချွံ ||| 0.777778 0.111111 0.111111 0.777778 0.111111 0.111111
chwe: ||| ချွဲ ||| 0.931034 0.0344828 0.0344828 0.931034 0.0344828 0.0344828
chwei: ||| ချွေး ||| 0.957447 0.0212766 0.0212766 0.957447 0.0212766 0.0212766
da na. ||| ဒါ န ||| 0.818182 0.0909091 0.0909091 0.818182 0.0909091 0.0909091
da na. ||| ဓာ န ||| 0.714286 0.142857 0.142857 0.714286 0.142857 0.142857
da ri ||| တ ရီ ||| 0.6 0.2 0.2 0.6 0.2 0.2
da zou: ||| ဍာ စိုး ||| 0.6 0.2 0.2 0.6 0.2 0.2
da ||| ဋာ ||| 0.714286 0.142857 0.142857 0.714286 0.142857 0.142857
da ||| ဍာ ||| 0.894737 0.0526316 0.0526316 0.894737 0.0526316 0.0526316
da ||| ဍား ||| 0.6 0.2 0.2 0.6 0.2 0.2
da ||| တ ||| 0.866667 0.0666667 0.0666667 0.866667 0.0666667 0.0666667
da ||| တစ် ||| 0.818182 0.0909091 0.0909091 0.818182 0.0909091 0.0909091
da ||| တာ ||| 0.969231 0.0153846 0.0153846 0.969231 0.0153846 0.0153846
da ||| ထိန်း ||| 0.6 0.2 0.2 0.6 0.2 0.2
da ||| ဒ ||| 0.6 0.2 0.2 0.6 0.2 0.2
da ||| ဒါ ||| 0.979798 0.010101 0.010101 0.979798 0.010101 0.010101
da ||| ဒာ ||| 0.714286 0.142857 0.142857 0.714286 0.142857 0.142857
da ||| ဒံ ||| 0.6 0.2 0.2 0.6 0.2 0.2
da ||| ဓ ||| 0.714286 0.142857 0.142857 0.714286 0.142857 0.142857
da ||| ဓါ ||| 0.846154 0.0769231 0.0769231 0.846154 0.0769231 0.0769231
da ||| ဓာ ||| 0.962264 0.0188679 0.0188679 0.962264 0.0188679 0.0188679
da' ngwei. ||| ဓာတ် ငွေ့ ||| 0.6 0.2 0.2 0.6 0.2 0.2
da' to ||| ဓာတ် တော် ||| 0.6 0.2 0.2 0.6 0.2 0.2
da' ||| ဍပ် ||| 0.714286 0.142857 0.142857 0.714286 0.142857 0.142857
da' ||| တတ် ||| 0.945946 0.027027 0.027027 0.945946 0.027027 0.027027
da' ||| တပ် ||| 0.92 0.04 0.04 0.92 0.04 0.04
da' ||| ထပ် ||| 0.92 0.04 0.04 0.92 0.04 0.04
da' ||| ဒ ||| 0.818182 0.0909091 0.0909091 0.818182 0.0909091 0.0909091
da' ||| ဒတ် ||| 0.714286 0.142857 0.142857 0.714286 0.142857 0.142857
da' ||| ဓာတ် ||| 0.984496 0.00775194 0.00775194 0.984496 0.00775194 0.00775194
da- ba ||| တစ် ပါ ||| 0.6 0.2 0.2 0.6 0.2 0.2
da- bin dain ||| တစ် ပင် တိုင် ||| 0.6 0.2 0.2 0.6 0.2 0.2
da- bin ||| တစ် ပင် ||| 0.714286 0.142857 0.142857 0.714286 0.142857 0.142857
da- bjan ||| တစ် ပြန် ||| 0.846154 0.0769231 0.0769231 0.846154 0.0769231 0.0769231
da- bju' ||| တ ပြွတ် ||| 0.6 0.2 0.2 0.6 0.2 0.2
da- bu ||| တံ ပူ ||| 0.6 0.2 0.2 0.6 0.2 0.2
da- da: ||| တံ တား ||| 0.846154 0.0769231 0.0769231 0.846154 0.0769231 0.0769231
da- dwei: ||| တံ တွေး ||| 0.6 0.2 0.2 0.6 0.2 0.2
da- ga' ||| ဋ ကတ် ||| 0.818182 0.0909091 0.0909091 0.818182 0.0909091 0.0909091
da- ga' ||| တ ကတ် ||| 0.6 0.2 0.2 0.6 0.2 0.2
da- ga. ||| တ က ||| 0.714286 0.142857 0.142857 0.714286 0.142857 0.142857
da- gaun gywe' ||| တစ် ကောင် ကြွက် ||| 0.6 0.2 0.2 0.6 0.2 0.2
da- gaun ||| တစ် ကောင် ||| 0.714286 0.142857 0.142857 0.714286 0.142857 0.142857
da- gaun: ||| တ ကောင်း ||| 0.6 0.2 0.2 0.6 0.2 0.2
da- gou ||| တစ် ကိုယ် ||| 0.714286 0.142857 0.142857 0.714286 0.142857 0.142857
da- ja: ||| တ ရား ||| 0.777778 0.111111 0.111111 0.777778 0.111111 0.111111
da- ja: ||| ဒ ယား ||| 0.777778 0.111111 0.111111 0.777778 0.111111 0.111111
da- jaun: ||| ဒ ယောင်း ||| 0.6 0.2 0.2 0.6 0.2 0.2
da- je ||| တ ရာယ် ||| 0.818182 0.0909091 0.0909091 0.818182 0.0909091 0.0909091
da- je ||| ဒ ရယ် ||| 0.6 0.2 0.2 0.6 0.2 0.2
da- jo: ||| ဒ ရော ||| 0.714286 0.142857 0.142857 0.714286 0.142857 0.142857
da- ma- da ||| ဓမ် မ တာ ||| 0.714286 0.142857 0.142857 0.714286 0.142857 0.142857
da- ma- tha' ||| ဓမ် မ သတ် ||| 0.714286 0.142857 0.142857 0.714286 0.142857 0.142857
da- ma- ||| ဓ မ ||| 0.6 0.2 0.2 0.6 0.2 0.2
da- ma- ||| ဓမ် မ ||| 0.894737 0.0526316 0.0526316 0.894737 0.0526316 0.0526316
da- ma- ||| ဓား မ ||| 0.6 0.2 0.2 0.6 0.2 0.2
da- ma. ||| တ မ ||| 0.6 0.2 0.2 0.6 0.2 0.2
da- ma. ||| ဒ မ ||| 0.714286 0.142857 0.142857 0.714286 0.142857 0.142857
da- ma. ||| ဓမ် မ ||| 0.931034 0.0344828 0.0344828 0.931034 0.0344828 0.0344828
da- ma. ||| ဓား မ ||| 0.714286 0.142857 0.142857 0.714286 0.142857 0.142857
da- na ||| တ နာ ||| 0.894737 0.0526316 0.0526316 0.894737 0.0526316 0.0526316
da- na ||| ဒ နာ ||| 0.714286 0.142857 0.142857 0.714286 0.142857 0.142857
da- ra' ||| ဒ ရတ် ||| 0.6 0.2 0.2 0.6 0.2 0.2
da- ra- ||| တ ရ ||| 0.777778 0.111111 0.111111 0.777778 0.111111 0.111111
da- ra- ||| ဒ ရ ||| 0.6 0.2 0.2 0.6 0.2 0.2
da- re' ||| ဒ ရက် ||| 0.714286 0.142857 0.142857 0.714286 0.142857 0.142857
da- rei ||| ဒြေ ||| 0.904762 0.047619 0.047619 0.904762 0.047619 0.047619
da- rei ||| ဓ ရေ ||| 0.6 0.2 0.2 0.6 0.2 0.2
da- tha- ||| ဒ သ ||| 0.6 0.2 0.2 0.6 0.2 0.2
da- we ||| ထား ဝယ် ||| 0.6 0.2 0.2 0.6 0.2 0.2
da- zau' ||| ဓား ဆောက် ||| 0.6 0.2 0.2 0.6 0.2 0.2
da- zaun: ||| တ စောင်း ||| 0.6 0.2 0.2 0.6 0.2 0.2
da- zaun: ||| တန် ဆောင်း ||| 0.6 0.2 0.2 0.6 0.2 0.2
da- zei ||| တ စေ ||| 0.714286 0.142857 0.142857 0.714286 0.142857 0.142857
da- zei ||| တံ ဆိပ် ||| 0.6 0.2 0.2 0.6 0.2 0.2
da- zei' ||| တစ် စိတ် ||| 0.777778 0.111111 0.111111 0.777778 0.111111 0.111111
da- zei' ||| တံ ဆိပ် ||| 0.882353 0.0588235 0.0588235 0.882353 0.0588235 0.0588235
da- zi: ||| တံ စည်း ||| 0.6 0.2 0.2 0.6 0.2 0.2
da- zu. ||| ကြ စု ||| 0.6 0.2 0.2 0.6 0.2 0.2
da- ||| ကြ ||| 0.6 0.2 0.2 0.6 0.2 0.2
da- ||| စာ ||| 0.6 0.2 0.2 0.6 0.2 0.2
da- ||| ဆိပ် ||| 0.6 0.2 0.2 0.6 0.2 0.2
da- ||| ဋ ||| 0.846154 0.0769231 0.0769231 0.846154 0.0769231 0.0769231
da- ||| ဍ ||| 0.714286 0.142857 0.142857 0.714286 0.142857 0.142857
da- ||| တ ||| 0.9941 0.00294985 0.00294985 0.9941 0.00294985 0.00294985
da- ||| တစ် ||| 0.990148 0.00492611 0.00492611 0.990148 0.00492611 0.00492611
da- ||| တန် ||| 0.935484 0.0322581 0.0322581 0.935484 0.0322581 0.0322581
da- ||| တာ ||| 0.6 0.2 0.2 0.6 0.2 0.2
da- ||| တု ||| 0.6 0.2 0.2 0.6 0.2 0.2
da- ||| တူး ||| 0.6 0.2 0.2 0.6 0.2 0.2
da- ||| တံ ||| 0.987097 0.00645161 0.00645161 0.987097 0.00645161 0.00645161
da- ||| ထ ||| 0.894737 0.0526316 0.0526316 0.894737 0.0526316 0.0526316
da- ||| ထန်း ||| 0.777778 0.111111 0.111111 0.777778 0.111111 0.111111
da- ||| ထမ်း ||| 0.882353 0.0588235 0.0588235 0.882353 0.0588235 0.0588235
da- ||| ထား ||| 0.6 0.2 0.2 0.6 0.2 0.2
da- ||| ဒ ||| 0.981308 0.00934579 0.00934579 0.981308 0.00934579 0.00934579
da- ||| ဒါ ||| 0.6 0.2 0.2 0.6 0.2 0.2
da- ||| ဒါး ||| 0.6 0.2 0.2 0.6 0.2 0.2
da- ||| ဒု ||| 0.6 0.2 0.2 0.6 0.2 0.2
da- ||| ဒြေ ||| 0.714286 0.142857 0.142857 0.714286 0.142857 0.142857
da- ||| ဓ ||| 0.966102 0.0169492 0.0169492 0.966102 0.0169492 0.0169492
da- ||| ဓမ် ||| 0.967213 0.0163934 0.0163934 0.967213 0.0163934 0.0163934
da- ||| ဓား ||| 0.945946 0.027027 0.027027 0.945946 0.027027 0.027027
da- ||| ဓေ ||| 0.6 0.2 0.2 0.6 0.2 0.2
da- ||| သ ||| 0.6 0.2 0.2 0.6 0.2 0.2
da- ||| သူ ||| 0.777778 0.111111 0.111111 0.777778 0.111111 0.111111
da-ra' ||| ဒြပ် ||| 0.777778 0.111111 0.111111 0.777778 0.111111 0.111111
da. tha- ||| ဒ သ ||| 0.866667 0.0666667 0.0666667 0.866667 0.0666667 0.0666667
da. ||| ဍ ||| 0.714286 0.142857 0.142857 0.714286 0.142857 0.142857
da. ||| ဎ ||| 0.6 0.2 0.2 0.6 0.2 0.2
da. ||| တ ||| 0.939394 0.030303 0.030303 0.939394 0.030303 0.030303
da. ||| ထ ||| 0.846154 0.0769231 0.0769231 0.846154 0.0769231 0.0769231
da. ||| ဒ ||| 0.987097 0.00645161 0.00645161 0.987097 0.00645161 0.00645161
da. ||| ဒါ ||| 0.6 0.2 0.2 0.6 0.2 0.2
da. ||| ဓ ||| 0.959184 0.0204082 0.0204082 0.959184 0.0204082 0.0204082
da: ||| တား ||| 0.913043 0.0434783 0.0434783 0.913043 0.0434783 0.0434783
da: ||| ထား ||| 0.913043 0.0434783 0.0434783 0.913043 0.0434783 0.0434783
da: ||| ဒါး ||| 0.818182 0.0909091 0.0909091 0.818182 0.0909091 0.0909091
da: ||| ဒား ||| 0.6 0.2 0.2 0.6 0.2 0.2
da: ||| ဓား ||| 0.939394 0.030303 0.030303 0.939394 0.030303 0.030303
dai' ||| တိုက် ||| 0.974026 0.012987 0.012987 0.974026 0.012987 0.012987
dai' ||| ထိုက် ||| 0.6 0.2 0.2 0.6 0.2 0.2
dai' ||| ဒိုက် ||| 0.6 0.2 0.2 0.6 0.2 0.2
dain ||| ဍိုင် ||| 0.714286 0.142857 0.142857 0.714286 0.142857 0.142857
dain ||| တိုင် ||| 0.983471 0.00826446 0.00826446 0.983471 0.00826446 0.00826446
dain ||| ထိုင် ||| 0.882353 0.0588235 0.0588235 0.882353 0.0588235 0.0588235
dain ||| ဒိုင် ||| 0.913043 0.0434783 0.0434783 0.913043 0.0434783 0.0434783
dain: ||| တိုင်း ||| 0.953488 0.0232558 0.0232558 0.953488 0.0232558 0.0232558
dain: ||| ဒိုင်း ||| 0.935484 0.0322581 0.0322581 0.935484 0.0322581 0.0322581
dan htou: ||| တံ ထိုး ||| 0.6 0.2 0.2 0.6 0.2 0.2
dan ||| ဌာန် ||| 0.818182 0.0909091 0.0909091 0.818182 0.0909091 0.0909091
dan ||| တန် ||| 0.931034 0.0344828 0.0344828 0.931034 0.0344828 0.0344828
dan ||| တန်း ||| 0.6 0.2 0.2 0.6 0.2 0.2
dan ||| တာန် ||| 0.714286 0.142857 0.142857 0.714286 0.142857 0.142857
dan ||| တံ ||| 0.971831 0.0140845 0.0140845 0.971831 0.0140845 0.0140845
dan ||| ထံ ||| 0.6 0.2 0.2 0.6 0.2 0.2
dan ||| ဒဏ် ||| 0.925926 0.037037 0.037037 0.925926 0.037037 0.037037
dan ||| ဒန် ||| 0.6 0.2 0.2 0.6 0.2 0.2
dan ||| ဒါန် ||| 0.818182 0.0909091 0.0909091 0.818182 0.0909091 0.0909091
dan ||| ဒံ ||| 0.6 0.2 0.2 0.6 0.2 0.2
dan ||| ဓာန် ||| 0.6 0.2 0.2 0.6 0.2 0.2
dan ||| ဓံ ||| 0.777778 0.111111 0.111111 0.777778 0.111111 0.111111
dan. ||| တန့် ||| 0.714286 0.142857 0.142857 0.714286 0.142857 0.142857
dan. ||| တံ့ ||| 0.777778 0.111111 0.111111 0.777778 0.111111 0.111111
dan: ||| တန်း ||| 0.982301 0.00884956 0.00884956 0.982301 0.00884956 0.00884956
dan: ||| တမ်း ||| 0.973333 0.0133333 0.0133333 0.973333 0.0133333 0.0133333
dan: ||| ထမ်း ||| 0.948718 0.025641 0.025641 0.948718 0.025641 0.025641
dan: ||| ဒန်း ||| 0.6 0.2 0.2 0.6 0.2 0.2
dan: ||| ဒါန်း ||| 0.777778 0.111111 0.111111 0.777778 0.111111 0.111111
dan: ||| ဓမ်း ||| 0.6 0.2 0.2 0.6 0.2 0.2
dau' dau' ||| ဒေါက် ဒေါက် ||| 0.6 0.2 0.2 0.6 0.2 0.2
dau' kha- ne: ||| ဒေါက် ခ နဲ ||| 0.6 0.2 0.2 0.6 0.2 0.2
dau' kha- ||| ဒေါက် ခ ||| 0.6 0.2 0.2 0.6 0.2 0.2
dau' ||| တောက် ||| 0.939394 0.030303 0.030303 0.939394 0.030303 0.030303
dau' ||| ထိုး ||| 0.6 0.2 0.2 0.6 0.2 0.2
dau' ||| ထောက် ||| 0.962264 0.0188679 0.0188679 0.962264 0.0188679 0.0188679
dau' ||| ဒေါက် ||| 0.925926 0.037037 0.037037 0.925926 0.037037 0.037037
daun ||| တောင့် ||| 0.714286 0.142857 0.142857 0.714286 0.142857 0.142857
daun ||| တောင် ||| 0.967213 0.0163934 0.0163934 0.967213 0.0163934 0.0163934
daun ||| တောင်း ||| 0.6 0.2 0.2 0.6 0.2 0.2
daun ||| ထောင် ||| 0.975309 0.0123457 0.0123457 0.975309 0.0123457 0.0123457
daun ||| ဒေါင် ||| 0.882353 0.0588235 0.0588235 0.882353 0.0588235 0.0588235
daun. ||| တောင့် ||| 0.894737 0.0526316 0.0526316 0.894737 0.0526316 0.0526316
daun. ||| ထောင့် ||| 0.894737 0.0526316 0.0526316 0.894737 0.0526316 0.0526316
daun. ||| ဒေါင့် ||| 0.818182 0.0909091 0.0909091 0.818182 0.0909091 0.0909091
daun: ||| တောင်း ||| 0.962264 0.0188679 0.0188679 0.962264 0.0188679 0.0188679
daun: ||| ထောင်း ||| 0.714286 0.142857 0.142857 0.714286 0.142857 0.142857
daun: ||| ဒေါင်း ||| 0.945946 0.027027 0.027027 0.945946 0.027027 0.027027
de ||| တည် ||| 0.714286 0.142857 0.142857 0.714286 0.142857 0.142857
de ||| တယ် ||| 0.6 0.2 0.2 0.6 0.2 0.2
de ||| ထည် ||| 0.953488 0.0232558 0.0232558 0.953488 0.0232558 0.0232558
de ||| ဒယ် ||| 0.846154 0.0769231 0.0769231 0.846154 0.0769231 0.0769231
de' khi. na. ||| ဒက် ခိ ဏ ||| 0.714286 0.142857 0.142857 0.714286 0.142857 0.142857
de' khi. ||| ဒက် ခိ ||| 0.714286 0.142857 0.142857 0.714286 0.142857 0.142857
de' ||| တက် ||| 0.959184 0.0204082 0.0204082 0.959184 0.0204082 0.0204082
de' ||| ထက် ||| 0.904762 0.047619 0.047619 0.904762 0.047619 0.047619
de' ||| ဒက် ||| 0.818182 0.0909091 0.0909091 0.818182 0.0909091 0.0909091
de' ||| ဒဂ် ||| 0.6 0.2 0.2 0.6 0.2 0.2
de. ||| တည့် ||| 0.714286 0.142857 0.142857 0.714286 0.142857 0.142857
de. ||| တဲ့ ||| 0.714286 0.142857 0.142857 0.714286 0.142857 0.142857
de: ||| တည်း ||| 0.925926 0.037037 0.037037 0.925926 0.037037 0.037037
de: ||| တဲ ||| 0.925926 0.037037 0.037037 0.925926 0.037037 0.037037
de: ||| ထဲ ||| 0.777778 0.111111 0.111111 0.777778 0.111111 0.111111
dei tha- na ||| ဒေ သ နာ ||| 0.6 0.2 0.2 0.6 0.2 0.2
dei tha- ||| ဒေ သ ||| 0.714286 0.142857 0.142857 0.714286 0.142857 0.142857
dei tha. ||| ဒေ သ ||| 0.904762 0.047619 0.047619 0.904762 0.047619 0.047619
dei wa. ||| ဒေ ဝ ||| 0.714286 0.142857 0.142857 0.714286 0.142857 0.142857
dei ||| ဋေ ||| 0.777778 0.111111 0.111111 0.777778 0.111111 0.111111
dei ||| တေ ||| 0.92 0.04 0.04 0.92 0.04 0.04
dei ||| ဒိဋ် ||| 0.6 0.2 0.2 0.6 0.2 0.2
dei ||| ဒေ ||| 0.977011 0.0114943 0.0114943 0.977011 0.0114943 0.0114943
dei ||| ဓေ ||| 0.904762 0.047619 0.047619 0.904762 0.047619 0.047619
dei' ||| ဋိစ် ||| 0.6 0.2 0.2 0.6 0.2 0.2
dei' ||| ဍိတ် ||| 0.6 0.2 0.2 0.6 0.2 0.2
dei' ||| တိတ် ||| 0.818182 0.0909091 0.0909091 0.818182 0.0909091 0.0909091
dei' ||| တိပ် ||| 0.714286 0.142857 0.142857 0.714286 0.142857 0.142857
dei' ||| ထိတ် ||| 0.6 0.2 0.2 0.6 0.2 0.2
dei' ||| ထိပ် ||| 0.6 0.2 0.2 0.6 0.2 0.2
dei' ||| ဒိ ||| 0.6 0.2 0.2 0.6 0.2 0.2
dei' ||| ဒိဋ် ||| 0.777778 0.111111 0.111111 0.777778 0.111111 0.111111
dei' ||| ဒိတ် ||| 0.6 0.2 0.2 0.6 0.2 0.2
dei' ||| ဒိပ် ||| 0.6 0.2 0.2 0.6 0.2 0.2
dei' ||| ဒိဗ် ||| 0.6 0.2 0.2 0.6 0.2 0.2
dei' ||| ဓိဋ် ||| 0.866667 0.0666667 0.0666667 0.866667 0.0666667 0.0666667
dei' ||| ဓိပ် ||| 0.777778 0.111111 0.111111 0.777778 0.111111 0.111111
dei' ||| နိဋ် ||| 0.6 0.2 0.2 0.6 0.2 0.2
dei: ||| တေး ||| 0.818182 0.0909091 0.0909091 0.818182 0.0909091 0.0909091
dei: ||| ဒေး ||| 0.6 0.2 0.2 0.6 0.2 0.2
dei: ||| ဓေး ||| 0.6 0.2 0.2 0.6 0.2 0.2
dein ||| ဋိ ||| 0.6 0.2 0.2 0.6 0.2 0.2
dein ||| တိမ် ||| 0.846154 0.0769231 0.0769231 0.846154 0.0769231 0.0769231
dein ||| တိံ ||| 0.714286 0.142857 0.142857 0.714286 0.142857 0.142857
dein ||| ထိန် ||| 0.6 0.2 0.2 0.6 0.2 0.2
dein ||| ထိမ် ||| 0.6 0.2 0.2 0.6 0.2 0.2
dein ||| ဒိန် ||| 0.714286 0.142857 0.142857 0.714286 0.142857 0.142857
dha ||| သ ||| 0.714286 0.142857 0.142857 0.714286 0.142857 0.142857
dha ||| သတ် ||| 0.714286 0.142857 0.142857 0.714286 0.142857 0.142857
dha ||| သာ ||| 0.986395 0.00680272 0.00680272 0.986395 0.00680272 0.00680272
dha' ||| သတ် ||| 0.894737 0.0526316 0.0526316 0.894737 0.0526316 0.0526316
dha' ||| သပ် ||| 0.6 0.2 0.2 0.6 0.2 0.2
dha- ba wa. ||| သ ဘာ ဝ ||| 0.913043 0.0434783 0.0434783 0.913043 0.0434783 0.0434783
dha- ba ||| သ ဘာ ||| 0.92 0.04 0.04 0.92 0.04 0.04
dha- ba ||| သမ် ဘာ ||| 0.777778 0.111111 0.111111 0.777778 0.111111 0.111111
dha- be' ||| သန် ဘက် ||| 0.6 0.2 0.2 0.6 0.2 0.2
dha- bjei ||| သ ပြေ ||| 0.818182 0.0909091 0.0909091 0.818182 0.0909091 0.0909091
dha- bo: ||| သ ဘော ||| 0.971014 0.0144928 0.0144928 0.971014 0.0144928 0.0144928
dha- boun ||| သူ ပုန် ||| 0.777778 0.111111 0.111111 0.777778 0.111111 0.111111
dha- da- ||| သတ် တ ||| 0.846154 0.0769231 0.0769231 0.846154 0.0769231 0.0769231
dha- dan ||| သဏ် ဌာန် ||| 0.818182 0.0909091 0.0909091 0.818182 0.0909091 0.0909091
dha- din: ||| သ တင်း ||| 0.953488 0.0232558 0.0232558 0.953488 0.0232558 0.0232558
dha- din: ||| သီ တင်း ||| 0.904762 0.047619 0.047619 0.904762 0.047619 0.047619
dha- ga- ji' ||| သ က ရာဇ် ||| 0.6 0.2 0.2 0.6 0.2 0.2
dha- ga- ji' ||| သက် က ရာဇ် ||| 0.714286 0.142857 0.142857 0.714286 0.142857 0.142857
dha- ga- ||| သ က ||| 0.6 0.2 0.2 0.6 0.2 0.2
dha- ga- ||| သက် က ||| 0.714286 0.142857 0.142857 0.714286 0.142857 0.142857
dha- gan ||| သ ကန် ||| 0.6 0.2 0.2 0.6 0.2 0.2
dha- gya: ||| သ ကြား ||| 0.882353 0.0588235 0.0588235 0.882353 0.0588235 0.0588235
dha- gya: ||| သိ ကြား ||| 0.714286 0.142857 0.142857 0.714286 0.142857 0.142857
dha- gyan ||| သင် ကြန် ||| 0.913043 0.0434783 0.0434783 0.913043 0.0434783 0.0434783
dha- ma: ||| သ မား ||| 0.959184 0.0204082 0.0204082 0.959184 0.0204082 0.0204082
dha- mi: ||| သ မီး ||| 0.904762 0.047619 0.047619 0.904762 0.047619 0.047619
dha- na ||| သ နာ ||| 0.913043 0.0434783 0.0434783 0.913043 0.0434783 0.0434783
dha- na. ||| သ နာ့ ||| 0.777778 0.111111 0.111111 0.777778 0.111111 0.111111
dha- zin ||| သ ဇင် ||| 0.714286 0.142857 0.142857 0.714286 0.142857 0.142857
dha- ||| သ ||| 0.99568 0.00215983 0.00215983 0.99568 0.00215983 0.00215983
dha- ||| သက် ||| 0.714286 0.142857 0.142857 0.714286 0.142857 0.142857
dha- ||| သင် ||| 0.913043 0.0434783 0.0434783 0.913043 0.0434783 0.0434783
dha- ||| သည် ||| 0.714286 0.142857 0.142857 0.714286 0.142857 0.142857
dha- ||| သဏ် ||| 0.818182 0.0909091 0.0909091 0.818182 0.0909091 0.0909091
dha- ||| သတ် ||| 0.846154 0.0769231 0.0769231 0.846154 0.0769231 0.0769231
dha- ||| သဒ် ||| 0.882353 0.0588235 0.0588235 0.882353 0.0588235 0.0588235
dha- ||| သန် ||| 0.894737 0.0526316 0.0526316 0.894737 0.0526316 0.0526316
dha- ||| သန်း ||| 0.894737 0.0526316 0.0526316 0.894737 0.0526316 0.0526316
dha- ||| သမ် ||| 0.777778 0.111111 0.111111 0.777778 0.111111 0.111111
dha- ||| သာ ||| 0.777778 0.111111 0.111111 0.777778 0.111111 0.111111
dha- ||| သား ||| 0.818182 0.0909091 0.0909091 0.818182 0.0909091 0.0909091
dha- ||| သိ ||| 0.714286 0.142857 0.142857 0.714286 0.142857 0.142857
dha- ||| သီ ||| 0.913043 0.0434783 0.0434783 0.913043 0.0434783 0.0434783
dha- ||| သူ ||| 0.904762 0.047619 0.047619 0.904762 0.047619 0.047619
dha- ||| သံ ||| 0.6 0.2 0.2 0.6 0.2 0.2
dha- ||| သွား ||| 0.6 0.2 0.2 0.6 0.2 0.2
dha- ||| ဿ ||| 0.6 0.2 0.2 0.6 0.2 0.2
dha. ||| သ ||| 0.939394 0.030303 0.030303 0.939394 0.030303 0.030303
dha: ||| သား ||| 0.99278 0.00361011 0.00361011 0.99278 0.00361011 0.00361011
dhain: ||| သိုင်း ||| 0.714286 0.142857 0.142857 0.714286 0.142857 0.142857
dhan pa ||| သံ ပါ ||| 0.714286 0.142857 0.142857 0.714286 0.142857 0.142857
dhan ||| သန် ||| 0.846154 0.0769231 0.0769231 0.846154 0.0769231 0.0769231
dhan ||| သံ ||| 0.972603 0.0136986 0.0136986 0.972603 0.0136986 0.0136986
dhau' ||| သောက် ||| 0.904762 0.047619 0.047619 0.904762 0.047619 0.047619
dhaun: ||| သောင်း ||| 0.777778 0.111111 0.111111 0.777778 0.111111 0.111111
dhe ||| သည် ||| 0.971014 0.0144928 0.0144928 0.971014 0.0144928 0.0144928
dhe ||| သယ် ||| 0.6 0.2 0.2 0.6 0.2 0.2
dhe: ||| သည်း ||| 0.714286 0.142857 0.142857 0.714286 0.142857 0.142857
dhe: ||| သဲ ||| 0.882353 0.0588235 0.0588235 0.882353 0.0588235 0.0588235
dhei ||| သိမ် ||| 0.6 0.2 0.2 0.6 0.2 0.2
dhei ||| သေ ||| 0.971831 0.0140845 0.0140845 0.971831 0.0140845 0.0140845
dhein ||| သိမ် ||| 0.866667 0.0666667 0.0666667 0.866667 0.0666667 0.0666667
dhi ga- ||| သီ က ||| 0.6 0.2 0.2 0.6 0.2 0.2
dhi ||| သည် ||| 0.904762 0.047619 0.047619 0.904762 0.047619 0.047619
dhi ||| သီ ||| 0.953488 0.0232558 0.0232558 0.953488 0.0232558 0.0232558
dhi. ||| သည့် ||| 0.777778 0.111111 0.111111 0.777778 0.111111 0.111111
dhi. ||| သိ ||| 0.904762 0.047619 0.047619 0.904762 0.047619 0.047619
dhi: ||| သီ ||| 0.6 0.2 0.2 0.6 0.2 0.2
dhi: ||| သီး ||| 0.977528 0.011236 0.011236 0.977528 0.011236 0.011236
dhin. ||| သင့် ||| 0.866667 0.0666667 0.0666667 0.866667 0.0666667 0.0666667
dhou. ||| သို့ ||| 0.960784 0.0196078 0.0196078 0.960784 0.0196078 0.0196078
dhoun ||| သုန် ||| 0.714286 0.142857 0.142857 0.714286 0.142857 0.142857
dhoun: ||| သုဉ်း ||| 0.714286 0.142857 0.142857 0.714286 0.142857 0.142857
dhoun: ||| သုန်း ||| 0.714286 0.142857 0.142857 0.714286 0.142857 0.142857
dhoun: ||| သုံး ||| 0.925926 0.037037 0.037037 0.925926 0.037037 0.037037
dhu ||| သူ ||| 0.973333 0.0133333 0.0133333 0.973333 0.0133333 0.0133333
dhwa: ||| သွား ||| 0.962264 0.0188679 0.0188679 0.962264 0.0188679 0.0188679
dhwin ||| သွင် ||| 0.714286 0.142857 0.142857 0.714286 0.142857 0.142857
di ba ||| တီ ပါ ||| 0.714286 0.142857 0.142857 0.714286 0.142857 0.142857
di ga. ||| ဒီ ဃ ||| 0.6 0.2 0.2 0.6 0.2 0.2
di jan ||| တီ ရံ ||| 0.6 0.2 0.2 0.6 0.2 0.2
di jan ||| ဒီ ယံ ||| 0.6 0.2 0.2 0.6 0.2 0.2
di ||| ဋိ ||| 0.6 0.2 0.2 0.6 0.2 0.2
di ||| ဋီ ||| 0.714286 0.142857 0.142857 0.714286 0.142857 0.142857
di ||| တည် ||| 0.846154 0.0769231 0.0769231 0.846154 0.0769231 0.0769231
di ||| တိ ||| 0.6 0.2 0.2 0.6 0.2 0.2
di ||| တီ ||| 0.963636 0.0181818 0.0181818 0.963636 0.0181818 0.0181818
di ||| ထိ ||| 0.6 0.2 0.2 0.6 0.2 0.2
di ||| ထီ ||| 0.6 0.2 0.2 0.6 0.2 0.2
di ||| ထီး ||| 0.6 0.2 0.2 0.6 0.2 0.2
di ||| ဒိ ||| 0.6 0.2 0.2 0.6 0.2 0.2
di ||| ဒီ ||| 0.971014 0.0144928 0.0144928 0.971014 0.0144928 0.0144928
di ||| ဓီ ||| 0.6 0.2 0.2 0.6 0.2 0.2
di. ||| ဋိ ||| 0.714286 0.142857 0.142857 0.714286 0.142857 0.142857
di. ||| ဍိ ||| 0.714286 0.142857 0.142857 0.714286 0.142857 0.142857
di. ||| ဎိ ||| 0.714286 0.142857 0.142857 0.714286 0.142857 0.142857
di. ||| တိ ||| 0.979381 0.0103093 0.0103093 0.979381 0.0103093 0.0103093
di. ||| ဒိ ||| 0.866667 0.0666667 0.0666667 0.866667 0.0666667 0.0666667
di. ||| ဓိ ||| 0.967213 0.0163934 0.0163934 0.967213 0.0163934 0.0163934
di: ||| တည်း ||| 0.913043 0.0434783 0.0434783 0.913043 0.0434783 0.0434783
di: ||| တီး ||| 0.953488 0.0232558 0.0232558 0.953488 0.0232558 0.0232558
di: ||| ထီး ||| 0.904762 0.047619 0.047619 0.904762 0.047619 0.047619
di: ||| ဒီး ||| 0.846154 0.0769231 0.0769231 0.846154 0.0769231 0.0769231
din ga. ||| တင် က ||| 0.714286 0.142857 0.142857 0.714286 0.142857 0.142857
din ||| တင် ||| 0.975309 0.0123457 0.0123457 0.975309 0.0123457 0.0123457
din ||| တင်း ||| 0.6 0.2 0.2 0.6 0.2 0.2
din ||| တဉ်း ||| 0.6 0.2 0.2 0.6 0.2 0.2
din ||| တွင် ||| 0.6 0.2 0.2 0.6 0.2 0.2
din ||| ထင် ||| 0.818182 0.0909091 0.0909091 0.818182 0.0909091 0.0909091
din ||| ဒင် ||| 0.777778 0.111111 0.111111 0.777778 0.111111 0.111111
din: ga: ||| တင်း ကား ||| 0.6 0.2 0.2 0.6 0.2 0.2
din: ga: ||| ဒင် ဂါး ||| 0.818182 0.0909091 0.0909091 0.818182 0.0909091 0.0909091
din: ||| တင်း ||| 0.977528 0.011236 0.011236 0.977528 0.011236 0.011236
din: ||| ဒင် ||| 0.818182 0.0909091 0.0909091 0.818182 0.0909091 0.0909091
din: ||| ဒင်း ||| 0.714286 0.142857 0.142857 0.714286 0.142857 0.142857
do hse' ||| တော် ဆက် ||| 0.6 0.2 0.2 0.6 0.2 0.2
do li ||| ဒေါ် လီ ||| 0.6 0.2 0.2 0.6 0.2 0.2
do sun. ||| တော် စွန့် ||| 0.6 0.2 0.2 0.6 0.2 0.2
do ||| တို ||| 0.6 0.2 0.2 0.6 0.2 0.2
do ||| တော် ||| 0.991968 0.00401606 0.00401606 0.991968 0.00401606 0.00401606
do ||| ဒေါ် ||| 0.882353 0.0588235 0.0588235 0.882353 0.0588235 0.0588235
do. ||| တော့ ||| 0.925926 0.037037 0.037037 0.925926 0.037037 0.037037
do. ||| ဒေါ့ ||| 0.6 0.2 0.2 0.6 0.2 0.2
do: ||| တိုး ||| 0.714286 0.142857 0.142857 0.714286 0.142857 0.142857
do: ||| တော ||| 0.894737 0.0526316 0.0526316 0.894737 0.0526316 0.0526316
do: ||| ဒေါ ||| 0.955556 0.0222222 0.0222222 0.955556 0.0222222 0.0222222
do: ||| ဓော ||| 0.777778 0.111111 0.111111 0.777778 0.111111 0.111111
dou ||| တို ||| 0.964912 0.0175439 0.0175439 0.964912 0.0175439 0.0175439
dou ||| ထို ||| 0.6 0.2 0.2 0.6 0.2 0.2
dou ||| ထုပ် ||| 0.6 0.2 0.2 0.6 0.2 0.2
dou ||| ဒို ||| 0.904762 0.047619 0.047619 0.904762 0.047619 0.047619
dou ||| ဓိုရ် ||| 0.714286 0.142857 0.142857 0.714286 0.142857 0.142857
dou ||| ရို ||| 0.714286 0.142857 0.142857 0.714286 0.142857 0.142857
dou' ||| ဋုက် ||| 0.6 0.2 0.2 0.6 0.2 0.2
dou' ||| ဍုက် ||| 0.6 0.2 0.2 0.6 0.2 0.2
dou' ||| တုတ် ||| 0.92 0.04 0.04 0.92 0.04 0.04
dou' ||| တုပ် ||| 0.818182 0.0909091 0.0909091 0.818182 0.0909091 0.0909091
dou' ||| ထုတ် ||| 0.714286 0.142857 0.142857 0.714286 0.142857 0.142857
dou' ||| ထုပ် ||| 0.953488 0.0232558 0.0232558 0.953488 0.0232558 0.0232558
dou' ||| ဒု ||| 0.6 0.2 0.2 0.6 0.2 0.2
dou' ||| ဒုက် ||| 0.95122 0.0243902 0.0243902 0.95122 0.0243902 0.0243902
dou' ||| ဒုဂ် ||| 0.6 0.2 0.2 0.6 0.2 0.2
dou' ||| ဒုတ် ||| 0.6 0.2 0.2 0.6 0.2 0.2
dou' ||| ဒုဗ် ||| 0.714286 0.142857 0.142857 0.714286 0.142857 0.142857
dou: ga- ne: ||| ဒိုး ခ နဲ ||| 0.6 0.2 0.2 0.6 0.2 0.2
dou: ga- ||| ဒိုး ခ ||| 0.6 0.2 0.2 0.6 0.2 0.2
dou: hpa- na' ||| ထိုး ဖိ နပ် ||| 0.6 0.2 0.2 0.6 0.2 0.2
dou: hpa- ||| ထိုး ဖိ ||| 0.6 0.2 0.2 0.6 0.2 0.2
dou: ||| တိုး ||| 0.974026 0.012987 0.012987 0.974026 0.012987 0.012987
dou: ||| ထိုး ||| 0.967213 0.0163934 0.0163934 0.967213 0.0163934 0.0163934
dou: ||| ဒိုး ||| 0.904762 0.047619 0.047619 0.904762 0.047619 0.047619
doun la- ba. ||| ဒုလ် လ ဘ ||| 0.6 0.2 0.2 0.6 0.2 0.2
doun la- ||| ဒုလ် လ ||| 0.6 0.2 0.2 0.6 0.2 0.2
doun ||| တုန် ||| 0.866667 0.0666667 0.0666667 0.866667 0.0666667 0.0666667
doun ||| တုံ ||| 0.6 0.2 0.2 0.6 0.2 0.2
doun ||| ဒုမ် ||| 0.714286 0.142857 0.142857 0.714286 0.142857 0.142857
doun ||| ဒုလ် ||| 0.6 0.2 0.2 0.6 0.2 0.2
doun ||| ဒုံ ||| 0.777778 0.111111 0.111111 0.777778 0.111111 0.111111
doun. ||| တုံ့ ||| 0.777778 0.111111 0.111111 0.777778 0.111111 0.111111
doun: za' ||| တုံး စပ် ||| 0.6 0.2 0.2 0.6 0.2 0.2
doun: ||| တုန်း ||| 0.866667 0.0666667 0.0666667 0.866667 0.0666667 0.0666667
doun: ||| တုံး ||| 0.968254 0.015873 0.015873 0.968254 0.015873 0.015873
doun: ||| ထုံး ||| 0.866667 0.0666667 0.0666667 0.866667 0.0666667 0.0666667
doun: ||| ဒုန်း ||| 0.6 0.2 0.2 0.6 0.2 0.2
doun: ||| ဒုံး ||| 0.882353 0.0588235 0.0588235 0.882353 0.0588235 0.0588235
du ||| တု ||| 0.6 0.2 0.2 0.6 0.2 0.2
du ||| တူ ||| 0.978495 0.0107527 0.0107527 0.978495 0.0107527 0.0107527
du ||| ထူ ||| 0.6 0.2 0.2 0.6 0.2 0.2
du ||| ဒု ||| 0.6 0.2 0.2 0.6 0.2 0.2
du ||| ဒူ ||| 0.882353 0.0588235 0.0588235 0.882353 0.0588235 0.0588235
du ||| ဓူ ||| 0.866667 0.0666667 0.0666667 0.866667 0.0666667 0.0666667
du. ti. ja. ||| ဒု တိ ယ ||| 0.6 0.2 0.2 0.6 0.2 0.2
du. ti. ||| ဒု တိ ||| 0.6 0.2 0.2 0.6 0.2 0.2
du. ||| ဍု ||| 0.6 0.2 0.2 0.6 0.2 0.2
du. ||| တု ||| 0.953488 0.0232558 0.0232558 0.953488 0.0232558 0.0232558
du. ||| ထု ||| 0.925926 0.037037 0.037037 0.925926 0.037037 0.037037
du. ||| ဒု ||| 0.866667 0.0666667 0.0666667 0.866667 0.0666667 0.0666667
du. ||| ဓု ||| 0.846154 0.0769231 0.0769231 0.846154 0.0769231 0.0769231
du: ||| တူး ||| 0.866667 0.0666667 0.0666667 0.866667 0.0666667 0.0666667
du: ||| ထူး ||| 0.95122 0.0243902 0.0243902 0.95122 0.0243902 0.0243902
du: ||| ဒူး ||| 0.962264 0.0188679 0.0188679 0.962264 0.0188679 0.0188679
dwa ||| ဒွါ ||| 0.714286 0.142857 0.142857 0.714286 0.142857 0.142857
dwe' ||| တွက် ||| 0.882353 0.0588235 0.0588235 0.882353 0.0588235 0.0588235
dwe' ||| ထွက် ||| 0.945946 0.027027 0.027027 0.945946 0.027027 0.027027
dwe: ||| တွဲ ||| 0.931034 0.0344828 0.0344828 0.931034 0.0344828 0.0344828
dwei: ||| တွေး ||| 0.777778 0.111111 0.111111 0.777778 0.111111 0.111111
dwei: ||| ထွေး ||| 0.913043 0.0434783 0.0434783 0.913043 0.0434783 0.0434783
dwei: ||| ဒွေး ||| 0.818182 0.0909091 0.0909091 0.818182 0.0909091 0.0909091
dwei: ||| သွေး ||| 0.6 0.2 0.2 0.6 0.2 0.2
dwin ||| တွင် ||| 0.777778 0.111111 0.111111 0.777778 0.111111 0.111111
dwin ||| တွင်း ||| 0.6 0.2 0.2 0.6 0.2 0.2
dwin: ||| တွင်း ||| 0.979798 0.010101 0.010101 0.979798 0.010101 0.010101
dwin: ||| ထွင်း ||| 0.777778 0.111111 0.111111 0.777778 0.111111 0.111111
e' kha- ja ||| အက် ခ ရာ ||| 0.92 0.04 0.04 0.92 0.04 0.04
e' kha- ||| အက် ခ ||| 0.92 0.04 0.04 0.92 0.04 0.04
e' kha- ||| အက် ခ ရာ ||| 0.6 0.2 0.2 0.6 0.2 0.2
e' ||| နက် ||| 0.6 0.2 0.2 0.6 0.2 0.2
e' ||| အက် ||| 0.955556 0.0222222 0.0222222 0.955556 0.0222222 0.0222222
e' ||| အဂ် ||| 0.846154 0.0769231 0.0769231 0.846154 0.0769231 0.0769231
e. ||| ဧည့် ||| 0.92 0.04 0.04 0.92 0.04 0.04
ei ||| အိမ် ||| 0.714286 0.142857 0.142857 0.714286 0.142857 0.142857
ei ||| အေ ||| 0.846154 0.0769231 0.0769231 0.846154 0.0769231 0.0769231
ei ||| ဧ ||| 0.95122 0.0243902 0.0243902 0.95122 0.0243902 0.0243902
ei' ja ||| အိပ် ရာ ||| 0.818182 0.0909091 0.0909091 0.818182 0.0909091 0.0909091
ei' ||| အိတ် ||| 0.963636 0.0181818 0.0181818 0.963636 0.0181818 0.0181818
ei' ||| အိပ် ||| 0.969231 0.0153846 0.0153846 0.969231 0.0153846 0.0153846
ei' ||| ဣစ် ||| 0.6 0.2 0.2 0.6 0.2 0.2
ei' ||| ဣတ် ||| 0.714286 0.142857 0.142857 0.714286 0.142857 0.142857
ei' ||| ဣဒ် ||| 0.6 0.2 0.2 0.6 0.2 0.2
ei' ||| ဧ ||| 0.6 0.2 0.2 0.6 0.2 0.2
ei: ||| အေး ||| 0.981308 0.00934579 0.00934579 0.981308 0.00934579 0.00934579
ei: ||| ဧ ||| 0.894737 0.0526316 0.0526316 0.894737 0.0526316 0.0526316
ein da- rei ||| ဣန် ဒြေ ||| 0.904762 0.047619 0.047619 0.904762 0.047619 0.047619
ein da- ||| ဣန် ဒ ||| 0.6 0.2 0.2 0.6 0.2 0.2
ein do ||| အိမ် တော် ||| 0.714286 0.142857 0.142857 0.714286 0.142857 0.142857
ein me' ||| အိပ် မက် ||| 0.777778 0.111111 0.111111 0.777778 0.111111 0.111111
ein ||| အိပ် ||| 0.777778 0.111111 0.111111 0.777778 0.111111 0.111111
ein ||| အိမ် ||| 0.991561 0.00421941 0.00421941 0.991561 0.00421941 0.00421941
ein ||| ဣန် ||| 0.92 0.04 0.04 0.92 0.04 0.04
ein. ||| အိမ့် ||| 0.6 0.2 0.2 0.6 0.2 0.2
ga cha. ||| ခါ ချ ||| 0.6 0.2 0.2 0.6 0.2 0.2
ga na: ||| ခံ အား ||| 0.6 0.2 0.2 0.6 0.2 0.2
ga ||| က ||| 0.777778 0.111111 0.111111 0.777778 0.111111 0.111111
ga ||| ကာ ||| 0.986395 0.00680272 0.00680272 0.986395 0.00680272 0.00680272
ga ||| ခါ ||| 0.931034 0.0344828 0.0344828 0.931034 0.0344828 0.0344828
ga ||| ခံ ||| 0.777778 0.111111 0.111111 0.777778 0.111111 0.111111
ga ||| ဂ ||| 0.714286 0.142857 0.142857 0.714286 0.142857 0.142857
ga ||| ဂါ ||| 0.982906 0.00854701 0.00854701 0.982906 0.00854701 0.00854701
ga ||| ဃာ ||| 0.882353 0.0588235 0.0588235 0.882353 0.0588235 0.0588235
ga ||| ငါ ||| 0.818182 0.0909091 0.0909091 0.818182 0.0909091 0.0909091
ga' ||| ကတ် ||| 0.882353 0.0588235 0.0588235 0.882353 0.0588235 0.0588235
ga' ||| ကပ် ||| 0.953488 0.0232558 0.0232558 0.953488 0.0232558 0.0232558
ga' ||| ခတ် ||| 0.818182 0.0909091 0.0909091 0.818182 0.0909091 0.0909091
ga' ||| ခပ် ||| 0.6 0.2 0.2 0.6 0.2 0.2
ga' ||| ဂတ် ||| 0.6 0.2 0.2 0.6 0.2 0.2
ga' ||| ဃာတ် ||| 0.6 0.2 0.2 0.6 0.2 0.2
ga' ||| ငတ် ||| 0.6 0.2 0.2 0.6 0.2 0.2
ga- ba' ||| က ပတ် ||| 0.6 0.2 0.2 0.6 0.2 0.2
ga- ba' ||| ခါး ပတ် ||| 0.6 0.2 0.2 0.6 0.2 0.2
ga- ba. ||| ကမ် ဘာ့ ||| 0.6 0.2 0.2 0.6 0.2 0.2
ga- bau' ||| က ပေါက် ||| 0.846154 0.0769231 0.0769231 0.846154 0.0769231 0.0769231
ga- bau' ||| ကား ပေါက် ||| 0.6 0.2 0.2 0.6 0.2 0.2
ga- bja ||| က ပျာ ||| 0.6 0.2 0.2 0.6 0.2 0.2
ga- bja ||| က ဗျာ ||| 0.818182 0.0909091 0.0909091 0.818182 0.0909091 0.0909091
ga- da ||| ကု ဋာ ||| 0.6 0.2 0.2 0.6 0.2 0.2
ga- da' ||| က တတ် ||| 0.6 0.2 0.2 0.6 0.2 0.2
ga- da' ||| က ဒတ် ||| 0.6 0.2 0.2 0.6 0.2 0.2
ga- da' ||| က ဓာတ် ||| 0.714286 0.142857 0.142857 0.714286 0.142857 0.142857
ga- dai' ||| က တိုက် ||| 0.6 0.2 0.2 0.6 0.2 0.2
ga- di ba ||| ကတ် တီ ပါ ||| 0.714286 0.142857 0.142857 0.714286 0.142857 0.142857
ga- di ||| က တိ ||| 0.6 0.2 0.2 0.6 0.2 0.2
ga- di ||| ကတ် တီ ||| 0.714286 0.142857 0.142857 0.714286 0.142857 0.142857
ga- di ||| ခ တီ ||| 0.6 0.2 0.2 0.6 0.2 0.2
ga- di ||| ဃ ဋီ ||| 0.6 0.2 0.2 0.6 0.2 0.2
ga- do. ||| က တော့ ||| 0.846154 0.0769231 0.0769231 0.846154 0.0769231 0.0769231
ga- do. ||| ကန် တော့ ||| 0.6 0.2 0.2 0.6 0.2 0.2
ga- dou' ||| က ဋုက် ||| 0.6 0.2 0.2 0.6 0.2 0.2
ga- doun: ||| က တုံး ||| 0.714286 0.142857 0.142857 0.714286 0.142857 0.142857
ga- du: ||| က တူး ||| 0.6 0.2 0.2 0.6 0.2 0.2
ga- dwin: ||| ခံ တွင်း ||| 0.866667 0.0666667 0.0666667 0.866667 0.0666667 0.0666667
ga- gywei: ||| ကံ ကျွေး ||| 0.6 0.2 0.2 0.6 0.2 0.2
ga- hei ||| ဂ ဟေ ||| 0.6 0.2 0.2 0.6 0.2 0.2
ga- hsan ||| က ဆန် ||| 0.6 0.2 0.2 0.6 0.2 0.2
ga- ja ||| က ယာ ||| 0.6 0.2 0.2 0.6 0.2 0.2
ga- ja ||| က ရာ ||| 0.714286 0.142857 0.142857 0.714286 0.142857 0.142857
ga- ji' ||| က ရာဇ် ||| 0.866667 0.0666667 0.0666667 0.866667 0.0666667 0.0666667
ga- la ||| က လာ ||| 0.6 0.2 0.2 0.6 0.2 0.2
ga- la ||| ဂ လာ ||| 0.931034 0.0344828 0.0344828 0.931034 0.0344828 0.0344828
ga- lan ga- hsan ||| က လန် က ဆန် ||| 0.6 0.2 0.2 0.6 0.2 0.2
ga- lan ga- ||| က လန် က ||| 0.6 0.2 0.2 0.6 0.2 0.2
ga- lan ||| က လန် ||| 0.6 0.2 0.2 0.6 0.2 0.2
ga- lau' ||| ခ လောက် ||| 0.6 0.2 0.2 0.6 0.2 0.2
ga- lei: ||| က လေး ||| 0.939394 0.030303 0.030303 0.939394 0.030303 0.030303
ga- li. ||| က လိ ||| 0.6 0.2 0.2 0.6 0.2 0.2
ga- li. ||| ဂ လိ ||| 0.6 0.2 0.2 0.6 0.2 0.2
ga- lou ||| က လို ||| 0.6 0.2 0.2 0.6 0.2 0.2
ga- moun: ||| ဂ မုန်း ||| 0.866667 0.0666667 0.0666667 0.866667 0.0666667 0.0666667
ga- nan: ||| က ဏန်း ||| 0.818182 0.0909091 0.0909091 0.818182 0.0909091 0.0909091
ga- nan: ||| က နန်း ||| 0.714286 0.142857 0.142857 0.714286 0.142857 0.142857
ga- nan: ||| ဂ ဏန်း ||| 0.904762 0.047619 0.047619 0.904762 0.047619 0.047619
ga- ne: ||| ခ နဲ ||| 0.942857 0.0285714 0.0285714 0.942857 0.0285714 0.0285714
ga- za: ||| က စား ||| 0.942857 0.0285714 0.0285714 0.942857 0.0285714 0.0285714
ga- zi. ba' ||| ခါး ဆီး ပတ် ||| 0.6 0.2 0.2 0.6 0.2 0.2
ga- zi. ||| ခါး ဆီး ||| 0.6 0.2 0.2 0.6 0.2 0.2
ga- ||| က ||| 0.995181 0.00240964 0.00240964 0.995181 0.00240964 0.00240964
ga- ||| ကတ် ||| 0.714286 0.142857 0.142857 0.714286 0.142857 0.142857
ga- ||| ကန့် ||| 0.818182 0.0909091 0.0909091 0.818182 0.0909091 0.0909091
ga- ||| ကန် ||| 0.894737 0.0526316 0.0526316 0.894737 0.0526316 0.0526316
ga- ||| ကန်း ||| 0.6 0.2 0.2 0.6 0.2 0.2
ga- ||| ကမ် ||| 0.948718 0.025641 0.025641 0.948718 0.025641 0.025641
ga- ||| ကမ်း ||| 0.714286 0.142857 0.142857 0.714286 0.142857 0.142857
ga- ||| ကာ ||| 0.6 0.2 0.2 0.6 0.2 0.2
ga- ||| ကား ||| 0.973333 0.0133333 0.0133333 0.973333 0.0133333 0.0133333
ga- ||| ကု ||| 0.846154 0.0769231 0.0769231 0.846154 0.0769231 0.0769231
ga- ||| ကူး ||| 0.846154 0.0769231 0.0769231 0.846154 0.0769231 0.0769231
ga- ||| ကံ ||| 0.714286 0.142857 0.142857 0.714286 0.142857 0.142857
ga- ||| ကြမ်း ||| 0.6 0.2 0.2 0.6 0.2 0.2
ga- ||| ခ ||| 0.955556 0.0222222 0.0222222 0.955556 0.0222222 0.0222222
ga- ||| ခါး ||| 0.95122 0.0243902 0.0243902 0.95122 0.0243902 0.0243902
ga- ||| ခု ||| 0.6 0.2 0.2 0.6 0.2 0.2
ga- ||| ခုံ ||| 0.714286 0.142857 0.142857 0.714286 0.142857 0.142857
ga- ||| ခံ ||| 0.904762 0.047619 0.047619 0.904762 0.047619 0.047619
ga- ||| ဂ ||| 0.990431 0.00478469 0.00478469 0.990431 0.00478469 0.00478469
ga- ||| ဂါ ||| 0.6 0.2 0.2 0.6 0.2 0.2
ga- ||| ဂါး ||| 0.846154 0.0769231 0.0769231 0.846154 0.0769231 0.0769231
ga- ||| ဃ ||| 0.777778 0.111111 0.111111 0.777778 0.111111 0.111111
ga. ||| က ||| 0.957447 0.0212766 0.0212766 0.957447 0.0212766 0.0212766
ga. ||| ကာ ||| 0.714286 0.142857 0.142857 0.714286 0.142857 0.142857
ga. ||| ခ ||| 0.913043 0.0434783 0.0434783 0.913043 0.0434783 0.0434783
ga. ||| ဂ ||| 0.968254 0.015873 0.015873 0.968254 0.015873 0.015873
ga. ||| ဃ ||| 0.866667 0.0666667 0.0666667 0.866667 0.0666667 0.0666667
ga: ||| ကား ||| 0.988439 0.00578035 0.00578035 0.988439 0.00578035 0.00578035
ga: ||| ခါး ||| 0.966102 0.0169492 0.0169492 0.966102 0.0169492 0.0169492
ga: ||| ဂါး ||| 0.866667 0.0666667 0.0666667 0.866667 0.0666667 0.0666667
gai' ||| ကိုက် ||| 0.866667 0.0666667 0.0666667 0.866667 0.0666667 0.0666667
gai' ||| ကိုဋ် ||| 0.6 0.2 0.2 0.6 0.2 0.2
gai' ||| ခိုက် ||| 0.6 0.2 0.2 0.6 0.2 0.2
gai' ||| ဂိုက် ||| 0.714286 0.142857 0.142857 0.714286 0.142857 0.142857
gain ||| ကိုင် ||| 0.95122 0.0243902 0.0243902 0.95122 0.0243902 0.0243902
gain ||| ခိုင် ||| 0.818182 0.0909091 0.0909091 0.818182 0.0909091 0.0909091
gain ||| ဂိုင် ||| 0.714286 0.142857 0.142857 0.714286 0.142857 0.142857
gain: ||| ကိုင် ||| 0.6 0.2 0.2 0.6 0.2 0.2
gain: ||| ကိုင်း ||| 0.92 0.04 0.04 0.92 0.04 0.04
gain: ||| ဂိုဏ်း ||| 0.894737 0.0526316 0.0526316 0.894737 0.0526316 0.0526316
gan da ||| ကန် တာ ||| 0.714286 0.142857 0.142857 0.714286 0.142857 0.142857
gan da ||| ဂန် ဓာ ||| 0.6 0.2 0.2 0.6 0.2 0.2
gan jei: ||| ငံ ရေး ||| 0.714286 0.142857 0.142857 0.714286 0.142857 0.142857
gan ||| ကဏ် ||| 0.6 0.2 0.2 0.6 0.2 0.2
gan ||| ကန် ||| 0.955556 0.0222222 0.0222222 0.955556 0.0222222 0.0222222
gan ||| ကံ ||| 0.866667 0.0666667 0.0666667 0.866667 0.0666667 0.0666667
gan ||| ခံ ||| 0.986928 0.00653595 0.00653595 0.986928 0.00653595 0.00653595
gan ||| ဂန် ||| 0.904762 0.047619 0.047619 0.904762 0.047619 0.047619
gan ||| ဂါမ် ||| 0.6 0.2 0.2 0.6 0.2 0.2
gan ||| ဂံ ||| 0.894737 0.0526316 0.0526316 0.894737 0.0526316 0.0526316
gan ||| ငန် ||| 0.6 0.2 0.2 0.6 0.2 0.2
gan ||| ငံ ||| 0.948718 0.025641 0.025641 0.948718 0.025641 0.025641
gan: pja' ||| ခန်း ပြတ် ||| 0.6 0.2 0.2 0.6 0.2 0.2
gan: ||| ကန်း ||| 0.963636 0.0181818 0.0181818 0.963636 0.0181818 0.0181818
gan: ||| ကမ်း ||| 0.777778 0.111111 0.111111 0.777778 0.111111 0.111111
gan: ||| ခန်း ||| 0.964912 0.0175439 0.0175439 0.964912 0.0175439 0.0175439
gan: ||| ခမ်း ||| 0.714286 0.142857 0.142857 0.714286 0.142857 0.142857
gan: ||| ဂန်း ||| 0.777778 0.111111 0.111111 0.777778 0.111111 0.111111
gan: ||| ငမ်း ||| 0.6 0.2 0.2 0.6 0.2 0.2
gau' ||| ကောက် ||| 0.960784 0.0196078 0.0196078 0.960784 0.0196078 0.0196078
gau' ||| ခေါက် ||| 0.777778 0.111111 0.111111 0.777778 0.111111 0.111111
gau' ||| ဂေါက် ||| 0.714286 0.142857 0.142857 0.714286 0.142857 0.142857
gaun gywe' ||| ကောင် ကြွက် ||| 0.6 0.2 0.2 0.6 0.2 0.2
gaun ||| ကောင် ||| 0.977528 0.011236 0.011236 0.977528 0.011236 0.011236
gaun ||| ခေါင် ||| 0.955556 0.0222222 0.0222222 0.955556 0.0222222 0.0222222
gaun. ||| ခေါင်း ||| 0.6 0.2 0.2 0.6 0.2 0.2
gaun: gyin: ||| ခေါင်း ချင်း ||| 0.714286 0.142857 0.142857 0.714286 0.142857 0.142857
gaun: ||| ကောင်း ||| 0.971014 0.0144928 0.0144928 0.971014 0.0144928 0.0144928
gaun: ||| ခေါင်း ||| 0.990521 0.00473934 0.00473934 0.990521 0.00473934 0.00473934
ge ||| ကယ် ||| 0.6 0.2 0.2 0.6 0.2 0.2
ge ||| ကျယ် ||| 0.6 0.2 0.2 0.6 0.2 0.2
ge ||| ငယ် ||| 0.714286 0.142857 0.142857 0.714286 0.142857 0.142857
ge: ||| ကဲ ||| 0.913043 0.0434783 0.0434783 0.913043 0.0434783 0.0434783
ge: ||| ခဲ ||| 0.971831 0.0140845 0.0140845 0.971831 0.0140845 0.0140845
ge: ||| ဂဲ ||| 0.6 0.2 0.2 0.6 0.2 0.2
gei' ||| ဂိဇ် ||| 0.6 0.2 0.2 0.6 0.2 0.2
gei' ||| ဂိတ် ||| 0.6 0.2 0.2 0.6 0.2 0.2
gein: ||| ကိန်း ||| 0.882353 0.0588235 0.0588235 0.882353 0.0588235 0.0588235
gi ||| ကီ ||| 0.818182 0.0909091 0.0909091 0.818182 0.0909091 0.0909091
gi ||| ဂိ ||| 0.6 0.2 0.2 0.6 0.2 0.2
gi ||| ဂီ ||| 0.942857 0.0285714 0.0285714 0.942857 0.0285714 0.0285714
gin: ||| ကင်း ||| 0.95122 0.0243902 0.0243902 0.95122 0.0243902 0.0243902
gin: ||| ခင်း ||| 0.959184 0.0204082 0.0204082 0.959184 0.0204082 0.0204082
gin: ||| ဂင် ||| 0.6 0.2 0.2 0.6 0.2 0.2
go ||| ကော် ||| 0.866667 0.0666667 0.0666667 0.866667 0.0666667 0.0666667
go ||| ခေါ် ||| 0.6 0.2 0.2 0.6 0.2 0.2
go ||| ဂေါ် ||| 0.913043 0.0434783 0.0434783 0.913043 0.0434783 0.0434783
go: ||| ကော ||| 0.939394 0.030303 0.030303 0.939394 0.030303 0.030303
go: ||| ဂေါ ||| 0.904762 0.047619 0.047619 0.904762 0.047619 0.047619
go: ||| ဂေါ့ ||| 0.6 0.2 0.2 0.6 0.2 0.2
go: ||| ဃော ||| 0.714286 0.142857 0.142857 0.714286 0.142857 0.142857
gou ||| ကို ||| 0.777778 0.111111 0.111111 0.777778 0.111111 0.111111
gou ||| ကိုယ် ||| 0.882353 0.0588235 0.0588235 0.882353 0.0588235 0.0588235
gou ||| ခို ||| 0.818182 0.0909091 0.0909091 0.818182 0.0909091 0.0909091
gou ||| ဂို ||| 0.777778 0.111111 0.111111 0.777778 0.111111 0.111111
gou ||| ဂိုရ် ||| 0.714286 0.142857 0.142857 0.714286 0.142857 0.142857
gou ||| ဂုန် ||| 0.6 0.2 0.2 0.6 0.2 0.2
gou' ||| ကုဋ် ||| 0.714286 0.142857 0.142857 0.714286 0.142857 0.142857
gou' ||| ကုတ် ||| 0.818182 0.0909091 0.0909091 0.818182 0.0909091 0.0909091
gou' ||| ကုပ် ||| 0.948718 0.025641 0.025641 0.948718 0.025641 0.025641
gou' ||| ကုဗ် ||| 0.6 0.2 0.2 0.6 0.2 0.2
gou' ||| ခုတ် ||| 0.714286 0.142857 0.142857 0.714286 0.142857 0.142857
gou' ||| ဂုတ် ||| 0.714286 0.142857 0.142857 0.714286 0.142857 0.142857
gou' ||| ငုပ် ||| 0.777778 0.111111 0.111111 0.777778 0.111111 0.111111
gou: ||| ကိုး ||| 0.882353 0.0588235 0.0588235 0.882353 0.0588235 0.0588235
gou: ||| ခိုး ||| 0.904762 0.047619 0.047619 0.904762 0.047619 0.047619
gou: ||| ခူး ||| 0.6 0.2 0.2 0.6 0.2 0.2
gou: ||| ဂိုး ||| 0.866667 0.0666667 0.0666667 0.866667 0.0666667 0.0666667
goun le' pan: kya. ||| ကုန် လက် ပန်း ကျ ||| 0.6 0.2 0.2 0.6 0.2 0.2
goun le' pan: ||| ကုန် လက် ပန်း ||| 0.6 0.2 0.2 0.6 0.2 0.2
goun le' ||| ကုန် လက် ||| 0.6 0.2 0.2 0.6 0.2 0.2
goun thein ||| ဂုဏ် သိမ် ||| 0.6 0.2 0.2 0.6 0.2 0.2
goun ||| ကို ||| 0.6 0.2 0.2 0.6 0.2 0.2
goun ||| ကုန် ||| 0.959184 0.0204082 0.0204082 0.959184 0.0204082 0.0204082
goun ||| ကုံ ||| 0.714286 0.142857 0.142857 0.714286 0.142857 0.142857
goun ||| ခုန် ||| 0.777778 0.111111 0.111111 0.777778 0.111111 0.111111
goun ||| ခုံ ||| 0.953488 0.0232558 0.0232558 0.953488 0.0232558 0.0232558
goun ||| ဂုဏ် ||| 0.969231 0.0153846 0.0153846 0.969231 0.0153846 0.0153846
goun ||| ဂုန် ||| 0.777778 0.111111 0.111111 0.777778 0.111111 0.111111
goun ||| ဂုံ ||| 0.894737 0.0526316 0.0526316 0.894737 0.0526316 0.0526316
goun ||| ငုံ ||| 0.6 0.2 0.2 0.6 0.2 0.2
goun: ||| ကုန်း ||| 0.92 0.04 0.04 0.92 0.04 0.04
goun: ||| ကုံး ||| 0.866667 0.0666667 0.0666667 0.866667 0.0666667 0.0666667
goun: ||| ခုံး ||| 0.846154 0.0769231 0.0769231 0.846154 0.0769231 0.0769231
goun: ||| ဂုံး ||| 0.777778 0.111111 0.111111 0.777778 0.111111 0.111111
goun: ||| ငုံး ||| 0.6 0.2 0.2 0.6 0.2 0.2
gu. ni ||| ဂု နီ ||| 0.6 0.2 0.2 0.6 0.2 0.2
gu. ||| ကု ||| 0.714286 0.142857 0.142857 0.714286 0.142857 0.142857
gu. ||| ခု ||| 0.894737 0.0526316 0.0526316 0.894737 0.0526316 0.0526316
gu. ||| ဂု ||| 0.846154 0.0769231 0.0769231 0.846154 0.0769231 0.0769231
gun ||| ခွန် ||| 0.95122 0.0243902 0.0243902 0.95122 0.0243902 0.0243902
gun ||| ခွံ ||| 0.913043 0.0434783 0.0434783 0.913043 0.0434783 0.0434783
gun ||| ဂွန် ||| 0.6 0.2 0.2 0.6 0.2 0.2
gun: ||| ကွန်း ||| 0.866667 0.0666667 0.0666667 0.866667 0.0666667 0.0666667
gun: ||| ခွန်း ||| 0.846154 0.0769231 0.0769231 0.846154 0.0769231 0.0769231
gun: ||| ဂွမ်း ||| 0.777778 0.111111 0.111111 0.777778 0.111111 0.111111
gwe' ||| ကွက် ||| 0.960784 0.0196078 0.0196078 0.960784 0.0196078 0.0196078
gwe' ||| ခွက် ||| 0.955556 0.0222222 0.0222222 0.955556 0.0222222 0.0222222
gwe: ||| ကွဲ ||| 0.962264 0.0188679 0.0188679 0.962264 0.0188679 0.0188679
gwe: ||| ခွဲ ||| 0.92 0.04 0.04 0.92 0.04 0.04
gwei: ||| ကွေး ||| 0.714286 0.142857 0.142857 0.714286 0.142857 0.142857
gwei: ||| ခွေး ||| 0.846154 0.0769231 0.0769231 0.846154 0.0769231 0.0769231
gwei: ||| ဝှေး ||| 0.714286 0.142857 0.142857 0.714286 0.142857 0.142857
gwin jai' ||| ခွင် ရိုက် ||| 0.6 0.2 0.2 0.6 0.2 0.2
gwin ||| ခွင့် ||| 0.6 0.2 0.2 0.6 0.2 0.2
gwin ||| ခွင် ||| 0.957447 0.0212766 0.0212766 0.957447 0.0212766 0.0212766
gwin ||| ဂွင် ||| 0.6 0.2 0.2 0.6 0.2 0.2
gwin. ||| ခွင့် ||| 0.913043 0.0434783 0.0434783 0.913043 0.0434783 0.0434783
gwin: ||| ကွင်း ||| 0.977011 0.0114943 0.0114943 0.977011 0.0114943 0.0114943
gya le ||| ချာ လည် ||| 0.714286 0.142857 0.142857 0.714286 0.142857 0.142857
gya ||| ကျ ||| 0.6 0.2 0.2 0.6 0.2 0.2
gya ||| ကျာ ||| 0.6 0.2 0.2 0.6 0.2 0.2
gya ||| ကြာ ||| 0.777778 0.111111 0.111111 0.777778 0.111111 0.111111
gya ||| ချာ ||| 0.935484 0.0322581 0.0322581 0.935484 0.0322581 0.0322581
gya ||| ဂျာ ||| 0.866667 0.0666667 0.0666667 0.866667 0.0666667 0.0666667
gya' ||| ကျပ် ||| 0.882353 0.0588235 0.0588235 0.882353 0.0588235 0.0588235
gya' ||| ကြတ် ||| 0.6 0.2 0.2 0.6 0.2 0.2
gya' ||| ကြပ် ||| 0.818182 0.0909091 0.0909091 0.818182 0.0909091 0.0909091
gya' ||| ချပ် ||| 0.942857 0.0285714 0.0285714 0.942857 0.0285714 0.0285714
gya' ||| ဂျပ် ||| 0.777778 0.111111 0.111111 0.777778 0.111111 0.111111
gya- bwei. ||| ကျည် ပွေ့ ||| 0.777778 0.111111 0.111111 0.777778 0.111111 0.111111
gya- ||| ကျည် ||| 0.777778 0.111111 0.111111 0.777778 0.111111 0.111111
gya- ||| ကျား ||| 0.6 0.2 0.2 0.6 0.2 0.2
gya- ||| ကြမ်း ||| 0.777778 0.111111 0.111111 0.777778 0.111111 0.111111
gya- ||| ကြံ ||| 0.6 0.2 0.2 0.6 0.2 0.2
gya- ||| ဂျ ||| 0.714286 0.142857 0.142857 0.714286 0.142857 0.142857
gya. ||| ကျ ||| 0.980198 0.00990099 0.00990099 0.980198 0.00990099 0.00990099
gya. ||| ကြ ||| 0.818182 0.0909091 0.0909091 0.818182 0.0909091 0.0909091
gya. ||| ကြား ||| 0.6 0.2 0.2 0.6 0.2 0.2
gya. ||| ချ ||| 0.714286 0.142857 0.142857 0.714286 0.142857 0.142857
gya: bau' ||| ကြား ပေါက် ||| 0.777778 0.111111 0.111111 0.777778 0.111111 0.111111
gya: ||| ကျား ||| 0.925926 0.037037 0.037037 0.925926 0.037037 0.037037
gya: ||| ကြား ||| 0.978947 0.0105263 0.0105263 0.978947 0.0105263 0.0105263
gya: ||| ချား ||| 0.6 0.2 0.2 0.6 0.2 0.2
gya: ||| ခြား ||| 0.95122 0.0243902 0.0243902 0.95122 0.0243902 0.0243902
gyai' ||| ကြိုက် ||| 0.714286 0.142857 0.142857 0.714286 0.142857 0.142857
gyai' ||| ခြိုက် ||| 0.6 0.2 0.2 0.6 0.2 0.2
gyai' ||| ဂျိုက် ||| 0.6 0.2 0.2 0.6 0.2 0.2
gyain. ||| ချိုင့် ||| 0.913043 0.0434783 0.0434783 0.913043 0.0434783 0.0434783
gyan a- mjau' ||| ကြန် အ မြောက် ||| 0.6 0.2 0.2 0.6 0.2 0.2
gyan a- ||| ကြန် အ ||| 0.6 0.2 0.2 0.6 0.2 0.2
gyan te' ||| ကြန် တက် ||| 0.6 0.2 0.2 0.6 0.2 0.2
gyan ||| ကျန် ||| 0.714286 0.142857 0.142857 0.714286 0.142857 0.142857
gyan ||| ကျံ ||| 0.6 0.2 0.2 0.6 0.2 0.2
gyan ||| ကြန် ||| 0.95122 0.0243902 0.0243902 0.95122 0.0243902 0.0243902
gyan ||| ကြံ ||| 0.894737 0.0526316 0.0526316 0.894737 0.0526316 0.0526316
gyan ||| ခြံ ||| 0.818182 0.0909091 0.0909091 0.818182 0.0909091 0.0909091
gyan: ||| ကျန်း ||| 0.714286 0.142857 0.142857 0.714286 0.142857 0.142857
gyan: ||| ကျမ်း ||| 0.6 0.2 0.2 0.6 0.2 0.2
gyan: ||| ကြမ်း ||| 0.962264 0.0188679 0.0188679 0.962264 0.0188679 0.0188679
gyan: ||| ကြံ ||| 0.6 0.2 0.2 0.6 0.2 0.2
gyan: ||| ချမ်း ||| 0.894737 0.0526316 0.0526316 0.894737 0.0526316 0.0526316
gyan: ||| ခြမ်း ||| 0.904762 0.047619 0.047619 0.904762 0.047619 0.047619
gyau' ||| ကျောက် ||| 0.777778 0.111111 0.111111 0.777778 0.111111 0.111111
gyau' ||| ကြောက် ||| 0.6 0.2 0.2 0.6 0.2 0.2
gyau' ||| ချောက် ||| 0.846154 0.0769231 0.0769231 0.846154 0.0769231 0.0769231
gyau' ||| ခြောက် ||| 0.955556 0.0222222 0.0222222 0.955556 0.0222222 0.0222222
gyau' ||| ဂျောက် ||| 0.6 0.2 0.2 0.6 0.2 0.2
gyaun tai' ||| ကြောင် တိုက် ||| 0.6 0.2 0.2 0.6 0.2 0.2
gyaun ||| ကြောင် ||| 0.948718 0.025641 0.025641 0.948718 0.025641 0.025641
gyaun ||| ချောင် ||| 0.904762 0.047619 0.047619 0.904762 0.047619 0.047619
gyaun: ||| ကျောင်း ||| 0.95122 0.0243902 0.0243902 0.95122 0.0243902 0.0243902
gyaun: ||| ကြောင်း ||| 0.969231 0.0153846 0.0153846 0.969231 0.0153846 0.0153846
gyaun: ||| ချောင်း ||| 0.904762 0.047619 0.047619 0.904762 0.047619 0.047619
gyaun: ||| ခြောင်း ||| 0.6 0.2 0.2 0.6 0.2 0.2
gye ||| ကျယ် ||| 0.931034 0.0344828 0.0344828 0.931034 0.0344828 0.0344828
gye ||| ကြယ် ||| 0.714286 0.142857 0.142857 0.714286 0.142857 0.142857
gye' ||| ကျက် ||| 0.866667 0.0666667 0.0666667 0.866667 0.0666667 0.0666667
gye' ||| ကြက် ||| 0.846154 0.0769231 0.0769231 0.846154 0.0769231 0.0769231
