... ||| ... ||| 0.866667 0.0666667 0.0666667 0.866667 0.0666667 0.0666667
... ငြား ||| ... nja: ||| 0.6 0.2 0.2 0.6 0.2 0.2
... စဉ် ||| ... zin ||| 0.6 0.2 0.2 0.6 0.2 0.2
... ဖြစ် ||| ... hpji&apos; ||| 0.714286 0.142857 0.142857 0.714286 0.142857 0.142857
... ဖြစ် စေ ... ||| ... hpji&apos; sei ... ||| 0.6 0.2 0.2 0.6 0.2 0.2
... ဖြစ် စေ ... ဖြစ် ||| ... hpji&apos; sei ... hpji&apos; ||| 0.6 0.2 0.2 0.6 0.2 0.2
... ဖြစ် စေ ||| ... hpji&apos; sei ||| 0.714286 0.142857 0.142857 0.714286 0.142857 0.142857
... ရိုး ... ||| ... jou: ... ||| 0.6 0.2 0.2 0.6 0.2 0.2
... ရိုး ... စဉ် ||| ... jou: ... zin ||| 0.6 0.2 0.2 0.6 0.2 0.2
... ရိုး ||| ... jou: ||| 0.6 0.2 0.2 0.6 0.2 0.2
... လို ... ||| ... lou ... ||| 0.6 0.2 0.2 0.6 0.2 0.2
... လို ... ငြား ||| ... lou ... nja: ||| 0.6 0.2 0.2 0.6 0.2 0.2
... လို ||| ... lou ||| 0.6 0.2 0.2 0.6 0.2 0.2
က ||| ga ||| 0.777778 0.111111 0.111111 0.777778 0.111111 0.111111
က ||| ga- ||| 0.995181 0.00240964 0.00240964 0.995181 0.00240964 0.00240964
က ||| ga. ||| 0.957447 0.0212766 0.0212766 0.957447 0.0212766 0.0212766
က ||| ka ||| 0.882353 0.0588235 0.0588235 0.882353 0.0588235 0.0588235
က ||| ka&apos; ||| 0.714286 0.142857 0.142857 0.714286 0.142857 0.142857
က ||| ka- ||| 0.995338 0.002331 0.002331 0.995338 0.002331 0.002331
က ||| ka. ||| 0.991031 0.0044843 0.0044843 0.991031 0.0044843 0.0044843
က ||| kau&apos; ||| 0.6 0.2 0.2 0.6 0.2 0.2
က ||| kha- ||| 0.894737 0.0526316 0.0526316 0.894737 0.0526316 0.0526316
က က ||| ka. ga- ||| 0.714286 0.142857 0.142857 0.714286 0.142857 0.142857
က က တစ် ||| ka. ga- di&apos; ||| 0.6 0.2 0.2 0.6 0.2 0.2
က က တိုး ||| ka. ga- dou: ||| 0.6 0.2 0.2 0.6 0.2 0.2
က ကု ||| ka. ku. ||| 0.6 0.2 0.2 0.6 0.2 0.2
က ကု ||| kau&apos; ka- ||| 0.6 0.2 0.2 0.6 0.2 0.2
က ကု သန် ||| ka. ku. than ||| 0.6 0.2 0.2 0.6 0.2 0.2
က ကု သန် ||| kau&apos; ka- than ||| 0.6 0.2 0.2 0.6 0.2 0.2
က ကူ ||| ka. ku ||| 0.6 0.2 0.2 0.6 0.2 0.2
က ကူ ရံ ||| ka. ku jan ||| 0.6 0.2 0.2 0.6 0.2 0.2
က ကံ ||| ka. kan ||| 0.6 0.2 0.2 0.6 0.2 0.2
က ကြိုး ||| ka. gyou: ||| 0.6 0.2 0.2 0.6 0.2 0.2
က ကြီ ||| ga- gyi ||| 0.6 0.2 0.2 0.6 0.2 0.2
က ကြီ က ||| ga- gyi ga- ||| 0.6 0.2 0.2 0.6 0.2 0.2
က ကြီ က ကြောင် ||| ga- gyi ga- gyaun ||| 0.6 0.2 0.2 0.6 0.2 0.2
က ကြီ က ကြောင် လုပ် ||| ga- gyi ga- gyaun lou&apos; ||| 0.6 0.2 0.2 0.6 0.2 0.2
က ကြီး ||| ka. gyi: ||| 0.777778 0.111111 0.111111 0.777778 0.111111 0.111111
က ကြီး ထွန် ||| ka. gyi: htun ||| 0.6 0.2 0.2 0.6 0.2 0.2
က ကြောင် ||| ga- gyaun ||| 0.6 0.2 0.2 0.6 0.2 0.2
က ကြောင် လုပ် ||| ga- gyaun lou&apos; ||| 0.6 0.2 0.2 0.6 0.2 0.2
က ကွက် ||| ka. gwe&apos; ||| 0.6 0.2 0.2 0.6 0.2 0.2
က ချ ||| ka- cha- ||| 0.6 0.2 0.2 0.6 0.2 0.2
က ချ လာ ||| ka- cha- la- ||| 0.6 0.2 0.2 0.6 0.2 0.2
က ချင် ||| ka- chin ||| 0.6 0.2 0.2 0.6 0.2 0.2
က ချေ ||| ga- chei ||| 0.6 0.2 0.2 0.6 0.2 0.2
က ချေ ||| ka. gyei ||| 0.6 0.2 0.2 0.6 0.2 0.2
က ချေ သည် ||| ka. gyei dhe ||| 0.6 0.2 0.2 0.6 0.2 0.2
က ချော် ||| ga- cho ||| 0.6 0.2 0.2 0.6 0.2 0.2
က ချော် ||| ka- cho ||| 0.6 0.2 0.2 0.6 0.2 0.2
က ချော် က ||| ka- cho ka- ||| 0.6 0.2 0.2 0.6 0.2 0.2
က ချော် က ချွတ် ||| ka- cho ka- chu&apos; ||| 0.6 0.2 0.2 0.6 0.2 0.2
က ချွတ် ||| ka- chu&apos; ||| 0.6 0.2 0.2 0.6 0.2 0.2
က ဂုဏ် ||| ka. goun ||| 0.6 0.2 0.2 0.6 0.2 0.2
က ဂံ ||| ka- gan ||| 0.6 0.2 0.2 0.6 0.2 0.2
က င ||| ka. nga- ||| 0.6 0.2 0.2 0.6 0.2 0.2
က င ရဲ ||| ka. nga- je: ||| 0.6 0.2 0.2 0.6 0.2 0.2
က စက် ||| ga- se&apos; ||| 0.6 0.2 0.2 0.6 0.2 0.2
က စင်း ||| ga- zin: ||| 0.6 0.2 0.2 0.6 0.2 0.2
က စဉ့် ||| ga- zin. ||| 0.714286 0.142857 0.142857 0.714286 0.142857 0.142857
က စဉ့် က ||| ga- zin. ga ||| 0.6 0.2 0.2 0.6 0.2 0.2
က စဉ့် က ||| ga- zin. ga- ||| 0.6 0.2 0.2 0.6 0.2 0.2
က စဉ့် က ရဲ ||| ga- zin. ga je: ||| 0.6 0.2 0.2 0.6 0.2 0.2
က စဉ့် က လျား ||| ga- zin. ga- ja: ||| 0.6 0.2 0.2 0.6 0.2 0.2
က စာ ||| ka- za ||| 0.6 0.2 0.2 0.6 0.2 0.2
က စာ ကျင့် ||| ka- za kyin. ||| 0.6 0.2 0.2 0.6 0.2 0.2
က စား ||| ga- za: ||| 0.942857 0.0285714 0.0285714 0.942857 0.0285714 0.0285714
က စား ကွက် ||| ga- za: gwe&apos; ||| 0.6 0.2 0.2 0.6 0.2 0.2
က စား ကွင်း ||| ga- za: gwin: ||| 0.6 0.2 0.2 0.6 0.2 0.2
က စား ဒိုင် ||| ga- za: dain ||| 0.6 0.2 0.2 0.6 0.2 0.2
က စား နည်း ||| ga- za: ni: ||| 0.6 0.2 0.2 0.6 0.2 0.2
က စား ပွဲ ||| ga- za: bwe: ||| 0.6 0.2 0.2 0.6 0.2 0.2
က စား သ ||| ga- za: dha- ||| 0.6 0.2 0.2 0.6 0.2 0.2
က စား သ မား ||| ga- za: dha- ma: ||| 0.6 0.2 0.2 0.6 0.2 0.2
က စိန်း ||| ga- zein: ||| 0.6 0.2 0.2 0.6 0.2 0.2
က စိန်း က ||| ga- zein: ga- ||| 0.6 0.2 0.2 0.6 0.2 0.2
က စိန်း က ဝါး ||| ga- zein: ga- wa: ||| 0.6 0.2 0.2 0.6 0.2 0.2
က စို ||| ga- zou ||| 0.6 0.2 0.2 0.6 0.2 0.2
က စို က ||| ga- zou ga- ||| 0.6 0.2 0.2 0.6 0.2 0.2
က စို က ရွား ||| ga- zou ga- jwa: ||| 0.6 0.2 0.2 0.6 0.2 0.2
က စီ ||| ga- zi ||| 0.714286 0.142857 0.142857 0.714286 0.142857 0.142857
က စီ ||| ka- si ||| 0.6 0.2 0.2 0.6 0.2 0.2
က စီ ဓာတ် ||| ga- zi da&apos; ||| 0.6 0.2 0.2 0.6 0.2 0.2
က စု ||| ga- zu. ||| 0.6 0.2 0.2 0.6 0.2 0.2
က စော့ ||| ga- zo. ||| 0.714286 0.142857 0.142857 0.714286 0.142857 0.142857
က စော့ ခါး ||| ga- zo. ga: ||| 0.6 0.2 0.2 0.6 0.2 0.2
က စော် ||| ga- zo ||| 0.6 0.2 0.2 0.6 0.2 0.2
က စွပ် ||| ga- zu&apos; ||| 0.6 0.2 0.2 0.6 0.2 0.2
က ဆန် ||| ga- hsan ||| 0.6 0.2 0.2 0.6 0.2 0.2
က ဆုန် ||| ka- hsoun ||| 0.714286 0.142857 0.142857 0.714286 0.142857 0.142857
က ဆုန် ပေါက် ||| ka- hsoun pau&apos; ||| 0.6 0.2 0.2 0.6 0.2 0.2
က ဇာ ||| ga- za ||| 0.6 0.2 0.2 0.6 0.2 0.2
က ဇာ တင် ||| ga- za tin ||| 0.6 0.2 0.2 0.6 0.2 0.2
က ဇာတ် ||| ka. za&apos; ||| 0.6 0.2 0.2 0.6 0.2 0.2
က ဇာတ် ခုံ ||| ka. za&apos; khoun ||| 0.6 0.2 0.2 0.6 0.2 0.2
က ည ||| ka- nja. ||| 0.6 0.2 0.2 0.6 0.2 0.2
က ညင် ||| ka- njin ||| 0.714286 0.142857 0.142857 0.714286 0.142857 0.142857
က ညင် ဆီ ||| ka- njin zi ||| 0.6 0.2 0.2 0.6 0.2 0.2
က ညစ် ||| ka- nji&apos; ||| 0.6 0.2 0.2 0.6 0.2 0.2
က ညာ ||| ka- nja ||| 0.777778 0.111111 0.111111 0.777778 0.111111 0.111111
က ညာ စစ် ||| ka- nja si&apos; ||| 0.6 0.2 0.2 0.6 0.2 0.2
က ညာ မြှေး ||| ka- nja mhjei: ||| 0.6 0.2 0.2 0.6 0.2 0.2
က ညို့ ||| ka- njou. ||| 0.6 0.2 0.2 0.6 0.2 0.2
က ဋုက် ||| ga- dou&apos; ||| 0.6 0.2 0.2 0.6 0.2 0.2
က ဏန်း ||| ga- nan: ||| 0.818182 0.0909091 0.0909091 0.818182 0.0909091 0.0909091
က ဏန်း မြင်း ||| ga- nan: mjin: ||| 0.6 0.2 0.2 0.6 0.2 0.2
က ဏန်း လက် ||| ga- nan: le&apos; ||| 0.6 0.2 0.2 0.6 0.2 0.2
က ဏန်း လက် မ ||| ga- nan: le&apos; ma. ||| 0.6 0.2 0.2 0.6 0.2 0.2
က တ ||| ka- ta. ||| 0.6 0.2 0.2 0.6 0.2 0.2
က တ ||| ka- tin ||| 0.6 0.2 0.2 0.6 0.2 0.2
က တ ညု ||| ka- tin nju. ||| 0.6 0.2 0.2 0.6 0.2 0.2
က တ ညု တ ||| ka- tin nju. ta. ||| 0.6 0.2 0.2 0.6 0.2 0.2
က တက် ||| ga- de&apos; ||| 0.714286 0.142857 0.142857 0.714286 0.142857 0.142857
က တက် ဖြစ် ||| ga- de&apos; hpji&apos; ||| 0.6 0.2 0.2 0.6 0.2 0.2
က တင် ||| ka- tin ||| 0.6 0.2 0.2 0.6 0.2 0.2
က တင် ||| ka. tin ||| 0.6 0.2 0.2 0.6 0.2 0.2
က တစ် ||| ga- di&apos; ||| 0.6 0.2 0.2 0.6 0.2 0.2
က တည်း ||| ga- de: ||| 0.6 0.2 0.2 0.6 0.2 0.2
က တည်း ||| ga- di: ||| 0.6 0.2 0.2 0.6 0.2 0.2
က တည်း က ||| ga- de: ga. ||| 0.6 0.2 0.2 0.6 0.2 0.2
က တတ် ||| ga- da&apos; ||| 0.6 0.2 0.2 0.6 0.2 0.2
က တတ် ဆန်း ||| ga- da&apos; hsan: ||| 0.6 0.2 0.2 0.6 0.2 0.2
က တန်း ||| ga- dan: ||| 0.6 0.2 0.2 0.6 0.2 0.2
က တမ်း ||| ga- dan: ||| 0.714286 0.142857 0.142857 0.714286 0.142857 0.142857
က တမ်း က ||| ga- dan: ga- ||| 0.6 0.2 0.2 0.6 0.2 0.2
က တမ်း က ရမ်း ||| ga- dan: ga- jan: ||| 0.6 0.2 0.2 0.6 0.2 0.2
က တိ ||| ga- di ||| 0.6 0.2 0.2 0.6 0.2 0.2
က တိ ||| ga- di. ||| 0.939394 0.030303 0.030303 0.939394 0.030303 0.030303
က တိ ||| ga- ti. ||| 0.6 0.2 0.2 0.6 0.2 0.2
က တိ က ||| ga- di. ka- ||| 0.6 0.2 0.2 0.6 0.2 0.2
က တိ က ဝတ် ||| ga- di. ka- wu&apos; ||| 0.6 0.2 0.2 0.6 0.2 0.2
က တိ ကံ ||| ga- di. kan ||| 0.6 0.2 0.2 0.6 0.2 0.2
က တိ ကံ ||| ga- ti. kan ||| 0.6 0.2 0.2 0.6 0.2 0.2
က တိ ခံ ||| ga- di. khan ||| 0.6 0.2 0.2 0.6 0.2 0.2
က တိ ခံ ဝန် ||| ga- di. khan wun ||| 0.6 0.2 0.2 0.6 0.2 0.2
က တိ ခံ ဝန် ချုပ် ||| ga- di. khan wun gyou&apos; ||| 0.6 0.2 0.2 0.6 0.2 0.2
က တိ စာ ||| ga- di. sa ||| 0.6 0.2 0.2 0.6 0.2 0.2
က တိ စာ ချုပ် ||| ga- di. sa gyou&apos; ||| 0.6 0.2 0.2 0.6 0.2 0.2
က တိ ထား ||| ga- di. hta: ||| 0.6 0.2 0.2 0.6 0.2 0.2
က တိ ပေး ||| ga- di. pei: ||| 0.6 0.2 0.2 0.6 0.2 0.2
က တိ ပျက် ||| ga- di. pje&apos; ||| 0.6 0.2 0.2 0.6 0.2 0.2
က တိ ပြု ||| ga- di pju. ||| 0.6 0.2 0.2 0.6 0.2 0.2
က တိ ဖျက် ||| ga- di. hpje&apos; ||| 0.6 0.2 0.2 0.6 0.2 0.2
က တိ မျက် ||| ga- di. mje&apos; ||| 0.6 0.2 0.2 0.6 0.2 0.2
က တိ မျက် စိ ||| ga- di. mje&apos; si. ||| 0.6 0.2 0.2 0.6 0.2 0.2
က တိ သစ် ||| ga- di. thi&apos; ||| 0.6 0.2 0.2 0.6 0.2 0.2
က တိ သစ် စာ ||| ga- di. thi&apos; sa ||| 0.6 0.2 0.2 0.6 0.2 0.2
က တိ သစ် စာ ပြု ||| ga- di. thi&apos; sa pju. ||| 0.6 0.2 0.2 0.6 0.2 0.2
က တိ အ ||| ga- di. a- ||| 0.6 0.2 0.2 0.6 0.2 0.2
က တိ အ ပူ ||| ga- di. a- pu ||| 0.6 0.2 0.2 0.6 0.2 0.2
က တိ အ ပူ ချိန် ||| ga- di. a- pu gyein ||| 0.6 0.2 0.2 0.6 0.2 0.2
က တိမ်း ||| ga- dein: ||| 0.6 0.2 0.2 0.6 0.2 0.2
က တိမ်း က ||| ga- dein: ga- ||| 0.6 0.2 0.2 0.6 0.2 0.2
က တိမ်း က ယိမ်း ||| ga- dein: ga- jein: ||| 0.6 0.2 0.2 0.6 0.2 0.2
က တိုက် ||| ga- dai&apos; ||| 0.6 0.2 0.2 0.6 0.2 0.2
က တိုက် ||| ka. tai&apos; ||| 0.6 0.2 0.2 0.6 0.2 0.2
က တိုက် က ||| ga- dai&apos; ga- ||| 0.6 0.2 0.2 0.6 0.2 0.2
က တိုက် က ရိုက် ||| ga- dai&apos; ga- jai&apos; ||| 0.6 0.2 0.2 0.6 0.2 0.2
က တို့ ||| ga- dou. ||| 0.6 0.2 0.2 0.6 0.2 0.2
က တိုး ||| ga dou: ||| 0.6 0.2 0.2 0.6 0.2 0.2
က တိုး ||| ga- dou: ||| 0.866667 0.0666667 0.0666667 0.866667 0.0666667 0.0666667
က တိုး ခွာ ||| ga- dou: khwa ||| 0.6 0.2 0.2 0.6 0.2 0.2
က တီး ||| ga- di: ||| 0.6 0.2 0.2 0.6 0.2 0.2
က တုန် ||| ga- doun ||| 0.6 0.2 0.2 0.6 0.2 0.2
က တုန် က ||| ga- doun ga- ||| 0.6 0.2 0.2 0.6 0.2 0.2
က တုန် က ယင် ||| ga- doun ga- jin ||| 0.6 0.2 0.2 0.6 0.2 0.2
က တုံး ||| ga doun: ||| 0.6 0.2 0.2 0.6 0.2 0.2
က တုံး ||| ga- doun: ||| 0.714286 0.142857 0.142857 0.714286 0.142857 0.142857
က တူး ||| ga- du: ||| 0.6 0.2 0.2 0.6 0.2 0.2
က တော ||| ga- do: ||| 0.6 0.2 0.2 0.6 0.2 0.2
က တော က ||| ga- do: ga- ||| 0.6 0.2 0.2 0.6 0.2 0.2
က တော က မျော ||| ga- do: ga- mjo: ||| 0.6 0.2 0.2 0.6 0.2 0.2
က တောက် ||| ga- dau&apos; ||| 0.777778 0.111111 0.111111 0.777778 0.111111 0.111111
က တောက် က ||| ga- dau&apos; ga- ||| 0.6 0.2 0.2 0.6 0.2 0.2
က တောက် က တက် ||| ga- dau&apos; ga- de&apos; ||| 0.6 0.2 0.2 0.6 0.2 0.2
က တောက် က တက် ဖြစ် ||| ga- dau&apos; ga- de&apos; hpji&apos; ||| 0.6 0.2 0.2 0.6 0.2 0.2
က တောက် စပ် ||| ga- dau&apos; sa&apos; ||| 0.6 0.2 0.2 0.6 0.2 0.2
က တောင် ||| ga- daun ||| 0.6 0.2 0.2 0.6 0.2 0.2
က တောင် ချောက် ||| ga- daun chau&apos; ||| 0.6 0.2 0.2 0.6 0.2 0.2
က တောင် ချောက် ချား ||| ga- daun chau&apos; cha: ||| 0.6 0.2 0.2 0.6 0.2 0.2
က တောင် ချောက် ချား ဖြစ် ||| ga- daun chau&apos; cha: hpji&apos; ||| 0.6 0.2 0.2 0.6 0.2 0.2
က တော့ ||| ga- do. ||| 0.846154 0.0769231 0.0769231 0.846154 0.0769231 0.0769231
က တော့ ထိုး ||| ga- do. htou: ||| 0.6 0.2 0.2 0.6 0.2 0.2
က တော့ ပုံ ||| ga- do. poun ||| 0.6 0.2 0.2 0.6 0.2 0.2
က တော် ||| ga- do ||| 0.6 0.2 0.2 0.6 0.2 0.2
က တဲ ||| ga- de: ||| 0.6 0.2 0.2 0.6 0.2 0.2
က တွတ် ||| ga- du&apos; ||| 0.714286 0.142857 0.142857 0.714286 0.142857 0.142857
က တွတ် မုန့် ||| ga- du&apos; moun. ||| 0.6 0.2 0.2 0.6 0.2 0.2
က တွန်း ||| ka- dun: ||| 0.6 0.2 0.2 0.6 0.2 0.2
က ထ ||| ka- hta. ||| 0.714286 0.142857 0.142857 0.714286 0.142857 0.142857
က ထ ခံ ||| ka- hta. khan ||| 0.6 0.2 0.2 0.6 0.2 0.2
က ထ လုပ် ||| ka- hta. lou&apos; ||| 0.6 0.2 0.2 0.6 0.2 0.2
က ထာ ||| ka- hta ||| 0.6 0.2 0.2 0.6 0.2 0.2
က ထိ ||| ka- hti. ||| 0.777778 0.111111 0.111111 0.777778 0.111111 0.111111
က ထိ က ||| ka- hti. ka. ||| 0.714286 0.142857 0.142857 0.714286 0.142857 0.142857
က ထိန် ||| ka- htein ||| 0.714286 0.142857 0.142857 0.714286 0.142857 0.142857
က ထိုင် ||| ka- htain ||| 0.6 0.2 0.2 0.6 0.2 0.2
က ဒ ||| ka. da. ||| 0.6 0.2 0.2 0.6 0.2 0.2
က ဒ သ ||| ka. da. tha- ||| 0.6 0.2 0.2 0.6 0.2 0.2
က ဒ သ က ||| ka. da. tha- ka. ||| 0.6 0.2 0.2 0.6 0.2 0.2
က ဒတ် ||| ga- da&apos; ||| 0.6 0.2 0.2 0.6 0.2 0.2
က ဒါန် ||| ka- dan ||| 0.6 0.2 0.2 0.6 0.2 0.2
က ဒူ ||| ka- du ||| 0.6 0.2 0.2 0.6 0.2 0.2
က ဒူ ဥ ||| ka- du u. ||| 0.6 0.2 0.2 0.6 0.2 0.2
က ဓ ||| ka. da- ||| 0.6 0.2 0.2 0.6 0.2 0.2
က ဓ ရ ||| ka. da- ra. ||| 0.6 0.2 0.2 0.6 0.2 0.2
က ဓာတ် ||| ga- da&apos; ||| 0.714286 0.142857 0.142857 0.714286 0.142857 0.142857
က ဓာတ် ကျောင်း ||| ga- da&apos; kyaun: ||| 0.6 0.2 0.2 0.6 0.2 0.2
က ဓံ ||| ga- dan ||| 0.6 0.2 0.2 0.6 0.2 0.2
က န ||| ka- na- ||| 0.846154 0.0769231 0.0769231 0.846154 0.0769231 0.0769231
က န ကုတ် ||| ka- na- gou&apos; ||| 0.6 0.2 0.2 0.6 0.2 0.2
က န ခို ||| ka- na- khou ||| 0.6 0.2 0.2 0.6 0.2 0.2
က န စို ||| ka- na- zou ||| 0.6 0.2 0.2 0.6 0.2 0.2
က န ဦး ||| ka- na- u: ||| 0.714286 0.142857 0.142857 0.714286 0.142857 0.142857
က နင်း ||| ga- nin: ||| 0.6 0.2 0.2 0.6 0.2 0.2
က နတ် ||| ka. na&apos; ||| 0.6 0.2 0.2 0.6 0.2 0.2
က နန်း ||| ga- nan: ||| 0.714286 0.142857 0.142857 0.714286 0.142857 0.142857
က နန်း ဆိတ် ||| ga- nan: hsei&apos; ||| 0.6 0.2 0.2 0.6 0.2 0.2
က နန်း ဆိတ် က ||| ga- nan: hsei&apos; ga- ||| 0.6 0.2 0.2 0.6 0.2 0.2
က နန်း ဆိတ် က နန်း ||| ga- nan: hsei&apos; ga- nan: ||| 0.6 0.2 0.2 0.6 0.2 0.2
က နား ||| ka- na- ||| 0.6 0.2 0.2 0.6 0.2 0.2
က နား ||| ka- na: ||| 0.846154 0.0769231 0.0769231 0.846154 0.0769231 0.0769231
က နား ပေး ||| ka- na: pei: ||| 0.6 0.2 0.2 0.6 0.2 0.2
က နား ဖျင်း ||| ka- na- hpjin: ||| 0.6 0.2 0.2 0.6 0.2 0.2
က နိဗ် ||| ka. nei&apos; ||| 0.6 0.2 0.2 0.6 0.2 0.2
က နိဗ် ဗာန် ||| ka. nei&apos; ban ||| 0.6 0.2 0.2 0.6 0.2 0.2
က နီ ||| ka. ni ||| 0.6 0.2 0.2 0.6 0.2 0.2
က နီ တိ ||| ka. ni ti. ||| 0.6 0.2 0.2 0.6 0.2 0.2
က နု ||| ka- nu. ||| 0.6 0.2 0.2 0.6 0.2 0.2
က နု တံ ||| ka- nu. dan ||| 0.6 0.2 0.2 0.6 0.2 0.2
က နုတ် ||| ka- nou&apos; ||| 0.714286 0.142857 0.142857 0.714286 0.142857 0.142857
က နုတ် ပန်း ||| ka- nou&apos; pan: ||| 0.6 0.2 0.2 0.6 0.2 0.2
က နေ့ ||| ga- nei. ||| 0.6 0.2 0.2 0.6 0.2 0.2
က နံ ||| ka- nan ||| 0.6 0.2 0.2 0.6 0.2 0.2
က နွဲ့ ||| ka- nwe. ||| 0.777778 0.111111 0.111111 0.777778 0.111111 0.111111
က နွဲ့ က ||| ka- nwe. ka- ||| 0.777778 0.111111 0.111111 0.777778 0.111111 0.111111
က နွဲ့ က လျ ||| ka- nwe. ka- ja. ||| 0.714286 0.142857 0.142857 0.714286 0.142857 0.142857
က နွဲ့ က လျ ||| ka- nwe. ka- lja. ||| 0.6 0.2 0.2 0.6 0.2 0.2
က နွဲ့ က လျ ပြော ||| ka- nwe. ka- ja. pjo: ||| 0.6 0.2 0.2 0.6 0.2 0.2
က နွဲ့ က လျ ပြော ||| ka- nwe. ka- lja. pjo: ||| 0.6 0.2 0.2 0.6 0.2 0.2
က နွဲ့ က လျ လုပ် ||| ka- nwe. ka- ja. lou&apos; ||| 0.6 0.2 0.2 0.6 0.2 0.2
က ပက် ||| ga- be&apos; ||| 0.6 0.2 0.2 0.6 0.2 0.2
က ပက် က ||| ga- be&apos; ga- ||| 0.6 0.2 0.2 0.6 0.2 0.2
က ပက် က စက် ||| ga- be&apos; ga- se&apos; ||| 0.6 0.2 0.2 0.6 0.2 0.2
က ပစ် ||| ga- bji&apos; ||| 0.6 0.2 0.2 0.6 0.2 0.2
က ပတ် ||| ga- ba&apos; ||| 0.6 0.2 0.2 0.6 0.2 0.2
က ပါ ||| ga- ba ||| 0.6 0.2 0.2 0.6 0.2 0.2
က ပါ ||| ka pa ||| 0.6 0.2 0.2 0.6 0.2 0.2
က ပါ ||| ka- pa ||| 0.6 0.2 0.2 0.6 0.2 0.2
က ပါ ||| ka. pa ||| 0.6 0.2 0.2 0.6 0.2 0.2
က ပါ စိ ||| ka- pa si. ||| 0.6 0.2 0.2 0.6 0.2 0.2
က ပါ စိ နံ ||| ka- pa si. nan ||| 0.6 0.2 0.2 0.6 0.2 0.2
က ပါ စိ နံ ပါ ||| ka- pa si. nan pa ||| 0.6 0.2 0.2 0.6 0.2 0.2
က ပါ လ ||| ka pa la ||| 0.6 0.2 0.2 0.6 0.2 0.2
က ပါ လ ||| ka. pa la. ||| 0.6 0.2 0.2 0.6 0.2 0.2
က ပါ လ တ ||| ka pa la ta- ||| 0.6 0.2 0.2 0.6 0.2 0.2
က ပါ လ တ ရား ||| ka pa la ta- ja: ||| 0.6 0.2 0.2 0.6 0.2 0.2
က ပါး ||| ga- ba: ||| 0.714286 0.142857 0.142857 0.714286 0.142857 0.142857
က ပါး ရိ ||| ga- ba: ji. ||| 0.6 0.2 0.2 0.6 0.2 0.2
က ပါး ရိ က ||| ga- ba: ji. ga- ||| 0.6 0.2 0.2 0.6 0.2 0.2
က ပါး ရိ က ပါး ||| ga- ba: ji. ga- ba: ||| 0.6 0.2 0.2 0.6 0.2 0.2
က ပို ||| ga- bou ||| 0.6 0.2 0.2 0.6 0.2 0.2
က ပို က ||| ga- bou ga- ||| 0.6 0.2 0.2 0.6 0.2 0.2
က ပို က ရို ||| ga- bou ga- jou ||| 0.6 0.2 0.2 0.6 0.2 0.2
က ပိုင် ||| ga- bain ||| 0.714286 0.142857 0.142857 0.714286 0.142857 0.142857
က ပီ ||| ka- pi ||| 0.6 0.2 0.2 0.6 0.2 0.2
က ပေါက် ||| ga- bau&apos; ||| 0.846154 0.0769231 0.0769231 0.846154 0.0769231 0.0769231
က ပေါက် ||| ga. pau&apos; ||| 0.6 0.2 0.2 0.6 0.2 0.2
က ပေါက် က ||| ga- bau&apos; ga- ||| 0.6 0.2 0.2 0.6 0.2 0.2
က ပေါက် က ရောက် ||| ga- bau&apos; ga- jau&apos; ||| 0.6 0.2 0.2 0.6 0.2 0.2
က ပေါက် ချာ ||| ga- bau&apos; cha ||| 0.714286 0.142857 0.142857 0.714286 0.142857 0.142857
က ပေါက် ချိ ||| ga- bau&apos; chi. ||| 0.6 0.2 0.2 0.6 0.2 0.2
က ပေါက် ချိ က ||| ga- bau&apos; chi. ga- ||| 0.6 0.2 0.2 0.6 0.2 0.2
က ပေါက် ချိ က ပေါက် ||| ga- bau&apos; chi. ga- bau&apos; ||| 0.6 0.2 0.2 0.6 0.2 0.2
က ပေါက် တိ ||| ga- bau&apos; ti. ||| 0.6 0.2 0.2 0.6 0.2 0.2
က ပေါက် တိ က ||| ga- bau&apos; ti. ga- ||| 0.6 0.2 0.2 0.6 0.2 0.2
က ပေါက် တိ က ပေါက် ||| ga- bau&apos; ti. ga- bau&apos; ||| 0.6 0.2 0.2 0.6 0.2 0.2
က ပျစ် ||| ga- bji&apos; ||| 0.6 0.2 0.2 0.6 0.2 0.2
က ပျစ် က ||| ga- bji&apos; ka- ||| 0.6 0.2 0.2 0.6 0.2 0.2
က ပျစ် က ညစ် ||| ga- bji&apos; ka- nji&apos; ||| 0.6 0.2 0.2 0.6 0.2 0.2
က ပျာ ||| ga- bja ||| 0.6 0.2 0.2 0.6 0.2 0.2
က ပျာ က ||| ga- bja ga- ||| 0.6 0.2 0.2 0.6 0.2 0.2
က ပျာ က ယာ ||| ga- bja ga- ja ||| 0.6 0.2 0.2 0.6 0.2 0.2
က ပြက် ||| ga- bje&apos; ||| 0.6 0.2 0.2 0.6 0.2 0.2
က ပြက် က ||| ga- bje&apos; ga- ||| 0.6 0.2 0.2 0.6 0.2 0.2
က ပြက် က ချော် ||| ga- bje&apos; ga- cho ||| 0.6 0.2 0.2 0.6 0.2 0.2
က ပြင် ||| ga- bjin ||| 0.6 0.2 0.2 0.6 0.2 0.2
က ပြန် ||| ga- bjan ||| 0.714286 0.142857 0.142857 0.714286 0.142857 0.142857
က ပြန် ဖြစ် ||| ga- bjan hpji&apos; ||| 0.6 0.2 0.2 0.6 0.2 0.2
က ပြား ||| ka. bja: ||| 0.6 0.2 0.2 0.6 0.2 0.2
က ပြိတ် ||| ka. pjei&apos; ||| 0.6 0.2 0.2 0.6 0.2 0.2
က ပြိတ် တာ ||| ka. pjei&apos; ta ||| 0.6 0.2 0.2 0.6 0.2 0.2
က ပြု ||| ga. pju. ||| 0.6 0.2 0.2 0.6 0.2 0.2
က ပြု ||| ka. pju. ||| 0.6 0.2 0.2 0.6 0.2 0.2
က ပြောင်း ||| ga- bjaun: ||| 0.714286 0.142857 0.142857 0.714286 0.142857 0.142857
က ပြောင်း က ||| ga- bjaun: ga- ||| 0.714286 0.142857 0.142857 0.714286 0.142857 0.142857
က ပြောင်း က ပြန် ||| ga- bjaun: ga- bjan ||| 0.714286 0.142857 0.142857 0.714286 0.142857 0.142857
က ပြောင်း က ပြန် ဖြစ် ||| ga- bjaun: ga- bjan hpji&apos; ||| 0.6 0.2 0.2 0.6 0.2 0.2
က ပွဲ ||| ka. bwe: ||| 0.777778 0.111111 0.111111 0.777778 0.111111 0.111111
က ပွဲ ရုံ ||| ka. bwe: joun ||| 0.6 0.2 0.2 0.6 0.2 0.2
က ဖို ||| ka. bou ||| 0.6 0.2 0.2 0.6 0.2 0.2
က ဖီး ||| ka- hpi: ||| 0.6 0.2 0.2 0.6 0.2 0.2
က ဖြစ် ||| ga. hpji&apos; ||| 0.6 0.2 0.2 0.6 0.2 0.2
က ဗုဒ် ||| ka. bou&apos; ||| 0.6 0.2 0.2 0.6 0.2 0.2
က ဗုဒ် ဓါ ||| ka. bou&apos; da ||| 0.6 0.2 0.2 0.6 0.2 0.2
က ဗေ ||| ka. bei ||| 0.714286 0.142857 0.142857 0.714286 0.142857 0.142857
က ဗေ ဒ ||| ka. bei da. ||| 0.714286 0.142857 0.142857 0.714286 0.142857 0.142857
က ဗျာ ||| ga- bja ||| 0.818182 0.0909091 0.0909091 0.818182 0.0909091 0.0909091
က ဗျာ စပ် ||| ga- bja sa&apos; ||| 0.6 0.2 0.2 0.6 0.2 0.2
က ဗျာ ဆန် ||| ga- bja hsan ||| 0.6 0.2 0.2 0.6 0.2 0.2
က ဗျာ လွတ် ||| ga- bja lu&apos; ||| 0.6 0.2 0.2 0.6 0.2 0.2
က ဗျူ ||| ka. bju ||| 0.6 0.2 0.2 0.6 0.2 0.2
က ဗျူ ဟာ ||| ka. bju ha ||| 0.6 0.2 0.2 0.6 0.2 0.2
က ဗျူ ဟာ နတ် ||| ka. bju ha na&apos; ||| 0.6 0.2 0.2 0.6 0.2 0.2
က ဗွီး ||| ga- bwi: ||| 0.6 0.2 0.2 0.6 0.2 0.2
က ဘတ် ||| ga. ba&apos; ||| 0.6 0.2 0.2 0.6 0.2 0.2
က ဘတ် ||| ka. ba&apos; ||| 0.6 0.2 0.2 0.6 0.2 0.2
က ဘီ ||| ka. ba- ||| 0.6 0.2 0.2 0.6 0.2 0.2
က ဘီ လူး ||| ka. ba- lu: ||| 0.6 0.2 0.2 0.6 0.2 0.2
က ဘုန်း ||| ga- boun: ||| 0.6 0.2 0.2 0.6 0.2 0.2
က ဘုန်း သား ||| ga- boun: dha: ||| 0.6 0.2 0.2 0.6 0.2 0.2
က မ ||| ka- ma. ||| 0.714286 0.142857 0.142857 0.714286 0.142857 0.142857
က မ ||| ka. ma- ||| 0.6 0.2 0.2 0.6 0.2 0.2
က မ က ||| ka- ma. ka- ||| 0.6 0.2 0.2 0.6 0.2 0.2
က မ က ထ ||| ka- ma. ka- hta. ||| 0.6 0.2 0.2 0.6 0.2 0.2
က မ က ထ လုပ် ||| ka- ma. ka- hta. lou&apos; ||| 0.6 0.2 0.2 0.6 0.2 0.2
က မ ချ ||| ka. ma- cha. ||| 0.6 0.2 0.2 0.6 0.2 0.2
က မည် ||| ka- me ||| 0.6 0.2 0.2 0.6 0.2 0.2
က မန်း ||| ga- man: ||| 0.6 0.2 0.2 0.6 0.2 0.2
က မန်း က ||| ga- man: ga- ||| 0.6 0.2 0.2 0.6 0.2 0.2
က မန်း က တန်း ||| ga- man: ga- dan: ||| 0.6 0.2 0.2 0.6 0.2 0.2
က မာ ||| ka- ma ||| 0.714286 0.142857 0.142857 0.714286 0.142857 0.142857
က မား ||| ga- ma: ||| 0.6 0.2 0.2 0.6 0.2 0.2
က မုခ် ||| ga- mou&apos; ||| 0.6 0.2 0.2 0.6 0.2 0.2
က မူ ||| ga- mu ||| 0.6 0.2 0.2 0.6 0.2 0.2
က မူး ||| ga- mu: ||| 0.6 0.2 0.2 0.6 0.2 0.2
က မူး ရှူး ||| ga- mu: shu: ||| 0.6 0.2 0.2 0.6 0.2 0.2
က မူး ရှူး ထိုး ||| ga- mu: shu: dou: ||| 0.6 0.2 0.2 0.6 0.2 0.2
က မျဉ်း ||| ka- mjin: ||| 0.714286 0.142857 0.142857 0.714286 0.142857 0.142857
က မျဉ်း နီ ||| ka- mjin: ni ||| 0.6 0.2 0.2 0.6 0.2 0.2
က မျော ||| ga- mjo: ||| 0.777778 0.111111 0.111111 0.777778 0.111111 0.111111
က မျော သော ||| ga- mjo: tho: ||| 0.6 0.2 0.2 0.6 0.2 0.2
က မျော သော ပါး ||| ga- mjo: tho: ba: ||| 0.6 0.2 0.2 0.6 0.2 0.2
က မြင်း ||| ka mjin: ||| 0.6 0.2 0.2 0.6 0.2 0.2
က မြင်း ||| ka- mjin: ||| 0.818182 0.0909091 0.0909091 0.818182 0.0909091 0.0909091
က မြင်း ||| ka. mjin: ||| 0.6 0.2 0.2 0.6 0.2 0.2
က မြင်း ကြော ||| ka- mjin: gyo: ||| 0.714286 0.142857 0.142857 0.714286 0.142857 0.142857
က မြင်း ကြော ဆွဲ ||| ka- mjin: gyo: hswe: ||| 0.6 0.2 0.2 0.6 0.2 0.2
က မြင်း ကြော ထ ||| ka- mjin: gyo: hta. ||| 0.6 0.2 0.2 0.6 0.2 0.2
က မြင်း မ ||| ka- mjin: ma. ||| 0.6 0.2 0.2 0.6 0.2 0.2
က မြော့ ||| ka- mjo. ||| 0.6 0.2 0.2 0.6 0.2 0.2
က ယ ||| ka- ja. ||| 0.6 0.2 0.2 0.6 0.2 0.2
က ယက် ||| ga- je&apos; ||| 0.6 0.2 0.2 0.6 0.2 0.2
က ယင် ||| ga- jin ||| 0.6 0.2 0.2 0.6 0.2 0.2
က ယာ ||| ga- ja ||| 0.6 0.2 0.2 0.6 0.2 0.2
က ယား ||| ka- ja: ||| 0.6 0.2 0.2 0.6 0.2 0.2
က ယိမ်း ||| ga- jein: ||| 0.6 0.2 0.2 0.6 0.2 0.2
က ယီ ||| ka- ji ||| 0.6 0.2 0.2 0.6 0.2 0.2
က ယု ||| ka- ju. ||| 0.6 0.2 0.2 0.6 0.2 0.2
က ယု က ||| ka- ju. ka- ||| 0.6 0.2 0.2 0.6 0.2 0.2
က ယု က ယ ||| ka- ju. ka- ja. ||| 0.6 0.2 0.2 0.6 0.2 0.2
က ယော ||| ka- jo: ||| 0.6 0.2 0.2 0.6 0.2 0.2
က ယောက် ||| ga- jau&apos; ||| 0.6 0.2 0.2 0.6 0.2 0.2
က ယောက် က ||| ga- jau&apos; ga- ||| 0.6 0.2 0.2 0.6 0.2 0.2
က ယောက် က ယက် ||| ga- jau&apos; ga- je&apos; ||| 0.6 0.2 0.2 0.6 0.2 0.2
က ယောင် ||| ga- jaun ||| 0.714286 0.142857 0.142857 0.714286 0.142857 0.142857
က ယောင် က ||| ga- jaun ga- ||| 0.6 0.2 0.2 0.6 0.2 0.2
က ယောင် က တမ်း ||| ga- jaun ga- dan: ||| 0.6 0.2 0.2 0.6 0.2 0.2
က ယောင် ချောက် ||| ga- jaun chau&apos; ||| 0.6 0.2 0.2 0.6 0.2 0.2
က ယောင် ချောက် ချား ||| ga- jaun chau&apos; cha: ||| 0.6 0.2 0.2 0.6 0.2 0.2
က ရ ||| ga- ja. ||| 0.714286 0.142857 0.142857 0.714286 0.142857 0.142857
က ရ ||| ka- ja. ||| 0.6 0.2 0.2 0.6 0.2 0.2
က ရ ||| ka- la- ||| 0.818182 0.0909091 0.0909091 0.818182 0.0909091 0.0909091
က ရ ||| ka- ra- ||| 0.904762 0.047619 0.047619 0.904762 0.047619 0.047619
က ရ ||| ka- ra. ||| 0.714286 0.142857 0.142857 0.714286 0.142857 0.142857
က ရ ကဋ် ||| ka- ra- ka&apos; ||| 0.6 0.2 0.2 0.6 0.2 0.2
က ရ ကတ် ||| ka- ra- ka&apos; ||| 0.6 0.2 0.2 0.6 0.2 0.2
က ရ ကွက် ||| ka- ra- gwe&apos; ||| 0.6 0.2 0.2 0.6 0.2 0.2
က ရ စ ||| ka- ra. sa- ||| 0.6 0.2 0.2 0.6 0.2 0.2
က ရ စ ရိ ||| ka- ra. sa- ri. ||| 0.6 0.2 0.2 0.6 0.2 0.2
က ရ စ ရိ ယာ ||| ka- ra. sa- ri. ja ||| 0.6 0.2 0.2 0.6 0.2 0.2
က ရ နို့ ||| ka- la- nou. ||| 0.6 0.2 0.2 0.6 0.2 0.2
က ရ နို့ ||| ka- ra- nou. ||| 0.6 0.2 0.2 0.6 0.2 0.2
က ရ မက် ||| ka- la- me&apos; ||| 0.6 0.2 0.2 0.6 0.2 0.2
က ရ မက် ||| ka- ra- me&apos; ||| 0.6 0.2 0.2 0.6 0.2 0.2
က ရ ဝိက် ||| ka- ra- wei&apos; ||| 0.714286 0.142857 0.142857 0.714286 0.142857 0.142857
က ရ ဝိက် ဖောင် ||| ka- ra- wei&apos; hpaun ||| 0.6 0.2 0.2 0.6 0.2 0.2
က ရ ဝေး ||| ka- la- wei: ||| 0.714286 0.142857 0.142857 0.714286 0.142857 0.142857
က ရ ဝေး ||| ka- ra- wei: ||| 0.714286 0.142857 0.142857 0.714286 0.142857 0.142857
က ရ ဝေး ရွက် ||| ka- la- wei: jwe&apos; ||| 0.6 0.2 0.2 0.6 0.2 0.2
က ရ ဝေး ရွက် ||| ka- ra- wei: jwe&apos; ||| 0.6 0.2 0.2 0.6 0.2 0.2
က ရက် ||| ka- je&apos; ||| 0.6 0.2 0.2 0.6 0.2 0.2
က ရက် ||| ka- re&apos; ||| 0.714286 0.142857 0.142857 0.714286 0.142857 0.142857
က ရင် ||| ka- ji ||| 0.6 0.2 0.2 0.6 0.2 0.2
က ရင် ||| ka- jin ||| 0.714286 0.142857 0.142857 0.714286 0.142857 0.142857
က ရင် ||| ka- rin ||| 0.6 0.2 0.2 0.6 0.2 0.2
က ရင် ဝါး ||| ka- ji nwa: ||| 0.6 0.2 0.2 0.6 0.2 0.2
က ရစ် ||| ga- ri&apos; ||| 0.6 0.2 0.2 0.6 0.2 0.2
က ရမ်း ||| ga- jan: ||| 0.6 0.2 0.2 0.6 0.2 0.2
က ရာ ||| ga- ja ||| 0.714286 0.142857 0.142857 0.714286 0.142857 0.142857
က ရာ ||| ka- ra ||| 0.6 0.2 0.2 0.6 0.2 0.2
က ရာ ||| ka- ra. ||| 0.6 0.2 0.2 0.6 0.2 0.2
က ရာ တေး ||| ka- ra tei: ||| 0.6 0.2 0.2 0.6 0.2 0.2
က ရာ ရှစ် ||| ga- ja shi&apos; ||| 0.6 0.2 0.2 0.6 0.2 0.2
က ရာ ရှစ် သောင်း ||| ga- ja shi&apos; thaun: ||| 0.6 0.2 0.2 0.6 0.2 0.2
က ရာဇ် ||| ga- ji&apos; ||| 0.866667 0.0666667 0.0666667 0.866667 0.0666667 0.0666667
က ရာဇ် ||| ka- ji&apos; ||| 0.846154 0.0769231 0.0769231 0.846154 0.0769231 0.0769231
က ရာဇ် တက် ||| ka- ji&apos; te&apos; ||| 0.6 0.2 0.2 0.6 0.2 0.2
က ရာဇ် တို ||| ka- ji&apos; tou ||| 0.6 0.2 0.2 0.6 0.2 0.2
က ရာဇ် ဖြို ||| ga- ji&apos; hpjou ||| 0.6 0.2 0.2 0.6 0.2 0.2
က ရာဇ် ဖြို ||| ka- ji&apos; hpjou ||| 0.6 0.2 0.2 0.6 0.2 0.2
က ရား ||| ka- ja: ||| 0.777778 0.111111 0.111111 0.777778 0.111111 0.111111
က ရား ||| kha- ja: ||| 0.714286 0.142857 0.142857 0.714286 0.142857 0.142857
က ရား ရေ ||| ka- ja: jei ||| 0.6 0.2 0.2 0.6 0.2 0.2
က ရား ရေ လွှတ် ||| ka- ja: jei lhu&apos; ||| 0.6 0.2 0.2 0.6 0.2 0.2
က ရား ရေ လွှတ် ပြော ||| ka- ja: jei lhu&apos; pjo: ||| 0.6 0.2 0.2 0.6 0.2 0.2
က ရိ ||| ka- ji. ||| 0.6 0.2 0.2 0.6 0.2 0.2
က ရိ ||| ka- ri. ||| 0.6 0.2 0.2 0.6 0.2 0.2
က ရိ က ||| ka- ji. ka- ||| 0.6 0.2 0.2 0.6 0.2 0.2
က ရိ က ထ ||| ka- ji. ka- hta. ||| 0.6 0.2 0.2 0.6 0.2 0.2
က ရိ က ထ ခံ ||| ka- ji. ka- hta. khan ||| 0.6 0.2 0.2 0.6 0.2 0.2
က ရိ ယ ||| ka- ri. ja. ||| 0.6 0.2 0.2 0.6 0.2 0.2
က ရိန်း ||| ka- rein: ||| 0.6 0.2 0.2 0.6 0.2 0.2
က ရို ||| ga- jou ||| 0.6 0.2 0.2 0.6 0.2 0.2
က ရို ||| ka- jou ||| 0.6 0.2 0.2 0.6 0.2 0.2
က ရိုက် ||| ga- jai&apos; ||| 0.6 0.2 0.2 0.6 0.2 0.2
က ရိုက် ||| ka- rai&apos; ||| 0.6 0.2 0.2 0.6 0.2 0.2
က ရိုဏ် ||| ka- rain ||| 0.6 0.2 0.2 0.6 0.2 0.2
က ရိုဏ်း ||| ka- rain: ||| 0.777778 0.111111 0.111111 0.777778 0.111111 0.111111
က ရိုဏ်း ကျ ||| ka- rain: kya. ||| 0.6 0.2 0.2 0.6 0.2 0.2
က ရိုဏ်း ကျမ်း ||| ka- rain: kyan: ||| 0.6 0.2 0.2 0.6 0.2 0.2
က ရီ ||| ga- ji ||| 0.6 0.2 0.2 0.6 0.2 0.2
က ရီ ||| ga- ri ||| 0.6 0.2 0.2 0.6 0.2 0.2
က ရီ ||| ga- ri: ||| 0.6 0.2 0.2 0.6 0.2 0.2
က ရီ ||| ka- ri ||| 0.6 0.2 0.2 0.6 0.2 0.2
က ရီ တေ ||| ka- ri tei ||| 0.6 0.2 0.2 0.6 0.2 0.2
က ရီ တေ ရီ ||| ka- ri tei ri ||| 0.6 0.2 0.2 0.6 0.2 0.2
က ရီ အစ် ||| ga- ri: i&apos; ||| 0.6 0.2 0.2 0.6 0.2 0.2
က ရု ||| ga- ju. ||| 0.846154 0.0769231 0.0769231 0.846154 0.0769231 0.0769231
က ရု ဏာ ||| ga- ju. na ||| 0.846154 0.0769231 0.0769231 0.846154 0.0769231 0.0769231
က ရု ဏာ ကြေး ||| ga- ju. na gyei: ||| 0.6 0.2 0.2 0.6 0.2 0.2
က ရု ဏာ ဒေါ ||| ga- ju. na do: ||| 0.6 0.2 0.2 0.6 0.2 0.2
က ရု ဏာ ဒေါ သော ||| ga- ju. na do: dho: ||| 0.6 0.2 0.2 0.6 0.2 0.2
က ရု ဏာ ရ ||| ga- ju. na ra. ||| 0.6 0.2 0.2 0.6 0.2 0.2
က ရု ဏာ ရ သ ||| ga- ju. na ra. tha. ||| 0.6 0.2 0.2 0.6 0.2 0.2
က ရု ဏာ သက် ||| ga- ju. na the&apos; ||| 0.6 0.2 0.2 0.6 0.2 0.2
က ရုဏ်း ||| ga- joun: ||| 0.6 0.2 0.2 0.6 0.2 0.2
က ရုံး ||| ga- joun: ||| 0.6 0.2 0.2 0.6 0.2 0.2
က ရူ ||| ka- ru ||| 0.6 0.2 0.2 0.6 0.2 0.2
က ရူ ဇာ ||| ka- ru za ||| 0.6 0.2 0.2 0.6 0.2 0.2
က ရူး ||| ka- ru: ||| 0.6 0.2 0.2 0.6 0.2 0.2
က ရော ||| ga- jo: ||| 0.6 0.2 0.2 0.6 0.2 0.2
က ရော သော ||| ga- jo: tho: ||| 0.6 0.2 0.2 0.6 0.2 0.2
က ရော သော ပါး ||| ga- jo: tho: ba: ||| 0.6 0.2 0.2 0.6 0.2 0.2
က ရောက် ||| ga- jau&apos; ||| 0.6 0.2 0.2 0.6 0.2 0.2
က ရော့ ||| ka- jo. ||| 0.6 0.2 0.2 0.6 0.2 0.2
က ရော် ||| ka- jo ||| 0.6 0.2 0.2 0.6 0.2 0.2
က ရော် က ||| ka- jo ka- ||| 0.6 0.2 0.2 0.6 0.2 0.2
က ရော် က မည် ||| ka- jo ka- me ||| 0.6 0.2 0.2 0.6 0.2 0.2
က ရေး ||| ka. jei: ||| 0.6 0.2 0.2 0.6 0.2 0.2
က ရဲ ||| ga je: ||| 0.6 0.2 0.2 0.6 0.2 0.2
က ရံ ||| ga- ran ||| 0.714286 0.142857 0.142857 0.714286 0.142857 0.142857
က ရံ ပါ ||| ga- ran pa ||| 0.6 0.2 0.2 0.6 0.2 0.2
က ရံ ပါ က ||| ga- ran pa ga- ||| 0.6 0.2 0.2 0.6 0.2 0.2
က ရံ ပါ က ရံ ||| ga- ran pa ga- ran ||| 0.6 0.2 0.2 0.6 0.2 0.2
က ရွတ် ||| ka- ju&apos; ||| 0.714286 0.142857 0.142857 0.714286 0.142857 0.142857
က ရွတ် ကင်း ||| ka- ju&apos; kin: ||| 0.6 0.2 0.2 0.6 0.2 0.2
က ရွတ် ကင်း လျှောက် ||| ka- ju&apos; kin: shau&apos; ||| 0.6 0.2 0.2 0.6 0.2 0.2
က ရွား ||| ga- jwa: ||| 0.6 0.2 0.2 0.6 0.2 0.2
က လ ||| ka- la- ||| 0.866667 0.0666667 0.0666667 0.866667 0.0666667 0.0666667
က လ တက် ||| ka- la- de&apos; ||| 0.6 0.2 0.2 0.6 0.2 0.2
က လ နား ||| ka- la- na: ||| 0.6 0.2 0.2 0.6 0.2 0.2
က လ နံ ||| ka- la- nan ||| 0.6 0.2 0.2 0.6 0.2 0.2
က လ မောင်း ||| ka- la- maun: ||| 0.6 0.2 0.2 0.6 0.2 0.2
က လ လ ||| ka- la- la. ||| 0.6 0.2 0.2 0.6 0.2 0.2
က လ လ ရည် ||| ka- la- la. jei ||| 0.6 0.2 0.2 0.6 0.2 0.2
က လ လ ရည် ကြည် ||| ka- la- la. jei gyi ||| 0.6 0.2 0.2 0.6 0.2 0.2
က လ အော် ||| ka- la- o ||| 0.6 0.2 0.2 0.6 0.2 0.2
က လက် ||| ka- le&apos; ||| 0.777778 0.111111 0.111111 0.777778 0.111111 0.111111
က လစ် ||| ka- li&apos; ||| 0.714286 0.142857 0.142857 0.714286 0.142857 0.142857
က လည် ||| ka- le ||| 0.6 0.2 0.2 0.6 0.2 0.2
က လည် ||| ka. le ||| 0.6 0.2 0.2 0.6 0.2 0.2
က လည် လုပ် ||| ka- le lou&apos; ||| 0.6 0.2 0.2 0.6 0.2 0.2
က လတ် ||| ka- la&apos; ||| 0.818182 0.0909091 0.0909091 0.818182 0.0909091 0.0909091
က လတ် ပေ ||| ka- la&apos; pei ||| 0.714286 0.142857 0.142857 0.714286 0.142857 0.142857
က လတ် ပေ က ||| ka- la&apos; pei ka- ||| 0.714286 0.142857 0.142857 0.714286 0.142857 0.142857
က လတ် ပေ က လတ် ||| ka- la&apos; pei ka- la&apos; ||| 0.714286 0.142857 0.142857 0.714286 0.142857 0.142857
က လတ် လုပ် ||| ka- la&apos; lou&apos; ||| 0.6 0.2 0.2 0.6 0.2 0.2
က လန် ||| ga- lan ||| 0.6 0.2 0.2 0.6 0.2 0.2
က လန် က ||| ga- lan ga- ||| 0.6 0.2 0.2 0.6 0.2 0.2
က လန် က ဆန် ||| ga- lan ga- hsan ||| 0.6 0.2 0.2 0.6 0.2 0.2
က လပ် ||| ka la&apos; ||| 0.6 0.2 0.2 0.6 0.2 0.2
က လပ် ||| ka- la&apos; ||| 0.846154 0.0769231 0.0769231 0.846154 0.0769231 0.0769231
က လပ် ကြိုး ||| ka- la&apos; kyou: ||| 0.6 0.2 0.2 0.6 0.2 0.2
က လပ် ကြီး ||| ka- la&apos; kyi: ||| 0.6 0.2 0.2 0.6 0.2 0.2
က လပ် ကြီး ကြိုး ||| ka- la&apos; kyi: kyou: ||| 0.6 0.2 0.2 0.6 0.2 0.2
က လပ် ငယ် ||| ka- la&apos; nge ||| 0.6 0.2 0.2 0.6 0.2 0.2
က လပ် ငယ် ကြိုး ||| ka- la&apos; nge kyou: ||| 0.6 0.2 0.2 0.6 0.2 0.2
က လယ် ||| ka- le ||| 0.714286 0.142857 0.142857 0.714286 0.142857 0.142857
က လယ် က ||| ka- le ka- ||| 0.6 0.2 0.2 0.6 0.2 0.2
က လယ် က လယ် ||| ka- le ka- le ||| 0.6 0.2 0.2 0.6 0.2 0.2
က လယ် က လယ် ဖြစ် ||| ka- le ka- le hpji&apos; ||| 0.6 0.2 0.2 0.6 0.2 0.2
က လယ် ဖြစ် ||| ka- le hpji&apos; ||| 0.6 0.2 0.2 0.6 0.2 0.2
က လာ ||| ga- la ||| 0.6 0.2 0.2 0.6 0.2 0.2
က လာပ် ||| ka- la&apos; ||| 0.818182 0.0909091 0.0909091 0.818182 0.0909091 0.0909091
က လာပ် ကျော် ||| ka- la&apos; kyo ||| 0.6 0.2 0.2 0.6 0.2 0.2
က လာပ် စည်း ||| ka- la&apos; si: ||| 0.714286 0.142857 0.142857 0.714286 0.142857 0.142857
က လား ||| ka- la: ||| 0.777778 0.111111 0.111111 0.777778 0.111111 0.111111
က လိ ||| ga- li. ||| 0.6 0.2 0.2 0.6 0.2 0.2
က လိ ||| ka- li. ||| 0.818182 0.0909091 0.0909091 0.818182 0.0909091 0.0909091
က လိ ထိုး ||| ga- li. htou: ||| 0.6 0.2 0.2 0.6 0.2 0.2
က လိ ယ ||| ka- li. ja. ||| 0.714286 0.142857 0.142857 0.714286 0.142857 0.142857
က လိ ယ ဓာတ် ||| ka- li. ja. da&apos; ||| 0.6 0.2 0.2 0.6 0.2 0.2
က လိ ယ ဓာတ် ပေါင်း ||| ka- li. ja. da&apos; paun: ||| 0.6 0.2 0.2 0.6 0.2 0.2
က လိ အာ ||| ka- li. a ||| 0.6 0.2 0.2 0.6 0.2 0.2
က လိန်း ||| ka- lein: ||| 0.6 0.2 0.2 0.6 0.2 0.2
က လိန်း က ||| ka- lein: ka- ||| 0.6 0.2 0.2 0.6 0.2 0.2
က လိန်း က လက် ||| ka- lein: ka- le&apos; ||| 0.6 0.2 0.2 0.6 0.2 0.2
က လိမ် ||| ka- lein ||| 0.846154 0.0769231 0.0769231 0.846154 0.0769231 0.0769231
က လိမ် က ||| ka- lein ka- ||| 0.6 0.2 0.2 0.6 0.2 0.2
က လိမ် က လည် ||| ka- lein ka- le ||| 0.6 0.2 0.2 0.6 0.2 0.2
က လိမ် က လည် လုပ် ||| ka- lein ka- le lou&apos; ||| 0.6 0.2 0.2 0.6 0.2 0.2
က လိမ် ကျ ||| ka- lein kya. ||| 0.6 0.2 0.2 0.6 0.2 0.2
က လိမ် စေ့ ||| ka- lein zei. ||| 0.6 0.2 0.2 0.6 0.2 0.2
က လိမ် စေ့ ||| ka- lein zi. ||| 0.6 0.2 0.2 0.6 0.2 0.2
က လိမ် စေ့ ငြမ်း ||| ka- lein zei. njan: ||| 0.6 0.2 0.2 0.6 0.2 0.2
က လိမ် စေ့ ငြမ်း ||| ka- lein zi. njan: ||| 0.6 0.2 0.2 0.6 0.2 0.2
က လိမ် စေ့ ငြမ်း ဆင် ||| ka- lein zei. njan: hsin ||| 0.6 0.2 0.2 0.6 0.2 0.2
က လိမ် စေ့ ငြမ်း ဆင် ||| ka- lein zi. njan: hsin ||| 0.6 0.2 0.2 0.6 0.2 0.2
က လို ||| ga- lou ||| 0.6 0.2 0.2 0.6 0.2 0.2
က လီ ||| ka- li ||| 0.6 0.2 0.2 0.6 0.2 0.2
က လီ စာ ||| ka- li za ||| 0.6 0.2 0.2 0.6 0.2 0.2
က လုံ ||| ka- loun ||| 0.6 0.2 0.2 0.6 0.2 0.2
က လုံး ||| ka- loun: ||| 0.6 0.2 0.2 0.6 0.2 0.2
က လူ ||| ka lu ||| 0.6 0.2 0.2 0.6 0.2 0.2
က လူ ||| ka- lu ||| 0.818182 0.0909091 0.0909091 0.818182 0.0909091 0.0909091
က လူ ချေး ||| ka- lu chei: ||| 0.6 0.2 0.2 0.6 0.2 0.2
က လူ ချေး က ||| ka- lu chei: ka- ||| 0.6 0.2 0.2 0.6 0.2 0.2
က လူ ချေး က လူ ||| ka- lu chei: ka- lu ||| 0.6 0.2 0.2 0.6 0.2 0.2
က လူ ပြု ||| ka- lu pju. ||| 0.6 0.2 0.2 0.6 0.2 0.2
က လူး ||| ka- lu: ||| 0.6 0.2 0.2 0.6 0.2 0.2
က လူး ဆန် ||| ka- lu: hsan ||| 0.6 0.2 0.2 0.6 0.2 0.2
က လူး ဆန် ပျာ ||| ka- lu: hsan bja ||| 0.6 0.2 0.2 0.6 0.2 0.2
က လေ ||| ga- lei ||| 0.6 0.2 0.2 0.6 0.2 0.2
က လေ ||| ka- lei ||| 0.6 0.2 0.2 0.6 0.2 0.2
က လေ က ||| ga- lei ga- ||| 0.6 0.2 0.2 0.6 0.2 0.2
က လေ က ||| ka- lei ka- ||| 0.6 0.2 0.2 0.6 0.2 0.2
က လေ က ချေ ||| ga- lei ga- chei ||| 0.6 0.2 0.2 0.6 0.2 0.2
က လေ က လွင့် ||| ka- lei ka- lwin. ||| 0.6 0.2 0.2 0.6 0.2 0.2
က လောင် ||| ka- laun ||| 0.882353 0.0588235 0.0588235 0.882353 0.0588235 0.0588235
က လောင် တံ ||| ka- laun dan ||| 0.6 0.2 0.2 0.6 0.2 0.2
က လောင် နာ ||| ka- laun na ||| 0.6 0.2 0.2 0.6 0.2 0.2
က လောင် နာ မည် ||| ka- laun na me ||| 0.6 0.2 0.2 0.6 0.2 0.2
က လောင် ရှင် ||| ka- laun shin ||| 0.6 0.2 0.2 0.6 0.2 0.2
က လောင် သွား ||| ka- laun dhwa: ||| 0.6 0.2 0.2 0.6 0.2 0.2
က လော် ||| ga- lo ||| 0.714286 0.142857 0.142857 0.714286 0.142857 0.142857
က လော် ||| ka- lo ||| 0.714286 0.142857 0.142857 0.714286 0.142857 0.142857
က လော် ဆဲ ||| ka- lo hse: ||| 0.6 0.2 0.2 0.6 0.2 0.2
က လေး ||| ga- lei: ||| 0.939394 0.030303 0.030303 0.939394 0.030303 0.030303
က လေး ||| ka- lei: ||| 0.866667 0.0666667 0.0666667 0.866667 0.0666667 0.0666667
က လေး ||| kha- lei: ||| 0.866667 0.0666667 0.0666667 0.866667 0.0666667 0.0666667
က လေး က ||| ka- lei: ka- ||| 0.6 0.2 0.2 0.6 0.2 0.2
က လေး က လား ||| ka- lei: ka- la: ||| 0.6 0.2 0.2 0.6 0.2 0.2
က လေး စာ ||| kha- lei: sa ||| 0.6 0.2 0.2 0.6 0.2 0.2
က လေး စာ ပေ ||| kha- lei: sa pei ||| 0.6 0.2 0.2 0.6 0.2 0.2
က လေး ဖျက် ||| kha- lei: hpje&apos; ||| 0.6 0.2 0.2 0.6 0.2 0.2
က လေး ရှိ ||| kha- lei: shi. ||| 0.6 0.2 0.2 0.6 0.2 0.2
က လေး သူ ||| kha- lei: tha- ||| 0.6 0.2 0.2 0.6 0.2 0.2
က လေး သူ ငယ် ||| kha- lei: tha- nge ||| 0.6 0.2 0.2 0.6 0.2 0.2
က လဲ ||| ka- le: ||| 0.6 0.2 0.2 0.6 0.2 0.2
က လဲ ဆန် ||| ka- le: hsan ||| 0.6 0.2 0.2 0.6 0.2 0.2
က လဲ ဆန် ပျာ ||| ka- le: hsan bja ||| 0.6 0.2 0.2 0.6 0.2 0.2
က လဲ့ ||| ga- le. ||| 0.714286 0.142857 0.142857 0.714286 0.142857 0.142857
က လဲ့ စား ||| ga- le. za: ||| 0.6 0.2 0.2 0.6 0.2 0.2
က လဲ့ စား ချေ ||| ga- le. za: chei ||| 0.6 0.2 0.2 0.6 0.2 0.2
က လံ ||| ka- lan ||| 0.6 0.2 0.2 0.6 0.2 0.2
က လျ ||| ka- ja. ||| 0.714286 0.142857 0.142857 0.714286 0.142857 0.142857
က လျ ||| ka- lja. ||| 0.6 0.2 0.2 0.6 0.2 0.2
က လျ ပြော ||| ka- ja. pjo: ||| 0.6 0.2 0.2 0.6 0.2 0.2
က လျ ပြော ||| ka- lja. pjo: ||| 0.6 0.2 0.2 0.6 0.2 0.2
က လျ လုပ် ||| ka- ja. lou&apos; ||| 0.6 0.2 0.2 0.6 0.2 0.2
က လျာ ||| ka- lja ||| 0.6 0.2 0.2 0.6 0.2 0.2
က လျား ||| ga- ja: ||| 0.6 0.2 0.2 0.6 0.2 0.2
က လွင့် ||| ka- lwin. ||| 0.6 0.2 0.2 0.6 0.2 0.2
က ဝဏ် ||| ka. wa- ||| 0.6 0.2 0.2 0.6 0.2 0.2
က ဝဏ် ဏ ||| ka. wa- na. ||| 0.6 0.2 0.2 0.6 0.2 0.2
က ဝဏ် ဏ ဘာ ||| ka. wa- na. ba ||| 0.6 0.2 0.2 0.6 0.2 0.2
က ဝဏ် ဏ ဘာ သာ ||| ka. wa- na. ba dha ||| 0.6 0.2 0.2 0.6 0.2 0.2
က ဝတ် ||| ga- wu&apos; ||| 0.6 0.2 0.2 0.6 0.2 0.2
က ဝတ် ||| ka- wu&apos; ||| 0.6 0.2 0.2 0.6 0.2 0.2
က ဝါက် ||| ka- we&apos; ||| 0.6 0.2 0.2 0.6 0.2 0.2
က ဝါး ||| ga- wa: ||| 0.6 0.2 0.2 0.6 0.2 0.2
က ဝိ ||| ka- wi. ||| 0.6 0.2 0.2 0.6 0.2 0.2
က ဝိ ||| ka. wi. ||| 0.6 0.2 0.2 0.6 0.2 0.2
က ဝိ ဓ ||| ka. wi. da. ||| 0.6 0.2 0.2 0.6 0.2 0.2
က ဝိ ဓ နာမ် ||| ka. wi. da. nan ||| 0.6 0.2 0.2 0.6 0.2 0.2
က ဝိန် ||| ka- wein ||| 0.6 0.2 0.2 0.6 0.2 0.2
က ဝုစ် ||| ga- wou&apos; ||| 0.6 0.2 0.2 0.6 0.2 0.2
က ဝုစ် ကိန်း ||| ga- wou&apos; kein: ||| 0.6 0.2 0.2 0.6 0.2 0.2
က ဝုတ် ||| ga- wou&apos; ||| 0.6 0.2 0.2 0.6 0.2 0.2
က ဝုတ် တိ ||| ga- wou&apos; ti. ||| 0.6 0.2 0.2 0.6 0.2 0.2
က ဝုတ် တိ အ ||| ga- wou&apos; ti. a- ||| 0.6 0.2 0.2 0.6 0.2 0.2
က ဝုတ် တိ အ လင် ||| ga- wou&apos; ti. a- lin ||| 0.6 0.2 0.2 0.6 0.2 0.2
က ဝေ ||| ka- wei ||| 0.6 0.2 0.2 0.6 0.2 0.2
က ဝေါ ||| ka. wo: ||| 0.6 0.2 0.2 0.6 0.2 0.2
က ဝေါ ဟာ ||| ka. wo: ha ||| 0.6 0.2 0.2 0.6 0.2 0.2
က ဝေါ ဟာ ရ ||| ka. wo: ha ra. ||| 0.6 0.2 0.2 0.6 0.2 0.2
က သ ||| ka. dha- ||| 0.777778 0.111111 0.111111 0.777778 0.111111 0.111111
က သ ပေါင်း ||| ka. dha- baun: ||| 0.6 0.2 0.2 0.6 0.2 0.2
က သ ဖိုး ||| ka. dha- bou: ||| 0.6 0.2 0.2 0.6 0.2 0.2
က သ ဘာ ||| ka. dha- ba ||| 0.6 0.2 0.2 0.6 0.2 0.2
က သ ဘာ ဝ ||| ka. dha- ba wa. ||| 0.6 0.2 0.2 0.6 0.2 0.2
က သင် ||| ka. thin ||| 0.6 0.2 0.2 0.6 0.2 0.2
က သင် ကေ ||| ka. thin kei ||| 0.6 0.2 0.2 0.6 0.2 0.2
က သင် ကေ တ ||| ka. thin kei ta. ||| 0.6 0.2 0.2 0.6 0.2 0.2
က သစ် ||| ka- thi&apos; ||| 0.714286 0.142857 0.142857 0.714286 0.142857 0.142857
က သည်း ||| ka- the: ||| 0.6 0.2 0.2 0.6 0.2 0.2
က သမ် ||| ka. tha- ||| 0.6 0.2 0.2 0.6 0.2 0.2
က သမ် မု ||| ka. tha- mu. ||| 0.6 0.2 0.2 0.6 0.2 0.2
က သမ် မု တိ ||| ka. tha- mu. di. ||| 0.6 0.2 0.2 0.6 0.2 0.2
က သမ် မု တိ နတ် ||| ka. tha- mu. di. na&apos; ||| 0.6 0.2 0.2 0.6 0.2 0.2
က သယ် ||| ka- the ||| 0.6 0.2 0.2 0.6 0.2 0.2
က သာ ||| ga- tha ||| 0.6 0.2 0.2 0.6 0.2 0.2
က သား ||| ka. dha: ||| 0.6 0.2 0.2 0.6 0.2 0.2
က သိ ||| ka thi. ||| 0.6 0.2 0.2 0.6 0.2 0.2
က သိ က ||| ka thi. ka- ||| 0.6 0.2 0.2 0.6 0.2 0.2
က သိ က အောက် ||| ka thi. ka- au&apos; ||| 0.6 0.2 0.2 0.6 0.2 0.2
က သိ က အောက် ဖြစ် ||| ka thi. ka- au&apos; hpji&apos; ||| 0.6 0.2 0.2 0.6 0.2 0.2
က သိုဏ်း ||| ka- thain: ||| 0.714286 0.142857 0.142857 0.714286 0.142857 0.142857
က သိုဏ်း ရှု ||| ka- thain: shu. ||| 0.6 0.2 0.2 0.6 0.2 0.2
က သိုလ် ||| ka- tho ||| 0.6 0.2 0.2 0.6 0.2 0.2
က သိုလ် ||| ka- thou ||| 0.6 0.2 0.2 0.6 0.2 0.2
က သီ ||| ka- thi ||| 0.846154 0.0769231 0.0769231 0.846154 0.0769231 0.0769231
က သီ က ||| ka- thi ga- ||| 0.6 0.2 0.2 0.6 0.2 0.2
က သီ က ရီ ||| ka- thi ga- ji ||| 0.6 0.2 0.2 0.6 0.2 0.2
က သီ လင် ||| ka- thi lin ||| 0.6 0.2 0.2 0.6 0.2 0.2
က သီ လင် တ ||| ka- thi lin da. ||| 0.6 0.2 0.2 0.6 0.2 0.2
က သုတ် ||| ka- thou&apos; ||| 0.6 0.2 0.2 0.6 0.2 0.2
က သုတ် က ||| ka- thou&apos; ka- ||| 0.6 0.2 0.2 0.6 0.2 0.2
က သုတ် က ရက် ||| ka- thou&apos; ka- je&apos; ||| 0.6 0.2 0.2 0.6 0.2 0.2
က သုံး ||| ga- dhoun: ||| 0.714286 0.142857 0.142857 0.714286 0.142857 0.142857
က သုံး တောင် ||| ga- dhoun: taun ||| 0.6 0.2 0.2 0.6 0.2 0.2
က သုံး တောင် ဝှေး ||| ga- dhoun: taun mwei: ||| 0.6 0.2 0.2 0.6 0.2 0.2
က သော ||| ka- tho: ||| 0.6 0.2 0.2 0.6 0.2 0.2
က သော က ||| ka- tho: ga- ||| 0.6 0.2 0.2 0.6 0.2 0.2
က သော က မျော ||| ka- tho: ga- mjo: ||| 0.6 0.2 0.2 0.6 0.2 0.2
က သောင်း ||| ka- thaun: ||| 0.714286 0.142857 0.142857 0.714286 0.142857 0.142857
က သောင်း က ||| ka- thaun: ga- ||| 0.6 0.2 0.2 0.6 0.2 0.2
က သောင်း က နင်း ||| ka- thaun: ga- nin: ||| 0.6 0.2 0.2 0.6 0.2 0.2
က သောင်း မြောင် ||| ka- thaun: mjaun ||| 0.6 0.2 0.2 0.6 0.2 0.2
က သောင်း မြောင် တိုက် ||| ka- thaun: mjaun dai&apos; ||| 0.6 0.2 0.2 0.6 0.2 0.2
က ဟုတ် ||| ka. hou&apos; ||| 0.6 0.2 0.2 0.6 0.2 0.2
က ဟုတ် က ||| ka. hou&apos; ka. ||| 0.6 0.2 0.2 0.6 0.2 0.2
က အ ||| ga. a- ||| 0.6 0.2 0.2 0.6 0.2 0.2
က အ ||| ka. a- ||| 0.6 0.2 0.2 0.6 0.2 0.2
က အ လင် ||| ka. a- lin ||| 0.6 0.2 0.2 0.6 0.2 0.2
က အ လင် ကာ ||| ka. a- lin ga ||| 0.6 0.2 0.2 0.6 0.2 0.2
က အ သ ||| ga. a- dha- ||| 0.6 0.2 0.2 0.6 0.2 0.2
က အ သ က ||| ga. a- dha- ga. ||| 0.6 0.2 0.2 0.6 0.2 0.2
က အောက် ||| ka- au&apos; ||| 0.6 0.2 0.2 0.6 0.2 0.2
က အောက် ဖြစ် ||| ka- au&apos; hpji&apos; ||| 0.6 0.2 0.2 0.6 0.2 0.2
က ဿ ||| ka&apos; tha- ||| 0.714286 0.142857 0.142857 0.714286 0.142857 0.142857
က ဿ ပ ||| ka&apos; tha- hpa ||| 0.6 0.2 0.2 0.6 0.2 0.2
က ဿ ပ ||| ka&apos; tha- pa. ||| 0.6 0.2 0.2 0.6 0.2 0.2
ကက် ||| ke&apos; ||| 0.945946 0.027027 0.027027 0.945946 0.027027 0.027027
ကက် က ||| ke&apos; ka- ||| 0.6 0.2 0.2 0.6 0.2 0.2
ကက် က ရာ ||| ke&apos; ka- ra. ||| 0.6 0.2 0.2 0.6 0.2 0.2
ကက် ကက် ||| ke&apos; ke&apos; ||| 0.6 0.2 0.2 0.6 0.2 0.2
ကက် ကက် လန် ||| ke&apos; ke&apos; lan ||| 0.6 0.2 0.2 0.6 0.2 0.2
ကက် ကင်း ||| ke&apos; kin: ||| 0.6 0.2 0.2 0.6 0.2 0.2
ကက် ကင်း ဓာတ် ||| ke&apos; kin: da&apos; ||| 0.6 0.2 0.2 0.6 0.2 0.2
ကက် ကု ||| ke&apos; ga- ||| 0.6 0.2 0.2 0.6 0.2 0.2
ကက် ကု ||| ke&apos; ku. ||| 0.6 0.2 0.2 0.6 0.2 0.2
ကက် ကု က ||| ke&apos; ku. ka- ||| 0.6 0.2 0.2 0.6 0.2 0.2
ကက် ကု က မျဉ်း ||| ke&apos; ku. ka- mjin: ||| 0.6 0.2 0.2 0.6 0.2 0.2
ကက် ကု ဆူး ||| ke&apos; ga- zu: ||| 0.6 0.2 0.2 0.6 0.2 0.2
ကက် ကော် ||| ke&apos; ko ||| 0.6 0.2 0.2 0.6 0.2 0.2
ကက် ကော် တ ||| ke&apos; ko da- ||| 0.6 0.2 0.2 0.6 0.2 0.2
ကက် ကော် တ ကန် ||| ke&apos; ko da- gan ||| 0.6 0.2 0.2 0.6 0.2 0.2
ကက် ဆက် ||| ke&apos; hse&apos; ||| 0.6 0.2 0.2 0.6 0.2 0.2
ကက် ဆွဲ ||| ke&apos; hswe: ||| 0.6 0.2 0.2 0.6 0.2 0.2
ကက် ပေါင် ||| ke&apos; baun ||| 0.6 0.2 0.2 0.6 0.2 0.2
ကက် ဗိ ||| ke&apos; bi. ||| 0.6 0.2 0.2 0.6 0.2 0.2
ကက် ဗိ နက် ||| ke&apos; bi. nei&apos; ||| 0.6 0.2 0.2 0.6 0.2 0.2
ကက် ဘော ||| ke&apos; bo: ||| 0.6 0.2 0.2 0.6 0.2 0.2
ကက် ရိုက် ||| ke&apos; jai&apos; ||| 0.6 0.2 0.2 0.6 0.2 0.2
ကက် လန် ||| ke&apos; lan ||| 0.6 0.2 0.2 0.6 0.2 0.2
ကက် သ ||| ke&apos; tha- ||| 0.6 0.2 0.2 0.6 0.2 0.2
ကက် သ လစ် ||| ke&apos; tha- li&apos; ||| 0.6 0.2 0.2 0.6 0.2 0.2
ကက် သီး ||| ke&apos; thi: ||| 0.6 0.2 0.2 0.6 0.2 0.2
ကဂ် ||| ke&apos; ||| 0.6 0.2 0.2 0.6 0.2 0.2
ကဂ် ဂ ||| ke&apos; ga- ||| 0.6 0.2 0.2 0.6 0.2 0.2
ကဂ် ဂ တာ ||| ke&apos; ga- ta ||| 0.6 0.2 0.2 0.6 0.2 0.2
ကင် ||| gin ||| 0.904762 0.047619 0.047619 0.904762 0.047619 0.047619
ကင် ||| ka- ||| 0.6 0.2 0.2 0.6 0.2 0.2
ကင် ||| kin ||| 0.939394 0.030303 0.030303 0.939394 0.030303 0.030303
ကင် ကာ ||| kin ga ||| 0.6 0.2 0.2 0.6 0.2 0.2
ကင် ကြိုး ||| gin gyou: ||| 0.6 0.2 0.2 0.6 0.2 0.2
ကင် ဆာ ||| kin hsa ||| 0.6 0.2 0.2 0.6 0.2 0.2
ကင် ဆေး ||| kin zei: ||| 0.6 0.2 0.2 0.6 0.2 0.2
ကင် ဓူ ||| kin du ||| 0.6 0.2 0.2 0.6 0.2 0.2
ကင် ဓူ တင် ||| kin du din ||| 0.6 0.2 0.2 0.6 0.2 0.2
ကင် ပိမ့် ||| gin bein. ||| 0.6 0.2 0.2 0.6 0.2 0.2
ကင် ပိမ့် ||| kin bein. ||| 0.6 0.2 0.2 0.6 0.2 0.2
ကင် ပိုက် ||| gin pai&apos; ||| 0.6 0.2 0.2 0.6 0.2 0.2
ကင် ပေ ||| kin pei ||| 0.6 0.2 0.2 0.6 0.2 0.2
ကင် ပေ တိုင် ||| kin pei tain ||| 0.6 0.2 0.2 0.6 0.2 0.2
ကင် ပျစ် ||| kin bji&apos; ||| 0.6 0.2 0.2 0.6 0.2 0.2
ကင် ပွန်း ||| ka- mun: ||| 0.6 0.2 0.2 0.6 0.2 0.2
ကင် ပွန်း ||| kin bun: ||| 0.714286 0.142857 0.142857 0.714286 0.142857 0.142857
ကင် ပွန်း ||| kin mun ||| 0.6 0.2 0.2 0.6 0.2 0.2
ကင် ပွန်း ||| kin mun: ||| 0.6 0.2 0.2 0.6 0.2 0.2
ကင် ပွန်း တပ် ||| ka- mun: da&apos; ||| 0.6 0.2 0.2 0.6 0.2 0.2
ကင် ပွန်း တပ် ||| kin bun: ta&apos; ||| 0.6 0.2 0.2 0.6 0.2 0.2
ကင် ပွန်း တပ် ||| kin mun ta&apos; ||| 0.6 0.2 0.2 0.6 0.2 0.2
ကင် ဘား ||| gin ba: ||| 0.6 0.2 0.2 0.6 0.2 0.2
ကင် ဘုံ ||| gin boun ||| 0.6 0.2 0.2 0.6 0.2 0.2
ကင်း ||| gin: ||| 0.95122 0.0243902 0.0243902 0.95122 0.0243902 0.0243902
ကင်း ||| kin: ||| 0.981651 0.00917431 0.00917431 0.981651 0.00917431 0.00917431
ကင်း ကပ် ||| gin: ga&apos; ||| 0.714286 0.142857 0.142857 0.714286 0.142857 0.142857
ကင်း ကွာ ||| kin: kwa ||| 0.6 0.2 0.2 0.6 0.2 0.2
ကင်း ခြေ ||| kin: chi ||| 0.6 0.2 0.2 0.6 0.2 0.2
ကင်း ခြေ များ ||| kin: chi mja: ||| 0.6 0.2 0.2 0.6 0.2 0.2
ကင်း ငြိမ်း ||| kin: njein: ||| 0.6 0.2 0.2 0.6 0.2 0.2
ကင်း စ ||| gin: za. ||| 0.6 0.2 0.2 0.6 0.2 0.2
ကင်း စင် ||| kin: sin ||| 0.6 0.2 0.2 0.6 0.2 0.2
ကင်း စမ်း ||| kin: zan: ||| 0.714286 0.142857 0.142857 0.714286 0.142857 0.142857
ကင်း စမ်း ထိုး ||| kin: zan: htou: ||| 0.6 0.2 0.2 0.6 0.2 0.2
ကင်း စမ်း လေ ||| kin: zan: lei ||| 0.6 0.2 0.2 0.6 0.2 0.2
ကင်း စီး ||| kin: si: ||| 0.6 0.2 0.2 0.6 0.2 0.2
ကင်း စုန်း ||| kin: zoun: ||| 0.6 0.2 0.2 0.6 0.2 0.2
ကင်း စောင့် ||| kin: saun. ||| 0.6 0.2 0.2 0.6 0.2 0.2
ကင်း စောင့် ||| kin: zaun. ||| 0.6 0.2 0.2 0.6 0.2 0.2
ကင်း တ ||| kin: ta- ||| 0.6 0.2 0.2 0.6 0.2 0.2
ကင်း တ ရား ||| kin: ta- ja: ||| 0.6 0.2 0.2 0.6 0.2 0.2
ကင်း တက် ||| kin: te&apos; ||| 0.6 0.2 0.2 0.6 0.2 0.2
ကင်း တို ||| kin: dou ||| 0.6 0.2 0.2 0.6 0.2 0.2
ကင်း တဲ ||| kin: de: ||| 0.6 0.2 0.2 0.6 0.2 0.2
ကင်း ထောက် ||| kin: dau&apos; ||| 0.6 0.2 0.2 0.6 0.2 0.2
ကင်း ထောက် ||| kin: htau&apos; ||| 0.6 0.2 0.2 0.6 0.2 0.2
ကင်း ထောက် လေ ||| kin: dau&apos; lei ||| 0.6 0.2 0.2 0.6 0.2 0.2
ကင်း ထောက် လေ ယာဉ် ||| kin: dau&apos; lei jin ||| 0.6 0.2 0.2 0.6 0.2 0.2
ကင်း ဓာတ် ||| kin: da&apos; ||| 0.6 0.2 0.2 0.6 0.2 0.2
ကင်း နား ||| kin: na- ||| 0.6 0.2 0.2 0.6 0.2 0.2
ကင်း နား သန် ||| kin: na- than ||| 0.6 0.2 0.2 0.6 0.2 0.2
ကင်း ပ ||| kin: pa. ||| 0.6 0.2 0.2 0.6 0.2 0.2
ကင်း ပါး ||| kin: ba: ||| 0.6 0.2 0.2 0.6 0.2 0.2
ကင်း ပိတ် ||| gin: bei&apos; ||| 0.6 0.2 0.2 0.6 0.2 0.2
ကင်း ပု ||| kin: ba- ||| 0.6 0.2 0.2 0.6 0.2 0.2
ကင်း ပု စွန် ||| kin: ba- zun ||| 0.6 0.2 0.2 0.6 0.2 0.2
ကင်း ပုံ ||| kin: boun ||| 0.6 0.2 0.2 0.6 0.2 0.2
ကင်း ပူ ||| gin: bu ||| 0.6 0.2 0.2 0.6 0.2 0.2
ကင်း ပူ တိုက် ||| gin: bu tai&apos; ||| 0.6 0.2 0.2 0.6 0.2 0.2
ကင်း ပဲ့ ||| gin: be. ||| 0.6 0.2 0.2 0.6 0.2 0.2
ကင်း ဗတ် ||| kin: ba&apos; ||| 0.6 0.2 0.2 0.6 0.2 0.2
ကင်း မျိုး ||| kin: mjou: ||| 0.6 0.2 0.2 0.6 0.2 0.2
ကင်း မျိုး ရိပ် ||| kin: mjou: jei&apos; ||| 0.6 0.2 0.2 0.6 0.2 0.2
ကင်း မျိုး ရိပ် မ ||| kin: mjou: jei&apos; ma- ||| 0.6 0.2 0.2 0.6 0.2 0.2
ကင်း မျိုး ရိပ် မ ကင်း ||| kin: mjou: jei&apos; ma- kin: ||| 0.6 0.2 0.2 0.6 0.2 0.2
ကင်း မြီး ||| kin: mi: ||| 0.6 0.2 0.2 0.6 0.2 0.2
ကင်း မြီး ကောက် ||| kin: mi: gau&apos; ||| 0.6 0.2 0.2 0.6 0.2 0.2
ကင်း မြီး ကောက် ထောင် ||| kin: mi: gau&apos; htaun ||| 0.6 0.2 0.2 0.6 0.2 0.2
ကင်း မွန် ||| kin: mun ||| 0.6 0.2 0.2 0.6 0.2 0.2
ကင်း မှောင့် ||| kin: mhaun. ||| 0.6 0.2 0.2 0.6 0.2 0.2
ကင်း ရန် ||| gin: jan ||| 0.6 0.2 0.2 0.6 0.2 0.2
ကင်း ရန် ကင်း ||| gin: jan gin: ||| 0.6 0.2 0.2 0.6 0.2 0.2
ကင်း ရှင်း ||| kin: shin: ||| 0.6 0.2 0.2 0.6 0.2 0.2
ကင်း ရှည် ||| kin: shei ||| 0.6 0.2 0.2 0.6 0.2 0.2
ကင်း လိပ် ||| kin: lei&apos; ||| 0.6 0.2 0.2 0.6 0.2 0.2
ကင်း လိပ် ချော ||| kin: lei&apos; cho: ||| 0.6 0.2 0.2 0.6 0.2 0.2
ကင်း လျှောက် ||| kin: shau&apos; ||| 0.6 0.2 0.2 0.6 0.2 0.2
ကင်း လွတ် ||| kin: lu&apos; ||| 0.714286 0.142857 0.142857 0.714286 0.142857 0.142857
ကင်း လွတ် ခွင့် ||| kin: lu&apos; khwin. ||| 0.6 0.2 0.2 0.6 0.2 0.2
ကင်း လှည့် ||| kin: lhe. ||| 0.6 0.2 0.2 0.6 0.2 0.2
ကင်း ဝပ် ||| kin: wu&apos; ||| 0.6 0.2 0.2 0.6 0.2 0.2
ကင်း ဝေး ||| kin: wei: ||| 0.6 0.2 0.2 0.6 0.2 0.2
ကင်း သ ||| kin: dha- ||| 0.6 0.2 0.2 0.6 0.2 0.2
ကင်း သ မား ||| kin: dha- ma: ||| 0.6 0.2 0.2 0.6 0.2 0.2
ကင်း သည် ||| gin: dhe ||| 0.6 0.2 0.2 0.6 0.2 0.2
ကင်း သာ ||| kin: dha ||| 0.6 0.2 0.2 0.6 0.2 0.2
ကင်း သေ ||| kin: thei ||| 0.6 0.2 0.2 0.6 0.2 0.2
ကင်း သဲ ||| kin: the: ||| 0.6 0.2 0.2 0.6 0.2 0.2
ကင်း သဲ လဲ ||| kin: the: le: ||| 0.6 0.2 0.2 0.6 0.2 0.2
ကင်း သဲ လဲ စင် ||| kin: the: le: sin ||| 0.6 0.2 0.2 0.6 0.2 0.2
ကစ် ||| ki&apos; ||| 0.818182 0.0909091 0.0909091 0.818182 0.0909091 0.0909091
ကစ် ကစ် ||| ki&apos; ki&apos; ||| 0.6 0.2 0.2 0.6 0.2 0.2
ကစ် စည်း ||| ki&apos; si: ||| 0.714286 0.142857 0.142857 0.714286 0.142857 0.142857
ကဋ် ||| ka&apos; ||| 0.6 0.2 0.2 0.6 0.2 0.2
ကဋ် ||| ka- ||| 0.6 0.2 0.2 0.6 0.2 0.2
ကဋ် ဌ ||| ka- hta. ||| 0.6 0.2 0.2 0.6 0.2 0.2
ကဏ် ||| gan ||| 0.6 0.2 0.2 0.6 0.2 0.2
ကဏ် ||| kan ||| 0.818182 0.0909091 0.0909091 0.818182 0.0909091 0.0909091
ကဏ် ဋ ||| kan da- ||| 0.6 0.2 0.2 0.6 0.2 0.2
ကဏ် ဋ ကော ||| kan da- go: ||| 0.6 0.2 0.2 0.6 0.2 0.2
ကဏ် ဋ ကော စ ||| kan da- go: za. ||| 0.6 0.2 0.2 0.6 0.2 0.2
ကဏ် ဌ ||| kan hta- ||| 0.6 0.2 0.2 0.6 0.2 0.2
ကဏ် ဌ ||| kan hta. ||| 0.6 0.2 0.2 0.6 0.2 0.2
ကဏ် ဌ ဇ ||| kan hta- za ||| 0.6 0.2 0.2 0.6 0.2 0.2
ကဏ် ဌ ဌာန် ||| kan hta. htan ||| 0.6 0.2 0.2 0.6 0.2 0.2
ကဏ် ဍ ||| gan da. ||| 0.6 0.2 0.2 0.6 0.2 0.2
ကဏ် ဏ ||| kan na. ||| 0.6 0.2 0.2 0.6 0.2 0.2
ကဏ် ဏ သု ||| kan na. thu ||| 0.6 0.2 0.2 0.6 0.2 0.2
ကဏ် ဏ သု ခ ||| kan na. thu kha. ||| 0.6 0.2 0.2 0.6 0.2 0.2
ကတ် ||| ga&apos; ||| 0.882353 0.0588235 0.0588235 0.882353 0.0588235 0.0588235
ကတ် ||| ga- ||| 0.714286 0.142857 0.142857 0.714286 0.142857 0.142857
ကတ် ||| ka&apos; ||| 0.977528 0.011236 0.011236 0.977528 0.011236 0.011236
ကတ် ||| ke&apos; ||| 0.6 0.2 0.2 0.6 0.2 0.2
ကတ် ||| kei&apos; ||| 0.6 0.2 0.2 0.6 0.2 0.2
ကတ် ကတ် ||| ka&apos; ka&apos; ||| 0.818182 0.0909091 0.0909091 0.818182 0.0909091 0.0909091
ကတ် ကတ် ကုတ် ||| ka&apos; ka&apos; kou&apos; ||| 0.6 0.2 0.2 0.6 0.2 0.2
ကတ် ကတ် ကုတ် ကုတ် ||| ka&apos; ka&apos; kou&apos; kou&apos; ||| 0.6 0.2 0.2 0.6 0.2 0.2
ကတ် ကတ် သတ် ||| ka&apos; ka&apos; tha&apos; ||| 0.6 0.2 0.2 0.6 0.2 0.2
ကတ် ကတ် သတ် သတ် ||| ka&apos; ka&apos; tha&apos; tha&apos; ||| 0.6 0.2 0.2 0.6 0.2 0.2
ကတ် ကိုင် ||| ka&apos; kain ||| 0.6 0.2 0.2 0.6 0.2 0.2
ကတ် ကုတ် ||| ka&apos; kou&apos; ||| 0.6 0.2 0.2 0.6 0.2 0.2
ကတ် ကုတ် ကုတ် ||| ka&apos; kou&apos; kou&apos; ||| 0.6 0.2 0.2 0.6 0.2 0.2
ကတ် ကြေး ||| ka&apos; kyi: ||| 0.818182 0.0909091 0.0909091 0.818182 0.0909091 0.0909091
ကတ် ကြေး ကိုက် ||| ka&apos; kyi: gai&apos; ||| 0.6 0.2 0.2 0.6 0.2 0.2
ကတ် တ ||| ka&apos; ta&apos; ||| 0.714286 0.142857 0.142857 0.714286 0.142857 0.142857
ကတ် တ ||| ka&apos; ta- ||| 0.714286 0.142857 0.142857 0.714286 0.142857 0.142857
ကတ် တ ရာ ||| ka&apos; ta&apos; ja ||| 0.6 0.2 0.2 0.6 0.2 0.2
ကတ် တ ရာ ||| ka&apos; ta- ja ||| 0.6 0.2 0.2 0.6 0.2 0.2
ကတ် တ ရာ စေး ||| ka&apos; ta&apos; ja zi ||| 0.6 0.2 0.2 0.6 0.2 0.2
ကတ် တ ရီ ||| ka&apos; ta&apos; ji ||| 0.6 0.2 0.2 0.6 0.2 0.2
ကတ် တ ဝါ ||| ka&apos; ta- wa ||| 0.6 0.2 0.2 0.6 0.2 0.2
ကတ် တား ||| ka&apos; ta: ||| 0.714286 0.142857 0.142857 0.714286 0.142857 0.142857
ကတ် တား ခြား ||| ka&apos; ta: cha: ||| 0.6 0.2 0.2 0.6 0.2 0.2
ကတ် တိ ||| kei&apos; ti. ||| 0.6 0.2 0.2 0.6 0.2 0.2
ကတ် တိ မ ||| kei&apos; ti. ma. ||| 0.6 0.2 0.2 0.6 0.2 0.2
ကတ် တိ မ သား ||| kei&apos; ti. ma. tha: ||| 0.6 0.2 0.2 0.6 0.2 0.2
ကတ် တီ ||| ga- di ||| 0.714286 0.142857 0.142857 0.714286 0.142857 0.142857
ကတ် တီ ပါ ||| ga- di ba ||| 0.714286 0.142857 0.142857 0.714286 0.142857 0.142857
ကတ် တီး ||| ka&apos; ti: ||| 0.6 0.2 0.2 0.6 0.2 0.2
ကတ် တီး ကတ် ||| ka&apos; ti: ka&apos; ||| 0.6 0.2 0.2 0.6 0.2 0.2
ကတ် တီး ကတ် ဖဲ့ ||| ka&apos; ti: ka&apos; hpe. ||| 0.6 0.2 0.2 0.6 0.2 0.2
ကတ် တူ ||| ka&apos; tu ||| 0.6 0.2 0.2 0.6 0.2 0.2
ကတ် ထူ ||| ga&apos; htu ||| 0.6 0.2 0.2 0.6 0.2 0.2
ကတ် ထူ ဖုံး ||| ga&apos; htu boun: ||| 0.6 0.2 0.2 0.6 0.2 0.2
ကတ် နာ ||| ka&apos; na ||| 0.6 0.2 0.2 0.6 0.2 0.2
ကတ် ပြား ||| ka&apos; pja: ||| 0.6 0.2 0.2 0.6 0.2 0.2
ကတ် ဖို ||| ka&apos; hpou ||| 0.6 0.2 0.2 0.6 0.2 0.2
ကတ် ဖဲ့ ||| ka&apos; hpe. ||| 0.714286 0.142857 0.142857 0.714286 0.142857 0.142857
ကတ် လုံး ||| ka&apos; loun: ||| 0.6 0.2 0.2 0.6 0.2 0.2
ကတ် သ ||| ke&apos; tha- ||| 0.6 0.2 0.2 0.6 0.2 0.2
ကတ် သ လစ် ||| ke&apos; tha- li&apos; ||| 0.6 0.2 0.2 0.6 0.2 0.2
ကတ် သတ် ||| ka&apos; tha&apos; ||| 0.818182 0.0909091 0.0909091 0.818182 0.0909091 0.0909091
ကတ် သတ် ခံ ||| ka&apos; tha&apos; khan ||| 0.6 0.2 0.2 0.6 0.2 0.2
ကတ် သတ် သတ် ||| ka&apos; tha&apos; tha&apos; ||| 0.6 0.2 0.2 0.6 0.2 0.2
ကတ် သီး ||| ka&apos; thi: ||| 0.6 0.2 0.2 0.6 0.2 0.2
ကတ် သီး ကတ် ||| ka&apos; thi: ka&apos; ||| 0.6 0.2 0.2 0.6 0.2 0.2
ကတ် သီး ကတ် သတ် ||| ka&apos; thi: ka&apos; tha&apos; ||| 0.6 0.2 0.2 0.6 0.2 0.2
ကတ် အိုး ||| ga&apos; ou: ||| 0.714286 0.142857 0.142857 0.714286 0.142857 0.142857
ကတ် အိုး ကွဲ ||| ga&apos; ou: gwe: ||| 0.6 0.2 0.2 0.6 0.2 0.2
ကန့် ||| ga- ||| 0.818182 0.0909091 0.0909091 0.818182 0.0909091 0.0909091
ကန့် ||| gan. ||| 0.846154 0.0769231 0.0769231 0.846154 0.0769231 0.0769231
ကန့် ||| ka- ||| 0.6 0.2 0.2 0.6 0.2 0.2
ကန့် ||| kan ||| 0.714286 0.142857 0.142857 0.714286 0.142857 0.142857
ကန့် ||| kan. ||| 0.953488 0.0232558 0.0232558 0.953488 0.0232558 0.0232558
ကန့် က ||| gan. ga- ||| 0.6 0.2 0.2 0.6 0.2 0.2
ကန့် က လာ ||| gan. ga- la ||| 0.6 0.2 0.2 0.6 0.2 0.2
ကန့် ကွက် ||| kan. gwe&apos; ||| 0.714286 0.142857 0.142857 0.714286 0.142857 0.142857
ကန့် ကွက် လွှာ ||| kan. gwe&apos; lhwa ||| 0.6 0.2 0.2 0.6 0.2 0.2
ကန့် ချုပ် ||| kan gyou&apos; ||| 0.6 0.2 0.2 0.6 0.2 0.2
ကန့် ချုပ် ||| kan. gyou&apos; ||| 0.6 0.2 0.2 0.6 0.2 0.2
ကန့် ချုပ် ညို ||| kan. gyou&apos; njou ||| 0.6 0.2 0.2 0.6 0.2 0.2
ကန့် ချုပ် ဖြူ ||| kan gyou&apos; hpju&apos; ||| 0.6 0.2 0.2 0.6 0.2 0.2
ကန့် ထောက် ||| kan. htau&apos; ||| 0.6 0.2 0.2 0.6 0.2 0.2
ကန့် ပ ||| kan. ba- ||| 0.6 0.2 0.2 0.6 0.2 0.2
ကန့် ပ လူ ||| kan. ba- lu ||| 0.6 0.2 0.2 0.6 0.2 0.2
ကန့် လန့် ||| ga- lan. ||| 0.818182 0.0909091 0.0909091 0.818182 0.0909091 0.0909091
ကန့် လန့် ||| ka- la- ||| 0.6 0.2 0.2 0.6 0.2 0.2
ကန့် လန့် ||| kan lan. ||| 0.6 0.2 0.2 0.6 0.2 0.2
ကန့် လန့် ||| kan. lan. ||| 0.882353 0.0588235 0.0588235 0.882353 0.0588235 0.0588235
ကန့် လန့် ကန့် ||| kan. lan. kan. ||| 0.6 0.2 0.2 0.6 0.2 0.2
ကန့် လန့် ကန့် လန့် ||| kan. lan. kan. lan. ||| 0.6 0.2 0.2 0.6 0.2 0.2
ကန့် လန့် ကာ ||| ka- la- ga. ||| 0.6 0.2 0.2 0.6 0.2 0.2
ကန့် လန့် ကျင် ||| ga- lan. gyin ||| 0.6 0.2 0.2 0.6 0.2 0.2
ကန့် လန့် တိုက် ||| ga- lan. tai&apos; ||| 0.6 0.2 0.2 0.6 0.2 0.2
ကန့် လန့် တိုက် ||| kan. lan. tai&apos; ||| 0.6 0.2 0.2 0.6 0.2 0.2
ကန့် လန့် ထိုး ||| ga- lan. htou: ||| 0.6 0.2 0.2 0.6 0.2 0.2
ကန့် လန့် ဖြတ် ||| kan lan. bja&apos; ||| 0.6 0.2 0.2 0.6 0.2 0.2
ကန့် လန့် ဖြတ် ||| kan. lan. bja&apos; ||| 0.6 0.2 0.2 0.6 0.2 0.2
ကန့် လန့် ဖြတ် မျဉ်း ||| kan. lan. bja&apos; mjin: ||| 0.6 0.2 0.2 0.6 0.2 0.2
ကန့် လန့် သ ||| ga- lan. dha- ||| 0.6 0.2 0.2 0.6 0.2 0.2
ကန့် လန့် သ မား ||| ga- lan. dha- ma: ||| 0.6 0.2 0.2 0.6 0.2 0.2
ကန့် သတ် ||| kan. tha&apos; ||| 0.777778 0.111111 0.111111 0.777778 0.111111 0.111111
ကန့် သတ် ကုန် ||| kan. tha&apos; koun ||| 0.6 0.2 0.2 0.6 0.2 0.2
ကန့် သတ် စစ် ||| kan. tha&apos; si&apos; ||| 0.6 0.2 0.2 0.6 0.2 0.2
ကန့် သတ် စစ် ပွဲ ||| kan. tha&apos; si&apos; pwe: ||| 0.6 0.2 0.2 0.6 0.2 0.2
ကန့် အ ||| kan. a- ||| 0.6 0.2 0.2 0.6 0.2 0.2
ကန့် အ သတ် ||| kan. a- tha&apos; ||| 0.6 0.2 0.2 0.6 0.2 0.2
ကန့် အိတ် ||| kan. ei&apos; ||| 0.6 0.2 0.2 0.6 0.2 0.2
ကန် ||| ga- ||| 0.894737 0.0526316 0.0526316 0.894737 0.0526316 0.0526316
ကန် ||| gan ||| 0.955556 0.0222222 0.0222222 0.955556 0.0222222 0.0222222
ကန် ||| jo ||| 0.6 0.2 0.2 0.6 0.2 0.2
ကန် ||| kan ||| 0.976471 0.0117647 0.0117647 0.976471 0.0117647 0.0117647
ကန် ||| ngan ||| 0.6 0.2 0.2 0.6 0.2 0.2
ကန် ကန် ||| kan gan ||| 0.6 0.2 0.2 0.6 0.2 0.2
ကန် ကန် ||| kan kan ||| 0.6 0.2 0.2 0.6 0.2 0.2
ကန် ကျောက် ||| kan kyau&apos; ||| 0.6 0.2 0.2 0.6 0.2 0.2
ကန် ကြက် ||| ngan kye&apos; ||| 0.6 0.2 0.2 0.6 0.2 0.2
ကန် ကြိုး ||| gan gyou: ||| 0.6 0.2 0.2 0.6 0.2 0.2
ကန် ကြိုး ||| kan gyou: ||| 0.6 0.2 0.2 0.6 0.2 0.2
ကန် ကြိုး ဆက် ||| kan gyou: ze&apos; ||| 0.6 0.2 0.2 0.6 0.2 0.2
ကန် ခွက် ||| gan khwe&apos; ||| 0.6 0.2 0.2 0.6 0.2 0.2
ကန် ခွက် ယောက် ||| gan khwe&apos; jau&apos; ||| 0.6 0.2 0.2 0.6 0.2 0.2
ကန် စောက် ||| gan zau&apos; ||| 0.6 0.2 0.2 0.6 0.2 0.2
ကန် စွန်း ||| ga- zun: ||| 0.818182 0.0909091 0.0909091 0.818182 0.0909091 0.0909091
ကန် စွန်း ကြီး ||| ga- zun: gyi ||| 0.6 0.2 0.2 0.6 0.2 0.2
ကန် စွန်း ဥ ||| ga- zun: u. ||| 0.6 0.2 0.2 0.6 0.2 0.2
ကန် ဆုတ် ||| kan hsou&apos; ||| 0.6 0.2 0.2 0.6 0.2 0.2
ကန် ဆုတ် ကန် ||| kan hsou&apos; kan ||| 0.6 0.2 0.2 0.6 0.2 0.2
ကန် တ ||| gan da. ||| 0.6 0.2 0.2 0.6 0.2 0.2
ကန် တ ||| kan da- ||| 0.6 0.2 0.2 0.6 0.2 0.2
ကန် တ ||| kan ta. ||| 0.6 0.2 0.2 0.6 0.2 0.2
ကန် တ ဉာဏ် ||| gan da. njan ||| 0.6 0.2 0.2 0.6 0.2 0.2
ကန် တ ရိက် ||| kan da- rei&apos; ||| 0.6 0.2 0.2 0.6 0.2 0.2
ကန် တာ ||| gan da ||| 0.714286 0.142857 0.142857 0.714286 0.142857 0.142857
ကန် တာ ||| kan ta ||| 0.6 0.2 0.2 0.6 0.2 0.2
ကန် တာ ရ ||| gan da ja. ||| 0.6 0.2 0.2 0.6 0.2 0.2
ကန် တာ ရ ||| gan da ja: ||| 0.6 0.2 0.2 0.6 0.2 0.2
ကန် တာ ရ ||| kan ta ja. ||| 0.6 0.2 0.2 0.6 0.2 0.2
ကန် တာ ရ ရာ ||| gan da ja: ja ||| 0.6 0.2 0.2 0.6 0.2 0.2
ကန် တာ ရ ရာ သီ ||| gan da ja: ja dhi ||| 0.6 0.2 0.2 0.6 0.2 0.2
ကန် တိ ||| kan ti. ||| 0.6 0.2 0.2 0.6 0.2 0.2
ကန် တိ ဂုဏ် ||| kan ti. goun ||| 0.6 0.2 0.2 0.6 0.2 0.2
ကန် တော့ ||| ga- do. ||| 0.6 0.2 0.2 0.6 0.2 0.2
ကန် တော့ ပွဲ ||| ga- do. bwe: ||| 0.6 0.2 0.2 0.6 0.2 0.2
ကန် ထ ||| kan hta- ||| 0.714286 0.142857 0.142857 0.714286 0.142857 0.142857
ကန် ထ ရိုက် ||| kan hta- rai&apos; ||| 0.714286 0.142857 0.142857 0.714286 0.142857 0.142857
ကန် ထ ရိုက် ဆွဲ ||| kan hta- rai&apos; hswe&apos; ||| 0.6 0.2 0.2 0.6 0.2 0.2
ကန် ပေါင် ||| kan baun ||| 0.6 0.2 0.2 0.6 0.2 0.2
ကန် ပြား ||| gan bja: ||| 0.6 0.2 0.2 0.6 0.2 0.2
ကန် မု ||| kan mou&apos; ||| 0.6 0.2 0.2 0.6 0.2 0.2
ကန် မု ချ ||| kan mou&apos; cha. ||| 0.6 0.2 0.2 0.6 0.2 0.2
ကန် လုံး ||| gan loun: ||| 0.6 0.2 0.2 0.6 0.2 0.2
ကန် သင်း ||| ga- dhin: ||| 0.6 0.2 0.2 0.6 0.2 0.2
ကန် သင်း ||| ga- zin: ||| 0.714286 0.142857 0.142857 0.714286 0.142857 0.142857
ကန် သင်း ဆွဲ ||| ga- zin: hswe: ||| 0.6 0.2 0.2 0.6 0.2 0.2
ကန်း ||| ga- ||| 0.6 0.2 0.2 0.6 0.2 0.2
ကန်း ||| gan: ||| 0.963636 0.0181818 0.0181818 0.963636 0.0181818 0.0181818
ကန်း ||| kan: ||| 0.942857 0.0285714 0.0285714 0.942857 0.0285714 0.0285714
ကန်း ||| n ||| 0.6 0.2 0.2 0.6 0.2 0.2
ကန်း ကြိုး ||| kan: gyou: ||| 0.6 0.2 0.2 0.6 0.2 0.2
ကန်း ကြီး ||| gan: gyi: ||| 0.6 0.2 0.2 0.6 0.2 0.2
ကန်း ကွက် ||| gan: gwe&apos; ||| 0.6 0.2 0.2 0.6 0.2 0.2
ကန်း ခူ ||| kan: khu ||| 0.6 0.2 0.2 0.6 0.2 0.2
ကန်း စင် ||| kan: zin ||| 0.6 0.2 0.2 0.6 0.2 0.2
ကန်း စောင်း ||| gan: saun: ||| 0.6 0.2 0.2 0.6 0.2 0.2
ကန်း စောင်း ကန်း ||| gan: saun: gan: ||| 0.6 0.2 0.2 0.6 0.2 0.2
ကန်း ဆီး ||| gan: hsi: ||| 0.6 0.2 0.2 0.6 0.2 0.2
ကန်း တော ||| gan: to: ||| 0.6 0.2 0.2 0.6 0.2 0.2
ကန်း တော တိုး ||| gan: to: dou: ||| 0.6 0.2 0.2 0.6 0.2 0.2
ကန်း နက် ||| ga- ne&apos; ||| 0.6 0.2 0.2 0.6 0.2 0.2
ကန်း ပါး ||| gan: ba ||| 0.6 0.2 0.2 0.6 0.2 0.2
ကန်း ပါး စပ် ||| gan: ba za&apos; ||| 0.6 0.2 0.2 0.6 0.2 0.2
ကန်း မ ||| gan: ma ||| 0.6 0.2 0.2 0.6 0.2 0.2
ကန်း ရန်း ||| gan: jan: ||| 0.6 0.2 0.2 0.6 0.2 0.2
ကန်း ရုံ ||| gan: joun ||| 0.6 0.2 0.2 0.6 0.2 0.2
ကန်း ရှယ် ||| kan: she ||| 0.6 0.2 0.2 0.6 0.2 0.2
ကန်း ဝတ် ||| gan: wu&apos; ||| 0.6 0.2 0.2 0.6 0.2 0.2
ကန်း သား ||| kan: dha: ||| 0.6 0.2 0.2 0.6 0.2 0.2
ကပ် ||| ga&apos; ||| 0.953488 0.0232558 0.0232558 0.953488 0.0232558 0.0232558
ကပ် ||| ka&apos; ||| 0.98773 0.00613497 0.00613497 0.98773 0.00613497 0.00613497
ကပ် ||| ka. ||| 0.6 0.2 0.2 0.6 0.2 0.2
ကပ် ||| nga&apos; ||| 0.6 0.2 0.2 0.6 0.2 0.2
ကပ် က ||| ka&apos; ka ||| 0.6 0.2 0.2 0.6 0.2 0.2
ကပ် က လူ ||| ka&apos; ka lu ||| 0.6 0.2 0.2 0.6 0.2 0.2
ကပ် ကိုး ||| ka&apos; kou: ||| 0.6 0.2 0.2 0.6 0.2 0.2
ကပ် ကျော် ||| ka&apos; kyo ||| 0.6 0.2 0.2 0.6 0.2 0.2
ကပ် ကြီး ||| ka&apos; kyi: ||| 0.6 0.2 0.2 0.6 0.2 0.2
ကပ် ကြီး သုံး ||| ka&apos; kyi: thoun: ||| 0.6 0.2 0.2 0.6 0.2 0.2
ကပ် ကြီး သုံး ပါး ||| ka&apos; kyi: thoun: ba: ||| 0.6 0.2 0.2 0.6 0.2 0.2
ကပ် ကြော် ||| ga&apos; kyo ||| 0.6 0.2 0.2 0.6 0.2 0.2
ကပ် ခံ ||| ka&apos; khan ||| 0.6 0.2 0.2 0.6 0.2 0.2
ကပ် စာ ||| ga&apos; sa ||| 0.6 0.2 0.2 0.6 0.2 0.2
ကပ် စာ စောင် ||| ga&apos; sa zaun ||| 0.6 0.2 0.2 0.6 0.2 0.2
ကပ် စေး ||| ka&apos; sei: ||| 0.6 0.2 0.2 0.6 0.2 0.2
ကပ် စေး ||| ka&apos; si: ||| 0.777778 0.111111 0.111111 0.777778 0.111111 0.111111
ကပ် စေး ကပ် ||| ka&apos; si: ka&apos; ||| 0.6 0.2 0.2 0.6 0.2 0.2
ကပ် စေး ကပ် စေး ||| ka&apos; si: ka&apos; si: ||| 0.6 0.2 0.2 0.6 0.2 0.2
ကပ် စေး နှဲ ||| ka&apos; sei: ne: ||| 0.6 0.2 0.2 0.6 0.2 0.2
ကပ် စေး နှဲ ||| ka&apos; si: ne: ||| 0.6 0.2 0.2 0.6 0.2 0.2
ကပ် ဆိုက် ||| ka&apos; hsai&apos; ||| 0.6 0.2 0.2 0.6 0.2 0.2
ကပ် ဆေး ||| ka&apos; hsei: ||| 0.6 0.2 0.2 0.6 0.2 0.2
ကပ် တိုက် ||| ka&apos; tai&apos; ||| 0.6 0.2 0.2 0.6 0.2 0.2
ကပ် တိုင် ||| ga&apos; tain ||| 0.6 0.2 0.2 0.6 0.2 0.2
ကပ် နာ ||| ga&apos; na ||| 0.6 0.2 0.2 0.6 0.2 0.2
ကပ် နာ ရီ ||| ga&apos; na ji ||| 0.6 0.2 0.2 0.6 0.2 0.2
ကပ် နေ ||| ka&apos; nei ||| 0.6 0.2 0.2 0.6 0.2 0.2
ကပ် ပ ||| ka&apos; pa- ||| 0.714286 0.142857 0.142857 0.714286 0.142857 0.142857
ကပ် ပ ||| ka&apos; pa. ||| 0.6 0.2 0.2 0.6 0.2 0.2
ကပ် ပ နာ ||| ka&apos; pa- na ||| 0.6 0.2 0.2 0.6 0.2 0.2
ကပ် ပ ဗိန် ||| ka&apos; pa. bein ||| 0.6 0.2 0.2 0.6 0.2 0.2
ကပ် ပ ဗိန် ဒု ||| ka&apos; pa. bein du. ||| 0.6 0.2 0.2 0.6 0.2 0.2
ကပ် ပ လီ ||| ka&apos; pa- li ||| 0.6 0.2 0.2 0.6 0.2 0.2
ကပ် ပင် ||| ka&apos; pin ||| 0.6 0.2 0.2 0.6 0.2 0.2
ကပ် ပဋ် ||| ka&apos; pa. ||| 0.6 0.2 0.2 0.6 0.2 0.2
ကပ် ပဋ် ဌီ ||| ka&apos; pa. hti ||| 0.6 0.2 0.2 0.6 0.2 0.2
ကပ် ပဋ် ဌီ တိ ||| ka&apos; pa. hti ti. ||| 0.6 0.2 0.2 0.6 0.2 0.2
ကပ် ပဋ် ဌီ တိ လေး ||| ka&apos; pa. hti ti. lei: ||| 0.6 0.2 0.2 0.6 0.2 0.2
ကပ် ပယ် ||| ka&apos; pe ||| 0.714286 0.142857 0.142857 0.714286 0.142857 0.142857
ကပ် ပယ် အိတ် ||| ka&apos; pe ei&apos; ||| 0.6 0.2 0.2 0.6 0.2 0.2
ကပ် ပါး ||| ka&apos; pa: ||| 0.6 0.2 0.2 0.6 0.2 0.2
ကပ် ပါး ရပ် ||| ka&apos; pa: ja&apos; ||| 0.6 0.2 0.2 0.6 0.2 0.2
ကပ် ပါး ရပ် ပါး ||| ka&apos; pa: ja&apos; pa: ||| 0.6 0.2 0.2 0.6 0.2 0.2
ကပ် ပိ ||| ka&apos; pi. ||| 0.6 0.2 0.2 0.6 0.2 0.2
ကပ် ပိ ယ ||| ka&apos; pi. ja. ||| 0.6 0.2 0.2 0.6 0.2 0.2
ကပ် ပို ||| ga&apos; pou ||| 0.6 0.2 0.2 0.6 0.2 0.2
ကပ် ပို စ ||| ga&apos; pou sa- ||| 0.6 0.2 0.2 0.6 0.2 0.2
ကပ် ပို စ တာ ||| ga&apos; pou sa- ta ||| 0.6 0.2 0.2 0.6 0.2 0.2
ကပ် ပြု ||| ka&apos; pju. ||| 0.6 0.2 0.2 0.6 0.2 0.2
ကပ် ပြု မိုး ||| ka&apos; pju. mou: ||| 0.6 0.2 0.2 0.6 0.2 0.2
ကပ် ဘောင်း ||| ga&apos; baun: ||| 0.6 0.2 0.2 0.6 0.2 0.2
ကပ် ဘောင်း ဘီ ||| ga&apos; baun: bi ||| 0.6 0.2 0.2 0.6 0.2 0.2
ကပ် မြှောင် ||| ka&apos; mhjaun ||| 0.6 0.2 0.2 0.6 0.2 0.2
ကပ် ရပ် ||| ka&apos; ja&apos; ||| 0.6 0.2 0.2 0.6 0.2 0.2
ကပ် လိုက် ||| ka&apos; lai&apos; ||| 0.6 0.2 0.2 0.6 0.2 0.2
ကပ် အ ||| ga&apos; a- ||| 0.6 0.2 0.2 0.6 0.2 0.2
ကပ် အ ||| ka&apos; a- ||| 0.714286 0.142857 0.142857 0.714286 0.142857 0.142857
ကပ် အ ရပ် ||| ka&apos; a- ja&apos; ||| 0.6 0.2 0.2 0.6 0.2 0.2
ကပ် အ လင် ||| ga&apos; a- lin ||| 0.6 0.2 0.2 0.6 0.2 0.2
ကပ် အ လင် ကာ ||| ga&apos; a- lin ga. ||| 0.6 0.2 0.2 0.6 0.2 0.2
ကပ် အ သပ် ||| ka&apos; a- tha&apos; ||| 0.6 0.2 0.2 0.6 0.2 0.2
ကပ် အင် ||| ga&apos; in: ||| 0.6 0.2 0.2 0.6 0.2 0.2
ကပ် အင် ကျီ ||| ga&apos; in: gyi ||| 0.6 0.2 0.2 0.6 0.2 0.2
ကပ် အိတ် ||| ka&apos; ei&apos; ||| 0.6 0.2 0.2 0.6 0.2 0.2
ကမ် ||| ga- ||| 0.948718 0.025641 0.025641 0.948718 0.025641 0.025641
ကမ် ||| ka ||| 0.6 0.2 0.2 0.6 0.2 0.2
ကမ် ||| ka- ||| 0.818182 0.0909091 0.0909091 0.818182 0.0909091 0.0909091
ကမ် ||| kan ||| 0.846154 0.0769231 0.0769231 0.846154 0.0769231 0.0769231
ကမ် ပ ||| ga- ba- ||| 0.6 0.2 0.2 0.6 0.2 0.2
ကမ် ပ လွေ ||| ga- ba- lwei ||| 0.6 0.2 0.2 0.6 0.2 0.2
ကမ် ပည်း ||| ga- bji: ||| 0.714286 0.142857 0.142857 0.714286 0.142857 0.142857
ကမ် ပည်း ထိုး ||| ga- bji: htou: ||| 0.6 0.2 0.2 0.6 0.2 0.2
ကမ် ပတ် ||| kan ba&apos; ||| 0.6 0.2 0.2 0.6 0.2 0.2
ကမ် ဗ ||| ga- ba- ||| 0.714286 0.142857 0.142857 0.714286 0.142857 0.142857
ကမ် ဗ လာ ||| ga- ba- la ||| 0.714286 0.142857 0.142857 0.714286 0.142857 0.142857
ကမ် ဘာ ||| ga- ba ||| 0.925926 0.037037 0.037037 0.925926 0.037037 0.037037
ကမ် ဘာ ကျော် ||| ga- ba gyo ||| 0.6 0.2 0.2 0.6 0.2 0.2
ကမ် ဘာ ဂြိုဟ် ||| ga- ba gyou ||| 0.6 0.2 0.2 0.6 0.2 0.2
ကမ် ဘာ စစ် ||| ga- ba si&apos; ||| 0.6 0.2 0.2 0.6 0.2 0.2
ကမ် ဘာ နာ ||| ga- ba na ||| 0.6 0.2 0.2 0.6 0.2 0.2
ကမ် ဘာ ရန် ||| ga- ba jan ||| 0.6 0.2 0.2 0.6 0.2 0.2
ကမ် ဘာ လုံး ||| ga- ba loun: ||| 0.714286 0.142857 0.142857 0.714286 0.142857 0.142857
ကမ် ဘာ လုံး ခြမ်း ||| ga- ba loun: gyan: ||| 0.6 0.2 0.2 0.6 0.2 0.2
ကမ် ဘာ လေး ||| ga- ba lei: ||| 0.6 0.2 0.2 0.6 0.2 0.2
ကမ် ဘာ လေး ရပ် ||| ga- ba lei: ja&apos; ||| 0.6 0.2 0.2 0.6 0.2 0.2
ကမ် ဘာ လှည့် ||| ga- ba lhe. ||| 0.6 0.2 0.2 0.6 0.2 0.2
ကမ် ဘာ လှည့် ခ ||| ga- ba lhe. kha- ||| 0.6 0.2 0.2 0.6 0.2 0.2
ကမ် ဘာ လှည့် ခ ရီး ||| ga- ba lhe. kha- ji: ||| 0.6 0.2 0.2 0.6 0.2 0.2
ကမ် ဘာ့ ||| ga- ba. ||| 0.6 0.2 0.2 0.6 0.2 0.2
ကမ် ဘာ့ ဈေး ||| ga- ba. zei: ||| 0.6 0.2 0.2 0.6 0.2 0.2
ကမ် ဘာ့ ဈေး ကွက် ||| ga- ba. zei: gwe&apos; ||| 0.6 0.2 0.2 0.6 0.2 0.2
ကမ် မ ||| ka- ma- ||| 0.818182 0.0909091 0.0909091 0.818182 0.0909091 0.0909091
ကမ် မ ||| kan ma. ||| 0.818182 0.0909091 0.0909091 0.818182 0.0909091 0.0909091
ကမ် မ ဇ ||| ka- ma- za. ||| 0.714286 0.142857 0.142857 0.714286 0.142857 0.142857
ကမ် မ ဇ ရုပ် ||| ka- ma- za. jou&apos; ||| 0.6 0.2 0.2 0.6 0.2 0.2
ကမ် မ ဇ လေ ||| ka- ma- za. lei ||| 0.6 0.2 0.2 0.6 0.2 0.2
ကမ် မ ဝဋ် ||| kan ma. wu&apos; ||| 0.6 0.2 0.2 0.6 0.2 0.2
ကမ် မ ဝါ ||| ka- ma- wa ||| 0.714286 0.142857 0.142857 0.714286 0.142857 0.142857
ကမ် မ သ ||| kan ma. tha- ||| 0.714286 0.142857 0.142857 0.714286 0.142857 0.142857
ကမ် မ သ ကာ ||| kan ma. tha- ga ||| 0.714286 0.142857 0.142857 0.714286 0.142857 0.142857
ကမ် မ သ ကာ ထား ||| kan ma. tha- ga hta: ||| 0.6 0.2 0.2 0.6 0.2 0.2
ကမ် မဋ် ||| ka ma- ||| 0.6 0.2 0.2 0.6 0.2 0.2
ကမ် မဋ် ဌာန်း ||| ka ma- htan: ||| 0.6 0.2 0.2 0.6 0.2 0.2
ကမ် မဋ် ဌာန်း ထိုင် ||| ka ma- htan: htain ||| 0.6 0.2 0.2 0.6 0.2 0.2
ကမ်း ||| ga- ||| 0.714286 0.142857 0.142857 0.714286 0.142857 0.142857
ကမ်း ||| gan: ||| 0.777778 0.111111 0.111111 0.777778 0.111111 0.111111
ကမ်း ||| kan: ||| 0.973333 0.0133333 0.0133333 0.973333 0.0133333 0.0133333
ကမ်း ||| ngan: ||| 0.6 0.2 0.2 0.6 0.2 0.2
ကမ်း ကုန် ||| kan: koun ||| 0.6 0.2 0.2 0.6 0.2 0.2
ကမ်း ကြီး ||| kan: kyi: ||| 0.6 0.2 0.2 0.6 0.2 0.2
ကမ်း ခပ် ||| kan: kha&apos; ||| 0.6 0.2 0.2 0.6 0.2 0.2
ကမ်း ခြေ ||| kan: gyei ||| 0.6 0.2 0.2 0.6 0.2 0.2
ကမ်း ခွန် ||| kan: gun ||| 0.6 0.2 0.2 0.6 0.2 0.2
ကမ်း စပ် ||| kan: za&apos; ||| 0.6 0.2 0.2 0.6 0.2 0.2
ကမ်း တက် ||| kan: te&apos; ||| 0.6 0.2 0.2 0.6 0.2 0.2
ကမ်း တင် ||| kan: din ||| 0.6 0.2 0.2 0.6 0.2 0.2
ကမ်း တင် ||| kan: tin ||| 0.6 0.2 0.2 0.6 0.2 0.2
ကမ်း တိုက် ||| kan: tai&apos; ||| 0.6 0.2 0.2 0.6 0.2 0.2
ကမ်း တိုက် တိုက် ||| kan: tai&apos; tai&apos; ||| 0.6 0.2 0.2 0.6 0.2 0.2
ကမ်း ထိုး ||| kan: htou: ||| 0.6 0.2 0.2 0.6 0.2 0.2
ကမ်း ထိုး ရေ ||| kan: htou: jei ||| 0.6 0.2 0.2 0.6 0.2 0.2
ကမ်း ထိုး ရေ ယာဉ် ||| kan: htou: jei jin ||| 0.6 0.2 0.2 0.6 0.2 0.2
ကမ်း န ||| kan: na- ||| 0.6 0.2 0.2 0.6 0.2 0.2
ကမ်း န ဖူး ||| kan: na- hpu: ||| 0.6 0.2 0.2 0.6 0.2 0.2
ကမ်း နား ||| kan: na: ||| 0.6 0.2 0.2 0.6 0.2 0.2
ကမ်း ပါး ||| ga- ba: ||| 0.714286 0.142857 0.142857 0.714286 0.142857 0.142857
ကမ်း ပါး ||| kan: ba: ||| 0.6 0.2 0.2 0.6 0.2 0.2
ကမ်း ပါး ပြို ||| ga- ba: pjou ||| 0.6 0.2 0.2 0.6 0.2 0.2
ကမ်း ပြို ||| kan: bjou ||| 0.777778 0.111111 0.111111 0.777778 0.111111 0.111111
ကမ်း ပြို ||| kan: pjou ||| 0.6 0.2 0.2 0.6 0.2 0.2
ကမ်း ပြို ထိုး ||| kan: bjou htou: ||| 0.6 0.2 0.2 0.6 0.2 0.2
ကမ်း ပြို လိုက် ||| kan: bjou lai&apos; ||| 0.6 0.2 0.2 0.6 0.2 0.2
ကမ်း မဲ့ ||| kan: me. ||| 0.6 0.2 0.2 0.6 0.2 0.2
ကမ်း မြို့ ||| kan: mjou. ||| 0.6 0.2 0.2 0.6 0.2 0.2
ကမ်း ယပ် ||| kan: ja&apos; ||| 0.6 0.2 0.2 0.6 0.2 0.2
ကမ်း ယံ ||| kan: jan ||| 0.6 0.2 0.2 0.6 0.2 0.2
ကမ်း လမ်း ||| kan: lan: ||| 0.6 0.2 0.2 0.6 0.2 0.2
ကမ်း လမ်း မ ||| kan: lan: ma- ||| 0.6 0.2 0.2 0.6 0.2 0.2
ကမ်း လမ်း မ သိ ||| kan: lan: ma- thi. ||| 0.6 0.2 0.2 0.6 0.2 0.2
ကမ်း လွန် ||| kan: lun ||| 0.6 0.2 0.2 0.6 0.2 0.2
ကမ်း လှမ်း ||| kan: lhan: ||| 0.714286 0.142857 0.142857 0.714286 0.142857 0.142857
ကမ်း အ ||| kan: a- ||| 0.6 0.2 0.2 0.6 0.2 0.2
ကမ်း အ လှမ်း ||| kan: a- lhan: ||| 0.6 0.2 0.2 0.6 0.2 0.2
ကမ်း ဦး ||| kan: u: ||| 0.6 0.2 0.2 0.6 0.2 0.2
ကမ်း ဦး ရေ ||| kan: u: jei ||| 0.6 0.2 0.2 0.6 0.2 0.2
ကမ်း ဦး ရေ တိမ် ||| kan: u: jei dein ||| 0.6 0.2 0.2 0.6 0.2 0.2
ကမ်း ဦး ရေ တိမ် ပိုင်း ||| kan: u: jei dein bain: ||| 0.6 0.2 0.2 0.6 0.2 0.2
ကယ် ||| ge ||| 0.6 0.2 0.2 0.6 0.2 0.2
ကယ် ||| ke ||| 0.957447 0.0212766 0.0212766 0.957447 0.0212766 0.0212766
ကယ် စွတ် ||| ke su&apos; ||| 0.6 0.2 0.2 0.6 0.2 0.2
ကယ် စွတ် ကယ် ||| ke su&apos; ke ||| 0.6 0.2 0.2 0.6 0.2 0.2
ကယ် ဆယ် ||| ke ze ||| 0.714286 0.142857 0.142857 0.714286 0.142857 0.142857
ကယ် ဆယ် ရေး ||| ke ze jei: ||| 0.6 0.2 0.2 0.6 0.2 0.2
ကယ် ဆယ် ရေး ရန် ||| ke ze jei: jan ||| 0.6 0.2 0.2 0.6 0.2 0.2
ကယ် ဆယ် ရေး ရန် ပုံ ||| ke ze jei: jan boun ||| 0.6 0.2 0.2 0.6 0.2 0.2
ကယ် တင် ||| ke tin ||| 0.714286 0.142857 0.142857 0.714286 0.142857 0.142857
ကယ် တင် ရှင် ||| ke tin shin ||| 0.6 0.2 0.2 0.6 0.2 0.2
ကယ် တန် ||| ke tan ||| 0.6 0.2 0.2 0.6 0.2 0.2
ကယ် တန် တု ||| ke tan du. ||| 0.6 0.2 0.2 0.6 0.2 0.2
ကယ် နိုင် ||| ke nain ||| 0.6 0.2 0.2 0.6 0.2 0.2
ကယ် ပါ ||| ke ba ||| 0.6 0.2 0.2 0.6 0.2 0.2
ကယ် ပြက် ||| ke pje&apos; ||| 0.6 0.2 0.2 0.6 0.2 0.2
ကယ် ပြက် ကယ် ||| ke pje&apos; ke ||| 0.6 0.2 0.2 0.6 0.2 0.2
ကယ် မီး ||| ke mi: ||| 0.6 0.2 0.2 0.6 0.2 0.2
ကယ် မီး ရ ||| ke mi: ja- ||| 0.6 0.2 0.2 0.6 0.2 0.2
ကယ် မီး ရ ထား ||| ke mi: ja- hta: ||| 0.6 0.2 0.2 0.6 0.2 0.2
ကယ် လှေ ||| ke lhei ||| 0.6 0.2 0.2 0.6 0.2 0.2
ကယ် သွတ် ||| ke thu&apos; ||| 0.6 0.2 0.2 0.6 0.2 0.2
ကယ် သွတ် ကယ် ||| ke thu&apos; ke ||| 0.6 0.2 0.2 0.6 0.2 0.2
ကာ ||| ga ||| 0.986395 0.00680272 0.00680272 0.986395 0.00680272 0.00680272
ကာ ||| ga- ||| 0.6 0.2 0.2 0.6 0.2 0.2
ကာ ||| ga. ||| 0.714286 0.142857 0.142857 0.714286 0.142857 0.142857
ကာ ||| ka ||| 0.991111 0.00444444 0.00444444 0.991111 0.00444444 0.00444444
ကာ ||| kha ||| 0.866667 0.0666667 0.0666667 0.866667 0.0666667 0.0666667
ကာ က ||| ka ga. ||| 0.6 0.2 0.2 0.6 0.2 0.2
ကာ ကာ ||| ka ga ||| 0.6 0.2 0.2 0.6 0.2 0.2
ကာ ကာ ||| ka ka ||| 0.6 0.2 0.2 0.6 0.2 0.2
ကာ ကာ ဆိုင် ||| ka ka zain ||| 0.6 0.2 0.2 0.6 0.2 0.2
ကာ ကား ||| ka ka: ||| 0.6 0.2 0.2 0.6 0.2 0.2
ကာ ကျ ||| ga kha. ||| 0.6 0.2 0.2 0.6 0.2 0.2
ကာ ကျ ||| ga kya. ||| 0.6 0.2 0.2 0.6 0.2 0.2
ကာ ကျူ ||| ka kyu ||| 0.6 0.2 0.2 0.6 0.2 0.2
ကာ ကျူ ပွတ် ||| ka kyu bu&apos; ||| 0.6 0.2 0.2 0.6 0.2 0.2
ကာ ကွယ် ||| ka gwe ||| 0.866667 0.0666667 0.0666667 0.866667 0.0666667 0.0666667
ကာ ကွယ် ဆေး ||| ka gwe zei: ||| 0.714286 0.142857 0.142857 0.714286 0.142857 0.142857
ကာ ကွယ် ဆေး ထိုး ||| ka gwe zei: htou: ||| 0.6 0.2 0.2 0.6 0.2 0.2
ကာ ကွယ် ရေး ||| ka gwe jei: ||| 0.777778 0.111111 0.111111 0.777778 0.111111 0.111111
ကာ ကွယ် ရေး ဦး ||| ka gwe jei: u: ||| 0.777778 0.111111 0.111111 0.777778 0.111111 0.111111
ကာ ကွယ် ရေး ဦး စီး ||| ka gwe jei: u: zi: ||| 0.777778 0.111111 0.111111 0.777778 0.111111 0.111111
ကာ ခဲ ||| ka ge: ||| 0.6 0.2 0.2 0.6 0.2 0.2
ကာ ခံ ||| ga khan ||| 0.6 0.2 0.2 0.6 0.2 0.2
ကာ ချင်း ||| ka gyin: ||| 0.6 0.2 0.2 0.6 0.2 0.2
ကာ ချယ် ||| ka che ||| 0.6 0.2 0.2 0.6 0.2 0.2
ကာ ချဲ့ ||| ga che. ||| 0.6 0.2 0.2 0.6 0.2 0.2
ကာ ငင် ||| kha ngin ||| 0.6 0.2 0.2 0.6 0.2 0.2
ကာ ငင် ကာ ||| kha ngin ga ||| 0.6 0.2 0.2 0.6 0.2 0.2
ကာ ဆိုင် ||| ka zain ||| 0.6 0.2 0.2 0.6 0.2 0.2
ကာ ဆီး ||| ka hsi: ||| 0.6 0.2 0.2 0.6 0.2 0.2
ကာ တ ||| kha ta- ||| 0.6 0.2 0.2 0.6 0.2 0.2
ကာ တ လဲ ||| kha ta- le: ||| 0.6 0.2 0.2 0.6 0.2 0.2
ကာ တ လဲ လဲ ||| kha ta- le: le: ||| 0.6 0.2 0.2 0.6 0.2 0.2
ကာ တန် ||| ka tan ||| 0.6 0.2 0.2 0.6 0.2 0.2
ကာ တန် ဆာ ||| ka tan za ||| 0.6 0.2 0.2 0.6 0.2 0.2
ကာ တာ ||| ga da ||| 0.6 0.2 0.2 0.6 0.2 0.2
ကာ တဲ ||| ga te: ||| 0.6 0.2 0.2 0.6 0.2 0.2
ကာ တွန်း ||| ka tun: ||| 0.6 0.2 0.2 0.6 0.2 0.2
ကာ ထည် ||| ka de ||| 0.6 0.2 0.2 0.6 0.2 0.2
ကာ ထပ် ||| kha hta&apos; ||| 0.6 0.2 0.2 0.6 0.2 0.2
ကာ ထပ် ကာ ||| kha hta&apos; kha ||| 0.6 0.2 0.2 0.6 0.2 0.2
ကာ ထား ||| ga hta: ||| 0.6 0.2 0.2 0.6 0.2 0.2
ကာ နီ ||| ka ni ||| 0.714286 0.142857 0.142857 0.714286 0.142857 0.142857
ကာ ပင့် ||| ga pin. ||| 0.6 0.2 0.2 0.6 0.2 0.2
ကာ ပင့် ကာ ||| ga pin. ga ||| 0.6 0.2 0.2 0.6 0.2 0.2
ကာ ပတ် ||| ga pa&apos; ||| 0.6 0.2 0.2 0.6 0.2 0.2
ကာ ပတ် ကုံး ||| ga pa&apos; koun: ||| 0.6 0.2 0.2 0.6 0.2 0.2
ကာ ပေါက် ||| ka bau&apos; ||| 0.6 0.2 0.2 0.6 0.2 0.2
ကာ ပျဉ် ||| ga bjin ||| 0.6 0.2 0.2 0.6 0.2 0.2
ကာ ပျံ ||| ka bjan ||| 0.6 0.2 0.2 0.6 0.2 0.2
ကာ ဖွင့် ||| ga hpwin. ||| 0.6 0.2 0.2 0.6 0.2 0.2
ကာ ဗွန် ||| ka bun ||| 0.714286 0.142857 0.142857 0.714286 0.142857 0.142857
ကာ ဗွန် စက် ||| ka bun se&apos; ||| 0.6 0.2 0.2 0.6 0.2 0.2
ကာ ဗွန် စက် ကူ ||| ka bun se&apos; ku ||| 0.6 0.2 0.2 0.6 0.2 0.2
ကာ ဘော် ||| ka bo ||| 0.6 0.2 0.2 0.6 0.2 0.2
ကာ ဘော် လစ် ||| ka bo li&apos; ||| 0.6 0.2 0.2 0.6 0.2 0.2
ကာ ဘော် လစ် ဆီ ||| ka bo li&apos; hsi ||| 0.6 0.2 0.2 0.6 0.2 0.2
ကာ မ ||| ga ma- ||| 0.6 0.2 0.2 0.6 0.2 0.2
ကာ မ ||| ga- ma. ||| 0.6 0.2 0.2 0.6 0.2 0.2
ကာ မ ||| ka ma- ||| 0.6 0.2 0.2 0.6 0.2 0.2
ကာ မ ||| ka ma. ||| 0.777778 0.111111 0.111111 0.777778 0.111111 0.111111
ကာ မ ကင်း ||| ga ma- kin: ||| 0.6 0.2 0.2 0.6 0.2 0.2
ကာ မ ဂုဏ် ||| ka ma- goun ||| 0.6 0.2 0.2 0.6 0.2 0.2
ကာ မ ဘုံ ||| ka ma. boun ||| 0.6 0.2 0.2 0.6 0.2 0.2
ကာ မတ် ||| ga ma&apos; ||| 0.6 0.2 0.2 0.6 0.2 0.2
ကာ မတ် ||| ka ma&apos; ||| 0.6 0.2 0.2 0.6 0.2 0.2
ကာ မတ် တ ||| ga ma&apos; ta. ||| 0.6 0.2 0.2 0.6 0.2 0.2
ကာ မတ် တ ||| ka ma&apos; ta. ||| 0.6 0.2 0.2 0.6 0.2 0.2
ကာ မိ ||| ka mi. ||| 0.6 0.2 0.2 0.6 0.2 0.2
ကာ မူ ||| ga mu ||| 0.6 0.2 0.2 0.6 0.2 0.2
ကာ မျက် ||| ga mje&apos; ||| 0.6 0.2 0.2 0.6 0.2 0.2
ကာ မျက် မှန် ||| ga mje&apos; mhan ||| 0.6 0.2 0.2 0.6 0.2 0.2
ကာ မှန် ||| ga mhan ||| 0.6 0.2 0.2 0.6 0.2 0.2
ကာ မှု ||| ga mhu. ||| 0.6 0.2 0.2 0.6 0.2 0.2
ကာ ယ ||| ga ja- ||| 0.6 0.2 0.2 0.6 0.2 0.2
ကာ ယ ||| ga ja. ||| 0.6 0.2 0.2 0.6 0.2 0.2
ကာ ယ ||| ka ja- ||| 0.714286 0.142857 0.142857 0.714286 0.142857 0.142857
ကာ ယ ||| ka ja. ||| 0.882353 0.0588235 0.0588235 0.882353 0.0588235 0.0588235
ကာ ယ ကံ ||| ka ja- gan ||| 0.714286 0.142857 0.142857 0.714286 0.142857 0.142857
ကာ ယ ကံ ရှင် ||| ka ja- gan shin ||| 0.6 0.2 0.2 0.6 0.2 0.2
ကာ ယ ဒိဋ် ||| ka ja. dei&apos; ||| 0.6 0.2 0.2 0.6 0.2 0.2
ကာ ယ ဒိဋ် ဌိ ||| ka ja. dei&apos; hti. ||| 0.6 0.2 0.2 0.6 0.2 0.2
ကာ ယ န ||| ga ja- na. ||| 0.6 0.2 0.2 0.6 0.2 0.2
ကာ ယ ပ ||| ka ja. pjin ||| 0.6 0.2 0.2 0.6 0.2 0.2
ကာ ယ ပ ညာ ||| ka ja. pjin nja ||| 0.6 0.2 0.2 0.6 0.2 0.2
ကာ ယ ဗ ||| ka ja. ba- ||| 0.6 0.2 0.2 0.6 0.2 0.2
ကာ ယ ဗ လ ||| ka ja. ba- la. ||| 0.6 0.2 0.2 0.6 0.2 0.2
ကာ ယ လုပ် ||| ka ja. lou&apos; ||| 0.6 0.2 0.2 0.6 0.2 0.2
ကာ ယ လုပ် သား ||| ka ja. lou&apos; tha: ||| 0.6 0.2 0.2 0.6 0.2 0.2
ကာ ရ ||| ga ja. ||| 0.714286 0.142857 0.142857 0.714286 0.142857 0.142857
ကာ ရ ||| ka ja. ||| 0.714286 0.142857 0.142857 0.714286 0.142857 0.142857
ကာ ရ ||| ka ra- ||| 0.777778 0.111111 0.111111 0.777778 0.111111 0.111111
ကာ ရ ||| ka ra. ||| 0.777778 0.111111 0.111111 0.777778 0.111111 0.111111
ကာ ရ က ||| ka ra- ka. ||| 0.777778 0.111111 0.111111 0.777778 0.111111 0.111111
ကာ ရ လော ||| ka ra. lo: ||| 0.6 0.2 0.2 0.6 0.2 0.2
ကာ ရ လော ပ ||| ka ra. lo: pa. ||| 0.6 0.2 0.2 0.6 0.2 0.2
ကာ ရည် ||| ka jei ||| 0.6 0.2 0.2 0.6 0.2 0.2
ကာ ရန် ||| ka jan ||| 0.846154 0.0769231 0.0769231 0.846154 0.0769231 0.0769231
ကာ ရန် မဲ့ ||| ka jan me. ||| 0.6 0.2 0.2 0.6 0.2 0.2
ကာ ရန် မဲ့ က ||| ka jan me. ga- ||| 0.6 0.2 0.2 0.6 0.2 0.2
ကာ ရန် မဲ့ က ဗျာ ||| ka jan me. ga- bja ||| 0.6 0.2 0.2 0.6 0.2 0.2
ကာ ရန် သင့် ||| ka jan thin. ||| 0.6 0.2 0.2 0.6 0.2 0.2
ကာ ရွက် ||| ga jwe&apos; ||| 0.6 0.2 0.2 0.6 0.2 0.2
ကာ ရွက် ထည် ||| ga jwe&apos; hte ||| 0.6 0.2 0.2 0.6 0.2 0.2
ကာ ရှင်း ||| ga shin: ||| 0.6 0.2 0.2 0.6 0.2 0.2
ကာ လ ||| ka la. ||| 0.945946 0.027027 0.027027 0.945946 0.027027 0.027027
ကာ လ စ ||| ka la. za- ||| 0.6 0.2 0.2 0.6 0.2 0.2
ကာ လ စ ကား ||| ka la. za- ga: ||| 0.6 0.2 0.2 0.6 0.2 0.2
ကာ လ တန် ||| ka la. tan ||| 0.6 0.2 0.2 0.6 0.2 0.2
ကာ လ တန် ဖိုး ||| ka la. tan bou: ||| 0.6 0.2 0.2 0.6 0.2 0.2
ကာ လ နာ ||| ka la. na ||| 0.6 0.2 0.2 0.6 0.2 0.2
ကာ လ ပေါက် ||| ka la. pau&apos; ||| 0.6 0.2 0.2 0.6 0.2 0.2
ကာ လ ပေါက် ဈေး ||| ka la. pau&apos; zei: ||| 0.6 0.2 0.2 0.6 0.2 0.2
ကာ လ ပျက် ||| ka la. bje&apos; ||| 0.6 0.2 0.2 0.6 0.2 0.2
ကာ လ ဝမ်း ||| ka la. wun: ||| 0.6 0.2 0.2 0.6 0.2 0.2
ကာ လ သား ||| ka la. dha: ||| 0.777778 0.111111 0.111111 0.777778 0.111111 0.111111
ကာ လ သား ချက် ||| ka la. dha: gye&apos; ||| 0.6 0.2 0.2 0.6 0.2 0.2
ကာ လ သား ရော ||| ka la. dha: jo: ||| 0.6 0.2 0.2 0.6 0.2 0.2
ကာ လ သား ရော ဂါ ||| ka la. dha: jo: ga ||| 0.6 0.2 0.2 0.6 0.2 0.2
ကာ လီ ||| ka li ||| 0.6 0.2 0.2 0.6 0.2 0.2
ကာ လျော် ||| ga jo ||| 0.6 0.2 0.2 0.6 0.2 0.2
ကာ လျော် ကာ ||| ga jo ga ||| 0.6 0.2 0.2 0.6 0.2 0.2
ကာ လျှံ ||| ga shan ||| 0.6 0.2 0.2 0.6 0.2 0.2
ကာ လျှံ ကာ ||| ga shan ga ||| 0.6 0.2 0.2 0.6 0.2 0.2
ကာ သ ||| ga tha. ||| 0.6 0.2 0.2 0.6 0.2 0.2
ကာ သ ||| ka tha- ||| 0.714286 0.142857 0.142857 0.714286 0.142857 0.142857
ကာ သ ||| ka tha. ||| 0.818182 0.0909091 0.0909091 0.818182 0.0909091 0.0909091
ကာ သ ဓာတ် ||| ka tha. da&apos; ||| 0.6 0.2 0.2 0.6 0.2 0.2
ကာ သ န ||| ka tha- na. ||| 0.6 0.2 0.2 0.6 0.2 0.2
ကာ သ နိက် ||| ka tha- nei&apos; ||| 0.6 0.2 0.2 0.6 0.2 0.2
ကာ သ နိက် ဓူ ||| ka tha- nei&apos; du ||| 0.6 0.2 0.2 0.6 0.2 0.2
ကာ သ နိက် ဓူ တင် ||| ka tha- nei&apos; du din ||| 0.6 0.2 0.2 0.6 0.2 0.2
ကာ သ ယာဉ် ||| ka tha. jin ||| 0.6 0.2 0.2 0.6 0.2 0.2
ကာ သ သူ ||| ka tha. tha- ||| 0.6 0.2 0.2 0.6 0.2 0.2
ကာ သ သူ ရဲ ||| ka tha. tha- je: ||| 0.6 0.2 0.2 0.6 0.2 0.2
ကာ သ သူ ရဲ ကောင်း ||| ka tha. tha- je: gaun: ||| 0.6 0.2 0.2 0.6 0.2 0.2
ကာ သား ||| ga dha: ||| 0.6 0.2 0.2 0.6 0.2 0.2
ကာ သီ ||| ga thi ||| 0.6 0.2 0.2 0.6 0.2 0.2
ကာ သီ ||| kha thi ||| 0.714286 0.142857 0.142857 0.714286 0.142857 0.142857
ကာ သီ ကာ ||| ga thi ga ||| 0.6 0.2 0.2 0.6 0.2 0.2
ကာ သီ ကာ ||| kha thi ga ||| 0.714286 0.142857 0.142857 0.714286 0.142857 0.142857
ကာ အ ||| ka a- ||| 0.6 0.2 0.2 0.6 0.2 0.2
ကာ အ ကွယ် ||| ka a- kwe ||| 0.6 0.2 0.2 0.6 0.2 0.2
ကာ အင် ||| ga in: ||| 0.6 0.2 0.2 0.6 0.2 0.2
ကာ အင် ကျီ ||| ga in: gyi ||| 0.6 0.2 0.2 0.6 0.2 0.2
ကာယ် ||| ke ||| 0.714286 0.142857 0.142857 0.714286 0.142857 0.142857
ကား ||| ga- ||| 0.973333 0.0133333 0.0133333 0.973333 0.0133333 0.0133333
ကား ||| ga: ||| 0.988439 0.00578035 0.00578035 0.988439 0.00578035 0.00578035
ကား ||| ka: ||| 0.977528 0.011236 0.011236 0.977528 0.011236 0.011236
ကား ကမ်း ||| ga: kan: ||| 0.6 0.2 0.2 0.6 0.2 0.2
ကား ကမ်း လှမ်း ||| ga: kan: lhan: ||| 0.6 0.2 0.2 0.6 0.2 0.2
ကား ကား ||| ga: ka: ||| 0.6 0.2 0.2 0.6 0.2 0.2
ကား ကုန် ||| ga: koun ||| 0.6 0.2 0.2 0.6 0.2 0.2
ကား ကောင်း ||| ga: kaun: ||| 0.6 0.2 0.2 0.6 0.2 0.2
ကား ကျ ||| ka: gya. ||| 0.6 0.2 0.2 0.6 0.2 0.2
ကား ကျွံ ||| ga: kyun ||| 0.6 0.2 0.2 0.6 0.2 0.2
ကား ကြီး ||| ga- gyi: ||| 0.6 0.2 0.2 0.6 0.2 0.2
ကား ကြီး ဆယ် ||| ga- gyi: hse ||| 0.6 0.2 0.2 0.6 0.2 0.2
ကား ကြီး ဆယ် မျိုး ||| ga- gyi: hse mjou: ||| 0.6 0.2 0.2 0.6 0.2 0.2
ကား ကြော ||| ga- gyo: ||| 0.6 0.2 0.2 0.6 0.2 0.2
ကား ကြော ရှည် ||| ga- gyo: shei ||| 0.6 0.2 0.2 0.6 0.2 0.2
ကား ကြွယ် ||| ga: kywe ||| 0.6 0.2 0.2 0.6 0.2 0.2
ကား ခုံ ||| ga- khoun ||| 0.6 0.2 0.2 0.6 0.2 0.2
ကား ခေါ် ||| ga: kho ||| 0.6 0.2 0.2 0.6 0.2 0.2
ကား ခံ ||| ga: khan ||| 0.6 0.2 0.2 0.6 0.2 0.2
ကား ချ ||| ka: cha. ||| 0.6 0.2 0.2 0.6 0.2 0.2
ကား ချပ် ||| ga- cha&apos; ||| 0.6 0.2 0.2 0.6 0.2 0.2
ကား ချပ် ||| ka: gya&apos; ||| 0.6 0.2 0.2 0.6 0.2 0.2
ကား ဂိတ် ||| ka: gei&apos; ||| 0.6 0.2 0.2 0.6 0.2 0.2
ကား စ ||| ga- za. ||| 0.6 0.2 0.2 0.6 0.2 0.2
ကား စ ||| ga: sa. ||| 0.6 0.2 0.2 0.6 0.2 0.2
ကား စ ||| ga: za. ||| 0.6 0.2 0.2 0.6 0.2 0.2
ကား စင် ||| ka: zin ||| 0.714286 0.142857 0.142857 0.714286 0.142857 0.142857
ကား စင် တင် ||| ka: zin tin ||| 0.6 0.2 0.2 0.6 0.2 0.2
ကား စစ် ||| ga: si&apos; ||| 0.6 0.2 0.2 0.6 0.2 0.2
ကား စစ် ထိုး ||| ga: si&apos; htou: ||| 0.6 0.2 0.2 0.6 0.2 0.2
ကား စပ် ||| ga- za&apos; ||| 0.6 0.2 0.2 0.6 0.2 0.2
ကား စပ် ||| ga: sa&apos; ||| 0.6 0.2 0.2 0.6 0.2 0.2
ကား စပ် ၍ ||| ga: sa&apos; jwei. ||| 0.6 0.2 0.2 0.6 0.2 0.2
ကား စိမ်း ||| ga- zein: ||| 0.6 0.2 0.2 0.6 0.2 0.2
ကား ဆိပ် ||| ka: zei&apos; ||| 0.6 0.2 0.2 0.6 0.2 0.2
ကား ညှပ် ||| ga- njha&apos; ||| 0.6 0.2 0.2 0.6 0.2 0.2
ကား တက် ||| ga- de&apos; ||| 0.6 0.2 0.2 0.6 0.2 0.2
ကား တင် ||| ga: tin ||| 0.6 0.2 0.2 0.6 0.2 0.2
ကား တင် စီး ||| ga: tin zi: ||| 0.6 0.2 0.2 0.6 0.2 0.2
ကား တတ် ||| ga: ta&apos; ||| 0.6 0.2 0.2 0.6 0.2 0.2
ကား တောင် ||| ga- daun ||| 0.6 0.2 0.2 0.6 0.2 0.2
ကား တောင် စား ||| ga- daun za: ||| 0.6 0.2 0.2 0.6 0.2 0.2
ကား တံ ||| ga- dan ||| 0.6 0.2 0.2 0.6 0.2 0.2
ကား တံ ရှည် ||| ga- dan shei ||| 0.6 0.2 0.2 0.6 0.2 0.2
ကား ထစ် ||| ga- di&apos; ||| 0.714286 0.142857 0.142857 0.714286 0.142857 0.142857
ကား ထစ် စိုက် ||| ga- di&apos; sai&apos; ||| 0.6 0.2 0.2 0.6 0.2 0.2
ကား ထစ် စိုက် နည်း ||| ga- di&apos; sai&apos; ni: ||| 0.6 0.2 0.2 0.6 0.2 0.2
ကား ထည့် ||| ga: hte ||| 0.6 0.2 0.2 0.6 0.2 0.2
ကား ထာ ||| ga- hta ||| 0.714286 0.142857 0.142857 0.714286 0.142857 0.142857
ကား ထာ ဝှက် ||| ga- hta hwe&apos; ||| 0.6 0.2 0.2 0.6 0.2 0.2
ကား နာ ||| ga- na ||| 0.6 0.2 0.2 0.6 0.2 0.2
ကား နာ ထိုး ||| ga- na htou: ||| 0.6 0.2 0.2 0.6 0.2 0.2
ကား နိုင် ||| ga- nain ||| 0.6 0.2 0.2 0.6 0.2 0.2
ကား နိုင် လု ||| ga- nain lu. ||| 0.6 0.2 0.2 0.6 0.2 0.2
ကား နှစ် ||| ga: nha- ||| 0.6 0.2 0.2 0.6 0.2 0.2
ကား နှစ် ခွ ||| ga: nha- khwa. ||| 0.6 0.2 0.2 0.6 0.2 0.2
ကား နှိုက် ||| ga: hnai&apos; ||| 0.6 0.2 0.2 0.6 0.2 0.2
ကား ပစ် ||| ka: pji&apos; ||| 0.6 0.2 0.2 0.6 0.2 0.2
ကား ပစ် စည်း ||| ka: pji&apos; si: ||| 0.6 0.2 0.2 0.6 0.2 0.2
ကား ပုံ ||| ga: boun ||| 0.6 0.2 0.2 0.6 0.2 0.2
ကား ပေါက် ||| ga- bau&apos; ||| 0.6 0.2 0.2 0.6 0.2 0.2
ကား ပေါက် စ ||| ga- bau&apos; za- ||| 0.6 0.2 0.2 0.6 0.2 0.2
ကား ပေါက် စ ကား ||| ga- bau&apos; za- ga- ||| 0.6 0.2 0.2 0.6 0.2 0.2
ကား ပေါက် စ ကား စ ||| ga- bau&apos; za- ga- za. ||| 0.6 0.2 0.2 0.6 0.2 0.2
ကား ပေါင် ||| ga- baun ||| 0.6 0.2 0.2 0.6 0.2 0.2
ကား ပျိုး ||| ga: pjou: ||| 0.6 0.2 0.2 0.6 0.2 0.2
ကား ပြန် ||| ga- bjan ||| 0.6 0.2 0.2 0.6 0.2 0.2
ကား ပြေ ||| ga- bjei ||| 0.6 0.2 0.2 0.6 0.2 0.2
ကား ပြော ||| ga: pjo: ||| 0.6 0.2 0.2 0.6 0.2 0.2
ကား ဖ ||| ga: hpa. ||| 0.6 0.2 0.2 0.6 0.2 0.2
ကား ဖာ ||| ga: hpa ||| 0.6 0.2 0.2 0.6 0.2 0.2
ကား ဖို ||| ga- hpou ||| 0.6 0.2 0.2 0.6 0.2 0.2
ကား ဖို စ ||| ga- hpou za- ||| 0.6 0.2 0.2 0.6 0.2 0.2
ကား ဖို စ ကား ||| ga- hpou za- ga- ||| 0.6 0.2 0.2 0.6 0.2 0.2
ကား ဖို စ ကား မ ||| ga- hpou za- ga- ma. ||| 0.6 0.2 0.2 0.6 0.2 0.2
ကား ဖောင် ||| ga: hpaun ||| 0.6 0.2 0.2 0.6 0.2 0.2
ကား မ ||| ga- ma. ||| 0.6 0.2 0.2 0.6 0.2 0.2
ကား မ ||| ga: ma- ||| 0.6 0.2 0.2 0.6 0.2 0.2
ကား မ စပ် ||| ga: ma- sa&apos; ||| 0.6 0.2 0.2 0.6 0.2 0.2
ကား မော် ||| ga: mo ||| 0.6 0.2 0.2 0.6 0.2 0.2
ကား မော် ကား ||| ga: mo ga: ||| 0.6 0.2 0.2 0.6 0.2 0.2
ကား မေး ||| ga- mei: ||| 0.6 0.2 0.2 0.6 0.2 0.2
ကား မေး မ ||| ga- mei: ma- ||| 0.6 0.2 0.2 0.6 0.2 0.2
ကား မေး မ ရ ||| ga- mei: ma- ja. ||| 0.6 0.2 0.2 0.6 0.2 0.2
ကား မှတ် ||| ka: mha&apos; ||| 0.6 0.2 0.2 0.6 0.2 0.2
ကား မှတ် တိုင် ||| ka: mha&apos; tain ||| 0.6 0.2 0.2 0.6 0.2 0.2
ကား ရည် ||| ga- jei ||| 0.6 0.2 0.2 0.6 0.2 0.2
ကား ရည် လု ||| ga- jei lu. ||| 0.6 0.2 0.2 0.6 0.2 0.2
ကား ရည် လု ပွဲ ||| ga- jei lu. bwe: ||| 0.6 0.2 0.2 0.6 0.2 0.2
ကား ရား ||| ka: ja: ||| 0.714286 0.142857 0.142857 0.714286 0.142857 0.142857
ကား ရိပ် ||| ga- jei&apos; ||| 0.6 0.2 0.2 0.6 0.2 0.2
ကား ရော ||| ga- jo: ||| 0.6 0.2 0.2 0.6 0.2 0.2
ကား ရော ဖော ||| ga- jo: hpo: ||| 0.6 0.2 0.2 0.6 0.2 0.2
ကား ရော ဖော ရော ||| ga- jo: hpo: jo: ||| 0.6 0.2 0.2 0.6 0.2 0.2
ကား ရောင်း ||| ga- jaun: ||| 0.6 0.2 0.2 0.6 0.2 0.2
ကား ရောင်း စ ||| ga- jaun: za- ||| 0.6 0.2 0.2 0.6 0.2 0.2
ကား ရောင်း စ ကား ||| ga- jaun: za- ga- ||| 0.6 0.2 0.2 0.6 0.2 0.2
ကား ရောင်း စ ကား ဝယ် ||| ga- jaun: za- ga- we ||| 0.6 0.2 0.2 0.6 0.2 0.2
ကား ရှင် ||| ga- shin ||| 0.6 0.2 0.2 0.6 0.2 0.2
ကား လက် ||| ga: le&apos; ||| 0.6 0.2 0.2 0.6 0.2 0.2
ကား လက် ဆုံ ||| ga: le&apos; hsoun ||| 0.6 0.2 0.2 0.6 0.2 0.2
ကား လက် ဆုံ ကျ ||| ga: le&apos; hsoun kya. ||| 0.6 0.2 0.2 0.6 0.2 0.2
ကား လိပ် ||| ka: lei&apos; ||| 0.6 0.2 0.2 0.6 0.2 0.2
ကား လိမ် ||| ga- lein ||| 0.6 0.2 0.2 0.6 0.2 0.2
ကား လိုင်း ||| ka: lain: ||| 0.6 0.2 0.2 0.6 0.2 0.2
ကား လုံး ||| ga- loun: ||| 0.6 0.2 0.2 0.6 0.2 0.2
ကား လွန် ||| ga: lun ||| 0.6 0.2 0.2 0.6 0.2 0.2
ကား လွှဲ ||| ga- lhwe: ||| 0.6 0.2 0.2 0.6 0.2 0.2
ကား ဝယ် ||| ga- we ||| 0.6 0.2 0.2 0.6 0.2 0.2
ကား ဝါ ||| ga- wa ||| 0.6 0.2 0.2 0.6 0.2 0.2
ကား ဝှက် ||| ga- hwe&apos; ||| 0.6 0.2 0.2 0.6 0.2 0.2
ကား သက် ||| ga: the&apos; ||| 0.6 0.2 0.2 0.6 0.2 0.2
ကား သက် သက် ||| ga: the&apos; the&apos; ||| 0.6 0.2 0.2 0.6 0.2 0.2
ကား သား ||| ga: tha: ||| 0.6 0.2 0.2 0.6 0.2 0.2
ကား သား စ ||| ga: tha: za- ||| 0.6 0.2 0.2 0.6 0.2 0.2
ကား သား စ ကား ||| ga: tha: za- ga: ||| 0.6 0.2 0.2 0.6 0.2 0.2
ကား ဟောင်း ||| ga: haun: ||| 0.6 0.2 0.2 0.6 0.2 0.2
ကား အူ ||| ga: u ||| 0.6 0.2 0.2 0.6 0.2 0.2
ကား အူ ပေါက် ||| ga: u bau&apos; ||| 0.6 0.2 0.2 0.6 0.2 0.2
ကား ဦး ||| ga- u: ||| 0.6 0.2 0.2 0.6 0.2 0.2
ကား ဦး သန်း ||| ga- u: than: ||| 0.6 0.2 0.2 0.6 0.2 0.2
ကိ ||| ka- ||| 0.866667 0.0666667 0.0666667 0.866667 0.0666667 0.0666667
ကိ ||| ki. ||| 0.777778 0.111111 0.111111 0.777778 0.111111 0.111111
ကိ မိ ||| ki. mi. ||| 0.6 0.2 0.2 0.6 0.2 0.2
ကိ မိ လ ||| ki. mi. la. ||| 0.6 0.2 0.2 0.6 0.2 0.2
ကိ မိ လ ဗေ ||| ki. mi. la. bei ||| 0.6 0.2 0.2 0.6 0.2 0.2
ကိ မိ လ ဗေ ဒ ||| ki. mi. la. bei da. ||| 0.6 0.2 0.2 0.6 0.2 0.2
ကိ ရိ ||| ka- ri ||| 0.6 0.2 0.2 0.6 0.2 0.2
ကိ ရိ ||| ka- ri. ||| 0.846154 0.0769231 0.0769231 0.846154 0.0769231 0.0769231
ကိ ရိ ယာ ||| ka- ri ja ||| 0.6 0.2 0.2 0.6 0.2 0.2
ကိ ရိ ယာ ||| ka- ri. ja ||| 0.846154 0.0769231 0.0769231 0.846154 0.0769231 0.0769231
ကိ လေ ||| ki. lei ||| 0.714286 0.142857 0.142857 0.714286 0.142857 0.142857
ကိ လေ သ ||| ki. lei tha. ||| 0.6 0.2 0.2 0.6 0.2 0.2
ကိ လေ သ ဝဋ် ||| ki. lei tha. wu&apos; ||| 0.6 0.2 0.2 0.6 0.2 0.2
ကိ လေ သာ ||| ki. lei tha ||| 0.6 0.2 0.2 0.6 0.2 0.2
ကိစ် ||| kei&apos; ||| 0.935484 0.0322581 0.0322581 0.935484 0.0322581 0.0322581
ကိစ် စ ||| kei&apos; sa ||| 0.6 0.2 0.2 0.6 0.2 0.2
ကိစ် စ ||| kei&apos; sa. ||| 0.925926 0.037037 0.037037 0.925926 0.037037 0.037037
ကိစ် စ ကြီး ||| kei&apos; sa kyi: ||| 0.6 0.2 0.2 0.6 0.2 0.2
ကိစ် စ ကြီး ငယ် ||| kei&apos; sa kyi: nge ||| 0.6 0.2 0.2 0.6 0.2 0.2
ကိစ် စ ချော ||| kei&apos; sa. cho: ||| 0.6 0.2 0.2 0.6 0.2 0.2
ကိစ် စ ငြိမ်း ||| kei&apos; sa. njein: ||| 0.6 0.2 0.2 0.6 0.2 0.2
ကိစ် စ တုံး ||| kei&apos; sa. toun: ||| 0.6 0.2 0.2 0.6 0.2 0.2
ကိစ် စ ပြတ် ||| kei&apos; sa. pja&apos; ||| 0.6 0.2 0.2 0.6 0.2 0.2
ကိစ် စ ပြီး ||| kei&apos; sa. pji: ||| 0.6 0.2 0.2 0.6 0.2 0.2
ကိစ် စ များ ||| kei&apos; sa. mja: ||| 0.6 0.2 0.2 0.6 0.2 0.2
ကိစ် ဆာ ||| kei&apos; hsa ||| 0.6 0.2 0.2 0.6 0.2 0.2
ကိတ် ||| kei&apos; ||| 0.777778 0.111111 0.111111 0.777778 0.111111 0.111111
ကိတ် ပဲ ||| kei&apos; pe: ||| 0.6 0.2 0.2 0.6 0.2 0.2
ကိတ် မုန့် ||| kei&apos; moun. ||| 0.6 0.2 0.2 0.6 0.2 0.2
ကိန် ||| kein ||| 0.777778 0.111111 0.111111 0.777778 0.111111 0.111111
ကိန် န ||| kein na- ||| 0.777778 0.111111 0.111111 0.777778 0.111111 0.111111
ကိန် န ရာ ||| kein na- ja ||| 0.714286 0.142857 0.142857 0.714286 0.142857 0.142857
ကိန် န ရာ နာ ||| kein na- ja na ||| 0.6 0.2 0.2 0.6 0.2 0.2
ကိန် န ရီ ||| kein na- ji: ||| 0.6 0.2 0.2 0.6 0.2 0.2
ကိန်း ||| gein: ||| 0.882353 0.0588235 0.0588235 0.882353 0.0588235 0.0588235
ကိန်း ||| kain: ||| 0.6 0.2 0.2 0.6 0.2 0.2
ကိန်း ||| kein ||| 0.6 0.2 0.2 0.6 0.2 0.2
ကိန်း ||| kein: ||| 0.964912 0.0175439 0.0175439 0.964912 0.0175439 0.0175439
ကိန်း ကိုက် ||| kein: kai&apos; ||| 0.6 0.2 0.2 0.6 0.2 0.2
ကိန်း ကြီး ||| kein: gyi: ||| 0.6 0.2 0.2 0.6 0.2 0.2
ကိန်း ကြီး ခန်း ||| kein: gyi: khan: ||| 0.6 0.2 0.2 0.6 0.2 0.2
ကိန်း ကြီး ခန်း ကြီး ||| kein: gyi: khan: gyi: ||| 0.6 0.2 0.2 0.6 0.2 0.2
ကိန်း ဂ ||| kein: ga- ||| 0.6 0.2 0.2 0.6 0.2 0.2
ကိန်း ဂ ဏန်း ||| kein: ga- nan: ||| 0.6 0.2 0.2 0.6 0.2 0.2
ကိန်း စစ် ||| kein: zi&apos; ||| 0.6 0.2 0.2 0.6 0.2 0.2
ကိန်း စု ||| kein zu ||| 0.6 0.2 0.2 0.6 0.2 0.2
ကိန်း စု တန်း ||| kein zu dan ||| 0.6 0.2 0.2 0.6 0.2 0.2
ကိန်း ဆိုက် ||| kein: hsai&apos; ||| 0.6 0.2 0.2 0.6 0.2 0.2
ကိန်း တန်း ||| kein: dan: ||| 0.6 0.2 0.2 0.6 0.2 0.2
ကိန်း ထွေ ||| kein: htwei ||| 0.6 0.2 0.2 0.6 0.2 0.2
ကိန်း နှော ||| kain: nho: ||| 0.6 0.2 0.2 0.6 0.2 0.2
ကိန်း ပြည့် ||| kein: bjei ||| 0.6 0.2 0.2 0.6 0.2 0.2
ကိန်း ပြည့် ||| kein: bji: ||| 0.6 0.2 0.2 0.6 0.2 0.2
ကိန်း ယောင် ||| kein: jaun ||| 0.6 0.2 0.2 0.6 0.2 0.2
ကိန်း ရင်း ||| kein: jin: ||| 0.6 0.2 0.2 0.6 0.2 0.2
ကိန်း ရော ||| kein: jo: ||| 0.6 0.2 0.2 0.6 0.2 0.2
ကိန်း ရှင် ||| kein: shin ||| 0.6 0.2 0.2 0.6 0.2 0.2
ကိန်း ဝပ် ||| kein: wu&apos; ||| 0.6 0.2 0.2 0.6 0.2 0.2
ကိန်း သေ ||| kein: dhei ||| 0.714286 0.142857 0.142857 0.714286 0.142857 0.142857
ကိန်း သေ ပေါက် ||| kein: dhei bau&apos; ||| 0.6 0.2 0.2 0.6 0.2 0.2
ကိန်း အောင်း ||| kein: aun: ||| 0.6 0.2 0.2 0.6 0.2 0.2
ကို ||| gou ||| 0.777778 0.111111 0.111111 0.777778 0.111111 0.111111
ကို ||| goun ||| 0.6 0.2 0.2 0.6 0.2 0.2
ကို ||| ko ||| 0.6 0.2 0.2 0.6 0.2 0.2
ကို ||| kou ||| 0.939394 0.030303 0.030303 0.939394 0.030303 0.030303
ကို ကင်း ||| kou kin: ||| 0.6 0.2 0.2 0.6 0.2 0.2
ကို ကို ||| kou kou ||| 0.6 0.2 0.2 0.6 0.2 0.2
ကို ချည် ||| gou chi ||| 0.6 0.2 0.2 0.6 0.2 0.2
ကို ဉာဏ် ||| goun jan ||| 0.6 0.2 0.2 0.6 0.2 0.2
ကို ဓ ||| kou da. ||| 0.6 0.2 0.2 0.6 0.2 0.2
ကို ဓ ဥ ||| kou da. u ||| 0.6 0.2 0.2 0.6 0.2 0.2
ကို ဓ ဥ ပ ||| kou da. u ba- ||| 0.6 0.2 0.2 0.6 0.2 0.2
ကို ဓ ဥ ပ ဒေ ||| kou da. u ba- dei ||| 0.6 0.2 0.2 0.6 0.2 0.2
ကို နာ ||| kou na ||| 0.6 0.2 0.2 0.6 0.2 0.2
ကို မ ||| kou ma- ||| 0.6 0.2 0.2 0.6 0.2 0.2
ကို မ သိ ||| kou ma- thi. ||| 0.6 0.2 0.2 0.6 0.2 0.2
ကို မ သိ တ ||| kou ma- thi. da- ||| 0.6 0.2 0.2 0.6 0.2 0.2
ကို မ သိ တ သိ ||| kou ma- thi. da- dhi. ||| 0.6 0.2 0.2 0.6 0.2 0.2
ကို ရင် ||| kou jin ||| 0.714286 0.142857 0.142857 0.714286 0.142857 0.142857
ကို ရင် ဝတ် ||| kou jin wu&apos; ||| 0.6 0.2 0.2 0.6 0.2 0.2
ကို ရီ ||| ko ri ||| 0.6 0.2 0.2 0.6 0.2 0.2
ကို လို ||| kou lou ||| 0.714286 0.142857 0.142857 0.714286 0.142857 0.142857
ကို လို နီ ||| kou lou ni ||| 0.714286 0.142857 0.142857 0.714286 0.142857 0.142857
ကို လို နီ ဝါ ||| kou lou ni wa ||| 0.6 0.2 0.2 0.6 0.2 0.2
ကို လို နီ ဝါ ဒ ||| kou lou ni wa da. ||| 0.6 0.2 0.2 0.6 0.2 0.2
ကို သတ် ||| gou tha&apos; ||| 0.6 0.2 0.2 0.6 0.2 0.2
ကို သတ် ||| kou tha&apos; ||| 0.6 0.2 0.2 0.6 0.2 0.2
ကို သတ် တိ ||| gou tha&apos; ti. ||| 0.6 0.2 0.2 0.6 0.2 0.2
ကို သတ် သေ ||| kou tha&apos; thei ||| 0.6 0.2 0.2 0.6 0.2 0.2
ကိုက် ||| gai&apos; ||| 0.866667 0.0666667 0.0666667 0.866667 0.0666667 0.0666667
ကိုက် ||| kai ||| 0.6 0.2 0.2 0.6 0.2 0.2
ကိုက် ||| kai&apos; ||| 0.964912 0.0175439 0.0175439 0.964912 0.0175439 0.0175439
ကိုက် ခဲ ||| kai&apos; khe: ||| 0.6 0.2 0.2 0.6 0.2 0.2
ကိုက် ညီ ||| kai&apos; nji ||| 0.6 0.2 0.2 0.6 0.2 0.2
ကိုက် တောင် ||| gai&apos; taun ||| 0.6 0.2 0.2 0.6 0.2 0.2
ကိုက် ထိုး ||| gai&apos; htou: ||| 0.6 0.2 0.2 0.6 0.2 0.2
ကိုက် ဗုံး ||| gai&apos; boun: ||| 0.6 0.2 0.2 0.6 0.2 0.2
ကိုက် လန် ||| kai&apos; lan ||| 0.6 0.2 0.2 0.6 0.2 0.2
ကိုက် အ ||| kai&apos; a- ||| 0.6 0.2 0.2 0.6 0.2 0.2
ကိုက် အ ခဲ ||| kai&apos; a- khe: ||| 0.6 0.2 0.2 0.6 0.2 0.2
ကိုင် ||| gain ||| 0.95122 0.0243902 0.0243902 0.95122 0.0243902 0.0243902
ကိုင် ||| gain: ||| 0.6 0.2 0.2 0.6 0.2 0.2
ကိုင် ||| kain ||| 0.975904 0.0120482 0.0120482 0.975904 0.0120482 0.0120482
ကိုင် ခင်း ||| kain gin: ||| 0.6 0.2 0.2 0.6 0.2 0.2
ကိုင် ငန်း ||| kain ngan: ||| 0.6 0.2 0.2 0.6 0.2 0.2
ကိုင် ငွေ ||| kain ngwei ||| 0.6 0.2 0.2 0.6 0.2 0.2
ကိုင် စက် ||| gain se&apos; ||| 0.6 0.2 0.2 0.6 0.2 0.2
ကိုင် စက် ကူ ||| gain se&apos; ku ||| 0.6 0.2 0.2 0.6 0.2 0.2
ကိုင် စား ||| kain za: ||| 0.6 0.2 0.2 0.6 0.2 0.2
ကိုင် စွဲ ||| kain swe: ||| 0.6 0.2 0.2 0.6 0.2 0.2
ကိုင် ဆောင် ||| kain hsaun ||| 0.6 0.2 0.2 0.6 0.2 0.2
ကိုင် တုတ် ||| kain dou&apos; ||| 0.6 0.2 0.2 0.6 0.2 0.2
ကိုင် တွယ် ||| kain twe ||| 0.6 0.2 0.2 0.6 0.2 0.2
ကိုင် ထား ||| kain hta: ||| 0.6 0.2 0.2 0.6 0.2 0.2
ကိုင် ပ ||| kain pa- ||| 0.6 0.2 0.2 0.6 0.2 0.2
ကိုင် ပ ဝါ ||| kain pa- wa ||| 0.6 0.2 0.2 0.6 0.2 0.2
ကိုင် ပေါက် ||| kain pau&apos; ||| 0.6 0.2 0.2 0.6 0.2 0.2
ကိုင် ပြေး ||| gain pjei: ||| 0.6 0.2 0.2 0.6 0.2 0.2
ကိုင် ပြေး ပွဲ ||| gain pjei: bwe: ||| 0.6 0.2 0.2 0.6 0.2 0.2
ကိုင် မိ ||| kain mi. ||| 0.714286 0.142857 0.142857 0.714286 0.142857 0.142857
ကိုင် မိ ဖြစ် ||| kain mi. hpji&apos; ||| 0.6 0.2 0.2 0.6 0.2 0.2
ကိုင် မိ လက် ||| kain mi. le&apos; ||| 0.6 0.2 0.2 0.6 0.2 0.2
ကိုင် မိ လက် မ ||| kain mi. le&apos; ma- ||| 0.6 0.2 0.2 0.6 0.2 0.2
ကိုင် မိ လက် မ ကိုင် ||| kain mi. le&apos; ma- kain ||| 0.6 0.2 0.2 0.6 0.2 0.2
ကိုင် ရည် ||| kain jei ||| 0.6 0.2 0.2 0.6 0.2 0.2
ကိုင် လှုပ် ||| kain lhou&apos; ||| 0.6 0.2 0.2 0.6 0.2 0.2
ကိုင်း ||| gain: ||| 0.92 0.04 0.04 0.92 0.04 0.04
ကိုင်း ||| kain ||| 0.6 0.2 0.2 0.6 0.2 0.2
ကိုင်း ||| kain: ||| 0.935484 0.0322581 0.0322581 0.935484 0.0322581 0.0322581
ကိုင်း ကျွန်း ||| kain: kyun: ||| 0.777778 0.111111 0.111111 0.777778 0.111111 0.111111
ကိုင်း ကျွန်း မှီ ||| kain: kyun: mhi ||| 0.6 0.2 0.2 0.6 0.2 0.2
ကိုင်း ကျွန်း မှီ ကျွန်း ||| kain: kyun: mhi kyun: ||| 0.6 0.2 0.2 0.6 0.2 0.2
ကိုင်း ကျွန်း မှီ ကျွန်း ကိုင်း ||| kain: kyun: mhi kyun: kain: ||| 0.6 0.2 0.2 0.6 0.2 0.2
ကိုင်း ဆက် ||| gain: hse&apos; ||| 0.6 0.2 0.2 0.6 0.2 0.2
ကိုင်း ဆက် ကူး ||| gain: hse&apos; ku: ||| 0.6 0.2 0.2 0.6 0.2 0.2
ကိုင်း ဆတ် ||| kain hsa&apos; ||| 0.6 0.2 0.2 0.6 0.2 0.2
ကိုင်း ဆတ် မြီး ||| kain hsa&apos; mi: ||| 0.6 0.2 0.2 0.6 0.2 0.2
ကိုင်း ညွတ် ||| kain: nju&apos; ||| 0.714286 0.142857 0.142857 0.714286 0.142857 0.142857
ကိုင်း ထောက် ||| gain: htau&apos; ||| 0.6 0.2 0.2 0.6 0.2 0.2
ကိုင်း ထောင် ||| gain: htaun ||| 0.6 0.2 0.2 0.6 0.2 0.2
ကိုင်း ပန်း ||| kain: ba- ||| 0.6 0.2 0.2 0.6 0.2 0.2
ကိုင်း ပန်း ပြား ||| kain: ba- bja: ||| 0.6 0.2 0.2 0.6 0.2 0.2
ကိုင်း ပန်း ပြား ပင် ||| kain: ba- bja: bin ||| 0.6 0.2 0.2 0.6 0.2 0.2
ကိုင်း ပျ ||| kain: pja ||| 0.6 0.2 0.2 0.6 0.2 0.2
ကိုင်း မှီ ||| kain: mhi ||| 0.6 0.2 0.2 0.6 0.2 0.2
ကိုင်း ရှိုင်း ||| kain: shain: ||| 0.714286 0.142857 0.142857 0.714286 0.142857 0.142857
ကိုင်း လွတ် ||| kain: lu&apos; ||| 0.6 0.2 0.2 0.6 0.2 0.2
ကိုင်း လွှ ||| gain: lhwa. ||| 0.6 0.2 0.2 0.6 0.2 0.2
ကိုင်း အ ||| kain: a- ||| 0.6 0.2 0.2 0.6 0.2 0.2
ကိုင်း အ ခက် ||| kain: a- khe&apos; ||| 0.6 0.2 0.2 0.6 0.2 0.2
ကိုင်း ဥ ||| kain: u. ||| 0.6 0.2 0.2 0.6 0.2 0.2
ကိုဋ် ||| gai&apos; ||| 0.6 0.2 0.2 0.6 0.2 0.2
ကိုယ့် ||| kou. ||| 0.846154 0.0769231 0.0769231 0.846154 0.0769231 0.0769231
ကိုယ့် ကိုယ် ||| kou. kou ||| 0.6 0.2 0.2 0.6 0.2 0.2
ကိုယ့် ကိုယ် ကို ||| kou. kou kou ||| 0.6 0.2 0.2 0.6 0.2 0.2
ကိုယ့် ကိုယ် ကို သတ် ||| kou. kou kou tha&apos; ||| 0.6 0.2 0.2 0.6 0.2 0.2
ကိုယ့် ကိုယ် ကို သတ် သေ ||| kou. kou kou tha&apos; thei ||| 0.6 0.2 0.2 0.6 0.2 0.2
ကိုယ့် ချင်း ||| kou. chin: ||| 0.6 0.2 0.2 0.6 0.2 0.2
ကိုယ့် မင်း ||| kou. min: ||| 0.6 0.2 0.2 0.6 0.2 0.2
ကိုယ့် မင်း ကိုယ့် ||| kou. min: kou. ||| 0.6 0.2 0.2 0.6 0.2 0.2
ကိုယ့် မင်း ကိုယ့် ချင်း ||| kou. min: kou. chin: ||| 0.6 0.2 0.2 0.6 0.2 0.2
ကိုယ့် ရှူး ||| kou. shu: ||| 0.6 0.2 0.2 0.6 0.2 0.2
ကိုယ့် ရှူး ကိုယ် ||| kou. shu: kou ||| 0.6 0.2 0.2 0.6 0.2 0.2
ကိုယ့် ရှူး ကိုယ် ပတ် ||| kou. shu: kou pa&apos; ||| 0.6 0.2 0.2 0.6 0.2 0.2
ကိုယ့် အား ||| kou. a: ||| 0.6 0.2 0.2 0.6 0.2 0.2
ကိုယ့် အား ကိုယ် ||| kou. a: kou ||| 0.6 0.2 0.2 0.6 0.2 0.2
ကိုယ့် အား ကိုယ် ကိုး ||| kou. a: kou kou: ||| 0.6 0.2 0.2 0.6 0.2 0.2
ကိုယ် ||| gou ||| 0.882353 0.0588235 0.0588235 0.882353 0.0588235 0.0588235
ကိုယ် ||| kou ||| 0.99005 0.00497512 0.00497512 0.99005 0.00497512 0.00497512
ကိုယ် ||| kya- ||| 0.6 0.2 0.2 0.6 0.2 0.2
ကိုယ် ကို ||| kou kou ||| 0.6 0.2 0.2 0.6 0.2 0.2
ကိုယ် ကို သတ် ||| kou kou tha&apos; ||| 0.6 0.2 0.2 0.6 0.2 0.2
ကိုယ် ကို သတ် သေ ||| kou kou tha&apos; thei ||| 0.6 0.2 0.2 0.6 0.2 0.2
ကိုယ် ကိုး ||| kou kou: ||| 0.6 0.2 0.2 0.6 0.2 0.2
ကိုယ် ကောင်း ||| gou gaun: ||| 0.6 0.2 0.2 0.6 0.2 0.2
ကိုယ် ကျ ||| kou gya ||| 0.6 0.2 0.2 0.6 0.2 0.2
ကိုယ် ကျင့် ||| kou gyin. ||| 0.6 0.2 0.2 0.6 0.2 0.2
ကိုယ် ကျင့် တ ||| kou gyin. ta- ||| 0.6 0.2 0.2 0.6 0.2 0.2
ကိုယ် ကျင့် တ ရား ||| kou gyin. ta- ja: ||| 0.6 0.2 0.2 0.6 0.2 0.2
ကိုယ် ကျိုး ||| kou gyou: ||| 0.818182 0.0909091 0.0909091 0.818182 0.0909091 0.0909091
ကိုယ် ကျိုး စွန့် ||| kou gyou: sun. ||| 0.6 0.2 0.2 0.6 0.2 0.2
ကိုယ် ကျိုး နည်း ||| kou gyou: ne: ||| 0.6 0.2 0.2 0.6 0.2 0.2
ကိုယ် ကျိုး ရှာ ||| kou gyou: sha: ||| 0.6 0.2 0.2 0.6 0.2 0.2
ကိုယ် ကြား ||| kou gya: ||| 0.6 0.2 0.2 0.6 0.2 0.2
ကိုယ် ကြေ ||| kou kyei ||| 0.6 0.2 0.2 0.6 0.2 0.2
ကိုယ် ကြေ ဖြစ် ||| kou kyei hpji&apos; ||| 0.6 0.2 0.2 0.6 0.2 0.2
ကိုယ် ခန် ||| kou khan ||| 0.6 0.2 0.2 0.6 0.2 0.2
ကိုယ် ခန် ဓာ ||| kou khan da ||| 0.6 0.2 0.2 0.6 0.2 0.2
ကိုယ် ခံ ||| kou gan ||| 0.6 0.2 0.2 0.6 0.2 0.2
ကိုယ် ခံ ပ ||| kou gan pjin ||| 0.6 0.2 0.2 0.6 0.2 0.2
ကိုယ် ခံ ပ ညာ ||| kou gan pjin nja ||| 0.6 0.2 0.2 0.6 0.2 0.2
ကိုယ် ချင်း ||| kou gyin: ||| 0.714286 0.142857 0.142857 0.714286 0.142857 0.142857
ကိုယ် ချင်း စာ ||| kou gyin: sa ||| 0.714286 0.142857 0.142857 0.714286 0.142857 0.142857
ကိုယ် ချင်း စာ တ ||| kou gyin: sa ta- ||| 0.6 0.2 0.2 0.6 0.2 0.2
ကိုယ် ချင်း စာ တ ရား ||| kou gyin: sa ta- ja: ||| 0.6 0.2 0.2 0.6 0.2 0.2
ကိုယ် ချွန် ||| kou chun ||| 0.6 0.2 0.2 0.6 0.2 0.2
ကိုယ် ခွဲ ||| kou gwe: ||| 0.714286 0.142857 0.142857 0.714286 0.142857 0.142857
ကိုယ် ငွေ့ ||| kou ngwei. ||| 0.6 0.2 0.2 0.6 0.2 0.2
ကိုယ် စ ||| kou za. ||| 0.6 0.2 0.2 0.6 0.2 0.2
ကိုယ် စား ||| kou za ||| 0.6 0.2 0.2 0.6 0.2 0.2
ကိုယ် စား ||| kou za- ||| 0.777778 0.111111 0.111111 0.777778 0.111111 0.111111
ကိုယ် စား ||| kou za: ||| 0.6 0.2 0.2 0.6 0.2 0.2
ကိုယ် စား လှယ် ||| kou za le ||| 0.6 0.2 0.2 0.6 0.2 0.2
ကိုယ် စား လှယ် ||| kou za- le ||| 0.777778 0.111111 0.111111 0.777778 0.111111 0.111111
ကိုယ် စား လှယ် လွှဲ ||| kou za le lhwe: ||| 0.6 0.2 0.2 0.6 0.2 0.2
ကိုယ် စား လှယ် လွှဲ စာ ||| kou za le lhwe: za ||| 0.6 0.2 0.2 0.6 0.2 0.2
ကိုယ် စား လှယ် အ ||| kou za- le a- ||| 0.6 0.2 0.2 0.6 0.2 0.2
ကိုယ် စား လှယ် အ ဖွဲ့ ||| kou za- le a- hpwe ||| 0.6 0.2 0.2 0.6 0.2 0.2
ကိုယ် စွမ်း ||| kou zwan: ||| 0.6 0.2 0.2 0.6 0.2 0.2
ကိုယ် စွမ်း ကိုယ် ||| kou zwan: kou ||| 0.6 0.2 0.2 0.6 0.2 0.2
ကိုယ် စွမ်း ကိုယ် စ ||| kou zwan: kou za. ||| 0.6 0.2 0.2 0.6 0.2 0.2
ကိုယ် ဆက် ||| kou ze&apos; ||| 0.6 0.2 0.2 0.6 0.2 0.2
ကိုယ် ဆက် အ ||| kou ze&apos; a- ||| 0.6 0.2 0.2 0.6 0.2 0.2
ကိုယ် ဆက် အ မြွှာ ||| kou ze&apos; a- mhwa ||| 0.6 0.2 0.2 0.6 0.2 0.2
ကိုယ် ဆံ့ ||| kou hsan. ||| 0.6 0.2 0.2 0.6 0.2 0.2
ကိုယ် တစ် ||| kou da- ||| 0.714286 0.142857 0.142857 0.714286 0.142857 0.142857
ကိုယ် တစ် ||| kou ta- ||| 0.714286 0.142857 0.142857 0.714286 0.142857 0.142857
ကိုယ် တစ် ခု ||| kou ta- khu. ||| 0.6 0.2 0.2 0.6 0.2 0.2
ကိုယ် တစ် ခြမ်း ||| kou ta- chan: ||| 0.6 0.2 0.2 0.6 0.2 0.2
ကိုယ် တစ် ခြမ်း သေ ||| kou ta- chan: dhei ||| 0.6 0.2 0.2 0.6 0.2 0.2
ကိုယ် တစ် ခြမ်း သေ ရော ||| kou ta- chan: dhei jo: ||| 0.6 0.2 0.2 0.6 0.2 0.2
ကိုယ် တစ် ပိုင်း ||| kou da- bain: ||| 0.714286 0.142857 0.142857 0.714286 0.142857 0.142857
ကိုယ် တစ် ပိုင်း သေ ||| kou da- bain: dhei ||| 0.6 0.2 0.2 0.6 0.2 0.2
ကိုယ် တစ် ပိုင်း သေ ရော ||| kou da- bain: dhei jo: ||| 0.6 0.2 0.2 0.6 0.2 0.2
ကိုယ် တာ ||| kou da ||| 0.6 0.2 0.2 0.6 0.2 0.2
ကိုယ် တိုင် ||| kou dain ||| 0.777778 0.111111 0.111111 0.777778 0.111111 0.111111
ကိုယ် တိုင် ကိုယ် ||| kou dain kou ||| 0.6 0.2 0.2 0.6 0.2 0.2
ကိုယ် တိုင် ကိုယ် ကျ ||| kou dain kou gya ||| 0.6 0.2 0.2 0.6 0.2 0.2
ကိုယ် တိုင် ရေး ||| kou dain jei: ||| 0.6 0.2 0.2 0.6 0.2 0.2
ကိုယ် တိုင် ရေး အတ် ||| kou dain jei: a&apos; ||| 0.6 0.2 0.2 0.6 0.2 0.2
ကိုယ် တိုင် ရေး အတ် ထုပ် ||| kou dain jei: a&apos; htou&apos; ||| 0.6 0.2 0.2 0.6 0.2 0.2
ကိုယ် တုံး ||| kou toun: ||| 0.6 0.2 0.2 0.6 0.2 0.2
ကိုယ် တုံး လုံး ||| kou toun: loun: ||| 0.6 0.2 0.2 0.6 0.2 0.2
ကိုယ် တော် ||| kou do ||| 0.6 0.2 0.2 0.6 0.2 0.2
ကိုယ် တွေ့ ||| kou dwei. ||| 0.714286 0.142857 0.142857 0.714286 0.142857 0.142857
ကိုယ် တွေ့ ဝထ် ||| kou dwei. wu&apos; ||| 0.6 0.2 0.2 0.6 0.2 0.2
ကိုယ် တွေ့ ဝထ် ထု ||| kou dwei. wu&apos; htu. ||| 0.6 0.2 0.2 0.6 0.2 0.2
ကိုယ် ထ ||| kou hta. ||| 0.6 0.2 0.2 0.6 0.2 0.2
ကိုယ် ထင် ||| kou din ||| 0.6 0.2 0.2 0.6 0.2 0.2
ကိုယ် ထင် ပြ ||| kou din pja. ||| 0.6 0.2 0.2 0.6 0.2 0.2
ကိုယ် ထည် ||| kou de ||| 0.714286 0.142857 0.142857 0.714286 0.142857 0.142857
ကိုယ် ထိ ||| kou di ||| 0.6 0.2 0.2 0.6 0.2 0.2
ကိုယ် ထိ လက် ||| kou di le&apos; ||| 0.6 0.2 0.2 0.6 0.2 0.2
ကိုယ် ထိ လက် ရောက် ||| kou di le&apos; jau&apos; ||| 0.6 0.2 0.2 0.6 0.2 0.2
ကိုယ် ထီး ||| kou di: ||| 0.6 0.2 0.2 0.6 0.2 0.2
ကိုယ် ထီး ကျန် ||| kou di: kyan ||| 0.6 0.2 0.2 0.6 0.2 0.2
ကိုယ် ထူ ||| kou htu ||| 0.6 0.2 0.2 0.6 0.2 0.2
ကိုယ် ထူ ကိုယ် ||| kou htu kou ||| 0.6 0.2 0.2 0.6 0.2 0.2
ကိုယ် ထူ ကိုယ် ထ ||| kou htu kou hta. ||| 0.6 0.2 0.2 0.6 0.2 0.2
ကိုယ် ထူး ||| kou du: ||| 0.6 0.2 0.2 0.6 0.2 0.2
ကိုယ် ထူး ကိုယ် ||| kou du: kou ||| 0.6 0.2 0.2 0.6 0.2 0.2
ကိုယ် ထူး ကိုယ် ချွန် ||| kou du: kou chun ||| 0.6 0.2 0.2 0.6 0.2 0.2
ကိုယ် နု ||| kou nu. ||| 0.6 0.2 0.2 0.6 0.2 0.2
ကိုယ် နေ ||| kou nei ||| 0.6 0.2 0.2 0.6 0.2 0.2
ကိုယ် နေ ကိုယ် ||| kou nei kou ||| 0.6 0.2 0.2 0.6 0.2 0.2
ကိုယ် နေ ကိုယ် ဟန် ||| kou nei kou han ||| 0.6 0.2 0.2 0.6 0.2 0.2
ကိုယ် ပတ် ||| kou pa&apos; ||| 0.6 0.2 0.2 0.6 0.2 0.2
ကိုယ် ပါ ||| kou ba ||| 0.6 0.2 0.2 0.6 0.2 0.2
ကိုယ် ပိုင် ||| kou bain ||| 0.818182 0.0909091 0.0909091 0.818182 0.0909091 0.0909091
ကိုယ် ပိုင် ကား ||| kou bain ka: ||| 0.6 0.2 0.2 0.6 0.2 0.2
ကိုယ် ပိုင် စာ ||| kou bain sa ||| 0.6 0.2 0.2 0.6 0.2 0.2
ကိုယ် ပိုင် စာ ကြည့် ||| kou bain sa kyi. ||| 0.6 0.2 0.2 0.6 0.2 0.2
ကိုယ် ပိုင် စာ ကြည့် တိုက် ||| kou bain sa kyi. dai&apos; ||| 0.6 0.2 0.2 0.6 0.2 0.2
ကိုယ် ပိုင် ပစ် ||| kou bain pji&apos; ||| 0.6 0.2 0.2 0.6 0.2 0.2
ကိုယ် ပိုင် ပစ် စည်း ||| kou bain pji&apos; si: ||| 0.6 0.2 0.2 0.6 0.2 0.2
ကိုယ် ပိုင် အုပ် ||| kou bain ou&apos; ||| 0.6 0.2 0.2 0.6 0.2 0.2
ကိုယ် ပိုင် အုပ် ချုပ် ||| kou bain ou&apos; chou&apos; ||| 0.6 0.2 0.2 0.6 0.2 0.2
ကိုယ် ပိုင် အုပ် ချုပ် ရေး ||| kou bain ou&apos; chou&apos; jei: ||| 0.6 0.2 0.2 0.6 0.2 0.2
ကိုယ် ပေါက် ||| kou bau&apos; ||| 0.6 0.2 0.2 0.6 0.2 0.2
