... ||| ... ||| 0.866667 0.0666667 0.0666667 0.866667 0.0666667 0.0666667
... စဉ် ||| ... zin ||| 0.6 0.2 0.2 0.6 0.2 0.2
... ရိုး ... ||| ... jou: ... ||| 0.6 0.2 0.2 0.6 0.2 0.2
... ရိုး ... စဉ် ||| ... jou: ... zin ||| 0.6 0.2 0.2 0.6 0.2 0.2
... ရိုး ||| ... jou: ||| 0.6 0.2 0.2 0.6 0.2 0.2
က ||| ga ||| 0.777778 0.111111 0.111111 0.777778 0.111111 0.111111
က ||| ga- ||| 0.995181 0.00240964 0.00240964 0.995181 0.00240964 0.00240964
က ||| ga. ||| 0.957447 0.0212766 0.0212766 0.957447 0.0212766 0.0212766
က ||| ka ||| 0.882353 0.0588235 0.0588235 0.882353 0.0588235 0.0588235
က ||| ka&apos; ||| 0.714286 0.142857 0.142857 0.714286 0.142857 0.142857
က ||| ka- ||| 0.995338 0.002331 0.002331 0.995338 0.002331 0.002331
က ||| ka. ||| 0.991031 0.0044843 0.0044843 0.991031 0.0044843 0.0044843
က ||| kau&apos; ||| 0.6 0.2 0.2 0.6 0.2 0.2
က ||| kha- ||| 0.894737 0.0526316 0.0526316 0.894737 0.0526316 0.0526316
က ကြိုး ||| ka. gyou: ||| 0.6 0.2 0.2 0.6 0.2 0.2
က စား ||| ga- za: ||| 0.942857 0.0285714 0.0285714 0.942857 0.0285714 0.0285714
က စား နည်း ||| ga- za: ni: ||| 0.6 0.2 0.2 0.6 0.2 0.2
က ဇာတ် ||| ka. za&apos; ||| 0.6 0.2 0.2 0.6 0.2 0.2
က ညင် ||| ka- njin ||| 0.714286 0.142857 0.142857 0.714286 0.142857 0.142857
က ညင် ဆီ ||| ka- njin zi ||| 0.6 0.2 0.2 0.6 0.2 0.2
က ညစ် ||| ka- nji&apos; ||| 0.6 0.2 0.2 0.6 0.2 0.2
က တက် ||| ga- de&apos; ||| 0.714286 0.142857 0.142857 0.714286 0.142857 0.142857
က တိ ||| ga- di ||| 0.6 0.2 0.2 0.6 0.2 0.2
က တိ ||| ga- di. ||| 0.939394 0.030303 0.030303 0.939394 0.030303 0.030303
က တိ ||| ga- ti. ||| 0.6 0.2 0.2 0.6 0.2 0.2
က တိ ခံ ||| ga- di. khan ||| 0.6 0.2 0.2 0.6 0.2 0.2
က တိ ခံ ဝန် ||| ga- di. khan wun ||| 0.6 0.2 0.2 0.6 0.2 0.2
က တိ သစ် ||| ga- di. thi&apos; ||| 0.6 0.2 0.2 0.6 0.2 0.2
က တိ သစ် စာ ||| ga- di. thi&apos; sa ||| 0.6 0.2 0.2 0.6 0.2 0.2
က တိ သစ် စာ ပြု ||| ga- di. thi&apos; sa pju. ||| 0.6 0.2 0.2 0.6 0.2 0.2
က တိမ်း ||| ga- dein: ||| 0.6 0.2 0.2 0.6 0.2 0.2
က တိမ်း က ||| ga- dein: ga- ||| 0.6 0.2 0.2 0.6 0.2 0.2
က တိုး ||| ga dou: ||| 0.6 0.2 0.2 0.6 0.2 0.2
က တိုး ||| ga- dou: ||| 0.866667 0.0666667 0.0666667 0.866667 0.0666667 0.0666667
က တောက် ||| ga- dau&apos; ||| 0.777778 0.111111 0.111111 0.777778 0.111111 0.111111
က တောက် က ||| ga- dau&apos; ga- ||| 0.6 0.2 0.2 0.6 0.2 0.2
က တော့ ||| ga- do. ||| 0.846154 0.0769231 0.0769231 0.846154 0.0769231 0.0769231
က တော် ||| ga- do ||| 0.6 0.2 0.2 0.6 0.2 0.2
က တဲ ||| ga- de: ||| 0.6 0.2 0.2 0.6 0.2 0.2
က ထ ||| ka- hta. ||| 0.714286 0.142857 0.142857 0.714286 0.142857 0.142857
က ထိန် ||| ka- htein ||| 0.714286 0.142857 0.142857 0.714286 0.142857 0.142857
က န ||| ka- na- ||| 0.846154 0.0769231 0.0769231 0.846154 0.0769231 0.0769231
က နား ||| ka- na- ||| 0.6 0.2 0.2 0.6 0.2 0.2
က နား ||| ka- na: ||| 0.846154 0.0769231 0.0769231 0.846154 0.0769231 0.0769231
က နု ||| ka- nu. ||| 0.6 0.2 0.2 0.6 0.2 0.2
က ပါး ||| ga- ba: ||| 0.714286 0.142857 0.142857 0.714286 0.142857 0.142857
က ပျာ ||| ga- bja ||| 0.6 0.2 0.2 0.6 0.2 0.2
က ပျာ က ||| ga- bja ga- ||| 0.6 0.2 0.2 0.6 0.2 0.2
က ဗေ ||| ka. bei ||| 0.714286 0.142857 0.142857 0.714286 0.142857 0.142857
က ဗေ ဒ ||| ka. bei da. ||| 0.714286 0.142857 0.142857 0.714286 0.142857 0.142857
က ဗျာ ||| ga- bja ||| 0.818182 0.0909091 0.0909091 0.818182 0.0909091 0.0909091
က ဗွီး ||| ga- bwi: ||| 0.6 0.2 0.2 0.6 0.2 0.2
က မ ||| ka- ma. ||| 0.714286 0.142857 0.142857 0.714286 0.142857 0.142857
က မ ||| ka. ma- ||| 0.6 0.2 0.2 0.6 0.2 0.2
က မာ ||| ka- ma ||| 0.714286 0.142857 0.142857 0.714286 0.142857 0.142857
က မုခ် ||| ga- mou&apos; ||| 0.6 0.2 0.2 0.6 0.2 0.2
က မူ ||| ga- mu ||| 0.6 0.2 0.2 0.6 0.2 0.2
က ရ ||| ga- ja. ||| 0.714286 0.142857 0.142857 0.714286 0.142857 0.142857
က ရ ||| ka- ja. ||| 0.6 0.2 0.2 0.6 0.2 0.2
က ရ ||| ka- la- ||| 0.818182 0.0909091 0.0909091 0.818182 0.0909091 0.0909091
က ရ ||| ka- ra- ||| 0.904762 0.047619 0.047619 0.904762 0.047619 0.047619
က ရ ||| ka- ra. ||| 0.714286 0.142857 0.142857 0.714286 0.142857 0.142857
က ရက် ||| ka- je&apos; ||| 0.6 0.2 0.2 0.6 0.2 0.2
က ရက် ||| ka- re&apos; ||| 0.714286 0.142857 0.142857 0.714286 0.142857 0.142857
က ရာ ||| ga- ja ||| 0.714286 0.142857 0.142857 0.714286 0.142857 0.142857
က ရာ ||| ka- ra ||| 0.6 0.2 0.2 0.6 0.2 0.2
က ရာ ||| ka- ra. ||| 0.6 0.2 0.2 0.6 0.2 0.2
က ရာဇ် ||| ga- ji&apos; ||| 0.866667 0.0666667 0.0666667 0.866667 0.0666667 0.0666667
က ရာဇ် ||| ka- ji&apos; ||| 0.846154 0.0769231 0.0769231 0.846154 0.0769231 0.0769231
က ရာဇ် တက် ||| ka- ji&apos; te&apos; ||| 0.6 0.2 0.2 0.6 0.2 0.2
က ရား ||| ka- ja: ||| 0.777778 0.111111 0.111111 0.777778 0.111111 0.111111
က ရား ||| kha- ja: ||| 0.714286 0.142857 0.142857 0.714286 0.142857 0.142857
က ရား ရေ ||| ka- ja: jei ||| 0.6 0.2 0.2 0.6 0.2 0.2
က ရိ ||| ka- ji. ||| 0.6 0.2 0.2 0.6 0.2 0.2
က ရိ ||| ka- ri. ||| 0.6 0.2 0.2 0.6 0.2 0.2
က ရိ က ||| ka- ji. ka- ||| 0.6 0.2 0.2 0.6 0.2 0.2
က ရိ က ထ ||| ka- ji. ka- hta. ||| 0.6 0.2 0.2 0.6 0.2 0.2
က ရိုက် ||| ga- jai&apos; ||| 0.6 0.2 0.2 0.6 0.2 0.2
က ရိုက် ||| ka- rai&apos; ||| 0.6 0.2 0.2 0.6 0.2 0.2
က ရု ||| ga- ju. ||| 0.846154 0.0769231 0.0769231 0.846154 0.0769231 0.0769231
က ရု ဏာ ||| ga- ju. na ||| 0.846154 0.0769231 0.0769231 0.846154 0.0769231 0.0769231
က ရော့ ||| ka- jo. ||| 0.6 0.2 0.2 0.6 0.2 0.2
က လက် ||| ka- le&apos; ||| 0.777778 0.111111 0.111111 0.777778 0.111111 0.111111
က လတ် ||| ka- la&apos; ||| 0.818182 0.0909091 0.0909091 0.818182 0.0909091 0.0909091
က လန် ||| ga- lan ||| 0.6 0.2 0.2 0.6 0.2 0.2
က လပ် ||| ka la&apos; ||| 0.6 0.2 0.2 0.6 0.2 0.2
က လပ် ||| ka- la&apos; ||| 0.846154 0.0769231 0.0769231 0.846154 0.0769231 0.0769231
က လာ ||| ga- la ||| 0.6 0.2 0.2 0.6 0.2 0.2
က လိ ||| ga- li. ||| 0.6 0.2 0.2 0.6 0.2 0.2
က လိ ||| ka- li. ||| 0.818182 0.0909091 0.0909091 0.818182 0.0909091 0.0909091
က လိမ် ||| ka- lein ||| 0.846154 0.0769231 0.0769231 0.846154 0.0769231 0.0769231
က လီ ||| ka- li ||| 0.6 0.2 0.2 0.6 0.2 0.2
က လုံး ||| ka- loun: ||| 0.6 0.2 0.2 0.6 0.2 0.2
က လူး ||| ka- lu: ||| 0.6 0.2 0.2 0.6 0.2 0.2
က လော် ||| ga- lo ||| 0.714286 0.142857 0.142857 0.714286 0.142857 0.142857
က လော် ||| ka- lo ||| 0.714286 0.142857 0.142857 0.714286 0.142857 0.142857
က လေး ||| ga- lei: ||| 0.939394 0.030303 0.030303 0.939394 0.030303 0.030303
က လေး ||| ka- lei: ||| 0.866667 0.0666667 0.0666667 0.866667 0.0666667 0.0666667
က လေး ||| kha- lei: ||| 0.866667 0.0666667 0.0666667 0.866667 0.0666667 0.0666667
က ဝတ် ||| ga- wu&apos; ||| 0.6 0.2 0.2 0.6 0.2 0.2
က ဝတ် ||| ka- wu&apos; ||| 0.6 0.2 0.2 0.6 0.2 0.2
က သင် ||| ka. thin ||| 0.6 0.2 0.2 0.6 0.2 0.2
က သိုဏ်း ||| ka- thain: ||| 0.714286 0.142857 0.142857 0.714286 0.142857 0.142857
က သီ ||| ka- thi ||| 0.846154 0.0769231 0.0769231 0.846154 0.0769231 0.0769231
က အ ||| ga. a- ||| 0.6 0.2 0.2 0.6 0.2 0.2
က အ ||| ka. a- ||| 0.6 0.2 0.2 0.6 0.2 0.2
ကက် ||| ke&apos; ||| 0.945946 0.027027 0.027027 0.945946 0.027027 0.027027
ကက် က ||| ke&apos; ka- ||| 0.6 0.2 0.2 0.6 0.2 0.2
ကက် ကု ||| ke&apos; ga- ||| 0.6 0.2 0.2 0.6 0.2 0.2
ကက် ကု ||| ke&apos; ku. ||| 0.6 0.2 0.2 0.6 0.2 0.2
ကက် ကု ဆူး ||| ke&apos; ga- zu: ||| 0.6 0.2 0.2 0.6 0.2 0.2
ကင် ||| gin ||| 0.904762 0.047619 0.047619 0.904762 0.047619 0.047619
ကင် ||| ka- ||| 0.6 0.2 0.2 0.6 0.2 0.2
ကင် ||| kin ||| 0.939394 0.030303 0.030303 0.939394 0.030303 0.030303
ကင်း ||| gin: ||| 0.95122 0.0243902 0.0243902 0.95122 0.0243902 0.0243902
ကင်း ||| kin: ||| 0.981651 0.00917431 0.00917431 0.981651 0.00917431 0.00917431
ကင်း မြီး ||| kin: mi: ||| 0.6 0.2 0.2 0.6 0.2 0.2
ကင်း မြီး ကောက် ||| kin: mi: gau&apos; ||| 0.6 0.2 0.2 0.6 0.2 0.2
ကင်း လွတ် ||| kin: lu&apos; ||| 0.714286 0.142857 0.142857 0.714286 0.142857 0.142857
ကဏ် ||| gan ||| 0.6 0.2 0.2 0.6 0.2 0.2
ကဏ် ||| kan ||| 0.818182 0.0909091 0.0909091 0.818182 0.0909091 0.0909091
ကဏ် ဍ ||| gan da. ||| 0.6 0.2 0.2 0.6 0.2 0.2
ကတ် ||| ga&apos; ||| 0.882353 0.0588235 0.0588235 0.882353 0.0588235 0.0588235
ကတ် ||| ga- ||| 0.714286 0.142857 0.142857 0.714286 0.142857 0.142857
ကတ် ||| ka&apos; ||| 0.977528 0.011236 0.011236 0.977528 0.011236 0.011236
ကတ် ||| ke&apos; ||| 0.6 0.2 0.2 0.6 0.2 0.2
ကတ် ||| kei&apos; ||| 0.6 0.2 0.2 0.6 0.2 0.2
ကတ် ဖို ||| ka&apos; hpou ||| 0.6 0.2 0.2 0.6 0.2 0.2
ကန့် ||| ga- ||| 0.818182 0.0909091 0.0909091 0.818182 0.0909091 0.0909091
ကန့် ||| gan. ||| 0.846154 0.0769231 0.0769231 0.846154 0.0769231 0.0769231
ကန့် ||| ka- ||| 0.6 0.2 0.2 0.6 0.2 0.2
ကန့် ||| kan ||| 0.714286 0.142857 0.142857 0.714286 0.142857 0.142857
ကန့် ||| kan. ||| 0.953488 0.0232558 0.0232558 0.953488 0.0232558 0.0232558
ကန့် ချုပ် ||| kan gyou&apos; ||| 0.6 0.2 0.2 0.6 0.2 0.2
ကန့် ချုပ် ||| kan. gyou&apos; ||| 0.6 0.2 0.2 0.6 0.2 0.2
ကန့် လန့် ||| ga- lan. ||| 0.818182 0.0909091 0.0909091 0.818182 0.0909091 0.0909091
ကန့် လန့် ||| ka- la- ||| 0.6 0.2 0.2 0.6 0.2 0.2
ကန့် လန့် ||| kan lan. ||| 0.6 0.2 0.2 0.6 0.2 0.2
ကန့် လန့် ||| kan. lan. ||| 0.882353 0.0588235 0.0588235 0.882353 0.0588235 0.0588235
ကန် ||| ga- ||| 0.894737 0.0526316 0.0526316 0.894737 0.0526316 0.0526316
ကန် ||| gan ||| 0.955556 0.0222222 0.0222222 0.955556 0.0222222 0.0222222
ကန် ||| jo ||| 0.6 0.2 0.2 0.6 0.2 0.2
ကန် ||| kan ||| 0.976471 0.0117647 0.0117647 0.976471 0.0117647 0.0117647
ကန် ||| ngan ||| 0.6 0.2 0.2 0.6 0.2 0.2
ကန် တော့ ||| ga- do. ||| 0.6 0.2 0.2 0.6 0.2 0.2
ကန်း ||| ga- ||| 0.6 0.2 0.2 0.6 0.2 0.2
ကန်း ||| gan: ||| 0.963636 0.0181818 0.0181818 0.963636 0.0181818 0.0181818
ကန်း ||| kan: ||| 0.942857 0.0285714 0.0285714 0.942857 0.0285714 0.0285714
ကန်း ||| n ||| 0.6 0.2 0.2 0.6 0.2 0.2
ကန်း ကြိုး ||| kan: gyou: ||| 0.6 0.2 0.2 0.6 0.2 0.2
ကပ် ||| ga&apos; ||| 0.953488 0.0232558 0.0232558 0.953488 0.0232558 0.0232558
ကပ် ||| ka&apos; ||| 0.98773 0.00613497 0.00613497 0.98773 0.00613497 0.00613497
ကပ် ||| ka. ||| 0.6 0.2 0.2 0.6 0.2 0.2
ကပ် ||| nga&apos; ||| 0.6 0.2 0.2 0.6 0.2 0.2
ကပ် နာ ||| ga&apos; na ||| 0.6 0.2 0.2 0.6 0.2 0.2
ကပ် ပါး ||| ka&apos; pa: ||| 0.6 0.2 0.2 0.6 0.2 0.2
ကပ် ပိ ||| ka&apos; pi. ||| 0.6 0.2 0.2 0.6 0.2 0.2
ကမ် ||| ga- ||| 0.948718 0.025641 0.025641 0.948718 0.025641 0.025641
ကမ် ||| ka ||| 0.6 0.2 0.2 0.6 0.2 0.2
ကမ် ||| ka- ||| 0.818182 0.0909091 0.0909091 0.818182 0.0909091 0.0909091
ကမ် ||| kan ||| 0.846154 0.0769231 0.0769231 0.846154 0.0769231 0.0769231
ကမ် ဘာ ||| ga- ba ||| 0.925926 0.037037 0.037037 0.925926 0.037037 0.037037
ကမ် မ ||| ka- ma- ||| 0.818182 0.0909091 0.0909091 0.818182 0.0909091 0.0909091
ကမ် မ ||| kan ma. ||| 0.818182 0.0909091 0.0909091 0.818182 0.0909091 0.0909091
ကမ် မဋ် ||| ka ma- ||| 0.6 0.2 0.2 0.6 0.2 0.2
ကမ် မဋ် ဌာန်း ||| ka ma- htan: ||| 0.6 0.2 0.2 0.6 0.2 0.2
ကမ်း ||| ga- ||| 0.714286 0.142857 0.142857 0.714286 0.142857 0.142857
ကမ်း ||| gan: ||| 0.777778 0.111111 0.111111 0.777778 0.111111 0.111111
ကမ်း ||| kan: ||| 0.973333 0.0133333 0.0133333 0.973333 0.0133333 0.0133333
ကမ်း ||| ngan: ||| 0.6 0.2 0.2 0.6 0.2 0.2
ကမ်း ကုန် ||| kan: koun ||| 0.6 0.2 0.2 0.6 0.2 0.2
ကမ်း တက် ||| kan: te&apos; ||| 0.6 0.2 0.2 0.6 0.2 0.2
ကမ်း ပါး ||| ga- ba: ||| 0.714286 0.142857 0.142857 0.714286 0.142857 0.142857
ကမ်း ပါး ||| kan: ba: ||| 0.6 0.2 0.2 0.6 0.2 0.2
ကမ်း မဲ့ ||| kan: me. ||| 0.6 0.2 0.2 0.6 0.2 0.2
ကယ် ||| ge ||| 0.6 0.2 0.2 0.6 0.2 0.2
ကယ် ||| ke ||| 0.957447 0.0212766 0.0212766 0.957447 0.0212766 0.0212766
ကာ ||| ga ||| 0.986395 0.00680272 0.00680272 0.986395 0.00680272 0.00680272
ကာ ||| ga- ||| 0.6 0.2 0.2 0.6 0.2 0.2
ကာ ||| ga. ||| 0.714286 0.142857 0.142857 0.714286 0.142857 0.142857
ကာ ||| ka ||| 0.991111 0.00444444 0.00444444 0.991111 0.00444444 0.00444444
ကာ ||| kha ||| 0.866667 0.0666667 0.0666667 0.866667 0.0666667 0.0666667
ကာ ကွယ် ||| ka gwe ||| 0.866667 0.0666667 0.0666667 0.866667 0.0666667 0.0666667
ကာ ကွယ် ရေး ||| ka gwe jei: ||| 0.777778 0.111111 0.111111 0.777778 0.111111 0.111111
ကာ မ ||| ga ma- ||| 0.6 0.2 0.2 0.6 0.2 0.2
ကာ မ ||| ga- ma. ||| 0.6 0.2 0.2 0.6 0.2 0.2
ကာ မ ||| ka ma- ||| 0.6 0.2 0.2 0.6 0.2 0.2
ကာ မ ||| ka ma. ||| 0.777778 0.111111 0.111111 0.777778 0.111111 0.111111
ကာ မူ ||| ga mu ||| 0.6 0.2 0.2 0.6 0.2 0.2
ကာ ယ ||| ga ja- ||| 0.6 0.2 0.2 0.6 0.2 0.2
ကာ ယ ||| ga ja. ||| 0.6 0.2 0.2 0.6 0.2 0.2
ကာ ယ ||| ka ja- ||| 0.714286 0.142857 0.142857 0.714286 0.142857 0.142857
ကာ ယ ||| ka ja. ||| 0.882353 0.0588235 0.0588235 0.882353 0.0588235 0.0588235
ကာ လ ||| ka la. ||| 0.945946 0.027027 0.027027 0.945946 0.027027 0.027027
ကာ သ ||| ga tha. ||| 0.6 0.2 0.2 0.6 0.2 0.2
ကာ သ ||| ka tha- ||| 0.714286 0.142857 0.142857 0.714286 0.142857 0.142857
ကာ သ ||| ka tha. ||| 0.818182 0.0909091 0.0909091 0.818182 0.0909091 0.0909091
ကာ သ န ||| ka tha- na. ||| 0.6 0.2 0.2 0.6 0.2 0.2
ကာ အင် ||| ga in: ||| 0.6 0.2 0.2 0.6 0.2 0.2
ကာ အင် ကျီ ||| ga in: gyi ||| 0.6 0.2 0.2 0.6 0.2 0.2
ကာယ် ||| ke ||| 0.714286 0.142857 0.142857 0.714286 0.142857 0.142857
ကား ||| ga- ||| 0.973333 0.0133333 0.0133333 0.973333 0.0133333 0.0133333
ကား ||| ga: ||| 0.988439 0.00578035 0.00578035 0.988439 0.00578035 0.00578035
ကား ||| ka: ||| 0.977528 0.011236 0.011236 0.977528 0.011236 0.011236
ကား ကုန် ||| ga: koun ||| 0.6 0.2 0.2 0.6 0.2 0.2
ကား ကြီး ||| ga- gyi: ||| 0.6 0.2 0.2 0.6 0.2 0.2
ကား စ ||| ga- za. ||| 0.6 0.2 0.2 0.6 0.2 0.2
ကား စ ||| ga: sa. ||| 0.6 0.2 0.2 0.6 0.2 0.2
ကား စ ||| ga: za. ||| 0.6 0.2 0.2 0.6 0.2 0.2
ကား နှစ် ||| ga: nha- ||| 0.6 0.2 0.2 0.6 0.2 0.2
ကား နှစ် ခွ ||| ga: nha- khwa. ||| 0.6 0.2 0.2 0.6 0.2 0.2
ကား ပြော ||| ga: pjo: ||| 0.6 0.2 0.2 0.6 0.2 0.2
ကား ရား ||| ka: ja: ||| 0.714286 0.142857 0.142857 0.714286 0.142857 0.142857
ကိ ||| ka- ||| 0.866667 0.0666667 0.0666667 0.866667 0.0666667 0.0666667
ကိ ||| ki. ||| 0.777778 0.111111 0.111111 0.777778 0.111111 0.111111
ကိစ် ||| kei&apos; ||| 0.935484 0.0322581 0.0322581 0.935484 0.0322581 0.0322581
ကိစ် စ ||| kei&apos; sa ||| 0.6 0.2 0.2 0.6 0.2 0.2
ကိစ် စ ||| kei&apos; sa. ||| 0.925926 0.037037 0.037037 0.925926 0.037037 0.037037
ကိတ် ||| kei&apos; ||| 0.777778 0.111111 0.111111 0.777778 0.111111 0.111111
ကိန်း ||| gein: ||| 0.882353 0.0588235 0.0588235 0.882353 0.0588235 0.0588235
ကိန်း ||| kain: ||| 0.6 0.2 0.2 0.6 0.2 0.2
ကိန်း ||| kein ||| 0.6 0.2 0.2 0.6 0.2 0.2
ကိန်း ||| kein: ||| 0.964912 0.0175439 0.0175439 0.964912 0.0175439 0.0175439
ကိန်း ရင်း ||| kein: jin: ||| 0.6 0.2 0.2 0.6 0.2 0.2
ကို ||| gou ||| 0.777778 0.111111 0.111111 0.777778 0.111111 0.111111
ကို ||| goun ||| 0.6 0.2 0.2 0.6 0.2 0.2
ကို ||| ko ||| 0.6 0.2 0.2 0.6 0.2 0.2
ကို ||| kou ||| 0.939394 0.030303 0.030303 0.939394 0.030303 0.030303
ကိုက် ||| gai&apos; ||| 0.866667 0.0666667 0.0666667 0.866667 0.0666667 0.0666667
ကိုက် ||| kai ||| 0.6 0.2 0.2 0.6 0.2 0.2
ကိုက် ||| kai&apos; ||| 0.964912 0.0175439 0.0175439 0.964912 0.0175439 0.0175439
ကိုင် ||| gain ||| 0.95122 0.0243902 0.0243902 0.95122 0.0243902 0.0243902
ကိုင် ||| gain: ||| 0.6 0.2 0.2 0.6 0.2 0.2
ကိုင် ||| kain ||| 0.975904 0.0120482 0.0120482 0.975904 0.0120482 0.0120482
ကိုင် မိ ||| kain mi. ||| 0.714286 0.142857 0.142857 0.714286 0.142857 0.142857
ကိုင် မိ ဖြစ် ||| kain mi. hpji&apos; ||| 0.6 0.2 0.2 0.6 0.2 0.2
ကိုင် မိ လက် ||| kain mi. le&apos; ||| 0.6 0.2 0.2 0.6 0.2 0.2
ကိုင် မိ လက် မ ||| kain mi. le&apos; ma- ||| 0.6 0.2 0.2 0.6 0.2 0.2
ကိုင် မိ လက် မ ကိုင် ||| kain mi. le&apos; ma- kain ||| 0.6 0.2 0.2 0.6 0.2 0.2
ကိုင်း ||| gain: ||| 0.92 0.04 0.04 0.92 0.04 0.04
ကိုင်း ||| kain ||| 0.6 0.2 0.2 0.6 0.2 0.2
ကိုင်း ||| kain: ||| 0.935484 0.0322581 0.0322581 0.935484 0.0322581 0.0322581
ကိုယ် ||| gou ||| 0.882353 0.0588235 0.0588235 0.882353 0.0588235 0.0588235
ကိုယ် ||| kou ||| 0.99005 0.00497512 0.00497512 0.99005 0.00497512 0.00497512
ကိုယ် ||| kya- ||| 0.6 0.2 0.2 0.6 0.2 0.2
ကိုယ် တိုင် ||| kou dain ||| 0.777778 0.111111 0.111111 0.777778 0.111111 0.111111
ကိုယ် တိုင် ကိုယ် ||| kou dain kou ||| 0.6 0.2 0.2 0.6 0.2 0.2
ကိုယ် တိုင် ရေး ||| kou dain jei: ||| 0.6 0.2 0.2 0.6 0.2 0.2
ကိုယ် တွေ့ ||| kou dwei. ||| 0.714286 0.142857 0.142857 0.714286 0.142857 0.142857
ကိုယ် ထူး ||| kou du: ||| 0.6 0.2 0.2 0.6 0.2 0.2
ကိုယ် ပိုင် ||| kou bain ||| 0.818182 0.0909091 0.0909091 0.818182 0.0909091 0.0909091
ကိုယ် ရေ ||| kou jei ||| 0.6 0.2 0.2 0.6 0.2 0.2
ကိုယ် လွတ် ||| kou lu&apos; ||| 0.6 0.2 0.2 0.6 0.2 0.2
ကိုယ် ဟန် ||| kou han ||| 0.6 0.2 0.2 0.6 0.2 0.2
ကိုး ||| gou: ||| 0.882353 0.0588235 0.0588235 0.882353 0.0588235 0.0588235
ကိုး ||| kou: ||| 0.960784 0.0196078 0.0196078 0.960784 0.0196078 0.0196078
ကီ ||| gi ||| 0.818182 0.0909091 0.0909091 0.818182 0.0909091 0.0909091
ကီ ||| ki ||| 0.935484 0.0322581 0.0322581 0.935484 0.0322581 0.0322581
ကီ လို ||| ki lou ||| 0.818182 0.0909091 0.0909091 0.818182 0.0909091 0.0909091
ကု ||| ga- ||| 0.846154 0.0769231 0.0769231 0.846154 0.0769231 0.0769231
ကု ||| gu. ||| 0.714286 0.142857 0.142857 0.714286 0.142857 0.142857
ကု ||| ka- ||| 0.959184 0.0204082 0.0204082 0.959184 0.0204082 0.0204082
ကု ||| ku. ||| 0.939394 0.030303 0.030303 0.939394 0.030303 0.030303
ကု ဆူး ||| ga- zu: ||| 0.6 0.2 0.2 0.6 0.2 0.2
ကု လား ||| ka- la- ||| 0.942857 0.0285714 0.0285714 0.942857 0.0285714 0.0285714
ကု လား ||| ka- la: ||| 0.866667 0.0666667 0.0666667 0.866667 0.0666667 0.0666667
ကု လား ထိုင် ||| ka- la- htain ||| 0.777778 0.111111 0.111111 0.777778 0.111111 0.111111
ကု လား အုတ် ||| ka- la- ou&apos; ||| 0.6 0.2 0.2 0.6 0.2 0.2
ကုတ် ||| gou&apos; ||| 0.818182 0.0909091 0.0909091 0.818182 0.0909091 0.0909091
ကုတ် ||| kou&apos; ||| 0.945946 0.027027 0.027027 0.945946 0.027027 0.027027
ကုတ် ကုတ် ||| kou&apos; kou&apos; ||| 0.818182 0.0909091 0.0909091 0.818182 0.0909091 0.0909091
ကုန် ||| goun ||| 0.959184 0.0204082 0.0204082 0.959184 0.0204082 0.0204082
ကုန် ||| koun ||| 0.984962 0.0075188 0.0075188 0.984962 0.0075188 0.0075188
ကုန် ||| koun. ||| 0.6 0.2 0.2 0.6 0.2 0.2
ကုန် စည် ||| koun zi ||| 0.6 0.2 0.2 0.6 0.2 0.2
ကုန် သည် ||| koun dhe ||| 0.714286 0.142857 0.142857 0.714286 0.142857 0.142857
ကုန် အ ||| koun a- ||| 0.714286 0.142857 0.142857 0.714286 0.142857 0.142857
ကုန်း ||| goun: ||| 0.92 0.04 0.04 0.92 0.04 0.04
ကုန်း ||| koun: ||| 0.957447 0.0212766 0.0212766 0.957447 0.0212766 0.0212766
ကုန်း တန်း ||| koun: dan: ||| 0.6 0.2 0.2 0.6 0.2 0.2
ကုပ် ||| gou&apos; ||| 0.948718 0.025641 0.025641 0.948718 0.025641 0.025641
ကုပ် ||| kou&apos; ||| 0.92 0.04 0.04 0.92 0.04 0.04
ကုပ် ကုပ် ||| kou&apos; kou&apos; ||| 0.714286 0.142857 0.142857 0.714286 0.142857 0.142857
ကုမ် ||| koun ||| 0.714286 0.142857 0.142857 0.714286 0.142857 0.142857
ကုံ ||| goun ||| 0.714286 0.142857 0.142857 0.714286 0.142857 0.142857
ကုံ ||| koun ||| 0.866667 0.0666667 0.0666667 0.866667 0.0666667 0.0666667
ကုံး ||| goun: ||| 0.866667 0.0666667 0.0666667 0.866667 0.0666667 0.0666667
ကုံး ||| koun: ||| 0.846154 0.0769231 0.0769231 0.846154 0.0769231 0.0769231
ကူ ||| gu ||| 0.962264 0.0188679 0.0188679 0.962264 0.0188679 0.0188679
ကူ ||| ku ||| 0.966102 0.0169492 0.0169492 0.966102 0.0169492 0.0169492
ကူး ||| ga- ||| 0.846154 0.0769231 0.0769231 0.846154 0.0769231 0.0769231
ကူး ||| gu: ||| 0.931034 0.0344828 0.0344828 0.931034 0.0344828 0.0344828
ကူး ||| ku: ||| 0.974026 0.012987 0.012987 0.974026 0.012987 0.012987
ကူး တို့ ||| ga- dou. ||| 0.846154 0.0769231 0.0769231 0.846154 0.0769231 0.0769231
ကူး သန်း ||| ku: than: ||| 0.6 0.2 0.2 0.6 0.2 0.2
ကေ ||| kei ||| 0.913043 0.0434783 0.0434783 0.913043 0.0434783 0.0434783
ကော ||| go: ||| 0.939394 0.030303 0.030303 0.939394 0.030303 0.030303
ကော ||| ko: ||| 0.931034 0.0344828 0.0344828 0.931034 0.0344828 0.0344828
ကော ||| ngo: ||| 0.6 0.2 0.2 0.6 0.2 0.2
ကော ဇာ ||| ko: za ||| 0.6 0.2 0.2 0.6 0.2 0.2
ကောက် ||| gau&apos; ||| 0.960784 0.0196078 0.0196078 0.960784 0.0196078 0.0196078
ကောက် ||| kau ||| 0.6 0.2 0.2 0.6 0.2 0.2
ကောက် ||| kau&apos; ||| 0.986928 0.00653595 0.00653595 0.986928 0.00653595 0.00653595
ကောက် နုတ် ||| kau&apos; nhou&apos; ||| 0.6 0.2 0.2 0.6 0.2 0.2
ကောင် ||| gaun ||| 0.977528 0.011236 0.011236 0.977528 0.011236 0.011236
ကောင် ||| kau ||| 0.777778 0.111111 0.111111 0.777778 0.111111 0.111111
ကောင် ||| kaun ||| 0.962264 0.0188679 0.0188679 0.962264 0.0188679 0.0188679
ကောင် စစ် ||| kaun si&apos; ||| 0.714286 0.142857 0.142857 0.714286 0.142857 0.142857
ကောင် စစ် ဝန် ||| kaun si&apos; win ||| 0.6 0.2 0.2 0.6 0.2 0.2
ကောင် စစ် ဝန် ||| kaun si&apos; wun ||| 0.6 0.2 0.2 0.6 0.2 0.2
ကောင်း ||| gaun: ||| 0.971014 0.0144928 0.0144928 0.971014 0.0144928 0.0144928
ကောင်း ||| kaun: ||| 0.984252 0.00787402 0.00787402 0.984252 0.00787402 0.00787402
ကောင်း ကောင်း ||| kaun: gaun: ||| 0.6 0.2 0.2 0.6 0.2 0.2
ကောင်း ချီး ||| kaun: gyi: ||| 0.6 0.2 0.2 0.6 0.2 0.2
ကော့ ||| go. ||| 0.6 0.2 0.2 0.6 0.2 0.2
ကော့ ||| ko. ||| 0.846154 0.0769231 0.0769231 0.846154 0.0769231 0.0769231
ကော် ||| go ||| 0.866667 0.0666667 0.0666667 0.866667 0.0666667 0.0666667
ကော် ||| ko ||| 0.970149 0.0149254 0.0149254 0.970149 0.0149254 0.0149254
ကော် မ ||| ko ma- ||| 0.714286 0.142857 0.142857 0.714286 0.142857 0.142857
ကဲ ||| ge: ||| 0.913043 0.0434783 0.0434783 0.913043 0.0434783 0.0434783
ကဲ ||| ke&apos; ||| 0.6 0.2 0.2 0.6 0.2 0.2
ကဲ ||| ke: ||| 0.95122 0.0243902 0.0243902 0.95122 0.0243902 0.0243902
ကဲ ခတ် ||| ge: kha&apos; ||| 0.6 0.2 0.2 0.6 0.2 0.2
ကဲ မ ||| ke: ma- ||| 0.6 0.2 0.2 0.6 0.2 0.2
ကဲ့ ||| ge. ||| 0.714286 0.142857 0.142857 0.714286 0.142857 0.142857
ကဲ့ ||| ke. ||| 0.6 0.2 0.2 0.6 0.2 0.2
ကံ ||| ga- ||| 0.714286 0.142857 0.142857 0.714286 0.142857 0.142857
ကံ ||| gan ||| 0.866667 0.0666667 0.0666667 0.866667 0.0666667 0.0666667
ကံ ||| ka ||| 0.6 0.2 0.2 0.6 0.2 0.2
ကံ ||| ka- ||| 0.6 0.2 0.2 0.6 0.2 0.2
ကံ ||| kan ||| 0.971831 0.0140845 0.0140845 0.971831 0.0140845 0.0140845
ကံ ||| kan. ||| 0.6 0.2 0.2 0.6 0.2 0.2
ကံ ကောင်း ||| gan kaun: ||| 0.6 0.2 0.2 0.6 0.2 0.2
ကံ ကောင်း ||| kan kaun: ||| 0.6 0.2 0.2 0.6 0.2 0.2
ကံ ဆိုး ||| kan hsou: ||| 0.6 0.2 0.2 0.6 0.2 0.2
ကျ ||| gya ||| 0.6 0.2 0.2 0.6 0.2 0.2
ကျ ||| gya. ||| 0.980198 0.00990099 0.00990099 0.980198 0.00990099 0.00990099
ကျ ||| kha. ||| 0.6 0.2 0.2 0.6 0.2 0.2
ကျ ||| kya ||| 0.894737 0.0526316 0.0526316 0.894737 0.0526316 0.0526316
ကျ ||| kya. ||| 0.993921 0.00303951 0.00303951 0.993921 0.00303951 0.00303951
ကျ ပန်း ||| gya. pan: ||| 0.6 0.2 0.2 0.6 0.2 0.2
ကျ ပန်း ||| kya ban: ||| 0.6 0.2 0.2 0.6 0.2 0.2
ကျ လက် ||| kya. le&apos; ||| 0.714286 0.142857 0.142857 0.714286 0.142857 0.142857
ကျက် ||| gye&apos; ||| 0.866667 0.0666667 0.0666667 0.866667 0.0666667 0.0666667
ကျက် ||| kye&apos; ||| 0.925926 0.037037 0.037037 0.925926 0.037037 0.037037
ကျက် မိ ||| kye&apos; mi. ||| 0.6 0.2 0.2 0.6 0.2 0.2
ကျင့် ||| gyin. ||| 0.882353 0.0588235 0.0588235 0.882353 0.0588235 0.0588235
ကျင့် ||| kyi. ||| 0.6 0.2 0.2 0.6 0.2 0.2
ကျင့် ||| kyin. ||| 0.960784 0.0196078 0.0196078 0.960784 0.0196078 0.0196078
ကျင် ||| gyin ||| 0.95122 0.0243902 0.0243902 0.95122 0.0243902 0.0243902
ကျင် ||| kyin ||| 0.955556 0.0222222 0.0222222 0.955556 0.0222222 0.0222222
ကျင်း ||| chin: ||| 0.6 0.2 0.2 0.6 0.2 0.2
ကျင်း ||| gyin: ||| 0.92 0.04 0.04 0.92 0.04 0.04
ကျင်း ||| kyin: ||| 0.945946 0.027027 0.027027 0.945946 0.027027 0.027027
ကျစ် ||| gyi&apos; ||| 0.866667 0.0666667 0.0666667 0.866667 0.0666667 0.0666667
ကျစ် ||| kyi&apos; ||| 0.931034 0.0344828 0.0344828 0.931034 0.0344828 0.0344828
ကျဉ်း ||| gyin: ||| 0.714286 0.142857 0.142857 0.714286 0.142857 0.142857
ကျဉ်း ||| kyin: ||| 0.942857 0.0285714 0.0285714 0.942857 0.0285714 0.0285714
ကျည် ||| gya- ||| 0.777778 0.111111 0.111111 0.777778 0.111111 0.111111
ကျည် ||| gyi ||| 0.846154 0.0769231 0.0769231 0.846154 0.0769231 0.0769231
ကျည် ||| kyi ||| 0.945946 0.027027 0.027027 0.945946 0.027027 0.027027
ကျည် ကျည် ||| kyi kyi ||| 0.6 0.2 0.2 0.6 0.2 0.2
ကျည်း ||| gyi: ||| 0.925926 0.037037 0.037037 0.925926 0.037037 0.037037
ကျည်း ||| kyi: ||| 0.846154 0.0769231 0.0769231 0.846154 0.0769231 0.0769231
ကျတ် ||| kya&apos; ||| 0.714286 0.142857 0.142857 0.714286 0.142857 0.142857
ကျတ် တီး ||| kya&apos; ti: ||| 0.6 0.2 0.2 0.6 0.2 0.2
ကျန် ||| gyan ||| 0.714286 0.142857 0.142857 0.714286 0.142857 0.142857
ကျန် ||| kyan ||| 0.882353 0.0588235 0.0588235 0.882353 0.0588235 0.0588235
ကျန်း ||| gyan: ||| 0.714286 0.142857 0.142857 0.714286 0.142857 0.142857
ကျန်း ||| kyan: ||| 0.882353 0.0588235 0.0588235 0.882353 0.0588235 0.0588235
ကျန်း မာ ||| kyan: ma ||| 0.714286 0.142857 0.142857 0.714286 0.142857 0.142857
ကျန်း မာ ရေး ||| kyan: ma jei: ||| 0.6 0.2 0.2 0.6 0.2 0.2
ကျပ် ||| gya&apos; ||| 0.882353 0.0588235 0.0588235 0.882353 0.0588235 0.0588235
ကျပ် ||| kya&apos; ||| 0.967213 0.0163934 0.0163934 0.967213 0.0163934 0.0163934
ကျမ်း ||| gyan: ||| 0.6 0.2 0.2 0.6 0.2 0.2
ကျမ်း ||| kyan: ||| 0.966102 0.0169492 0.0169492 0.966102 0.0169492 0.0169492
ကျယ် ||| ge ||| 0.6 0.2 0.2 0.6 0.2 0.2
ကျယ် ||| gye ||| 0.931034 0.0344828 0.0344828 0.931034 0.0344828 0.0344828
ကျယ် ||| kye ||| 0.957447 0.0212766 0.0212766 0.957447 0.0212766 0.0212766
ကျယ် ||| kye. ||| 0.6 0.2 0.2 0.6 0.2 0.2
ကျယ် ကောင် ||| gye gaun ||| 0.6 0.2 0.2 0.6 0.2 0.2
ကျယ် အ ||| kye a- ||| 0.6 0.2 0.2 0.6 0.2 0.2
ကျား ||| gya- ||| 0.6 0.2 0.2 0.6 0.2 0.2
ကျား ||| gya: ||| 0.925926 0.037037 0.037037 0.925926 0.037037 0.037037
ကျား ||| kya ||| 0.714286 0.142857 0.142857 0.714286 0.142857 0.142857
ကျား ||| kya- ||| 0.6 0.2 0.2 0.6 0.2 0.2
ကျား ||| kya: ||| 0.959184 0.0204082 0.0204082 0.959184 0.0204082 0.0204082
ကျား ကျား ||| kya: gya: ||| 0.6 0.2 0.2 0.6 0.2 0.2
ကျိ ||| gyi. ||| 0.714286 0.142857 0.142857 0.714286 0.142857 0.142857
ကျိ ||| kyi. ||| 0.935484 0.0322581 0.0322581 0.935484 0.0322581 0.0322581
ကျိန် ||| kyein ||| 0.894737 0.0526316 0.0526316 0.894737 0.0526316 0.0526316
ကျိန် စာ ||| kyein za ||| 0.818182 0.0909091 0.0909091 0.818182 0.0909091 0.0909091
ကျိပ် ||| gyei&apos; ||| 0.714286 0.142857 0.142857 0.714286 0.142857 0.142857
ကျို ||| gyou ||| 0.777778 0.111111 0.111111 0.777778 0.111111 0.111111
ကျို ||| kyou ||| 0.6 0.2 0.2 0.6 0.2 0.2
ကျိုက် ||| kyai&apos; ||| 0.882353 0.0588235 0.0588235 0.882353 0.0588235 0.0588235
ကျိုး ||| gyou: ||| 0.939394 0.030303 0.030303 0.939394 0.030303 0.030303
ကျိုး ||| khou: ||| 0.6 0.2 0.2 0.6 0.2 0.2
ကျိုး ||| kyou: ||| 0.978947 0.0105263 0.0105263 0.978947 0.0105263 0.0105263
ကျိုး နပ် ||| kyou: na&apos; ||| 0.714286 0.142857 0.142857 0.714286 0.142857 0.142857
ကျီ ||| gyi ||| 0.945946 0.027027 0.027027 0.945946 0.027027 0.027027
ကျီ ||| kyi ||| 0.818182 0.0909091 0.0909091 0.818182 0.0909091 0.0909091
ကျီး ||| gyi: ||| 0.6 0.2 0.2 0.6 0.2 0.2
ကျီး ||| kya- ||| 0.6 0.2 0.2 0.6 0.2 0.2
ကျီး ||| kyi: ||| 0.931034 0.0344828 0.0344828 0.931034 0.0344828 0.0344828
ကျုံ ||| kyoun ||| 0.6 0.2 0.2 0.6 0.2 0.2
ကျေ ||| gyei ||| 0.866667 0.0666667 0.0666667 0.866667 0.0666667 0.0666667
ကျေ ||| kyei ||| 0.959184 0.0204082 0.0204082 0.959184 0.0204082 0.0204082
ကျေ လည် ||| gyei le ||| 0.6 0.2 0.2 0.6 0.2 0.2
ကျော ||| gyo: ||| 0.6 0.2 0.2 0.6 0.2 0.2
ကျော ||| kyo: ||| 0.955556 0.0222222 0.0222222 0.955556 0.0222222 0.0222222
ကျော ခိုင်း ||| kyo: khain: ||| 0.6 0.2 0.2 0.6 0.2 0.2
ကျောက် ||| gyau&apos; ||| 0.777778 0.111111 0.111111 0.777778 0.111111 0.111111
ကျောက် ||| gyou&apos; ||| 0.6 0.2 0.2 0.6 0.2 0.2
ကျောက် ||| kyau&apos; ||| 0.988024 0.00598802 0.00598802 0.988024 0.00598802 0.00598802
ကျောက် ဆစ် ||| kyau&apos; hsi&apos; ||| 0.777778 0.111111 0.111111 0.777778 0.111111 0.111111
ကျောက် မျက် ||| kyau&apos; mje&apos; ||| 0.6 0.2 0.2 0.6 0.2 0.2
ကျောင်း ||| gyaun: ||| 0.95122 0.0243902 0.0243902 0.95122 0.0243902 0.0243902
ကျောင်း ||| kyaun: ||| 0.974026 0.012987 0.012987 0.974026 0.012987 0.012987
ကျောင်း ပြေး ||| gyaun: bjei: ||| 0.6 0.2 0.2 0.6 0.2 0.2
ကျောင်း ပြေး ||| kyaun: pjei: ||| 0.6 0.2 0.2 0.6 0.2 0.2
ကျော် ||| gyo ||| 0.957447 0.0212766 0.0212766 0.957447 0.0212766 0.0212766
ကျော် ||| gyo: ||| 0.6 0.2 0.2 0.6 0.2 0.2
ကျော် ||| kyo ||| 0.959184 0.0204082 0.0204082 0.959184 0.0204082 0.0204082
ကျော် ||| kyo: ||| 0.6 0.2 0.2 0.6 0.2 0.2
ကျေး ||| gyei: ||| 0.714286 0.142857 0.142857 0.714286 0.142857 0.142857
ကျေး ||| kyei: ||| 0.962264 0.0188679 0.0188679 0.962264 0.0188679 0.0188679
ကျေး ဇူး ||| kyei: zu: ||| 0.882353 0.0588235 0.0588235 0.882353 0.0588235 0.0588235
ကျေး မြီး ||| kyei: mi: ||| 0.714286 0.142857 0.142857 0.714286 0.142857 0.142857
ကျေး ရွာ ||| kyei: jwa ||| 0.6 0.2 0.2 0.6 0.2 0.2
ကျေး လက် ||| kyei: le&apos; ||| 0.777778 0.111111 0.111111 0.777778 0.111111 0.111111
ကျွတ် ||| gyu&apos; ||| 0.894737 0.0526316 0.0526316 0.894737 0.0526316 0.0526316
ကျွတ် ||| kyu&apos; ||| 0.904762 0.047619 0.047619 0.904762 0.047619 0.047619
ကျွတ် ကျွတ် ||| kyu&apos; kyu&apos; ||| 0.6 0.2 0.2 0.6 0.2 0.2
ကျွတ် လွတ် ||| gyu&apos; lu&apos; ||| 0.6 0.2 0.2 0.6 0.2 0.2
ကျွတ် လွတ် ||| kyu&apos; lu&apos; ||| 0.6 0.2 0.2 0.6 0.2 0.2
ကျွန် ||| gyun ||| 0.777778 0.111111 0.111111 0.777778 0.111111 0.111111
ကျွန် ||| kya- ||| 0.6 0.2 0.2 0.6 0.2 0.2
ကျွန် ||| kyun ||| 0.925926 0.037037 0.037037 0.925926 0.037037 0.037037
ကျွန်း ||| gyun: ||| 0.818182 0.0909091 0.0909091 0.818182 0.0909091 0.0909091
ကျွန်း ||| kyun: ||| 0.948718 0.025641 0.025641 0.948718 0.025641 0.025641
ကျွမ်း ||| gyun: ||| 0.894737 0.0526316 0.0526316 0.894737 0.0526316 0.0526316
ကျွမ်း ||| gywan: ||| 0.6 0.2 0.2 0.6 0.2 0.2
ကျွမ်း ||| kyun: ||| 0.866667 0.0666667 0.0666667 0.866667 0.0666667 0.0666667
ကျွမ်း ||| kywan: ||| 0.866667 0.0666667 0.0666667 0.866667 0.0666667 0.0666667
ကျွမ်း ပြန် ||| gyun: pjan: ||| 0.6 0.2 0.2 0.6 0.2 0.2
ကျွေး ||| gywei: ||| 0.866667 0.0666667 0.0666667 0.866667 0.0666667 0.0666667
ကျွေး ||| kywei: ||| 0.948718 0.025641 0.025641 0.948718 0.025641 0.025641
ကျွဲ ||| gywe: ||| 0.6 0.2 0.2 0.6 0.2 0.2
ကျွဲ ||| kywe: ||| 0.913043 0.0434783 0.0434783 0.913043 0.0434783 0.0434783
ကျွံ ||| gyun ||| 0.6 0.2 0.2 0.6 0.2 0.2
ကျွံ ||| kyun ||| 0.818182 0.0909091 0.0909091 0.818182 0.0909091 0.0909091
ကြ ||| da- ||| 0.6 0.2 0.2 0.6 0.2 0.2
ကြ ||| gya. ||| 0.818182 0.0909091 0.0909091 0.818182 0.0909091 0.0909091
ကြ ||| kya ||| 0.6 0.2 0.2 0.6 0.2 0.2
ကြ ||| kya- ||| 0.882353 0.0588235 0.0588235 0.882353 0.0588235 0.0588235
ကြ စု ||| da- zu. ||| 0.6 0.2 0.2 0.6 0.2 0.2
ကြက် ||| gye&apos; ||| 0.846154 0.0769231 0.0769231 0.846154 0.0769231 0.0769231
ကြက် ||| kye&apos; ||| 0.986577 0.00671141 0.00671141 0.986577 0.00671141 0.00671141
ကြက် ခြေ ||| kye&apos; chei ||| 0.818182 0.0909091 0.0909091 0.818182 0.0909091 0.0909091
ကြက် ခြေ ||| kye&apos; chi ||| 0.714286 0.142857 0.142857 0.714286 0.142857 0.142857
ကြက် ခြေ ခတ် ||| kye&apos; chei ga&apos; ||| 0.6 0.2 0.2 0.6 0.2 0.2
ကြက် ခြေ ခတ် ||| kye&apos; chei kha&apos; ||| 0.6 0.2 0.2 0.6 0.2 0.2
ကြက် ခြေ ခတ် ||| kye&apos; chi kha&apos; ||| 0.6 0.2 0.2 0.6 0.2 0.2
ကြက် ခွပ် ||| kye&apos; khu&apos; ||| 0.6 0.2 0.2 0.6 0.2 0.2
ကြက် ဆူ ||| kye&apos; hsu ||| 0.714286 0.142857 0.142857 0.714286 0.142857 0.142857
ကြက် တက် ||| kye&apos; te&apos; ||| 0.714286 0.142857 0.142857 0.714286 0.142857 0.142857
ကြက် တက် ရည် ||| kye&apos; te&apos; jei ||| 0.6 0.2 0.2 0.6 0.2 0.2
ကြက် တူ ||| kye&apos; tu ||| 0.6 0.2 0.2 0.6 0.2 0.2
ကြက် တူ ရွေး ||| kye&apos; tu jwei: ||| 0.6 0.2 0.2 0.6 0.2 0.2
ကြက် တောင် ||| kye&apos; taun ||| 0.714286 0.142857 0.142857 0.714286 0.142857 0.142857
ကြက် ပေါင် ||| kye&apos; paun ||| 0.777778 0.111111 0.111111 0.777778 0.111111 0.111111
ကြက် ပေါင် စေး ||| kye&apos; paun zei: ||| 0.6 0.2 0.2 0.6 0.2 0.2
ကြက် ပေါင် စေး ||| kye&apos; paun zi: ||| 0.6 0.2 0.2 0.6 0.2 0.2
ကြက် လျှာ ||| kye&apos; sha ||| 0.6 0.2 0.2 0.6 0.2 0.2
ကြက် သီး ||| kye&apos; thein: ||| 0.714286 0.142857 0.142857 0.714286 0.142857 0.142857
ကြက် သီး မွေး ||| kye&apos; thein: mwei: ||| 0.6 0.2 0.2 0.6 0.2 0.2
ကြက် သီး မွေး ညင်း ||| kye&apos; thein: mwei: njin: ||| 0.6 0.2 0.2 0.6 0.2 0.2
ကြက် သီး မွေး ညင်း ထ ||| kye&apos; thein: mwei: njin: hta. ||| 0.6 0.2 0.2 0.6 0.2 0.2
ကြက် ဥ ||| kye&apos; u. ||| 0.6 0.2 0.2 0.6 0.2 0.2
ကြင့် ||| gyin. ||| 0.6 0.2 0.2 0.6 0.2 0.2
ကြင့် ||| kyin. ||| 0.6 0.2 0.2 0.6 0.2 0.2
ကြင့် ကြင့် ||| kyin. gyin. ||| 0.6 0.2 0.2 0.6 0.2 0.2
ကြင် ||| gyin ||| 0.714286 0.142857 0.142857 0.714286 0.142857 0.142857
ကြင် ||| kyin ||| 0.913043 0.0434783 0.0434783 0.913043 0.0434783 0.0434783
ကြင် ကြင် ||| kyin gyin ||| 0.714286 0.142857 0.142857 0.714286 0.142857 0.142857
ကြင် ဖော် ||| kyin bo ||| 0.6 0.2 0.2 0.6 0.2 0.2
ကြင်း ||| gyin: ||| 0.777778 0.111111 0.111111 0.777778 0.111111 0.111111
ကြဉ် ||| kyi ||| 0.6 0.2 0.2 0.6 0.2 0.2
ကြဉ် ||| kyin ||| 0.714286 0.142857 0.142857 0.714286 0.142857 0.142857
ကြည့် ||| gyi. ||| 0.818182 0.0909091 0.0909091 0.818182 0.0909091 0.0909091
ကြည့် ||| kyi. ||| 0.971831 0.0140845 0.0140845 0.971831 0.0140845 0.0140845
ကြည့် ကြည့် ||| gyi. kyi. ||| 0.714286 0.142857 0.142857 0.714286 0.142857 0.142857
ကြည် ||| gyi ||| 0.882353 0.0588235 0.0588235 0.882353 0.0588235 0.0588235
ကြည် ||| kyi ||| 0.939394 0.030303 0.030303 0.939394 0.030303 0.030303
ကြည် ||| kyin ||| 0.6 0.2 0.2 0.6 0.2 0.2
ကြည် ကြည် ||| kyi gyi ||| 0.6 0.2 0.2 0.6 0.2 0.2
ကြပ် ||| cha&apos; ||| 0.6 0.2 0.2 0.6 0.2 0.2
ကြပ် ||| gya&apos; ||| 0.818182 0.0909091 0.0909091 0.818182 0.0909091 0.0909091
ကြပ် ||| kya&apos; ||| 0.955556 0.0222222 0.0222222 0.955556 0.0222222 0.0222222
ကြမ်း ||| ga- ||| 0.6 0.2 0.2 0.6 0.2 0.2
ကြမ်း ||| gya- ||| 0.777778 0.111111 0.111111 0.777778 0.111111 0.111111
ကြမ်း ||| gyan: ||| 0.962264 0.0188679 0.0188679 0.962264 0.0188679 0.0188679
ကြမ်း ||| kyan: ||| 0.966102 0.0169492 0.0169492 0.966102 0.0169492 0.0169492
ကြယ် ||| gye ||| 0.714286 0.142857 0.142857 0.714286 0.142857 0.142857
ကြယ် ||| kye ||| 0.955556 0.0222222 0.0222222 0.955556 0.0222222 0.0222222
ကြယ် ||| kye&apos; ||| 0.714286 0.142857 0.142857 0.714286 0.142857 0.142857
ကြယ် ||| kyi ||| 0.714286 0.142857 0.142857 0.714286 0.142857 0.142857
ကြယ် သီး ||| kye dhi: ||| 0.6 0.2 0.2 0.6 0.2 0.2
ကြယ် သီး ||| kyi dhi: ||| 0.6 0.2 0.2 0.6 0.2 0.2
ကြာ ||| gya ||| 0.777778 0.111111 0.111111 0.777778 0.111111 0.111111
ကြာ ||| kya ||| 0.974684 0.0126582 0.0126582 0.974684 0.0126582 0.0126582
ကြာ ||| kya- ||| 0.818182 0.0909091 0.0909091 0.818182 0.0909091 0.0909091
ကြာ ဆံ ||| kya zan ||| 0.714286 0.142857 0.142857 0.714286 0.142857 0.142857
ကြား ||| gya. ||| 0.6 0.2 0.2 0.6 0.2 0.2
ကြား ||| gya: ||| 0.978947 0.0105263 0.0105263 0.978947 0.0105263 0.0105263
ကြား ||| kya: ||| 0.971014 0.0144928 0.0144928 0.971014 0.0144928 0.0144928
ကြား ခဲ ||| gya: ge: ||| 0.6 0.2 0.2 0.6 0.2 0.2
ကြား ဖြတ် ||| gya: bja&apos; ||| 0.6 0.2 0.2 0.6 0.2 0.2
ကြား ရေး ||| kya: jei: ||| 0.714286 0.142857 0.142857 0.714286 0.142857 0.142857
ကြား ရေး မှူး ||| kya: jei: mhu: ||| 0.714286 0.142857 0.142857 0.714286 0.142857 0.142857
ကြား အ ||| kya: a- ||| 0.6 0.2 0.2 0.6 0.2 0.2
ကြိ ||| ka ||| 0.6 0.2 0.2 0.6 0.2 0.2
ကြိ ||| ka- ||| 0.714286 0.142857 0.142857 0.714286 0.142857 0.142857
ကြိ ယာ ||| ka ri. ||| 0.6 0.2 0.2 0.6 0.2 0.2
ကြိ ယာ ||| ka- ri. ja ||| 0.6 0.2 0.2 0.6 0.2 0.2
ကြိ ယာ ||| ka- ri. ||| 0.6 0.2 0.2 0.6 0.2 0.2
ကြိတ် ||| gyei&apos; ||| 0.714286 0.142857 0.142857 0.714286 0.142857 0.142857
ကြိတ် ||| kyei ||| 0.6 0.2 0.2 0.6 0.2 0.2
ကြိတ် ||| kyei&apos; ||| 0.935484 0.0322581 0.0322581 0.935484 0.0322581 0.0322581
ကြိမ်း ||| gyein: ||| 0.6 0.2 0.2 0.6 0.2 0.2
ကြိမ်း ||| kyein: ||| 0.846154 0.0769231 0.0769231 0.846154 0.0769231 0.0769231
ကြို ||| gyou ||| 0.904762 0.047619 0.047619 0.904762 0.047619 0.047619
ကြို ||| kyou ||| 0.904762 0.047619 0.047619 0.904762 0.047619 0.047619
ကြိုင် ||| gyain ||| 0.6 0.2 0.2 0.6 0.2 0.2
ကြိုင် ||| kyain ||| 0.777778 0.111111 0.111111 0.777778 0.111111 0.111111
ကြိုး ||| gyou: ||| 0.982906 0.00854701 0.00854701 0.982906 0.00854701 0.00854701
ကြိုး ||| kyo: ||| 0.6 0.2 0.2 0.6 0.2 0.2
ကြိုး ||| kyou: ||| 0.982906 0.00854701 0.00854701 0.982906 0.00854701 0.00854701
ကြိုး ကိုင် ||| kyou: kain ||| 0.6 0.2 0.2 0.6 0.2 0.2
ကြီး ||| gyi ||| 0.714286 0.142857 0.142857 0.714286 0.142857 0.142857
ကြီး ||| gyi: ||| 0.995204 0.00239808 0.00239808 0.995204 0.00239808 0.00239808
ကြီး ||| kyi. ||| 0.6 0.2 0.2 0.6 0.2 0.2
ကြီး ||| kyi: ||| 0.990783 0.00460829 0.00460829 0.990783 0.00460829 0.00460829
ကြီး ငါး ||| gyi: nga: ||| 0.6 0.2 0.2 0.6 0.2 0.2
ကြီး စား ||| gyi: za: ||| 0.6 0.2 0.2 0.6 0.2 0.2
ကြီး စား ||| kyi: za: ||| 0.6 0.2 0.2 0.6 0.2 0.2
ကြီး ပေါက် ||| gyi: pa- ||| 0.6 0.2 0.2 0.6 0.2 0.2
ကြီး မ ||| gyi: ma. ||| 0.6 0.2 0.2 0.6 0.2 0.2
ကြီး သား ||| gyi: dha: ||| 0.714286 0.142857 0.142857 0.714286 0.142857 0.142857
ကြုတ် ||| gyou&apos; ||| 0.714286 0.142857 0.142857 0.714286 0.142857 0.142857
ကြုတ် ||| kyou&apos; ||| 0.714286 0.142857 0.142857 0.714286 0.142857 0.142857
ကြုံ ||| gyoun ||| 0.846154 0.0769231 0.0769231 0.846154 0.0769231 0.0769231
ကြုံ ||| kyoun ||| 0.846154 0.0769231 0.0769231 0.846154 0.0769231 0.0769231
ကြူး ||| kyu: ||| 0.818182 0.0909091 0.0909091 0.818182 0.0909091 0.0909091
ကြော ||| gyo ||| 0.6 0.2 0.2 0.6 0.2 0.2
ကြော ||| gyo: ||| 0.963636 0.0181818 0.0181818 0.963636 0.0181818 0.0181818
ကြော ||| kyo: ||| 0.968254 0.015873 0.015873 0.968254 0.015873 0.015873
ကြော ဆွဲ ||| gyo: hswe: ||| 0.6 0.2 0.2 0.6 0.2 0.2
ကြော ဆွဲ ||| kyo: hswe: ||| 0.6 0.2 0.2 0.6 0.2 0.2
ကြော တင်း ||| gyo: tin: ||| 0.6 0.2 0.2 0.6 0.2 0.2
ကြော ထ ||| gyo: hta. ||| 0.6 0.2 0.2 0.6 0.2 0.2
ကြော မျှင် ||| gyo: mhjin ||| 0.6 0.2 0.2 0.6 0.2 0.2
ကြောက် ||| gyau&apos; ||| 0.6 0.2 0.2 0.6 0.2 0.2
ကြောက် ||| kyau&apos; ||| 0.942857 0.0285714 0.0285714 0.942857 0.0285714 0.0285714
ကြောင့် ||| gyaun. ||| 0.866667 0.0666667 0.0666667 0.866667 0.0666667 0.0666667
ကြောင့် ||| kyaun. ||| 0.818182 0.0909091 0.0909091 0.818182 0.0909091 0.0909091
ကြောင် ||| gyaun ||| 0.948718 0.025641 0.025641 0.948718 0.025641 0.025641
ကြောင် ||| kyau ||| 0.6 0.2 0.2 0.6 0.2 0.2
ကြောင် ||| kyaun ||| 0.975904 0.0120482 0.0120482 0.975904 0.0120482 0.0120482
ကြောင် ကြောင် ||| kyaun gyaun ||| 0.714286 0.142857 0.142857 0.714286 0.142857 0.142857
ကြောင် တောင် ||| kyaun daun ||| 0.777778 0.111111 0.111111 0.777778 0.111111 0.111111
ကြောင် တောင် ||| kyaun taun ||| 0.714286 0.142857 0.142857 0.714286 0.142857 0.142857
ကြောင် ဖား ||| kyaun ba: ||| 0.6 0.2 0.2 0.6 0.2 0.2
ကြောင်း ||| gyaun: ||| 0.969231 0.0153846 0.0153846 0.969231 0.0153846 0.0153846
ကြောင်း ||| gyoun: ||| 0.6 0.2 0.2 0.6 0.2 0.2
ကြောင်း ||| kyaun: ||| 0.981308 0.00934579 0.00934579 0.981308 0.00934579 0.00934579
ကြောင်း ပြ ||| gyaun: bja. ||| 0.6 0.2 0.2 0.6 0.2 0.2
ကြောင်း ပြန် ||| kyaun: pjan ||| 0.714286 0.142857 0.142857 0.714286 0.142857 0.142857
ကြောင်း မ ||| kyaun: ma- ||| 0.6 0.2 0.2 0.6 0.2 0.2
ကြောင်း လမ်း ||| kyaun: lan: ||| 0.714286 0.142857 0.142857 0.714286 0.142857 0.142857
ကြော့ ||| gyo. ||| 0.714286 0.142857 0.142857 0.714286 0.142857 0.142857
ကြော့ ||| kyo. ||| 0.6 0.2 0.2 0.6 0.2 0.2
ကြော် ||| gyo ||| 0.913043 0.0434783 0.0434783 0.913043 0.0434783 0.0434783
ကြော် ||| kyo ||| 0.931034 0.0344828 0.0344828 0.931034 0.0344828 0.0344828
ကြော် ငြာ ||| kyo nja ||| 0.818182 0.0909091 0.0909091 0.818182 0.0909091 0.0909091
ကြေး ||| gyei: ||| 0.962264 0.0188679 0.0188679 0.962264 0.0188679 0.0188679
ကြေး ||| gyi: ||| 0.882353 0.0588235 0.0588235 0.882353 0.0588235 0.0588235
ကြေး ||| kyei: ||| 0.968254 0.015873 0.015873 0.968254 0.015873 0.015873
ကြေး ||| kyi: ||| 0.882353 0.0588235 0.0588235 0.882353 0.0588235 0.0588235
ကြေး နန်း ||| kyei: nan: ||| 0.714286 0.142857 0.142857 0.714286 0.142857 0.142857
ကြေး နန်း ||| kyi: nan: ||| 0.6 0.2 0.2 0.6 0.2 0.2
ကြေး နီ ||| kyei: ni ||| 0.6 0.2 0.2 0.6 0.2 0.2
ကြဲ ||| kye: ||| 0.92 0.04 0.04 0.92 0.04 0.04
ကြံ ||| gya- ||| 0.6 0.2 0.2 0.6 0.2 0.2
ကြံ ||| gyan ||| 0.894737 0.0526316 0.0526316 0.894737 0.0526316 0.0526316
ကြံ ||| gyan: ||| 0.6 0.2 0.2 0.6 0.2 0.2
ကြံ ||| kya ||| 0.846154 0.0769231 0.0769231 0.846154 0.0769231 0.0769231
ကြံ ||| kyan ||| 0.974684 0.0126582 0.0126582 0.974684 0.0126582 0.0126582
ကြံ ||| kyan. ||| 0.6 0.2 0.2 0.6 0.2 0.2
ကြံ စည် ||| gyan: si ||| 0.6 0.2 0.2 0.6 0.2 0.2
ကြံ သ ||| kyan da- ||| 0.6 0.2 0.2 0.6 0.2 0.2
ကြံ သ ||| kyan dha- ||| 0.6 0.2 0.2 0.6 0.2 0.2
ကြံ့ ||| gyan. ||| 0.6 0.2 0.2 0.6 0.2 0.2
ကြံ့ ||| kyan. ||| 0.904762 0.047619 0.047619 0.904762 0.047619 0.047619
ကြွ ||| gywa. ||| 0.866667 0.0666667 0.0666667 0.866667 0.0666667 0.0666667
ကြွ ||| kywa ||| 0.6 0.2 0.2 0.6 0.2 0.2
ကြွ ||| kywa. ||| 0.935484 0.0322581 0.0322581 0.935484 0.0322581 0.0322581
ကြွ ကြွ ||| kywa. gywa. ||| 0.6 0.2 0.2 0.6 0.2 0.2
ကြွက် ||| gywe&apos; ||| 0.714286 0.142857 0.142857 0.714286 0.142857 0.142857
ကြွက် ||| kywe&apos; ||| 0.882353 0.0588235 0.0588235 0.882353 0.0588235 0.0588235
ကြွက် ||| kywe: ||| 0.6 0.2 0.2 0.6 0.2 0.2
ကြွက် မြီး ||| kywe: mi: ||| 0.6 0.2 0.2 0.6 0.2 0.2
ကြွက် လျှောက် ||| kywe&apos; shau&apos; ||| 0.6 0.2 0.2 0.6 0.2 0.2
ကြွပ် ||| gyu&apos; ||| 0.846154 0.0769231 0.0769231 0.846154 0.0769231 0.0769231
ကြွပ် ||| kyu&apos; ||| 0.818182 0.0909091 0.0909091 0.818182 0.0909091 0.0909091
ကြွယ် ||| gywe ||| 0.6 0.2 0.2 0.6 0.2 0.2
ကြွယ် ||| kywe ||| 0.818182 0.0909091 0.0909091 0.818182 0.0909091 0.0909091
ကြွေ ||| gywei ||| 0.866667 0.0666667 0.0666667 0.866667 0.0666667 0.0666667
ကြွေ ||| kywei ||| 0.942857 0.0285714 0.0285714 0.942857 0.0285714 0.0285714
ကြွေး ||| gywei: ||| 0.714286 0.142857 0.142857 0.714286 0.142857 0.142857
ကြွေး ||| kywei: ||| 0.959184 0.0204082 0.0204082 0.959184 0.0204082 0.0204082
ကွ ||| gwa. ||| 0.6 0.2 0.2 0.6 0.2 0.2
ကွ ||| kwa. ||| 0.777778 0.111111 0.111111 0.777778 0.111111 0.111111
ကွက် ||| gwe&apos; ||| 0.960784 0.0196078 0.0196078 0.960784 0.0196078 0.0196078
ကွက် ||| kwe&apos; ||| 0.978947 0.0105263 0.0105263 0.978947 0.0105263 0.0105263
ကွက် လပ် ||| kwe&apos; la&apos; ||| 0.6 0.2 0.2 0.6 0.2 0.2
ကွင်း ||| gwin: ||| 0.977011 0.0114943 0.0114943 0.977011 0.0114943 0.0114943
ကွင်း ||| kwin: ||| 0.959184 0.0204082 0.0204082 0.959184 0.0204082 0.0204082
ကွတ် ||| gu&apos; ||| 0.818182 0.0909091 0.0909091 0.818182 0.0909091 0.0909091
ကွတ် ||| ku&apos; ||| 0.714286 0.142857 0.142857 0.714286 0.142857 0.142857
ကွန် ||| kun ||| 0.925926 0.037037 0.037037 0.925926 0.037037 0.037037
ကွန် ချာ ||| kun cha ||| 0.6 0.2 0.2 0.6 0.2 0.2
ကွန်း ||| gun: ||| 0.866667 0.0666667 0.0666667 0.866667 0.0666667 0.0666667
ကွန်း ||| kun ||| 0.714286 0.142857 0.142857 0.714286 0.142857 0.142857
ကွန်း ||| kun: ||| 0.866667 0.0666667 0.0666667 0.866667 0.0666667 0.0666667
ကွန်း ဝင် ||| gun: win ||| 0.6 0.2 0.2 0.6 0.2 0.2
ကွမ်း ||| kun: ||| 0.966102 0.0169492 0.0169492 0.966102 0.0169492 0.0169492
ကွမ်း ||| kwan: ||| 0.714286 0.142857 0.142857 0.714286 0.142857 0.142857
ကွမ်း တောင် ||| kun: daun ||| 0.6 0.2 0.2 0.6 0.2 0.2
ကွမ်း သီး ||| kun: dhi: ||| 0.777778 0.111111 0.111111 0.777778 0.111111 0.111111
ကွမ်း အစ် ||| kun: i&apos; ||| 0.6 0.2 0.2 0.6 0.2 0.2
ကွယ် ||| gwe ||| 0.935484 0.0322581 0.0322581 0.935484 0.0322581 0.0322581
ကွယ် ||| kwe ||| 0.942857 0.0285714 0.0285714 0.942857 0.0285714 0.0285714
ကွယ် ရာ ||| gwe ja ||| 0.6 0.2 0.2 0.6 0.2 0.2
ကွယ် ရာ ||| kwe ja ||| 0.714286 0.142857 0.142857 0.714286 0.142857 0.142857
ကွယ် ရေး ||| gwe jei: ||| 0.777778 0.111111 0.111111 0.777778 0.111111 0.111111
ကွာ ||| gwa ||| 0.777778 0.111111 0.111111 0.777778 0.111111 0.111111
ကွာ ||| kwa ||| 0.931034 0.0344828 0.0344828 0.931034 0.0344828 0.0344828
ကွာ ဟ ||| kwa ha. ||| 0.6 0.2 0.2 0.6 0.2 0.2
ကွေး ||| gwei: ||| 0.714286 0.142857 0.142857 0.714286 0.142857 0.142857
ကွေး ||| khwei: ||| 0.6 0.2 0.2 0.6 0.2 0.2
ကွေး ||| kwe: ||| 0.6 0.2 0.2 0.6 0.2 0.2
ကွေး ||| kwei: ||| 0.92 0.04 0.04 0.92 0.04 0.04
ကွဲ ||| gwe: ||| 0.962264 0.0188679 0.0188679 0.962264 0.0188679 0.0188679
ကွဲ ||| kwe: ||| 0.968254 0.015873 0.015873 0.968254 0.015873 0.015873
ကွဲ ||| kwei ||| 0.6 0.2 0.2 0.6 0.2 0.2
ကွဲ ||| kwei: ||| 0.6 0.2 0.2 0.6 0.2 0.2
ကွဲ ထ ||| gwe: hta- ||| 0.6 0.2 0.2 0.6 0.2 0.2
ကွဲ ထ ဘီ ||| gwe: hta- mi ||| 0.6 0.2 0.2 0.6 0.2 0.2
ကွဲ ပြား ||| gwe: pja: ||| 0.6 0.2 0.2 0.6 0.2 0.2
ကွဲ အ ||| kwe: a- ||| 0.6 0.2 0.2 0.6 0.2 0.2
ကွဲ အ ||| kwei: a- ||| 0.6 0.2 0.2 0.6 0.2 0.2
ခ ||| ga- ||| 0.955556 0.0222222 0.0222222 0.955556 0.0222222 0.0222222
ခ ||| ga. ||| 0.913043 0.0434783 0.0434783 0.913043 0.0434783 0.0434783
ခ ||| kha ||| 0.777778 0.111111 0.111111 0.777778 0.111111 0.111111
ခ ||| kha- ||| 0.99449 0.00275482 0.00275482 0.988981 0.00275482 0.00826446
ခ ||| kha. ||| 0.979381 0.0103093 0.0103093 0.979381 0.0103093 0.0103093
ခ စား ||| kha. za: ||| 0.818182 0.0909091 0.0909091 0.818182 0.0909091 0.0909091
ခ ဏ ||| kha- na. ||| 0.866667 0.0666667 0.0666667 0.866667 0.0666667 0.0666667
ခ ဏာ ||| kha- na ||| 0.882353 0.0588235 0.0588235 0.882353 0.0588235 0.0588235
ခ ဏာ ||| kha- ||| 0.6 0.2 0.2 0.6 0.2 0.2
ခ နောက် ||| kha- au&apos; ||| 0.6 0.2 0.2 0.6 0.2 0.2
ခ နော် ||| kha- no ||| 0.6 0.2 0.2 0.6 0.2 0.2
ခ နဲ ||| ga- ne: ||| 0.942857 0.0285714 0.0285714 0.942857 0.0285714 0.0285714
ခ နဲ ||| kha- ne: ||| 0.955556 0.0222222 0.0222222 0.955556 0.0222222 0.0222222
ခ ပေါင်း ||| kha- baun: ||| 0.6 0.2 0.2 0.6 0.2 0.2
ခ မ ||| kha- ma. ||| 0.777778 0.111111 0.111111 0.777778 0.111111 0.111111
ခ မ ||| kha. ma- ||| 0.714286 0.142857 0.142857 0.714286 0.142857 0.142857
ခ မောက် ||| kha- mau&apos; ||| 0.714286 0.142857 0.142857 0.714286 0.142857 0.142857
ခ ရစ် ||| kha- ri ||| 0.6 0.2 0.2 0.6 0.2 0.2
ခ ရစ် ||| kha- ri&apos; ||| 0.777778 0.111111 0.111111 0.777778 0.111111 0.111111
ခ ရမ်း ||| kha- jan: ||| 0.92 0.04 0.04 0.92 0.04 0.04
ခ ရာ ||| kha- ja ||| 0.95122 0.0243902 0.0243902 0.95122 0.0243902 0.0243902
ခ ရာ ||| kha- ||| 0.6 0.2 0.2 0.6 0.2 0.2
ခ ရီး ||| kha- ji: ||| 0.966102 0.0169492 0.0169492 0.966102 0.0169492 0.0169492
ခ ရု ||| kha- ju. ||| 0.925926 0.037037 0.037037 0.925926 0.037037 0.037037
ခ ရေ ||| kha- jei ||| 0.714286 0.142857 0.142857 0.714286 0.142857 0.142857
ခ လယ် ||| kha le ||| 0.714286 0.142857 0.142857 0.714286 0.142857 0.142857
ခ လယ် ||| kha- le ||| 0.714286 0.142857 0.142857 0.714286 0.142857 0.142857
ခ လောက် ||| ga- lau&apos; ||| 0.6 0.2 0.2 0.6 0.2 0.2
ခ လောက် ||| kha- lau&apos; ||| 0.882353 0.0588235 0.0588235 0.882353 0.0588235 0.0588235
ခ လောက် ဆွဲ ||| kha- lau&apos; hswe ||| 0.6 0.2 0.2 0.6 0.2 0.2
ခက် ||| ge&apos; ||| 0.6 0.2 0.2 0.6 0.2 0.2
ခက် ||| kha- ||| 0.714286 0.142857 0.142857 0.714286 0.142857 0.142857
ခက် ||| khe&apos; ||| 0.945946 0.027027 0.027027 0.945946 0.027027 0.027027
ခင် ||| gin ||| 0.894737 0.0526316 0.0526316 0.894737 0.0526316 0.0526316
ခင် ||| gin. ||| 0.6 0.2 0.2 0.6 0.2 0.2
ခင် ||| kha- ||| 0.6 0.2 0.2 0.6 0.2 0.2
ခင် ||| khin ||| 0.959184 0.0204082 0.0204082 0.959184 0.0204082 0.0204082
ခင်း ||| gin: ||| 0.959184 0.0204082 0.0204082 0.959184 0.0204082 0.0204082
ခင်း ||| khin: ||| 0.968254 0.015873 0.015873 0.968254 0.015873 0.015873
ခင်း ||| ngin: ||| 0.6 0.2 0.2 0.6 0.2 0.2
ခတ် ||| ga&apos; ||| 0.818182 0.0909091 0.0909091 0.818182 0.0909091 0.0909091
ခတ် ||| kha&apos; ||| 0.98374 0.00813008 0.00813008 0.98374 0.00813008 0.00813008
ခတ် ||| khi&apos; ||| 0.6 0.2 0.2 0.6 0.2 0.2
ခတ် ||| nga&apos; ||| 0.714286 0.142857 0.142857 0.714286 0.142857 0.142857
ခန့် ||| gan. ||| 0.777778 0.111111 0.111111 0.777778 0.111111 0.111111
ခန့် ||| khan. ||| 0.939394 0.030303 0.030303 0.939394 0.030303 0.030303
ခန့် သင့် ||| khan. thin ||| 0.6 0.2 0.2 0.6 0.2 0.2
ခန်း ||| gan: ||| 0.964912 0.0175439 0.0175439 0.964912 0.0175439 0.0175439
ခန်း ||| khan: ||| 0.971831 0.0140845 0.0140845 0.971831 0.0140845 0.0140845
ခန်း ဝင် ||| khan: win ||| 0.6 0.2 0.2 0.6 0.2 0.2
ခပ် ||| ga&apos; ||| 0.6 0.2 0.2 0.6 0.2 0.2
ခပ် ||| kha&apos; ||| 0.931034 0.0344828 0.0344828 0.931034 0.0344828 0.0344828
ခမ်း ||| gan: ||| 0.714286 0.142857 0.142857 0.714286 0.142857 0.142857
ခမ်း ||| khan: ||| 0.935484 0.0322581 0.0322581 0.935484 0.0322581 0.0322581
ခါ ||| ga ||| 0.931034 0.0344828 0.0344828 0.931034 0.0344828 0.0344828
ခါ ||| kha ||| 0.986395 0.00680272 0.00680272 0.986395 0.00680272 0.00680272
ခါ ||| kha- ||| 0.6 0.2 0.2 0.6 0.2 0.2
ခါ ခါ ||| kha ga ||| 0.6 0.2 0.2 0.6 0.2 0.2
ခါ ပြာ ||| ga pja ||| 0.6 0.2 0.2 0.6 0.2 0.2
ခါ ပြာ ခါ ||| ga pja ga ||| 0.6 0.2 0.2 0.6 0.2 0.2
ခါ လည် ||| kha le ||| 0.714286 0.142857 0.142857 0.714286 0.142857 0.142857
ခါး ||| ga- ||| 0.95122 0.0243902 0.0243902 0.95122 0.0243902 0.0243902
ခါး ||| ga: ||| 0.966102 0.0169492 0.0169492 0.966102 0.0169492 0.0169492
ခါး ||| kha- ||| 0.846154 0.0769231 0.0769231 0.846154 0.0769231 0.0769231
ခါး ||| kha: ||| 0.959184 0.0204082 0.0204082 0.959184 0.0204082 0.0204082
ခါး ခါး ||| kha: ga: ||| 0.6 0.2 0.2 0.6 0.2 0.2
ခါး တောင်း ||| ga- daun ||| 0.6 0.2 0.2 0.6 0.2 0.2
ခါး တောင်း ||| ga- daun: ||| 0.6 0.2 0.2 0.6 0.2 0.2
ခါး တောင်း ကျိုက် ||| ga- daun kyai&apos; ||| 0.6 0.2 0.2 0.6 0.2 0.2
ခါး တောင်း ကျိုက် ||| ga- daun: kyai&apos; ||| 0.6 0.2 0.2 0.6 0.2 0.2
ခါး နာ ||| ga: na ||| 0.6 0.2 0.2 0.6 0.2 0.2
ခါး ပန်း ||| ga- ban: ||| 0.818182 0.0909091 0.0909091 0.818182 0.0909091 0.0909091
ခါး ပိုက် ||| ga- bai&apos; ||| 0.818182 0.0909091 0.0909091 0.818182 0.0909091 0.0909091
ခါး သီး ||| kha: thi: ||| 0.6 0.2 0.2 0.6 0.2 0.2
ခာ ||| kha ||| 0.777778 0.111111 0.111111 0.777778 0.111111 0.111111
ခို ||| gou ||| 0.818182 0.0909091 0.0909091 0.818182 0.0909091 0.0909091
ခို ||| khou ||| 0.970149 0.0149254 0.0149254 0.970149 0.0149254 0.0149254
ခိုက် ||| gai&apos; ||| 0.6 0.2 0.2 0.6 0.2 0.2
ခိုက် ||| khai&apos; ||| 0.935484 0.0322581 0.0322581 0.935484 0.0322581 0.0322581
ခိုင် ||| gain ||| 0.818182 0.0909091 0.0909091 0.818182 0.0909091 0.0909091
ခိုင် ||| khain ||| 0.948718 0.025641 0.025641 0.948718 0.025641 0.025641
ခိုင်း ||| khain: ||| 0.913043 0.0434783 0.0434783 0.913043 0.0434783 0.0434783
ခိုး ||| gou: ||| 0.904762 0.047619 0.047619 0.904762 0.047619 0.047619
ခိုး ||| khou: ||| 0.979798 0.010101 0.010101 0.979798 0.010101 0.010101
ခိုး သား ||| khou: dha: ||| 0.6 0.2 0.2 0.6 0.2 0.2
ခု ||| bu. ||| 0.6 0.2 0.2 0.6 0.2 0.2
ခု ||| ga- ||| 0.6 0.2 0.2 0.6 0.2 0.2
ခု ||| gu. ||| 0.894737 0.0526316 0.0526316 0.894737 0.0526316 0.0526316
ခု ||| khu ||| 0.6 0.2 0.2 0.6 0.2 0.2
ခု ||| khu. ||| 0.970149 0.0149254 0.0149254 0.970149 0.0149254 0.0149254
ခု ||| khu: ||| 0.6 0.2 0.2 0.6 0.2 0.2
ခု ||| khun ||| 0.925926 0.037037 0.037037 0.925926 0.037037 0.037037
ခု တ ||| khu. ta- ||| 0.6 0.2 0.2 0.6 0.2 0.2
ခု တ လော ||| khu. ta- lo: ||| 0.6 0.2 0.2 0.6 0.2 0.2
ခု တင် ||| ga- din ||| 0.6 0.2 0.2 0.6 0.2 0.2
ခု တင် ||| khu. din ||| 0.714286 0.142857 0.142857 0.714286 0.142857 0.142857
ခု န ||| gu. na. ||| 0.6 0.2 0.2 0.6 0.2 0.2
ခု နစ် ||| khu nha- ||| 0.6 0.2 0.2 0.6 0.2 0.2
ခု နစ် ||| khun na- ||| 0.6 0.2 0.2 0.6 0.2 0.2
ခု နစ် ||| khun nha- ||| 0.913043 0.0434783 0.0434783 0.913043 0.0434783 0.0434783
ခု နစ် ||| khun nhi&apos; ||| 0.6 0.2 0.2 0.6 0.2 0.2
ခုတ် ||| gou&apos; ||| 0.714286 0.142857 0.142857 0.714286 0.142857 0.142857
ခုတ် ||| khou&apos; ||| 0.962264 0.0188679 0.0188679 0.962264 0.0188679 0.0188679
ခုန် ||| goun ||| 0.777778 0.111111 0.111111 0.777778 0.111111 0.111111
ခုန် ||| khoun ||| 0.948718 0.025641 0.025641 0.948718 0.025641 0.025641
ခုပ် ||| khou&apos; ||| 0.92 0.04 0.04 0.92 0.04 0.04
ခုပ် လက် ||| khou&apos; le&apos; ||| 0.714286 0.142857 0.142857 0.714286 0.142857 0.142857
ခုပ် လက် ဝါး ||| khou&apos; le&apos; wa: ||| 0.714286 0.142857 0.142857 0.714286 0.142857 0.142857
ခုံ ||| ga- ||| 0.714286 0.142857 0.142857 0.714286 0.142857 0.142857
ခုံ ||| goun ||| 0.953488 0.0232558 0.0232558 0.953488 0.0232558 0.0232558
ခုံ ||| khou ||| 0.6 0.2 0.2 0.6 0.2 0.2
ခုံ ||| khoun ||| 0.971014 0.0144928 0.0144928 0.971014 0.0144928 0.0144928
ခုံ ||| khoun. ||| 0.6 0.2 0.2 0.6 0.2 0.2
ခုံ ||| ngoun ||| 0.6 0.2 0.2 0.6 0.2 0.2
ခုံး ||| goun: ||| 0.846154 0.0769231 0.0769231 0.846154 0.0769231 0.0769231
ခုံး ||| khoun: ||| 0.92 0.04 0.04 0.92 0.04 0.04
ခုံး ထမ်း ||| khoun: dan: ||| 0.6 0.2 0.2 0.6 0.2 0.2
ခူး ||| gou: ||| 0.6 0.2 0.2 0.6 0.2 0.2
ခူး ||| gu: ||| 0.714286 0.142857 0.142857 0.714286 0.142857 0.142857
ခူး ||| khu: ||| 0.818182 0.0909091 0.0909091 0.818182 0.0909091 0.0909091
ခေတ် ||| khi&apos; ||| 0.974684 0.0126582 0.0126582 0.974684 0.0126582 0.0126582
ခေတ် နောက် ||| khi&apos; nau&apos; ||| 0.6 0.2 0.2 0.6 0.2 0.2
ခေတ် ပြောင်း ||| khi&apos; pjaun: ||| 0.6 0.2 0.2 0.6 0.2 0.2
ခေတ် ရှေ့ ||| khi&apos; shei. ||| 0.6 0.2 0.2 0.6 0.2 0.2
ခေတ် ရှေ့ ပြေး ||| khi&apos; shei. bjei: ||| 0.6 0.2 0.2 0.6 0.2 0.2
ခေါ ||| kho: ||| 0.882353 0.0588235 0.0588235 0.882353 0.0588235 0.0588235
ခေါ စာ ||| kho: za ||| 0.714286 0.142857 0.142857 0.714286 0.142857 0.142857
ခေါက် ||| gau&apos; ||| 0.777778 0.111111 0.111111 0.777778 0.111111 0.111111
ခေါက် ||| khau&apos; ||| 0.978495 0.0107527 0.0107527 0.978495 0.0107527 0.0107527
ခေါက် ဆွဲ ||| khau&apos; hswe ||| 0.6 0.2 0.2 0.6 0.2 0.2
ခေါက် ဆွဲ ||| khau&apos; hswe: ||| 0.714286 0.142857 0.142857 0.714286 0.142857 0.142857
ခေါင် ||| gaun ||| 0.955556 0.0222222 0.0222222 0.955556 0.0222222 0.0222222
ခေါင် ||| khau ||| 0.714286 0.142857 0.142857 0.714286 0.142857 0.142857
ခေါင် ||| khaun ||| 0.945946 0.027027 0.027027 0.945946 0.027027 0.027027
ခေါင်း ||| gaun. ||| 0.6 0.2 0.2 0.6 0.2 0.2
ခေါင်း ||| gaun: ||| 0.990521 0.00473934 0.00473934 0.990521 0.00473934 0.00473934
ခေါင်း ||| khaun: ||| 0.962264 0.0188679 0.0188679 0.962264 0.0188679 0.0188679
ခေါင်း ||| ngaun: ||| 0.6 0.2 0.2 0.6 0.2 0.2
ခေါင်း စဉ် ||| gaun: zin ||| 0.6 0.2 0.2 0.6 0.2 0.2
ခေါင်း စီး ||| gaun: zi: ||| 0.6 0.2 0.2 0.6 0.2 0.2
ခေါင်း ပူ ||| gaun: pu ||| 0.6 0.2 0.2 0.6 0.2 0.2
ခေါင်း ဖြူ ||| gaun: bju ||| 0.6 0.2 0.2 0.6 0.2 0.2
ခေါ် ||| go ||| 0.6 0.2 0.2 0.6 0.2 0.2
ခေါ် ||| kho ||| 0.969231 0.0153846 0.0153846 0.969231 0.0153846 0.0153846
ခေါ် အ ||| kho a- ||| 0.6 0.2 0.2 0.6 0.2 0.2
ခဲ ||| ge: ||| 0.971831 0.0140845 0.0140845 0.971831 0.0140845 0.0140845
ခဲ ||| khe&apos; ||| 0.6 0.2 0.2 0.6 0.2 0.2
ခဲ ||| khe: ||| 0.978947 0.0105263 0.0105263 0.978947 0.0105263 0.0105263
ခဲ ||| nge: ||| 0.6 0.2 0.2 0.6 0.2 0.2
ခဲ ခဲ ||| khe: ge: ||| 0.6 0.2 0.2 0.6 0.2 0.2
ခဲ မ ||| khe: ma- ||| 0.6 0.2 0.2 0.6 0.2 0.2
ခဲ မ ||| khe: ma. ||| 0.714286 0.142857 0.142857 0.714286 0.142857 0.142857
ခံ ||| ga ||| 0.777778 0.111111 0.111111 0.777778 0.111111 0.111111
ခံ ||| ga- ||| 0.904762 0.047619 0.047619 0.904762 0.047619 0.047619
ခံ ||| gan ||| 0.986928 0.00653595 0.00653595 0.986928 0.00653595 0.00653595
ခံ ||| gan. ||| 0.6 0.2 0.2 0.6 0.2 0.2
ခံ ||| kha ||| 0.6 0.2 0.2 0.6 0.2 0.2
ခံ ||| khan ||| 0.993399 0.00330033 0.00330033 0.993399 0.00330033 0.00330033
ခံ ခက် ||| khan khe&apos; ||| 0.6 0.2 0.2 0.6 0.2 0.2
ခံ ချိ ||| khan gyi. ||| 0.6 0.2 0.2 0.6 0.2 0.2
ခံ ဆေး ||| khan zei: ||| 0.6 0.2 0.2 0.6 0.2 0.2
ခံ တက် ||| ga- de&apos; ||| 0.714286 0.142857 0.142857 0.714286 0.142857 0.142857
ခံ တက် ||| gan te&apos; ||| 0.6 0.2 0.2 0.6 0.2 0.2
ခံ တပ် ||| gan ta&apos; ||| 0.6 0.2 0.2 0.6 0.2 0.2
ခံ တွင်း ||| ga- dwin ||| 0.6 0.2 0.2 0.6 0.2 0.2
ခံ တွင်း ||| ga- dwin: ||| 0.866667 0.0666667 0.0666667 0.866667 0.0666667 0.0666667
ခံ ပစ် ||| gan pji&apos; ||| 0.714286 0.142857 0.142857 0.714286 0.142857 0.142857
ခံ ပစ် စည်း ||| gan pji&apos; si: ||| 0.714286 0.142857 0.142857 0.714286 0.142857 0.142857
ခံ ဝန် ||| khan wun ||| 0.818182 0.0909091 0.0909091 0.818182 0.0909091 0.0909091
ခံ ဝန် ချက် ||| khan wun gye&apos; ||| 0.6 0.2 0.2 0.6 0.2 0.2
ခံ့ ||| gan. ||| 0.6 0.2 0.2 0.6 0.2 0.2
ခံ့ ||| khan. ||| 0.846154 0.0769231 0.0769231 0.846154 0.0769231 0.0769231
ချ ||| cha ||| 0.714286 0.142857 0.142857 0.714286 0.142857 0.142857
ချ ||| cha- ||| 0.846154 0.0769231 0.0769231 0.846154 0.0769231 0.0769231
ချ ||| cha. ||| 0.991903 0.00404858 0.00404858 0.991903 0.00404858 0.00404858
ချ ||| cha: ||| 0.6 0.2 0.2 0.6 0.2 0.2
ချ ||| gya. ||| 0.714286 0.142857 0.142857 0.714286 0.142857 0.142857
ချက် ||| che&apos; ||| 0.982609 0.00869565 0.00869565 0.982609 0.00869565 0.00869565
ချက် ||| ge&apos; ||| 0.6 0.2 0.2 0.6 0.2 0.2
ချက် ||| gye&apos; ||| 0.985816 0.0070922 0.0070922 0.985816 0.0070922 0.0070922
ချက် ချင်း ||| che&apos; chin: ||| 0.6 0.2 0.2 0.6 0.2 0.2
ချင့် ||| chin. ||| 0.882353 0.0588235 0.0588235 0.882353 0.0588235 0.0588235
ချင် ||| chin ||| 0.894737 0.0526316 0.0526316 0.894737 0.0526316 0.0526316
ချင် ||| gyin ||| 0.882353 0.0588235 0.0588235 0.882353 0.0588235 0.0588235
ချင်း ||| chin: ||| 0.971831 0.0140845 0.0140845 0.971831 0.0140845 0.0140845
ချင်း ||| gyin ||| 0.6 0.2 0.2 0.6 0.2 0.2
ချင်း ||| gyin: ||| 0.981982 0.00900901 0.00900901 0.981982 0.00900901 0.00900901
ချင်း တ ||| chin: ta ||| 0.6 0.2 0.2 0.6 0.2 0.2
ချင်း လိမ် ||| gyin: lein ||| 0.6 0.2 0.2 0.6 0.2 0.2
ချစ် ||| chi&apos; ||| 0.866667 0.0666667 0.0666667 0.866667 0.0666667 0.0666667
ချစ် ||| gyi&apos; ||| 0.6 0.2 0.2 0.6 0.2 0.2
ချဉ် ||| chin ||| 0.953488 0.0232558 0.0232558 0.953488 0.0232558 0.0232558
ချဉ် ||| gyin ||| 0.935484 0.0322581 0.0322581 0.935484 0.0322581 0.0322581
ချဉ် ||| gyin: ||| 0.6 0.2 0.2 0.6 0.2 0.2
ချဉ် သိပ် ||| chin dhei&apos; ||| 0.6 0.2 0.2 0.6 0.2 0.2
ချည့် ||| chi. ||| 0.846154 0.0769231 0.0769231 0.846154 0.0769231 0.0769231
ချည့် ||| gyi. ||| 0.6 0.2 0.2 0.6 0.2 0.2
ချည် ||| chi ||| 0.966102 0.0169492 0.0169492 0.966102 0.0169492 0.0169492
ချည် ||| chin ||| 0.6 0.2 0.2 0.6 0.2 0.2
ချည် ||| gyi ||| 0.92 0.04 0.04 0.92 0.04 0.04
ချည် ဝင် ||| chi win ||| 0.6 0.2 0.2 0.6 0.2 0.2
ချပ် ||| cha&apos; ||| 0.913043 0.0434783 0.0434783 0.913043 0.0434783 0.0434783
ချပ် ||| gya&apos; ||| 0.942857 0.0285714 0.0285714 0.942857 0.0285714 0.0285714
ချမ်း ||| chan: ||| 0.939394 0.030303 0.030303 0.939394 0.030303 0.030303
ချမ်း ||| gyan: ||| 0.894737 0.0526316 0.0526316 0.894737 0.0526316 0.0526316
ချယ် ||| che ||| 0.846154 0.0769231 0.0769231 0.846154 0.0769231 0.0769231
ချာ ||| cha ||| 0.968254 0.015873 0.015873 0.968254 0.015873 0.015873
ချာ ||| gya ||| 0.935484 0.0322581 0.0322581 0.935484 0.0322581 0.0322581
ချား ||| cha: ||| 0.904762 0.047619 0.047619 0.904762 0.047619 0.047619
ချား ||| gya: ||| 0.6 0.2 0.2 0.6 0.2 0.2
ချိ ||| chi ||| 0.6 0.2 0.2 0.6 0.2 0.2
ချိ ||| chi. ||| 0.866667 0.0666667 0.0666667 0.866667 0.0666667 0.0666667
ချိ ||| gyi. ||| 0.714286 0.142857 0.142857 0.714286 0.142857 0.142857
ချိတ် ||| chei&apos; ||| 0.925926 0.037037 0.037037 0.925926 0.037037 0.037037
ချိတ် ||| gyei&apos; ||| 0.92 0.04 0.04 0.92 0.04 0.04
ချိန် ||| chain ||| 0.6 0.2 0.2 0.6 0.2 0.2
ချိန် ||| chein ||| 0.978495 0.0107527 0.0107527 0.978495 0.0107527 0.0107527
ချိန် ||| gyein ||| 0.957447 0.0212766 0.0212766 0.957447 0.0212766 0.0212766
ချိန် ခွင် ||| chein gwin ||| 0.846154 0.0769231 0.0769231 0.846154 0.0769231 0.0769231
ချိန် ပြည့် ||| chein bji. ||| 0.6 0.2 0.2 0.6 0.2 0.2
ချိန် မဲ့ ||| chein me. ||| 0.6 0.2 0.2 0.6 0.2 0.2
ချိန် ရှိ ||| chein shi. ||| 0.6 0.2 0.2 0.6 0.2 0.2
ချိပ် ||| chei&apos; ||| 0.904762 0.047619 0.047619 0.904762 0.047619 0.047619
ချိပ် ပိတ် ||| chei&apos; pei&apos; ||| 0.6 0.2 0.2 0.6 0.2 0.2
ချို ||| chou ||| 0.953488 0.0232558 0.0232558 0.953488 0.0232558 0.0232558
ချို ||| gyou ||| 0.948718 0.025641 0.025641 0.948718 0.025641 0.025641
ချို ချဉ် ||| chou chin ||| 0.6 0.2 0.2 0.6 0.2 0.2
ချို သွေး ||| chou thwei: ||| 0.6 0.2 0.2 0.6 0.2 0.2
ချို သွေး ||| gyou thwei: ||| 0.6 0.2 0.2 0.6 0.2 0.2
ချိုင့် ||| chain. ||| 0.714286 0.142857 0.142857 0.714286 0.142857 0.142857
ချိုင့် ||| gyain. ||| 0.913043 0.0434783 0.0434783 0.913043 0.0434783 0.0434783
ချိုး ||| chou: ||| 0.968254 0.015873 0.015873 0.968254 0.015873 0.015873
ချိုး ||| gyou: ||| 0.948718 0.025641 0.025641 0.948718 0.025641 0.025641
ချီ ||| chi ||| 0.942857 0.0285714 0.0285714 0.942857 0.0285714 0.0285714
ချီ ||| gyi ||| 0.846154 0.0769231 0.0769231 0.846154 0.0769231 0.0769231
ချီး ||| chi: ||| 0.925926 0.037037 0.037037 0.925926 0.037037 0.037037
ချီး ||| gyi: ||| 0.6 0.2 0.2 0.6 0.2 0.2
ချီး မွမ်း ||| chi: mun: ||| 0.6 0.2 0.2 0.6 0.2 0.2
ချီး မွမ်း ခြေ ||| chi: mun: chi ||| 0.6 0.2 0.2 0.6 0.2 0.2
ချီး မွမ်း ခြေ ကျောက် ||| chi: mun: chi gyau&apos; ||| 0.6 0.2 0.2 0.6 0.2 0.2
ချုပ် ||| chou&apos; ||| 0.980952 0.00952381 0.00952381 0.980952 0.00952381 0.00952381
ချုပ် ||| gyou&apos; ||| 0.977528 0.011236 0.011236 0.977528 0.011236 0.011236
ချုပ် မိ ||| gyou&apos; mi. ||| 0.6 0.2 0.2 0.6 0.2 0.2
ချုပ် အ ||| chou&apos; a- ||| 0.818182 0.0909091 0.0909091 0.818182 0.0909091 0.0909091
ချုံ ||| choun ||| 0.714286 0.142857 0.142857 0.714286 0.142857 0.142857
ချုံး ||| choun: ||| 0.777778 0.111111 0.111111 0.777778 0.111111 0.111111
ချုံး ||| gyoun: ||| 0.6 0.2 0.2 0.6 0.2 0.2
ချေ ||| chei ||| 0.939394 0.030303 0.030303 0.939394 0.030303 0.030303
ချေ ||| chi ||| 0.6 0.2 0.2 0.6 0.2 0.2
ချေ ||| gyei ||| 0.777778 0.111111 0.111111 0.777778 0.111111 0.111111
ချော ||| cho: ||| 0.955556 0.0222222 0.0222222 0.955556 0.0222222 0.0222222
ချော ||| gyo: ||| 0.866667 0.0666667 0.0666667 0.866667 0.0666667 0.0666667
ချောက် ||| chau&apos; ||| 0.882353 0.0588235 0.0588235 0.882353 0.0588235 0.0588235
ချောက် ||| gyau&apos; ||| 0.846154 0.0769231 0.0769231 0.846154 0.0769231 0.0769231
ချောက် ချက် ||| chau&apos; che&apos; ||| 0.6 0.2 0.2 0.6 0.2 0.2
ချောင် ||| chaun ||| 0.939394 0.030303 0.030303 0.939394 0.030303 0.030303
ချောင် ||| gyaun ||| 0.904762 0.047619 0.047619 0.904762 0.047619 0.047619
ချောင် ကျ ||| chaun kya. ||| 0.6 0.2 0.2 0.6 0.2 0.2
ချောင် ကျ ||| gyaun kya. ||| 0.6 0.2 0.2 0.6 0.2 0.2
ချောင်း ||| chaun: ||| 0.971014 0.0144928 0.0144928 0.971014 0.0144928 0.0144928
ချောင်း ||| gyaun: ||| 0.904762 0.047619 0.047619 0.904762 0.047619 0.047619
ချောင်း ငင် ||| chaun: ngin ||| 0.714286 0.142857 0.142857 0.714286 0.142857 0.142857
ချော် ||| cho ||| 0.939394 0.030303 0.030303 0.939394 0.030303 0.030303
ချော် ||| gyo ||| 0.846154 0.0769231 0.0769231 0.846154 0.0769231 0.0769231
ချော် လက် ||| gyo le&apos; ||| 0.6 0.2 0.2 0.6 0.2 0.2
ချော် လက် ချော် ||| gyo le&apos; gyo ||| 0.6 0.2 0.2 0.6 0.2 0.2
ချေး ||| chei: ||| 0.846154 0.0769231 0.0769231 0.846154 0.0769231 0.0769231
ချေး ||| chi: ||| 0.92 0.04 0.04 0.92 0.04 0.04
ချေး ||| gyei: ||| 0.6 0.2 0.2 0.6 0.2 0.2
ချေး ||| gyi: ||| 0.913043 0.0434783 0.0434783 0.913043 0.0434783 0.0434783
ချေး ပန်း ||| chi: pan: ||| 0.6 0.2 0.2 0.6 0.2 0.2
ချွတ် ||| chu&apos; ||| 0.955556 0.0222222 0.0222222 0.955556 0.0222222 0.0222222
ချွန် ||| chun ||| 0.866667 0.0666667 0.0666667 0.866667 0.0666667 0.0666667
ချွန် ||| gyun ||| 0.882353 0.0588235 0.0588235 0.882353 0.0588235 0.0588235
ချွန်း ||| chun: ||| 0.904762 0.047619 0.047619 0.904762 0.047619 0.047619
ချွန်း ||| gyun: ||| 0.6 0.2 0.2 0.6 0.2 0.2
ချွေး ||| chwei: ||| 0.957447 0.0212766 0.0212766 0.957447 0.0212766 0.0212766
ချွေး ||| gywei: ||| 0.6 0.2 0.2 0.6 0.2 0.2
ချွဲ ||| chwe: ||| 0.931034 0.0344828 0.0344828 0.931034 0.0344828 0.0344828
ချွဲ ||| gywe: ||| 0.6 0.2 0.2 0.6 0.2 0.2
ခြင် ||| chin ||| 0.931034 0.0344828 0.0344828 0.931034 0.0344828 0.0344828
ခြင် ||| gyin ||| 0.714286 0.142857 0.142857 0.714286 0.142857 0.142857
ခြင် ဆီ ||| chin zi ||| 0.6 0.2 0.2 0.6 0.2 0.2
ခြင် သေ့ ||| chin dhei. ||| 0.777778 0.111111 0.111111 0.777778 0.111111 0.111111
ခြင်း ||| chin: ||| 0.925926 0.037037 0.037037 0.925926 0.037037 0.037037
ခြင်း ||| gyin ||| 0.6 0.2 0.2 0.6 0.2 0.2
ခြင်း ||| gyin: ||| 0.939394 0.030303 0.030303 0.939394 0.030303 0.030303
ခြစ် ||| chi&apos; ||| 0.818182 0.0909091 0.0909091 0.818182 0.0909091 0.0909091
ခြစ် ||| gyi&apos; ||| 0.92 0.04 0.04 0.92 0.04 0.04
ခြည် ||| chei ||| 0.6 0.2 0.2 0.6 0.2 0.2
ခြည် ||| chi ||| 0.882353 0.0588235 0.0588235 0.882353 0.0588235 0.0588235
ခြည် ||| chi&apos; ||| 0.6 0.2 0.2 0.6 0.2 0.2
ခြည် ||| gyei ||| 0.6 0.2 0.2 0.6 0.2 0.2
ခြည် ||| gyi ||| 0.913043 0.0434783 0.0434783 0.913043 0.0434783 0.0434783
ခြည်း ||| chi: ||| 0.6 0.2 0.2 0.6 0.2 0.2
ခြမ်း ||| chan: ||| 0.92 0.04 0.04 0.92 0.04 0.04
ခြမ်း ||| gyan: ||| 0.904762 0.047619 0.047619 0.904762 0.047619 0.047619
ခြား ||| cha: ||| 0.935484 0.0322581 0.0322581 0.935484 0.0322581 0.0322581
ခြား ||| gya: ||| 0.95122 0.0243902 0.0243902 0.95122 0.0243902 0.0243902
ခြိမ့် ||| chein. ||| 0.6 0.2 0.2 0.6 0.2 0.2
ခြိမ့် ||| gyein. ||| 0.6 0.2 0.2 0.6 0.2 0.2
ခြိမ့် ခြိမ့် ||| chein. gyein. ||| 0.6 0.2 0.2 0.6 0.2 0.2
ခြိုက် ||| chai&apos; ||| 0.866667 0.0666667 0.0666667 0.866667 0.0666667 0.0666667
ခြိုက် ||| gyai&apos; ||| 0.6 0.2 0.2 0.6 0.2 0.2
ခြူး ||| chu: ||| 0.777778 0.111111 0.111111 0.777778 0.111111 0.111111
ခြေ ||| chei ||| 0.987879 0.00606061 0.00606061 0.987879 0.00606061 0.00606061
ခြေ ||| chi ||| 0.986014 0.00699301 0.00699301 0.986014 0.00699301 0.00699301
ခြေ ||| gyei ||| 0.972603 0.0136986 0.0136986 0.972603 0.0136986 0.0136986
ခြေ ||| gyei&apos; ||| 0.6 0.2 0.2 0.6 0.2 0.2
ခြေ ||| gyi ||| 0.6 0.2 0.2 0.6 0.2 0.2
ခြေ ကန် ||| chei kan ||| 0.6 0.2 0.2 0.6 0.2 0.2
ခြေ ကန် ||| gyei kan ||| 0.6 0.2 0.2 0.6 0.2 0.2
ခြေ ကျောက် ||| chi gyau&apos; ||| 0.6 0.2 0.2 0.6 0.2 0.2
ခြေ ခတ် ||| chei ga&apos; ||| 0.6 0.2 0.2 0.6 0.2 0.2
ခြေ ခတ် ||| chei kha&apos; ||| 0.6 0.2 0.2 0.6 0.2 0.2
ခြေ ခတ် ||| chi kha&apos; ||| 0.6 0.2 0.2 0.6 0.2 0.2
ခြေ ချင်း ||| chei gyin: ||| 0.6 0.2 0.2 0.6 0.2 0.2
ခြေ ချင်း ||| chi gyin: ||| 0.818182 0.0909091 0.0909091 0.818182 0.0909091 0.0909091
ခြေ ချင်း လိမ် ||| chi gyin: lein ||| 0.6 0.2 0.2 0.6 0.2 0.2
ခြေ ချုပ် ||| chei gyou&apos; ||| 0.714286 0.142857 0.142857 0.714286 0.142857 0.142857
ခြေ ချုပ် ||| chi gyou&apos; ||| 0.6 0.2 0.2 0.6 0.2 0.2
ခြေ ချုပ် မိ ||| chei gyou&apos; mi. ||| 0.6 0.2 0.2 0.6 0.2 0.2
ခြေ ချော် ||| chi gyo ||| 0.6 0.2 0.2 0.6 0.2 0.2
ခြေ ချော် လက် ||| chi gyo le&apos; ||| 0.6 0.2 0.2 0.6 0.2 0.2
ခြေ ချော် လက် ချော် ||| chi gyo le&apos; gyo ||| 0.6 0.2 0.2 0.6 0.2 0.2
ခြေ ခွင် ||| chei gwin ||| 0.714286 0.142857 0.142857 0.714286 0.142857 0.142857
ခြေ ခွင် ||| chi gwin ||| 0.6 0.2 0.2 0.6 0.2 0.2
ခြေ ခွင် ||| chi khwin ||| 0.6 0.2 0.2 0.6 0.2 0.2
ခြေ စစ် ||| chi zi&apos; ||| 0.6 0.2 0.2 0.6 0.2 0.2
ခြေ စစ် ပွဲ ||| chi zi&apos; pwe: ||| 0.6 0.2 0.2 0.6 0.2 0.2
ခြေ ညောင်း ||| chei njaun: ||| 0.6 0.2 0.2 0.6 0.2 0.2
ခြေ ညောင်း လက် ||| chei njaun: le&apos; ||| 0.6 0.2 0.2 0.6 0.2 0.2
ခြေ ညောင်း လက် ဆန့် ||| chei njaun: le&apos; hsan. ||| 0.6 0.2 0.2 0.6 0.2 0.2
ခြေ ထောက် ||| chei dau&apos; ||| 0.6 0.2 0.2 0.6 0.2 0.2
ခြေ ထောက် ||| chi dau&apos; ||| 0.846154 0.0769231 0.0769231 0.846154 0.0769231 0.0769231
ခြေ ဖ ||| chei ba- ||| 0.777778 0.111111 0.111111 0.777778 0.111111 0.111111
ခြေ ဖ ||| chi ba- ||| 0.818182 0.0909091 0.0909091 0.818182 0.0909091 0.0909091
ခြေ ဖ မျက် ||| chi ba- mje&apos; ||| 0.6 0.2 0.2 0.6 0.2 0.2
ခြေ မ ||| chei ma- ||| 0.714286 0.142857 0.142857 0.714286 0.142857 0.142857
ခြေ မ ||| chi ma. ||| 0.6 0.2 0.2 0.6 0.2 0.2
ခြေ မ ||| gyei ma- ||| 0.6 0.2 0.2 0.6 0.2 0.2
ခြေ မ ကိုင် ||| chei ma- kain ||| 0.6 0.2 0.2 0.6 0.2 0.2
ခြေ မ ကိုင် မိ ||| chei ma- kain mi. ||| 0.6 0.2 0.2 0.6 0.2 0.2
ခြေ မ ကိုင် မိ လက် ||| chei ma- kain mi. le&apos; ||| 0.6 0.2 0.2 0.6 0.2 0.2
ခြောက် ||| chau&apos; ||| 0.976471 0.0117647 0.0117647 0.976471 0.0117647 0.0117647
ခြောက် ||| chou&apos; ||| 0.6 0.2 0.2 0.6 0.2 0.2
ခြောက် ||| gyau&apos; ||| 0.955556 0.0222222 0.0222222 0.955556 0.0222222 0.0222222
ခြောက် ခြောက် ||| chau&apos; chau&apos; ||| 0.6 0.2 0.2 0.6 0.2 0.2
ခြောက် လုံး ||| chau&apos; loun: ||| 0.714286 0.142857 0.142857 0.714286 0.142857 0.142857
ခွ ||| gwa. ||| 0.92 0.04 0.04 0.92 0.04 0.04
ခွ ||| khwa. ||| 0.92 0.04 0.04 0.92 0.04 0.04
ခွ တိုက် ||| gwa. tai&apos; ||| 0.6 0.2 0.2 0.6 0.2 0.2
ခွက် ||| gwe&apos; ||| 0.955556 0.0222222 0.0222222 0.955556 0.0222222 0.0222222
ခွက် ||| khwe&apos; ||| 0.968254 0.015873 0.015873 0.968254 0.015873 0.015873
ခွက် လန် ||| khwe&apos; lan ||| 0.6 0.2 0.2 0.6 0.2 0.2
ခွင့် ||| gwin ||| 0.6 0.2 0.2 0.6 0.2 0.2
ခွင့် ||| gwin. ||| 0.913043 0.0434783 0.0434783 0.913043 0.0434783 0.0434783
ခွင့် ||| khwin ||| 0.6 0.2 0.2 0.6 0.2 0.2
ခွင့် ||| khwin. ||| 0.959184 0.0204082 0.0204082 0.959184 0.0204082 0.0204082
ခွင့် ထူး ||| khwin du: ||| 0.6 0.2 0.2 0.6 0.2 0.2
ခွင့် ထူး ||| khwin. du: ||| 0.6 0.2 0.2 0.6 0.2 0.2
ခွင့် ထူး ခံ ||| khwin du: gan ||| 0.6 0.2 0.2 0.6 0.2 0.2
ခွင့် လွှတ် ||| khwin. lhu&apos; ||| 0.6 0.2 0.2 0.6 0.2 0.2
ခွင် ||| gwin ||| 0.957447 0.0212766 0.0212766 0.957447 0.0212766 0.0212766
ခွင် ||| khwin ||| 0.846154 0.0769231 0.0769231 0.846154 0.0769231 0.0769231
ခွင်း ||| khwin: ||| 0.777778 0.111111 0.111111 0.777778 0.111111 0.111111
ခွန် ||| gun ||| 0.95122 0.0243902 0.0243902 0.95122 0.0243902 0.0243902
ခွန် ||| khu ||| 0.6 0.2 0.2 0.6 0.2 0.2
ခွန် ||| khun ||| 0.942857 0.0285714 0.0285714 0.942857 0.0285714 0.0285714
ခွန် အ ||| khun a- ||| 0.6 0.2 0.2 0.6 0.2 0.2
ခွန်း ||| gun: ||| 0.846154 0.0769231 0.0769231 0.846154 0.0769231 0.0769231
ခွန်း ||| khun: ||| 0.846154 0.0769231 0.0769231 0.846154 0.0769231 0.0769231
ခွပ် ||| gu&apos; ||| 0.6 0.2 0.2 0.6 0.2 0.2
ခွပ် ||| khu&apos; ||| 0.777778 0.111111 0.111111 0.777778 0.111111 0.111111
ခွာ ||| khwa ||| 0.959184 0.0204082 0.0204082 0.959184 0.0204082 0.0204082
ခွာ လိပ် ||| khwa lei&apos; ||| 0.6 0.2 0.2 0.6 0.2 0.2
ခွေ ||| gwei ||| 0.882353 0.0588235 0.0588235 0.882353 0.0588235 0.0588235
ခွေ ||| khwei ||| 0.904762 0.047619 0.047619 0.904762 0.047619 0.047619
ခွေး ||| gwei: ||| 0.846154 0.0769231 0.0769231 0.846154 0.0769231 0.0769231
ခွေး ||| khwe: ||| 0.6 0.2 0.2 0.6 0.2 0.2
ခွေး ||| khwei: ||| 0.975904 0.0120482 0.0120482 0.975904 0.0120482 0.0120482
ခွေး ရူး ||| khwei: ju: ||| 0.714286 0.142857 0.142857 0.714286 0.142857 0.142857
ခွေး လှေး ||| khwei: lhei: ||| 0.777778 0.111111 0.111111 0.777778 0.111111 0.111111
ခွဲ ||| gwe: ||| 0.92 0.04 0.04 0.92 0.04 0.04
ခွဲ ||| khwe: ||| 0.971014 0.0144928 0.0144928 0.971014 0.0144928 0.0144928
ခွဲ စိတ် ||| khwe: sei&apos; ||| 0.6 0.2 0.2 0.6 0.2 0.2
ခွံ ||| gu ||| 0.6 0.2 0.2 0.6 0.2 0.2
ခွံ ||| gun ||| 0.913043 0.0434783 0.0434783 0.913043 0.0434783 0.0434783
ခွံ ||| kaun ||| 0.6 0.2 0.2 0.6 0.2 0.2
ခွံ ||| khun ||| 0.904762 0.047619 0.047619 0.904762 0.047619 0.047619
ဂ ||| ga ||| 0.714286 0.142857 0.142857 0.714286 0.142857 0.142857
ဂ ||| ga- ||| 0.990431 0.00478469 0.00478469 0.990431 0.00478469 0.00478469
ဂ ||| ga. ||| 0.968254 0.015873 0.015873 0.968254 0.015873 0.015873
ဂ ဏန်း ||| ga- nan: ||| 0.904762 0.047619 0.047619 0.904762 0.047619 0.047619
ဂ ဓ ||| ga- da. ||| 0.6 0.2 0.2 0.6 0.2 0.2
ဂ ဘာ ||| ga- ba ||| 0.6 0.2 0.2 0.6 0.2 0.2
ဂ ဘာ ရီ ||| ga- ba ji ||| 0.6 0.2 0.2 0.6 0.2 0.2
ဂ ရပ် ||| ga- ra&apos; ||| 0.6 0.2 0.2 0.6 0.2 0.2
ဂ ရီ ||| ga- ri ||| 0.6 0.2 0.2 0.6 0.2 0.2
ဂ ရု ||| ga- ju ||| 0.6 0.2 0.2 0.6 0.2 0.2
ဂ ရု ||| ga- ju. ||| 0.777778 0.111111 0.111111 0.777778 0.111111 0.111111
ဂ ရု ||| ga- ru. ||| 0.777778 0.111111 0.111111 0.777778 0.111111 0.111111
ဂ ရု ပြု ||| ga- ju. pju. ||| 0.6 0.2 0.2 0.6 0.2 0.2
ဂ လ ||| ga- la. ||| 0.866667 0.0666667 0.0666667 0.866667 0.0666667 0.0666667
ဂ လာ ||| ga- la ||| 0.931034 0.0344828 0.0344828 0.931034 0.0344828 0.0344828
ဂ ဝံ ||| ga- wun ||| 0.6 0.2 0.2 0.6 0.2 0.2
ဂ ဟေ ||| ga- hei ||| 0.6 0.2 0.2 0.6 0.2 0.2
ဂင် ||| gin ||| 0.714286 0.142857 0.142857 0.714286 0.142857 0.142857
ဂင် ||| gin: ||| 0.6 0.2 0.2 0.6 0.2 0.2
ဂင် ဂါ ||| gin: ga ||| 0.6 0.2 0.2 0.6 0.2 0.2
ဂန် ||| gan ||| 0.904762 0.047619 0.047619 0.904762 0.047619 0.047619
ဂန် တု ||| gan du ||| 0.6 0.2 0.2 0.6 0.2 0.2
ဂန် ဓ ||| gan da- ||| 0.6 0.2 0.2 0.6 0.2 0.2
ဂန် ဓ မာ ||| gan da- ma ||| 0.6 0.2 0.2 0.6 0.2 0.2
ဂါ ||| ga ||| 0.982906 0.00854701 0.00854701 0.982906 0.00854701 0.00854701
ဂါ ||| ga- ||| 0.6 0.2 0.2 0.6 0.2 0.2
ဂါ ထာ ||| ga hta ||| 0.714286 0.142857 0.142857 0.714286 0.142857 0.142857
ဂါ ရ ||| ga ra- ||| 0.6 0.2 0.2 0.6 0.2 0.2
ဂါး ||| ga- ||| 0.846154 0.0769231 0.0769231 0.846154 0.0769231 0.0769231
ဂါး ||| ga: ||| 0.866667 0.0666667 0.0666667 0.866667 0.0666667 0.0666667
ဂိ ||| gi ||| 0.6 0.2 0.2 0.6 0.2 0.2
ဂိ ||| gi. ||| 0.714286 0.142857 0.142857 0.714286 0.142857 0.142857
ဂိုဏ်း ||| gain: ||| 0.894737 0.0526316 0.0526316 0.894737 0.0526316 0.0526316
ဂီ ||| gi ||| 0.942857 0.0285714 0.0285714 0.942857 0.0285714 0.0285714
ဂုဏ် ||| goun ||| 0.969231 0.0153846 0.0153846 0.969231 0.0153846 0.0153846
ဂုဏ် ပြု ||| goun pju ||| 0.6 0.2 0.2 0.6 0.2 0.2
ဂုန် ||| gou ||| 0.6 0.2 0.2 0.6 0.2 0.2
ဂုန် ||| goun ||| 0.777778 0.111111 0.111111 0.777778 0.111111 0.111111
ဂုန် နီ ||| goun ni ||| 0.714286 0.142857 0.142857 0.714286 0.142857 0.142857
ဂုံ ||| goun ||| 0.894737 0.0526316 0.0526316 0.894737 0.0526316 0.0526316
ဂေါက် ||| gau&apos; ||| 0.714286 0.142857 0.142857 0.714286 0.142857 0.142857
ဂေါက် သီး ||| gau&apos; thi: ||| 0.714286 0.142857 0.142857 0.714286 0.142857 0.142857
ဂေါ် ||| go ||| 0.913043 0.0434783 0.0434783 0.913043 0.0434783 0.0434783
ဂေါ် ဖီ ||| go bi ||| 0.777778 0.111111 0.111111 0.777778 0.111111 0.111111
ဂျက် ||| gye&apos; ||| 0.777778 0.111111 0.111111 0.777778 0.111111 0.111111
ဂျင် ||| gyin ||| 0.92 0.04 0.04 0.92 0.04 0.04
ဂျစ် ||| gyi&apos; ||| 0.714286 0.142857 0.142857 0.714286 0.142857 0.142857
ဂျာ ||| gya ||| 0.866667 0.0666667 0.0666667 0.866667 0.0666667 0.0666667
ဂျီ ||| gyi ||| 0.925926 0.037037 0.037037 0.925926 0.037037 0.037037
ဂြိုဟ် ||| gyou ||| 0.948718 0.025641 0.025641 0.948718 0.025641 0.025641
ဂွမ်း ||| gun: ||| 0.777778 0.111111 0.111111 0.777778 0.111111 0.111111
ဂွမ်း ||| gwan: ||| 0.6 0.2 0.2 0.6 0.2 0.2
ဃ ||| ga- ||| 0.777778 0.111111 0.111111 0.777778 0.111111 0.111111
ဃ ||| ga. ||| 0.866667 0.0666667 0.0666667 0.866667 0.0666667 0.0666667
ဃာ ||| ga ||| 0.882353 0.0588235 0.0588235 0.882353 0.0588235 0.0588235
ဃာ စင် ||| ga zin ||| 0.6 0.2 0.2 0.6 0.2 0.2
င ||| nga ||| 0.818182 0.0909091 0.0909091 0.818182 0.0909091 0.0909091
င ||| nga- ||| 0.973333 0.0133333 0.0133333 0.973333 0.0133333 0.0133333
င ||| nga. ||| 0.846154 0.0769231 0.0769231 0.846154 0.0769231 0.0769231
င ရုတ် ||| nga- jou&apos; ||| 0.818182 0.0909091 0.0909091 0.818182 0.0909091 0.0909091
င ရဲ ||| nga je: ||| 0.777778 0.111111 0.111111 0.777778 0.111111 0.111111
င ရဲ ||| nga- je: ||| 0.882353 0.0588235 0.0588235 0.882353 0.0588235 0.0588235
င လျင် ||| nga- ljin ||| 0.777778 0.111111 0.111111 0.777778 0.111111 0.111111
ငင် ||| gin ||| 0.714286 0.142857 0.142857 0.714286 0.142857 0.142857
ငင် ||| ngin ||| 0.960784 0.0196078 0.0196078 0.960784 0.0196078 0.0196078
ငင်း ||| ngin: ||| 0.6 0.2 0.2 0.6 0.2 0.2
ငန် ||| gan ||| 0.6 0.2 0.2 0.6 0.2 0.2
ငန် ||| ngan ||| 0.714286 0.142857 0.142857 0.714286 0.142857 0.142857
ငန် ||| ngan. ||| 0.6 0.2 0.2 0.6 0.2 0.2
ငန်း ||| ngan: ||| 0.960784 0.0196078 0.0196078 0.960784 0.0196078 0.0196078
ငမ်း ||| gan: ||| 0.6 0.2 0.2 0.6 0.2 0.2
ငမ်း ||| ngan: ||| 0.846154 0.0769231 0.0769231 0.846154 0.0769231 0.0769231
ငယ် ||| ge ||| 0.714286 0.142857 0.142857 0.714286 0.142857 0.142857
ငယ် ||| ke ||| 0.777778 0.111111 0.111111 0.777778 0.111111 0.111111
ငယ် ||| nge ||| 0.989305 0.00534759 0.00534759 0.989305 0.00534759 0.00534759
ငယ် ||| nge&apos; ||| 0.6 0.2 0.2 0.6 0.2 0.2
ငယ် ||| nge. ||| 0.6 0.2 0.2 0.6 0.2 0.2
ငယ် စဉ် ||| nge zin ||| 0.6 0.2 0.2 0.6 0.2 0.2
ငယ် တော် ||| nge do ||| 0.6 0.2 0.2 0.6 0.2 0.2
ငါ ||| ga ||| 0.818182 0.0909091 0.0909091 0.818182 0.0909091 0.0909091
ငါ ||| nga ||| 0.904762 0.047619 0.047619 0.904762 0.047619 0.047619
ငါ တစ် ||| nga da- ||| 0.6 0.2 0.2 0.6 0.2 0.2
ငါ တစ် ||| nga ta- ||| 0.6 0.2 0.2 0.6 0.2 0.2
ငါ့ ||| nga. ||| 0.6 0.2 0.2 0.6 0.2 0.2
ငါး ||| nga- ||| 0.988571 0.00571429 0.00571429 0.988571 0.00571429 0.00571429
ငါး ||| nga: ||| 0.976471 0.0117647 0.0117647 0.976471 0.0117647 0.0117647
ငါး ကြင်း ||| nga- gyin: ||| 0.714286 0.142857 0.142857 0.714286 0.142857 0.142857
ငါး ကြီး ||| nga: gyi: ||| 0.6 0.2 0.2 0.6 0.2 0.2
ငါး စင် ||| nga- zin ||| 0.6 0.2 0.2 0.6 0.2 0.2
ငါး စိမ်း ||| nga: zein: ||| 0.6 0.2 0.2 0.6 0.2 0.2
ငါး ပိ ||| nga- pi. ||| 0.935484 0.0322581 0.0322581 0.935484 0.0322581 0.0322581
ငါး ဖယ် ||| nga- hpe ||| 0.714286 0.142857 0.142857 0.714286 0.142857 0.142857
ငါး မန်း ||| nga- man: ||| 0.818182 0.0909091 0.0909091 0.818182 0.0909091 0.0909091
ငါး မန်း စွယ် ||| nga- man: swe ||| 0.6 0.2 0.2 0.6 0.2 0.2
ငါး မျှား ||| nga- mhja: ||| 0.714286 0.142857 0.142857 0.714286 0.142857 0.142857
ငါး မြင်း ||| nga- mjin: ||| 0.6 0.2 0.2 0.6 0.2 0.2
ငါး ရံ့ ||| nga- jan. ||| 0.777778 0.111111 0.111111 0.777778 0.111111 0.111111
ငါး လက် ||| nga- le&apos; ||| 0.6 0.2 0.2 0.6 0.2 0.2
ငို ||| ngou ||| 0.945946 0.027027 0.027027 0.945946 0.027027 0.027027
ငိုက် ||| ngai&apos; ||| 0.894737 0.0526316 0.0526316 0.894737 0.0526316 0.0526316
ငုပ် ||| gou&apos; ||| 0.777778 0.111111 0.111111 0.777778 0.111111 0.111111
ငုပ် ||| ngou&apos; ||| 0.818182 0.0909091 0.0909091 0.818182 0.0909091 0.0909091
ငံ ||| gan ||| 0.948718 0.025641 0.025641 0.948718 0.025641 0.025641
ငံ ||| ngan ||| 0.818182 0.0909091 0.0909091 0.818182 0.0909091 0.0909091
ငံ တော် ||| gan do ||| 0.777778 0.111111 0.111111 0.777778 0.111111 0.111111
ငံ တော် အ ||| gan do a- ||| 0.6 0.2 0.2 0.6 0.2 0.2
ငံ ပြာ ||| ngan bja ||| 0.6 0.2 0.2 0.6 0.2 0.2
ငံ ပြာ ရည် ||| ngan bja jei ||| 0.6 0.2 0.2 0.6 0.2 0.2
ငြင်း ||| njin: ||| 0.894737 0.0526316 0.0526316 0.894737 0.0526316 0.0526316
ငြမ်း ||| njan: ||| 0.777778 0.111111 0.111111 0.777778 0.111111 0.111111
ငြမ်း ဆင် ||| njan: hsin ||| 0.714286 0.142857 0.142857 0.714286 0.142857 0.142857
ငြာ ||| nja ||| 0.846154 0.0769231 0.0769231 0.846154 0.0769231 0.0769231
ငြိ ||| nji ||| 0.6 0.2 0.2 0.6 0.2 0.2
ငြိ ||| nji. ||| 0.882353 0.0588235 0.0588235 0.882353 0.0588235 0.0588235
ငြိမ် ||| njein ||| 0.913043 0.0434783 0.0434783 0.913043 0.0434783 0.0434783
ငြိမ်း ||| njein: ||| 0.955556 0.0222222 0.0222222 0.955556 0.0222222 0.0222222
ငြိုး ||| njhou: ||| 0.818182 0.0909091 0.0909091 0.818182 0.0909091 0.0909091
ငြိုး ||| njou: ||| 0.777778 0.111111 0.111111 0.777778 0.111111 0.111111
ငွေ ||| gwei ||| 0.6 0.2 0.2 0.6 0.2 0.2
ငွေ ||| ngwe: ||| 0.6 0.2 0.2 0.6 0.2 0.2
ငွေ ||| ngwei ||| 0.945946 0.027027 0.027027 0.945946 0.027027 0.027027
ငှက် ||| ngha- ||| 0.818182 0.0909091 0.0909091 0.818182 0.0909091 0.0909091
ငှက် ||| nghe&apos; ||| 0.92 0.04 0.04 0.92 0.04 0.04
ငှား ||| ngha: ||| 0.882353 0.0588235 0.0588235 0.882353 0.0588235 0.0588235
စ ||| hsa- ||| 0.6 0.2 0.2 0.6 0.2 0.2
စ ||| sa ||| 0.818182 0.0909091 0.0909091 0.818182 0.0909091 0.0909091
စ ||| sa- ||| 0.991632 0.0041841 0.0041841 0.991632 0.0041841 0.0041841
စ ||| sa. ||| 0.984962 0.0075188 0.0075188 0.984962 0.0075188 0.0075188
စ ||| se&apos; ||| 0.866667 0.0666667 0.0666667 0.866667 0.0666667 0.0666667
စ ||| tha- ||| 0.6 0.2 0.2 0.6 0.2 0.2
စ ||| za- ||| 0.993846 0.00307692 0.00307692 0.993846 0.00307692 0.00307692
စ ||| za. ||| 0.975309 0.0123457 0.0123457 0.975309 0.0123457 0.0123457
စ က ||| sa ka- ||| 0.6 0.2 0.2 0.6 0.2 0.2
စ က ||| sa- ka- ||| 0.6 0.2 0.2 0.6 0.2 0.2
စ က ||| sa- ka. ||| 0.714286 0.142857 0.142857 0.714286 0.142857 0.142857
စ က ||| za- ga. ||| 0.818182 0.0909091 0.0909091 0.818182 0.0909091 0.0909091
စ ကား ||| sa- ka: ||| 0.6 0.2 0.2 0.6 0.2 0.2
စ ကား ||| za- ga- ||| 0.964912 0.0175439 0.0175439 0.964912 0.0175439 0.0175439
စ ကား ||| za- ga: ||| 0.981651 0.00917431 0.00917431 0.981651 0.00917431 0.00917431
စ ကား ကုန် ||| za- ga: koun ||| 0.6 0.2 0.2 0.6 0.2 0.2
စ ကား ကြီး ||| za- ga- gyi: ||| 0.6 0.2 0.2 0.6 0.2 0.2
စ ကား စ ||| za- ga- za. ||| 0.6 0.2 0.2 0.6 0.2 0.2
စ ကား စ ||| za- ga: sa. ||| 0.6 0.2 0.2 0.6 0.2 0.2
စ ကား စ ||| za- ga: za. ||| 0.6 0.2 0.2 0.6 0.2 0.2
စ ကား နှစ် ||| za- ga: nha- ||| 0.6 0.2 0.2 0.6 0.2 0.2
စ ကား နှစ် ခွ ||| za- ga: nha- khwa. ||| 0.6 0.2 0.2 0.6 0.2 0.2
စ ကား ပြော ||| za- ga: pjo: ||| 0.6 0.2 0.2 0.6 0.2 0.2
စ ကြီး ||| sa kyi: ||| 0.6 0.2 0.2 0.6 0.2 0.2
စ ခန်း ||| sa- khan: ||| 0.931034 0.0344828 0.0344828 0.931034 0.0344828 0.0344828
စ ချီ ||| sa- chi ||| 0.6 0.2 0.2 0.6 0.2 0.2
စ တု ||| sa- tu ||| 0.6 0.2 0.2 0.6 0.2 0.2
စ တု ||| sa- tu. ||| 0.846154 0.0769231 0.0769231 0.846154 0.0769231 0.0769231
စ တုံး ||| sa. toun: ||| 0.714286 0.142857 0.142857 0.714286 0.142857 0.142857
စ နစ် ||| sa- ni&apos; ||| 0.939394 0.030303 0.030303 0.939394 0.030303 0.030303
စ များ ||| sa. mja: ||| 0.6 0.2 0.2 0.6 0.2 0.2
စ ရာ ||| sa- ja ||| 0.6 0.2 0.2 0.6 0.2 0.2
စ ရာ ||| za- ja ||| 0.904762 0.047619 0.047619 0.904762 0.047619 0.047619
စ လုံး ||| za- loun: ||| 0.6 0.2 0.2 0.6 0.2 0.2
စက် ||| se&apos; ||| 0.990244 0.00487805 0.00487805 0.990244 0.00487805 0.00487805
စက် ||| sei&apos; ||| 0.714286 0.142857 0.142857 0.714286 0.142857 0.142857
စက် ||| ze&apos; ||| 0.970149 0.0149254 0.0149254 0.970149 0.0149254 0.0149254
စက် ကူ ||| se&apos; ku ||| 0.92 0.04 0.04 0.92 0.04 0.04
စက် စက် ||| se&apos; se&apos; ||| 0.714286 0.142857 0.142857 0.714286 0.142857 0.142857
စက် တော် ||| se&apos; to ||| 0.6 0.2 0.2 0.6 0.2 0.2
စက် မှု ||| se&apos; mhu. ||| 0.846154 0.0769231 0.0769231 0.846154 0.0769231 0.0769231
စက် ဝိုင်း ||| se&apos; wain: ||| 0.6 0.2 0.2 0.6 0.2 0.2
စက် ဝိုင်း ||| sei&apos; wain: ||| 0.6 0.2 0.2 0.6 0.2 0.2
စက် အ ||| se&apos; a- ||| 0.6 0.2 0.2 0.6 0.2 0.2
စင် ||| si ||| 0.714286 0.142857 0.142857 0.714286 0.142857 0.142857
စင် ||| sin ||| 0.971014 0.0144928 0.0144928 0.971014 0.0144928 0.0144928
စင် ||| zin ||| 0.974026 0.012987 0.012987 0.974026 0.012987 0.012987
စင် ||| zin: ||| 0.777778 0.111111 0.111111 0.777778 0.111111 0.111111
စင်း ||| sin: ||| 0.904762 0.047619 0.047619 0.904762 0.047619 0.047619
စင်း ||| zin: ||| 0.913043 0.0434783 0.0434783 0.913043 0.0434783 0.0434783
စင်း ခံ ||| zin: khan ||| 0.6 0.2 0.2 0.6 0.2 0.2
စစ် ||| si&apos; ||| 0.992982 0.00350877 0.00350877 0.992982 0.00350877 0.00350877
စစ် ||| zi&apos; ||| 0.948718 0.025641 0.025641 0.948718 0.025641 0.025641
စစ် တ ||| si&apos; ta- ||| 0.818182 0.0909091 0.0909091 0.818182 0.0909091 0.0909091
စစ် တမ်း ||| si&apos; tan: ||| 0.6 0.2 0.2 0.6 0.2 0.2
စစ် ပြေး ||| si&apos; pjei: ||| 0.6 0.2 0.2 0.6 0.2 0.2
စစ် ပွဲ ||| si&apos; pwe: ||| 0.714286 0.142857 0.142857 0.714286 0.142857 0.142857
စစ် ပွဲ ||| zi&apos; pwe: ||| 0.6 0.2 0.2 0.6 0.2 0.2
စစ် ဝန် ||| si&apos; win ||| 0.6 0.2 0.2 0.6 0.2 0.2
စစ် ဝန် ||| si&apos; wun ||| 0.6 0.2 0.2 0.6 0.2 0.2
စစ် အ ||| si&apos; a- ||| 0.714286 0.142857 0.142857 0.714286 0.142857 0.142857
စစ် ဦး ||| si&apos; u: ||| 0.777778 0.111111 0.111111 0.777778 0.111111 0.111111
စစ် ဦး စီး ||| si&apos; u: zi: ||| 0.6 0.2 0.2 0.6 0.2 0.2
စဉ် ||| sin ||| 0.963636 0.0181818 0.0181818 0.963636 0.0181818 0.0181818
စဉ် ||| zin ||| 0.974684 0.0126582 0.0126582 0.974684 0.0126582 0.0126582
စဉ် ကြေး ||| zin gyei: ||| 0.6 0.2 0.2 0.6 0.2 0.2
စဉ် လာ ||| sin la ||| 0.6 0.2 0.2 0.6 0.2 0.2
စဉ်း ||| sin: ||| 0.945946 0.027027 0.027027 0.945946 0.027027 0.027027
စဉ်း ||| zin: ||| 0.913043 0.0434783 0.0434783 0.913043 0.0434783 0.0434783
စဉ်း စား ||| zin: sa: ||| 0.6 0.2 0.2 0.6 0.2 0.2
စဉ်း တီ ||| sin: ti ||| 0.6 0.2 0.2 0.6 0.2 0.2
စဉ်း တီ တုံး ||| sin: ti doun: ||| 0.6 0.2 0.2 0.6 0.2 0.2
စည် ||| si ||| 0.942857 0.0285714 0.0285714 0.942857 0.0285714 0.0285714
စည် ||| ze ||| 0.714286 0.142857 0.142857 0.714286 0.142857 0.142857
စည် ||| zi ||| 0.935484 0.0322581 0.0322581 0.935484 0.0322581 0.0322581
စည်း ||| hsi: ||| 0.6 0.2 0.2 0.6 0.2 0.2
စည်း ||| si: ||| 0.988304 0.00584795 0.00584795 0.988304 0.00584795 0.00584795
စည်း ||| zi: ||| 0.931034 0.0344828 0.0344828 0.931034 0.0344828 0.0344828
စည်း ကမ်း ||| si: kan: ||| 0.777778 0.111111 0.111111 0.777778 0.111111 0.111111
စည်း ကြိုး ||| si: gyou: ||| 0.6 0.2 0.2 0.6 0.2 0.2
စည်း စိမ် ||| si: zein ||| 0.6 0.2 0.2 0.6 0.2 0.2
စည်း ပစ် ||| si: pji&apos; ||| 0.6 0.2 0.2 0.6 0.2 0.2
စည်း မဲ့ ||| si: me: ||| 0.6 0.2 0.2 0.6 0.2 0.2
စည်း သား ||| si: dha: ||| 0.6 0.2 0.2 0.6 0.2 0.2
စန်း ||| san: ||| 0.777778 0.111111 0.111111 0.777778 0.111111 0.111111
စန်း ||| zan: ||| 0.6 0.2 0.2 0.6 0.2 0.2
စပ် ||| sa&apos; ||| 0.985612 0.00719424 0.00719424 0.985612 0.00719424 0.00719424
စပ် ||| za&apos; ||| 0.979381 0.0103093 0.0103093 0.979381 0.0103093 0.0103093
စပ် ကြောင်း ||| za&apos; kyaun: ||| 0.6 0.2 0.2 0.6 0.2 0.2
စပ် ကြောင်း လမ်း ||| za&apos; kyaun: lan: ||| 0.6 0.2 0.2 0.6 0.2 0.2
စပ် စပ် ||| sa&apos; sa&apos; ||| 0.818182 0.0909091 0.0909091 0.818182 0.0909091 0.0909091
စပ် စောင် ||| sa&apos; saun ||| 0.6 0.2 0.2 0.6 0.2 0.2
စမ် ||| sa- ||| 0.6 0.2 0.2 0.6 0.2 0.2
စမ် ||| san ||| 0.6 0.2 0.2 0.6 0.2 0.2
စမ် မ ||| sa- ma- ||| 0.6 0.2 0.2 0.6 0.2 0.2
စမ်း ||| san: ||| 0.972603 0.0136986 0.0136986 0.972603 0.0136986 0.0136986
စမ်း ||| zan: ||| 0.894737 0.0526316 0.0526316 0.894737 0.0526316 0.0526316
စာ ||| da- ||| 0.6 0.2 0.2 0.6 0.2 0.2
စာ ||| sa ||| 0.995272 0.00236407 0.00236407 0.995272 0.00236407 0.00236407
စာ ||| sa&apos; ||| 0.6 0.2 0.2 0.6 0.2 0.2
စာ ||| sa- ||| 0.973333 0.0133333 0.0133333 0.973333 0.0133333 0.0133333
စာ ||| san ||| 0.882353 0.0588235 0.0588235 0.882353 0.0588235 0.0588235
စာ ||| za ||| 0.992565 0.00371747 0.00371747 0.992565 0.00371747 0.00371747
စာ ||| za- ||| 0.882353 0.0588235 0.0588235 0.882353 0.0588235 0.0588235
စာ စစ် ||| sa si&apos; ||| 0.6 0.2 0.2 0.6 0.2 0.2
စာ စီ ||| sa si ||| 0.6 0.2 0.2 0.6 0.2 0.2
စာ စီ ||| sa zi ||| 0.714286 0.142857 0.142857 0.714286 0.142857 0.142857
စာ စောင် ||| sa zaun ||| 0.6 0.2 0.2 0.6 0.2 0.2
စာ တင် ||| sa tin ||| 0.6 0.2 0.2 0.6 0.2 0.2
စာ တည်း ||| sa di: ||| 0.6 0.2 0.2 0.6 0.2 0.2
စာ တိုက် ||| sa dai&apos; ||| 0.6 0.2 0.2 0.6 0.2 0.2
စာ တိုက် ||| sa- dai&apos; ||| 0.6 0.2 0.2 0.6 0.2 0.2
စာ ပစ် ||| za pji&apos; ||| 0.6 0.2 0.2 0.6 0.2 0.2
စာ ပေ ||| sa pei ||| 0.894737 0.0526316 0.0526316 0.894737 0.0526316 0.0526316
စာ ပြု ||| sa bju. ||| 0.6 0.2 0.2 0.6 0.2 0.2
စာ ပြု ||| sa pju. ||| 0.714286 0.142857 0.142857 0.714286 0.142857 0.142857
စာ ဖတ် ||| sa hpa&apos; ||| 0.6 0.2 0.2 0.6 0.2 0.2
စာ မူ ||| sa mu ||| 0.6 0.2 0.2 0.6 0.2 0.2
စာ ရင်း ||| sa- jin: ||| 0.957447 0.0212766 0.0212766 0.957447 0.0212766 0.0212766
စာ ရင်း ||| za jin: ||| 0.714286 0.142857 0.142857 0.714286 0.142857 0.142857
စာ ရင်း ||| za- jin: ||| 0.714286 0.142857 0.142857 0.714286 0.142857 0.142857
စာ ရိတ် ||| za rei&apos; ||| 0.6 0.2 0.2 0.6 0.2 0.2
စာ ရိတ် တ ||| za rei&apos; ta ||| 0.6 0.2 0.2 0.6 0.2 0.2
စာ ရေ ||| sa jei ||| 0.6 0.2 0.2 0.6 0.2 0.2
စာ ရေး ||| sa jei: ||| 0.6 0.2 0.2 0.6 0.2 0.2
စာ ရေး ||| sa- jei: ||| 0.6 0.2 0.2 0.6 0.2 0.2
စာ ရေး ||| za jei: ||| 0.6 0.2 0.2 0.6 0.2 0.2
စာ ရှင် ||| za shin ||| 0.6 0.2 0.2 0.6 0.2 0.2
စာ အုပ် ||| sa ou&apos; ||| 0.866667 0.0666667 0.0666667 0.866667 0.0666667 0.0666667
စား ||| sa- ||| 0.931034 0.0344828 0.0344828 0.931034 0.0344828 0.0344828
စား ||| sa. ||| 0.6 0.2 0.2 0.6 0.2 0.2
စား ||| sa: ||| 0.991189 0.00440529 0.00440529 0.991189 0.00440529 0.00440529
စား ||| za ||| 0.6 0.2 0.2 0.6 0.2 0.2
စား ||| za- ||| 0.942857 0.0285714 0.0285714 0.942857 0.0285714 0.0285714
စား ||| za: ||| 0.993031 0.00348432 0.00348432 0.993031 0.00348432 0.00348432
စား ခန်း ||| za: gan: ||| 0.6 0.2 0.2 0.6 0.2 0.2
စား စ ||| sa: za- ||| 0.714286 0.142857 0.142857 0.714286 0.142857 0.142857
စား စ ရာ ||| sa: za- ja ||| 0.6 0.2 0.2 0.6 0.2 0.2
စား နည်း ||| za: ni: ||| 0.6 0.2 0.2 0.6 0.2 0.2
စား နား ||| sa: na: ||| 0.6 0.2 0.2 0.6 0.2 0.2
စား ရေး ||| za: jei ||| 0.6 0.2 0.2 0.6 0.2 0.2
စား သုံး ||| sa: thoun: ||| 0.6 0.2 0.2 0.6 0.2 0.2
စား ဥ ||| za: u. ||| 0.6 0.2 0.2 0.6 0.2 0.2
စိ ||| si. ||| 0.982301 0.00884956 0.00884956 0.982301 0.00884956 0.00884956
စိ ||| zi ||| 0.6 0.2 0.2 0.6 0.2 0.2
စိ ||| zi. ||| 0.894737 0.0526316 0.0526316 0.894737 0.0526316 0.0526316
စိ တစ် ||| si. ta- ||| 0.6 0.2 0.2 0.6 0.2 0.2
စိတ် ||| sei&apos; ||| 0.991903 0.00404858 0.00404858 0.991903 0.00404858 0.00404858
စိတ် ||| zei&apos; ||| 0.963636 0.0181818 0.0181818 0.963636 0.0181818 0.0181818
စိတ် ကူး ||| sei&apos; ku: ||| 0.777778 0.111111 0.111111 0.777778 0.111111 0.111111
စိတ် တ ||| sei&apos; da- ||| 0.777778 0.111111 0.111111 0.777778 0.111111 0.111111
စိတ် တ ||| sei&apos; ta. ||| 0.714286 0.142857 0.142857 0.714286 0.142857 0.142857
စိတ် တ ဇ ||| sei&apos; da- za. ||| 0.777778 0.111111 0.111111 0.777778 0.111111 0.111111
စိတ် ထက် ||| sei&apos; hte&apos; ||| 0.6 0.2 0.2 0.6 0.2 0.2
စိတ် မ ||| sei&apos; ma- ||| 0.777778 0.111111 0.111111 0.777778 0.111111 0.111111
စိတ် သန် ||| sei&apos; than ||| 0.6 0.2 0.2 0.6 0.2 0.2
စိန် ||| sein ||| 0.945946 0.027027 0.027027 0.945946 0.027027 0.027027
စိန် န ||| sein na- ||| 0.6 0.2 0.2 0.6 0.2 0.2
စိန် န ဘော် ||| sein na- bo ||| 0.6 0.2 0.2 0.6 0.2 0.2
စိမ့် ||| sein. ||| 0.866667 0.0666667 0.0666667 0.866667 0.0666667 0.0666667
စိမ့် ||| zein. ||| 0.777778 0.111111 0.111111 0.777778 0.111111 0.111111
စိမ့် စိမ့် ||| sein. zein. ||| 0.777778 0.111111 0.111111 0.777778 0.111111 0.111111
စိမ် ||| sein ||| 0.882353 0.0588235 0.0588235 0.882353 0.0588235 0.0588235
စိမ် ||| zein ||| 0.777778 0.111111 0.111111 0.777778 0.111111 0.111111
စိမ် ရေ ||| sein jei ||| 0.6 0.2 0.2 0.6 0.2 0.2
စိမ်း ||| sein: ||| 0.960784 0.0196078 0.0196078 0.960784 0.0196078 0.0196078
စိမ်း ||| zein: ||| 0.967213 0.0163934 0.0163934 0.967213 0.0163934 0.0163934
စိမ်း စား ||| sein: za: ||| 0.714286 0.142857 0.142857 0.714286 0.142857 0.142857
စိမ်း စား ဥ ||| sein: za: u. ||| 0.6 0.2 0.2 0.6 0.2 0.2
စိမ်း သည် ||| zein: dhe ||| 0.6 0.2 0.2 0.6 0.2 0.2
စိုက် ||| hsai&apos; ||| 0.6 0.2 0.2 0.6 0.2 0.2
စိုက် ||| sai&apos; ||| 0.964912 0.0175439 0.0175439 0.964912 0.0175439 0.0175439
စိုက် ||| zai&apos; ||| 0.925926 0.037037 0.037037 0.925926 0.037037 0.037037
စိုက် ပျိုး ||| sai&apos; pjou: ||| 0.6 0.2 0.2 0.6 0.2 0.2
စိုင် ||| sain ||| 0.846154 0.0769231 0.0769231 0.846154 0.0769231 0.0769231
စိုင် ||| zain ||| 0.777778 0.111111 0.111111 0.777778 0.111111 0.111111
စိုင်း ||| sain: ||| 0.777778 0.111111 0.111111 0.777778 0.111111 0.111111
စိုင်း ||| zain: ||| 0.714286 0.142857 0.142857 0.714286 0.142857 0.142857
စို့ ||| sou. ||| 0.913043 0.0434783 0.0434783 0.913043 0.0434783 0.0434783
စို့ ||| zou. ||| 0.894737 0.0526316 0.0526316 0.894737 0.0526316 0.0526316
စို့ တံ ||| sou. da- ||| 0.6 0.2 0.2 0.6 0.2 0.2
စိုး ||| sou: ||| 0.963636 0.0181818 0.0181818 0.963636 0.0181818 0.0181818
စိုး ||| zou: ||| 0.913043 0.0434783 0.0434783 0.913043 0.0434783 0.0434783
စိုး ရ ||| sou: ja. ||| 0.894737 0.0526316 0.0526316 0.894737 0.0526316 0.0526316
စီ ||| si ||| 0.980583 0.00970874 0.00970874 0.980583 0.00970874 0.00970874
စီ ||| zi ||| 0.925926 0.037037 0.037037 0.925926 0.037037 0.037037
စီ မံ ||| si man ||| 0.818182 0.0909091 0.0909091 0.818182 0.0909091 0.0909091
စီ မံ ကိန်း ||| si man gein: ||| 0.6 0.2 0.2 0.6 0.2 0.2
စီး ||| si ||| 0.6 0.2 0.2 0.6 0.2 0.2
စီး ||| si: ||| 0.978947 0.0105263 0.0105263 0.978947 0.0105263 0.0105263
စီး ||| zi: ||| 0.972603 0.0136986 0.0136986 0.972603 0.0136986 0.0136986
စီး ခေါင်း ||| zi: gaun: ||| 0.714286 0.142857 0.142857 0.714286 0.142857 0.142857
စီး ပွား ||| si: bwa: ||| 0.894737 0.0526316 0.0526316 0.894737 0.0526316 0.0526316
စု ||| su ||| 0.714286 0.142857 0.142857 0.714286 0.142857 0.142857
စု ||| su. ||| 0.976471 0.0117647 0.0117647 0.976471 0.0117647 0.0117647
စု ||| zu ||| 0.714286 0.142857 0.142857 0.714286 0.142857 0.142857
စု ||| zu. ||| 0.966102 0.0169492 0.0169492 0.966102 0.0169492 0.0169492
စု စု ||| su. zu. ||| 0.714286 0.142857 0.142857 0.714286 0.142857 0.142857
စု စု ||| zu. su. ||| 0.6 0.2 0.2 0.6 0.2 0.2
စု ပေါင်း ||| su. paun: ||| 0.714286 0.142857 0.142857 0.714286 0.142857 0.142857
စုတ် ||| sou&apos; ||| 0.957447 0.0212766 0.0212766 0.957447 0.0212766 0.0212766
စုတ် ||| zou&apos; ||| 0.846154 0.0769231 0.0769231 0.846154 0.0769231 0.0769231
စုန့် ||| zoun. ||| 0.6 0.2 0.2 0.6 0.2 0.2
စုန်း ||| soun: ||| 0.818182 0.0909091 0.0909091 0.818182 0.0909091 0.0909091
စုန်း ||| zoun: ||| 0.882353 0.0588235 0.0588235 0.882353 0.0588235 0.0588235
စုပ် ||| sou&apos; ||| 0.894737 0.0526316 0.0526316 0.894737 0.0526316 0.0526316
စုပ် ||| zou&apos; ||| 0.777778 0.111111 0.111111 0.777778 0.111111 0.111111
စုံ ||| soun ||| 0.971831 0.0140845 0.0140845 0.971831 0.0140845 0.0140845
စုံ ||| zoun ||| 0.970149 0.0149254 0.0149254 0.970149 0.0149254 0.0149254
စုံ ပစ် ||| zoun bji&apos; ||| 0.6 0.2 0.2 0.6 0.2 0.2
စုံ အ ||| soun a- ||| 0.777778 0.111111 0.111111 0.777778 0.111111 0.111111
စုံး ||| soun: ||| 0.6 0.2 0.2 0.6 0.2 0.2
စုံး ||| zoun: ||| 0.6 0.2 0.2 0.6 0.2 0.2
စူ ||| su ||| 0.904762 0.047619 0.047619 0.904762 0.047619 0.047619
စူ ||| zu ||| 0.6 0.2 0.2 0.6 0.2 0.2
စူး ||| su: ||| 0.931034 0.0344828 0.0344828 0.931034 0.0344828 0.0344828
စူး ||| zu: ||| 0.894737 0.0526316 0.0526316 0.894737 0.0526316 0.0526316
စူး စား ||| zu: za: ||| 0.6 0.2 0.2 0.6 0.2 0.2
စူး စူး ||| su: zu: ||| 0.714286 0.142857 0.142857 0.714286 0.142857 0.142857
စေ ||| sei ||| 0.953488 0.0232558 0.0232558 0.953488 0.0232558 0.0232558
စေ ||| zei ||| 0.95122 0.0243902 0.0243902 0.95122 0.0243902 0.0243902
စေ ||| zi ||| 0.6 0.2 0.2 0.6 0.2 0.2
စေ ကာ ||| sei ga ||| 0.6 0.2 0.2 0.6 0.2 0.2
စေ ကာ မူ ||| sei ga mu ||| 0.6 0.2 0.2 0.6 0.2 0.2
စော ||| so: ||| 0.925926 0.037037 0.037037 0.925926 0.037037 0.037037
စော ||| zo: ||| 0.818182 0.0909091 0.0909091 0.818182 0.0909091 0.0909091
စော ဒ ||| so: da- ||| 0.6 0.2 0.2 0.6 0.2 0.2
စော ဒ နာ ||| so: da- na ||| 0.6 0.2 0.2 0.6 0.2 0.2
စောက် ||| sau&apos; ||| 0.777778 0.111111 0.111111 0.777778 0.111111 0.111111
စောက် ||| zau&apos; ||| 0.925926 0.037037 0.037037 0.925926 0.037037 0.037037
စောင့် ||| saun. ||| 0.955556 0.0222222 0.0222222 0.955556 0.0222222 0.0222222
စောင့် ||| zaun. ||| 0.92 0.04 0.04 0.92 0.04 0.04
စောင် ||| saun ||| 0.913043 0.0434783 0.0434783 0.913043 0.0434783 0.0434783
စောင် ||| zaun ||| 0.904762 0.047619 0.047619 0.904762 0.047619 0.047619
စောင် ခြမ်း ||| zaun gyan: ||| 0.6 0.2 0.2 0.6 0.2 0.2
စောင်း ||| saun: ||| 0.960784 0.0196078 0.0196078 0.960784 0.0196078 0.0196078
စောင်း ||| zaun: ||| 0.967213 0.0163934 0.0163934 0.967213 0.0163934 0.0163934
စော် ||| so ||| 0.894737 0.0526316 0.0526316 0.894737 0.0526316 0.0526316
စော် ||| zo ||| 0.882353 0.0588235 0.0588235 0.882353 0.0588235 0.0588235
စော် ကား ||| so ga: ||| 0.6 0.2 0.2 0.6 0.2 0.2
စော် နံ ||| so nan ||| 0.6 0.2 0.2 0.6 0.2 0.2
စော် နံ ||| zo nan ||| 0.846154 0.0769231 0.0769231 0.846154 0.0769231 0.0769231
စေ့ ||| sei. ||| 0.968254 0.015873 0.015873 0.968254 0.015873 0.015873
စေ့ ||| si. ||| 0.945946 0.027027 0.027027 0.945946 0.027027 0.027027
စေ့ ||| zei. ||| 0.939394 0.030303 0.030303 0.939394 0.030303 0.030303
စေ့ ||| zi. ||| 0.913043 0.0434783 0.0434783 0.913043 0.0434783 0.0434783
စေ့ စပ် ||| sei. za&apos; ||| 0.777778 0.111111 0.111111 0.777778 0.111111 0.111111
စေ့ စပ် ကြောင်း ||| sei. za&apos; kyaun: ||| 0.6 0.2 0.2 0.6 0.2 0.2
စေ့ စပ် ကြောင်း လမ်း ||| sei. za&apos; kyaun: lan: ||| 0.6 0.2 0.2 0.6 0.2 0.2
စေ့ စေ့ ||| sei. zei. ||| 0.6 0.2 0.2 0.6 0.2 0.2
စေ့ စေ့ ||| si. zi. ||| 0.714286 0.142857 0.142857 0.714286 0.142857 0.142857
စေ့ စေ့ ပေါက် ||| si. zi. pau&apos; ||| 0.6 0.2 0.2 0.6 0.2 0.2
စေ့ စေ့ ပေါက် ပေါက် ||| si. zi. pau&apos; pau&apos; ||| 0.6 0.2 0.2 0.6 0.2 0.2
စေ့ ပေါက် ||| zi. pau&apos; ||| 0.6 0.2 0.2 0.6 0.2 0.2
စေ့ ပေါက် ပေါက် ||| zi. pau&apos; pau&apos; ||| 0.6 0.2 0.2 0.6 0.2 0.2
စေ့ ဖောက် ||| si. hpau&apos; ||| 0.6 0.2 0.2 0.6 0.2 0.2
စေ့ ဖောက် ပိုး ||| si. hpau&apos; pou: ||| 0.6 0.2 0.2 0.6 0.2 0.2
စေ့ ယှက် ||| sei. she&apos; ||| 0.6 0.2 0.2 0.6 0.2 0.2
စေ့ အိမ် ||| sei. ein ||| 0.6 0.2 0.2 0.6 0.2 0.2
စေး ||| sei: ||| 0.942857 0.0285714 0.0285714 0.942857 0.0285714 0.0285714
စေး ||| si: ||| 0.92 0.04 0.04 0.92 0.04 0.04
စေး ||| zei: ||| 0.882353 0.0588235 0.0588235 0.882353 0.0588235 0.0588235
စေး ||| zi ||| 0.6 0.2 0.2 0.6 0.2 0.2
စေး ||| zi: ||| 0.6 0.2 0.2 0.6 0.2 0.2
စေး ပိုင် ||| si: pain ||| 0.6 0.2 0.2 0.6 0.2 0.2
စဲ ||| se: ||| 0.818182 0.0909091 0.0909091 0.818182 0.0909091 0.0909091
စဲ ||| ze: ||| 0.6 0.2 0.2 0.6 0.2 0.2
စဲ စဲ ||| se: ze: ||| 0.6 0.2 0.2 0.6 0.2 0.2
စံ ||| san ||| 0.957447 0.0212766 0.0212766 0.957447 0.0212766 0.0212766
စံ ||| za ||| 0.6 0.2 0.2 0.6 0.2 0.2
စံ ||| za- ||| 0.846154 0.0769231 0.0769231 0.846154 0.0769231 0.0769231
စံ ||| zan ||| 0.904762 0.047619 0.047619 0.904762 0.047619 0.047619
စံ ချိန် ||| san gyein ||| 0.777778 0.111111 0.111111 0.777778 0.111111 0.111111
စံ ပယ် ||| za- be ||| 0.777778 0.111111 0.111111 0.777778 0.111111 0.111111
စွက် ||| swe&apos; ||| 0.714286 0.142857 0.142857 0.714286 0.142857 0.142857
စွက် ||| zwe&apos; ||| 0.6 0.2 0.2 0.6 0.2 0.2
စွန် ||| sun ||| 0.882353 0.0588235 0.0588235 0.882353 0.0588235 0.0588235
စွန် ||| zun ||| 0.942857 0.0285714 0.0285714 0.942857 0.0285714 0.0285714
စွန်း ||| sun: ||| 0.945946 0.027027 0.027027 0.945946 0.027027 0.027027
စွန်း ||| zun: ||| 0.935484 0.0322581 0.0322581 0.935484 0.0322581 0.0322581
စွပ် ||| su&apos; ||| 0.948718 0.025641 0.025641 0.948718 0.025641 0.025641
စွပ် ||| zu&apos; ||| 0.92 0.04 0.04 0.92 0.04 0.04
စွမ်း ||| sun: ||| 0.882353 0.0588235 0.0588235 0.882353 0.0588235 0.0588235
စွမ်း ||| swan: ||| 0.931034 0.0344828 0.0344828 0.931034 0.0344828 0.0344828
စွမ်း ||| zun: ||| 0.777778 0.111111 0.111111 0.777778 0.111111 0.111111
စွမ်း ||| zwan: ||| 0.846154 0.0769231 0.0769231 0.846154 0.0769231 0.0769231
စွယ် ||| swe ||| 0.931034 0.0344828 0.0344828 0.931034 0.0344828 0.0344828
စွယ် ||| zwe ||| 0.904762 0.047619 0.047619 0.904762 0.047619 0.047619
စွယ် ကျိုး ||| swe kyou: ||| 0.6 0.2 0.2 0.6 0.2 0.2
စွယ် ကျိုး ||| zwe gyou: ||| 0.6 0.2 0.2 0.6 0.2 0.2
စွယ် ကျိုး ||| zwe kyou: ||| 0.6 0.2 0.2 0.6 0.2 0.2
စွယ် စုံ ||| swe zoun ||| 0.6 0.2 0.2 0.6 0.2 0.2
စွာ ||| swa ||| 0.818182 0.0909091 0.0909091 0.818182 0.0909091 0.0909091
စွာ ||| zwa ||| 0.882353 0.0588235 0.0588235 0.882353 0.0588235 0.0588235
စွာ ||| zwa: ||| 0.6 0.2 0.2 0.6 0.2 0.2
စွဲ ||| swe: ||| 0.975309 0.0123457 0.0123457 0.975309 0.0123457 0.0123457
စွဲ ||| zwe: ||| 0.92 0.04 0.04 0.92 0.04 0.04
စွဲ ကြီး ||| swe: kyi: ||| 0.6 0.2 0.2 0.6 0.2 0.2
ဆ ||| hsa ||| 0.6 0.2 0.2 0.6 0.2 0.2
ဆ ||| hsa- ||| 0.980198 0.00990099 0.00990099 0.980198 0.00990099 0.00990099
ဆ ||| hsa. ||| 0.969231 0.0153846 0.0153846 0.969231 0.0153846 0.0153846
ဆ ||| sha. ||| 0.6 0.2 0.2 0.6 0.2 0.2
ဆ ||| za ||| 0.6 0.2 0.2 0.6 0.2 0.2
ဆ ||| za. ||| 0.6 0.2 0.2 0.6 0.2 0.2
ဆ ရာ ||| hsa ja ||| 0.6 0.2 0.2 0.6 0.2 0.2
ဆ ရာ ||| hsa- ja ||| 0.971831 0.0140845 0.0140845 0.971831 0.0140845 0.0140845
ဆ ရာ ||| hsa- ra ||| 0.6 0.2 0.2 0.6 0.2 0.2
ဆ ရိ ||| hsa- ri. ||| 0.6 0.2 0.2 0.6 0.2 0.2
ဆ ရိ ယ ||| hsa- ri. ja. ||| 0.6 0.2 0.2 0.6 0.2 0.2
ဆ လံ ||| hsa- lan ||| 0.714286 0.142857 0.142857 0.714286 0.142857 0.142857
ဆက် ||| hse&apos; ||| 0.981651 0.00917431 0.00917431 0.981651 0.00917431 0.00917431
ဆက် ||| za- ||| 0.6 0.2 0.2 0.6 0.2 0.2
ဆက် ||| ze&apos; ||| 0.948718 0.025641 0.025641 0.948718 0.025641 0.025641
ဆက် အ ||| hse&apos; a- ||| 0.818182 0.0909091 0.0909091 0.818182 0.0909091 0.0909091
ဆက် အ ||| ze&apos; a- ||| 0.6 0.2 0.2 0.6 0.2 0.2
ဆင့် ||| hsin ||| 0.714286 0.142857 0.142857 0.714286 0.142857 0.142857
ဆင့် ||| hsin. ||| 0.957447 0.0212766 0.0212766 0.957447 0.0212766 0.0212766
ဆင့် ||| zin. ||| 0.846154 0.0769231 0.0769231 0.846154 0.0769231 0.0769231
ဆင့် ပွား ||| hsin. pwa: ||| 0.6 0.2 0.2 0.6 0.2 0.2
ဆင် ||| hsi ||| 0.714286 0.142857 0.142857 0.714286 0.142857 0.142857
ဆင် ||| hsin ||| 0.987097 0.00645161 0.00645161 0.987097 0.00645161 0.00645161
ဆင် ||| zin ||| 0.6 0.2 0.2 0.6 0.2 0.2
ဆင် တန် ||| hsin da- ||| 0.6 0.2 0.2 0.6 0.2 0.2
ဆင် တန် ဆာ ||| hsin da- za ||| 0.6 0.2 0.2 0.6 0.2 0.2
ဆင် နား ||| hsin na- ||| 0.6 0.2 0.2 0.6 0.2 0.2
ဆင်း ||| hsi ||| 0.6 0.2 0.2 0.6 0.2 0.2
ဆင်း ||| hsin. ||| 0.6 0.2 0.2 0.6 0.2 0.2
ဆင်း ||| hsin: ||| 0.957447 0.0212766 0.0212766 0.957447 0.0212766 0.0212766
ဆင်း ||| sin: ||| 0.6 0.2 0.2 0.6 0.2 0.2
ဆင်း ||| zin: ||| 0.92 0.04 0.04 0.92 0.04 0.04
ဆင်း ရဲ ||| hsin: je: ||| 0.866667 0.0666667 0.0666667 0.866667 0.0666667 0.0666667
ဆင်း ရဲ ||| zin: je: ||| 0.6 0.2 0.2 0.6 0.2 0.2
ဆစ် ||| hsi&apos; ||| 0.966102 0.0169492 0.0169492 0.966102 0.0169492 0.0169492
ဆစ် ||| zi&apos; ||| 0.894737 0.0526316 0.0526316 0.894737 0.0526316 0.0526316
ဆည် ||| hse ||| 0.904762 0.047619 0.047619 0.904762 0.047619 0.047619
ဆည်း ||| hse: ||| 0.6 0.2 0.2 0.6 0.2 0.2
ဆည်း ||| hsi: ||| 0.777778 0.111111 0.111111 0.777778 0.111111 0.111111
ဆည်း ||| hswe: ||| 0.777778 0.111111 0.111111 0.777778 0.111111 0.111111
ဆည်း ||| zi: ||| 0.714286 0.142857 0.142857 0.714286 0.142857 0.142857
ဆတ် ||| hsa&apos; ||| 0.970149 0.0149254 0.0149254 0.970149 0.0149254 0.0149254
ဆတ် ||| za&apos; ||| 0.904762 0.047619 0.047619 0.904762 0.047619 0.047619
ဆတ် ဆတ် ||| hsa&apos; hsa&apos; ||| 0.866667 0.0666667 0.0666667 0.866667 0.0666667 0.0666667
ဆတ် ဆတ် ||| za&apos; za&apos; ||| 0.777778 0.111111 0.111111 0.777778 0.111111 0.111111
ဆန့် ||| hsan. ||| 0.894737 0.0526316 0.0526316 0.894737 0.0526316 0.0526316
ဆန့် ||| zan. ||| 0.6 0.2 0.2 0.6 0.2 0.2
ဆန် ||| hsa ||| 0.714286 0.142857 0.142857 0.714286 0.142857 0.142857
ဆန် ||| hsan ||| 0.984733 0.00763359 0.00763359 0.984733 0.00763359 0.00763359
ဆန် ||| hsan: ||| 0.6 0.2 0.2 0.6 0.2 0.2
ဆန် ||| za- ||| 0.894737 0.0526316 0.0526316 0.894737 0.0526316 0.0526316
ဆန် ||| zan ||| 0.942857 0.0285714 0.0285714 0.942857 0.0285714 0.0285714
ဆန် ဒ ||| hsan da. ||| 0.925926 0.037037 0.037037 0.925926 0.037037 0.037037
ဆန်း ||| hsan: ||| 0.935484 0.0322581 0.0322581 0.935484 0.0322581 0.0322581
ဆန်း ||| zan: ||| 0.818182 0.0909091 0.0909091 0.818182 0.0909091 0.0909091
ဆပ် ||| hsa&apos; ||| 0.939394 0.030303 0.030303 0.939394 0.030303 0.030303
ဆပ် ပြာ ||| hsa&apos; pja ||| 0.846154 0.0769231 0.0769231 0.846154 0.0769231 0.0769231
ဆယ့် ||| hse. ||| 0.866667 0.0666667 0.0666667 0.866667 0.0666667 0.0666667
ဆယ့် ||| ze. ||| 0.6 0.2 0.2 0.6 0.2 0.2
ဆယ် ||| hse ||| 0.942857 0.0285714 0.0285714 0.942857 0.0285714 0.0285714
ဆယ် ||| ze ||| 0.866667 0.0666667 0.0666667 0.866667 0.0666667 0.0666667
ဆယ် ပါး ||| hse ba: ||| 0.6 0.2 0.2 0.6 0.2 0.2
ဆယ် ရေး ||| ze jei: ||| 0.6 0.2 0.2 0.6 0.2 0.2
ဆယ် လီ ||| hse li ||| 0.777778 0.111111 0.111111 0.777778 0.111111 0.111111
