... jou: ... ||| ... ရိုး ... ||| 0.6 0.2 0.2 0.6 0.2 0.2
... jou: ||| ... ရိုး ||| 0.6 0.2 0.2 0.6 0.2 0.2
... ||| ... ||| 0.866667 0.0666667 0.0666667 0.866667 0.0666667 0.0666667
... ||| လည်း ||| 0.6 0.2 0.2 0.6 0.2 0.2
... ||| သေး ||| 0.6 0.2 0.2 0.6 0.2 0.2
a bo ||| အာ ဘော် ||| 0.6 0.2 0.2 0.6 0.2 0.2
a gan ||| အာ ဂန် ||| 0.6 0.2 0.2 0.6 0.2 0.2
a ha ra. ||| အာ ဟာ ရ ||| 0.6 0.2 0.2 0.6 0.2 0.2
a ha ||| အာ ဟာ ||| 0.6 0.2 0.2 0.6 0.2 0.2
a ju. ||| အာ ယု ||| 0.6 0.2 0.2 0.6 0.2 0.2
a ka tha. ||| အာ ကာ သ ||| 0.818182 0.0909091 0.0909091 0.818182 0.0909091 0.0909091
a ka ||| အာ ကာ ||| 0.818182 0.0909091 0.0909091 0.818182 0.0909091 0.0909091
a kye a- ||| အ ကျယ် အ ||| 0.6 0.2 0.2 0.6 0.2 0.2
a kye ||| အ ကျယ် ||| 0.6 0.2 0.2 0.6 0.2 0.2
a kye ||| အာ ကျယ် ||| 0.6 0.2 0.2 0.6 0.2 0.2
a ma. gan ||| အာ မ ခံ ||| 0.913043 0.0434783 0.0434783 0.913043 0.0434783 0.0434783
a ma. ||| အာ မ ||| 0.935484 0.0322581 0.0322581 0.935484 0.0322581 0.0322581
a tei' ||| အာ တိတ် ||| 0.6 0.2 0.2 0.6 0.2 0.2
a ||| နာ ||| 0.714286 0.142857 0.142857 0.714286 0.142857 0.142857
a ||| အ ||| 0.963636 0.0181818 0.0181818 0.963636 0.0181818 0.0181818
a ||| အာ ||| 0.993127 0.00343643 0.00343643 0.993127 0.00343643 0.00343643
a ||| အား ||| 0.6 0.2 0.2 0.6 0.2 0.2
a ||| အံ ||| 0.6 0.2 0.2 0.6 0.2 0.2
a' chou' ||| အပ် ချုပ် ||| 0.777778 0.111111 0.111111 0.777778 0.111111 0.111111
a' ma- ||| အပ် မ ||| 0.6 0.2 0.2 0.6 0.2 0.2
a' ||| တံ ||| 0.6 0.2 0.2 0.6 0.2 0.2
a' ||| အဋ် ||| 0.777778 0.111111 0.111111 0.777778 0.111111 0.111111
a' ||| အတ် ||| 0.92 0.04 0.04 0.92 0.04 0.04
a' ||| အပ် ||| 0.974684 0.0126582 0.0126582 0.974684 0.0126582 0.0126582
a' ||| အဗ် ||| 0.714286 0.142857 0.142857 0.714286 0.142857 0.142857
a- bi. ||| အ ဘိ ||| 0.714286 0.142857 0.142857 0.714286 0.142857 0.142857
a- cha ||| အ ချ ||| 0.6 0.2 0.2 0.6 0.2 0.2
a- cha ||| အ ချာ ||| 0.777778 0.111111 0.111111 0.777778 0.111111 0.111111
a- cha ||| အ ခြာ ||| 0.777778 0.111111 0.111111 0.777778 0.111111 0.111111
a- chain. ||| အ ချိုင့် ||| 0.6 0.2 0.2 0.6 0.2 0.2
a- chan: ||| အ ချမ်း ||| 0.6 0.2 0.2 0.6 0.2 0.2
a- chan: ||| အ ခြမ်း ||| 0.714286 0.142857 0.142857 0.714286 0.142857 0.142857
a- che' ||| အ ချက် ||| 0.913043 0.0434783 0.0434783 0.913043 0.0434783 0.0434783
a- chei ||| အ ချေ ||| 0.6 0.2 0.2 0.6 0.2 0.2
a- chei ||| အ ခြေ ||| 0.925926 0.037037 0.037037 0.925926 0.037037 0.037037
a- chein shi. ||| အ ချိန် ရှိ ||| 0.6 0.2 0.2 0.6 0.2 0.2
a- chein ||| အ ချိန် ||| 0.966102 0.0169492 0.0169492 0.966102 0.0169492 0.0169492
a- chi ||| အ ချီ ||| 0.777778 0.111111 0.111111 0.777778 0.111111 0.111111
a- chi ||| အ ခြည် ||| 0.818182 0.0909091 0.0909091 0.818182 0.0909091 0.0909091
a- chi' ||| အ ချစ် ||| 0.6 0.2 0.2 0.6 0.2 0.2
a- chi: ||| အ ချည်း ||| 0.714286 0.142857 0.142857 0.714286 0.142857 0.142857
a- chi: ||| အ ချီး ||| 0.6 0.2 0.2 0.6 0.2 0.2
a- chin ||| အ ချဉ် ||| 0.846154 0.0769231 0.0769231 0.846154 0.0769231 0.0769231
a- chin ||| အ ခြင် ||| 0.714286 0.142857 0.142857 0.714286 0.142857 0.142857
a- chin: ||| အ ချင်း ||| 0.894737 0.0526316 0.0526316 0.894737 0.0526316 0.0526316
a- chin: ||| အ ခြင်း ||| 0.714286 0.142857 0.142857 0.714286 0.142857 0.142857
a- chou' a- ||| အ ချုပ် အ ||| 0.777778 0.111111 0.111111 0.777778 0.111111 0.111111
a- chou' ||| အ ချုပ် ||| 0.894737 0.0526316 0.0526316 0.894737 0.0526316 0.0526316
a- chou' ||| အ ခြောက် ||| 0.6 0.2 0.2 0.6 0.2 0.2
a- dei' be ||| အ ဓိပ် ပါယ် ||| 0.777778 0.111111 0.111111 0.777778 0.111111 0.111111
a- dei' ||| အ ဓိဋ် ||| 0.6 0.2 0.2 0.6 0.2 0.2
a- dei' ||| အ ဓိပ် ||| 0.777778 0.111111 0.111111 0.777778 0.111111 0.111111
a- dha- ||| အ သ ||| 0.777778 0.111111 0.111111 0.777778 0.111111 0.111111
a- dha- ||| အ သား ||| 0.6 0.2 0.2 0.6 0.2 0.2
a- dun. ||| အ ဓွန့် ||| 0.6 0.2 0.2 0.6 0.2 0.2
a- ei' ||| အ အိပ် ||| 0.818182 0.0909091 0.0909091 0.818182 0.0909091 0.0909091
a- haun: ||| အ ဟောင်း ||| 0.6 0.2 0.2 0.6 0.2 0.2
a- ho: ||| အ ဟော ||| 0.714286 0.142857 0.142857 0.714286 0.142857 0.142857
a- houn ||| အ ဟုန် ||| 0.6 0.2 0.2 0.6 0.2 0.2
a- hpan ta- ja ||| အ ဖန် တစ် ရာ ||| 0.6 0.2 0.2 0.6 0.2 0.2
a- hpan ta- ||| အ ဖန် တစ် ||| 0.6 0.2 0.2 0.6 0.2 0.2
a- hpan ||| အ ဖန် ||| 0.777778 0.111111 0.111111 0.777778 0.111111 0.111111
a- hpau' ||| အ ဖောက် ||| 0.714286 0.142857 0.142857 0.714286 0.142857 0.142857
a- hpja' a- ||| အ ဖြတ် အ ||| 0.6 0.2 0.2 0.6 0.2 0.2
a- hpja' ||| အ ဖြတ် ||| 0.714286 0.142857 0.142857 0.714286 0.142857 0.142857
a- hpja: ||| အ ဖျား ||| 0.939394 0.030303 0.030303 0.939394 0.030303 0.030303
a- hpjo ||| အ ဖျော် ||| 0.6 0.2 0.2 0.6 0.2 0.2
a- hpo ||| အ ဖော် ||| 0.904762 0.047619 0.047619 0.904762 0.047619 0.047619
a- hpou: ||| အ ဖိုး ||| 0.882353 0.0588235 0.0588235 0.882353 0.0588235 0.0588235
a- hpou: ||| အ ဘို ||| 0.6 0.2 0.2 0.6 0.2 0.2
a- hpou: ||| အ ဘိုး ||| 0.6 0.2 0.2 0.6 0.2 0.2
a- hpwe. ||| အ ဖွဲ့ ||| 0.948718 0.025641 0.025641 0.948718 0.025641 0.025641
a- hsa ||| အ ဆာ ||| 0.846154 0.0769231 0.0769231 0.846154 0.0769231 0.0769231
a- hsan: ||| အ ဆန်း ||| 0.846154 0.0769231 0.0769231 0.846154 0.0769231 0.0769231
a- hsaun a- ||| အ ဆောင် အ ||| 0.6 0.2 0.2 0.6 0.2 0.2
a- hsaun ||| အ ဆောင် ||| 0.818182 0.0909091 0.0909091 0.818182 0.0909091 0.0909091
a- hse' a- ||| အ ဆက် အ ||| 0.777778 0.111111 0.111111 0.777778 0.111111 0.111111
a- hse' ||| အ ဆက် ||| 0.913043 0.0434783 0.0434783 0.913043 0.0434783 0.0434783
a- hsei' ||| အ ဆိပ် ||| 0.6 0.2 0.2 0.6 0.2 0.2
a- hsi ||| အ ဆင်း ||| 0.6 0.2 0.2 0.6 0.2 0.2
a- hsi ||| အ ဆီ ||| 0.904762 0.047619 0.047619 0.904762 0.047619 0.047619
a- hsin ||| အ ဆင့် ||| 0.714286 0.142857 0.142857 0.714286 0.142857 0.142857
a- hsin ||| အ ဆင် ||| 0.846154 0.0769231 0.0769231 0.846154 0.0769231 0.0769231
a- hsin. ||| အ ဆင့် ||| 0.777778 0.111111 0.111111 0.777778 0.111111 0.111111
a- hsin: ||| အ ဆင်း ||| 0.714286 0.142857 0.142857 0.714286 0.142857 0.142857
a- hso ||| အ ဆော် ||| 0.6 0.2 0.2 0.6 0.2 0.2
a- hsou: ||| အ ဆိုး ||| 0.777778 0.111111 0.111111 0.777778 0.111111 0.111111
a- hswe ||| အ ဆွယ် ||| 0.714286 0.142857 0.142857 0.714286 0.142857 0.142857
a- hswe: ||| အ ဆွဲ ||| 0.6 0.2 0.2 0.6 0.2 0.2
a- hswei ||| အ ဆွေ ||| 0.818182 0.0909091 0.0909091 0.818182 0.0909091 0.0909091
a- htain ||| အ ထိုင် ||| 0.714286 0.142857 0.142857 0.714286 0.142857 0.142857
a- hte ||| အ ထည် ||| 0.894737 0.0526316 0.0526316 0.894737 0.0526316 0.0526316
a- hte ||| အ ထဲ ||| 0.6 0.2 0.2 0.6 0.2 0.2
a- htein: ||| အ ထိန်း ||| 0.6 0.2 0.2 0.6 0.2 0.2
a- htein: ||| အ ထိမ်း ||| 0.714286 0.142857 0.142857 0.714286 0.142857 0.142857
a- hti. ||| အ ထိ ||| 0.714286 0.142857 0.142857 0.714286 0.142857 0.142857
a- hti: ||| အ ထီး ||| 0.714286 0.142857 0.142857 0.714286 0.142857 0.142857
a- htou' ||| အ ထုပ် ||| 0.714286 0.142857 0.142857 0.714286 0.142857 0.142857
a- htou' ||| အ ထောက် ||| 0.6 0.2 0.2 0.6 0.2 0.2
a- htu' a- ||| အ ထွတ် အ ||| 0.6 0.2 0.2 0.6 0.2 0.2
a- htu' ||| အ ထွတ် ||| 0.714286 0.142857 0.142857 0.714286 0.142857 0.142857
a- htu: ||| အ ထူး ||| 0.894737 0.0526316 0.0526316 0.894737 0.0526316 0.0526316
a- htwei: ||| အ ထွေး ||| 0.714286 0.142857 0.142857 0.714286 0.142857 0.142857
a- ja do ||| အ ရာ တော် ||| 0.6 0.2 0.2 0.6 0.2 0.2
a- ja ||| အ ယာ ||| 0.6 0.2 0.2 0.6 0.2 0.2
a- ja ||| အ ရာ ||| 0.953488 0.0232558 0.0232558 0.953488 0.0232558 0.0232558
a- ja' tha: ||| အ ရပ် သား ||| 0.6 0.2 0.2 0.6 0.2 0.2
a- ja' ||| အ ရပ် ||| 0.960784 0.0196078 0.0196078 0.960784 0.0196078 0.0196078
a- jain: ||| အ ရိုင်း ||| 0.777778 0.111111 0.111111 0.777778 0.111111 0.111111
a- jaun ||| အ ယောင် ||| 0.818182 0.0909091 0.0909091 0.818182 0.0909091 0.0909091
a- jaun ||| အ ရောင် ||| 0.913043 0.0434783 0.0434783 0.913043 0.0434783 0.0434783
a- je' ||| အ ယက် ||| 0.6 0.2 0.2 0.6 0.2 0.2
a- je' ||| အ ရက် ||| 0.894737 0.0526316 0.0526316 0.894737 0.0526316 0.0526316
a- jei a- ||| အ ရည် အ ||| 0.714286 0.142857 0.142857 0.714286 0.142857 0.142857
a- jei a- ||| အ ရေ အ ||| 0.6 0.2 0.2 0.6 0.2 0.2
a- jei ||| အ ရည် ||| 0.846154 0.0769231 0.0769231 0.846154 0.0769231 0.0769231
a- jei ||| အ ရိပ် ||| 0.6 0.2 0.2 0.6 0.2 0.2
a- jei ||| အ ရေ ||| 0.913043 0.0434783 0.0434783 0.913043 0.0434783 0.0434783
a- jei' a- ||| အ ရိပ် အ ||| 0.818182 0.0909091 0.0909091 0.818182 0.0909091 0.0909091
a- jei' ||| အ ရိပ် ||| 0.913043 0.0434783 0.0434783 0.913043 0.0434783 0.0434783
a- jei: ||| အ ရေး ||| 0.964912 0.0175439 0.0175439 0.964912 0.0175439 0.0175439
a- ji ||| အ ရည် ||| 0.904762 0.047619 0.047619 0.904762 0.047619 0.047619
a- ji ||| အ ရီ ||| 0.6 0.2 0.2 0.6 0.2 0.2
a- ji' ||| အ ရစ် ||| 0.6 0.2 0.2 0.6 0.2 0.2
a- ji: ||| အ ရည်း ||| 0.6 0.2 0.2 0.6 0.2 0.2
a- ji: ||| အ ရီး ||| 0.6 0.2 0.2 0.6 0.2 0.2
a- jin: a- ||| အ ရင်း အ ||| 0.777778 0.111111 0.111111 0.777778 0.111111 0.111111
a- jin: ||| အ ရင်း ||| 0.939394 0.030303 0.030303 0.939394 0.030303 0.030303
a- jou a- thei ||| အ ရို အ သေ ||| 0.714286 0.142857 0.142857 0.714286 0.142857 0.142857
a- jou a- ||| အ ယို အ ||| 0.6 0.2 0.2 0.6 0.2 0.2
a- jou a- ||| အ ရို အ ||| 0.777778 0.111111 0.111111 0.777778 0.111111 0.111111
a- jou ||| အ ယို ||| 0.6 0.2 0.2 0.6 0.2 0.2
a- jou ||| အ ရို ||| 0.777778 0.111111 0.111111 0.777778 0.111111 0.111111
a- jou: a- ||| အ ရိုး အ ||| 0.6 0.2 0.2 0.6 0.2 0.2
a- jou: ||| အ ရိုး ||| 0.935484 0.0322581 0.0322581 0.935484 0.0322581 0.0322581
a- ju ||| အ ယူ ||| 0.92 0.04 0.04 0.92 0.04 0.04
a- ju: a- ||| အ ရူး အ ||| 0.714286 0.142857 0.142857 0.714286 0.142857 0.142857
a- ju: ||| အ ရူး ||| 0.904762 0.047619 0.047619 0.904762 0.047619 0.047619
a- jwe ||| အ ရွယ် ||| 0.92 0.04 0.04 0.92 0.04 0.04
a- jwe' ||| အ ရွတ် ||| 0.6 0.2 0.2 0.6 0.2 0.2
a- ka ||| အ ကာ ||| 0.777778 0.111111 0.111111 0.777778 0.111111 0.111111
a- ka. ||| အ က ||| 0.846154 0.0769231 0.0769231 0.846154 0.0769231 0.0769231
a- kain ||| အ ကိုင် ||| 0.6 0.2 0.2 0.6 0.2 0.2
a- kau' ||| အ ကောက် ||| 0.904762 0.047619 0.047619 0.904762 0.047619 0.047619
a- ke ||| အ ကယ် ||| 0.714286 0.142857 0.142857 0.714286 0.142857 0.142857
a- ke: ma- ||| အ ကဲ မ ||| 0.6 0.2 0.2 0.6 0.2 0.2
a- ke: ||| အ ကဲ ||| 0.894737 0.0526316 0.0526316 0.894737 0.0526316 0.0526316
a- kha ||| အ ခါ ||| 0.955556 0.0222222 0.0222222 0.955556 0.0222222 0.0222222
a- kha. za: ||| အ ခ စား ||| 0.6 0.2 0.2 0.6 0.2 0.2
a- kha. ||| အ ခ ||| 0.818182 0.0909091 0.0909091 0.818182 0.0909091 0.0909091
a- khan ||| အ ခံ ||| 0.894737 0.0526316 0.0526316 0.894737 0.0526316 0.0526316
a- khan. ||| အ ခန့် ||| 0.714286 0.142857 0.142857 0.714286 0.142857 0.142857
a- khan. ||| အ ခံ့ ||| 0.714286 0.142857 0.142857 0.714286 0.142857 0.142857
a- khe: ||| အ ခဲ ||| 0.92 0.04 0.04 0.92 0.04 0.04
a- khin: ||| အ ခင်း ||| 0.866667 0.0666667 0.0666667 0.866667 0.0666667 0.0666667
a- kho a- ||| အ ခေါ် အ ||| 0.6 0.2 0.2 0.6 0.2 0.2
a- kho ||| အ ခေါ် ||| 0.777778 0.111111 0.111111 0.777778 0.111111 0.111111
a- khou: ||| အ ခိုး ||| 0.846154 0.0769231 0.0769231 0.846154 0.0769231 0.0769231
a- khun a- ||| အ ခွန် အ ||| 0.6 0.2 0.2 0.6 0.2 0.2
a- khun ||| အ ခွန် ||| 0.894737 0.0526316 0.0526316 0.894737 0.0526316 0.0526316
a- khun ||| အ ခွံ ||| 0.714286 0.142857 0.142857 0.714286 0.142857 0.142857
a- khwe: ||| အ ခွဲ ||| 0.6 0.2 0.2 0.6 0.2 0.2
a- khwin. du: ||| အ ခွင့် ထူး ||| 0.6 0.2 0.2 0.6 0.2 0.2
a- khwin. ||| အ ခွင့် ||| 0.92 0.04 0.04 0.92 0.04 0.04
a- kin: ||| အ ကင်း ||| 0.714286 0.142857 0.142857 0.714286 0.142857 0.142857
a- ku ||| အ ကူ ||| 0.818182 0.0909091 0.0909091 0.818182 0.0909091 0.0909091
a- kwa ||| အ ကွာ ||| 0.6 0.2 0.2 0.6 0.2 0.2
a- kwe ||| အ ကွယ် ||| 0.6 0.2 0.2 0.6 0.2 0.2
a- kwe' ||| အ ကွက် ||| 0.945946 0.027027 0.027027 0.945946 0.027027 0.027027
a- kwei ||| အ ကွဲ ||| 0.6 0.2 0.2 0.6 0.2 0.2
a- kya ||| အ ကြံ ||| 0.777778 0.111111 0.111111 0.777778 0.111111 0.111111
a- kya' ||| အ ကျပ် ||| 0.714286 0.142857 0.142857 0.714286 0.142857 0.142857
a- kya' ||| အ ကြတ် ||| 0.6 0.2 0.2 0.6 0.2 0.2
a- kya' ||| အ ကြပ် ||| 0.714286 0.142857 0.142857 0.714286 0.142857 0.142857
a- kya: ||| အ ကျား ||| 0.6 0.2 0.2 0.6 0.2 0.2
a- kya: ||| အ ကြား ||| 0.6 0.2 0.2 0.6 0.2 0.2
a- kyan ||| အ ကျန် ||| 0.6 0.2 0.2 0.6 0.2 0.2
a- kyan ||| အ ကြံ ||| 0.935484 0.0322581 0.0322581 0.935484 0.0322581 0.0322581
a- kyan: ||| အ ကြမ်း ||| 0.882353 0.0588235 0.0588235 0.882353 0.0588235 0.0588235
a- kyaun: ma- ||| အ ကြောင်း မ ||| 0.6 0.2 0.2 0.6 0.2 0.2
a- kyaun: ||| အ ကြောင်း ||| 0.964912 0.0175439 0.0175439 0.964912 0.0175439 0.0175439
a- kye ||| အ ကျယ် ||| 0.777778 0.111111 0.111111 0.777778 0.111111 0.111111
a- kyi ||| အ ကြည် ||| 0.818182 0.0909091 0.0909091 0.818182 0.0909091 0.0909091
a- kyi. ||| အ ကျင့် ||| 0.6 0.2 0.2 0.6 0.2 0.2
a- kyi. ||| အ ကျိ ||| 0.714286 0.142857 0.142857 0.714286 0.142857 0.142857
a- kyi. ||| အ ကြည့် ||| 0.714286 0.142857 0.142857 0.714286 0.142857 0.142857
a- kyi: ||| အ ကျည်း ||| 0.6 0.2 0.2 0.6 0.2 0.2
a- kyi: ||| အ ကြီး ||| 0.818182 0.0909091 0.0909091 0.818182 0.0909091 0.0909091
a- kyin. ||| အ ကျင့် ||| 0.882353 0.0588235 0.0588235 0.882353 0.0588235 0.0588235
a- kyin: ||| အ ကျဉ်း ||| 0.866667 0.0666667 0.0666667 0.866667 0.0666667 0.0666667
a- kyo: ||| အ ကျော ||| 0.6 0.2 0.2 0.6 0.2 0.2
a- kyo: ||| အ ကြော ||| 0.935484 0.0322581 0.0322581 0.935484 0.0322581 0.0322581
a- kyou: ||| အ ကျိုး ||| 0.95122 0.0243902 0.0243902 0.95122 0.0243902 0.0243902
a- kyun ||| အ ကျွန် ||| 0.6 0.2 0.2 0.6 0.2 0.2
a- kyun ||| အ ကျွန်ုပ် ||| 0.6 0.2 0.2 0.6 0.2 0.2
a- lai' ||| အ လိုက် ||| 0.882353 0.0588235 0.0588235 0.882353 0.0588235 0.0588235
a- lan ||| အ လံ ||| 0.939394 0.030303 0.030303 0.939394 0.030303 0.030303
a- laun: a- ||| အ လောင်း အ ||| 0.6 0.2 0.2 0.6 0.2 0.2
a- laun: ||| အ လောင်း ||| 0.846154 0.0769231 0.0769231 0.846154 0.0769231 0.0769231
a- le a- ||| အ လယ် အ ||| 0.6 0.2 0.2 0.6 0.2 0.2
a- le ||| အ လည် ||| 0.777778 0.111111 0.111111 0.777778 0.111111 0.111111
a- le ||| အ လယ် ||| 0.894737 0.0526316 0.0526316 0.894737 0.0526316 0.0526316
a- lei ||| အ လေ ||| 0.818182 0.0909091 0.0909091 0.818182 0.0909091 0.0909091
a- lei: ||| အ လေး ||| 0.931034 0.0344828 0.0344828 0.931034 0.0344828 0.0344828
a- lein a- ||| အ လိမ် အ ||| 0.6 0.2 0.2 0.6 0.2 0.2
a- lein ma ||| အ လိမ် မာ ||| 0.882353 0.0588235 0.0588235 0.882353 0.0588235 0.0588235
a- lein ||| အ လိမ် ||| 0.92 0.04 0.04 0.92 0.04 0.04
a- li' ||| အ လစ် ||| 0.818182 0.0909091 0.0909091 0.818182 0.0909091 0.0909091
a- li' ||| အ လဇ် ||| 0.6 0.2 0.2 0.6 0.2 0.2
a- lin ga ||| အ လင် ကာ ||| 0.846154 0.0769231 0.0769231 0.846154 0.0769231 0.0769231
a- lin ||| အ လင် ||| 0.894737 0.0526316 0.0526316 0.894737 0.0526316 0.0526316
a- lin ||| အ လျဉ် ||| 0.714286 0.142857 0.142857 0.714286 0.142857 0.142857
a- lin: ||| အ လင်း ||| 0.904762 0.047619 0.047619 0.904762 0.047619 0.047619
a- ljau' ||| အ လျောက် ||| 0.777778 0.111111 0.111111 0.777778 0.111111 0.111111
a- ljin ||| အ လျင် ||| 0.714286 0.142857 0.142857 0.714286 0.142857 0.142857
a- ljin ||| အ လျဉ် ||| 0.714286 0.142857 0.142857 0.714286 0.142857 0.142857
a- lou ||| အ လို ||| 0.939394 0.030303 0.030303 0.939394 0.030303 0.030303
a- lou' ||| အ လုတ် ||| 0.6 0.2 0.2 0.6 0.2 0.2
a- lou' ||| အ လုပ် ||| 0.969231 0.0153846 0.0153846 0.969231 0.0153846 0.0153846
a- loun: a- ||| အ လုံး အ ||| 0.818182 0.0909091 0.0909091 0.818182 0.0909091 0.0909091
a- loun: ||| အ လုံး ||| 0.904762 0.047619 0.047619 0.904762 0.047619 0.047619
a- lu' ||| အ လွတ် ||| 0.866667 0.0666667 0.0666667 0.866667 0.0666667 0.0666667
a- lun a- ||| အ လွန့် အ ||| 0.6 0.2 0.2 0.6 0.2 0.2
a- lun a- ||| အ လွန် အ ||| 0.714286 0.142857 0.142857 0.714286 0.142857 0.142857
a- lun ||| အ လွန့် ||| 0.6 0.2 0.2 0.6 0.2 0.2
a- lun ||| အ လွန် ||| 0.866667 0.0666667 0.0666667 0.866667 0.0666667 0.0666667
a- mai' ||| အ မိုက် ||| 0.777778 0.111111 0.111111 0.777778 0.111111 0.111111
a- me ||| အ မယ် ||| 0.714286 0.142857 0.142857 0.714286 0.142857 0.142857
a- me: ||| အ မည်း ||| 0.714286 0.142857 0.142857 0.714286 0.142857 0.142857
a- me: ||| အ မဲ ||| 0.935484 0.0322581 0.0322581 0.935484 0.0322581 0.0322581
a- mei ||| အ မေ ||| 0.714286 0.142857 0.142857 0.714286 0.142857 0.142857
a- mei: a- ||| အ မေး အ ||| 0.6 0.2 0.2 0.6 0.2 0.2
a- mei: ||| အ မေး ||| 0.818182 0.0909091 0.0909091 0.818182 0.0909091 0.0909091
a- mein. ||| အ မိန့် ||| 0.942857 0.0285714 0.0285714 0.942857 0.0285714 0.0285714
a- mha za ||| အ မှာ စာ ||| 0.6 0.2 0.2 0.6 0.2 0.2
a- mha ||| အ မှာ ||| 0.866667 0.0666667 0.0666667 0.866667 0.0666667 0.0666667
a- mha' ||| အ မှတ် ||| 0.935484 0.0322581 0.0322581 0.935484 0.0322581 0.0322581
a- mha: mha: ||| အ မှား မှား ||| 0.777778 0.111111 0.111111 0.777778 0.111111 0.111111
a- mha: ||| အ မှား ||| 0.866667 0.0666667 0.0666667 0.866667 0.0666667 0.0666667
a- mhin ||| အ မှင် ||| 0.6 0.2 0.2 0.6 0.2 0.2
a- mhja. ||| အ မျှ ||| 0.846154 0.0769231 0.0769231 0.846154 0.0769231 0.0769231
a- mho ||| အ မှော် ||| 0.6 0.2 0.2 0.6 0.2 0.2
a- mhoun ||| အ မှုန် ||| 0.6 0.2 0.2 0.6 0.2 0.2
a- mhu. a' ||| အ မှတ် တံ ||| 0.6 0.2 0.2 0.6 0.2 0.2
a- mhu. dan: ||| အ မှု ထမ်း ||| 0.714286 0.142857 0.142857 0.714286 0.142857 0.142857
a- mhu. ||| အ မှတ် ||| 0.6 0.2 0.2 0.6 0.2 0.2
a- mhu. ||| အ မှု ||| 0.962264 0.0188679 0.0188679 0.962264 0.0188679 0.0188679
a- mi. ||| အ မိ ||| 0.818182 0.0909091 0.0909091 0.818182 0.0909091 0.0909091
a- mi: ||| အ မီး ||| 0.6 0.2 0.2 0.6 0.2 0.2
a- mi: ||| အ မြီး ||| 0.846154 0.0769231 0.0769231 0.846154 0.0769231 0.0769231
a- mja' to ||| အ မြတ် တော် ||| 0.6 0.2 0.2 0.6 0.2 0.2
a- mja' ||| အ မြတ် ||| 0.92 0.04 0.04 0.92 0.04 0.04
a- mja: ||| အ များ ||| 0.913043 0.0434783 0.0434783 0.913043 0.0434783 0.0434783
a- mja: ||| အ မြား ||| 0.6 0.2 0.2 0.6 0.2 0.2
a- mjan ||| အ မြန် ||| 0.6 0.2 0.2 0.6 0.2 0.2
a- mjau' ||| အ မြောက် ||| 0.866667 0.0666667 0.0666667 0.866667 0.0666667 0.0666667
a- mje' ||| အ မျက် ||| 0.866667 0.0666667 0.0666667 0.866667 0.0666667 0.0666667
a- mje: ||| အ မြဲ ||| 0.777778 0.111111 0.111111 0.777778 0.111111 0.111111
a- mji ||| အ မည် ||| 0.935484 0.0322581 0.0322581 0.935484 0.0322581 0.0322581
a- mjin ||| အ မြင် ||| 0.913043 0.0434783 0.0434783 0.913043 0.0434783 0.0434783
a- mjou: a- ||| အ မျိုး အ ||| 0.777778 0.111111 0.111111 0.777778 0.111111 0.111111
a- mjou: ||| အ မျိုး ||| 0.959184 0.0204082 0.0204082 0.959184 0.0204082 0.0204082
a- mjwe' ||| အ မြွက် ||| 0.6 0.2 0.2 0.6 0.2 0.2
a- mo: ||| အ မော ||| 0.846154 0.0769231 0.0769231 0.846154 0.0769231 0.0769231
a- moun ||| အ မုန် ||| 0.6 0.2 0.2 0.6 0.2 0.2
a- moun ||| အ မုံ ||| 0.6 0.2 0.2 0.6 0.2 0.2
a- mu a- ||| အ မူ အ ||| 0.714286 0.142857 0.142857 0.714286 0.142857 0.142857
a- mu gun: ||| အ မူ ကွန်း ||| 0.6 0.2 0.2 0.6 0.2 0.2
a- mu ||| အ မူ ||| 0.866667 0.0666667 0.0666667 0.866667 0.0666667 0.0666667
a- mu: ||| အ မူး ||| 0.818182 0.0909091 0.0909091 0.818182 0.0909091 0.0909091
a- mwei: a- taun ||| အ မွေး အ တောင် ||| 0.6 0.2 0.2 0.6 0.2 0.2
a- mwei: a- ||| အ မွေး အ ||| 0.714286 0.142857 0.142857 0.714286 0.142857 0.142857
a- mwei: ||| အ မွေး ||| 0.846154 0.0769231 0.0769231 0.846154 0.0769231 0.0769231
a- na da- ||| အ နာ တ ||| 0.6 0.2 0.2 0.6 0.2 0.2
a- na ||| အ နာ ||| 0.945946 0.027027 0.027027 0.945946 0.027027 0.027027
a- na. ||| အ န ||| 0.777778 0.111111 0.111111 0.777778 0.111111 0.111111
a- na. ||| အ နာ ||| 0.6 0.2 0.2 0.6 0.2 0.2
a- na: ||| အ နား ||| 0.92 0.04 0.04 0.92 0.04 0.04
a- nain ||| အ နိုင် ||| 0.866667 0.0666667 0.0666667 0.866667 0.0666667 0.0666667
a- nau' ||| အ နောက် ||| 0.882353 0.0588235 0.0588235 0.882353 0.0588235 0.0588235
a- ne ||| အ နည် ||| 0.714286 0.142857 0.142857 0.714286 0.142857 0.142857
a- ne ||| အ နယ် ||| 0.6 0.2 0.2 0.6 0.2 0.2
a- ne' ||| အ နက် ||| 0.882353 0.0588235 0.0588235 0.882353 0.0588235 0.0588235
a- ne' ||| အ နဂ် ||| 0.714286 0.142857 0.142857 0.714286 0.142857 0.142857
a- ne: ||| အ နည်း ||| 0.777778 0.111111 0.111111 0.777778 0.111111 0.111111
a- nei ||| အ နေ ||| 0.939394 0.030303 0.030303 0.939394 0.030303 0.030303
a- nei' sa. ||| အ နိစ် စ ||| 0.714286 0.142857 0.142857 0.714286 0.142857 0.142857
a- nei' ||| အ နိစ် ||| 0.714286 0.142857 0.142857 0.714286 0.142857 0.142857
a- nei' ||| အ နိဋ် ||| 0.6 0.2 0.2 0.6 0.2 0.2
a- ngai' ||| အ ငိုက် ||| 0.714286 0.142857 0.142857 0.714286 0.142857 0.142857
a- ngan: ||| အ ငန်း ||| 0.714286 0.142857 0.142857 0.714286 0.142857 0.142857
a- ngan: ||| အ ငမ်း ||| 0.6 0.2 0.2 0.6 0.2 0.2
a- ngha: ||| အ ငှား ||| 0.777778 0.111111 0.111111 0.777778 0.111111 0.111111
a- nhan: ||| အ နှမ်း ||| 0.6 0.2 0.2 0.6 0.2 0.2
a- nhi: ||| အ နှီး ||| 0.714286 0.142857 0.142857 0.714286 0.142857 0.142857
a- nhou' ||| အ နုတ် ||| 0.6 0.2 0.2 0.6 0.2 0.2
a- nja ||| အ ညာ ||| 0.846154 0.0769231 0.0769231 0.846154 0.0769231 0.0769231
a- njaun: ||| အ ညောင်း ||| 0.777778 0.111111 0.111111 0.777778 0.111111 0.111111
a- njho ||| အ ညှော် ||| 0.777778 0.111111 0.111111 0.777778 0.111111 0.111111
a- njhou: ||| အ ငြိုး ||| 0.714286 0.142857 0.142857 0.714286 0.142857 0.142857
a- nou' ||| အ နုပ် ||| 0.714286 0.142857 0.142857 0.714286 0.142857 0.142857
a- nu. ||| အ ဏု ||| 0.777778 0.111111 0.111111 0.777778 0.111111 0.111111
a- nu. ||| အ နု ||| 0.92 0.04 0.04 0.92 0.04 0.04
a- pain ||| အ ပိုင် ||| 0.6 0.2 0.2 0.6 0.2 0.2
a- pjain: a- ||| အ ပြိုင်း အ ||| 0.6 0.2 0.2 0.6 0.2 0.2
a- pjain: ||| အ ပြိုင်း ||| 0.714286 0.142857 0.142857 0.714286 0.142857 0.142857
a- pjau' ||| အ ပျောက် ||| 0.714286 0.142857 0.142857 0.714286 0.142857 0.142857
a- pjau' ||| အ ပြောက် ||| 0.714286 0.142857 0.142857 0.714286 0.142857 0.142857
a- pjaun ||| အ ပြောင် ||| 0.714286 0.142857 0.142857 0.714286 0.142857 0.142857
a- pje' a- ||| အ ပြက် အ ||| 0.714286 0.142857 0.142857 0.714286 0.142857 0.142857
a- pje' ||| အ ပျက် ||| 0.714286 0.142857 0.142857 0.714286 0.142857 0.142857
a- pje' ||| အ ပြက် ||| 0.818182 0.0909091 0.0909091 0.818182 0.0909091 0.0909091
a- pjei. a- ||| အ ပြည့် အ ||| 0.714286 0.142857 0.142857 0.714286 0.142857 0.142857
a- pjei. ||| အ ပြည့် ||| 0.777778 0.111111 0.111111 0.777778 0.111111 0.111111
a- pji. a- ||| အ ပြည့် အ ||| 0.777778 0.111111 0.111111 0.777778 0.111111 0.111111
a- pji. ||| အ ပြည့် ||| 0.818182 0.0909091 0.0909091 0.818182 0.0909091 0.0909091
a- pji: a- ||| အ ပြီး အ ||| 0.6 0.2 0.2 0.6 0.2 0.2
a- pji: ||| အ ပြီး ||| 0.818182 0.0909091 0.0909091 0.818182 0.0909091 0.0909091
a- pjin ||| အ ပျဉ် ||| 0.6 0.2 0.2 0.6 0.2 0.2
a- pjin ||| အ ပြင် ||| 0.904762 0.047619 0.047619 0.904762 0.047619 0.047619
a- pjin ||| အ ပြင်... ||| 0.6 0.2 0.2 0.6 0.2 0.2
a- pjin: ||| အ ပျင်း ||| 0.866667 0.0666667 0.0666667 0.866667 0.0666667 0.0666667
a- pjin: ||| အ ပြင်း ||| 0.6 0.2 0.2 0.6 0.2 0.2
a- pjo: a- ||| အ ပြော အ ||| 0.6 0.2 0.2 0.6 0.2 0.2
a- pjo: ||| အ ပြော ||| 0.894737 0.0526316 0.0526316 0.894737 0.0526316 0.0526316
a- pjou ||| အ ပျို ||| 0.894737 0.0526316 0.0526316 0.894737 0.0526316 0.0526316
a- pjou ||| အ ပြုတ် ||| 0.6 0.2 0.2 0.6 0.2 0.2
a- sa ||| အ စ ||| 0.714286 0.142857 0.142857 0.714286 0.142857 0.142857
a- sa ||| အ စာ ||| 0.935484 0.0322581 0.0322581 0.935484 0.0322581 0.0322581
a- sa. ||| အ စ ||| 0.945946 0.027027 0.027027 0.945946 0.027027 0.027027
a- sa: ||| အ စား ||| 0.945946 0.027027 0.027027 0.945946 0.027027 0.027027
a- se' a- ||| အ စက် အ ||| 0.6 0.2 0.2 0.6 0.2 0.2
a- se' ||| အ စက် ||| 0.714286 0.142857 0.142857 0.714286 0.142857 0.142857
a- sei' ||| အ စိတ် ||| 0.818182 0.0909091 0.0909091 0.818182 0.0909091 0.0909091
a- sei. ||| အ စေ့ ||| 0.913043 0.0434783 0.0434783 0.913043 0.0434783 0.0434783
a- sein: ||| အ စိမ်း ||| 0.882353 0.0588235 0.0588235 0.882353 0.0588235 0.0588235
a- sha. ||| အ ဆ ||| 0.6 0.2 0.2 0.6 0.2 0.2
a- sha. ||| အ ရှ ||| 0.714286 0.142857 0.142857 0.714286 0.142857 0.142857
a- she' ||| အ ယှက် ||| 0.6 0.2 0.2 0.6 0.2 0.2
a- she' ||| အ ရှက် ||| 0.894737 0.0526316 0.0526316 0.894737 0.0526316 0.0526316
a- shin ||| အ ရှင် ||| 0.777778 0.111111 0.111111 0.777778 0.111111 0.111111
a- shin ||| အ ရှတ် ||| 0.6 0.2 0.2 0.6 0.2 0.2
a- shin: ||| အ ရှင်း ||| 0.6 0.2 0.2 0.6 0.2 0.2
a- shou' a- ||| အ ရှုပ် အ ||| 0.6 0.2 0.2 0.6 0.2 0.2
a- shou' ||| အ ရှုပ် ||| 0.714286 0.142857 0.142857 0.714286 0.142857 0.142857
a- shoun: ||| အ ရှုံး ||| 0.846154 0.0769231 0.0769231 0.846154 0.0769231 0.0769231
a- si' a- ||| အ စစ် အ ||| 0.714286 0.142857 0.142857 0.714286 0.142857 0.142857
a- si' ||| အ စစ် ||| 0.818182 0.0909091 0.0909091 0.818182 0.0909091 0.0909091
a- si. ||| အ စေ့ ||| 0.882353 0.0588235 0.0588235 0.882353 0.0588235 0.0588235
a- si: ||| အ စည်း ||| 0.866667 0.0666667 0.0666667 0.866667 0.0666667 0.0666667
a- si: ||| အ စီး ||| 0.777778 0.111111 0.111111 0.777778 0.111111 0.111111
a- sin ||| အ စင် ||| 0.6 0.2 0.2 0.6 0.2 0.2
a- sin ||| အ စဉ် ||| 0.925926 0.037037 0.037037 0.925926 0.037037 0.037037
a- sou. ||| အ စို့ ||| 0.6 0.2 0.2 0.6 0.2 0.2
a- sou: ja. ||| အ စိုး ရ ||| 0.894737 0.0526316 0.0526316 0.894737 0.0526316 0.0526316
a- sou: ||| အ စိုး ||| 0.913043 0.0434783 0.0434783 0.913043 0.0434783 0.0434783
a- soun a- ||| အ စုံ အ ||| 0.777778 0.111111 0.111111 0.777778 0.111111 0.111111
a- soun ||| အ စုန် ||| 0.6 0.2 0.2 0.6 0.2 0.2
a- soun ||| အ စုံ ||| 0.846154 0.0769231 0.0769231 0.846154 0.0769231 0.0769231
a- su. ||| အ စု ||| 0.92 0.04 0.04 0.92 0.04 0.04
a- sun ||| အ စွန် ||| 0.714286 0.142857 0.142857 0.714286 0.142857 0.142857
a- sun ||| အ စွံ ||| 0.6 0.2 0.2 0.6 0.2 0.2
a- sun: a- sa. ||| အ စွန်း အ စ ||| 0.6 0.2 0.2 0.6 0.2 0.2
a- sun: a- ||| အ စွန်း အ ||| 0.777778 0.111111 0.111111 0.777778 0.111111 0.111111
a- sun: ||| အ စွန်း ||| 0.904762 0.047619 0.047619 0.904762 0.047619 0.047619
a- sun: ||| အ စွမ်း ||| 0.6 0.2 0.2 0.6 0.2 0.2
a- swe: kyi: ||| အ စွဲ ကြီး ||| 0.6 0.2 0.2 0.6 0.2 0.2
a- swe: ||| အ စွဲ ||| 0.904762 0.047619 0.047619 0.904762 0.047619 0.047619
a- ta ||| အ တာ ||| 0.866667 0.0666667 0.0666667 0.866667 0.0666667 0.0666667
a- ta' ||| အ တတ် ||| 0.882353 0.0588235 0.0588235 0.882353 0.0588235 0.0588235
a- ta' ||| အ တပ် ||| 0.6 0.2 0.2 0.6 0.2 0.2
a- tain a- to: ||| အ တိုင် အ တော ||| 0.6 0.2 0.2 0.6 0.2 0.2
a- tain a- ||| အ တိုင် အ ||| 0.777778 0.111111 0.111111 0.777778 0.111111 0.111111
a- tain ||| အ တိုင် ||| 0.818182 0.0909091 0.0909091 0.818182 0.0909091 0.0909091
a- tan: ||| အ တန်း ||| 0.818182 0.0909091 0.0909091 0.818182 0.0909091 0.0909091
a- taun soun ||| အ တောင် စုံ ||| 0.6 0.2 0.2 0.6 0.2 0.2
a- taun ||| အ တောင် ||| 0.866667 0.0666667 0.0666667 0.866667 0.0666667 0.0666667
a- te' ||| အ တက် ||| 0.818182 0.0909091 0.0909091 0.818182 0.0909091 0.0909091
a- tei' ||| အ တိတ် ||| 0.777778 0.111111 0.111111 0.777778 0.111111 0.111111
a- tha ||| အ သ ||| 0.6 0.2 0.2 0.6 0.2 0.2
a- tha ||| အ သာ ||| 0.913043 0.0434783 0.0434783 0.913043 0.0434783 0.0434783
a- tha- ||| အ သ ||| 0.846154 0.0769231 0.0769231 0.846154 0.0769231 0.0769231
a- tha- ||| အ သား ||| 0.818182 0.0909091 0.0909091 0.818182 0.0909091 0.0909091
a- tha- ||| အ ဿ ||| 0.6 0.2 0.2 0.6 0.2 0.2
a- tha: ||| အ သား ||| 0.955556 0.0222222 0.0222222 0.955556 0.0222222 0.0222222
a- than o: ||| အ သံ အော ||| 0.6 0.2 0.2 0.6 0.2 0.2
a- than ||| အ သန် ||| 0.6 0.2 0.2 0.6 0.2 0.2
a- than ||| အ သံ ||| 0.964912 0.0175439 0.0175439 0.964912 0.0175439 0.0175439
a- the' ||| အ သက် ||| 0.959184 0.0204082 0.0204082 0.959184 0.0204082 0.0204082
a- the: ||| အ သည်း ||| 0.931034 0.0344828 0.0344828 0.931034 0.0344828 0.0344828
a- thei ||| အ သေ ||| 0.931034 0.0344828 0.0344828 0.931034 0.0344828 0.0344828
a- thi' ||| အ သစ် ||| 0.866667 0.0666667 0.0666667 0.866667 0.0666667 0.0666667
a- thi. ||| အ သိ ||| 0.92 0.04 0.04 0.92 0.04 0.04
a- thou' ||| အ သုပ် ||| 0.6 0.2 0.2 0.6 0.2 0.2
a- thoun: a- ||| အ သုံး အ ||| 0.6 0.2 0.2 0.6 0.2 0.2
a- thoun: ||| အ သုံး ||| 0.925926 0.037037 0.037037 0.925926 0.037037 0.037037
a- thwe ||| အ သွယ် ||| 0.714286 0.142857 0.142857 0.714286 0.142857 0.142857
a- thwin: ||| အ သွင်း ||| 0.6 0.2 0.2 0.6 0.2 0.2
a- ti ||| အ တည် ||| 0.846154 0.0769231 0.0769231 0.846154 0.0769231 0.0769231
a- ti ||| အ တီ ||| 0.6 0.2 0.2 0.6 0.2 0.2
a- ti' ||| အ တစ် ||| 0.6 0.2 0.2 0.6 0.2 0.2
a- ti. ||| အ တိ ||| 0.866667 0.0666667 0.0666667 0.866667 0.0666667 0.0666667
a- tin. ||| အ တင့် ||| 0.6 0.2 0.2 0.6 0.2 0.2
a- to: ||| အ တော ||| 0.818182 0.0909091 0.0909091 0.818182 0.0909091 0.0909091
a- tou a- ||| အ တို အ ||| 0.6 0.2 0.2 0.6 0.2 0.2
a- tou ||| အ တို ||| 0.714286 0.142857 0.142857 0.714286 0.142857 0.142857
a- tou' ||| အ တုတ် ||| 0.6 0.2 0.2 0.6 0.2 0.2
a- tou. a- ||| အ တို့ အ ||| 0.6 0.2 0.2 0.6 0.2 0.2
a- tou. ||| အ တို့ ||| 0.714286 0.142857 0.142857 0.714286 0.142857 0.142857
a- tou: gyi: ||| အ တိုး ကြီး ||| 0.6 0.2 0.2 0.6 0.2 0.2
a- tou: ||| အ တိုး ||| 0.866667 0.0666667 0.0666667 0.866667 0.0666667 0.0666667
a- tu ||| အ တူ ||| 0.882353 0.0588235 0.0588235 0.882353 0.0588235 0.0588235
a- tu. ||| အ တု ||| 0.846154 0.0769231 0.0769231 0.846154 0.0769231 0.0769231
a- twe ||| အ တွယ် ||| 0.714286 0.142857 0.142857 0.714286 0.142857 0.142857
a- twei: ||| အ တွေး ||| 0.777778 0.111111 0.111111 0.777778 0.111111 0.111111
a- twin: jei: ||| အ တွင်း ရေး ||| 0.818182 0.0909091 0.0909091 0.818182 0.0909091 0.0909091
a- twin: lu ||| အ တွင်း လူ ||| 0.6 0.2 0.2 0.6 0.2 0.2
a- twin: wun ||| အ တွင်း ဝန် ||| 0.6 0.2 0.2 0.6 0.2 0.2
a- twin: ||| အ တွင်း ||| 0.967213 0.0163934 0.0163934 0.967213 0.0163934 0.0163934
a- wa. ||| အ ဝ ||| 0.894737 0.0526316 0.0526316 0.894737 0.0526316 0.0526316
a- we ||| အ ဝယ် ||| 0.777778 0.111111 0.111111 0.777778 0.111111 0.111111
a- wei: ||| အ ဝေး ||| 0.92 0.04 0.04 0.92 0.04 0.04
a- win ||| အ ဝင် ||| 0.818182 0.0909091 0.0909091 0.818182 0.0909091 0.0909091
a- wun: ||| အ ဝန်း ||| 0.6 0.2 0.2 0.6 0.2 0.2
a- ||| ဍာ ||| 0.6 0.2 0.2 0.6 0.2 0.2
a- ||| န ||| 0.6 0.2 0.2 0.6 0.2 0.2
a- ||| အ ||| 0.999672 0.000164069 0.000164069 0.999672 0.000164069 0.000164069
a- ||| အစ် ||| 0.882353 0.0588235 0.0588235 0.882353 0.0588235 0.0588235
a- ||| အဋ် ||| 0.6 0.2 0.2 0.6 0.2 0.2
a- ||| အာ ||| 0.6 0.2 0.2 0.6 0.2 0.2
a. ||| ဏ ||| 0.6 0.2 0.2 0.6 0.2 0.2
a. ||| န ||| 0.6 0.2 0.2 0.6 0.2 0.2
a. ||| အ ||| 0.967213 0.0163934 0.0163934 0.967213 0.0163934 0.0163934
a: ne: ||| အား နည်း ||| 0.714286 0.142857 0.142857 0.714286 0.142857 0.142857
a: ||| အား ||| 0.989744 0.00512821 0.00512821 0.989744 0.00512821 0.00512821
ai' ||| အိုက် ||| 0.846154 0.0769231 0.0769231 0.846154 0.0769231 0.0769231
ain: na ||| အိုင်း နာ ||| 0.6 0.2 0.2 0.6 0.2 0.2
ain: ||| အိုင်း ||| 0.777778 0.111111 0.111111 0.777778 0.111111 0.111111
an da- re ||| အန် တ ရာယ် ||| 0.714286 0.142857 0.142857 0.714286 0.142857 0.142857
an da- ||| အန် တ ||| 0.866667 0.0666667 0.0666667 0.866667 0.0666667 0.0666667
an da- ||| အန် ဒ ||| 0.6 0.2 0.2 0.6 0.2 0.2
an za ||| အန် စာ ||| 0.714286 0.142857 0.142857 0.714286 0.142857 0.142857
an ||| နံ ||| 0.6 0.2 0.2 0.6 0.2 0.2
an ||| အ ||| 0.6 0.2 0.2 0.6 0.2 0.2
an ||| အဏ် ||| 0.714286 0.142857 0.142857 0.714286 0.142857 0.142857
an ||| အန် ||| 0.966102 0.0169492 0.0169492 0.966102 0.0169492 0.0169492
an ||| အမ် ||| 0.6 0.2 0.2 0.6 0.2 0.2
an ||| အံ ||| 0.95122 0.0243902 0.0243902 0.95122 0.0243902 0.0243902
an. ||| အံ့ ||| 0.913043 0.0434783 0.0434783 0.913043 0.0434783 0.0434783
an: ||| အန် ||| 0.777778 0.111111 0.111111 0.777778 0.111111 0.111111
an: ||| အန်း ||| 0.714286 0.142857 0.142857 0.714286 0.142857 0.142857
an: ||| အမ်း ||| 0.846154 0.0769231 0.0769231 0.846154 0.0769231 0.0769231
au' chei ||| အောက် ခြေ ||| 0.777778 0.111111 0.111111 0.777778 0.111111 0.111111
au' hswe: ||| အောက် ဆွဲ ||| 0.6 0.2 0.2 0.6 0.2 0.2
au' ||| နောက် ||| 0.6 0.2 0.2 0.6 0.2 0.2
au' ||| အောက် ||| 0.981651 0.00917431 0.00917431 0.981651 0.00917431 0.00917431
aun mjei ||| အောင် မြေ ||| 0.6 0.2 0.2 0.6 0.2 0.2
aun ||| အောင် ||| 0.979381 0.0103093 0.0103093 0.979381 0.0103093 0.0103093
aun. ||| အောင့် ||| 0.866667 0.0666667 0.0666667 0.866667 0.0666667 0.0666667
aun: ||| အောင်း ||| 0.913043 0.0434783 0.0434783 0.913043 0.0434783 0.0434783
ba dha ||| ဘာ သာ ||| 0.939394 0.030303 0.030303 0.939394 0.030303 0.030303
ba ja. ||| ပါ ရ ||| 0.6 0.2 0.2 0.6 0.2 0.2
ba ja. ||| ဘာ ရ ||| 0.6 0.2 0.2 0.6 0.2 0.2
ba ne. ||| ပါ နှင့် ||| 0.6 0.2 0.2 0.6 0.2 0.2
ba wa. jou' ||| ဘာ ဝ ယုတ် ||| 0.6 0.2 0.2 0.6 0.2 0.2
ba wa. ||| ဘာ ဝ ||| 0.931034 0.0344828 0.0344828 0.931034 0.0344828 0.0344828
ba zei ||| ပါ စေ ||| 0.714286 0.142857 0.142857 0.714286 0.142857 0.142857
ba ||| ပ ||| 0.714286 0.142857 0.142857 0.714286 0.142857 0.142857
ba ||| ပန်း ||| 0.6 0.2 0.2 0.6 0.2 0.2
ba ||| ပလ် ||| 0.6 0.2 0.2 0.6 0.2 0.2
ba ||| ပါ ||| 0.975904 0.0120482 0.0120482 0.975904 0.0120482 0.0120482
ba ||| ပါး ||| 0.6 0.2 0.2 0.6 0.2 0.2
ba ||| ဗ ||| 0.6 0.2 0.2 0.6 0.2 0.2
ba ||| ဗာ ||| 0.904762 0.047619 0.047619 0.904762 0.047619 0.047619
ba ||| ဘ ||| 0.714286 0.142857 0.142857 0.714286 0.142857 0.142857
ba ||| ဘာ ||| 0.986577 0.00671141 0.00671141 0.986577 0.00671141 0.00671141
ba' la' ||| ဖတ် လတ် ||| 0.714286 0.142857 0.142857 0.714286 0.142857 0.142857
ba' thi: ||| ဘတ် သီး ||| 0.6 0.2 0.2 0.6 0.2 0.2
ba' ||| ပတ် ||| 0.980583 0.00970874 0.00970874 0.980583 0.00970874 0.00970874
ba' ||| ပဒ် ||| 0.818182 0.0909091 0.0909091 0.818182 0.0909091 0.0909091
ba' ||| ပပ် ||| 0.714286 0.142857 0.142857 0.714286 0.142857 0.142857
ba' ||| ပါဌ် ||| 0.6 0.2 0.2 0.6 0.2 0.2
ba' ||| ပါတ် ||| 0.904762 0.047619 0.047619 0.904762 0.047619 0.047619
ba' ||| ပါဒ် ||| 0.714286 0.142857 0.142857 0.714286 0.142857 0.142857
ba' ||| ဖတ် ||| 0.962264 0.0188679 0.0188679 0.962264 0.0188679 0.0188679
ba' ||| ဖပ် ||| 0.6 0.2 0.2 0.6 0.2 0.2
ba' ||| ဗတ် ||| 0.6 0.2 0.2 0.6 0.2 0.2
ba' ||| ဘ ||| 0.6 0.2 0.2 0.6 0.2 0.2
ba' ||| ဘတ် ||| 0.92 0.04 0.04 0.92 0.04 0.04
ba- da na. ||| ပ ဓာ န ||| 0.714286 0.142857 0.142857 0.714286 0.142857 0.142857
ba- da ||| ပ တာ ||| 0.714286 0.142857 0.142857 0.714286 0.142857 0.142857
ba- da ||| ပ ဒါ ||| 0.6 0.2 0.2 0.6 0.2 0.2
ba- da ||| ပ ဓာ ||| 0.714286 0.142857 0.142857 0.714286 0.142857 0.142857
ba- da ||| ဘဏ် ဍာ ||| 0.6 0.2 0.2 0.6 0.2 0.2
ba- da: ||| ပ ဒါး ||| 0.6 0.2 0.2 0.6 0.2 0.2
ba- da: ||| ပြ ဒါး ||| 0.6 0.2 0.2 0.6 0.2 0.2
ba- dain: ||| ပ ဒိုင်း ||| 0.777778 0.111111 0.111111 0.777778 0.111111 0.111111
ba- dau' ||| ပ တောက် ||| 0.6 0.2 0.2 0.6 0.2 0.2
ba- dau' ||| ပိ တောက် ||| 0.6 0.2 0.2 0.6 0.2 0.2
ba- daun: ||| ပန်း တောင်း ||| 0.714286 0.142857 0.142857 0.714286 0.142857 0.142857
ba- daun: ||| ပုံ တောင်း ||| 0.6 0.2 0.2 0.6 0.2 0.2
ba- dei tha- ri' ||| ပ ဒေ သ ရာဇ် ||| 0.6 0.2 0.2 0.6 0.2 0.2
ba- dei tha- ||| ပ ဒေ သ ||| 0.6 0.2 0.2 0.6 0.2 0.2
ba- dei ||| ပ တေ ||| 0.6 0.2 0.2 0.6 0.2 0.2
ba- dei ||| ပ ဒေ ||| 0.945946 0.027027 0.027027 0.945946 0.027027 0.027027
ba- dein ||| ပ ဋိ ||| 0.6 0.2 0.2 0.6 0.2 0.2
ba- dein ||| ပန်း ထိမ် ||| 0.6 0.2 0.2 0.6 0.2 0.2
ba- din: ||| ပြ တင်း ||| 0.6 0.2 0.2 0.6 0.2 0.2
ba- doun: ||| ပိ တုန်း ||| 0.6 0.2 0.2 0.6 0.2 0.2
ba- du ||| ပျား တူ ||| 0.777778 0.111111 0.111111 0.777778 0.111111 0.111111
ba- ga- di. ||| ပ က တိ ||| 0.846154 0.0769231 0.0769231 0.846154 0.0769231 0.0769231
ba- ga- ||| ပ က ||| 0.846154 0.0769231 0.0769231 0.846154 0.0769231 0.0769231
ba- ga- ||| ဗ က ||| 0.6 0.2 0.2 0.6 0.2 0.2
ba- gan ||| ပန်း ကန် ||| 0.846154 0.0769231 0.0769231 0.846154 0.0769231 0.0769231
ba- gyi ||| ပန်း ချီ ||| 0.777778 0.111111 0.111111 0.777778 0.111111 0.111111
ba- gyi ||| ပါး ကျီ ||| 0.6 0.2 0.2 0.6 0.2 0.2
ba- hou ||| ပ ဟိုရ် ||| 0.6 0.2 0.2 0.6 0.2 0.2
ba- hou ||| ဗ ဟို ||| 0.818182 0.0909091 0.0909091 0.818182 0.0909091 0.0909091
ba- hu. thu. ta. ||| ဗ ဟု သု တ ||| 0.714286 0.142857 0.142857 0.714286 0.142857 0.142857
ba- hu. thu. ||| ဗ ဟု သု ||| 0.714286 0.142857 0.142857 0.714286 0.142857 0.142857
ba- hu. ||| ဗ ဟု ||| 0.714286 0.142857 0.142857 0.714286 0.142857 0.142857
ba- ja ||| ပ ရာ ||| 0.714286 0.142857 0.142857 0.714286 0.142857 0.142857
ba- ja ||| ဗ ယာ ||| 0.6 0.2 0.2 0.6 0.2 0.2
ba- ja ||| ဘ ယာ ||| 0.714286 0.142857 0.142857 0.714286 0.142857 0.142857
ba- jin ||| တု ရင် ||| 0.6 0.2 0.2 0.6 0.2 0.2
ba- jin ||| ဘ ရင် ||| 0.714286 0.142857 0.142857 0.714286 0.142857 0.142857
ba- jin ||| ဘု ရင် ||| 0.882353 0.0588235 0.0588235 0.882353 0.0588235 0.0588235
ba- la ||| ပ လာ ||| 0.6 0.2 0.2 0.6 0.2 0.2
ba- la ||| ဗ လ ||| 0.6 0.2 0.2 0.6 0.2 0.2
ba- la ||| ဗ လာ ||| 0.92 0.04 0.04 0.92 0.04 0.04
ba- loun ||| ဗ လုံ ||| 0.714286 0.142857 0.142857 0.714286 0.142857 0.142857
ba- lu: gyein: ||| ဘီ လူး ကြိမ်း ||| 0.6 0.2 0.2 0.6 0.2 0.2
ba- lu: ||| ဘီ လူး ||| 0.945946 0.027027 0.027027 0.945946 0.027027 0.027027
ba- lu: ||| ဘီး လူး ||| 0.6 0.2 0.2 0.6 0.2 0.2
ba- mje' ||| ဖ မျက် ||| 0.6 0.2 0.2 0.6 0.2 0.2
ba- nan: ||| ဘ နန်း ||| 0.6 0.2 0.2 0.6 0.2 0.2
ba- wa. ||| ဘ ဝ ||| 0.92 0.04 0.04 0.92 0.04 0.04
ba- wo: ||| ဘ ဝေါ ||| 0.6 0.2 0.2 0.6 0.2 0.2
ba- za' ||| ပ စပ် ||| 0.6 0.2 0.2 0.6 0.2 0.2
ba- za' ||| ပါး စပ် ||| 0.894737 0.0526316 0.0526316 0.894737 0.0526316 0.0526316
ba- zin: ||| ပဉ် စင်း ||| 0.777778 0.111111 0.111111 0.777778 0.111111 0.111111
ba- zin: ||| ပု စဉ်း ||| 0.846154 0.0769231 0.0769231 0.846154 0.0769231 0.0769231
ba- zun ||| ပု စွန် ||| 0.931034 0.0344828 0.0344828 0.931034 0.0344828 0.0344828
ba- ||| တု ||| 0.6 0.2 0.2 0.6 0.2 0.2
ba- ||| ပ ||| 0.988304 0.00584795 0.00584795 0.988304 0.00584795 0.00584795
ba- ||| ပဉ် ||| 0.777778 0.111111 0.111111 0.777778 0.111111 0.111111
ba- ||| ပတ် ||| 0.6 0.2 0.2 0.6 0.2 0.2
ba- ||| ပန် ||| 0.6 0.2 0.2 0.6 0.2 0.2
ba- ||| ပန်း ||| 0.945946 0.027027 0.027027 0.945946 0.027027 0.027027
ba- ||| ပါ ||| 0.6 0.2 0.2 0.6 0.2 0.2
ba- ||| ပါး ||| 0.960784 0.0196078 0.0196078 0.960784 0.0196078 0.0196078
ba- ||| ပိ ||| 0.714286 0.142857 0.142857 0.714286 0.142857 0.142857
ba- ||| ပု ||| 0.962264 0.0188679 0.0188679 0.962264 0.0188679 0.0188679
ba- ||| ပုံ ||| 0.6 0.2 0.2 0.6 0.2 0.2
ba- ||| ပဲ ||| 0.6 0.2 0.2 0.6 0.2 0.2
ba- ||| ပျား ||| 0.777778 0.111111 0.111111 0.777778 0.111111 0.111111
ba- ||| ပြ ||| 0.777778 0.111111 0.111111 0.777778 0.111111 0.111111
ba- ||| ဖ ||| 0.894737 0.0526316 0.0526316 0.894737 0.0526316 0.0526316
ba- ||| ဖု ||| 0.714286 0.142857 0.142857 0.714286 0.142857 0.142857
ba- ||| ဗ ||| 0.986014 0.00699301 0.00699301 0.986014 0.00699301 0.00699301
ba- ||| ဗာ ||| 0.6 0.2 0.2 0.6 0.2 0.2
ba- ||| ဘ ||| 0.978495 0.0107527 0.0107527 0.978495 0.0107527 0.0107527
ba- ||| ဘဏ် ||| 0.6 0.2 0.2 0.6 0.2 0.2
ba- ||| ဘာ ||| 0.6 0.2 0.2 0.6 0.2 0.2
ba- ||| ဘိ ||| 0.6 0.2 0.2 0.6 0.2 0.2
ba- ||| ဘီ ||| 0.945946 0.027027 0.027027 0.945946 0.027027 0.027027
ba- ||| ဘီး ||| 0.6 0.2 0.2 0.6 0.2 0.2
ba- ||| ဘု ||| 0.882353 0.0588235 0.0588235 0.882353 0.0588235 0.0588235
ba. ba. ||| ဗ ဘ ||| 0.6 0.2 0.2 0.6 0.2 0.2
ba. ba. ||| ဘ ဘ ||| 0.714286 0.142857 0.142857 0.714286 0.142857 0.142857
ba. gyi: ||| ဘ ကြီး ||| 0.6 0.2 0.2 0.6 0.2 0.2
ba. la- chai' ||| ဗ ထက် ခြိုက် ||| 0.6 0.2 0.2 0.6 0.2 0.2
ba. la- ||| ဗ ထက် ||| 0.6 0.2 0.2 0.6 0.2 0.2
ba. ||| ပ ||| 0.818182 0.0909091 0.0909091 0.818182 0.0909091 0.0909091
ba. ||| ပါ့ ||| 0.6 0.2 0.2 0.6 0.2 0.2
ba. ||| ဗ ||| 0.92 0.04 0.04 0.92 0.04 0.04
ba. ||| ဘ ||| 0.964912 0.0175439 0.0175439 0.964912 0.0175439 0.0175439
ba. ||| ဘာ့ ||| 0.6 0.2 0.2 0.6 0.2 0.2
ba: ||| ပါး ||| 0.989744 0.00512821 0.00512821 0.989744 0.00512821 0.00512821
ba: ||| ဖား ||| 0.818182 0.0909091 0.0909091 0.818182 0.0909091 0.0909091
ba: ||| ဗား ||| 0.777778 0.111111 0.111111 0.777778 0.111111 0.111111
ba: ||| ဘား ||| 0.846154 0.0769231 0.0769231 0.846154 0.0769231 0.0769231
ba: ||| ဝါး ||| 0.6 0.2 0.2 0.6 0.2 0.2
bai' ||| ပိုက် ||| 0.95122 0.0243902 0.0243902 0.95122 0.0243902 0.0243902
bai' ||| ပိုဒ် ||| 0.777778 0.111111 0.111111 0.777778 0.111111 0.111111
bai' ||| ဗိုက် ||| 0.866667 0.0666667 0.0666667 0.866667 0.0666667 0.0666667
bain ||| ပိုင် ||| 0.963636 0.0181818 0.0181818 0.963636 0.0181818 0.0181818
bain ||| ဖိုင် ||| 0.6 0.2 0.2 0.6 0.2 0.2
bain ||| ဘိုင် ||| 0.846154 0.0769231 0.0769231 0.846154 0.0769231 0.0769231
bain: daun. ||| ဗိုင်း တောင့် ||| 0.6 0.2 0.2 0.6 0.2 0.2
bain: ||| ပိုင်း ||| 0.962264 0.0188679 0.0188679 0.962264 0.0188679 0.0188679
bain: ||| ဗိုင်း ||| 0.894737 0.0526316 0.0526316 0.894737 0.0526316 0.0526316
ban ||| ပန် ||| 0.882353 0.0588235 0.0588235 0.882353 0.0588235 0.0588235
ban ||| ပံ ||| 0.714286 0.142857 0.142857 0.714286 0.142857 0.142857
ban ||| ဖန် ||| 0.894737 0.0526316 0.0526316 0.894737 0.0526316 0.0526316
ban ||| ဗန် ||| 0.846154 0.0769231 0.0769231 0.846154 0.0769231 0.0769231
ban ||| ဗာ ||| 0.6 0.2 0.2 0.6 0.2 0.2
ban ||| ဗာန် ||| 0.894737 0.0526316 0.0526316 0.894737 0.0526316 0.0526316
ban ||| ဘဏ် ||| 0.904762 0.047619 0.047619 0.904762 0.047619 0.047619
ban ||| ဘန် ||| 0.866667 0.0666667 0.0666667 0.866667 0.0666667 0.0666667
ban ||| ဘမ် ||| 0.6 0.2 0.2 0.6 0.2 0.2
ban ||| ဘာန် ||| 0.6 0.2 0.2 0.6 0.2 0.2
ban: kyi: ||| ပန်း ကြီး ||| 0.6 0.2 0.2 0.6 0.2 0.2
ban: ||| ပန်း ||| 0.983471 0.00826446 0.00826446 0.983471 0.00826446 0.00826446
ban: ||| ပမ်း ||| 0.714286 0.142857 0.142857 0.714286 0.142857 0.142857
ban: ||| ဗန်း ||| 0.777778 0.111111 0.111111 0.777778 0.111111 0.111111
ban: ||| ဘန် ||| 0.6 0.2 0.2 0.6 0.2 0.2
ban: ||| ဘန်း ||| 0.6 0.2 0.2 0.6 0.2 0.2
bau' ||| ပေါက် ||| 0.990338 0.00483092 0.00483092 0.990338 0.00483092 0.00483092
bau' ||| ဖောက် ||| 0.6 0.2 0.2 0.6 0.2 0.2
bau' ||| ဗောက် ||| 0.6 0.2 0.2 0.6 0.2 0.2
bau' ||| ဘောက် ||| 0.866667 0.0666667 0.0666667 0.866667 0.0666667 0.0666667
baun gyou: ||| ပေါင် ကျိုး ||| 0.714286 0.142857 0.142857 0.714286 0.142857 0.142857
baun ||| ပေါင် ||| 0.968254 0.015873 0.015873 0.968254 0.015873 0.015873
baun ||| ဖောင် ||| 0.6 0.2 0.2 0.6 0.2 0.2
baun ||| ဗောင် ||| 0.714286 0.142857 0.142857 0.714286 0.142857 0.142857
baun ||| ဘောင် ||| 0.92 0.04 0.04 0.92 0.04 0.04
baun: bi ||| ဘောင်း ဘီ ||| 0.714286 0.142857 0.142857 0.714286 0.142857 0.142857
baun: ||| ပေါင်း ||| 0.975904 0.0120482 0.0120482 0.975904 0.0120482 0.0120482
baun: ||| ဖောင်း ||| 0.777778 0.111111 0.111111 0.777778 0.111111 0.111111
baun: ||| ဗောင်း ||| 0.714286 0.142857 0.142857 0.714286 0.142857 0.142857
baun: ||| ဘောင်း ||| 0.714286 0.142857 0.142857 0.714286 0.142857 0.142857
be ||| ပယ် ||| 0.866667 0.0666667 0.0666667 0.866667 0.0666667 0.0666667
be ||| ပါယ် ||| 0.777778 0.111111 0.111111 0.777778 0.111111 0.111111
be ||| ပဲ ||| 0.6 0.2 0.2 0.6 0.2 0.2
be ||| ဘယ် ||| 0.953488 0.0232558 0.0232558 0.953488 0.0232558 0.0232558
be' khaun ||| ဖက် ခေါင် ||| 0.6 0.2 0.2 0.6 0.2 0.2
be' ||| ပက် ||| 0.777778 0.111111 0.111111 0.777778 0.111111 0.111111
be' ||| ပါက် ||| 0.6 0.2 0.2 0.6 0.2 0.2
be' ||| ဖက် ||| 0.963636 0.0181818 0.0181818 0.963636 0.0181818 0.0181818
be' ||| ဗက် ||| 0.714286 0.142857 0.142857 0.714286 0.142857 0.142857
be' ||| ဘက် ||| 0.959184 0.0204082 0.0204082 0.959184 0.0204082 0.0204082
be. ||| ပည့် ||| 0.846154 0.0769231 0.0769231 0.846154 0.0769231 0.0769231
be. ||| ပဲ့ ||| 0.818182 0.0909091 0.0909091 0.818182 0.0909091 0.0909091
be. ||| ဖဲ့ ||| 0.6 0.2 0.2 0.6 0.2 0.2
be. ||| ဘယ့် ||| 0.777778 0.111111 0.111111 0.777778 0.111111 0.111111
be: daun ||| ဘဲ တောင် ||| 0.714286 0.142857 0.142857 0.714286 0.142857 0.142857
be: ||| ပိန်း ||| 0.714286 0.142857 0.142857 0.714286 0.142857 0.142857
be: ||| ပဲ ||| 0.925926 0.037037 0.037037 0.925926 0.037037 0.037037
be: ||| ဘဲ ||| 0.95122 0.0243902 0.0243902 0.95122 0.0243902 0.0243902
bei da. ||| ဗေ ဒ ||| 0.957447 0.0212766 0.0212766 0.957447 0.0212766 0.0212766
bei ||| ပိတ် ||| 0.6 0.2 0.2 0.6 0.2 0.2
bei ||| ပေ ||| 0.92 0.04 0.04 0.92 0.04 0.04
bei ||| ဗေ ||| 0.968254 0.015873 0.015873 0.968254 0.015873 0.015873
bei ||| ဘိက် ||| 0.6 0.2 0.2 0.6 0.2 0.2
bei ||| ဘေ ||| 0.777778 0.111111 0.111111 0.777778 0.111111 0.111111
bei' thei' ||| ဘိ သိက် ||| 0.777778 0.111111 0.111111 0.777778 0.111111 0.111111
bei' za- ||| ဖိတ် စ ||| 0.6 0.2 0.2 0.6 0.2 0.2
bei' ||| ပိ ||| 0.6 0.2 0.2 0.6 0.2 0.2
bei' ||| ပိတ် ||| 0.963636 0.0181818 0.0181818 0.963636 0.0181818 0.0181818
bei' ||| ဖိတ် ||| 0.777778 0.111111 0.111111 0.777778 0.111111 0.111111
bei' ||| ဗိ ||| 0.714286 0.142857 0.142857 0.714286 0.142857 0.142857
bei' ||| ဘိ ||| 0.846154 0.0769231 0.0769231 0.846154 0.0769231 0.0769231
bei' ||| ဘိက် ||| 0.6 0.2 0.2 0.6 0.2 0.2
bei: ||| ပေး ||| 0.953488 0.0232558 0.0232558 0.953488 0.0232558 0.0232558
bei: ||| ဘေး ||| 0.974026 0.012987 0.012987 0.974026 0.012987 0.012987
bein du. ||| ဗိန် ဒု ||| 0.6 0.2 0.2 0.6 0.2 0.2
bein ||| ပိန် ||| 0.714286 0.142857 0.142857 0.714286 0.142857 0.142857
bein ||| ဗိန် ||| 0.714286 0.142857 0.142857 0.714286 0.142857 0.142857
bein: ||| ပိန်း ||| 0.894737 0.0526316 0.0526316 0.894737 0.0526316 0.0526316
bein: ||| ပြိန်း ||| 0.6 0.2 0.2 0.6 0.2 0.2
bein: ||| ဗိန် ||| 0.6 0.2 0.2 0.6 0.2 0.2
bein: ||| ဗိန်း ||| 0.6 0.2 0.2 0.6 0.2 0.2
bein: ||| ဘိန်း ||| 0.846154 0.0769231 0.0769231 0.846154 0.0769231 0.0769231
bein: ||| ဘီး ||| 0.882353 0.0588235 0.0588235 0.882353 0.0588235 0.0588235
bi ||| ပီ ||| 0.777778 0.111111 0.111111 0.777778 0.111111 0.111111
bi ||| ဖီ ||| 0.777778 0.111111 0.111111 0.777778 0.111111 0.111111
bi ||| ဗီ ||| 0.882353 0.0588235 0.0588235 0.882353 0.0588235 0.0588235
bi ||| ဘင် ||| 0.6 0.2 0.2 0.6 0.2 0.2
bi ||| ဘစ် ||| 0.6 0.2 0.2 0.6 0.2 0.2
bi ||| ဘိ ||| 0.6 0.2 0.2 0.6 0.2 0.2
bi ||| ဘီ ||| 0.948718 0.025641 0.025641 0.948718 0.025641 0.025641
bi. la' ||| ဘိ လပ် ||| 0.714286 0.142857 0.142857 0.714286 0.142857 0.142857
bi. ||| ပိ ||| 0.894737 0.0526316 0.0526316 0.894737 0.0526316 0.0526316
bi. ||| ဖိ ||| 0.818182 0.0909091 0.0909091 0.818182 0.0909091 0.0909091
bi. ||| ဗိ ||| 0.714286 0.142857 0.142857 0.714286 0.142857 0.142857
bi. ||| ဘိ ||| 0.894737 0.0526316 0.0526316 0.894737 0.0526316 0.0526316
bin bau' ||| ပင် ပေါက် ||| 0.6 0.2 0.2 0.6 0.2 0.2
bin ||| ပင် ||| 0.978022 0.010989 0.010989 0.978022 0.010989 0.010989
bin ||| ဗင် ||| 0.6 0.2 0.2 0.6 0.2 0.2
bin ||| ဘင် ||| 0.948718 0.025641 0.025641 0.948718 0.025641 0.025641
bin: ||| ပင်း ||| 0.935484 0.0322581 0.0322581 0.935484 0.0322581 0.0322581
bin: ||| ဘင် ||| 0.6 0.2 0.2 0.6 0.2 0.2
bja ga- ||| ပျာ က ||| 0.6 0.2 0.2 0.6 0.2 0.2
bja ||| ပျာ ||| 0.866667 0.0666667 0.0666667 0.866667 0.0666667 0.0666667
bja ||| ပြာ ||| 0.913043 0.0434783 0.0434783 0.913043 0.0434783 0.0434783
bja ||| ဖျာ ||| 0.6 0.2 0.2 0.6 0.2 0.2
bja ||| ဖြာ ||| 0.6 0.2 0.2 0.6 0.2 0.2
bja ||| ဗျာ ||| 0.925926 0.037037 0.037037 0.925926 0.037037 0.037037
bja ||| ဗြာ ||| 0.714286 0.142857 0.142857 0.714286 0.142857 0.142857
bja' ||| ပျပ် ||| 0.6 0.2 0.2 0.6 0.2 0.2
bja' ||| ပြတ် ||| 0.894737 0.0526316 0.0526316 0.894737 0.0526316 0.0526316
bja' ||| ဖြတ် ||| 0.882353 0.0588235 0.0588235 0.882353 0.0588235 0.0588235
bja' ||| ဗျတ် ||| 0.714286 0.142857 0.142857 0.714286 0.142857 0.142857
bja' ||| ဗျပ် ||| 0.777778 0.111111 0.111111 0.777778 0.111111 0.111111
bja' ||| ဗြတ် ||| 0.6 0.2 0.2 0.6 0.2 0.2
bja. ||| ပျ ||| 0.714286 0.142857 0.142857 0.714286 0.142857 0.142857
bja. ||| ပြ ||| 0.945946 0.027027 0.027027 0.945946 0.027027 0.027027
bja. ||| ဖြ ||| 0.714286 0.142857 0.142857 0.714286 0.142857 0.142857
bja. ||| ဗျ ||| 0.714286 0.142857 0.142857 0.714286 0.142857 0.142857
bja: ||| ပျား ||| 0.714286 0.142857 0.142857 0.714286 0.142857 0.142857
bja: ||| ပြား ||| 0.972603 0.0136986 0.0136986 0.972603 0.0136986 0.0136986
bja: ||| ဖျား ||| 0.939394 0.030303 0.030303 0.939394 0.030303 0.030303
bja: ||| ဖြား ||| 0.6 0.2 0.2 0.6 0.2 0.2
bja: ||| ဗြား ||| 0.6 0.2 0.2 0.6 0.2 0.2
bjai' ||| ပြိုက် ||| 0.714286 0.142857 0.142857 0.714286 0.142857 0.142857
bjain ||| ပြိုင် ||| 0.866667 0.0666667 0.0666667 0.866667 0.0666667 0.0666667
bjain ||| ဖြိုင် ||| 0.6 0.2 0.2 0.6 0.2 0.2
bjan ||| ပျံ ||| 0.945946 0.027027 0.027027 0.945946 0.027027 0.027027
bjan ||| ပြန် ||| 0.977011 0.0114943 0.0114943 0.977011 0.0114943 0.0114943
bjan ||| ဖျန် ||| 0.6 0.2 0.2 0.6 0.2 0.2
bjan. ||| ပြန့် ||| 0.6 0.2 0.2 0.6 0.2 0.2
bjau' ||| ပျောက် ||| 0.818182 0.0909091 0.0909091 0.818182 0.0909091 0.0909091
bjau' ||| ပြောက် ||| 0.894737 0.0526316 0.0526316 0.894737 0.0526316 0.0526316
bjau' ||| ဖျောက် ||| 0.6 0.2 0.2 0.6 0.2 0.2
bjau' ||| ဖြောက် ||| 0.6 0.2 0.2 0.6 0.2 0.2
bjau' ||| ဗြောက် ||| 0.6 0.2 0.2 0.6 0.2 0.2
bjaun ||| ပြောင် ||| 0.913043 0.0434783 0.0434783 0.913043 0.0434783 0.0434783
bjaun ||| ဗြောင် ||| 0.714286 0.142857 0.142857 0.714286 0.142857 0.142857
bje' si: ||| မြက် စည်း ||| 0.777778 0.111111 0.111111 0.777778 0.111111 0.111111
bje' ||| ပျက် ||| 0.942857 0.0285714 0.0285714 0.942857 0.0285714 0.0285714
bje' ||| ပြက် ||| 0.904762 0.047619 0.047619 0.904762 0.047619 0.047619
bje' ||| ဖျက် ||| 0.777778 0.111111 0.111111 0.777778 0.111111 0.111111
bje' ||| ဗျဂ် ||| 0.6 0.2 0.2 0.6 0.2 0.2
bje' ||| မြက် ||| 0.818182 0.0909091 0.0909091 0.818182 0.0909091 0.0909091
bje: ||| ပြေး ||| 0.6 0.2 0.2 0.6 0.2 0.2
bje: ||| ပြဲ ||| 0.777778 0.111111 0.111111 0.777778 0.111111 0.111111
bje: ||| ဖြဲ ||| 0.777778 0.111111 0.111111 0.777778 0.111111 0.111111
bje: ||| ဗြဲ ||| 0.6 0.2 0.2 0.6 0.2 0.2
bjei ||| ပြည့် ||| 0.714286 0.142857 0.142857 0.714286 0.142857 0.142857
bjei ||| ပြည် ||| 0.714286 0.142857 0.142857 0.714286 0.142857 0.142857
bjei ||| ပြေ ||| 0.935484 0.0322581 0.0322581 0.935484 0.0322581 0.0322581
bjei ||| ဖြေ ||| 0.714286 0.142857 0.142857 0.714286 0.142857 0.142857
bjei. ||| ပြည့် ||| 0.866667 0.0666667 0.0666667 0.866667 0.0666667 0.0666667
bjei: ||| ပြေး ||| 0.95122 0.0243902 0.0243902 0.95122 0.0243902 0.0243902
bjei: ||| ဖြည်း ||| 0.714286 0.142857 0.142857 0.714286 0.142857 0.142857
bji' tau' ||| ဖျစ် တောက် ||| 0.6 0.2 0.2 0.6 0.2 0.2
bji' ||| ပစ် ||| 0.931034 0.0344828 0.0344828 0.931034 0.0344828 0.0344828
bji' ||| ပျစ် ||| 0.939394 0.030303 0.030303 0.939394 0.030303 0.030303
bji' ||| ပြစ် ||| 0.714286 0.142857 0.142857 0.714286 0.142857 0.142857
bji' ||| ဖျစ် ||| 0.6 0.2 0.2 0.6 0.2 0.2
bji' ||| ဖြစ် ||| 0.882353 0.0588235 0.0588235 0.882353 0.0588235 0.0588235
bji' ||| ဗျစ် ||| 0.714286 0.142857 0.142857 0.714286 0.142857 0.142857
bji. ||| ပည့် ||| 0.6 0.2 0.2 0.6 0.2 0.2
bji. ||| ပြည့် ||| 0.846154 0.0769231 0.0769231 0.846154 0.0769231 0.0769231
bji: ||| ပည်း ||| 0.714286 0.142857 0.142857 0.714286 0.142857 0.142857
bji: ||| ပြည့် ||| 0.6 0.2 0.2 0.6 0.2 0.2
bji: ||| ပြည်း ||| 0.714286 0.142857 0.142857 0.714286 0.142857 0.142857
bji: ||| ပြီး ||| 0.777778 0.111111 0.111111 0.777778 0.111111 0.111111
bji: ||| ဖြည်း ||| 0.6 0.2 0.2 0.6 0.2 0.2
bji: ||| ဖြဲ ||| 0.6 0.2 0.2 0.6 0.2 0.2
bji: ||| ဗျည်း ||| 0.818182 0.0909091 0.0909091 0.818182 0.0909091 0.0909091
bjin ka- na: ||| ပြင် က နား ||| 0.6 0.2 0.2 0.6 0.2 0.2
bjin ka- ||| ပြင် က ||| 0.6 0.2 0.2 0.6 0.2 0.2
bjin nji ||| ပြင် ညီ ||| 0.6 0.2 0.2 0.6 0.2 0.2
bjin ||| ပျင် ||| 0.6 0.2 0.2 0.6 0.2 0.2
bjin ||| ပျဉ် ||| 0.882353 0.0588235 0.0588235 0.882353 0.0588235 0.0588235
bjin ||| ပြင် ||| 0.968254 0.015873 0.015873 0.968254 0.015873 0.015873
bjin ||| ဖျင် ||| 0.6 0.2 0.2 0.6 0.2 0.2
bjin ||| ဗျဉ် ||| 0.6 0.2 0.2 0.6 0.2 0.2
bjin: ||| ပျင်း ||| 0.6 0.2 0.2 0.6 0.2 0.2
bjin: ||| ပျဉ်း ||| 0.846154 0.0769231 0.0769231 0.846154 0.0769231 0.0769231
bjin: ||| ပြင်း ||| 0.92 0.04 0.04 0.92 0.04 0.04
bjin: ||| ဖျင်း ||| 0.6 0.2 0.2 0.6 0.2 0.2
bjin: ||| ဖျဉ်း ||| 0.714286 0.142857 0.142857 0.714286 0.142857 0.142857
bjin: ||| ဗျင်း ||| 0.6 0.2 0.2 0.6 0.2 0.2
bjin: ||| ဗြင်း ||| 0.777778 0.111111 0.111111 0.777778 0.111111 0.111111
bjo ||| ဖြော် ||| 0.6 0.2 0.2 0.6 0.2 0.2
bjo: ||| ပျော ||| 0.6 0.2 0.2 0.6 0.2 0.2
bjo: ||| ပြော ||| 0.925926 0.037037 0.037037 0.925926 0.037037 0.037037
bjo: ||| ဖြော ||| 0.6 0.2 0.2 0.6 0.2 0.2
bjou' ||| ပြုတ် ||| 0.777778 0.111111 0.111111 0.777778 0.111111 0.111111
bjou' ||| ပြုပ် ||| 0.818182 0.0909091 0.0909091 0.818182 0.0909091 0.0909091
bjou' ||| ဗျုပ် ||| 0.6 0.2 0.2 0.6 0.2 0.2
bjou' ||| ဗြုတ် ||| 0.6 0.2 0.2 0.6 0.2 0.2
bjou: ||| ပြိုး ||| 0.777778 0.111111 0.111111 0.777778 0.111111 0.111111
bjou: ||| ဖြိုး ||| 0.6 0.2 0.2 0.6 0.2 0.2
bjou: ||| ဗျိုး ||| 0.714286 0.142857 0.142857 0.714286 0.142857 0.142857
bjoun: za: ||| ဗြုန်း စား ||| 0.6 0.2 0.2 0.6 0.2 0.2
bjoun: ||| ပြုန်း ||| 0.6 0.2 0.2 0.6 0.2 0.2
bjoun: ||| ပြုံး ||| 0.777778 0.111111 0.111111 0.777778 0.111111 0.111111
bjoun: ||| ဖြုန်း ||| 0.714286 0.142857 0.142857 0.714286 0.142857 0.142857
bjoun: ||| ဗြုန်း ||| 0.866667 0.0666667 0.0666667 0.866667 0.0666667 0.0666667
bjoun: ||| ဗြုံး ||| 0.6 0.2 0.2 0.6 0.2 0.2
bju ha ||| ဗျူ ဟာ ||| 0.846154 0.0769231 0.0769231 0.846154 0.0769231 0.0769231
bju rou ka- ||| ဗျူ ရို က ||| 0.6 0.2 0.2 0.6 0.2 0.2
bju rou ||| ဗျူ ရို ||| 0.714286 0.142857 0.142857 0.714286 0.142857 0.142857
bju ||| ဖြူ ||| 0.957447 0.0212766 0.0212766 0.957447 0.0212766 0.0212766
bju ||| ဗျူ ||| 0.882353 0.0588235 0.0588235 0.882353 0.0588235 0.0588235
bju: ||| ပြူး ||| 0.846154 0.0769231 0.0769231 0.846154 0.0769231 0.0769231
bju: ||| ဖြူး ||| 0.777778 0.111111 0.111111 0.777778 0.111111 0.111111
bju: ||| ဗြူး ||| 0.777778 0.111111 0.111111 0.777778 0.111111 0.111111
bo gyo. ||| ပေါ် ကြော့ ||| 0.6 0.2 0.2 0.6 0.2 0.2
bo njhi. ||| ဖော် ညှိ ||| 0.6 0.2 0.2 0.6 0.2 0.2
bo win ||| ဖော် ဝင် ||| 0.6 0.2 0.2 0.6 0.2 0.2
bo ||| ပေါ် ||| 0.95122 0.0243902 0.0243902 0.95122 0.0243902 0.0243902
bo ||| ဖော် ||| 0.913043 0.0434783 0.0434783 0.913043 0.0434783 0.0434783
bo ||| ဘော ||| 0.6 0.2 0.2 0.6 0.2 0.2
bo ||| ဘော် ||| 0.942857 0.0285714 0.0285714 0.942857 0.0285714 0.0285714
bo. ||| ပေါ့ ||| 0.904762 0.047619 0.047619 0.904762 0.047619 0.047619
bo. ||| ဖော့ ||| 0.714286 0.142857 0.142857 0.714286 0.142857 0.142857
bo. ||| ဗော့ ||| 0.6 0.2 0.2 0.6 0.2 0.2
bo. ||| ဘော့ ||| 0.6 0.2 0.2 0.6 0.2 0.2
bo: ||| ပေါ ||| 0.882353 0.0588235 0.0588235 0.882353 0.0588235 0.0588235
bo: ||| ဖော ||| 0.714286 0.142857 0.142857 0.714286 0.142857 0.142857
bo: ||| ဗော ||| 0.882353 0.0588235 0.0588235 0.882353 0.0588235 0.0588235
bo: ||| ဘော ||| 0.987578 0.00621118 0.00621118 0.987578 0.00621118 0.00621118
bou gyou' ||| ဗိုလ် ချုပ် ||| 0.714286 0.142857 0.142857 0.714286 0.142857 0.142857
bou ||| ပို ||| 0.913043 0.0434783 0.0434783 0.913043 0.0434783 0.0434783
bou ||| ဖို ||| 0.942857 0.0285714 0.0285714 0.942857 0.0285714 0.0285714
bou ||| ဗိုလ် ||| 0.964912 0.0175439 0.0175439 0.964912 0.0175439 0.0175439
bou ||| ဘို ||| 0.6 0.2 0.2 0.6 0.2 0.2
bou ||| ဘုံ ||| 0.714286 0.142857 0.142857 0.714286 0.142857 0.142857
bou' da. ||| ဗုဒ် ဓ ||| 0.846154 0.0769231 0.0769231 0.846154 0.0769231 0.0769231
bou' ta- lou' ||| ပုတ် တ လုတ် ||| 0.6 0.2 0.2 0.6 0.2 0.2
bou' ta- ||| ပုတ် တ ||| 0.6 0.2 0.2 0.6 0.2 0.2
bou' ||| ပုတ် ||| 0.904762 0.047619 0.047619 0.904762 0.047619 0.047619
bou' ||| ပုဒ် ||| 0.846154 0.0769231 0.0769231 0.846154 0.0769231 0.0769231
bou' ||| ပုပ် ||| 0.939394 0.030303 0.030303 0.939394 0.030303 0.030303
bou' ||| ပုသ် ||| 0.913043 0.0434783 0.0434783 0.913043 0.0434783 0.0434783
bou' ||| ဖုတ် ||| 0.818182 0.0909091 0.0909091 0.818182 0.0909091 0.0909091
bou' ||| ဗုဒ် ||| 0.92 0.04 0.04 0.92 0.04 0.04
bou' ||| ဘုတ် ||| 0.939394 0.030303 0.030303 0.939394 0.030303 0.030303
bou: ||| ပိုး ||| 0.969231 0.0153846 0.0153846 0.969231 0.0153846 0.0153846
bou: ||| ဖိုး ||| 0.931034 0.0344828 0.0344828 0.931034 0.0344828 0.0344828
bou: ||| ဗိုး ||| 0.6 0.2 0.2 0.6 0.2 0.2
bou: ||| ဘိုး ||| 0.818182 0.0909091 0.0909091 0.818182 0.0909091 0.0909091
boun dau' ||| ဗုံ ထောက် ||| 0.6 0.2 0.2 0.6 0.2 0.2
boun ||| ပုန် ||| 0.777778 0.111111 0.111111 0.777778 0.111111 0.111111
boun ||| ပုံ ||| 0.978022 0.010989 0.010989 0.978022 0.010989 0.010989
boun ||| ဖုန် ||| 0.714286 0.142857 0.142857 0.714286 0.142857 0.142857
boun ||| ဖုံ ||| 0.6 0.2 0.2 0.6 0.2 0.2
boun ||| ဗုံ ||| 0.92 0.04 0.04 0.92 0.04 0.04
boun ||| ဘု ||| 0.6 0.2 0.2 0.6 0.2 0.2
boun ||| ဘုမ် ||| 0.714286 0.142857 0.142857 0.714286 0.142857 0.142857
boun ||| ဘုံ ||| 0.95122 0.0243902 0.0243902 0.95122 0.0243902 0.0243902
boun: ||| ပုန်း ||| 0.945946 0.027027 0.027027 0.945946 0.027027 0.027027
boun: ||| ပုံး ||| 0.882353 0.0588235 0.0588235 0.882353 0.0588235 0.0588235
boun: ||| ပေါင်း ||| 0.6 0.2 0.2 0.6 0.2 0.2
boun: ||| ဖုံး ||| 0.904762 0.047619 0.047619 0.904762 0.047619 0.047619
boun: ||| ဗုန်း ||| 0.818182 0.0909091 0.0909091 0.818182 0.0909091 0.0909091
boun: ||| ဗုံး ||| 0.931034 0.0344828 0.0344828 0.931034 0.0344828 0.0344828
boun: ||| ဘုန်း ||| 0.6 0.2 0.2 0.6 0.2 0.2
boun: ||| ဘောင်း ||| 0.6 0.2 0.2 0.6 0.2 0.2
bu ||| ပူ ||| 0.962264 0.0188679 0.0188679 0.962264 0.0188679 0.0188679
bu ||| ဗူ ||| 0.777778 0.111111 0.111111 0.777778 0.111111 0.111111
bu ||| ဘူ ||| 0.931034 0.0344828 0.0344828 0.931034 0.0344828 0.0344828
bu ||| ဘူး ||| 0.6 0.2 0.2 0.6 0.2 0.2
bu' ||| ပွတ် ||| 0.942857 0.0285714 0.0285714 0.942857 0.0285714 0.0285714
bu' ||| ဗွတ် ||| 0.846154 0.0769231 0.0769231 0.846154 0.0769231 0.0769231
bu' ||| ဘွတ် ||| 0.6 0.2 0.2 0.6 0.2 0.2
bu. ||| ခု ||| 0.6 0.2 0.2 0.6 0.2 0.2
bu. ||| ပု ||| 0.714286 0.142857 0.142857 0.714286 0.142857 0.142857
bu. ||| ဖု ||| 0.882353 0.0588235 0.0588235 0.882353 0.0588235 0.0588235
bu. ||| ဗု ||| 0.6 0.2 0.2 0.6 0.2 0.2
bu. ||| ဘု ||| 0.866667 0.0666667 0.0666667 0.866667 0.0666667 0.0666667
bu: dhi: ||| ဘူး သီး ||| 0.6 0.2 0.2 0.6 0.2 0.2
bu: ||| ပူး ||| 0.714286 0.142857 0.142857 0.714286 0.142857 0.142857
bu: ||| ဖူး ||| 0.939394 0.030303 0.030303 0.939394 0.030303 0.030303
bu: ||| ဗူး ||| 0.6 0.2 0.2 0.6 0.2 0.2
bu: ||| ဘူး ||| 0.966102 0.0169492 0.0169492 0.966102 0.0169492 0.0169492
bwa: bwa: ||| ဘွား ဘွား ||| 0.6 0.2 0.2 0.6 0.2 0.2
bwa: ||| ပွား ||| 0.948718 0.025641 0.025641 0.948718 0.025641 0.025641
bwa: ||| ဖား ||| 0.6 0.2 0.2 0.6 0.2 0.2
bwa: ||| ဖွား ||| 0.777778 0.111111 0.111111 0.777778 0.111111 0.111111
bwa: ||| ဘွား ||| 0.866667 0.0666667 0.0666667 0.866667 0.0666667 0.0666667
bwe ||| ဖွယ် ||| 0.882353 0.0588235 0.0588235 0.882353 0.0588235 0.0588235
bwe. ||| ဖွဲ့ ||| 0.714286 0.142857 0.142857 0.714286 0.142857 0.142857
bwe. ||| ဘွဲ့ ||| 0.894737 0.0526316 0.0526316 0.894737 0.0526316 0.0526316
bwe: dou: ||| ပွဲ ထိုး ||| 0.6 0.2 0.2 0.6 0.2 0.2
bwe: ||| ပွဲ ||| 0.985612 0.00719424 0.00719424 0.985612 0.00719424 0.00719424
bwe: ||| ဖွဲ ||| 0.777778 0.111111 0.111111 0.777778 0.111111 0.111111
bwei ||| ပွေ ||| 0.714286 0.142857 0.142857 0.714286 0.142857 0.142857
bwei ||| ဗွေ ||| 0.935484 0.0322581 0.0322581 0.935484 0.0322581 0.0322581
bwei: ||| ပွေး ||| 0.777778 0.111111 0.111111 0.777778 0.111111 0.111111
bwei: ||| ဖွေး ||| 0.6 0.2 0.2 0.6 0.2 0.2
bwi: ||| ဗွီး ||| 0.6 0.2 0.2 0.6 0.2 0.2
bwin. ||| ပွင့် ||| 0.92 0.04 0.04 0.92 0.04 0.04
cha ||| ချ ||| 0.714286 0.142857 0.142857 0.714286 0.142857 0.142857
cha ||| ချာ ||| 0.968254 0.015873 0.015873 0.968254 0.015873 0.015873
cha ||| ခြာ ||| 0.866667 0.0666667 0.0666667 0.866667 0.0666667 0.0666667
cha' ||| ကြပ် ||| 0.6 0.2 0.2 0.6 0.2 0.2
cha' ||| ချပ် ||| 0.913043 0.0434783 0.0434783 0.913043 0.0434783 0.0434783
cha. ||| ချ ||| 0.991903 0.00404858 0.00404858 0.991903 0.00404858 0.00404858
cha. ||| ခြ ||| 0.818182 0.0909091 0.0909091 0.818182 0.0909091 0.0909091
cha: ||| ချ ||| 0.6 0.2 0.2 0.6 0.2 0.2
cha: ||| ချား ||| 0.904762 0.047619 0.047619 0.904762 0.047619 0.047619
cha: ||| ခြား ||| 0.935484 0.0322581 0.0322581 0.935484 0.0322581 0.0322581
chai' ||| ခြိုက် ||| 0.866667 0.0666667 0.0666667 0.866667 0.0666667 0.0666667
chain. ||| ချိုင့် ||| 0.714286 0.142857 0.142857 0.714286 0.142857 0.142857
chan: ||| ချမ်း ||| 0.939394 0.030303 0.030303 0.939394 0.030303 0.030303
chan: ||| ခြမ်း ||| 0.92 0.04 0.04 0.92 0.04 0.04
chan: ||| ခြံ ||| 0.6 0.2 0.2 0.6 0.2 0.2
chau' chau' ||| ခြောက် ခြောက် ||| 0.6 0.2 0.2 0.6 0.2 0.2
chau' che' ||| ချောက် ချက် ||| 0.6 0.2 0.2 0.6 0.2 0.2
chau' loun: ||| ခြောက် လုံး ||| 0.714286 0.142857 0.142857 0.714286 0.142857 0.142857
chau' ||| ချောက် ||| 0.882353 0.0588235 0.0588235 0.882353 0.0588235 0.0588235
chau' ||| ခြောက် ||| 0.976471 0.0117647 0.0117647 0.976471 0.0117647 0.0117647
chaun kya. ||| ချောင် ကျ ||| 0.6 0.2 0.2 0.6 0.2 0.2
chaun ||| ချောင် ||| 0.939394 0.030303 0.030303 0.939394 0.030303 0.030303
chaun: gyaun: ||| ခြောင်း ခြောင်း ||| 0.6 0.2 0.2 0.6 0.2 0.2
chaun: ngin ||| ချောင်း ငင် ||| 0.714286 0.142857 0.142857 0.714286 0.142857 0.142857
chaun: ||| ချောင်း ||| 0.971014 0.0144928 0.0144928 0.971014 0.0144928 0.0144928
chaun: ||| ခြောင်း ||| 0.714286 0.142857 0.142857 0.714286 0.142857 0.142857
che ||| ချယ် ||| 0.846154 0.0769231 0.0769231 0.846154 0.0769231 0.0769231
che ||| ချဲ့ ||| 0.714286 0.142857 0.142857 0.714286 0.142857 0.142857
che ||| ခြယ် ||| 0.866667 0.0666667 0.0666667 0.866667 0.0666667 0.0666667
che' chin: ||| ချက် ချင်း ||| 0.6 0.2 0.2 0.6 0.2 0.2
che' ||| ချက် ||| 0.982609 0.00869565 0.00869565 0.982609 0.00869565 0.00869565
chei ba- ||| ခြေ ဖ ||| 0.777778 0.111111 0.111111 0.777778 0.111111 0.111111
chei dau' ||| ခြေ ထောက် ||| 0.6 0.2 0.2 0.6 0.2 0.2
chei gyin: ||| ခြေ ချင်း ||| 0.6 0.2 0.2 0.6 0.2 0.2
chei ||| ချေ ||| 0.939394 0.030303 0.030303 0.939394 0.030303 0.030303
chei ||| ခြည် ||| 0.6 0.2 0.2 0.6 0.2 0.2
chei ||| ခြေ ||| 0.987879 0.00606061 0.00606061 0.987879 0.00606061 0.00606061
chei' pei' ||| ချိပ် ပိတ် ||| 0.6 0.2 0.2 0.6 0.2 0.2
chei' ||| ချိတ် ||| 0.925926 0.037037 0.037037 0.925926 0.037037 0.037037
chei' ||| ချိပ် ||| 0.904762 0.047619 0.047619 0.904762 0.047619 0.047619
chein gwin ||| ချိန် ခွင် ||| 0.846154 0.0769231 0.0769231 0.846154 0.0769231 0.0769231
chein shi. ||| ချိန် ရှိ ||| 0.6 0.2 0.2 0.6 0.2 0.2
chein ||| ချိန် ||| 0.978495 0.0107527 0.0107527 0.978495 0.0107527 0.0107527
chein. gyein. ||| ခြိမ့် ခြိမ့် ||| 0.6 0.2 0.2 0.6 0.2 0.2
chein. ||| ခြိမ့် ||| 0.6 0.2 0.2 0.6 0.2 0.2
chi gyin: ||| ခြေ ချင်း ||| 0.818182 0.0909091 0.0909091 0.818182 0.0909091 0.0909091
chi gyou' ||| ခြေ ချုပ် ||| 0.6 0.2 0.2 0.6 0.2 0.2
chi ||| ချည် ||| 0.966102 0.0169492 0.0169492 0.966102 0.0169492 0.0169492
chi ||| ချိ ||| 0.6 0.2 0.2 0.6 0.2 0.2
chi ||| ချီ ||| 0.942857 0.0285714 0.0285714 0.942857 0.0285714 0.0285714
chi ||| ချေ ||| 0.6 0.2 0.2 0.6 0.2 0.2
chi ||| ခြည် ||| 0.882353 0.0588235 0.0588235 0.882353 0.0588235 0.0588235
chi ||| ခြယ် ||| 0.6 0.2 0.2 0.6 0.2 0.2
chi ||| ခြေ ||| 0.986014 0.00699301 0.00699301 0.986014 0.00699301 0.00699301
chi' ||| ချစ် ||| 0.866667 0.0666667 0.0666667 0.866667 0.0666667 0.0666667
chi' ||| ခြစ် ||| 0.818182 0.0909091 0.0909091 0.818182 0.0909091 0.0909091
chi' ||| ခြည် ||| 0.6 0.2 0.2 0.6 0.2 0.2
chi. ||| ချည့် ||| 0.846154 0.0769231 0.0769231 0.846154 0.0769231 0.0769231
chi. ||| ချိ ||| 0.866667 0.0666667 0.0666667 0.866667 0.0666667 0.0666667
chi: mun: ||| ချီး မွမ်း ||| 0.6 0.2 0.2 0.6 0.2 0.2
chi: ||| ချည်း ||| 0.818182 0.0909091 0.0909091 0.818182 0.0909091 0.0909091
chi: ||| ချီး ||| 0.925926 0.037037 0.037037 0.925926 0.037037 0.037037
chi: ||| ချေး ||| 0.92 0.04 0.04 0.92 0.04 0.04
chi: ||| ခြည်း ||| 0.6 0.2 0.2 0.6 0.2 0.2
chin dhei. ||| ခြင် သေ့ ||| 0.777778 0.111111 0.111111 0.777778 0.111111 0.111111
chin zi ||| ခြင် ဆီ ||| 0.6 0.2 0.2 0.6 0.2 0.2
chin ||| ချင် ||| 0.894737 0.0526316 0.0526316 0.894737 0.0526316 0.0526316
chin ||| ချဉ် ||| 0.953488 0.0232558 0.0232558 0.953488 0.0232558 0.0232558
chin ||| ချည် ||| 0.6 0.2 0.2 0.6 0.2 0.2
chin ||| ခြင် ||| 0.931034 0.0344828 0.0344828 0.931034 0.0344828 0.0344828
chin. ||| ချင့် ||| 0.882353 0.0588235 0.0588235 0.882353 0.0588235 0.0588235
chin: ||| ကျင်း ||| 0.6 0.2 0.2 0.6 0.2 0.2
chin: ||| ချင်း ||| 0.971831 0.0140845 0.0140845 0.971831 0.0140845 0.0140845
chin: ||| ချဉ်း ||| 0.714286 0.142857 0.142857 0.714286 0.142857 0.142857
chin: ||| ခြင်း ||| 0.925926 0.037037 0.037037 0.925926 0.037037 0.037037
cho ||| ချော် ||| 0.939394 0.030303 0.030303 0.939394 0.030303 0.030303
cho: ||| ချော ||| 0.955556 0.0222222 0.0222222 0.955556 0.0222222 0.0222222
chou chin ||| ချို ချဉ် ||| 0.6 0.2 0.2 0.6 0.2 0.2
chou ||| ချို ||| 0.953488 0.0232558 0.0232558 0.953488 0.0232558 0.0232558
chou' a- ||| ချုပ် အ ||| 0.818182 0.0909091 0.0909091 0.818182 0.0909091 0.0909091
chou' ||| ချုပ် ||| 0.980952 0.00952381 0.00952381 0.980952 0.00952381 0.00952381
chou' ||| ခြုတ် ||| 0.714286 0.142857 0.142857 0.714286 0.142857 0.142857
chou' ||| ခြုပ် ||| 0.777778 0.111111 0.111111 0.777778 0.111111 0.111111
chou' ||| ခြောက် ||| 0.6 0.2 0.2 0.6 0.2 0.2
chou: ||| ချိုး ||| 0.968254 0.015873 0.015873 0.968254 0.015873 0.015873
choun ||| ချုံ ||| 0.714286 0.142857 0.142857 0.714286 0.142857 0.142857
choun ||| ခြုံ ||| 0.866667 0.0666667 0.0666667 0.866667 0.0666667 0.0666667
choun: ||| ချုန်း ||| 0.777778 0.111111 0.111111 0.777778 0.111111 0.111111
choun: ||| ချုံး ||| 0.777778 0.111111 0.111111 0.777778 0.111111 0.111111
chu' ||| ချွတ် ||| 0.955556 0.0222222 0.0222222 0.955556 0.0222222 0.0222222
chu: ||| ခြူး ||| 0.777778 0.111111 0.111111 0.777778 0.111111 0.111111
chun ||| ချွန် ||| 0.866667 0.0666667 0.0666667 0.866667 0.0666667 0.0666667
chun ||| ချွံ ||| 0.777778 0.111111 0.111111 0.777778 0.111111 0.111111
chun: ||| ချွန်း ||| 0.904762 0.047619 0.047619 0.904762 0.047619 0.047619
chwe: ||| ချွဲ ||| 0.931034 0.0344828 0.0344828 0.931034 0.0344828 0.0344828
chwei: ||| ချွေး ||| 0.957447 0.0212766 0.0212766 0.957447 0.0212766 0.0212766
da li ||| ဒါ လီ ||| 0.714286 0.142857 0.142857 0.714286 0.142857 0.142857
da na. ||| ဒါ န ||| 0.818182 0.0909091 0.0909091 0.818182 0.0909091 0.0909091
da na. ||| ဓာ န ||| 0.714286 0.142857 0.142857 0.714286 0.142857 0.142857
da ||| ဋာ ||| 0.714286 0.142857 0.142857 0.714286 0.142857 0.142857
da ||| ဍာ ||| 0.894737 0.0526316 0.0526316 0.894737 0.0526316 0.0526316
da ||| ဍား ||| 0.6 0.2 0.2 0.6 0.2 0.2
da ||| တ ||| 0.866667 0.0666667 0.0666667 0.866667 0.0666667 0.0666667
da ||| တစ် ||| 0.818182 0.0909091 0.0909091 0.818182 0.0909091 0.0909091
da ||| တာ ||| 0.969231 0.0153846 0.0153846 0.969231 0.0153846 0.0153846
da ||| ထိန်း ||| 0.6 0.2 0.2 0.6 0.2 0.2
da ||| ဒ ||| 0.6 0.2 0.2 0.6 0.2 0.2
da ||| ဒါ ||| 0.979798 0.010101 0.010101 0.979798 0.010101 0.010101
da ||| ဒာ ||| 0.714286 0.142857 0.142857 0.714286 0.142857 0.142857
da ||| ဒံ ||| 0.6 0.2 0.2 0.6 0.2 0.2
da ||| ဓ ||| 0.714286 0.142857 0.142857 0.714286 0.142857 0.142857
da ||| ဓါ ||| 0.846154 0.0769231 0.0769231 0.846154 0.0769231 0.0769231
da ||| ဓာ ||| 0.962264 0.0188679 0.0188679 0.962264 0.0188679 0.0188679
da' hsi ||| ဓာတ် ဆီ ||| 0.6 0.2 0.2 0.6 0.2 0.2
da' lai' ||| ဓာတ် လိုက် ||| 0.6 0.2 0.2 0.6 0.2 0.2
da' poun ||| ဓာတ် ပုံ ||| 0.714286 0.142857 0.142857 0.714286 0.142857 0.142857
da' tain ||| ဍပ် တိုင် ||| 0.6 0.2 0.2 0.6 0.2 0.2
da' tha- ka. ||| ဒ သ က ||| 0.6 0.2 0.2 0.6 0.2 0.2
da' tha- ||| ဒ သ ||| 0.777778 0.111111 0.111111 0.777778 0.111111 0.111111
da' tha- ||| ဒ ဿ ||| 0.6 0.2 0.2 0.6 0.2 0.2
da' ||| ဍပ် ||| 0.714286 0.142857 0.142857 0.714286 0.142857 0.142857
da' ||| တတ် ||| 0.945946 0.027027 0.027027 0.945946 0.027027 0.027027
da' ||| တပ် ||| 0.92 0.04 0.04 0.92 0.04 0.04
da' ||| ထပ် ||| 0.92 0.04 0.04 0.92 0.04 0.04
da' ||| ဒ ||| 0.818182 0.0909091 0.0909091 0.818182 0.0909091 0.0909091
da' ||| ဒတ် ||| 0.714286 0.142857 0.142857 0.714286 0.142857 0.142857
da' ||| ဓာတ် ||| 0.984496 0.00775194 0.00775194 0.984496 0.00775194 0.00775194
da- ba' ||| ဍ ပါတ် ||| 0.714286 0.142857 0.142857 0.714286 0.142857 0.142857
da- ba' ||| တ ပတ် ||| 0.6 0.2 0.2 0.6 0.2 0.2
da- ba' ||| တစ် ပတ် ||| 0.846154 0.0769231 0.0769231 0.846154 0.0769231 0.0769231
da- bau' ||| တစ် ပေါက် ||| 0.6 0.2 0.2 0.6 0.2 0.2
da- be. ||| တ ပည့် ||| 0.846154 0.0769231 0.0769231 0.846154 0.0769231 0.0769231
da- bje' si: ||| တံ မြက် စည်း ||| 0.777778 0.111111 0.111111 0.777778 0.111111 0.111111
da- bje' ||| တ ပြက် ||| 0.714286 0.142857 0.142857 0.714286 0.142857 0.142857
da- bje' ||| တစ် ပျက် ||| 0.714286 0.142857 0.142857 0.714286 0.142857 0.142857
da- bje' ||| တစ် ပြက် ||| 0.777778 0.111111 0.111111 0.777778 0.111111 0.111111
da- bje' ||| တံ ပြက် ||| 0.6 0.2 0.2 0.6 0.2 0.2
da- bje' ||| တံ မြက် ||| 0.818182 0.0909091 0.0909091 0.818182 0.0909091 0.0909091
da- bou: ||| တံ ပိုး ||| 0.6 0.2 0.2 0.6 0.2 0.2
da- bou: ||| ထမ်း ပိုး ||| 0.882353 0.0588235 0.0588235 0.882353 0.0588235 0.0588235
da- bwe: ||| တစ် ပွဲ ||| 0.714286 0.142857 0.142857 0.714286 0.142857 0.142857
da- ga ||| တ ကာ ||| 0.882353 0.0588235 0.0588235 0.882353 0.0588235 0.0588235
da- ga ||| ဒ ကာ ||| 0.777778 0.111111 0.111111 0.777778 0.111111 0.111111
da- ga ||| သ ကာ ||| 0.6 0.2 0.2 0.6 0.2 0.2
da- ga- de: ||| တ က တဲ ||| 0.6 0.2 0.2 0.6 0.2 0.2
da- ga- ||| တ က ||| 0.6 0.2 0.2 0.6 0.2 0.2
da- ga- ||| တံ ခါး ||| 0.818182 0.0909091 0.0909091 0.818182 0.0909091 0.0909091
da- ga- ||| ဒ ကာ ||| 0.6 0.2 0.2 0.6 0.2 0.2
da- ga: ||| တံ ခါး ||| 0.904762 0.047619 0.047619 0.904762 0.047619 0.047619
da- gau' ||| တ ကောက် ||| 0.6 0.2 0.2 0.6 0.2 0.2
da- gau' ||| ထန်း ခေါက် ||| 0.6 0.2 0.2 0.6 0.2 0.2
da- gou ||| တစ် ကိုယ် ||| 0.714286 0.142857 0.142857 0.714286 0.142857 0.142857
da- gu: ||| တ ကူး ||| 0.714286 0.142857 0.142857 0.714286 0.142857 0.142857
da- gu: ||| တန် ခူး ||| 0.714286 0.142857 0.142857 0.714286 0.142857 0.142857
da- gu: ||| ဒ ကူး ||| 0.6 0.2 0.2 0.6 0.2 0.2
da- gun ||| တံ ခွန် ||| 0.882353 0.0588235 0.0588235 0.882353 0.0588235 0.0588235
da- gwa. ||| တ ကွ ||| 0.6 0.2 0.2 0.6 0.2 0.2
da- ha' ||| ဒ ဟတ် ||| 0.6 0.2 0.2 0.6 0.2 0.2
da- ja. ||| တ ရ ||| 0.777778 0.111111 0.111111 0.777778 0.111111 0.111111
da- ja. ||| ဒ ယ ||| 0.777778 0.111111 0.111111 0.777778 0.111111 0.111111
da- ja. ||| ဓေ ရ ||| 0.6 0.2 0.2 0.6 0.2 0.2
da- jau' ||| တံ လျှောက် ||| 0.6 0.2 0.2 0.6 0.2 0.2
da- ka. ||| တ က ||| 0.6 0.2 0.2 0.6 0.2 0.2
da- ka. ||| ဒ က ||| 0.6 0.2 0.2 0.6 0.2 0.2
da- ka. ||| ဓ က ||| 0.714286 0.142857 0.142857 0.714286 0.142857 0.142857
da- le' ||| တ လက် ||| 0.6 0.2 0.2 0.6 0.2 0.2
da- le' ||| ဒ လက် ||| 0.714286 0.142857 0.142857 0.714286 0.142857 0.142857
da- lein. ||| တ လိမ့် ||| 0.6 0.2 0.2 0.6 0.2 0.2
da- ma ||| ဓ မာ ||| 0.6 0.2 0.2 0.6 0.2 0.2
da- ma ||| ဓမ် မ ||| 0.6 0.2 0.2 0.6 0.2 0.2
da- ma ||| ဓမ် မာ ||| 0.818182 0.0909091 0.0909091 0.818182 0.0909091 0.0909091
da- ma- ||| ဓ မ ||| 0.6 0.2 0.2 0.6 0.2 0.2
da- ma- ||| ဓမ် မ ||| 0.894737 0.0526316 0.0526316 0.894737 0.0526316 0.0526316
da- ma- ||| ဓား မ ||| 0.6 0.2 0.2 0.6 0.2 0.2
da- ma. ||| တ မ ||| 0.6 0.2 0.2 0.6 0.2 0.2
da- ma. ||| ဒ မ ||| 0.714286 0.142857 0.142857 0.714286 0.142857 0.142857
da- ma. ||| ဓမ် မ ||| 0.931034 0.0344828 0.0344828 0.931034 0.0344828 0.0344828
da- ma. ||| ဓား မ ||| 0.714286 0.142857 0.142857 0.714286 0.142857 0.142857
da- min: ||| ထ မင်း ||| 0.846154 0.0769231 0.0769231 0.846154 0.0769231 0.0769231
da- min: ||| ဓ မင်း ||| 0.777778 0.111111 0.111111 0.777778 0.111111 0.111111
da- min: ||| ဓား မင်း ||| 0.6 0.2 0.2 0.6 0.2 0.2
da- mja. ||| ဓား ပြ ||| 0.777778 0.111111 0.111111 0.777778 0.111111 0.111111
da- na ||| တ နာ ||| 0.894737 0.0526316 0.0526316 0.894737 0.0526316 0.0526316
da- na ||| ဒ နာ ||| 0.714286 0.142857 0.142857 0.714286 0.142857 0.142857
da- na. ||| တ နာ့ ||| 0.6 0.2 0.2 0.6 0.2 0.2
da- na. ||| ဓ န ||| 0.714286 0.142857 0.142857 0.714286 0.142857 0.142857
da- ni. ||| ဓ နိ ||| 0.777778 0.111111 0.111111 0.777778 0.111111 0.111111
da- ra- ||| တ ရ ||| 0.777778 0.111111 0.111111 0.777778 0.111111 0.111111
da- ra- ||| ဒ ရ ||| 0.6 0.2 0.2 0.6 0.2 0.2
da- ra. ||| တ ရ ||| 0.882353 0.0588235 0.0588235 0.882353 0.0588235 0.0588235
da- ra. ||| ဓ ရ ||| 0.714286 0.142857 0.142857 0.714286 0.142857 0.142857
da- re ||| တ ရာယ် ||| 0.714286 0.142857 0.142857 0.714286 0.142857 0.142857
da- rei ||| ဒြေ ||| 0.904762 0.047619 0.047619 0.904762 0.047619 0.047619
da- rei ||| ဓ ရေ ||| 0.6 0.2 0.2 0.6 0.2 0.2
da- wa ||| တ ဝါ ||| 0.846154 0.0769231 0.0769231 0.846154 0.0769231 0.0769231
da- za ||| တန် ဆာ ||| 0.846154 0.0769231 0.0769231 0.846154 0.0769231 0.0769231
da- za ||| တာ စာ ||| 0.6 0.2 0.2 0.6 0.2 0.2
da- za ||| ဓား စာ ||| 0.6 0.2 0.2 0.6 0.2 0.2
da- za. ||| တ ဇ ||| 0.777778 0.111111 0.111111 0.777778 0.111111 0.111111
da- za. ||| တစ် စ ||| 0.818182 0.0909091 0.0909091 0.818182 0.0909091 0.0909091
da- za. ||| ဒ ဇ ||| 0.6 0.2 0.2 0.6 0.2 0.2
da- za. ||| ဓ ဇ ||| 0.714286 0.142857 0.142857 0.714286 0.142857 0.142857
da- zaun: ||| တ စောင်း ||| 0.6 0.2 0.2 0.6 0.2 0.2
da- zaun: ||| တန် ဆောင်း ||| 0.6 0.2 0.2 0.6 0.2 0.2
da- zi: ||| တံ စည်း ||| 0.6 0.2 0.2 0.6 0.2 0.2
da- ||| ကြ ||| 0.6 0.2 0.2 0.6 0.2 0.2
da- ||| စာ ||| 0.6 0.2 0.2 0.6 0.2 0.2
da- ||| ဆိပ် ||| 0.6 0.2 0.2 0.6 0.2 0.2
da- ||| ဋ ||| 0.846154 0.0769231 0.0769231 0.846154 0.0769231 0.0769231
da- ||| ဍ ||| 0.714286 0.142857 0.142857 0.714286 0.142857 0.142857
da- ||| တ ||| 0.9941 0.00294985 0.00294985 0.9941 0.00294985 0.00294985
da- ||| တစ် ||| 0.990148 0.00492611 0.00492611 0.990148 0.00492611 0.00492611
da- ||| တန် ||| 0.935484 0.0322581 0.0322581 0.935484 0.0322581 0.0322581
da- ||| တာ ||| 0.6 0.2 0.2 0.6 0.2 0.2
da- ||| တု ||| 0.6 0.2 0.2 0.6 0.2 0.2
da- ||| တူး ||| 0.6 0.2 0.2 0.6 0.2 0.2
da- ||| တံ ||| 0.987097 0.00645161 0.00645161 0.987097 0.00645161 0.00645161
da- ||| ထ ||| 0.894737 0.0526316 0.0526316 0.894737 0.0526316 0.0526316
da- ||| ထန်း ||| 0.777778 0.111111 0.111111 0.777778 0.111111 0.111111
da- ||| ထမ်း ||| 0.882353 0.0588235 0.0588235 0.882353 0.0588235 0.0588235
da- ||| ထား ||| 0.6 0.2 0.2 0.6 0.2 0.2
da- ||| ဒ ||| 0.980583 0.00970874 0.00970874 0.980583 0.00970874 0.00970874
da- ||| ဒါ ||| 0.6 0.2 0.2 0.6 0.2 0.2
da- ||| ဒါး ||| 0.6 0.2 0.2 0.6 0.2 0.2
da- ||| ဒု ||| 0.6 0.2 0.2 0.6 0.2 0.2
da- ||| ဒြေ ||| 0.714286 0.142857 0.142857 0.714286 0.142857 0.142857
da- ||| ဓ ||| 0.966102 0.0169492 0.0169492 0.966102 0.0169492 0.0169492
da- ||| ဓမ် ||| 0.967213 0.0163934 0.0163934 0.967213 0.0163934 0.0163934
da- ||| ဓား ||| 0.945946 0.027027 0.027027 0.945946 0.027027 0.027027
da- ||| ဓေ ||| 0.6 0.2 0.2 0.6 0.2 0.2
da- ||| သ ||| 0.6 0.2 0.2 0.6 0.2 0.2
da- ||| သူ ||| 0.777778 0.111111 0.111111 0.777778 0.111111 0.111111
da-ra' ||| ဒြပ် ||| 0.777778 0.111111 0.111111 0.777778 0.111111 0.111111
da. ba dha ||| ဓ ဘာ သာ ||| 0.6 0.2 0.2 0.6 0.2 0.2
da. ba ||| ဓ ဘာ ||| 0.6 0.2 0.2 0.6 0.2 0.2
da. ja. ||| ဒ ရ ||| 0.6 0.2 0.2 0.6 0.2 0.2
da. mhain mhain ||| တ မှိုင် မှိုင် ||| 0.6 0.2 0.2 0.6 0.2 0.2
da. mhain ||| တ မှိုင် ||| 0.6 0.2 0.2 0.6 0.2 0.2
da. tha- ka. ||| ဒ သ က ||| 0.846154 0.0769231 0.0769231 0.846154 0.0769231 0.0769231
da. tha- ma. ||| ဒ သ မ ||| 0.6 0.2 0.2 0.6 0.2 0.2
da. tha- ||| ဒ သ ||| 0.866667 0.0666667 0.0666667 0.866667 0.0666667 0.0666667
da. ||| ဍ ||| 0.714286 0.142857 0.142857 0.714286 0.142857 0.142857
da. ||| ဎ ||| 0.6 0.2 0.2 0.6 0.2 0.2
da. ||| တ ||| 0.939394 0.030303 0.030303 0.939394 0.030303 0.030303
da. ||| ထ ||| 0.846154 0.0769231 0.0769231 0.846154 0.0769231 0.0769231
da. ||| ဒ ||| 0.987097 0.00645161 0.00645161 0.987097 0.00645161 0.00645161
da. ||| ဒါ ||| 0.6 0.2 0.2 0.6 0.2 0.2
da. ||| ဓ ||| 0.959184 0.0204082 0.0204082 0.959184 0.0204082 0.0204082
da: ||| တား ||| 0.913043 0.0434783 0.0434783 0.913043 0.0434783 0.0434783
da: ||| ထား ||| 0.913043 0.0434783 0.0434783 0.913043 0.0434783 0.0434783
da: ||| ဒါး ||| 0.818182 0.0909091 0.0909091 0.818182 0.0909091 0.0909091
da: ||| ဒား ||| 0.6 0.2 0.2 0.6 0.2 0.2
da: ||| ဓား ||| 0.939394 0.030303 0.030303 0.939394 0.030303 0.030303
dai' ||| တိုက် ||| 0.974026 0.012987 0.012987 0.974026 0.012987 0.012987
dai' ||| ထိုက် ||| 0.6 0.2 0.2 0.6 0.2 0.2
dai' ||| ဒိုက် ||| 0.6 0.2 0.2 0.6 0.2 0.2
dain jei: ||| တိုင် ရေး ||| 0.6 0.2 0.2 0.6 0.2 0.2
dain kou ||| တိုင် ကိုယ် ||| 0.6 0.2 0.2 0.6 0.2 0.2
dain sai' ||| တိုင် စိုက် ||| 0.6 0.2 0.2 0.6 0.2 0.2
dain ||| ဍိုင် ||| 0.714286 0.142857 0.142857 0.714286 0.142857 0.142857
dain ||| တိုင် ||| 0.983471 0.00826446 0.00826446 0.983471 0.00826446 0.00826446
dain ||| ထိုင် ||| 0.882353 0.0588235 0.0588235 0.882353 0.0588235 0.0588235
dain ||| ဒိုင် ||| 0.913043 0.0434783 0.0434783 0.913043 0.0434783 0.0434783
dain: dain: ||| ဒိုင်း ဒိုင်း ||| 0.777778 0.111111 0.111111 0.777778 0.111111 0.111111
dain: ||| တိုင်း ||| 0.953488 0.0232558 0.0232558 0.953488 0.0232558 0.0232558
dain: ||| ဒိုင်း ||| 0.935484 0.0322581 0.0322581 0.935484 0.0322581 0.0322581
dan ||| ဌာန် ||| 0.818182 0.0909091 0.0909091 0.818182 0.0909091 0.0909091
dan ||| တန် ||| 0.931034 0.0344828 0.0344828 0.931034 0.0344828 0.0344828
dan ||| တန်း ||| 0.6 0.2 0.2 0.6 0.2 0.2
dan ||| တာန် ||| 0.714286 0.142857 0.142857 0.714286 0.142857 0.142857
dan ||| တံ ||| 0.971831 0.0140845 0.0140845 0.971831 0.0140845 0.0140845
dan ||| ထံ ||| 0.6 0.2 0.2 0.6 0.2 0.2
dan ||| ဒဏ် ||| 0.925926 0.037037 0.037037 0.925926 0.037037 0.037037
dan ||| ဒန် ||| 0.6 0.2 0.2 0.6 0.2 0.2
dan ||| ဒါန် ||| 0.818182 0.0909091 0.0909091 0.818182 0.0909091 0.0909091
dan ||| ဒံ ||| 0.6 0.2 0.2 0.6 0.2 0.2
dan ||| ဓာန် ||| 0.6 0.2 0.2 0.6 0.2 0.2
dan ||| ဓံ ||| 0.777778 0.111111 0.111111 0.777778 0.111111 0.111111
dan. ||| တန့် ||| 0.714286 0.142857 0.142857 0.714286 0.142857 0.142857
dan. ||| တံ့ ||| 0.777778 0.111111 0.111111 0.777778 0.111111 0.111111
dan: du ||| တန်း တူ ||| 0.714286 0.142857 0.142857 0.714286 0.142857 0.142857
dan: ||| တန်း ||| 0.982301 0.00884956 0.00884956 0.982301 0.00884956 0.00884956
dan: ||| တမ်း ||| 0.973333 0.0133333 0.0133333 0.973333 0.0133333 0.0133333
dan: ||| ထမ်း ||| 0.948718 0.025641 0.025641 0.948718 0.025641 0.025641
dan: ||| ဒန်း ||| 0.6 0.2 0.2 0.6 0.2 0.2
dan: ||| ဒါန်း ||| 0.777778 0.111111 0.111111 0.777778 0.111111 0.111111
dan: ||| ဓမ်း ||| 0.6 0.2 0.2 0.6 0.2 0.2
dau ||| တောင် ||| 0.6 0.2 0.2 0.6 0.2 0.2
dau ||| ထောင် ||| 0.6 0.2 0.2 0.6 0.2 0.2
dau' ga- ||| တောက် က ||| 0.6 0.2 0.2 0.6 0.2 0.2
dau' ||| တောက် ||| 0.939394 0.030303 0.030303 0.939394 0.030303 0.030303
dau' ||| ထိုး ||| 0.6 0.2 0.2 0.6 0.2 0.2
dau' ||| ထောက် ||| 0.962264 0.0188679 0.0188679 0.962264 0.0188679 0.0188679
dau' ||| ဒေါက် ||| 0.925926 0.037037 0.037037 0.925926 0.037037 0.037037
daun gya ||| ဒေါင် ချာ ||| 0.6 0.2 0.2 0.6 0.2 0.2
daun zu. ||| ထောင် စု ||| 0.714286 0.142857 0.142857 0.714286 0.142857 0.142857
daun ||| တောင့် ||| 0.714286 0.142857 0.142857 0.714286 0.142857 0.142857
daun ||| တောင် ||| 0.967213 0.0163934 0.0163934 0.967213 0.0163934 0.0163934
daun ||| တောင်း ||| 0.6 0.2 0.2 0.6 0.2 0.2
daun ||| ထောင် ||| 0.975309 0.0123457 0.0123457 0.975309 0.0123457 0.0123457
daun ||| ဒေါင် ||| 0.882353 0.0588235 0.0588235 0.882353 0.0588235 0.0588235
daun. ||| တောင့် ||| 0.894737 0.0526316 0.0526316 0.894737 0.0526316 0.0526316
daun. ||| ထောင့် ||| 0.894737 0.0526316 0.0526316 0.894737 0.0526316 0.0526316
daun. ||| ဒေါင့် ||| 0.818182 0.0909091 0.0909091 0.818182 0.0909091 0.0909091
daun: kyai' ||| တောင်း ကျိုက် ||| 0.6 0.2 0.2 0.6 0.2 0.2
daun: le ||| တောင်း လည် ||| 0.6 0.2 0.2 0.6 0.2 0.2
daun: ||| တောင်း ||| 0.962264 0.0188679 0.0188679 0.962264 0.0188679 0.0188679
daun: ||| ထောင်း ||| 0.714286 0.142857 0.142857 0.714286 0.142857 0.142857
daun: ||| ဒေါင်း ||| 0.945946 0.027027 0.027027 0.945946 0.027027 0.027027
de ||| တည် ||| 0.714286 0.142857 0.142857 0.714286 0.142857 0.142857
de ||| တယ် ||| 0.6 0.2 0.2 0.6 0.2 0.2
de ||| ထည် ||| 0.953488 0.0232558 0.0232558 0.953488 0.0232558 0.0232558
de ||| ဒယ် ||| 0.846154 0.0769231 0.0769231 0.846154 0.0769231 0.0769231
de' hti. ||| ထက် ထိ ||| 0.6 0.2 0.2 0.6 0.2 0.2
de' ||| တက် ||| 0.959184 0.0204082 0.0204082 0.959184 0.0204082 0.0204082
de' ||| ထက် ||| 0.904762 0.047619 0.047619 0.904762 0.047619 0.047619
de' ||| ဒက် ||| 0.818182 0.0909091 0.0909091 0.818182 0.0909091 0.0909091
de' ||| ဒဂ် ||| 0.6 0.2 0.2 0.6 0.2 0.2
de: ||| တည်း ||| 0.925926 0.037037 0.037037 0.925926 0.037037 0.037037
de: ||| တဲ ||| 0.925926 0.037037 0.037037 0.925926 0.037037 0.037037
de: ||| ထဲ ||| 0.777778 0.111111 0.111111 0.777778 0.111111 0.111111
dei ka la. ||| ဓေ ကာ လ ||| 0.6 0.2 0.2 0.6 0.2 0.2
dei ka ||| ဓေ ကာ ||| 0.6 0.2 0.2 0.6 0.2 0.2
dei pa ||| ဓေ ပါ ||| 0.6 0.2 0.2 0.6 0.2 0.2
dei tha- ri' ||| ဒေ သ ရာဇ် ||| 0.6 0.2 0.2 0.6 0.2 0.2
dei tha- ||| ဒေ သ ||| 0.714286 0.142857 0.142857 0.714286 0.142857 0.142857
dei tha. ||| ဒေ သ ||| 0.904762 0.047619 0.047619 0.904762 0.047619 0.047619
dei than da- ra. ||| ဒေ သန် တ ရ ||| 0.6 0.2 0.2 0.6 0.2 0.2
dei than da- ||| ဒေ သန် တ ||| 0.6 0.2 0.2 0.6 0.2 0.2
dei than ||| ဒေ သန် ||| 0.6 0.2 0.2 0.6 0.2 0.2
dei ||| ဋေ ||| 0.777778 0.111111 0.111111 0.777778 0.111111 0.111111
dei ||| တေ ||| 0.92 0.04 0.04 0.92 0.04 0.04
dei ||| ဒိဋ် ||| 0.6 0.2 0.2 0.6 0.2 0.2
dei ||| ဒေ ||| 0.977011 0.0114943 0.0114943 0.977011 0.0114943 0.0114943
dei ||| ဓေ ||| 0.904762 0.047619 0.047619 0.904762 0.047619 0.047619
dei' be ||| ဓိပ် ပါယ် ||| 0.777778 0.111111 0.111111 0.777778 0.111111 0.111111
dei' ||| ဍိတ် ||| 0.6 0.2 0.2 0.6 0.2 0.2
dei' ||| တိတ် ||| 0.818182 0.0909091 0.0909091 0.818182 0.0909091 0.0909091
dei' ||| တိပ် ||| 0.714286 0.142857 0.142857 0.714286 0.142857 0.142857
dei' ||| ထိတ် ||| 0.6 0.2 0.2 0.6 0.2 0.2
dei' ||| ထိပ် ||| 0.6 0.2 0.2 0.6 0.2 0.2
dei' ||| ဒိ ||| 0.6 0.2 0.2 0.6 0.2 0.2
dei' ||| ဒိဋ် ||| 0.777778 0.111111 0.111111 0.777778 0.111111 0.111111
dei' ||| ဒိတ် ||| 0.6 0.2 0.2 0.6 0.2 0.2
dei' ||| ဒိပ် ||| 0.6 0.2 0.2 0.6 0.2 0.2
dei' ||| ဒိဗ် ||| 0.6 0.2 0.2 0.6 0.2 0.2
dei' ||| ဓိဋ် ||| 0.866667 0.0666667 0.0666667 0.866667 0.0666667 0.0666667
dei' ||| ဓိပ် ||| 0.777778 0.111111 0.111111 0.777778 0.111111 0.111111
dei' ||| နိဋ် ||| 0.6 0.2 0.2 0.6 0.2 0.2
dei. ||| တေ့ ||| 0.6 0.2 0.2 0.6 0.2 0.2
dei: ||| တေး ||| 0.818182 0.0909091 0.0909091 0.818182 0.0909091 0.0909091
dei: ||| ဒေး ||| 0.6 0.2 0.2 0.6 0.2 0.2
dei: ||| ဓေး ||| 0.6 0.2 0.2 0.6 0.2 0.2
dein ||| ဋိ ||| 0.6 0.2 0.2 0.6 0.2 0.2
dein ||| တိမ် ||| 0.846154 0.0769231 0.0769231 0.846154 0.0769231 0.0769231
dein ||| တိံ ||| 0.714286 0.142857 0.142857 0.714286 0.142857 0.142857
dein ||| ထိန် ||| 0.6 0.2 0.2 0.6 0.2 0.2
dein ||| ထိမ် ||| 0.6 0.2 0.2 0.6 0.2 0.2
dein ||| ဒိန် ||| 0.714286 0.142857 0.142857 0.714286 0.142857 0.142857
dein: ga- ||| တိမ်း က ||| 0.6 0.2 0.2 0.6 0.2 0.2
dein: ||| တိမ်း ||| 0.6 0.2 0.2 0.6 0.2 0.2
dein: ||| ထိန်း ||| 0.913043 0.0434783 0.0434783 0.913043 0.0434783 0.0434783
dein: ||| ဒိမ်း ||| 0.6 0.2 0.2 0.6 0.2 0.2
dha lei' ||| သာ လိပ် ||| 0.6 0.2 0.2 0.6 0.2 0.2
dha ||| သ ||| 0.714286 0.142857 0.142857 0.714286 0.142857 0.142857
dha ||| သတ် ||| 0.714286 0.142857 0.142857 0.714286 0.142857 0.142857
dha ||| သာ ||| 0.986395 0.00680272 0.00680272 0.986395 0.00680272 0.00680272
dha' ||| သတ် ||| 0.894737 0.0526316 0.0526316 0.894737 0.0526316 0.0526316
dha' ||| သပ် ||| 0.6 0.2 0.2 0.6 0.2 0.2
dha- ba wa. ||| သ ဘာ ဝ ||| 0.913043 0.0434783 0.0434783 0.913043 0.0434783 0.0434783
dha- ba ||| သ ဘာ ||| 0.92 0.04 0.04 0.92 0.04 0.04
dha- ba ||| သမ် ဘာ ||| 0.777778 0.111111 0.111111 0.777778 0.111111 0.111111
dha- bei' ||| သ ပိတ် ||| 0.92 0.04 0.04 0.92 0.04 0.04
dha- bin ||| သ ဘင် ||| 0.925926 0.037037 0.037037 0.925926 0.037037 0.037037
dha- bin ||| သာ ပင် ||| 0.714286 0.142857 0.142857 0.714286 0.142857 0.142857
dha- bjei ||| သ ပြေ ||| 0.818182 0.0909091 0.0909091 0.818182 0.0909091 0.0909091
dha- bo: ||| သ ဘော ||| 0.971014 0.0144928 0.0144928 0.971014 0.0144928 0.0144928
dha- boun ||| သူ ပုန် ||| 0.777778 0.111111 0.111111 0.777778 0.111111 0.111111
dha- bu' ||| သ ပွတ် ||| 0.777778 0.111111 0.111111 0.777778 0.111111 0.111111
dha- bu' ||| သွား ပွတ် ||| 0.6 0.2 0.2 0.6 0.2 0.2
dha- da ||| သ ဓာ ||| 0.6 0.2 0.2 0.6 0.2 0.2
dha- da ||| သဒ် ဒါ ||| 0.818182 0.0909091 0.0909091 0.818182 0.0909091 0.0909091
dha- da ||| သဒ် ဓါ ||| 0.777778 0.111111 0.111111 0.777778 0.111111 0.111111
dha- da ||| သန် တာ ||| 0.714286 0.142857 0.142857 0.714286 0.142857 0.142857
dha- da- wa ||| သတ် တ ဝါ ||| 0.846154 0.0769231 0.0769231 0.846154 0.0769231 0.0769231
dha- da- ||| သတ် တ ||| 0.846154 0.0769231 0.0769231 0.846154 0.0769231 0.0769231
dha- dei ||| သန် ဓေ ||| 0.846154 0.0769231 0.0769231 0.846154 0.0769231 0.0769231
dha- di. ||| သ တိ ||| 0.925926 0.037037 0.037037 0.925926 0.037037 0.037037
dha- din: thoun: ||| သီ တင်း သုံး ||| 0.6 0.2 0.2 0.6 0.2 0.2
dha- din: ||| သ တင်း ||| 0.953488 0.0232558 0.0232558 0.953488 0.0232558 0.0232558
dha- din: ||| သီ တင်း ||| 0.904762 0.047619 0.047619 0.904762 0.047619 0.047619
dha- ga- ji' ||| သ က ရာဇ် ||| 0.6 0.2 0.2 0.6 0.2 0.2
dha- ga- ji' ||| သက် က ရာဇ် ||| 0.714286 0.142857 0.142857 0.714286 0.142857 0.142857
dha- ga- ||| သ က ||| 0.6 0.2 0.2 0.6 0.2 0.2
dha- ga- ||| သက် က ||| 0.714286 0.142857 0.142857 0.714286 0.142857 0.142857
dha- gan ||| သ ကန် ||| 0.6 0.2 0.2 0.6 0.2 0.2
dha- gyi: ||| သ ကျည်း ||| 0.714286 0.142857 0.142857 0.714286 0.142857 0.142857
dha- gyi: ||| သား ကြီး ||| 0.6 0.2 0.2 0.6 0.2 0.2
dha- gyi: ||| သူ ကြီး ||| 0.846154 0.0769231 0.0769231 0.846154 0.0769231 0.0769231
dha- ma: ||| သ မား ||| 0.959184 0.0204082 0.0204082 0.959184 0.0204082 0.0204082
dha- mhja. ||| သ မျှ ||| 0.6 0.2 0.2 0.6 0.2 0.2
dha- mi: ||| သ မီး ||| 0.904762 0.047619 0.047619 0.904762 0.047619 0.047619
dha- na ||| သ နာ ||| 0.913043 0.0434783 0.0434783 0.913043 0.0434783 0.0434783
dha- ||| သ ||| 0.99568 0.00215983 0.00215983 0.99568 0.00215983 0.00215983
dha- ||| သက် ||| 0.714286 0.142857 0.142857 0.714286 0.142857 0.142857
dha- ||| သင် ||| 0.913043 0.0434783 0.0434783 0.913043 0.0434783 0.0434783
dha- ||| သည် ||| 0.714286 0.142857 0.142857 0.714286 0.142857 0.142857
dha- ||| သဏ် ||| 0.818182 0.0909091 0.0909091 0.818182 0.0909091 0.0909091
dha- ||| သတ် ||| 0.846154 0.0769231 0.0769231 0.846154 0.0769231 0.0769231
dha- ||| သဒ် ||| 0.882353 0.0588235 0.0588235 0.882353 0.0588235 0.0588235
dha- ||| သန် ||| 0.894737 0.0526316 0.0526316 0.894737 0.0526316 0.0526316
dha- ||| သန်း ||| 0.894737 0.0526316 0.0526316 0.894737 0.0526316 0.0526316
dha- ||| သမ် ||| 0.777778 0.111111 0.111111 0.777778 0.111111 0.111111
dha- ||| သာ ||| 0.777778 0.111111 0.111111 0.777778 0.111111 0.111111
dha- ||| သား ||| 0.818182 0.0909091 0.0909091 0.818182 0.0909091 0.0909091
dha- ||| သိ ||| 0.714286 0.142857 0.142857 0.714286 0.142857 0.142857
dha- ||| သီ ||| 0.913043 0.0434783 0.0434783 0.913043 0.0434783 0.0434783
dha- ||| သူ ||| 0.904762 0.047619 0.047619 0.904762 0.047619 0.047619
dha- ||| သံ ||| 0.6 0.2 0.2 0.6 0.2 0.2
dha- ||| သွား ||| 0.6 0.2 0.2 0.6 0.2 0.2
dha- ||| ဿ ||| 0.6 0.2 0.2 0.6 0.2 0.2
dha. ||| သ ||| 0.939394 0.030303 0.030303 0.939394 0.030303 0.030303
dha: ||| သား ||| 0.99278 0.00361011 0.00361011 0.99278 0.00361011 0.00361011
dhan pa ||| သံ ပါ ||| 0.714286 0.142857 0.142857 0.714286 0.142857 0.142857
dhan ||| သန် ||| 0.846154 0.0769231 0.0769231 0.846154 0.0769231 0.0769231
dhan ||| သံ ||| 0.972603 0.0136986 0.0136986 0.972603 0.0136986 0.0136986
dhan. ||| သန့် ||| 0.777778 0.111111 0.111111 0.777778 0.111111 0.111111
dhan. ||| သံ့ ||| 0.714286 0.142857 0.142857 0.714286 0.142857 0.142857
dhau' ||| သောက် ||| 0.904762 0.047619 0.047619 0.904762 0.047619 0.047619
dhe ||| သည် ||| 0.971014 0.0144928 0.0144928 0.971014 0.0144928 0.0144928
dhe ||| သယ် ||| 0.6 0.2 0.2 0.6 0.2 0.2
dhe. ||| သဲ့ ||| 0.6 0.2 0.2 0.6 0.2 0.2
dhei ||| သိမ် ||| 0.6 0.2 0.2 0.6 0.2 0.2
dhei ||| သေ ||| 0.971831 0.0140845 0.0140845 0.971831 0.0140845 0.0140845
dhei' ||| သိပ် ||| 0.777778 0.111111 0.111111 0.777778 0.111111 0.111111
dhei. ||| သေ့ ||| 0.882353 0.0588235 0.0588235 0.882353 0.0588235 0.0588235
dhei: ||| သေး ||| 0.925926 0.037037 0.037037 0.925926 0.037037 0.037037
dhi u. du. ||| သီ ဥ တု ||| 0.714286 0.142857 0.142857 0.714286 0.142857 0.142857
dhi u. ||| သီ ဥ ||| 0.714286 0.142857 0.142857 0.714286 0.142857 0.142857
dhi ||| သည် ||| 0.904762 0.047619 0.047619 0.904762 0.047619 0.047619
dhi ||| သီ ||| 0.953488 0.0232558 0.0232558 0.953488 0.0232558 0.0232558
dhi. ||| သည့် ||| 0.777778 0.111111 0.111111 0.777778 0.111111 0.111111
dhi. ||| သိ ||| 0.904762 0.047619 0.047619 0.904762 0.047619 0.047619
dhi: ||| သီ ||| 0.6 0.2 0.2 0.6 0.2 0.2
dhi: ||| သီး ||| 0.977528 0.011236 0.011236 0.977528 0.011236 0.011236
dhin ||| သင် ||| 0.818182 0.0909091 0.0909091 0.818182 0.0909091 0.0909091
dho. ||| သော့ ||| 0.6 0.2 0.2 0.6 0.2 0.2
dho: ||| သော ||| 0.935484 0.0322581 0.0322581 0.935484 0.0322581 0.0322581
dhou' ||| သုတ် ||| 0.818182 0.0909091 0.0909091 0.818182 0.0909091 0.0909091
dhou' ||| သုပ် ||| 0.777778 0.111111 0.111111 0.777778 0.111111 0.111111
dhou. ga- ||| သို့ က ||| 0.714286 0.142857 0.142857 0.714286 0.142857 0.142857
dhou. hpji' ||| သို့ ဖြစ် ||| 0.714286 0.142857 0.142857 0.714286 0.142857 0.142857
dhou. ||| သို့ ||| 0.960784 0.0196078 0.0196078 0.960784 0.0196078 0.0196078
dhoun: ||| သုဉ်း ||| 0.714286 0.142857 0.142857 0.714286 0.142857 0.142857
dhoun: ||| သုန်း ||| 0.714286 0.142857 0.142857 0.714286 0.142857 0.142857
dhoun: ||| သုံး ||| 0.925926 0.037037 0.037037 0.925926 0.037037 0.037037
dhu gyi: ||| သူ ကြီး ||| 0.6 0.2 0.2 0.6 0.2 0.2
dhu ma. ||| သူ မ ||| 0.6 0.2 0.2 0.6 0.2 0.2
dhu ||| သူ ||| 0.973333 0.0133333 0.0133333 0.973333 0.0133333 0.0133333
dhwa: ||| သွား ||| 0.962264 0.0188679 0.0188679 0.962264 0.0188679 0.0188679
dhwan: ||| သွမ်း ||| 0.714286 0.142857 0.142857 0.714286 0.142857 0.142857
dhwe ||| သွယ် ||| 0.846154 0.0769231 0.0769231 0.846154 0.0769231 0.0769231
dhwe' ||| သွက် ||| 0.866667 0.0666667 0.0666667 0.866667 0.0666667 0.0666667
dhwei: ||| သွေး ||| 0.939394 0.030303 0.030303 0.939394 0.030303 0.030303
di jou ||| ဒီ ယို ||| 0.777778 0.111111 0.111111 0.777778 0.111111 0.111111
di ||| ဋိ ||| 0.6 0.2 0.2 0.6 0.2 0.2
di ||| ဋီ ||| 0.714286 0.142857 0.142857 0.714286 0.142857 0.142857
di ||| တည် ||| 0.846154 0.0769231 0.0769231 0.846154 0.0769231 0.0769231
di ||| တိ ||| 0.6 0.2 0.2 0.6 0.2 0.2
di ||| တီ ||| 0.963636 0.0181818 0.0181818 0.963636 0.0181818 0.0181818
di ||| ထိ ||| 0.6 0.2 0.2 0.6 0.2 0.2
di ||| ထီ ||| 0.6 0.2 0.2 0.6 0.2 0.2
di ||| ထီး ||| 0.6 0.2 0.2 0.6 0.2 0.2
di ||| ဒိ ||| 0.6 0.2 0.2 0.6 0.2 0.2
di ||| ဒီ ||| 0.971014 0.0144928 0.0144928 0.971014 0.0144928 0.0144928
di ||| ဓီ ||| 0.6 0.2 0.2 0.6 0.2 0.2
di' ||| တစ် ||| 0.6 0.2 0.2 0.6 0.2 0.2
di' ||| တိုက် ||| 0.6 0.2 0.2 0.6 0.2 0.2
di' ||| ထစ် ||| 0.846154 0.0769231 0.0769231 0.846154 0.0769231 0.0769231
di. khan wun ||| တိ ခံ ဝန် ||| 0.6 0.2 0.2 0.6 0.2 0.2
di. khan ||| တိ ခံ ||| 0.6 0.2 0.2 0.6 0.2 0.2
di. pa- ||| တိ ပဋ် ||| 0.6 0.2 0.2 0.6 0.2 0.2
di. tha. ||| ဓိ သ ||| 0.714286 0.142857 0.142857 0.714286 0.142857 0.142857
di. thi' sa pju. ||| တိ သစ် စာ ပြု ||| 0.6 0.2 0.2 0.6 0.2 0.2
di. thi' sa ||| တိ သစ် စာ ||| 0.714286 0.142857 0.142857 0.714286 0.142857 0.142857
di. thi' ||| တိ သစ် ||| 0.714286 0.142857 0.142857 0.714286 0.142857 0.142857
di. ||| ဋိ ||| 0.714286 0.142857 0.142857 0.714286 0.142857 0.142857
di. ||| ဍိ ||| 0.714286 0.142857 0.142857 0.714286 0.142857 0.142857
di. ||| ဎိ ||| 0.714286 0.142857 0.142857 0.714286 0.142857 0.142857
di. ||| တိ ||| 0.979381 0.0103093 0.0103093 0.979381 0.0103093 0.0103093
di. ||| ဒိ ||| 0.866667 0.0666667 0.0666667 0.866667 0.0666667 0.0666667
di. ||| ဓိ ||| 0.967213 0.0163934 0.0163934 0.967213 0.0163934 0.0163934
di: ||| တည်း ||| 0.913043 0.0434783 0.0434783 0.913043 0.0434783 0.0434783
di: ||| တီး ||| 0.953488 0.0232558 0.0232558 0.953488 0.0232558 0.0232558
di: ||| ထီး ||| 0.904762 0.047619 0.047619 0.904762 0.047619 0.047619
di: ||| ဒီး ||| 0.846154 0.0769231 0.0769231 0.846154 0.0769231 0.0769231
din ga. ||| တင် က ||| 0.714286 0.142857 0.142857 0.714286 0.142857 0.142857
din ||| တင် ||| 0.975309 0.0123457 0.0123457 0.975309 0.0123457 0.0123457
din ||| တင်း ||| 0.6 0.2 0.2 0.6 0.2 0.2
din ||| တဉ်း ||| 0.6 0.2 0.2 0.6 0.2 0.2
din ||| တွင် ||| 0.6 0.2 0.2 0.6 0.2 0.2
din ||| ထင် ||| 0.818182 0.0909091 0.0909091 0.818182 0.0909091 0.0909091
din ||| ဒင် ||| 0.777778 0.111111 0.111111 0.777778 0.111111 0.111111
din: ga: ||| တင်း ကား ||| 0.6 0.2 0.2 0.6 0.2 0.2
din: ga: ||| ဒင် ဂါး ||| 0.818182 0.0909091 0.0909091 0.818182 0.0909091 0.0909091
din: thoun: ||| တင်း သုံး ||| 0.6 0.2 0.2 0.6 0.2 0.2
din: ||| တင်း ||| 0.977528 0.011236 0.011236 0.977528 0.011236 0.011236
din: ||| ဒင် ||| 0.818182 0.0909091 0.0909091 0.818182 0.0909091 0.0909091
din: ||| ဒင်း ||| 0.714286 0.142857 0.142857 0.714286 0.142857 0.142857
do a- ||| တော် အ ||| 0.6 0.2 0.2 0.6 0.2 0.2
do din ||| တော် တင် ||| 0.6 0.2 0.2 0.6 0.2 0.2
do gyi: ||| တော် ကြီး ||| 0.714286 0.142857 0.142857 0.714286 0.142857 0.142857
do gyi: ||| ဒေါ် ကြီး ||| 0.6 0.2 0.2 0.6 0.2 0.2
do hpwin. ||| တော် ဖွင့် ||| 0.6 0.2 0.2 0.6 0.2 0.2
do ja. ||| တော် ရ ||| 0.777778 0.111111 0.111111 0.777778 0.111111 0.111111
do tin ||| တော် တင် ||| 0.714286 0.142857 0.142857 0.714286 0.142857 0.142857
do ||| တို ||| 0.6 0.2 0.2 0.6 0.2 0.2
do ||| တော် ||| 0.991968 0.00401606 0.00401606 0.991968 0.00401606 0.00401606
do ||| ဒေါ် ||| 0.882353 0.0588235 0.0588235 0.882353 0.0588235 0.0588235
do. ||| တော့ ||| 0.925926 0.037037 0.037037 0.925926 0.037037 0.037037
do. ||| ဒေါ့ ||| 0.6 0.2 0.2 0.6 0.2 0.2
do: dha. ||| ဒေါ သ ||| 0.925926 0.037037 0.037037 0.925926 0.037037 0.037037
do: ||| တိုး ||| 0.714286 0.142857 0.142857 0.714286 0.142857 0.142857
do: ||| တော ||| 0.894737 0.0526316 0.0526316 0.894737 0.0526316 0.0526316
do: ||| ဒေါ ||| 0.955556 0.0222222 0.0222222 0.955556 0.0222222 0.0222222
do: ||| ဓော ||| 0.777778 0.111111 0.111111 0.777778 0.111111 0.111111
dou bi ||| ဒို ဘီ ||| 0.818182 0.0909091 0.0909091 0.818182 0.0909091 0.0909091
dou ||| တို ||| 0.964912 0.0175439 0.0175439 0.964912 0.0175439 0.0175439
dou ||| ထို ||| 0.6 0.2 0.2 0.6 0.2 0.2
dou ||| ထုပ် ||| 0.6 0.2 0.2 0.6 0.2 0.2
dou ||| ဒို ||| 0.904762 0.047619 0.047619 0.904762 0.047619 0.047619
dou ||| ဓိုရ် ||| 0.714286 0.142857 0.142857 0.714286 0.142857 0.142857
dou ||| ရို ||| 0.714286 0.142857 0.142857 0.714286 0.142857 0.142857
dou' kha. ||| ဒုက် ခ ||| 0.942857 0.0285714 0.0285714 0.942857 0.0285714 0.0285714
dou' ||| ဍုက် ||| 0.6 0.2 0.2 0.6 0.2 0.2
dou' ||| တုတ် ||| 0.92 0.04 0.04 0.92 0.04 0.04
dou' ||| တုပ် ||| 0.818182 0.0909091 0.0909091 0.818182 0.0909091 0.0909091
dou' ||| ထုတ် ||| 0.714286 0.142857 0.142857 0.714286 0.142857 0.142857
dou' ||| ထုပ် ||| 0.953488 0.0232558 0.0232558 0.953488 0.0232558 0.0232558
dou' ||| ဒု ||| 0.6 0.2 0.2 0.6 0.2 0.2
dou' ||| ဒုက် ||| 0.95122 0.0243902 0.0243902 0.95122 0.0243902 0.0243902
dou' ||| ဒုဂ် ||| 0.6 0.2 0.2 0.6 0.2 0.2
dou' ||| ဒုတ် ||| 0.6 0.2 0.2 0.6 0.2 0.2
dou' ||| ဒုဗ် ||| 0.714286 0.142857 0.142857 0.714286 0.142857 0.142857
dou. ||| တို့ ||| 0.931034 0.0344828 0.0344828 0.931034 0.0344828 0.0344828
dou. ||| သို့ ||| 0.6 0.2 0.2 0.6 0.2 0.2
dou: nau' ||| တိုး နောက် ||| 0.6 0.2 0.2 0.6 0.2 0.2
dou: nau' ||| ထိုး နောက် ||| 0.6 0.2 0.2 0.6 0.2 0.2
dou: ||| တိုး ||| 0.973333 0.0133333 0.0133333 0.973333 0.0133333 0.0133333
dou: ||| ထိုး ||| 0.967213 0.0163934 0.0163934 0.967213 0.0163934 0.0163934
dou: ||| ဒိုး ||| 0.904762 0.047619 0.047619 0.904762 0.047619 0.047619
doun ||| တုန် ||| 0.866667 0.0666667 0.0666667 0.866667 0.0666667 0.0666667
doun ||| တုံ ||| 0.6 0.2 0.2 0.6 0.2 0.2
doun ||| ဒုမ် ||| 0.714286 0.142857 0.142857 0.714286 0.142857 0.142857
doun ||| ဒုလ် ||| 0.6 0.2 0.2 0.6 0.2 0.2
doun ||| ဒုံ ||| 0.777778 0.111111 0.111111 0.777778 0.111111 0.111111
doun: ||| တုန်း ||| 0.866667 0.0666667 0.0666667 0.866667 0.0666667 0.0666667
doun: ||| တုံး ||| 0.968254 0.015873 0.015873 0.968254 0.015873 0.015873
doun: ||| ထုံး ||| 0.866667 0.0666667 0.0666667 0.866667 0.0666667 0.0666667
doun: ||| ဒုန်း ||| 0.6 0.2 0.2 0.6 0.2 0.2
doun: ||| ဒုံး ||| 0.882353 0.0588235 0.0588235 0.882353 0.0588235 0.0588235
du ||| တု ||| 0.6 0.2 0.2 0.6 0.2 0.2
du ||| တူ ||| 0.978495 0.0107527 0.0107527 0.978495 0.0107527 0.0107527
du ||| ထူ ||| 0.6 0.2 0.2 0.6 0.2 0.2
du ||| ဒု ||| 0.6 0.2 0.2 0.6 0.2 0.2
du ||| ဒူ ||| 0.882353 0.0588235 0.0588235 0.882353 0.0588235 0.0588235
du ||| ဓူ ||| 0.866667 0.0666667 0.0666667 0.866667 0.0666667 0.0666667
du. min ga- la. ||| ဒု မင် ဂ လ ||| 0.6 0.2 0.2 0.6 0.2 0.2
du. min ga- ||| ဒု မင် ဂ ||| 0.6 0.2 0.2 0.6 0.2 0.2
du. min ||| ဒု မင် ||| 0.6 0.2 0.2 0.6 0.2 0.2
du. ||| ဍု ||| 0.6 0.2 0.2 0.6 0.2 0.2
du. ||| တု ||| 0.953488 0.0232558 0.0232558 0.953488 0.0232558 0.0232558
du. ||| ထု ||| 0.925926 0.037037 0.037037 0.925926 0.037037 0.037037
du. ||| ဒု ||| 0.866667 0.0666667 0.0666667 0.866667 0.0666667 0.0666667
du. ||| ဓု ||| 0.846154 0.0769231 0.0769231 0.846154 0.0769231 0.0769231
du: gan ||| ထူး ခံ ||| 0.6 0.2 0.2 0.6 0.2 0.2
du: jou: ||| ဒူး ရိုး ||| 0.6 0.2 0.2 0.6 0.2 0.2
du: ||| တူး ||| 0.866667 0.0666667 0.0666667 0.866667 0.0666667 0.0666667
du: ||| ထူး ||| 0.95122 0.0243902 0.0243902 0.95122 0.0243902 0.0243902
du: ||| ဒူး ||| 0.962264 0.0188679 0.0188679 0.962264 0.0188679 0.0188679
dun. ||| တွန့် ||| 0.714286 0.142857 0.142857 0.714286 0.142857 0.142857
dun. ||| ထွန့် ||| 0.6 0.2 0.2 0.6 0.2 0.2
dun. ||| ဓွန့် ||| 0.6 0.2 0.2 0.6 0.2 0.2
dun: ||| တွန်း ||| 0.846154 0.0769231 0.0769231 0.846154 0.0769231 0.0769231
dun: ||| ဒွန်း ||| 0.6 0.2 0.2 0.6 0.2 0.2
dwa ||| ဒွါ ||| 0.714286 0.142857 0.142857 0.714286 0.142857 0.142857
dwa: ||| တွား ||| 0.6 0.2 0.2 0.6 0.2 0.2
dwe' pji' si: ||| ထွက် ပစ် စည်း ||| 0.818182 0.0909091 0.0909091 0.818182 0.0909091 0.0909091
dwe' pji' ||| ထွက် ပစ် ||| 0.818182 0.0909091 0.0909091 0.818182 0.0909091 0.0909091
dwe' ||| တွက် ||| 0.882353 0.0588235 0.0588235 0.882353 0.0588235 0.0588235
dwe' ||| ထွက် ||| 0.945946 0.027027 0.027027 0.945946 0.027027 0.027027
dwe: ||| တွဲ ||| 0.931034 0.0344828 0.0344828 0.931034 0.0344828 0.0344828
dwei ||| တွေ ||| 0.818182 0.0909091 0.0909091 0.818182 0.0909091 0.0909091
dwei ||| ထွေ ||| 0.913043 0.0434783 0.0434783 0.913043 0.0434783 0.0434783
dwei. ||| တွေ့ ||| 0.904762 0.047619 0.047619 0.904762 0.047619 0.047619
dwei: bo ||| ဒွေး ဘော် ||| 0.6 0.2 0.2 0.6 0.2 0.2
dwei: ||| တွေး ||| 0.777778 0.111111 0.111111 0.777778 0.111111 0.111111
dwei: ||| ထွေး ||| 0.913043 0.0434783 0.0434783 0.913043 0.0434783 0.0434783
dwei: ||| ဒွေး ||| 0.818182 0.0909091 0.0909091 0.818182 0.0909091 0.0909091
dwei: ||| သွေး ||| 0.6 0.2 0.2 0.6 0.2 0.2
dwin: gau' ||| တွင်း ကောက် ||| 0.6 0.2 0.2 0.6 0.2 0.2
dwin: ||| တွင်း ||| 0.979798 0.010101 0.010101 0.979798 0.010101 0.010101
dwin: ||| ထွင်း ||| 0.777778 0.111111 0.111111 0.777778 0.111111 0.111111
e ||| နယ် ||| 0.714286 0.142857 0.142857 0.714286 0.142857 0.142857
e ||| အယ် ||| 0.818182 0.0909091 0.0909091 0.818182 0.0909091 0.0909091
e ||| ဧည့် ||| 0.714286 0.142857 0.142857 0.714286 0.142857 0.142857
e' kha- ja ||| အက် ခ ရာ ||| 0.92 0.04 0.04 0.92 0.04 0.04
e' kha- ||| အက် ခ ||| 0.92 0.04 0.04 0.92 0.04 0.04
e' kha- ||| အက် ခ ရာ ||| 0.6 0.2 0.2 0.6 0.2 0.2
e' ||| နက် ||| 0.6 0.2 0.2 0.6 0.2 0.2
e' ||| အက် ||| 0.955556 0.0222222 0.0222222 0.955556 0.0222222 0.0222222
e' ||| အဂ် ||| 0.846154 0.0769231 0.0769231 0.846154 0.0769231 0.0769231
e. ||| ဧည့် ||| 0.92 0.04 0.04 0.92 0.04 0.04
e: dhi ||| အဲ သည် ||| 0.777778 0.111111 0.111111 0.777778 0.111111 0.111111
e: ||| အည်း ||| 0.6 0.2 0.2 0.6 0.2 0.2
e: ||| အဲ ||| 0.925926 0.037037 0.037037 0.925926 0.037037 0.037037
ei ga- mou' ||| ဧ က မုခ် ||| 0.6 0.2 0.2 0.6 0.2 0.2
ei ga- ||| ဧ က ||| 0.818182 0.0909091 0.0909091 0.818182 0.0909091 0.0909091
ei ka ||| ဧ ကာ ||| 0.6 0.2 0.2 0.6 0.2 0.2
ei kan ||| ဧ ကန် ||| 0.714286 0.142857 0.142857 0.714286 0.142857 0.142857
ei nu: ||| အိမ် ဦး ||| 0.6 0.2 0.2 0.6 0.2 0.2
ei ||| အိမ် ||| 0.714286 0.142857 0.142857 0.714286 0.142857 0.142857
ei ||| အေ ||| 0.846154 0.0769231 0.0769231 0.846154 0.0769231 0.0769231
ei ||| ဧ ||| 0.948718 0.025641 0.025641 0.948718 0.025641 0.025641
ei' hsaun ||| အိတ် ဆောင် ||| 0.6 0.2 0.2 0.6 0.2 0.2
ei' me' ||| အိပ် မက် ||| 0.818182 0.0909091 0.0909091 0.818182 0.0909091 0.0909091
ei' ||| အိတ် ||| 0.963636 0.0181818 0.0181818 0.963636 0.0181818 0.0181818
ei' ||| အိပ် ||| 0.969231 0.0153846 0.0153846 0.969231 0.0153846 0.0153846
ei' ||| ဣစ် ||| 0.6 0.2 0.2 0.6 0.2 0.2
ei' ||| ဣတ် ||| 0.714286 0.142857 0.142857 0.714286 0.142857 0.142857
ei' ||| ဣဒ် ||| 0.6 0.2 0.2 0.6 0.2 0.2
ei' ||| ဧ ||| 0.6 0.2 0.2 0.6 0.2 0.2
ei: ei: ||| အေး အေး ||| 0.818182 0.0909091 0.0909091 0.818182 0.0909091 0.0909091
ei: ||| အေး ||| 0.981308 0.00934579 0.00934579 0.981308 0.00934579 0.00934579
ei: ||| ဧ ||| 0.894737 0.0526316 0.0526316 0.894737 0.0526316 0.0526316
ein da- rei ||| ဣန် ဒြေ ||| 0.904762 0.047619 0.047619 0.904762 0.047619 0.047619
ein da- ||| ဣန် ဒ ||| 0.6 0.2 0.2 0.6 0.2 0.2
ein daun ||| အိမ် ထောင် ||| 0.953488 0.0232558 0.0232558 0.953488 0.0232558 0.0232558
ein dha: ||| အိမ် သား ||| 0.6 0.2 0.2 0.6 0.2 0.2
ein dhu ||| အိမ် သူ ||| 0.6 0.2 0.2 0.6 0.2 0.2
ein dwin: ||| အိမ် တွင်း ||| 0.818182 0.0909091 0.0909091 0.818182 0.0909091 0.0909091
ein ja ||| အိမ် ရာ ||| 0.818182 0.0909091 0.0909091 0.818182 0.0909091 0.0909091
ein me' ||| အိပ် မက် ||| 0.777778 0.111111 0.111111 0.777778 0.111111 0.111111
ein ||| အိပ် ||| 0.777778 0.111111 0.111111 0.777778 0.111111 0.111111
ein ||| အိမ် ||| 0.991561 0.00421941 0.00421941 0.991561 0.00421941 0.00421941
ein ||| ဣန် ||| 0.92 0.04 0.04 0.92 0.04 0.04
ein. ||| အိမ့် ||| 0.6 0.2 0.2 0.6 0.2 0.2
ein: ||| အင် ||| 0.6 0.2 0.2 0.6 0.2 0.2
ein: ||| အိမ်း ||| 0.6 0.2 0.2 0.6 0.2 0.2
ga hta ||| ဂါ ထာ ||| 0.714286 0.142857 0.142857 0.714286 0.142857 0.142857
ga in: gyi ||| ကာ အင် ကျီ ||| 0.6 0.2 0.2 0.6 0.2 0.2
ga in: ||| ကာ အင် ||| 0.6 0.2 0.2 0.6 0.2 0.2
ga ja. ||| ကာ ယ ||| 0.6 0.2 0.2 0.6 0.2 0.2
ga ja. ||| ကာ ရ ||| 0.714286 0.142857 0.142857 0.714286 0.142857 0.142857
ga mu ||| ကာ မူ ||| 0.6 0.2 0.2 0.6 0.2 0.2
ga pja ga ||| ခါ ပြာ ခါ ||| 0.6 0.2 0.2 0.6 0.2 0.2
ga pja ||| ခါ ပြာ ||| 0.6 0.2 0.2 0.6 0.2 0.2
ga zin ||| ဃာ စင် ||| 0.6 0.2 0.2 0.6 0.2 0.2
ga ||| က ||| 0.777778 0.111111 0.111111 0.777778 0.111111 0.111111
ga ||| ကာ ||| 0.986395 0.00680272 0.00680272 0.986395 0.00680272 0.00680272
ga ||| ခါ ||| 0.931034 0.0344828 0.0344828 0.931034 0.0344828 0.0344828
ga ||| ခံ ||| 0.777778 0.111111 0.111111 0.777778 0.111111 0.111111
ga ||| ဂ ||| 0.714286 0.142857 0.142857 0.714286 0.142857 0.142857
