က ||| ga ||| 0.777778 0.111111 0.111111 0.777778 0.111111 0.111111
က ||| ga- ||| 0.995181 0.00240964 0.00240964 0.995181 0.00240964 0.00240964
က ||| ga. ||| 0.957447 0.0212766 0.0212766 0.957447 0.0212766 0.0212766
က ||| ka ||| 0.882353 0.0588235 0.0588235 0.882353 0.0588235 0.0588235
က ||| ka&apos; ||| 0.714286 0.142857 0.142857 0.714286 0.142857 0.142857
က ||| ka- ||| 0.995338 0.002331 0.002331 0.995338 0.002331 0.002331
က ||| ka. ||| 0.991031 0.0044843 0.0044843 0.991031 0.0044843 0.0044843
က ||| kau&apos; ||| 0.6 0.2 0.2 0.6 0.2 0.2
က ||| kha- ||| 0.894737 0.0526316 0.0526316 0.894737 0.0526316 0.0526316
က စား ||| ga- za: ||| 0.942857 0.0285714 0.0285714 0.942857 0.0285714 0.0285714
က ဆန် ||| ga- hsan ||| 0.6 0.2 0.2 0.6 0.2 0.2
က ဇာတ် ||| ka. za&apos; ||| 0.6 0.2 0.2 0.6 0.2 0.2
က ဏန်း ||| ga- nan: ||| 0.818182 0.0909091 0.0909091 0.818182 0.0909091 0.0909091
က တတ် ||| ga- da&apos; ||| 0.6 0.2 0.2 0.6 0.2 0.2
က တိုက် ||| ga- dai&apos; ||| 0.6 0.2 0.2 0.6 0.2 0.2
က တိုက် ||| ka. tai&apos; ||| 0.6 0.2 0.2 0.6 0.2 0.2
က တူး ||| ga- du: ||| 0.6 0.2 0.2 0.6 0.2 0.2
က ဓာတ် ||| ga- da&apos; ||| 0.714286 0.142857 0.142857 0.714286 0.142857 0.142857
က နန်း ||| ga- nan: ||| 0.714286 0.142857 0.142857 0.714286 0.142857 0.142857
က နွဲ့ ||| ka- nwe. ||| 0.777778 0.111111 0.111111 0.777778 0.111111 0.111111
က နွဲ့ က ||| ka- nwe. ka- ||| 0.777778 0.111111 0.111111 0.777778 0.111111 0.111111
က နွဲ့ က လျ ||| ka- nwe. ka- ja. ||| 0.714286 0.142857 0.142857 0.714286 0.142857 0.142857
က နွဲ့ က လျ ||| ka- nwe. ka- lja. ||| 0.6 0.2 0.2 0.6 0.2 0.2
က နွဲ့ က လျ လုပ် ||| ka- nwe. ka- ja. lou&apos; ||| 0.6 0.2 0.2 0.6 0.2 0.2
က ပေါက် ||| ga- bau&apos; ||| 0.846154 0.0769231 0.0769231 0.846154 0.0769231 0.0769231
က ပေါက် ||| ga. pau&apos; ||| 0.6 0.2 0.2 0.6 0.2 0.2
က ဗျာ ||| ga- bja ||| 0.818182 0.0909091 0.0909091 0.818182 0.0909091 0.0909091
က ရ ||| ga- ja. ||| 0.714286 0.142857 0.142857 0.714286 0.142857 0.142857
က ရ ||| ka- ja. ||| 0.6 0.2 0.2 0.6 0.2 0.2
က ရ ||| ka- la- ||| 0.818182 0.0909091 0.0909091 0.818182 0.0909091 0.0909091
က ရ ||| ka- ra- ||| 0.904762 0.047619 0.047619 0.904762 0.047619 0.047619
က ရ ||| ka- ra. ||| 0.714286 0.142857 0.142857 0.714286 0.142857 0.142857
က ရင် ||| ka- ji ||| 0.6 0.2 0.2 0.6 0.2 0.2
က ရင် ||| ka- jin ||| 0.714286 0.142857 0.142857 0.714286 0.142857 0.142857
က ရင် ||| ka- rin ||| 0.6 0.2 0.2 0.6 0.2 0.2
က ရာ ||| ga- ja ||| 0.714286 0.142857 0.142857 0.714286 0.142857 0.142857
က ရာ ||| ka- ra ||| 0.6 0.2 0.2 0.6 0.2 0.2
က ရာ ||| ka- ra. ||| 0.6 0.2 0.2 0.6 0.2 0.2
က ရာဇ် ||| ga- ji&apos; ||| 0.866667 0.0666667 0.0666667 0.866667 0.0666667 0.0666667
က ရာဇ် ||| ka- ji&apos; ||| 0.846154 0.0769231 0.0769231 0.846154 0.0769231 0.0769231
က ရာဇ် တို ||| ka- ji&apos; tou ||| 0.6 0.2 0.2 0.6 0.2 0.2
က ရီ ||| ga- ji ||| 0.6 0.2 0.2 0.6 0.2 0.2
က ရီ ||| ga- ri ||| 0.6 0.2 0.2 0.6 0.2 0.2
က ရီ ||| ga- ri: ||| 0.6 0.2 0.2 0.6 0.2 0.2
က ရီ ||| ka- ri ||| 0.6 0.2 0.2 0.6 0.2 0.2
က ရုဏ်း ||| ga- joun: ||| 0.6 0.2 0.2 0.6 0.2 0.2
က လတ် ||| ka- la&apos; ||| 0.818182 0.0909091 0.0909091 0.818182 0.0909091 0.0909091
က လန် ||| ga- lan ||| 0.6 0.2 0.2 0.6 0.2 0.2
က လန် က ||| ga- lan ga- ||| 0.6 0.2 0.2 0.6 0.2 0.2
က လန် က ဆန် ||| ga- lan ga- hsan ||| 0.6 0.2 0.2 0.6 0.2 0.2
က လပ် ||| ka la&apos; ||| 0.6 0.2 0.2 0.6 0.2 0.2
က လပ် ||| ka- la&apos; ||| 0.846154 0.0769231 0.0769231 0.846154 0.0769231 0.0769231
က လား ||| ka- la: ||| 0.777778 0.111111 0.111111 0.777778 0.111111 0.111111
က လိ ||| ga- li. ||| 0.6 0.2 0.2 0.6 0.2 0.2
က လိ ||| ka- li. ||| 0.818182 0.0909091 0.0909091 0.818182 0.0909091 0.0909091
က လိမ် ||| ka- lein ||| 0.846154 0.0769231 0.0769231 0.846154 0.0769231 0.0769231
က လို ||| ga- lou ||| 0.6 0.2 0.2 0.6 0.2 0.2
က လေ ||| ga- lei ||| 0.6 0.2 0.2 0.6 0.2 0.2
က လေ ||| ka- lei ||| 0.6 0.2 0.2 0.6 0.2 0.2
က လေ က ||| ga- lei ga- ||| 0.6 0.2 0.2 0.6 0.2 0.2
က လေ က ||| ka- lei ka- ||| 0.6 0.2 0.2 0.6 0.2 0.2
က လေး ||| ga- lei: ||| 0.939394 0.030303 0.030303 0.939394 0.030303 0.030303
က လေး ||| ka- lei: ||| 0.866667 0.0666667 0.0666667 0.866667 0.0666667 0.0666667
က လေး ||| kha- lei: ||| 0.866667 0.0666667 0.0666667 0.866667 0.0666667 0.0666667
က လျ ||| ka- ja. ||| 0.714286 0.142857 0.142857 0.714286 0.142857 0.142857
က လျ ||| ka- lja. ||| 0.6 0.2 0.2 0.6 0.2 0.2
က လျ လုပ် ||| ka- ja. lou&apos; ||| 0.6 0.2 0.2 0.6 0.2 0.2
က ဝိ ||| ka- wi. ||| 0.6 0.2 0.2 0.6 0.2 0.2
က ဝိ ||| ka. wi. ||| 0.6 0.2 0.2 0.6 0.2 0.2
က သစ် ||| ka- thi&apos; ||| 0.714286 0.142857 0.142857 0.714286 0.142857 0.142857
ကင် ||| gin ||| 0.904762 0.047619 0.047619 0.904762 0.047619 0.047619
ကင် ||| ka- ||| 0.6 0.2 0.2 0.6 0.2 0.2
ကင် ||| kin ||| 0.939394 0.030303 0.030303 0.939394 0.030303 0.030303
ကင်း ||| gin: ||| 0.95122 0.0243902 0.0243902 0.95122 0.0243902 0.0243902
ကင်း ||| kin: ||| 0.981651 0.00917431 0.00917431 0.981651 0.00917431 0.00917431
ကင်း ပါး ||| kin: ba: ||| 0.6 0.2 0.2 0.6 0.2 0.2
ကတ် ||| ga&apos; ||| 0.882353 0.0588235 0.0588235 0.882353 0.0588235 0.0588235
ကတ် ||| ga- ||| 0.714286 0.142857 0.142857 0.714286 0.142857 0.142857
ကတ် ||| ka&apos; ||| 0.977528 0.011236 0.011236 0.977528 0.011236 0.011236
ကတ် ||| ke&apos; ||| 0.6 0.2 0.2 0.6 0.2 0.2
ကတ် ||| kei&apos; ||| 0.6 0.2 0.2 0.6 0.2 0.2
ကတ် တ ||| ka&apos; ta&apos; ||| 0.714286 0.142857 0.142857 0.714286 0.142857 0.142857
ကတ် တ ||| ka&apos; ta- ||| 0.714286 0.142857 0.142857 0.714286 0.142857 0.142857
ကတ် တား ||| ka&apos; ta: ||| 0.714286 0.142857 0.142857 0.714286 0.142857 0.142857
ကတ် တီ ||| ga- di ||| 0.714286 0.142857 0.142857 0.714286 0.142857 0.142857
ကတ် တီ ပါ ||| ga- di ba ||| 0.714286 0.142857 0.142857 0.714286 0.142857 0.142857
ကန့် ||| ga- ||| 0.818182 0.0909091 0.0909091 0.818182 0.0909091 0.0909091
ကန့် ||| gan. ||| 0.846154 0.0769231 0.0769231 0.846154 0.0769231 0.0769231
ကန့် ||| ka- ||| 0.6 0.2 0.2 0.6 0.2 0.2
ကန့် ||| kan ||| 0.714286 0.142857 0.142857 0.714286 0.142857 0.142857
ကန့် ||| kan. ||| 0.953488 0.0232558 0.0232558 0.953488 0.0232558 0.0232558
ကန့် ချုပ် ||| kan gyou&apos; ||| 0.6 0.2 0.2 0.6 0.2 0.2
ကန့် ချုပ် ||| kan. gyou&apos; ||| 0.6 0.2 0.2 0.6 0.2 0.2
ကန့် လန့် ||| ga- lan. ||| 0.818182 0.0909091 0.0909091 0.818182 0.0909091 0.0909091
ကန့် လန့် ||| ka- la- ||| 0.6 0.2 0.2 0.6 0.2 0.2
ကန့် လန့် ||| kan lan. ||| 0.6 0.2 0.2 0.6 0.2 0.2
ကန့် လန့် ||| kan. lan. ||| 0.882353 0.0588235 0.0588235 0.882353 0.0588235 0.0588235
ကန့် လန့် ကာ ||| ka- la- ga. ||| 0.6 0.2 0.2 0.6 0.2 0.2
ကန့် သတ် ||| kan. tha&apos; ||| 0.777778 0.111111 0.111111 0.777778 0.111111 0.111111
ကန် ||| ga- ||| 0.894737 0.0526316 0.0526316 0.894737 0.0526316 0.0526316
ကန် ||| gan ||| 0.955556 0.0222222 0.0222222 0.955556 0.0222222 0.0222222
ကန် ||| jo ||| 0.6 0.2 0.2 0.6 0.2 0.2
ကန် ||| kan ||| 0.976471 0.0117647 0.0117647 0.976471 0.0117647 0.0117647
ကန် ||| ngan ||| 0.6 0.2 0.2 0.6 0.2 0.2
ကန် ကန် ||| kan gan ||| 0.6 0.2 0.2 0.6 0.2 0.2
ကန် ကန် ||| kan kan ||| 0.6 0.2 0.2 0.6 0.2 0.2
ကန် တော့ ||| ga- do. ||| 0.6 0.2 0.2 0.6 0.2 0.2
ကန်း ||| ga- ||| 0.6 0.2 0.2 0.6 0.2 0.2
ကန်း ||| gan: ||| 0.963636 0.0181818 0.0181818 0.963636 0.0181818 0.0181818
ကန်း ||| kan: ||| 0.942857 0.0285714 0.0285714 0.942857 0.0285714 0.0285714
ကန်း ||| n ||| 0.6 0.2 0.2 0.6 0.2 0.2
ကန်း ကြိုး ||| kan: gyou: ||| 0.6 0.2 0.2 0.6 0.2 0.2
ကပ် ||| ga&apos; ||| 0.953488 0.0232558 0.0232558 0.953488 0.0232558 0.0232558
ကပ် ||| ka&apos; ||| 0.98773 0.00613497 0.00613497 0.98773 0.00613497 0.00613497
ကပ် ||| ka. ||| 0.6 0.2 0.2 0.6 0.2 0.2
ကပ် ||| nga&apos; ||| 0.6 0.2 0.2 0.6 0.2 0.2
ကပ် ပ ||| ka&apos; pa- ||| 0.714286 0.142857 0.142857 0.714286 0.142857 0.142857
ကပ် ပ ||| ka&apos; pa. ||| 0.6 0.2 0.2 0.6 0.2 0.2
ကပ် ပ နာ ||| ka&apos; pa- na ||| 0.6 0.2 0.2 0.6 0.2 0.2
ကမ် ||| ga- ||| 0.948718 0.025641 0.025641 0.948718 0.025641 0.025641
ကမ် ||| ka ||| 0.6 0.2 0.2 0.6 0.2 0.2
ကမ် ||| ka- ||| 0.818182 0.0909091 0.0909091 0.818182 0.0909091 0.0909091
ကမ် ||| kan ||| 0.846154 0.0769231 0.0769231 0.846154 0.0769231 0.0769231
ကမ် ပ ||| ga- ba- ||| 0.6 0.2 0.2 0.6 0.2 0.2
ကမ် ပတ် ||| kan ba&apos; ||| 0.6 0.2 0.2 0.6 0.2 0.2
ကမ် ဘာ့ ||| ga- ba. ||| 0.6 0.2 0.2 0.6 0.2 0.2
ကမ်း ||| ga- ||| 0.714286 0.142857 0.142857 0.714286 0.142857 0.142857
ကမ်း ||| gan: ||| 0.777778 0.111111 0.111111 0.777778 0.111111 0.111111
ကမ်း ||| kan: ||| 0.973333 0.0133333 0.0133333 0.973333 0.0133333 0.0133333
ကမ်း ||| ngan: ||| 0.6 0.2 0.2 0.6 0.2 0.2
ကမ်း ခြေ ||| kan: gyei ||| 0.6 0.2 0.2 0.6 0.2 0.2
ကယ် ||| ge ||| 0.6 0.2 0.2 0.6 0.2 0.2
ကယ် ||| ke ||| 0.957447 0.0212766 0.0212766 0.957447 0.0212766 0.0212766
ကာ ||| ga ||| 0.986395 0.00680272 0.00680272 0.986395 0.00680272 0.00680272
ကာ ||| ga- ||| 0.6 0.2 0.2 0.6 0.2 0.2
ကာ ||| ga. ||| 0.714286 0.142857 0.142857 0.714286 0.142857 0.142857
ကာ ||| ka ||| 0.991111 0.00444444 0.00444444 0.991111 0.00444444 0.00444444
ကာ ||| kha ||| 0.866667 0.0666667 0.0666667 0.866667 0.0666667 0.0666667
ကာ မ ||| ga ma- ||| 0.6 0.2 0.2 0.6 0.2 0.2
ကာ မ ||| ga- ma. ||| 0.6 0.2 0.2 0.6 0.2 0.2
ကာ မ ||| ka ma- ||| 0.6 0.2 0.2 0.6 0.2 0.2
ကာ မ ||| ka ma. ||| 0.777778 0.111111 0.111111 0.777778 0.111111 0.111111
ကာ ယ ||| ga ja- ||| 0.6 0.2 0.2 0.6 0.2 0.2
ကာ ယ ||| ga ja. ||| 0.6 0.2 0.2 0.6 0.2 0.2
ကာ ယ ||| ka ja- ||| 0.714286 0.142857 0.142857 0.714286 0.142857 0.142857
ကာ ယ ||| ka ja. ||| 0.882353 0.0588235 0.0588235 0.882353 0.0588235 0.0588235
ကာ ယ ကံ ||| ka ja- gan ||| 0.714286 0.142857 0.142857 0.714286 0.142857 0.142857
ကာ လ ||| ka la. ||| 0.945946 0.027027 0.027027 0.945946 0.027027 0.027027
ကာ လ ဝမ်း ||| ka la. wun: ||| 0.6 0.2 0.2 0.6 0.2 0.2
ကာ သ ||| ga tha. ||| 0.6 0.2 0.2 0.6 0.2 0.2
ကာ သ ||| ka tha- ||| 0.714286 0.142857 0.142857 0.714286 0.142857 0.142857
ကာ သ ||| ka tha. ||| 0.818182 0.0909091 0.0909091 0.818182 0.0909091 0.0909091
ကာ သား ||| ga dha: ||| 0.6 0.2 0.2 0.6 0.2 0.2
ကာ အ ||| ka a- ||| 0.6 0.2 0.2 0.6 0.2 0.2
ကာယ် ||| ke ||| 0.714286 0.142857 0.142857 0.714286 0.142857 0.142857
ကား ||| ga- ||| 0.973333 0.0133333 0.0133333 0.973333 0.0133333 0.0133333
ကား ||| ga: ||| 0.988439 0.00578035 0.00578035 0.988439 0.00578035 0.00578035
ကား ||| ka: ||| 0.977528 0.011236 0.011236 0.977528 0.011236 0.011236
ကား ထစ် ||| ga- di&apos; ||| 0.714286 0.142857 0.142857 0.714286 0.142857 0.142857
ကား ပြော ||| ga: pjo: ||| 0.6 0.2 0.2 0.6 0.2 0.2
ကိ ||| ka- ||| 0.866667 0.0666667 0.0666667 0.866667 0.0666667 0.0666667
ကိ ||| ki. ||| 0.777778 0.111111 0.111111 0.777778 0.111111 0.111111
ကိ မိ ||| ki. mi. ||| 0.6 0.2 0.2 0.6 0.2 0.2
ကိ မိ လ ||| ki. mi. la. ||| 0.6 0.2 0.2 0.6 0.2 0.2
ကိ မိ လ ဗေ ||| ki. mi. la. bei ||| 0.6 0.2 0.2 0.6 0.2 0.2
ကိ မိ လ ဗေ ဒ ||| ki. mi. la. bei da. ||| 0.6 0.2 0.2 0.6 0.2 0.2
ကိ ရိ ||| ka- ri ||| 0.6 0.2 0.2 0.6 0.2 0.2
ကိ ရိ ||| ka- ri. ||| 0.846154 0.0769231 0.0769231 0.846154 0.0769231 0.0769231
ကိ ရိ ယာ ||| ka- ri ja ||| 0.6 0.2 0.2 0.6 0.2 0.2
ကိ ရိ ယာ ||| ka- ri. ja ||| 0.846154 0.0769231 0.0769231 0.846154 0.0769231 0.0769231
ကိစ် ||| kei&apos; ||| 0.935484 0.0322581 0.0322581 0.935484 0.0322581 0.0322581
ကိစ် စ ||| kei&apos; sa ||| 0.6 0.2 0.2 0.6 0.2 0.2
ကိစ် စ ||| kei&apos; sa. ||| 0.925926 0.037037 0.037037 0.925926 0.037037 0.037037
ကိတ် ||| kei&apos; ||| 0.777778 0.111111 0.111111 0.777778 0.111111 0.111111
ကိန်း ||| gein: ||| 0.882353 0.0588235 0.0588235 0.882353 0.0588235 0.0588235
ကိန်း ||| kain: ||| 0.6 0.2 0.2 0.6 0.2 0.2
ကိန်း ||| kein ||| 0.6 0.2 0.2 0.6 0.2 0.2
ကိန်း ||| kein: ||| 0.964912 0.0175439 0.0175439 0.964912 0.0175439 0.0175439
ကို ||| gou ||| 0.777778 0.111111 0.111111 0.777778 0.111111 0.111111
ကို ||| goun ||| 0.6 0.2 0.2 0.6 0.2 0.2
ကို ||| ko ||| 0.6 0.2 0.2 0.6 0.2 0.2
ကို ||| kou ||| 0.939394 0.030303 0.030303 0.939394 0.030303 0.030303
ကိုက် ||| gai&apos; ||| 0.866667 0.0666667 0.0666667 0.866667 0.0666667 0.0666667
ကိုက် ||| kai ||| 0.6 0.2 0.2 0.6 0.2 0.2
ကိုက် ||| kai&apos; ||| 0.964912 0.0175439 0.0175439 0.964912 0.0175439 0.0175439
ကိုင် ||| gain ||| 0.95122 0.0243902 0.0243902 0.95122 0.0243902 0.0243902
ကိုင် ||| gain: ||| 0.6 0.2 0.2 0.6 0.2 0.2
ကိုင် ||| kain ||| 0.975904 0.0120482 0.0120482 0.975904 0.0120482 0.0120482
ကိုင် ပ ||| kain pa- ||| 0.6 0.2 0.2 0.6 0.2 0.2
ကိုင်း ||| gain: ||| 0.92 0.04 0.04 0.92 0.04 0.04
ကိုင်း ||| kain ||| 0.6 0.2 0.2 0.6 0.2 0.2
ကိုင်း ||| kain: ||| 0.935484 0.0322581 0.0322581 0.935484 0.0322581 0.0322581
ကိုယ့် ||| kou. ||| 0.846154 0.0769231 0.0769231 0.846154 0.0769231 0.0769231
ကိုယ် ||| gou ||| 0.882353 0.0588235 0.0588235 0.882353 0.0588235 0.0588235
ကိုယ် ||| kou ||| 0.99005 0.00497512 0.00497512 0.99005 0.00497512 0.00497512
ကိုယ် ||| kya- ||| 0.6 0.2 0.2 0.6 0.2 0.2
ကိုယ် တော် ||| kou do ||| 0.6 0.2 0.2 0.6 0.2 0.2
ကိုယ် ပါ ||| kou ba ||| 0.6 0.2 0.2 0.6 0.2 0.2
ကိုယ် ပိုင် ||| kou bain ||| 0.818182 0.0909091 0.0909091 0.818182 0.0909091 0.0909091
ကိုယ် ရေး ||| kou jei: ||| 0.777778 0.111111 0.111111 0.777778 0.111111 0.111111
ကိုယ် လက် ||| kou le&apos; ||| 0.6 0.2 0.2 0.6 0.2 0.2
ကိုယ် လုံး ||| kou loun: ||| 0.777778 0.111111 0.111111 0.777778 0.111111 0.111111
ကိုယ် ဝန် ||| kou win ||| 0.6 0.2 0.2 0.6 0.2 0.2
ကိုယ် ဝန် ||| kou wun ||| 0.846154 0.0769231 0.0769231 0.846154 0.0769231 0.0769231
ကိုး ||| gou: ||| 0.882353 0.0588235 0.0588235 0.882353 0.0588235 0.0588235
ကိုး ||| kou: ||| 0.960784 0.0196078 0.0196078 0.960784 0.0196078 0.0196078
ကု ||| ga- ||| 0.846154 0.0769231 0.0769231 0.846154 0.0769231 0.0769231
ကု ||| gu. ||| 0.714286 0.142857 0.142857 0.714286 0.142857 0.142857
ကု ||| ka- ||| 0.959184 0.0204082 0.0204082 0.959184 0.0204082 0.0204082
ကု ||| ku. ||| 0.939394 0.030303 0.030303 0.939394 0.030303 0.030303
ကု လား ||| ka- la- ||| 0.942857 0.0285714 0.0285714 0.942857 0.0285714 0.0285714
ကု လား ||| ka- la: ||| 0.866667 0.0666667 0.0666667 0.866667 0.0666667 0.0666667
ကုတ် ||| gou&apos; ||| 0.818182 0.0909091 0.0909091 0.818182 0.0909091 0.0909091
ကုတ် ||| kou&apos; ||| 0.945946 0.027027 0.027027 0.945946 0.027027 0.027027
ကုန် ||| goun ||| 0.959184 0.0204082 0.0204082 0.959184 0.0204082 0.0204082
ကုန် ||| koun ||| 0.984962 0.0075188 0.0075188 0.984962 0.0075188 0.0075188
ကုန် ||| koun. ||| 0.6 0.2 0.2 0.6 0.2 0.2
ကုန် စည် ||| koun zi ||| 0.6 0.2 0.2 0.6 0.2 0.2
ကုန် လက် ||| goun le&apos; ||| 0.6 0.2 0.2 0.6 0.2 0.2
ကုန် လက် ||| koun le&apos; ||| 0.6 0.2 0.2 0.6 0.2 0.2
ကုန် လက် ပန်း ||| goun le&apos; pan: ||| 0.6 0.2 0.2 0.6 0.2 0.2
ကုန် လက် ပန်း ကျ ||| goun le&apos; pan: kya. ||| 0.6 0.2 0.2 0.6 0.2 0.2
ကုန်း ||| goun: ||| 0.92 0.04 0.04 0.92 0.04 0.04
ကုန်း ||| koun: ||| 0.957447 0.0212766 0.0212766 0.957447 0.0212766 0.0212766
ကုပ် ||| gou&apos; ||| 0.948718 0.025641 0.025641 0.948718 0.025641 0.025641
ကုပ် ||| kou&apos; ||| 0.92 0.04 0.04 0.92 0.04 0.04
ကုံ ||| goun ||| 0.714286 0.142857 0.142857 0.714286 0.142857 0.142857
ကုံ ||| koun ||| 0.866667 0.0666667 0.0666667 0.866667 0.0666667 0.0666667
ကုံး ||| goun: ||| 0.866667 0.0666667 0.0666667 0.866667 0.0666667 0.0666667
ကုံး ||| koun: ||| 0.846154 0.0769231 0.0769231 0.846154 0.0769231 0.0769231
ကူ ||| gu ||| 0.962264 0.0188679 0.0188679 0.962264 0.0188679 0.0188679
ကူ ||| ku ||| 0.966102 0.0169492 0.0169492 0.966102 0.0169492 0.0169492
ကူ လီ ||| ku li ||| 0.6 0.2 0.2 0.6 0.2 0.2
ကူး ||| ga- ||| 0.846154 0.0769231 0.0769231 0.846154 0.0769231 0.0769231
ကူး ||| gu: ||| 0.931034 0.0344828 0.0344828 0.931034 0.0344828 0.0344828
ကူး ||| ku: ||| 0.974026 0.012987 0.012987 0.974026 0.012987 0.012987
ကူး မ ||| ku: ma- ||| 0.6 0.2 0.2 0.6 0.2 0.2
ကူး မ ကူး ||| ku: ma- ku: ||| 0.6 0.2 0.2 0.6 0.2 0.2
ကူး လက် ||| gu: le&apos; ||| 0.6 0.2 0.2 0.6 0.2 0.2
ကော ||| go: ||| 0.939394 0.030303 0.030303 0.939394 0.030303 0.030303
ကော ||| ko: ||| 0.931034 0.0344828 0.0344828 0.931034 0.0344828 0.0344828
ကော ||| ngo: ||| 0.6 0.2 0.2 0.6 0.2 0.2
ကောက် ||| gau&apos; ||| 0.960784 0.0196078 0.0196078 0.960784 0.0196078 0.0196078
ကောက် ||| kau ||| 0.6 0.2 0.2 0.6 0.2 0.2
ကောက် ||| kau&apos; ||| 0.986928 0.00653595 0.00653595 0.986928 0.00653595 0.00653595
ကောက် ရိုး ||| kau&apos; jou: ||| 0.777778 0.111111 0.111111 0.777778 0.111111 0.111111
ကောင် ||| gaun ||| 0.977528 0.011236 0.011236 0.977528 0.011236 0.011236
ကောင် ||| kau ||| 0.777778 0.111111 0.111111 0.777778 0.111111 0.111111
ကောင် ||| kaun ||| 0.962264 0.0188679 0.0188679 0.962264 0.0188679 0.0188679
ကောင် ကြွက် ||| gaun gywe&apos; ||| 0.6 0.2 0.2 0.6 0.2 0.2
ကောင်း ||| gaun: ||| 0.971014 0.0144928 0.0144928 0.971014 0.0144928 0.0144928
ကောင်း ||| kaun: ||| 0.984252 0.00787402 0.00787402 0.984252 0.00787402 0.00787402
ကောင်း ချီး ||| kaun: gyi: ||| 0.6 0.2 0.2 0.6 0.2 0.2
ကောင်း မ ||| kaun: ma- ||| 0.6 0.2 0.2 0.6 0.2 0.2
ကောင်း မှု ||| kaun: mhu. ||| 0.6 0.2 0.2 0.6 0.2 0.2
ကောင်း သား ||| gaun: dha: ||| 0.6 0.2 0.2 0.6 0.2 0.2
ကောင်း သား ||| kaun: dha: ||| 0.6 0.2 0.2 0.6 0.2 0.2
ကော့ ||| go. ||| 0.6 0.2 0.2 0.6 0.2 0.2
ကော့ ||| ko. ||| 0.846154 0.0769231 0.0769231 0.846154 0.0769231 0.0769231
ကော့ လပ် ||| ko. la&apos; ||| 0.714286 0.142857 0.142857 0.714286 0.142857 0.142857
ကော့ လပ် ကော့ ||| ko. la&apos; ko. ||| 0.6 0.2 0.2 0.6 0.2 0.2
ကော့ လပ် ကော့ လပ် ||| ko. la&apos; ko. la&apos; ||| 0.6 0.2 0.2 0.6 0.2 0.2
ကော် ||| go ||| 0.866667 0.0666667 0.0666667 0.866667 0.0666667 0.0666667
ကော် ||| ko ||| 0.970149 0.0149254 0.0149254 0.970149 0.0149254 0.0149254
ကော် ဒါ ||| ko da ||| 0.6 0.2 0.2 0.6 0.2 0.2
ကော် ပီ ||| ko pi ||| 0.6 0.2 0.2 0.6 0.2 0.2
ကဲ ||| ge: ||| 0.913043 0.0434783 0.0434783 0.913043 0.0434783 0.0434783
ကဲ ||| ke&apos; ||| 0.6 0.2 0.2 0.6 0.2 0.2
ကဲ ||| ke: ||| 0.95122 0.0243902 0.0243902 0.95122 0.0243902 0.0243902
ကဲ ဖြတ် ||| ke: bja&apos; ||| 0.6 0.2 0.2 0.6 0.2 0.2
ကဲ့ ||| ge. ||| 0.714286 0.142857 0.142857 0.714286 0.142857 0.142857
ကဲ့ ||| ke. ||| 0.6 0.2 0.2 0.6 0.2 0.2
ကဲ့ သို့ ||| ge. dhou. ||| 0.714286 0.142857 0.142857 0.714286 0.142857 0.142857
ကဲ့ သို့ ||| ke. dhou. ||| 0.6 0.2 0.2 0.6 0.2 0.2
ကံ ||| ga- ||| 0.714286 0.142857 0.142857 0.714286 0.142857 0.142857
ကံ ||| gan ||| 0.866667 0.0666667 0.0666667 0.866667 0.0666667 0.0666667
ကံ ||| ka ||| 0.6 0.2 0.2 0.6 0.2 0.2
ကံ ||| ka- ||| 0.6 0.2 0.2 0.6 0.2 0.2
ကံ ||| kan ||| 0.971831 0.0140845 0.0140845 0.971831 0.0140845 0.0140845
ကံ ||| kan. ||| 0.6 0.2 0.2 0.6 0.2 0.2
ကံ ကျွေး ||| ga- gywei: ||| 0.6 0.2 0.2 0.6 0.2 0.2
ကံ ကျွေး ||| kan gywei: ||| 0.714286 0.142857 0.142857 0.714286 0.142857 0.142857
ကံ ကြီး ||| kan gyi: ||| 0.6 0.2 0.2 0.6 0.2 0.2
ကံ မြစ် ||| ka- mji&apos; ||| 0.6 0.2 0.2 0.6 0.2 0.2
ကျ ||| gya ||| 0.6 0.2 0.2 0.6 0.2 0.2
ကျ ||| gya. ||| 0.980198 0.00990099 0.00990099 0.980198 0.00990099 0.00990099
ကျ ||| kha. ||| 0.6 0.2 0.2 0.6 0.2 0.2
ကျ ||| kya ||| 0.894737 0.0526316 0.0526316 0.894737 0.0526316 0.0526316
ကျ ||| kya. ||| 0.993921 0.00303951 0.00303951 0.993921 0.00303951 0.00303951
ကျ ပန်း ||| gya. pan: ||| 0.6 0.2 0.2 0.6 0.2 0.2
ကျ ပန်း ||| kya ban: ||| 0.6 0.2 0.2 0.6 0.2 0.2
ကျက် ||| gye&apos; ||| 0.866667 0.0666667 0.0666667 0.866667 0.0666667 0.0666667
ကျက် ||| kye&apos; ||| 0.925926 0.037037 0.037037 0.925926 0.037037 0.037037
ကျက် သ ||| kye&apos; tha ||| 0.6 0.2 0.2 0.6 0.2 0.2
ကျက် သ ||| kye&apos; tha- ||| 0.6 0.2 0.2 0.6 0.2 0.2
ကျက် သ ရေ ||| kye&apos; tha jei ||| 0.6 0.2 0.2 0.6 0.2 0.2
ကျက် သ ရေ ||| kye&apos; tha- jei ||| 0.6 0.2 0.2 0.6 0.2 0.2
ကျင့် ||| gyin. ||| 0.882353 0.0588235 0.0588235 0.882353 0.0588235 0.0588235
ကျင့် ||| kyi. ||| 0.6 0.2 0.2 0.6 0.2 0.2
ကျင့် ||| kyin. ||| 0.960784 0.0196078 0.0196078 0.960784 0.0196078 0.0196078
ကျင့် ခန်း ||| kyin. gan: ||| 0.714286 0.142857 0.142857 0.714286 0.142857 0.142857
ကျင့် ထုံး ||| kyin. htoun: ||| 0.6 0.2 0.2 0.6 0.2 0.2
ကျင် ||| gyin ||| 0.95122 0.0243902 0.0243902 0.95122 0.0243902 0.0243902
ကျင် ||| kyin ||| 0.955556 0.0222222 0.0222222 0.955556 0.0222222 0.0222222
ကျင် ငယ် ||| kyin nge ||| 0.714286 0.142857 0.142857 0.714286 0.142857 0.142857
ကျင်း ||| chin: ||| 0.6 0.2 0.2 0.6 0.2 0.2
ကျင်း ||| gyin: ||| 0.92 0.04 0.04 0.92 0.04 0.04
ကျင်း ||| kyin: ||| 0.945946 0.027027 0.027027 0.945946 0.027027 0.027027
ကျစ် ||| gyi&apos; ||| 0.866667 0.0666667 0.0666667 0.866667 0.0666667 0.0666667
ကျစ် ||| kyi&apos; ||| 0.931034 0.0344828 0.0344828 0.931034 0.0344828 0.0344828
ကျဉ်း ||| gyin: ||| 0.714286 0.142857 0.142857 0.714286 0.142857 0.142857
ကျဉ်း ||| kyin: ||| 0.942857 0.0285714 0.0285714 0.942857 0.0285714 0.0285714
ကျဉ်း ချုပ် ||| kyin: gyou&apos; ||| 0.6 0.2 0.2 0.6 0.2 0.2
ကျည် ||| gya- ||| 0.777778 0.111111 0.111111 0.777778 0.111111 0.111111
ကျည် ||| gyi ||| 0.846154 0.0769231 0.0769231 0.846154 0.0769231 0.0769231
ကျည် ||| kyi ||| 0.945946 0.027027 0.027027 0.945946 0.027027 0.027027
ကျည် တောက် ||| kyi dau&apos; ||| 0.714286 0.142857 0.142857 0.714286 0.142857 0.142857
ကျည် ပွေ့ ||| gya- bwei. ||| 0.777778 0.111111 0.111111 0.777778 0.111111 0.111111
ကျည် ပွေ့ ||| kyi bwei. ||| 0.6 0.2 0.2 0.6 0.2 0.2
ကျည်း ||| gyi: ||| 0.925926 0.037037 0.037037 0.925926 0.037037 0.037037
ကျည်း ||| kyi: ||| 0.846154 0.0769231 0.0769231 0.846154 0.0769231 0.0769231
ကျည်း တန် ||| kyi: tan ||| 0.6 0.2 0.2 0.6 0.2 0.2
ကျည်း သား ||| kyi: dha: ||| 0.6 0.2 0.2 0.6 0.2 0.2
ကျန်း ||| gyan: ||| 0.714286 0.142857 0.142857 0.714286 0.142857 0.142857
ကျန်း ||| kyan: ||| 0.882353 0.0588235 0.0588235 0.882353 0.0588235 0.0588235
ကျန်း တော ||| kyan: do: ||| 0.6 0.2 0.2 0.6 0.2 0.2
ကျန်း မာ ||| kyan: ma ||| 0.714286 0.142857 0.142857 0.714286 0.142857 0.142857
ကျန်း မာ ရေး ||| kyan: ma jei: ||| 0.6 0.2 0.2 0.6 0.2 0.2
ကျပ် ||| gya&apos; ||| 0.882353 0.0588235 0.0588235 0.882353 0.0588235 0.0588235
ကျပ် ||| kya&apos; ||| 0.967213 0.0163934 0.0163934 0.967213 0.0163934 0.0163934
ကျပ် ပြည့် ||| kya&apos; pjei. ||| 0.714286 0.142857 0.142857 0.714286 0.142857 0.142857
ကျမ်း ||| gyan: ||| 0.6 0.2 0.2 0.6 0.2 0.2
ကျမ်း ||| kyan: ||| 0.966102 0.0169492 0.0169492 0.966102 0.0169492 0.0169492
ကျယ် ||| ge ||| 0.6 0.2 0.2 0.6 0.2 0.2
ကျယ် ||| gye ||| 0.931034 0.0344828 0.0344828 0.931034 0.0344828 0.0344828
ကျယ် ||| kye ||| 0.957447 0.0212766 0.0212766 0.957447 0.0212766 0.0212766
ကျယ် ||| kye. ||| 0.6 0.2 0.2 0.6 0.2 0.2
ကျယ် အိမ် ||| gye ein ||| 0.6 0.2 0.2 0.6 0.2 0.2
ကျား ||| gya- ||| 0.6 0.2 0.2 0.6 0.2 0.2
ကျား ||| gya: ||| 0.925926 0.037037 0.037037 0.925926 0.037037 0.037037
ကျား ||| kya ||| 0.714286 0.142857 0.142857 0.714286 0.142857 0.142857
ကျား ||| kya- ||| 0.6 0.2 0.2 0.6 0.2 0.2
ကျား ||| kya: ||| 0.959184 0.0204082 0.0204082 0.959184 0.0204082 0.0204082
ကျိန် ||| kyein ||| 0.894737 0.0526316 0.0526316 0.894737 0.0526316 0.0526316
ကျိန် စာ ||| kyein za ||| 0.818182 0.0909091 0.0909091 0.818182 0.0909091 0.0909091
ကျိန်း ||| kyein: ||| 0.882353 0.0588235 0.0588235 0.882353 0.0588235 0.0588235
ကျို ||| gyou ||| 0.777778 0.111111 0.111111 0.777778 0.111111 0.111111
ကျို ||| kyou ||| 0.6 0.2 0.2 0.6 0.2 0.2
ကျိုး ||| gyou: ||| 0.939394 0.030303 0.030303 0.939394 0.030303 0.030303
ကျိုး ||| khou: ||| 0.6 0.2 0.2 0.6 0.2 0.2
ကျိုး ||| kyou: ||| 0.978947 0.0105263 0.0105263 0.978947 0.0105263 0.0105263
ကျိုး ဆောင် ||| kyou: hsaun ||| 0.6 0.2 0.2 0.6 0.2 0.2
ကျိုး ဆောင် ||| kyou: zaun ||| 0.6 0.2 0.2 0.6 0.2 0.2
ကျီ ||| gyi ||| 0.945946 0.027027 0.027027 0.945946 0.027027 0.027027
ကျီ ||| kyi ||| 0.818182 0.0909091 0.0909091 0.818182 0.0909091 0.0909091
ကျီး ||| gyi: ||| 0.6 0.2 0.2 0.6 0.2 0.2
ကျီး ||| kya- ||| 0.6 0.2 0.2 0.6 0.2 0.2
ကျီး ||| kyi: ||| 0.931034 0.0344828 0.0344828 0.931034 0.0344828 0.0344828
ကျီး ကန်း ||| kyi: gan: ||| 0.777778 0.111111 0.111111 0.777778 0.111111 0.111111
ကျီး ပေါင်း ||| kyi: baun: ||| 0.6 0.2 0.2 0.6 0.2 0.2
ကျုံး ||| gyoun: ||| 0.6 0.2 0.2 0.6 0.2 0.2
ကျုံး ||| kyoun: ||| 0.818182 0.0909091 0.0909091 0.818182 0.0909091 0.0909091
ကျူ ||| kyi ||| 0.6 0.2 0.2 0.6 0.2 0.2
ကျူ ||| kyu ||| 0.904762 0.047619 0.047619 0.904762 0.047619 0.047619
ကျူး ||| kyu: ||| 0.942857 0.0285714 0.0285714 0.942857 0.0285714 0.0285714
ကျူး ကျော် ||| kyu: kyo ||| 0.777778 0.111111 0.111111 0.777778 0.111111 0.111111
ကျူး ကျော် ||| kyu: kyo: ||| 0.6 0.2 0.2 0.6 0.2 0.2
ကျေ ||| gyei ||| 0.866667 0.0666667 0.0666667 0.866667 0.0666667 0.0666667
ကျေ ||| kyei ||| 0.959184 0.0204082 0.0204082 0.959184 0.0204082 0.0204082
ကျော ||| gyo: ||| 0.6 0.2 0.2 0.6 0.2 0.2
ကျော ||| kyo: ||| 0.955556 0.0222222 0.0222222 0.955556 0.0222222 0.0222222
ကျောက် ||| gyau&apos; ||| 0.777778 0.111111 0.111111 0.777778 0.111111 0.111111
ကျောက် ||| gyou&apos; ||| 0.6 0.2 0.2 0.6 0.2 0.2
ကျောက် ||| kyau&apos; ||| 0.988024 0.00598802 0.00598802 0.988024 0.00598802 0.00598802
ကျောက် စာ ||| kyau&apos; sa ||| 0.6 0.2 0.2 0.6 0.2 0.2
ကျောင်း ||| gyaun: ||| 0.95122 0.0243902 0.0243902 0.95122 0.0243902 0.0243902
ကျောင်း ||| kyaun: ||| 0.974026 0.012987 0.012987 0.974026 0.012987 0.012987
ကျောင်း တက် ||| kyaun: de&apos; ||| 0.6 0.2 0.2 0.6 0.2 0.2
ကျော် ||| gyo ||| 0.957447 0.0212766 0.0212766 0.957447 0.0212766 0.0212766
ကျော် ||| gyo: ||| 0.6 0.2 0.2 0.6 0.2 0.2
ကျော် ||| kyo ||| 0.959184 0.0204082 0.0204082 0.959184 0.0204082 0.0204082
ကျော် ||| kyo: ||| 0.6 0.2 0.2 0.6 0.2 0.2
ကျေး ||| gyei: ||| 0.714286 0.142857 0.142857 0.714286 0.142857 0.142857
ကျေး ||| kyei: ||| 0.962264 0.0188679 0.0188679 0.962264 0.0188679 0.0188679
ကျေး ကု ||| kyei: ka- ||| 0.6 0.2 0.2 0.6 0.2 0.2
ကျေး ကု လား ||| kyei: ka- la- ||| 0.6 0.2 0.2 0.6 0.2 0.2
ကျဲ ||| gye: ||| 0.6 0.2 0.2 0.6 0.2 0.2
ကျဲ ||| kye: ||| 0.818182 0.0909091 0.0909091 0.818182 0.0909091 0.0909091
ကျွန် ||| gyun ||| 0.777778 0.111111 0.111111 0.777778 0.111111 0.111111
ကျွန် ||| kya- ||| 0.6 0.2 0.2 0.6 0.2 0.2
ကျွန် ||| kyun ||| 0.925926 0.037037 0.037037 0.925926 0.037037 0.037037
ကျွမ်း ||| gyun: ||| 0.894737 0.0526316 0.0526316 0.894737 0.0526316 0.0526316
ကျွမ်း ||| gywan: ||| 0.6 0.2 0.2 0.6 0.2 0.2
ကျွမ်း ||| kyun: ||| 0.866667 0.0666667 0.0666667 0.866667 0.0666667 0.0666667
ကျွမ်း ||| kywan: ||| 0.866667 0.0666667 0.0666667 0.866667 0.0666667 0.0666667
ကျွမ်း ထိုး ||| gyun: htou: ||| 0.714286 0.142857 0.142857 0.714286 0.142857 0.142857
ကျွေး ||| gywei: ||| 0.866667 0.0666667 0.0666667 0.866667 0.0666667 0.0666667
ကျွေး ||| kywei: ||| 0.948718 0.025641 0.025641 0.948718 0.025641 0.025641
ကျွဲ ||| gywe: ||| 0.6 0.2 0.2 0.6 0.2 0.2
ကျွဲ ||| kywe: ||| 0.913043 0.0434783 0.0434783 0.913043 0.0434783 0.0434783
ကျွံ ||| gyun ||| 0.6 0.2 0.2 0.6 0.2 0.2
ကျွံ ||| kyun ||| 0.818182 0.0909091 0.0909091 0.818182 0.0909091 0.0909091
ကြ ||| da- ||| 0.6 0.2 0.2 0.6 0.2 0.2
ကြ ||| gya. ||| 0.818182 0.0909091 0.0909091 0.818182 0.0909091 0.0909091
ကြ ||| kya ||| 0.6 0.2 0.2 0.6 0.2 0.2
ကြ ||| kya- ||| 0.882353 0.0588235 0.0588235 0.882353 0.0588235 0.0588235
ကြ ငှန်း ||| kya- ngan: ||| 0.714286 0.142857 0.142857 0.714286 0.142857 0.142857
ကြက် ||| gye&apos; ||| 0.846154 0.0769231 0.0769231 0.846154 0.0769231 0.0769231
ကြက် ||| kye&apos; ||| 0.986577 0.00671141 0.00671141 0.986577 0.00671141 0.00671141
ကြက် ချေး ||| kye&apos; chi: ||| 0.6 0.2 0.2 0.6 0.2 0.2
ကြက် သီး ||| kye&apos; thein: ||| 0.714286 0.142857 0.142857 0.714286 0.142857 0.142857
ကြက် ဥ ||| kye&apos; u. ||| 0.6 0.2 0.2 0.6 0.2 0.2
ကြင် ||| gyin ||| 0.714286 0.142857 0.142857 0.714286 0.142857 0.142857
ကြင် ||| kyin ||| 0.913043 0.0434783 0.0434783 0.913043 0.0434783 0.0434783
ကြင် လင် ||| kyin lin ||| 0.6 0.2 0.2 0.6 0.2 0.2
ကြင် လင် မ ||| kyin lin ma- ||| 0.6 0.2 0.2 0.6 0.2 0.2
ကြင် လင် မ ယား ||| kyin lin ma- ja: ||| 0.6 0.2 0.2 0.6 0.2 0.2
ကြင်း ||| gyin: ||| 0.777778 0.111111 0.111111 0.777778 0.111111 0.111111
ကြည့် ||| gyi. ||| 0.818182 0.0909091 0.0909091 0.818182 0.0909091 0.0909091
ကြည့် ||| kyi. ||| 0.971831 0.0140845 0.0140845 0.971831 0.0140845 0.0140845
ကြည် ||| gyi ||| 0.882353 0.0588235 0.0588235 0.882353 0.0588235 0.0588235
ကြည် ||| kyi ||| 0.939394 0.030303 0.030303 0.939394 0.030303 0.030303
ကြည် ||| kyin ||| 0.6 0.2 0.2 0.6 0.2 0.2
ကြတ် ||| gya&apos; ||| 0.6 0.2 0.2 0.6 0.2 0.2
ကြတ် ||| kya&apos; ||| 0.846154 0.0769231 0.0769231 0.846154 0.0769231 0.0769231
ကြန် ||| gyan ||| 0.95122 0.0243902 0.0243902 0.95122 0.0243902 0.0243902
ကြန် ||| kya ||| 0.6 0.2 0.2 0.6 0.2 0.2
ကြန် ||| kyan ||| 0.6 0.2 0.2 0.6 0.2 0.2
ကြန် တက် ||| gyan te&apos; ||| 0.6 0.2 0.2 0.6 0.2 0.2
ကြန် အ ||| gyan a- ||| 0.6 0.2 0.2 0.6 0.2 0.2
ကြန် အ မြောက် ||| gyan a- mjau&apos; ||| 0.6 0.2 0.2 0.6 0.2 0.2
ကြပ် ||| cha&apos; ||| 0.6 0.2 0.2 0.6 0.2 0.2
ကြပ် ||| gya&apos; ||| 0.818182 0.0909091 0.0909091 0.818182 0.0909091 0.0909091
ကြပ် ||| kya&apos; ||| 0.955556 0.0222222 0.0222222 0.955556 0.0222222 0.0222222
ကြမ်း ||| ga- ||| 0.6 0.2 0.2 0.6 0.2 0.2
ကြမ်း ||| gya- ||| 0.777778 0.111111 0.111111 0.777778 0.111111 0.111111
ကြမ်း ||| gyan: ||| 0.962264 0.0188679 0.0188679 0.962264 0.0188679 0.0188679
ကြမ်း ||| kyan: ||| 0.966102 0.0169492 0.0169492 0.966102 0.0169492 0.0169492
ကြယ် ||| gye ||| 0.714286 0.142857 0.142857 0.714286 0.142857 0.142857
ကြယ် ||| kye ||| 0.955556 0.0222222 0.0222222 0.955556 0.0222222 0.0222222
ကြယ် ||| kye&apos; ||| 0.714286 0.142857 0.142857 0.714286 0.142857 0.142857
ကြယ် ||| kyi ||| 0.714286 0.142857 0.142857 0.714286 0.142857 0.142857
ကြာ ||| gya ||| 0.777778 0.111111 0.111111 0.777778 0.111111 0.111111
ကြာ ||| kya ||| 0.974684 0.0126582 0.0126582 0.974684 0.0126582 0.0126582
ကြာ ||| kya- ||| 0.818182 0.0909091 0.0909091 0.818182 0.0909091 0.0909091
ကြာ မ ||| kya ma- ||| 0.6 0.2 0.2 0.6 0.2 0.2
ကြား ||| gya. ||| 0.6 0.2 0.2 0.6 0.2 0.2
ကြား ||| gya: ||| 0.978947 0.0105263 0.0105263 0.978947 0.0105263 0.0105263
ကြား ||| kya: ||| 0.971014 0.0144928 0.0144928 0.971014 0.0144928 0.0144928
ကြား ပေါက် ||| gya: bau&apos; ||| 0.777778 0.111111 0.111111 0.777778 0.111111 0.111111
ကြား ပြင်း ||| kya: bjin: ||| 0.714286 0.142857 0.142857 0.714286 0.142857 0.142857
ကြား ပြင်း ကတ် ||| kya: bjin: ka&apos; ||| 0.6 0.2 0.2 0.6 0.2 0.2
ကြိ ||| ka ||| 0.6 0.2 0.2 0.6 0.2 0.2
ကြိ ||| ka- ||| 0.714286 0.142857 0.142857 0.714286 0.142857 0.142857
ကြိ ယာ ||| ka ri. ||| 0.6 0.2 0.2 0.6 0.2 0.2
ကြိ ယာ ||| ka- ri. ja ||| 0.6 0.2 0.2 0.6 0.2 0.2
ကြိ ယာ ||| ka- ri. ||| 0.6 0.2 0.2 0.6 0.2 0.2
ကြိတ် ||| gyei&apos; ||| 0.714286 0.142857 0.142857 0.714286 0.142857 0.142857
ကြိတ် ||| kyei ||| 0.6 0.2 0.2 0.6 0.2 0.2
ကြိတ် ||| kyei&apos; ||| 0.935484 0.0322581 0.0322581 0.935484 0.0322581 0.0322581
ကြိမ် ||| gyein ||| 0.6 0.2 0.2 0.6 0.2 0.2
ကြိမ် ||| kyein ||| 0.913043 0.0434783 0.0434783 0.913043 0.0434783 0.0434783
ကြို ||| gyou ||| 0.904762 0.047619 0.047619 0.904762 0.047619 0.047619
ကြို ||| kyou ||| 0.904762 0.047619 0.047619 0.904762 0.047619 0.047619
ကြိုက် ||| gyai&apos; ||| 0.714286 0.142857 0.142857 0.714286 0.142857 0.142857
ကြိုက် ||| khai&apos; ||| 0.6 0.2 0.2 0.6 0.2 0.2
ကြိုက် ||| kyai&apos; ||| 0.846154 0.0769231 0.0769231 0.846154 0.0769231 0.0769231
ကြိုး ||| gyou: ||| 0.982906 0.00854701 0.00854701 0.982906 0.00854701 0.00854701
ကြိုး ||| kyo: ||| 0.6 0.2 0.2 0.6 0.2 0.2
ကြိုး ||| kyou: ||| 0.982906 0.00854701 0.00854701 0.982906 0.00854701 0.00854701
ကြီး ||| gyi ||| 0.714286 0.142857 0.142857 0.714286 0.142857 0.142857
ကြီး ||| gyi: ||| 0.995204 0.00239808 0.00239808 0.995204 0.00239808 0.00239808
ကြီး ||| kyi. ||| 0.6 0.2 0.2 0.6 0.2 0.2
ကြီး ||| kyi: ||| 0.990783 0.00460829 0.00460829 0.990783 0.00460829 0.00460829
ကြီး ချုပ် ||| gyi: gyou&apos; ||| 0.714286 0.142857 0.142857 0.714286 0.142857 0.142857
ကြီး မား ||| kyi: ma: ||| 0.6 0.2 0.2 0.6 0.2 0.2
ကြီး ဟစ် ||| gyi hi&apos; ||| 0.6 0.2 0.2 0.6 0.2 0.2
ကြုံ ||| gyoun ||| 0.846154 0.0769231 0.0769231 0.846154 0.0769231 0.0769231
ကြုံ ||| kyoun ||| 0.846154 0.0769231 0.0769231 0.846154 0.0769231 0.0769231
ကြော ||| gyo ||| 0.6 0.2 0.2 0.6 0.2 0.2
ကြော ||| gyo: ||| 0.963636 0.0181818 0.0181818 0.963636 0.0181818 0.0181818
ကြော ||| kyo: ||| 0.968254 0.015873 0.015873 0.968254 0.015873 0.015873
ကြော တင်း ||| gyo: tin: ||| 0.6 0.2 0.2 0.6 0.2 0.2
ကြောက် ||| gyau&apos; ||| 0.6 0.2 0.2 0.6 0.2 0.2
ကြောက် ||| kyau&apos; ||| 0.942857 0.0285714 0.0285714 0.942857 0.0285714 0.0285714
ကြောင် ||| gyaun ||| 0.948718 0.025641 0.025641 0.948718 0.025641 0.025641
ကြောင် ||| kyau ||| 0.6 0.2 0.2 0.6 0.2 0.2
ကြောင် ||| kyaun ||| 0.975904 0.0120482 0.0120482 0.975904 0.0120482 0.0120482
ကြောင် က ||| kyaun ga- ||| 0.6 0.2 0.2 0.6 0.2 0.2
ကြောင် တိုက် ||| gyaun tai&apos; ||| 0.6 0.2 0.2 0.6 0.2 0.2
ကြောင် တိုက် ||| kyaun tai&apos; ||| 0.6 0.2 0.2 0.6 0.2 0.2
ကြောင်း ||| gyaun: ||| 0.969231 0.0153846 0.0153846 0.969231 0.0153846 0.0153846
ကြောင်း ||| gyoun: ||| 0.6 0.2 0.2 0.6 0.2 0.2
ကြောင်း ||| kyaun: ||| 0.981308 0.00934579 0.00934579 0.981308 0.00934579 0.00934579
ကြောင်း တူ ||| kyaun: du ||| 0.6 0.2 0.2 0.6 0.2 0.2
ကြော် ||| gyo ||| 0.913043 0.0434783 0.0434783 0.913043 0.0434783 0.0434783
ကြော် ||| kyo ||| 0.931034 0.0344828 0.0344828 0.931034 0.0344828 0.0344828
ကြေး ||| gyei: ||| 0.962264 0.0188679 0.0188679 0.962264 0.0188679 0.0188679
ကြေး ||| gyi: ||| 0.882353 0.0588235 0.0588235 0.882353 0.0588235 0.0588235
ကြေး ||| kyei: ||| 0.968254 0.015873 0.015873 0.968254 0.015873 0.015873
ကြေး ||| kyi: ||| 0.882353 0.0588235 0.0588235 0.882353 0.0588235 0.0588235
ကြေး ငွေ ||| kyei: ngwei ||| 0.6 0.2 0.2 0.6 0.2 0.2
ကြေး နင်း ||| kyei: nin: ||| 0.6 0.2 0.2 0.6 0.2 0.2
ကြေး နန်း ||| kyei: nan: ||| 0.714286 0.142857 0.142857 0.714286 0.142857 0.142857
ကြေး နန်း ||| kyi: nan: ||| 0.6 0.2 0.2 0.6 0.2 0.2
ကြဲ ||| kye: ||| 0.92 0.04 0.04 0.92 0.04 0.04
ကြံ ||| gya- ||| 0.6 0.2 0.2 0.6 0.2 0.2
ကြံ ||| gyan ||| 0.894737 0.0526316 0.0526316 0.894737 0.0526316 0.0526316
ကြံ ||| gyan: ||| 0.6 0.2 0.2 0.6 0.2 0.2
ကြံ ||| kya ||| 0.846154 0.0769231 0.0769231 0.846154 0.0769231 0.0769231
ကြံ ||| kyan ||| 0.974684 0.0126582 0.0126582 0.974684 0.0126582 0.0126582
ကြံ ||| kyan. ||| 0.6 0.2 0.2 0.6 0.2 0.2
ကြံ ပေး ||| kyan bei: ||| 0.714286 0.142857 0.142857 0.714286 0.142857 0.142857
ကြံ ပေး ||| kyan pei: ||| 0.6 0.2 0.2 0.6 0.2 0.2
ကြံ့ ||| gyan. ||| 0.6 0.2 0.2 0.6 0.2 0.2
ကြံ့ ||| kyan. ||| 0.904762 0.047619 0.047619 0.904762 0.047619 0.047619
ကြွ ||| gywa. ||| 0.866667 0.0666667 0.0666667 0.866667 0.0666667 0.0666667
ကြွ ||| kywa ||| 0.6 0.2 0.2 0.6 0.2 0.2
ကြွ ||| kywa. ||| 0.935484 0.0322581 0.0322581 0.935484 0.0322581 0.0322581
ကြွက် ||| gywe&apos; ||| 0.714286 0.142857 0.142857 0.714286 0.142857 0.142857
ကြွက် ||| kywe&apos; ||| 0.882353 0.0588235 0.0588235 0.882353 0.0588235 0.0588235
ကြွက် ||| kywe: ||| 0.6 0.2 0.2 0.6 0.2 0.2
ကြွေ ||| gywei ||| 0.866667 0.0666667 0.0666667 0.866667 0.0666667 0.0666667
ကြွေ ||| kywei ||| 0.942857 0.0285714 0.0285714 0.942857 0.0285714 0.0285714
ကြွေး ||| gywei: ||| 0.714286 0.142857 0.142857 0.714286 0.142857 0.142857
ကြွေး ||| kywei: ||| 0.959184 0.0204082 0.0204082 0.959184 0.0204082 0.0204082
ကြွေး ထူ ||| kywei: htu ||| 0.6 0.2 0.2 0.6 0.2 0.2
ကြွေး ပူ ||| kywei: pu ||| 0.6 0.2 0.2 0.6 0.2 0.2
ကွက် ||| gwe&apos; ||| 0.960784 0.0196078 0.0196078 0.960784 0.0196078 0.0196078
ကွက် ||| kwe&apos; ||| 0.978947 0.0105263 0.0105263 0.978947 0.0105263 0.0105263
ကွက် ကျော် ||| kwe&apos; kyo ||| 0.6 0.2 0.2 0.6 0.2 0.2
ကွင်း ||| gwin: ||| 0.977011 0.0114943 0.0114943 0.977011 0.0114943 0.0114943
ကွင်း ||| kwin: ||| 0.959184 0.0204082 0.0204082 0.959184 0.0204082 0.0204082
ကွန် ||| kun ||| 0.925926 0.037037 0.037037 0.925926 0.037037 0.037037
ကွန်း ||| gun: ||| 0.866667 0.0666667 0.0666667 0.866667 0.0666667 0.0666667
ကွန်း ||| kun ||| 0.714286 0.142857 0.142857 0.714286 0.142857 0.142857
ကွန်း ||| kun: ||| 0.866667 0.0666667 0.0666667 0.866667 0.0666667 0.0666667
ကွယ် ||| gwe ||| 0.935484 0.0322581 0.0322581 0.935484 0.0322581 0.0322581
ကွယ် ||| kwe ||| 0.942857 0.0285714 0.0285714 0.942857 0.0285714 0.0285714
ကွာ ||| gwa ||| 0.777778 0.111111 0.111111 0.777778 0.111111 0.111111
ကွာ ||| kwa ||| 0.931034 0.0344828 0.0344828 0.931034 0.0344828 0.0344828
ကွေ ||| kwei ||| 0.714286 0.142857 0.142857 0.714286 0.142857 0.142857
ကွေ့ ||| gwei. ||| 0.777778 0.111111 0.111111 0.777778 0.111111 0.111111
ကွေ့ ||| kwei. ||| 0.882353 0.0588235 0.0588235 0.882353 0.0588235 0.0588235
ကွေး ||| gwei: ||| 0.714286 0.142857 0.142857 0.714286 0.142857 0.142857
ကွေး ||| khwei: ||| 0.6 0.2 0.2 0.6 0.2 0.2
ကွေး ||| kwe: ||| 0.6 0.2 0.2 0.6 0.2 0.2
ကွေး ||| kwei: ||| 0.92 0.04 0.04 0.92 0.04 0.04
ကွဲ ||| gwe: ||| 0.962264 0.0188679 0.0188679 0.962264 0.0188679 0.0188679
ကွဲ ||| kwe: ||| 0.968254 0.015873 0.015873 0.968254 0.015873 0.015873
ကွဲ ||| kwei ||| 0.6 0.2 0.2 0.6 0.2 0.2
ကွဲ ||| kwei: ||| 0.6 0.2 0.2 0.6 0.2 0.2
ခ ||| ga- ||| 0.955556 0.0222222 0.0222222 0.955556 0.0222222 0.0222222
ခ ||| ga. ||| 0.913043 0.0434783 0.0434783 0.913043 0.0434783 0.0434783
ခ ||| kha ||| 0.777778 0.111111 0.111111 0.777778 0.111111 0.111111
ခ ||| kha- ||| 0.99449 0.00275482 0.00275482 0.988981 0.00275482 0.00826446
ခ ||| kha. ||| 0.979381 0.0103093 0.0103093 0.979381 0.0103093 0.0103093
ခ ဏ ||| kha- na. ||| 0.866667 0.0666667 0.0666667 0.866667 0.0666667 0.0666667
ခ ဏာ ||| kha- na ||| 0.882353 0.0588235 0.0588235 0.882353 0.0588235 0.0588235
ခ ဏာ ||| kha- ||| 0.6 0.2 0.2 0.6 0.2 0.2
ခ နဲ ||| ga- ne: ||| 0.942857 0.0285714 0.0285714 0.942857 0.0285714 0.0285714
ခ နဲ ||| kha- ne: ||| 0.955556 0.0222222 0.0222222 0.955556 0.0222222 0.0222222
ခ မ ||| kha- ma. ||| 0.777778 0.111111 0.111111 0.777778 0.111111 0.111111
ခ မ ||| kha. ma- ||| 0.714286 0.142857 0.142857 0.714286 0.142857 0.142857
ခ မည်း ||| kha- me: ||| 0.818182 0.0909091 0.0909091 0.818182 0.0909091 0.0909091
ခ မည်း ||| kha- mi: ||| 0.6 0.2 0.2 0.6 0.2 0.2
ခ မန်း ||| kha- man: ||| 0.6 0.2 0.2 0.6 0.2 0.2
ခ ရာ ||| kha- ja ||| 0.95122 0.0243902 0.0243902 0.95122 0.0243902 0.0243902
ခ ရာ ||| kha- ||| 0.6 0.2 0.2 0.6 0.2 0.2
ခ ရီး ||| kha- ji: ||| 0.966102 0.0169492 0.0169492 0.966102 0.0169492 0.0169492
ခ ရီး ကြုံ ||| kha- ji: gyoun ||| 0.6 0.2 0.2 0.6 0.2 0.2
ခ ရီး ဆောင် ||| kha- ji: zaun ||| 0.6 0.2 0.2 0.6 0.2 0.2
ခ ရေ ||| kha- jei ||| 0.714286 0.142857 0.142857 0.714286 0.142857 0.142857
ခ ရေ စေ့ ||| kha- jei zei. ||| 0.6 0.2 0.2 0.6 0.2 0.2
ခ ရေ စေ့ တွင်း ||| kha- jei zei. twin: ||| 0.6 0.2 0.2 0.6 0.2 0.2
ခ ရေ စေ့ တွင်း ကျ ||| kha- jei zei. twin: gya. ||| 0.6 0.2 0.2 0.6 0.2 0.2
ခ လုတ် ||| kha- lou&apos; ||| 0.882353 0.0588235 0.0588235 0.882353 0.0588235 0.0588235
ခက် ||| ge&apos; ||| 0.6 0.2 0.2 0.6 0.2 0.2
ခက် ||| kha- ||| 0.714286 0.142857 0.142857 0.714286 0.142857 0.142857
ခက် ||| khe&apos; ||| 0.945946 0.027027 0.027027 0.945946 0.027027 0.027027
ခင် ||| gin ||| 0.894737 0.0526316 0.0526316 0.894737 0.0526316 0.0526316
ခင် ||| gin. ||| 0.6 0.2 0.2 0.6 0.2 0.2
ခင် ||| kha- ||| 0.6 0.2 0.2 0.6 0.2 0.2
ခင် ||| khin ||| 0.959184 0.0204082 0.0204082 0.959184 0.0204082 0.0204082
ခင်း ||| gin: ||| 0.959184 0.0204082 0.0204082 0.959184 0.0204082 0.0204082
ခင်း ||| khin: ||| 0.968254 0.015873 0.015873 0.968254 0.015873 0.015873
ခင်း ||| ngin: ||| 0.6 0.2 0.2 0.6 0.2 0.2
ခတ် ||| ga&apos; ||| 0.818182 0.0909091 0.0909091 0.818182 0.0909091 0.0909091
ခတ် ||| kha&apos; ||| 0.98374 0.00813008 0.00813008 0.98374 0.00813008 0.00813008
ခတ် ||| khi&apos; ||| 0.6 0.2 0.2 0.6 0.2 0.2
ခတ် ||| nga&apos; ||| 0.714286 0.142857 0.142857 0.714286 0.142857 0.142857
ခန့် ||| gan. ||| 0.777778 0.111111 0.111111 0.777778 0.111111 0.111111
ခန့် ||| khan. ||| 0.939394 0.030303 0.030303 0.939394 0.030303 0.030303
ခန်း ||| gan: ||| 0.964912 0.0175439 0.0175439 0.964912 0.0175439 0.0175439
ခန်း ||| khan: ||| 0.971831 0.0140845 0.0140845 0.971831 0.0140845 0.0140845
ခန်း ပြတ် ||| gan: pja&apos; ||| 0.6 0.2 0.2 0.6 0.2 0.2
ခန်း လုံး ||| khan: loun: ||| 0.6 0.2 0.2 0.6 0.2 0.2
ခန်း လုံး ပြည့် ||| khan: loun: bjei. ||| 0.6 0.2 0.2 0.6 0.2 0.2
ခပ် ||| ga&apos; ||| 0.6 0.2 0.2 0.6 0.2 0.2
ခပ် ||| kha&apos; ||| 0.931034 0.0344828 0.0344828 0.931034 0.0344828 0.0344828
ခမ်း ||| gan: ||| 0.714286 0.142857 0.142857 0.714286 0.142857 0.142857
ခမ်း ||| khan: ||| 0.935484 0.0322581 0.0322581 0.935484 0.0322581 0.0322581
ခါ ||| ga ||| 0.931034 0.0344828 0.0344828 0.931034 0.0344828 0.0344828
ခါ ||| kha ||| 0.986395 0.00680272 0.00680272 0.986395 0.00680272 0.00680272
ခါ ||| kha- ||| 0.6 0.2 0.2 0.6 0.2 0.2
ခါ ရ ||| kha ja. ||| 0.714286 0.142857 0.142857 0.714286 0.142857 0.142857
ခါ လည် ||| kha le ||| 0.714286 0.142857 0.142857 0.714286 0.142857 0.142857
ခါး ||| ga- ||| 0.95122 0.0243902 0.0243902 0.95122 0.0243902 0.0243902
ခါး ||| ga: ||| 0.966102 0.0169492 0.0169492 0.966102 0.0169492 0.0169492
ခါး ||| kha- ||| 0.846154 0.0769231 0.0769231 0.846154 0.0769231 0.0769231
ခါး ||| kha: ||| 0.959184 0.0204082 0.0204082 0.959184 0.0204082 0.0204082
ခါး ဆီး ||| ga- zi. ||| 0.6 0.2 0.2 0.6 0.2 0.2
ခါး ဆီး ပတ် ||| ga- zi. ba&apos; ||| 0.6 0.2 0.2 0.6 0.2 0.2
ခာ ||| kha ||| 0.777778 0.111111 0.111111 0.777778 0.111111 0.111111
ခိ ||| khi. ||| 0.818182 0.0909091 0.0909091 0.818182 0.0909091 0.0909091
ခိ ဏ ||| khi. na. ||| 0.714286 0.142857 0.142857 0.714286 0.142857 0.142857
ခို ||| gou ||| 0.818182 0.0909091 0.0909091 0.818182 0.0909091 0.0909091
ခို ||| khou ||| 0.970149 0.0149254 0.0149254 0.970149 0.0149254 0.0149254
ခို လှုံ ||| khou lhoun ||| 0.714286 0.142857 0.142857 0.714286 0.142857 0.142857
ခို လှုံ ခွင့် ||| khou lhoun gwin. ||| 0.6 0.2 0.2 0.6 0.2 0.2
ခိုင် ||| gain ||| 0.818182 0.0909091 0.0909091 0.818182 0.0909091 0.0909091
ခိုင် ||| khain ||| 0.948718 0.025641 0.025641 0.948718 0.025641 0.025641
ခိုင်း ||| khain: ||| 0.913043 0.0434783 0.0434783 0.913043 0.0434783 0.0434783
ခိုး ||| gou: ||| 0.904762 0.047619 0.047619 0.904762 0.047619 0.047619
ခိုး ||| khou: ||| 0.979798 0.010101 0.010101 0.979798 0.010101 0.010101
ခိုး ရာ ||| khou: ja ||| 0.6 0.2 0.2 0.6 0.2 0.2
ခု ||| bu. ||| 0.6 0.2 0.2 0.6 0.2 0.2
ခု ||| ga- ||| 0.6 0.2 0.2 0.6 0.2 0.2
ခု ||| gu. ||| 0.894737 0.0526316 0.0526316 0.894737 0.0526316 0.0526316
ခု ||| khu ||| 0.6 0.2 0.2 0.6 0.2 0.2
ခု ||| khu. ||| 0.970149 0.0149254 0.0149254 0.970149 0.0149254 0.0149254
ခု ||| khu: ||| 0.6 0.2 0.2 0.6 0.2 0.2
ခု ||| khun ||| 0.925926 0.037037 0.037037 0.925926 0.037037 0.037037
ခု ခံ ||| khu. gan ||| 0.6 0.2 0.2 0.6 0.2 0.2
ခု ခံ ||| khu: ga ||| 0.6 0.2 0.2 0.6 0.2 0.2
ခု ခံ အား ||| khu: ga na: ||| 0.6 0.2 0.2 0.6 0.2 0.2
ခု တင် ||| ga- din ||| 0.6 0.2 0.2 0.6 0.2 0.2
ခု တင် ||| khu. din ||| 0.714286 0.142857 0.142857 0.714286 0.142857 0.142857
ခု န ||| gu. na. ||| 0.6 0.2 0.2 0.6 0.2 0.2
ခု နစ် ||| khu nha- ||| 0.6 0.2 0.2 0.6 0.2 0.2
ခု နစ် ||| khun na- ||| 0.6 0.2 0.2 0.6 0.2 0.2
ခု နစ် ||| khun nha- ||| 0.913043 0.0434783 0.0434783 0.913043 0.0434783 0.0434783
ခု နစ် ||| khun nhi&apos; ||| 0.6 0.2 0.2 0.6 0.2 0.2
ခု နစ် ရက် ||| khu nha- je&apos; ||| 0.6 0.2 0.2 0.6 0.2 0.2
ခုတ် ||| gou&apos; ||| 0.714286 0.142857 0.142857 0.714286 0.142857 0.142857
ခုတ် ||| khou&apos; ||| 0.962264 0.0188679 0.0188679 0.962264 0.0188679 0.0188679
ခုန် ||| goun ||| 0.777778 0.111111 0.111111 0.777778 0.111111 0.111111
ခုန် ||| khoun ||| 0.948718 0.025641 0.025641 0.948718 0.025641 0.025641
ခုံ ||| ga- ||| 0.714286 0.142857 0.142857 0.714286 0.142857 0.142857
ခုံ ||| goun ||| 0.953488 0.0232558 0.0232558 0.953488 0.0232558 0.0232558
ခုံ ||| khou ||| 0.6 0.2 0.2 0.6 0.2 0.2
ခုံ ||| khoun ||| 0.971014 0.0144928 0.0144928 0.971014 0.0144928 0.0144928
ခုံ ||| khoun. ||| 0.6 0.2 0.2 0.6 0.2 0.2
ခုံ ||| ngoun ||| 0.6 0.2 0.2 0.6 0.2 0.2
ခုံ ရုံး ||| khou njoun: ||| 0.6 0.2 0.2 0.6 0.2 0.2
ခုံ ရုံး ||| khoun joun: ||| 0.6 0.2 0.2 0.6 0.2 0.2
ခုံး ||| goun: ||| 0.846154 0.0769231 0.0769231 0.846154 0.0769231 0.0769231
ခုံး ||| khoun: ||| 0.92 0.04 0.04 0.92 0.04 0.04
ခူ ||| gu ||| 0.777778 0.111111 0.111111 0.777778 0.111111 0.111111
ခူ ||| khu ||| 0.866667 0.0666667 0.0666667 0.866667 0.0666667 0.0666667
ခေ ||| khei ||| 0.6 0.2 0.2 0.6 0.2 0.2
ခေတ် ||| khi&apos; ||| 0.974684 0.0126582 0.0126582 0.974684 0.0126582 0.0126582
ခေါ ||| kho: ||| 0.882353 0.0588235 0.0588235 0.882353 0.0588235 0.0588235
ခေါက် ||| gau&apos; ||| 0.777778 0.111111 0.111111 0.777778 0.111111 0.111111
ခေါက် ||| khau&apos; ||| 0.978495 0.0107527 0.0107527 0.978495 0.0107527 0.0107527
ခေါက် ချိုး ||| khau&apos; chou: ||| 0.777778 0.111111 0.111111 0.777778 0.111111 0.111111
ခေါက် ရွှေ ||| khau&apos; shwei ||| 0.6 0.2 0.2 0.6 0.2 0.2
ခေါက် လက် ||| khau&apos; le&apos; ||| 0.6 0.2 0.2 0.6 0.2 0.2
ခေါင် ||| gaun ||| 0.955556 0.0222222 0.0222222 0.955556 0.0222222 0.0222222
ခေါင် ||| khau ||| 0.714286 0.142857 0.142857 0.714286 0.142857 0.142857
ခေါင် ||| khaun ||| 0.945946 0.027027 0.027027 0.945946 0.027027 0.027027
ခေါင်း ||| gaun. ||| 0.6 0.2 0.2 0.6 0.2 0.2
ခေါင်း ||| gaun: ||| 0.990521 0.00473934 0.00473934 0.990521 0.00473934 0.00473934
ခေါင်း ||| khaun: ||| 0.962264 0.0188679 0.0188679 0.962264 0.0188679 0.0188679
ခေါင်း ||| ngaun: ||| 0.6 0.2 0.2 0.6 0.2 0.2
ခေါင်း ချင်း ||| gaun: gyin: ||| 0.714286 0.142857 0.142857 0.714286 0.142857 0.142857
ခေါင်း ချင်း ဆိုင် ||| gaun: gyin: hsain ||| 0.6 0.2 0.2 0.6 0.2 0.2
ခေါင်း ပိတ် ||| khaun: pei&apos; ||| 0.6 0.2 0.2 0.6 0.2 0.2
ခေါ် ||| go ||| 0.6 0.2 0.2 0.6 0.2 0.2
ခေါ် ||| kho ||| 0.969231 0.0153846 0.0153846 0.969231 0.0153846 0.0153846
ခဲ ||| ge: ||| 0.971831 0.0140845 0.0140845 0.971831 0.0140845 0.0140845
ခဲ ||| khe&apos; ||| 0.6 0.2 0.2 0.6 0.2 0.2
ခဲ ||| khe: ||| 0.978947 0.0105263 0.0105263 0.978947 0.0105263 0.0105263
ခဲ ||| nge: ||| 0.6 0.2 0.2 0.6 0.2 0.2
ခဲ မ ||| khe: ma- ||| 0.6 0.2 0.2 0.6 0.2 0.2
ခဲ မ ||| khe: ma. ||| 0.714286 0.142857 0.142857 0.714286 0.142857 0.142857
ခဲ လိုက် ||| khe: lai&apos; ||| 0.6 0.2 0.2 0.6 0.2 0.2
ခံ ||| ga ||| 0.777778 0.111111 0.111111 0.777778 0.111111 0.111111
ခံ ||| ga- ||| 0.904762 0.047619 0.047619 0.904762 0.047619 0.047619
ခံ ||| gan ||| 0.986928 0.00653595 0.00653595 0.986928 0.00653595 0.00653595
ခံ ||| gan. ||| 0.6 0.2 0.2 0.6 0.2 0.2
ခံ ||| kha ||| 0.6 0.2 0.2 0.6 0.2 0.2
ခံ ||| khan ||| 0.993399 0.00330033 0.00330033 0.993399 0.00330033 0.00330033
ခံ တွင်း ||| ga- dwin ||| 0.6 0.2 0.2 0.6 0.2 0.2
ခံ တွင်း ||| ga- dwin: ||| 0.866667 0.0666667 0.0666667 0.866667 0.0666667 0.0666667
ခံ ရ ||| gan ja. ||| 0.6 0.2 0.2 0.6 0.2 0.2
ခံ ရ ||| khan ja- ||| 0.6 0.2 0.2 0.6 0.2 0.2
ခံ ရ ||| khan ja. ||| 0.714286 0.142857 0.142857 0.714286 0.142857 0.142857
ခံ ရ တု ||| khan ja- du. ||| 0.6 0.2 0.2 0.6 0.2 0.2
ခံ အား ||| ga na: ||| 0.6 0.2 0.2 0.6 0.2 0.2
ချ ||| cha ||| 0.714286 0.142857 0.142857 0.714286 0.142857 0.142857
ချ ||| cha- ||| 0.846154 0.0769231 0.0769231 0.846154 0.0769231 0.0769231
ချ ||| cha. ||| 0.991903 0.00404858 0.00404858 0.991903 0.00404858 0.00404858
ချ ||| cha: ||| 0.6 0.2 0.2 0.6 0.2 0.2
ချ ||| gya. ||| 0.714286 0.142857 0.142857 0.714286 0.142857 0.142857
ချက် ||| che&apos; ||| 0.982609 0.00869565 0.00869565 0.982609 0.00869565 0.00869565
ချက် ||| ge&apos; ||| 0.6 0.2 0.2 0.6 0.2 0.2
ချက် ||| gye&apos; ||| 0.985816 0.0070922 0.0070922 0.985816 0.0070922 0.0070922
ချက် ကျ ||| gye&apos; kya. ||| 0.714286 0.142857 0.142857 0.714286 0.142857 0.142857
ချက် ကြွေ ||| che&apos; kywei ||| 0.6 0.2 0.2 0.6 0.2 0.2
ချက် အ ||| che&apos; a- ||| 0.777778 0.111111 0.111111 0.777778 0.111111 0.111111
ချင့် ||| chin. ||| 0.882353 0.0588235 0.0588235 0.882353 0.0588235 0.0588235
ချင်း ||| chin: ||| 0.971831 0.0140845 0.0140845 0.971831 0.0140845 0.0140845
ချင်း ||| gyin ||| 0.6 0.2 0.2 0.6 0.2 0.2
ချင်း ||| gyin: ||| 0.981982 0.00900901 0.00900901 0.981982 0.00900901 0.00900901
ချင်း ခတ် ||| gyin: kha&apos; ||| 0.6 0.2 0.2 0.6 0.2 0.2
ချင်း စာ ||| chin: za ||| 0.6 0.2 0.2 0.6 0.2 0.2
ချင်း စာ ||| gyin: sa ||| 0.714286 0.142857 0.142857 0.714286 0.142857 0.142857
ချင်း ဆိုင် ||| gyin: hsain ||| 0.714286 0.142857 0.142857 0.714286 0.142857 0.142857
ချင်း ဆိုင် ||| gyin: zain ||| 0.6 0.2 0.2 0.6 0.2 0.2
ချင်း ပြန် ||| gyin: bjan ||| 0.6 0.2 0.2 0.6 0.2 0.2
ချင်း ပြီး ||| chin: bi: ||| 0.6 0.2 0.2 0.6 0.2 0.2
ချင်း ပြီး ||| chin: pi: ||| 0.6 0.2 0.2 0.6 0.2 0.2
ချင်း ပြီး ||| gyin: bji: ||| 0.6 0.2 0.2 0.6 0.2 0.2
ချစ် ||| chi&apos; ||| 0.866667 0.0666667 0.0666667 0.866667 0.0666667 0.0666667
ချစ် ||| gyi&apos; ||| 0.6 0.2 0.2 0.6 0.2 0.2
ချဉ် ||| chin ||| 0.953488 0.0232558 0.0232558 0.953488 0.0232558 0.0232558
ချဉ် ||| gyin ||| 0.935484 0.0322581 0.0322581 0.935484 0.0322581 0.0322581
ချဉ် ||| gyin: ||| 0.6 0.2 0.2 0.6 0.2 0.2
ချဉ် ပေါက် ||| chin pau&apos; ||| 0.6 0.2 0.2 0.6 0.2 0.2
ချည် ||| chi ||| 0.966102 0.0169492 0.0169492 0.966102 0.0169492 0.0169492
ချည် ||| chin ||| 0.6 0.2 0.2 0.6 0.2 0.2
ချည် ||| gyi ||| 0.92 0.04 0.04 0.92 0.04 0.04
ချည် လုံး ||| chi loun: ||| 0.6 0.2 0.2 0.6 0.2 0.2
ချည်း ||| chi: ||| 0.818182 0.0909091 0.0909091 0.818182 0.0909091 0.0909091
ချန် ||| chan ||| 0.904762 0.047619 0.047619 0.904762 0.047619 0.047619
ချပ် ||| cha&apos; ||| 0.913043 0.0434783 0.0434783 0.913043 0.0434783 0.0434783
ချပ် ||| gya&apos; ||| 0.942857 0.0285714 0.0285714 0.942857 0.0285714 0.0285714
ချမ်း ||| chan: ||| 0.939394 0.030303 0.030303 0.939394 0.030303 0.030303
ချမ်း ||| gyan: ||| 0.894737 0.0526316 0.0526316 0.894737 0.0526316 0.0526316
ချယ် ||| che ||| 0.846154 0.0769231 0.0769231 0.846154 0.0769231 0.0769231
ချာ ||| cha ||| 0.968254 0.015873 0.015873 0.968254 0.015873 0.015873
ချာ ||| gya ||| 0.935484 0.0322581 0.0322581 0.935484 0.0322581 0.0322581
ချာ ချာ ||| cha gya ||| 0.714286 0.142857 0.142857 0.714286 0.142857 0.142857
ချာ ပေါက် ||| gya bau&apos; ||| 0.6 0.2 0.2 0.6 0.2 0.2
ချာ လည် ||| cha le ||| 0.714286 0.142857 0.142857 0.714286 0.142857 0.142857
ချာ လည် ||| cha le. ||| 0.6 0.2 0.2 0.6 0.2 0.2
ချာ လည် ||| gya le ||| 0.714286 0.142857 0.142857 0.714286 0.142857 0.142857
ချား ||| cha: ||| 0.904762 0.047619 0.047619 0.904762 0.047619 0.047619
ချား ||| gya: ||| 0.6 0.2 0.2 0.6 0.2 0.2
ချိ ||| chi ||| 0.6 0.2 0.2 0.6 0.2 0.2
ချိ ||| chi. ||| 0.866667 0.0666667 0.0666667 0.866667 0.0666667 0.0666667
ချိ ||| gyi. ||| 0.714286 0.142857 0.142857 0.714286 0.142857 0.142857
ချိတ် ||| chei&apos; ||| 0.925926 0.037037 0.037037 0.925926 0.037037 0.037037
ချိတ် ||| gyei&apos; ||| 0.92 0.04 0.04 0.92 0.04 0.04
ချိန် ||| chain ||| 0.6 0.2 0.2 0.6 0.2 0.2
ချိန် ||| chein ||| 0.978495 0.0107527 0.0107527 0.978495 0.0107527 0.0107527
ချိန် ||| gyein ||| 0.957447 0.0212766 0.0212766 0.957447 0.0212766 0.0212766
ချိန် ခွင် ||| chein gwin ||| 0.846154 0.0769231 0.0769231 0.846154 0.0769231 0.0769231
ချိန် မ ||| chein ma- ||| 0.818182 0.0909091 0.0909091 0.818182 0.0909091 0.0909091
ချိန်း ||| chein: ||| 0.882353 0.0588235 0.0588235 0.882353 0.0588235 0.0588235
ချို ||| chou ||| 0.953488 0.0232558 0.0232558 0.953488 0.0232558 0.0232558
ချို ||| gyou ||| 0.948718 0.025641 0.025641 0.948718 0.025641 0.025641
ချိုင့် ||| chain. ||| 0.714286 0.142857 0.142857 0.714286 0.142857 0.142857
ချိုင့် ||| gyain. ||| 0.913043 0.0434783 0.0434783 0.913043 0.0434783 0.0434783
ချိုး ||| chou: ||| 0.968254 0.015873 0.015873 0.968254 0.015873 0.015873
ချိုး ||| gyou: ||| 0.948718 0.025641 0.025641 0.948718 0.025641 0.025641
ချိုး ချိုး ||| chou: gyou: ||| 0.6 0.2 0.2 0.6 0.2 0.2
ချိုး ချိုး ||| gyou: chou: ||| 0.6 0.2 0.2 0.6 0.2 0.2
ချီ ||| chi ||| 0.942857 0.0285714 0.0285714 0.942857 0.0285714 0.0285714
ချီ ||| gyi ||| 0.846154 0.0769231 0.0769231 0.846154 0.0769231 0.0769231
ချီး ||| chi: ||| 0.925926 0.037037 0.037037 0.925926 0.037037 0.037037
ချီး ||| gyi: ||| 0.6 0.2 0.2 0.6 0.2 0.2
ချုပ် ||| chou&apos; ||| 0.980952 0.00952381 0.00952381 0.980952 0.00952381 0.00952381
ချုပ် ||| gyou&apos; ||| 0.977528 0.011236 0.011236 0.977528 0.011236 0.011236
ချုပ် ရိုး ||| chou&apos; jou: ||| 0.6 0.2 0.2 0.6 0.2 0.2
ချူ ||| chu ||| 0.866667 0.0666667 0.0666667 0.866667 0.0666667 0.0666667
ချူ ||| gyu ||| 0.714286 0.142857 0.142857 0.714286 0.142857 0.142857
ချေ ||| chei ||| 0.939394 0.030303 0.030303 0.939394 0.030303 0.030303
ချေ ||| chi ||| 0.6 0.2 0.2 0.6 0.2 0.2
ချေ ||| gyei ||| 0.777778 0.111111 0.111111 0.777778 0.111111 0.111111
ချော ||| cho: ||| 0.955556 0.0222222 0.0222222 0.955556 0.0222222 0.0222222
ချော ||| gyo: ||| 0.866667 0.0666667 0.0666667 0.866667 0.0666667 0.0666667
ချောင် ||| chaun ||| 0.939394 0.030303 0.030303 0.939394 0.030303 0.030303
ချောင် ||| gyaun ||| 0.904762 0.047619 0.047619 0.904762 0.047619 0.047619
ချောင်း ||| chaun: ||| 0.971014 0.0144928 0.0144928 0.971014 0.0144928 0.0144928
ချောင်း ||| gyaun: ||| 0.904762 0.047619 0.047619 0.904762 0.047619 0.047619
ချောင်း ဆိုး ||| chaun: zou: ||| 0.777778 0.111111 0.111111 0.777778 0.111111 0.111111
ချောင်း မြောင်း ||| chaun: mjaun: ||| 0.6 0.2 0.2 0.6 0.2 0.2
ချော် ||| cho ||| 0.939394 0.030303 0.030303 0.939394 0.030303 0.030303
ချော် ||| gyo ||| 0.846154 0.0769231 0.0769231 0.846154 0.0769231 0.0769231
ချေး ||| chei: ||| 0.846154 0.0769231 0.0769231 0.846154 0.0769231 0.0769231
ချေး ||| chi: ||| 0.92 0.04 0.04 0.92 0.04 0.04
ချေး ||| gyei: ||| 0.6 0.2 0.2 0.6 0.2 0.2
ချေး ||| gyi: ||| 0.913043 0.0434783 0.0434783 0.913043 0.0434783 0.0434783
ချေး ခါ ||| gyi: kha ||| 0.714286 0.142857 0.142857 0.714286 0.142857 0.142857
ချဲ့ ||| che ||| 0.714286 0.142857 0.142857 0.714286 0.142857 0.142857
ချဲ့ ||| che. ||| 0.913043 0.0434783 0.0434783 0.913043 0.0434783 0.0434783
ချဲ့ ||| gye. ||| 0.6 0.2 0.2 0.6 0.2 0.2
ချွတ် ||| chu&apos; ||| 0.955556 0.0222222 0.0222222 0.955556 0.0222222 0.0222222
ချွတ် ချွတ် ||| chu&apos; chu&apos; ||| 0.6 0.2 0.2 0.6 0.2 0.2
ချွန် ||| chun ||| 0.866667 0.0666667 0.0666667 0.866667 0.0666667 0.0666667
ချွန် ||| gyun ||| 0.882353 0.0588235 0.0588235 0.882353 0.0588235 0.0588235
ချွေး ||| chwei: ||| 0.957447 0.0212766 0.0212766 0.957447 0.0212766 0.0212766
ချွေး ||| gywei: ||| 0.6 0.2 0.2 0.6 0.2 0.2
ချွဲ ||| chwe: ||| 0.931034 0.0344828 0.0344828 0.931034 0.0344828 0.0344828
ချွဲ ||| gywe: ||| 0.6 0.2 0.2 0.6 0.2 0.2
ခြ ||| cha. ||| 0.818182 0.0909091 0.0909091 0.818182 0.0909091 0.0909091
ခြင် ||| chin ||| 0.931034 0.0344828 0.0344828 0.931034 0.0344828 0.0344828
ခြင် ||| gyin ||| 0.714286 0.142857 0.142857 0.714286 0.142857 0.142857
ခြင်း ||| chin: ||| 0.925926 0.037037 0.037037 0.925926 0.037037 0.037037
ခြင်း ||| gyin ||| 0.6 0.2 0.2 0.6 0.2 0.2
ခြင်း ||| gyin: ||| 0.939394 0.030303 0.030303 0.939394 0.030303 0.030303
ခြင်း လုံး ||| chin: loun: ||| 0.6 0.2 0.2 0.6 0.2 0.2
ခြစ် ||| chi&apos; ||| 0.818182 0.0909091 0.0909091 0.818182 0.0909091 0.0909091
ခြစ် ||| gyi&apos; ||| 0.92 0.04 0.04 0.92 0.04 0.04
ခြစ် ခြစ် ||| chi&apos; chi&apos; ||| 0.6 0.2 0.2 0.6 0.2 0.2
ခြမ်း ||| chan: ||| 0.92 0.04 0.04 0.92 0.04 0.04
ခြမ်း ||| gyan: ||| 0.904762 0.047619 0.047619 0.904762 0.047619 0.047619
ခြိုက် ||| chai&apos; ||| 0.866667 0.0666667 0.0666667 0.866667 0.0666667 0.0666667
ခြိုက် ||| gyai&apos; ||| 0.6 0.2 0.2 0.6 0.2 0.2
ခြုတ် ||| chou&apos; ||| 0.714286 0.142857 0.142857 0.714286 0.142857 0.142857
ခြုတ် ||| gyou&apos; ||| 0.6 0.2 0.2 0.6 0.2 0.2
ခြုတ် ခြုတ် ||| chou&apos; gyou&apos; ||| 0.6 0.2 0.2 0.6 0.2 0.2
ခြေ ||| chei ||| 0.987879 0.00606061 0.00606061 0.987879 0.00606061 0.00606061
ခြေ ||| chi ||| 0.986014 0.00699301 0.00699301 0.986014 0.00699301 0.00699301
ခြေ ||| gyei ||| 0.972603 0.0136986 0.0136986 0.972603 0.0136986 0.0136986
ခြေ ||| gyei&apos; ||| 0.6 0.2 0.2 0.6 0.2 0.2
ခြေ ||| gyi ||| 0.6 0.2 0.2 0.6 0.2 0.2
ခြေ ကုန် ||| chei goun ||| 0.714286 0.142857 0.142857 0.714286 0.142857 0.142857
ခြေ ကုန် ||| chei koun ||| 0.6 0.2 0.2 0.6 0.2 0.2
ခြေ ကုန် ||| chi goun ||| 0.777778 0.111111 0.111111 0.777778 0.111111 0.111111
ခြေ ကုန် ||| chi koun ||| 0.6 0.2 0.2 0.6 0.2 0.2
ခြေ ကုန် လက် ||| chi goun le&apos; ||| 0.6 0.2 0.2 0.6 0.2 0.2
ခြေ ကုန် လက် ပန်း ||| chi goun le&apos; pan: ||| 0.6 0.2 0.2 0.6 0.2 0.2
ခြေ ကုန် လက် ပန်း ကျ ||| chi goun le&apos; pan: kya. ||| 0.6 0.2 0.2 0.6 0.2 0.2
ခြေ ကျ ||| chei kya. ||| 0.6 0.2 0.2 0.6 0.2 0.2
ခြေ ကျ ||| chi kya. ||| 0.6 0.2 0.2 0.6 0.2 0.2
ခြေ ကြွ ||| chei gywa. ||| 0.6 0.2 0.2 0.6 0.2 0.2
ခြေ ချ ||| chei cha. ||| 0.6 0.2 0.2 0.6 0.2 0.2
ခြေ ချ ||| chi cha. ||| 0.6 0.2 0.2 0.6 0.2 0.2
ခြေ ချင်း ||| chei gyin: ||| 0.6 0.2 0.2 0.6 0.2 0.2
ခြေ ချင်း ||| chi gyin: ||| 0.818182 0.0909091 0.0909091 0.818182 0.0909091 0.0909091
ခြေ ချင်း ခတ် ||| chi gyin: kha&apos; ||| 0.6 0.2 0.2 0.6 0.2 0.2
ခြေ ခွင် ||| chei gwin ||| 0.714286 0.142857 0.142857 0.714286 0.142857 0.142857
ခြေ ခွင် ||| chi gwin ||| 0.6 0.2 0.2 0.6 0.2 0.2
ခြေ ခွင် ||| chi khwin ||| 0.6 0.2 0.2 0.6 0.2 0.2
ခြေ ခွင် ရိုက် ||| chei gwin jai&apos; ||| 0.6 0.2 0.2 0.6 0.2 0.2
ခြေ စ ||| chi za. ||| 0.6 0.2 0.2 0.6 0.2 0.2
ခြေ စ လက် ||| chi za. le&apos; ||| 0.6 0.2 0.2 0.6 0.2 0.2
ခြေ စ လက် စ ||| chi za. le&apos; sa. ||| 0.6 0.2 0.2 0.6 0.2 0.2
ခြေ စောင့် ||| chei zaun. ||| 0.714286 0.142857 0.142857 0.714286 0.142857 0.142857
ခြေ စောင့် ||| chi zaun. ||| 0.6 0.2 0.2 0.6 0.2 0.2
ခြေ ဆင်း ||| chei hsin: ||| 0.6 0.2 0.2 0.6 0.2 0.2
ခြေ ဆင်း ||| chei zin: ||| 0.6 0.2 0.2 0.6 0.2 0.2
ခြေ ဆင်း ||| chi hsin: ||| 0.6 0.2 0.2 0.6 0.2 0.2
ခြေ ဆင်း ||| chi zin: ||| 0.714286 0.142857 0.142857 0.714286 0.142857 0.142857
ခြေ ထိတ် ||| chi dei&apos; ||| 0.6 0.2 0.2 0.6 0.2 0.2
ခြေ ပျက် ||| gyei pje&apos; ||| 0.6 0.2 0.2 0.6 0.2 0.2
ခြေ ပွတ် ||| chei bu&apos; ||| 0.6 0.2 0.2 0.6 0.2 0.2
ခြေ ပွတ် တိုင် ||| chei bu&apos; tain ||| 0.6 0.2 0.2 0.6 0.2 0.2
ခြေ ပွတ် တိုင် လည် ||| chei bu&apos; tain le ||| 0.6 0.2 0.2 0.6 0.2 0.2
ခြေ မ ||| chei ma- ||| 0.714286 0.142857 0.142857 0.714286 0.142857 0.142857
ခြေ မ ||| chi ma. ||| 0.6 0.2 0.2 0.6 0.2 0.2
ခြေ မ ||| gyei ma- ||| 0.6 0.2 0.2 0.6 0.2 0.2
ခြေ များ ||| chi mja: ||| 0.714286 0.142857 0.142857 0.714286 0.142857 0.142857
ခြေ မြန် ||| chei mjan ||| 0.777778 0.111111 0.111111 0.777778 0.111111 0.111111
ခြေ မြန် ||| chi mjan ||| 0.777778 0.111111 0.111111 0.777778 0.111111 0.111111
ခြောက် ||| chau&apos; ||| 0.976471 0.0117647 0.0117647 0.976471 0.0117647 0.0117647
ခြောက် ||| chou&apos; ||| 0.6 0.2 0.2 0.6 0.2 0.2
ခြောက် ||| gyau&apos; ||| 0.955556 0.0222222 0.0222222 0.955556 0.0222222 0.0222222
ခြောက် ပေါက် ||| chau&apos; pau&apos; ||| 0.6 0.2 0.2 0.6 0.2 0.2
ခွ ||| gwa. ||| 0.92 0.04 0.04 0.92 0.04 0.04
ခွ ||| khwa. ||| 0.92 0.04 0.04 0.92 0.04 0.04
ခွက် ||| gwe&apos; ||| 0.955556 0.0222222 0.0222222 0.955556 0.0222222 0.0222222
ခွက် ||| khwe&apos; ||| 0.968254 0.015873 0.015873 0.968254 0.015873 0.015873
ခွင့် ||| gwin ||| 0.6 0.2 0.2 0.6 0.2 0.2
ခွင့် ||| gwin. ||| 0.913043 0.0434783 0.0434783 0.913043 0.0434783 0.0434783
ခွင့် ||| khwin ||| 0.6 0.2 0.2 0.6 0.2 0.2
ခွင့် ||| khwin. ||| 0.959184 0.0204082 0.0204082 0.959184 0.0204082 0.0204082
ခွင့် အ ||| khwin. a- ||| 0.777778 0.111111 0.111111 0.777778 0.111111 0.111111
ခွင့် အ ရေး ||| khwin. a- jei: ||| 0.6 0.2 0.2 0.6 0.2 0.2
ခွင် ||| gwin ||| 0.957447 0.0212766 0.0212766 0.957447 0.0212766 0.0212766
ခွင် ||| khwin ||| 0.846154 0.0769231 0.0769231 0.846154 0.0769231 0.0769231
ခွင် ရိုက် ||| gwin jai&apos; ||| 0.6 0.2 0.2 0.6 0.2 0.2
ခွန် ||| gun ||| 0.95122 0.0243902 0.0243902 0.95122 0.0243902 0.0243902
ခွန် ||| khu ||| 0.6 0.2 0.2 0.6 0.2 0.2
ခွန် ||| khun ||| 0.942857 0.0285714 0.0285714 0.942857 0.0285714 0.0285714
ခွာ ||| khwa ||| 0.959184 0.0204082 0.0204082 0.959184 0.0204082 0.0204082
ခွာ နာ ||| khwa na ||| 0.6 0.2 0.2 0.6 0.2 0.2
ခွာ ရည် ||| khwa ji ||| 0.6 0.2 0.2 0.6 0.2 0.2
ခွား ||| kha- ||| 0.6 0.2 0.2 0.6 0.2 0.2
ခွား ||| khwa: ||| 0.866667 0.0666667 0.0666667 0.866667 0.0666667 0.0666667
ခွေ ||| gwei ||| 0.882353 0.0588235 0.0588235 0.882353 0.0588235 0.0588235
ခွေ ||| khwei ||| 0.904762 0.047619 0.047619 0.904762 0.047619 0.047619
ခွေး ||| gwei: ||| 0.846154 0.0769231 0.0769231 0.846154 0.0769231 0.0769231
ခွေး ||| khwe: ||| 0.6 0.2 0.2 0.6 0.2 0.2
ခွေး ||| khwei: ||| 0.975904 0.0120482 0.0120482 0.975904 0.0120482 0.0120482
ခွဲ ||| gwe: ||| 0.92 0.04 0.04 0.92 0.04 0.04
ခွဲ ||| khwe: ||| 0.971014 0.0144928 0.0144928 0.971014 0.0144928 0.0144928
ခွဲ စိတ် ||| khwe: sei&apos; ||| 0.6 0.2 0.2 0.6 0.2 0.2
ဂ ||| ga ||| 0.714286 0.142857 0.142857 0.714286 0.142857 0.142857
ဂ ||| ga- ||| 0.990431 0.00478469 0.00478469 0.990431 0.00478469 0.00478469
ဂ ||| ga. ||| 0.968254 0.015873 0.015873 0.968254 0.015873 0.015873
ဂ မုန်း ||| ga- moun: ||| 0.866667 0.0666667 0.0666667 0.866667 0.0666667 0.0666667
ဂ လာ ||| ga- la ||| 0.931034 0.0344828 0.0344828 0.931034 0.0344828 0.0344828
ဂ လာ ဆောင် ||| ga- la zaun ||| 0.6 0.2 0.2 0.6 0.2 0.2
ဂ လိ ||| ga- li. ||| 0.6 0.2 0.2 0.6 0.2 0.2
ဂ ဟေ ||| ga- hei ||| 0.6 0.2 0.2 0.6 0.2 0.2
ဂန် ||| gan ||| 0.904762 0.047619 0.047619 0.904762 0.047619 0.047619
ဂန် ဓာ ||| gan da ||| 0.6 0.2 0.2 0.6 0.2 0.2
ဂါ ||| ga ||| 0.982906 0.00854701 0.00854701 0.982906 0.00854701 0.00854701
ဂါ ||| ga- ||| 0.6 0.2 0.2 0.6 0.2 0.2
ဂါမ် ||| gan ||| 0.6 0.2 0.2 0.6 0.2 0.2
ဂါး ||| ga- ||| 0.846154 0.0769231 0.0769231 0.846154 0.0769231 0.0769231
ဂါး ||| ga: ||| 0.866667 0.0666667 0.0666667 0.866667 0.0666667 0.0666667
ဂိုက် ||| gai&apos; ||| 0.714286 0.142857 0.142857 0.714286 0.142857 0.142857
ဂီ ||| gi ||| 0.942857 0.0285714 0.0285714 0.942857 0.0285714 0.0285714
ဂု ||| gu. ||| 0.846154 0.0769231 0.0769231 0.846154 0.0769231 0.0769231
ဂု နီ ||| gu. ni ||| 0.6 0.2 0.2 0.6 0.2 0.2
ဂုဏ် ||| goun ||| 0.969231 0.0153846 0.0153846 0.969231 0.0153846 0.0153846
ဂုန် ||| gou ||| 0.6 0.2 0.2 0.6 0.2 0.2
ဂုန် ||| goun ||| 0.777778 0.111111 0.111111 0.777778 0.111111 0.111111
ဂုံ ||| goun ||| 0.894737 0.0526316 0.0526316 0.894737 0.0526316 0.0526316
ဂေါ် ||| go ||| 0.913043 0.0434783 0.0434783 0.913043 0.0434783 0.0434783
ဂျီ ||| gyi ||| 0.925926 0.037037 0.037037 0.925926 0.037037 0.037037
ဂျုံ ||| gyoun ||| 0.714286 0.142857 0.142857 0.714286 0.142857 0.142857
ဂျူ ||| gyu ||| 0.714286 0.142857 0.142857 0.714286 0.142857 0.142857
ဂျူ ရီ ||| gyu ri ||| 0.6 0.2 0.2 0.6 0.2 0.2
ဂြိုဟ် ||| gyou ||| 0.948718 0.025641 0.025641 0.948718 0.025641 0.025641
ဃ ||| ga- ||| 0.777778 0.111111 0.111111 0.777778 0.111111 0.111111
ဃ ||| ga. ||| 0.866667 0.0666667 0.0666667 0.866667 0.0666667 0.0666667
ဃာ ||| ga ||| 0.882353 0.0588235 0.0588235 0.882353 0.0588235 0.0588235
င ||| nga ||| 0.818182 0.0909091 0.0909091 0.818182 0.0909091 0.0909091
င ||| nga- ||| 0.973333 0.0133333 0.0133333 0.973333 0.0133333 0.0133333
င ||| nga. ||| 0.846154 0.0769231 0.0769231 0.846154 0.0769231 0.0769231
င ရုတ် ||| nga- jou&apos; ||| 0.818182 0.0909091 0.0909091 0.818182 0.0909091 0.0909091
ငင် ||| gin ||| 0.714286 0.142857 0.142857 0.714286 0.142857 0.142857
ငင် ||| ngin ||| 0.960784 0.0196078 0.0196078 0.960784 0.0196078 0.0196078
ငတ် ||| ga&apos; ||| 0.6 0.2 0.2 0.6 0.2 0.2
ငတ် ||| nga ||| 0.777778 0.111111 0.111111 0.777778 0.111111 0.111111
ငတ် ||| nga&apos; ||| 0.894737 0.0526316 0.0526316 0.894737 0.0526316 0.0526316
ငန်း ||| ngan: ||| 0.960784 0.0196078 0.0196078 0.960784 0.0196078 0.0196078
ငန်း ဖျား ||| ngan: bja: ||| 0.6 0.2 0.2 0.6 0.2 0.2
ငယ် ||| ge ||| 0.714286 0.142857 0.142857 0.714286 0.142857 0.142857
ငယ် ||| ke ||| 0.777778 0.111111 0.111111 0.777778 0.111111 0.111111
ငယ် ||| nge ||| 0.989305 0.00534759 0.00534759 0.989305 0.00534759 0.00534759
ငယ် ||| nge&apos; ||| 0.6 0.2 0.2 0.6 0.2 0.2
ငယ် ||| nge. ||| 0.6 0.2 0.2 0.6 0.2 0.2
ငယ် စာ ||| nge za ||| 0.6 0.2 0.2 0.6 0.2 0.2
ငယ် တည် ||| nge ti ||| 0.6 0.2 0.2 0.6 0.2 0.2
ငယ် နာ ||| nge na ||| 0.818182 0.0909091 0.0909091 0.818182 0.0909091 0.0909091
ငယ် နာ မည် ||| nge na mji ||| 0.6 0.2 0.2 0.6 0.2 0.2
ငယ် ပေါင်း ||| nge baun: ||| 0.6 0.2 0.2 0.6 0.2 0.2
ငယ် မူ ||| nge mu ||| 0.777778 0.111111 0.111111 0.777778 0.111111 0.111111
ငါ ||| ga ||| 0.818182 0.0909091 0.0909091 0.818182 0.0909091 0.0909091
ငါ ||| nga ||| 0.904762 0.047619 0.047619 0.904762 0.047619 0.047619
ငါ့ ||| nga. ||| 0.6 0.2 0.2 0.6 0.2 0.2
ငါး ||| nga- ||| 0.988571 0.00571429 0.00571429 0.988571 0.00571429 0.00571429
ငါး ||| nga: ||| 0.976471 0.0117647 0.0117647 0.976471 0.0117647 0.0117647
ငါး ကြင်း ||| nga- gyin: ||| 0.714286 0.142857 0.142857 0.714286 0.142857 0.142857
ငါး ကြီး ||| nga: gyi: ||| 0.6 0.2 0.2 0.6 0.2 0.2
ငါး ပိ ||| nga- pi. ||| 0.935484 0.0322581 0.0322581 0.935484 0.0322581 0.0322581
ငါး မန်း ||| nga- man: ||| 0.818182 0.0909091 0.0909091 0.818182 0.0909091 0.0909091
ငါး ရံ့ ||| nga- jan. ||| 0.777778 0.111111 0.111111 0.777778 0.111111 0.111111
ငို ||| ngou ||| 0.945946 0.027027 0.027027 0.945946 0.027027 0.027027
ငူ ||| ngu ||| 0.6 0.2 0.2 0.6 0.2 0.2
ငေါ် ||| ngo ||| 0.777778 0.111111 0.111111 0.777778 0.111111 0.111111
ငံ ||| gan ||| 0.948718 0.025641 0.025641 0.948718 0.025641 0.025641
ငံ ||| ngan ||| 0.818182 0.0909091 0.0909091 0.818182 0.0909091 0.0909091
ငံ ရေး ||| gan jei: ||| 0.714286 0.142857 0.142857 0.714286 0.142857 0.142857
ငံ့ ||| ngan. ||| 0.904762 0.047619 0.047619 0.904762 0.047619 0.047619
ငြိမ်း ||| njein: ||| 0.955556 0.0222222 0.0222222 0.955556 0.0222222 0.0222222
ငွေ ||| gwei ||| 0.6 0.2 0.2 0.6 0.2 0.2
ငွေ ||| ngwe: ||| 0.6 0.2 0.2 0.6 0.2 0.2
ငွေ ||| ngwei ||| 0.945946 0.027027 0.027027 0.945946 0.027027 0.027027
ငွေ့ ||| gwei. ||| 0.714286 0.142857 0.142857 0.714286 0.142857 0.142857
ငွေ့ ||| ngwei ||| 0.6 0.2 0.2 0.6 0.2 0.2
ငွေ့ ||| ngwei. ||| 0.935484 0.0322581 0.0322581 0.935484 0.0322581 0.0322581
ငှက် ||| ngha- ||| 0.818182 0.0909091 0.0909091 0.818182 0.0909091 0.0909091
ငှက် ||| nghe&apos; ||| 0.92 0.04 0.04 0.92 0.04 0.04
ငှန်း ||| ngan: ||| 0.714286 0.142857 0.142857 0.714286 0.142857 0.142857
ငှာ ||| ngha ||| 0.866667 0.0666667 0.0666667 0.866667 0.0666667 0.0666667
စ ||| hsa- ||| 0.6 0.2 0.2 0.6 0.2 0.2
စ ||| sa ||| 0.818182 0.0909091 0.0909091 0.818182 0.0909091 0.0909091
စ ||| sa- ||| 0.991632 0.0041841 0.0041841 0.991632 0.0041841 0.0041841
စ ||| sa. ||| 0.984962 0.0075188 0.0075188 0.984962 0.0075188 0.0075188
စ ||| se&apos; ||| 0.866667 0.0666667 0.0666667 0.866667 0.0666667 0.0666667
စ ||| tha- ||| 0.6 0.2 0.2 0.6 0.2 0.2
စ ||| za- ||| 0.993846 0.00307692 0.00307692 0.993846 0.00307692 0.00307692
စ ||| za. ||| 0.975309 0.0123457 0.0123457 0.975309 0.0123457 0.0123457
စ ကား ||| sa- ka: ||| 0.6 0.2 0.2 0.6 0.2 0.2
စ ကား ||| za- ga- ||| 0.964912 0.0175439 0.0175439 0.964912 0.0175439 0.0175439
စ ကား ||| za- ga: ||| 0.981651 0.00917431 0.00917431 0.981651 0.00917431 0.00917431
စ ကား ပြော ||| za- ga: pjo: ||| 0.6 0.2 0.2 0.6 0.2 0.2
စ ကော ||| za- go: ||| 0.6 0.2 0.2 0.6 0.2 0.2
စ ကြာ ||| se&apos; kya ||| 0.818182 0.0909091 0.0909091 0.818182 0.0909091 0.0909091
စ ခန်း ||| sa- khan: ||| 0.931034 0.0344828 0.0344828 0.931034 0.0344828 0.0344828
စ တု ||| sa- tu ||| 0.6 0.2 0.2 0.6 0.2 0.2
စ တု ||| sa- tu. ||| 0.846154 0.0769231 0.0769231 0.846154 0.0769231 0.0769231
စ တုံး ||| sa. toun: ||| 0.714286 0.142857 0.142857 0.714286 0.142857 0.142857
စ ပါး ||| za- ba- ||| 0.925926 0.037037 0.037037 0.925926 0.037037 0.037037
စ ပါး ||| za- ba: ||| 0.939394 0.030303 0.030303 0.939394 0.030303 0.030303
စ ဖျောက် ||| sa. hpjau&apos; ||| 0.6 0.2 0.2 0.6 0.2 0.2
စ မ ||| sa- ma. ||| 0.777778 0.111111 0.111111 0.777778 0.111111 0.111111
စ မုန် ||| sa- moun ||| 0.6 0.2 0.2 0.6 0.2 0.2
စ ရည်း ||| za- ji: ||| 0.6 0.2 0.2 0.6 0.2 0.2
စ ရာ ||| sa- ja ||| 0.6 0.2 0.2 0.6 0.2 0.2
စ ရာ ||| za- ja ||| 0.904762 0.047619 0.047619 0.904762 0.047619 0.047619
စ ရာ ဖြစ် ||| za- ja hpji&apos; ||| 0.6 0.2 0.2 0.6 0.2 0.2
စ ရိ ||| sa- ri ||| 0.6 0.2 0.2 0.6 0.2 0.2
စ ရိ ||| sa- ri. ||| 0.818182 0.0909091 0.0909091 0.818182 0.0909091 0.0909091
စ ရိတ် ||| za- jei ||| 0.6 0.2 0.2 0.6 0.2 0.2
စ ရိတ် ||| za- jei&apos; ||| 0.882353 0.0588235 0.0588235 0.882353 0.0588235 0.0588235
စ လက် ||| sa- le&apos; ||| 0.714286 0.142857 0.142857 0.714286 0.142857 0.142857
စ လက် ||| sa. le&apos; ||| 0.714286 0.142857 0.142857 0.714286 0.142857 0.142857
စ လက် ||| za. le&apos; ||| 0.6 0.2 0.2 0.6 0.2 0.2
စ လက် စ ||| za. le&apos; sa. ||| 0.6 0.2 0.2 0.6 0.2 0.2
စ လို ||| za- lou ||| 0.714286 0.142857 0.142857 0.714286 0.142857 0.142857
စ လုတ် ||| za- lou&apos; ||| 0.818182 0.0909091 0.0909091 0.818182 0.0909091 0.0909091
စ လုံး ||| za- loun: ||| 0.6 0.2 0.2 0.6 0.2 0.2
စ လွယ် ||| sa- lwe ||| 0.714286 0.142857 0.142857 0.714286 0.142857 0.142857
စ လွယ် ||| za- lwe ||| 0.6 0.2 0.2 0.6 0.2 0.2
စ လွယ် သိုင်း ||| sa- lwe thain: ||| 0.6 0.2 0.2 0.6 0.2 0.2
စ သတ် ||| sa. tha&apos; ||| 0.714286 0.142857 0.142857 0.714286 0.142857 0.142857
စ သီ ||| sa. thi ||| 0.6 0.2 0.2 0.6 0.2 0.2
စ သီ လ ||| sa. thi la. ||| 0.6 0.2 0.2 0.6 0.2 0.2
စက် ||| se&apos; ||| 0.990244 0.00487805 0.00487805 0.990244 0.00487805 0.00487805
စက် ||| sei&apos; ||| 0.714286 0.142857 0.142857 0.714286 0.142857 0.142857
စက် ||| ze&apos; ||| 0.970149 0.0149254 0.0149254 0.970149 0.0149254 0.0149254
စက် ကူ ||| se&apos; ku ||| 0.92 0.04 0.04 0.92 0.04 0.04
စက် ကွင်း ||| se&apos; kwin: ||| 0.714286 0.142857 0.142857 0.714286 0.142857 0.142857
စက် စက် ||| se&apos; se&apos; ||| 0.714286 0.142857 0.142857 0.714286 0.142857 0.142857
စက် လှေ ||| se&apos; lhei ||| 0.6 0.2 0.2 0.6 0.2 0.2
စက် ဝိုင်း ||| se&apos; wain: ||| 0.6 0.2 0.2 0.6 0.2 0.2
စက် ဝိုင်း ||| sei&apos; wain: ||| 0.6 0.2 0.2 0.6 0.2 0.2
စင် ||| si ||| 0.714286 0.142857 0.142857 0.714286 0.142857 0.142857
စင် ||| sin ||| 0.971014 0.0144928 0.0144928 0.971014 0.0144928 0.0144928
စင် ||| zin ||| 0.974026 0.012987 0.012987 0.974026 0.012987 0.012987
စင် ||| zin: ||| 0.777778 0.111111 0.111111 0.777778 0.111111 0.111111
စင် ကြယ် ||| sin kye ||| 0.6 0.2 0.2 0.6 0.2 0.2
စင်း ||| sin: ||| 0.904762 0.047619 0.047619 0.904762 0.047619 0.047619
စင်း ||| zin: ||| 0.913043 0.0434783 0.0434783 0.913043 0.0434783 0.0434783
စစ် ||| si&apos; ||| 0.992982 0.00350877 0.00350877 0.992982 0.00350877 0.00350877
စစ် ||| zi&apos; ||| 0.948718 0.025641 0.025641 0.948718 0.025641 0.025641
စစ် ခံ ||| si&apos; khan ||| 0.714286 0.142857 0.142857 0.714286 0.142857 0.142857
စစ် မှု ||| si&apos; mhu. ||| 0.714286 0.142857 0.142857 0.714286 0.142857 0.142857
စစ် မှု ထမ်း ||| si&apos; mhu. dan: ||| 0.6 0.2 0.2 0.6 0.2 0.2
စစ် မှု ထမ်း ||| si&apos; mhu. htan: ||| 0.6 0.2 0.2 0.6 0.2 0.2
စစ် ရေး ||| si&apos; jei: ||| 0.894737 0.0526316 0.0526316 0.894737 0.0526316 0.0526316
စဉ့် ||| sin. ||| 0.6 0.2 0.2 0.6 0.2 0.2
စဉ့် ||| zin. ||| 0.714286 0.142857 0.142857 0.714286 0.142857 0.142857
စဉ် ||| sin ||| 0.963636 0.0181818 0.0181818 0.963636 0.0181818 0.0181818
စဉ် ||| zin ||| 0.974684 0.0126582 0.0126582 0.974684 0.0126582 0.0126582
စည် ||| si ||| 0.942857 0.0285714 0.0285714 0.942857 0.0285714 0.0285714
စည် ||| ze ||| 0.714286 0.142857 0.142857 0.714286 0.142857 0.142857
စည် ||| zi ||| 0.935484 0.0322581 0.0322581 0.935484 0.0322581 0.0322581
စည် ဖောင်း ||| si baun: ||| 0.6 0.2 0.2 0.6 0.2 0.2
စည် ဖောင်း ||| zi baun: ||| 0.6 0.2 0.2 0.6 0.2 0.2
စည်း ||| hsi: ||| 0.6 0.2 0.2 0.6 0.2 0.2
စည်း ||| si: ||| 0.988304 0.00584795 0.00584795 0.988304 0.00584795 0.00584795
စည်း ||| zi: ||| 0.931034 0.0344828 0.0344828 0.931034 0.0344828 0.0344828
စည်း ကမ်း ||| si: kan: ||| 0.777778 0.111111 0.111111 0.777778 0.111111 0.111111
စည်း ထုပ် ||| si: dou&apos; ||| 0.6 0.2 0.2 0.6 0.2 0.2
စည်း ပုံ ||| zi: boun ||| 0.6 0.2 0.2 0.6 0.2 0.2
စန် ||| san ||| 0.818182 0.0909091 0.0909091 0.818182 0.0909091 0.0909091
စန် ||| san: ||| 0.6 0.2 0.2 0.6 0.2 0.2
စန် ဒ ||| san da- ||| 0.6 0.2 0.2 0.6 0.2 0.2
စပ် ||| sa&apos; ||| 0.985612 0.00719424 0.00719424 0.985612 0.00719424 0.00719424
စပ် ||| za&apos; ||| 0.979381 0.0103093 0.0103093 0.979381 0.0103093 0.0103093
စပ် ကူး ||| sa&apos; ku: ||| 0.714286 0.142857 0.142857 0.714286 0.142857 0.142857
စပ် ကူး မ ||| sa&apos; ku: ma- ||| 0.6 0.2 0.2 0.6 0.2 0.2
စပ် ကူး မ ကူး ||| sa&apos; ku: ma- ku: ||| 0.6 0.2 0.2 0.6 0.2 0.2
စပ် စပ် ||| sa&apos; sa&apos; ||| 0.818182 0.0909091 0.0909091 0.818182 0.0909091 0.0909091
စပ် သ ||| sa&apos; tha- ||| 0.6 0.2 0.2 0.6 0.2 0.2
စာ ||| da- ||| 0.6 0.2 0.2 0.6 0.2 0.2
စာ ||| sa ||| 0.995272 0.00236407 0.00236407 0.995272 0.00236407 0.00236407
စာ ||| sa&apos; ||| 0.6 0.2 0.2 0.6 0.2 0.2
စာ ||| sa- ||| 0.973333 0.0133333 0.0133333 0.973333 0.0133333 0.0133333
စာ ||| san ||| 0.882353 0.0588235 0.0588235 0.882353 0.0588235 0.0588235
စာ ||| za ||| 0.992565 0.00371747 0.00371747 0.992565 0.00371747 0.00371747
စာ ||| za- ||| 0.882353 0.0588235 0.0588235 0.882353 0.0588235 0.0588235
စာ ကြောင်း ||| sa gyaun: ||| 0.6 0.2 0.2 0.6 0.2 0.2
စာ စ ||| sa za- ||| 0.6 0.2 0.2 0.6 0.2 0.2
စာ စ ||| za za- ||| 0.6 0.2 0.2 0.6 0.2 0.2
စာ စ ပါး ||| za za- ba: ||| 0.6 0.2 0.2 0.6 0.2 0.2
စာ တည်း ||| sa di: ||| 0.6 0.2 0.2 0.6 0.2 0.2
စာ တိုက် ||| sa dai&apos; ||| 0.6 0.2 0.2 0.6 0.2 0.2
စာ တိုက် ||| sa- dai&apos; ||| 0.6 0.2 0.2 0.6 0.2 0.2
စာ တိုင် ||| sa tain ||| 0.6 0.2 0.2 0.6 0.2 0.2
စာ တိုင် ||| za- dain ||| 0.6 0.2 0.2 0.6 0.2 0.2
စာ ပေး ||| sa bei: ||| 0.6 0.2 0.2 0.6 0.2 0.2
စာ ပေး ||| sa pei: ||| 0.6 0.2 0.2 0.6 0.2 0.2
စာ ပြန် ||| sa pjan ||| 0.6 0.2 0.2 0.6 0.2 0.2
စာ မ ||| sa ma- ||| 0.777778 0.111111 0.111111 0.777778 0.111111 0.111111
စာ မ ||| sa ma. ||| 0.6 0.2 0.2 0.6 0.2 0.2
စာ မ ||| za ma- ||| 0.6 0.2 0.2 0.6 0.2 0.2
စာ မူ ||| sa mu ||| 0.6 0.2 0.2 0.6 0.2 0.2
စာ မေး ||| sa mei: ||| 0.866667 0.0666667 0.0666667 0.866667 0.0666667 0.0666667
စာ မေး ပွဲ ||| sa mei: bwe: ||| 0.866667 0.0666667 0.0666667 0.866667 0.0666667 0.0666667
စာ ရင်း ||| sa- jin: ||| 0.957447 0.0212766 0.0212766 0.957447 0.0212766 0.0212766
စာ ရင်း ||| za jin: ||| 0.714286 0.142857 0.142857 0.714286 0.142857 0.142857
စာ ရင်း ||| za- jin: ||| 0.714286 0.142857 0.142857 0.714286 0.142857 0.142857
စာ ရင်း ကိုင် ||| sa- jin: gain ||| 0.6 0.2 0.2 0.6 0.2 0.2
စာ ရေး ||| sa jei: ||| 0.6 0.2 0.2 0.6 0.2 0.2
စာ ရေး ||| sa- jei: ||| 0.6 0.2 0.2 0.6 0.2 0.2
စာ ရေး ||| za jei: ||| 0.6 0.2 0.2 0.6 0.2 0.2
စာ ဝ ||| za wa. ||| 0.6 0.2 0.2 0.6 0.2 0.2
စာ အိတ် ||| sa ei&apos; ||| 0.6 0.2 0.2 0.6 0.2 0.2
စား ||| sa- ||| 0.931034 0.0344828 0.0344828 0.931034 0.0344828 0.0344828
စား ||| sa. ||| 0.6 0.2 0.2 0.6 0.2 0.2
စား ||| sa: ||| 0.991189 0.00440529 0.00440529 0.991189 0.00440529 0.00440529
စား ||| za ||| 0.6 0.2 0.2 0.6 0.2 0.2
စား ||| za- ||| 0.942857 0.0285714 0.0285714 0.942857 0.0285714 0.0285714
စား ||| za: ||| 0.993031 0.00348432 0.00348432 0.993031 0.00348432 0.00348432
စား ကျင်း ||| sa- gyin: ||| 0.6 0.2 0.2 0.6 0.2 0.2
စား ခံ ||| sa: khan ||| 0.6 0.2 0.2 0.6 0.2 0.2
စား ချေ ||| za: chei ||| 0.6 0.2 0.2 0.6 0.2 0.2
စား တော် ||| sa: do ||| 0.818182 0.0909091 0.0909091 0.818182 0.0909091 0.0909091
စား တော် ||| za- do ||| 0.777778 0.111111 0.111111 0.777778 0.111111 0.111111
စား ပွဲ ||| za- bwe: ||| 0.846154 0.0769231 0.0769231 0.846154 0.0769231 0.0769231
စား ပွဲ ||| za: bwe: ||| 0.6 0.2 0.2 0.6 0.2 0.2
စား လျှပ် ||| sa: ja&apos; ||| 0.6 0.2 0.2 0.6 0.2 0.2
စား လျှပ် စား ||| sa: ja&apos; sa: ||| 0.6 0.2 0.2 0.6 0.2 0.2
စား သုံး ||| sa: thoun: ||| 0.6 0.2 0.2 0.6 0.2 0.2
စား သုံး သူ ||| sa: thoun: dhu ||| 0.6 0.2 0.2 0.6 0.2 0.2
စား အ ||| sa: a- ||| 0.714286 0.142857 0.142857 0.714286 0.142857 0.142857
စိ ||| si. ||| 0.982301 0.00884956 0.00884956 0.982301 0.00884956 0.00884956
စိ ||| zi ||| 0.6 0.2 0.2 0.6 0.2 0.2
စိ ||| zi. ||| 0.894737 0.0526316 0.0526316 0.894737 0.0526316 0.0526316
စိ စိ ||| si. zi. ||| 0.818182 0.0909091 0.0909091 0.818182 0.0909091 0.0909091
စိ မှိတ် ||| si. mhei&apos; ||| 0.6 0.2 0.2 0.6 0.2 0.2
စိတ် ||| sei&apos; ||| 0.991903 0.00404858 0.00404858 0.991903 0.00404858 0.00404858
စိတ် ||| zei&apos; ||| 0.963636 0.0181818 0.0181818 0.963636 0.0181818 0.0181818
စိတ် တိုင်း ||| sei&apos; tain: ||| 0.6 0.2 0.2 0.6 0.2 0.2
စိတ် တိုင်း ကျ ||| sei&apos; tain: gya. ||| 0.6 0.2 0.2 0.6 0.2 0.2
စိတ် နောက် ||| sei&apos; nau&apos; ||| 0.6 0.2 0.2 0.6 0.2 0.2
စိတ် ရော ||| sei&apos; jo: ||| 0.6 0.2 0.2 0.6 0.2 0.2
စိတ် ရှည် ||| sei&apos; shei ||| 0.6 0.2 0.2 0.6 0.2 0.2
စိန်း ||| sein: ||| 0.6 0.2 0.2 0.6 0.2 0.2
စိန်း ||| zein: ||| 0.714286 0.142857 0.142857 0.714286 0.142857 0.142857
စိန်း စိန်း ||| sein: zein: ||| 0.6 0.2 0.2 0.6 0.2 0.2
စိပ် ||| sei&apos; ||| 0.818182 0.0909091 0.0909091 0.818182 0.0909091 0.0909091
စိပ် ||| zei ||| 0.6 0.2 0.2 0.6 0.2 0.2
စိပ် ||| zei&apos; ||| 0.714286 0.142857 0.142857 0.714286 0.142857 0.142857
စိမ် ||| sein ||| 0.882353 0.0588235 0.0588235 0.882353 0.0588235 0.0588235
စိမ် ||| zein ||| 0.777778 0.111111 0.111111 0.777778 0.111111 0.111111
စိမ် ရေ ||| sein jei ||| 0.6 0.2 0.2 0.6 0.2 0.2
စိမ်း ||| sein: ||| 0.960784 0.0196078 0.0196078 0.960784 0.0196078 0.0196078
စိမ်း ||| zein: ||| 0.967213 0.0163934 0.0163934 0.967213 0.0163934 0.0163934
စိမ်း စား ||| sein: za: ||| 0.714286 0.142857 0.142857 0.714286 0.142857 0.142857
စို ||| so ||| 0.6 0.2 0.2 0.6 0.2 0.2
စို ||| sou ||| 0.942857 0.0285714 0.0285714 0.942857 0.0285714 0.0285714
စို ||| zou ||| 0.846154 0.0769231 0.0769231 0.846154 0.0769231 0.0769231
စိုက် ||| hsai&apos; ||| 0.6 0.2 0.2 0.6 0.2 0.2
စိုက် ||| sai&apos; ||| 0.964912 0.0175439 0.0175439 0.964912 0.0175439 0.0175439
စိုက် ||| zai&apos; ||| 0.925926 0.037037 0.037037 0.925926 0.037037 0.037037
စိုက် စိုက် ||| sai&apos; sai&apos; ||| 0.6 0.2 0.2 0.6 0.2 0.2
စိုင် ||| sain ||| 0.846154 0.0769231 0.0769231 0.846154 0.0769231 0.0769231
စိုင် ||| zain ||| 0.777778 0.111111 0.111111 0.777778 0.111111 0.111111
စို့ ||| sou. ||| 0.913043 0.0434783 0.0434783 0.913043 0.0434783 0.0434783
စို့ ||| zou. ||| 0.894737 0.0526316 0.0526316 0.894737 0.0526316 0.0526316
စိုး ||| sou: ||| 0.963636 0.0181818 0.0181818 0.963636 0.0181818 0.0181818
စိုး ||| zou: ||| 0.913043 0.0434783 0.0434783 0.913043 0.0434783 0.0434783
စိုး ရိမ် ||| sou: jein ||| 0.777778 0.111111 0.111111 0.777778 0.111111 0.111111
စီ ||| si ||| 0.980583 0.00970874 0.00970874 0.980583 0.00970874 0.00970874
စီ ||| zi ||| 0.925926 0.037037 0.037037 0.925926 0.037037 0.037037
စီ ရင် ||| si jin ||| 0.882353 0.0588235 0.0588235 0.882353 0.0588235 0.0588235
စီ ရင် ခံ ||| si jin khan ||| 0.714286 0.142857 0.142857 0.714286 0.142857 0.142857
စီး ||| si ||| 0.6 0.2 0.2 0.6 0.2 0.2
စီး ||| si: ||| 0.978947 0.0105263 0.0105263 0.978947 0.0105263 0.0105263
စီး ||| zi: ||| 0.972603 0.0136986 0.0136986 0.972603 0.0136986 0.0136986
စီး ပွား ||| si: bwa: ||| 0.894737 0.0526316 0.0526316 0.894737 0.0526316 0.0526316
စီး ပွား ပျက် ||| si: bwa: pje&apos; ||| 0.6 0.2 0.2 0.6 0.2 0.2
စု ||| su ||| 0.714286 0.142857 0.142857 0.714286 0.142857 0.142857
စု ||| su. ||| 0.976471 0.0117647 0.0117647 0.976471 0.0117647 0.0117647
စု ||| zu ||| 0.714286 0.142857 0.142857 0.714286 0.142857 0.142857
စု ||| zu. ||| 0.966102 0.0169492 0.0169492 0.966102 0.0169492 0.0169492
စု အ ||| su. a- ||| 0.846154 0.0769231 0.0769231 0.846154 0.0769231 0.0769231
စုတ် ||| sou&apos; ||| 0.957447 0.0212766 0.0212766 0.957447 0.0212766 0.0212766
စုတ် ||| zou&apos; ||| 0.846154 0.0769231 0.0769231 0.846154 0.0769231 0.0769231
စုတ် အ ||| sou&apos; a- ||| 0.714286 0.142857 0.142857 0.714286 0.142857 0.142857
စုတ် အ ||| zou&apos; a- ||| 0.714286 0.142857 0.142857 0.714286 0.142857 0.142857
စုန် ||| soun ||| 0.777778 0.111111 0.111111 0.777778 0.111111 0.111111
စုန် ||| zoun ||| 0.714286 0.142857 0.142857 0.714286 0.142857 0.142857
စုပ် ||| sou&apos; ||| 0.894737 0.0526316 0.0526316 0.894737 0.0526316 0.0526316
စုပ် ||| zou&apos; ||| 0.777778 0.111111 0.111111 0.777778 0.111111 0.111111
စုပ် စုပ် ||| sou&apos; sou&apos; ||| 0.6 0.2 0.2 0.6 0.2 0.2
စုံ ||| soun ||| 0.971831 0.0140845 0.0140845 0.971831 0.0140845 0.0140845
စုံ ||| zoun ||| 0.970149 0.0149254 0.0149254 0.970149 0.0149254 0.0149254
စုံ ဆိုင် ||| zoun hsain ||| 0.6 0.2 0.2 0.6 0.2 0.2
စုံ ပစ် ||| zoun bji&apos; ||| 0.6 0.2 0.2 0.6 0.2 0.2
စူး ||| su: ||| 0.931034 0.0344828 0.0344828 0.931034 0.0344828 0.0344828
စူး ||| zu: ||| 0.894737 0.0526316 0.0526316 0.894737 0.0526316 0.0526316
စူး စူး ||| su: zu: ||| 0.714286 0.142857 0.142857 0.714286 0.142857 0.142857
စူး ဝါး ||| zu: wa: ||| 0.6 0.2 0.2 0.6 0.2 0.2
စေ ||| sei ||| 0.953488 0.0232558 0.0232558 0.953488 0.0232558 0.0232558
စေ ||| zei ||| 0.95122 0.0243902 0.0243902 0.95122 0.0243902 0.0243902
စေ ||| zi ||| 0.6 0.2 0.2 0.6 0.2 0.2
စေ တီ ||| sei di ||| 0.714286 0.142857 0.142857 0.714286 0.142857 0.142857
စေ တီ ||| zei di ||| 0.894737 0.0526316 0.0526316 0.894737 0.0526316 0.0526316
စော ||| so: ||| 0.925926 0.037037 0.037037 0.925926 0.037037 0.037037
စော ||| zo: ||| 0.818182 0.0909091 0.0909091 0.818182 0.0909091 0.0909091
စောင့် ||| saun. ||| 0.955556 0.0222222 0.0222222 0.955556 0.0222222 0.0222222
စောင့် ||| zaun. ||| 0.92 0.04 0.04 0.92 0.04 0.04
စောင့် တပ် ||| zaun. ta&apos; ||| 0.6 0.2 0.2 0.6 0.2 0.2
စောင် ||| saun ||| 0.913043 0.0434783 0.0434783 0.913043 0.0434783 0.0434783
စောင် ||| zaun ||| 0.904762 0.047619 0.047619 0.904762 0.047619 0.047619
စောင်း ||| saun: ||| 0.960784 0.0196078 0.0196078 0.960784 0.0196078 0.0196078
စောင်း ||| zaun: ||| 0.967213 0.0163934 0.0163934 0.967213 0.0163934 0.0163934
စောင်း ချဉ် ||| zaun: gyin ||| 0.6 0.2 0.2 0.6 0.2 0.2
စေ့ ||| sei. ||| 0.968254 0.015873 0.015873 0.968254 0.015873 0.015873
စေ့ ||| si. ||| 0.945946 0.027027 0.027027 0.945946 0.027027 0.027027
စေ့ ||| zei. ||| 0.939394 0.030303 0.030303 0.939394 0.030303 0.030303
စေ့ ||| zi. ||| 0.913043 0.0434783 0.0434783 0.913043 0.0434783 0.0434783
စေ့ တွင်း ||| zei. twin: ||| 0.6 0.2 0.2 0.6 0.2 0.2
စေ့ တွင်း ကျ ||| zei. twin: gya. ||| 0.6 0.2 0.2 0.6 0.2 0.2
စေ့ အ ||| sei. a- ||| 0.714286 0.142857 0.142857 0.714286 0.142857 0.142857
စေ့ အ ||| si. a- ||| 0.6 0.2 0.2 0.6 0.2 0.2
စေ့ အ င ||| sei. a- nga. ||| 0.6 0.2 0.2 0.6 0.2 0.2
စေး ||| sei: ||| 0.942857 0.0285714 0.0285714 0.942857 0.0285714 0.0285714
စေး ||| si: ||| 0.92 0.04 0.04 0.92 0.04 0.04
စေး ||| zei: ||| 0.882353 0.0588235 0.0588235 0.882353 0.0588235 0.0588235
စေး ||| zi ||| 0.6 0.2 0.2 0.6 0.2 0.2
စေး ||| zi: ||| 0.6 0.2 0.2 0.6 0.2 0.2
စေး နှဲ ||| sei: ne: ||| 0.6 0.2 0.2 0.6 0.2 0.2
စေး နှဲ ||| sei: nhe: ||| 0.6 0.2 0.2 0.6 0.2 0.2
စေး နှဲ ||| si: ne: ||| 0.6 0.2 0.2 0.6 0.2 0.2
စေး နှဲ ||| si: nhe: ||| 0.6 0.2 0.2 0.6 0.2 0.2
စံ ||| san ||| 0.957447 0.0212766 0.0212766 0.957447 0.0212766 0.0212766
စံ ||| za ||| 0.6 0.2 0.2 0.6 0.2 0.2
စံ ||| za- ||| 0.846154 0.0769231 0.0769231 0.846154 0.0769231 0.0769231
စံ ||| zan ||| 0.904762 0.047619 0.047619 0.904762 0.047619 0.047619
စံ ကား ||| za ga- ||| 0.6 0.2 0.2 0.6 0.2 0.2
စံ ကား ||| za- ga- ||| 0.6 0.2 0.2 0.6 0.2 0.2
စံ ကား ||| za- ga: ||| 0.6 0.2 0.2 0.6 0.2 0.2
စွက် ||| swe&apos; ||| 0.714286 0.142857 0.142857 0.714286 0.142857 0.142857
စွက် ||| zwe&apos; ||| 0.6 0.2 0.2 0.6 0.2 0.2
စွင့် ||| swin. ||| 0.6 0.2 0.2 0.6 0.2 0.2
စွတ် ||| su&apos; ||| 0.925926 0.037037 0.037037 0.925926 0.037037 0.037037
စွတ် ||| zu&apos; ||| 0.714286 0.142857 0.142857 0.714286 0.142857 0.142857
စွန့် ||| sun. ||| 0.925926 0.037037 0.037037 0.925926 0.037037 0.037037
စွန် ||| sun ||| 0.882353 0.0588235 0.0588235 0.882353 0.0588235 0.0588235
စွန် ||| zun ||| 0.942857 0.0285714 0.0285714 0.942857 0.0285714 0.0285714
စွန် ခြောက် ||| zun gyau&apos; ||| 0.6 0.2 0.2 0.6 0.2 0.2
စွန် တာ ||| sun ta ||| 0.6 0.2 0.2 0.6 0.2 0.2
စွန် တာ ||| zun ta ||| 0.6 0.2 0.2 0.6 0.2 0.2
စွန်း ||| sun: ||| 0.945946 0.027027 0.027027 0.945946 0.027027 0.027027
စွန်း ||| zun: ||| 0.935484 0.0322581 0.0322581 0.935484 0.0322581 0.0322581
စွပ် ||| su&apos; ||| 0.948718 0.025641 0.025641 0.948718 0.025641 0.025641
စွပ် ||| zu&apos; ||| 0.92 0.04 0.04 0.92 0.04 0.04
စွပ် စွဲ ||| su&apos; swe: ||| 0.6 0.2 0.2 0.6 0.2 0.2
စွမ်း ||| sun: ||| 0.882353 0.0588235 0.0588235 0.882353 0.0588235 0.0588235
စွမ်း ||| swan: ||| 0.931034 0.0344828 0.0344828 0.931034 0.0344828 0.0344828
စွမ်း ||| zun: ||| 0.777778 0.111111 0.111111 0.777778 0.111111 0.111111
စွမ်း ||| zwan: ||| 0.846154 0.0769231 0.0769231 0.846154 0.0769231 0.0769231
စွယ် ||| swe ||| 0.931034 0.0344828 0.0344828 0.931034 0.0344828 0.0344828
စွယ် ||| zwe ||| 0.904762 0.047619 0.047619 0.904762 0.047619 0.047619
စွယ် ကျိုး ||| swe kyou: ||| 0.6 0.2 0.2 0.6 0.2 0.2
စွယ် ကျိုး ||| zwe gyou: ||| 0.6 0.2 0.2 0.6 0.2 0.2
စွယ် ကျိုး ||| zwe kyou: ||| 0.6 0.2 0.2 0.6 0.2 0.2
စွာ ||| swa ||| 0.818182 0.0909091 0.0909091 0.818182 0.0909091 0.0909091
စွာ ||| zwa ||| 0.882353 0.0588235 0.0588235 0.882353 0.0588235 0.0588235
စွာ ||| zwa: ||| 0.6 0.2 0.2 0.6 0.2 0.2
စွေ့ ||| swei. ||| 0.714286 0.142857 0.142857 0.714286 0.142857 0.142857
စွေ့ ||| zwei. ||| 0.6 0.2 0.2 0.6 0.2 0.2
စွဲ ||| swe: ||| 0.975309 0.0123457 0.0123457 0.975309 0.0123457 0.0123457
စွဲ ||| zwe: ||| 0.92 0.04 0.04 0.92 0.04 0.04
ဆ ||| hsa ||| 0.6 0.2 0.2 0.6 0.2 0.2
ဆ ||| hsa- ||| 0.980198 0.00990099 0.00990099 0.980198 0.00990099 0.00990099
ဆ ||| hsa. ||| 0.969231 0.0153846 0.0153846 0.969231 0.0153846 0.0153846
ဆ ||| sha. ||| 0.6 0.2 0.2 0.6 0.2 0.2
ဆ ||| za ||| 0.6 0.2 0.2 0.6 0.2 0.2
ဆ ||| za. ||| 0.6 0.2 0.2 0.6 0.2 0.2
ဆ တိုး ||| hsa. tou: ||| 0.6 0.2 0.2 0.6 0.2 0.2
ဆ တိုး ကိန်း ||| hsa. tou: gein: ||| 0.6 0.2 0.2 0.6 0.2 0.2
ဆ ရာ ||| hsa ja ||| 0.6 0.2 0.2 0.6 0.2 0.2
ဆ ရာ ||| hsa- ja ||| 0.971831 0.0140845 0.0140845 0.971831 0.0140845 0.0140845
ဆ ရာ ||| hsa- ra ||| 0.6 0.2 0.2 0.6 0.2 0.2
ဆ ရာ ဝန် ||| hsa- ja wun ||| 0.714286 0.142857 0.142857 0.714286 0.142857 0.142857
ဆ ရာ အ ||| hsa- ja a- ||| 0.6 0.2 0.2 0.6 0.2 0.2
ဆ ရာ အ တတ် ||| hsa- ja a- ta&apos; ||| 0.6 0.2 0.2 0.6 0.2 0.2
ဆ ရာ အ တတ် သင် ||| hsa- ja a- ta&apos; thin ||| 0.6 0.2 0.2 0.6 0.2 0.2
ဆက် ||| hse&apos; ||| 0.981651 0.00917431 0.00917431 0.981651 0.00917431 0.00917431
ဆက် ||| za- ||| 0.6 0.2 0.2 0.6 0.2 0.2
ဆက် ||| ze&apos; ||| 0.948718 0.025641 0.025641 0.948718 0.025641 0.025641
ဆက် ဆံ ||| hse&apos; hsan ||| 0.777778 0.111111 0.111111 0.777778 0.111111 0.111111
ဆက် ဆံ ရေး ||| hse&apos; hsan jei: ||| 0.6 0.2 0.2 0.6 0.2 0.2
ဆင့် ||| hsin ||| 0.714286 0.142857 0.142857 0.714286 0.142857 0.142857
ဆင့် ||| hsin. ||| 0.957447 0.0212766 0.0212766 0.957447 0.0212766 0.0212766
ဆင့် ||| zin. ||| 0.846154 0.0769231 0.0769231 0.846154 0.0769231 0.0769231
ဆင့် ကဲ ||| hsin. ge: ||| 0.714286 0.142857 0.142857 0.714286 0.142857 0.142857
ဆင့် ပွား ||| hsin. pwa: ||| 0.6 0.2 0.2 0.6 0.2 0.2
ဆင့် အ ||| hsin a- ||| 0.6 0.2 0.2 0.6 0.2 0.2
ဆင့် အ တန်း ||| hsin a- tan: ||| 0.6 0.2 0.2 0.6 0.2 0.2
ဆင် ||| hsi ||| 0.714286 0.142857 0.142857 0.714286 0.142857 0.142857
ဆင် ||| hsin ||| 0.987097 0.00645161 0.00645161 0.987097 0.00645161 0.00645161
ဆင် ||| zin ||| 0.6 0.2 0.2 0.6 0.2 0.2
ဆင် တူ ||| hsin du ||| 0.6 0.2 0.2 0.6 0.2 0.2
ဆင်း ||| hsi ||| 0.6 0.2 0.2 0.6 0.2 0.2
ဆင်း ||| hsin. ||| 0.6 0.2 0.2 0.6 0.2 0.2
ဆင်း ||| hsin: ||| 0.957447 0.0212766 0.0212766 0.957447 0.0212766 0.0212766
ဆင်း ||| sin: ||| 0.6 0.2 0.2 0.6 0.2 0.2
ဆင်း ||| zin: ||| 0.92 0.04 0.04 0.92 0.04 0.04
ဆစ် ||| hsi&apos; ||| 0.966102 0.0169492 0.0169492 0.966102 0.0169492 0.0169492
ဆစ် ||| zi&apos; ||| 0.894737 0.0526316 0.0526316 0.894737 0.0526316 0.0526316
ဆစ် သ ||| hsi&apos; tha- ||| 0.714286 0.142857 0.142857 0.714286 0.142857 0.142857
ဆစ် သ ||| zi&apos; tha- ||| 0.6 0.2 0.2 0.6 0.2 0.2
ဆစ် သ ခွား ||| hsi&apos; tha- khwa: ||| 0.6 0.2 0.2 0.6 0.2 0.2
ဆစ် အ ||| hsi&apos; a- ||| 0.777778 0.111111 0.111111 0.777778 0.111111 0.111111
ဆဋ် ||| hsa&apos; ||| 0.714286 0.142857 0.142857 0.714286 0.142857 0.142857
ဆဋ် ဌ ||| hsa&apos; hta- ||| 0.714286 0.142857 0.142857 0.714286 0.142857 0.142857
ဆတ် ||| hsa&apos; ||| 0.970149 0.0149254 0.0149254 0.970149 0.0149254 0.0149254
ဆတ် ||| za&apos; ||| 0.904762 0.047619 0.047619 0.904762 0.047619 0.047619
ဆတ် ခ ||| hsa&apos; kha- ||| 0.6 0.2 0.2 0.6 0.2 0.2
ဆတ် ခ ||| za&apos; kha- ||| 0.6 0.2 0.2 0.6 0.2 0.2
ဆတ် ခ နဲ ||| za&apos; kha- ne: ||| 0.6 0.2 0.2 0.6 0.2 0.2
ဆတ် ဆတ် ||| hsa&apos; hsa&apos; ||| 0.866667 0.0666667 0.0666667 0.866667 0.0666667 0.0666667
ဆတ် ဆတ် ||| za&apos; za&apos; ||| 0.777778 0.111111 0.111111 0.777778 0.111111 0.111111
ဆန် ||| hsa ||| 0.714286 0.142857 0.142857 0.714286 0.142857 0.142857
ဆန် ||| hsan ||| 0.984733 0.00763359 0.00763359 0.984733 0.00763359 0.00763359
ဆန် ||| hsan: ||| 0.6 0.2 0.2 0.6 0.2 0.2
ဆန် ||| za- ||| 0.894737 0.0526316 0.0526316 0.894737 0.0526316 0.0526316
ဆန် ||| zan ||| 0.942857 0.0285714 0.0285714 0.942857 0.0285714 0.0285714
ဆန် စိမ်း ||| hsan zein: ||| 0.6 0.2 0.2 0.6 0.2 0.2
ဆန် ဒ ||| hsan da. ||| 0.925926 0.037037 0.037037 0.925926 0.037037 0.037037
ဆန် လုံး ||| hsan loun: ||| 0.6 0.2 0.2 0.6 0.2 0.2
ဆန်း ||| hsan: ||| 0.935484 0.0322581 0.0322581 0.935484 0.0322581 0.0322581
ဆန်း ||| zan: ||| 0.818182 0.0909091 0.0909091 0.818182 0.0909091 0.0909091
ဆပ် ||| hsa&apos; ||| 0.939394 0.030303 0.030303 0.939394 0.030303 0.030303
ဆပ် ပြာ ||| hsa&apos; pja ||| 0.846154 0.0769231 0.0769231 0.846154 0.0769231 0.0769231
ဆယ့် ||| hse. ||| 0.866667 0.0666667 0.0666667 0.866667 0.0666667 0.0666667
ဆယ့် ||| ze. ||| 0.6 0.2 0.2 0.6 0.2 0.2
ဆယ့် နှစ် ||| hse. nha ||| 0.6 0.2 0.2 0.6 0.2 0.2
ဆယ့် နှစ် ||| hse. nha- ||| 0.818182 0.0909091 0.0909091 0.818182 0.0909091 0.0909091
ဆယ့် နှစ် ||| hse. nhi&apos; ||| 0.6 0.2 0.2 0.6 0.2 0.2
ဆယ် ||| hse ||| 0.942857 0.0285714 0.0285714 0.942857 0.0285714 0.0285714
ဆယ် ||| ze ||| 0.866667 0.0666667 0.0666667 0.866667 0.0666667 0.0666667
ဆယ် မျိုး ||| hse mjou: ||| 0.6 0.2 0.2 0.6 0.2 0.2
ဆာ ||| hsa ||| 0.962264 0.0188679 0.0188679 0.962264 0.0188679 0.0188679
ဆာ ||| sha ||| 0.6 0.2 0.2 0.6 0.2 0.2
ဆာ ||| za ||| 0.939394 0.030303 0.030303 0.939394 0.030303 0.030303
ဆာ ပြေ ||| hsa pjei ||| 0.6 0.2 0.2 0.6 0.2 0.2
ဆာ ယာ ||| hsa ja ||| 0.6 0.2 0.2 0.6 0.2 0.2
ဆား ||| hsa- ||| 0.714286 0.142857 0.142857 0.714286 0.142857 0.142857
ဆား ||| hsa: ||| 0.957447 0.0212766 0.0212766 0.957447 0.0212766 0.0212766
ဆား မြည်း ||| hsa: mje: ||| 0.6 0.2 0.2 0.6 0.2 0.2
ဆိတ် ||| hsei&apos; ||| 0.971014 0.0144928 0.0144928 0.971014 0.0144928 0.0144928
ဆိတ် ||| zei&apos; ||| 0.818182 0.0909091 0.0909091 0.818182 0.0909091 0.0909091
ဆိပ် ||| da- ||| 0.6 0.2 0.2 0.6 0.2 0.2
ဆိပ် ||| hsei&apos; ||| 0.942857 0.0285714 0.0285714 0.942857 0.0285714 0.0285714
ဆိပ် ||| zei ||| 0.6 0.2 0.2 0.6 0.2 0.2
ဆိပ် ||| zei&apos; ||| 0.925926 0.037037 0.037037 0.925926 0.037037 0.037037
ဆိပ် မွန်း ||| hsei&apos; mun: ||| 0.6 0.2 0.2 0.6 0.2 0.2
ဆို ||| hso ||| 0.6 0.2 0.2 0.6 0.2 0.2
ဆို ||| hsou ||| 0.981308 0.00934579 0.00934579 0.981308 0.00934579 0.00934579
ဆို ||| sou ||| 0.6 0.2 0.2 0.6 0.2 0.2
ဆို ||| zou ||| 0.894737 0.0526316 0.0526316 0.894737 0.0526316 0.0526316
ဆို ခွင့် ||| hsou gwin. ||| 0.6 0.2 0.2 0.6 0.2 0.2
ဆို စ ||| hsou za. ||| 0.6 0.2 0.2 0.6 0.2 0.2
ဆိုက် ||| hsai&apos; ||| 0.939394 0.030303 0.030303 0.939394 0.030303 0.030303
ဆိုင် ||| hsain ||| 0.970149 0.0149254 0.0149254 0.970149 0.0149254 0.0149254
ဆိုင် ||| la- ||| 0.6 0.2 0.2 0.6 0.2 0.2
ဆိုင် ||| zain ||| 0.955556 0.0222222 0.0222222 0.955556 0.0222222 0.0222222
ဆိုင် ရာ ||| hsain ja ||| 0.6 0.2 0.2 0.6 0.2 0.2
ဆိုင်း ||| hsain: ||| 0.957447 0.0212766 0.0212766 0.957447 0.0212766 0.0212766
ဆိုင်း ||| hsin: ||| 0.6 0.2 0.2 0.6 0.2 0.2
ဆိုင်း ||| zain: ||| 0.846154 0.0769231 0.0769231 0.846154 0.0769231 0.0769231
ဆိုး ||| hso: ||| 0.6 0.2 0.2 0.6 0.2 0.2
ဆိုး ||| hsou: ||| 0.977528 0.011236 0.011236 0.977528 0.011236 0.011236
ဆိုး ||| sou: ||| 0.6 0.2 0.2 0.6 0.2 0.2
ဆိုး ||| zou: ||| 0.960784 0.0196078 0.0196078 0.960784 0.0196078 0.0196078
ဆီ ||| hsa- ||| 0.6 0.2 0.2 0.6 0.2 0.2
ဆီ ||| hsi ||| 0.981651 0.00917431 0.00917431 0.981651 0.00917431 0.00917431
ဆီ ||| zi ||| 0.953488 0.0232558 0.0232558 0.953488 0.0232558 0.0232558
ဆီ ပြန် ||| hsi pjan ||| 0.6 0.2 0.2 0.6 0.2 0.2
ဆီး ||| hsi: ||| 0.955556 0.0222222 0.0222222 0.955556 0.0222222 0.0222222
ဆီး ||| zi. ||| 0.6 0.2 0.2 0.6 0.2 0.2
ဆီး ||| zi: ||| 0.904762 0.047619 0.047619 0.904762 0.047619 0.047619
ဆီး ပတ် ||| zi. ba&apos; ||| 0.6 0.2 0.2 0.6 0.2 0.2
ဆု ||| hsu. ||| 0.942857 0.0285714 0.0285714 0.942857 0.0285714 0.0285714
ဆု ||| zu. ||| 0.6 0.2 0.2 0.6 0.2 0.2
ဆုတ် ||| hsei&apos; ||| 0.6 0.2 0.2 0.6 0.2 0.2
ဆုတ် ||| hsou ||| 0.6 0.2 0.2 0.6 0.2 0.2
ဆုတ် ||| hsou&apos; ||| 0.957447 0.0212766 0.0212766 0.957447 0.0212766 0.0212766
ဆုတ် ကန် ||| hsou&apos; kan ||| 0.714286 0.142857 0.142857 0.714286 0.142857 0.142857
ဆုပ် ||| hsou&apos; ||| 0.904762 0.047619 0.047619 0.904762 0.047619 0.047619
ဆုပ် ||| zou&apos; ||| 0.866667 0.0666667 0.0666667 0.866667 0.0666667 0.0666667
ဆုံ ||| hsoun ||| 0.95122 0.0243902 0.0243902 0.95122 0.0243902 0.0243902
ဆုံ ||| zoun ||| 0.777778 0.111111 0.111111 0.777778 0.111111 0.111111
ဆုံး ||| hsoun: ||| 0.963636 0.0181818 0.0181818 0.963636 0.0181818 0.0181818
ဆုံး ||| zoun: ||| 0.925926 0.037037 0.037037 0.925926 0.037037 0.037037
ဆုံး မ ||| hsoun: ma. ||| 0.714286 0.142857 0.142857 0.714286 0.142857 0.142857
ဆူ ||| hsu ||| 0.945946 0.027027 0.027027 0.945946 0.027027 0.027027
ဆူ ||| zu ||| 0.714286 0.142857 0.142857 0.714286 0.142857 0.142857
ဆူး ||| hsu: ||| 0.963636 0.0181818 0.0181818 0.963636 0.0181818 0.0181818
ဆူး ||| zu: ||| 0.866667 0.0666667 0.0666667 0.866667 0.0666667 0.0666667
ဆူး လေ ||| hsu: lei ||| 0.6 0.2 0.2 0.6 0.2 0.2
ဆောင့် ||| hsaun. ||| 0.777778 0.111111 0.111111 0.777778 0.111111 0.111111
ဆောင့် ||| zaun. ||| 0.6 0.2 0.2 0.6 0.2 0.2
ဆောင် ||| hsaun ||| 0.981308 0.00934579 0.00934579 0.981308 0.00934579 0.00934579
ဆောင် ||| zau ||| 0.777778 0.111111 0.111111 0.777778 0.111111 0.111111
ဆောင် ||| zaun ||| 0.960784 0.0196078 0.0196078 0.960784 0.0196078 0.0196078
ဆောင် ချက် ||| zaun che&apos; ||| 0.6 0.2 0.2 0.6 0.2 0.2
ဆောင် မှု ||| hsaun mhu. ||| 0.6 0.2 0.2 0.6 0.2 0.2
ဆောင် မှု ||| zaun mhu. ||| 0.6 0.2 0.2 0.6 0.2 0.2
ဆောင် လုပ် ||| zaun lou&apos; ||| 0.6 0.2 0.2 0.6 0.2 0.2
ဆောင် လုပ် ငန်း ||| zaun lou&apos; ngan: ||| 0.6 0.2 0.2 0.6 0.2 0.2
ဆောင်း ||| hsaun: ||| 0.939394 0.030303 0.030303 0.939394 0.030303 0.030303
ဆောင်း ||| zaun: ||| 0.846154 0.0769231 0.0769231 0.846154 0.0769231 0.0769231
ဆောင်း ပါး ||| hsaun: ba: ||| 0.6 0.2 0.2 0.6 0.2 0.2
ဆော် ||| hso ||| 0.925926 0.037037 0.037037 0.925926 0.037037 0.037037
ဆော် ||| zo ||| 0.866667 0.0666667 0.0666667 0.866667 0.0666667 0.0666667
ဆေး ||| hsei ||| 0.6 0.2 0.2 0.6 0.2 0.2
ဆေး ||| hsei: ||| 0.991489 0.00425532 0.00425532 0.991489 0.00425532 0.00425532
ဆေး ||| pa- ||| 0.714286 0.142857 0.142857 0.714286 0.142857 0.142857
ဆေး ||| zei: ||| 0.973333 0.0133333 0.0133333 0.973333 0.0133333 0.0133333
ဆေး ကျ ||| hsei: gya. ||| 0.6 0.2 0.2 0.6 0.2 0.2
ဆေး တိုက် ||| hsei: tai&apos; ||| 0.6 0.2 0.2 0.6 0.2 0.2
ဆေး ထ ||| hsei: hta- ||| 0.6 0.2 0.2 0.6 0.2 0.2
ဆေး ထိုး ||| hsei: dou: ||| 0.714286 0.142857 0.142857 0.714286 0.142857 0.142857
ဆေး ထိုး ||| zei: htou: ||| 0.6 0.2 0.2 0.6 0.2 0.2
ဆေး မိုး ||| hsei: mou: ||| 0.714286 0.142857 0.142857 0.714286 0.142857 0.142857
ဆေး ရေး ||| hsei: jei: ||| 0.6 0.2 0.2 0.6 0.2 0.2
ဆဲ ||| hse: ||| 0.777778 0.111111 0.111111 0.777778 0.111111 0.111111
ဆဲ ||| ze: ||| 0.777778 0.111111 0.111111 0.777778 0.111111 0.111111
ဆံ ||| hsa- ||| 0.882353 0.0588235 0.0588235 0.882353 0.0588235 0.0588235
ဆံ ||| hsan ||| 0.971014 0.0144928 0.0144928 0.971014 0.0144928 0.0144928
ဆံ ||| za- ||| 0.939394 0.030303 0.030303 0.939394 0.030303 0.030303
ဆံ ||| zan ||| 0.948718 0.025641 0.025641 0.948718 0.025641 0.025641
ဆံ စု ||| hsan zu. ||| 0.6 0.2 0.2 0.6 0.2 0.2
ဆံ ထုံး ||| hsan htoun: ||| 0.6 0.2 0.2 0.6 0.2 0.2
ဆံ ထုံး ||| za- doun: ||| 0.714286 0.142857 0.142857 0.714286 0.142857 0.142857
ဆံ ရေး ||| hsan jei: ||| 0.6 0.2 0.2 0.6 0.2 0.2
ဆွတ် ||| hsu&apos; ||| 0.931034 0.0344828 0.0344828 0.931034 0.0344828 0.0344828
ဆွမ်း ||| hsun: ||| 0.967213 0.0163934 0.0163934 0.967213 0.0163934 0.0163934
ဆွမ်း ||| hswan: ||| 0.953488 0.0232558 0.0232558 0.953488 0.0232558 0.0232558
ဆွမ်း ||| zun: ||| 0.714286 0.142857 0.142857 0.714286 0.142857 0.142857
ဆွမ်း ခံ ||| hsun: gan ||| 0.6 0.2 0.2 0.6 0.2 0.2
ဆွမ်း ခံ ||| hsun: khan ||| 0.6 0.2 0.2 0.6 0.2 0.2
ဆွမ်း ခံ ||| hswan: gan ||| 0.6 0.2 0.2 0.6 0.2 0.2
ဆွမ်း ဆန် ||| hsun: hsan ||| 0.714286 0.142857 0.142857 0.714286 0.142857 0.142857
ဆွမ်း ဆန် ||| hswan: hsan ||| 0.6 0.2 0.2 0.6 0.2 0.2
ဆွမ်း ဆန် စိမ်း ||| hsun: hsan zein: ||| 0.6 0.2 0.2 0.6 0.2 0.2
ဆွမ်း တော် ||| hsun: do ||| 0.777778 0.111111 0.111111 0.777778 0.111111 0.111111
ဆွမ်း တော် ||| hswan: do ||| 0.714286 0.142857 0.142857 0.714286 0.142857 0.142857
ဆွမ်း တော် စွန့် ||| hsun: do sun. ||| 0.6 0.2 0.2 0.6 0.2 0.2
ဆွေ ||| hswei ||| 0.955556 0.0222222 0.0222222 0.955556 0.0222222 0.0222222
ဆွေး ||| hswei: ||| 0.894737 0.0526316 0.0526316 0.894737 0.0526316 0.0526316
ဆွေး ||| zwei: ||| 0.714286 0.142857 0.142857 0.714286 0.142857 0.142857
ဆွဲ ||| hswe ||| 0.714286 0.142857 0.142857 0.714286 0.142857 0.142857
ဆွဲ ||| hswe&apos; ||| 0.714286 0.142857 0.142857 0.714286 0.142857 0.142857
ဆွဲ ||| hswe: ||| 0.980583 0.00970874 0.00970874 0.980583 0.00970874 0.00970874
ဆွဲ ||| swe: ||| 0.6 0.2 0.2 0.6 0.2 0.2
ဆွဲ ||| zwe: ||| 0.95122 0.0243902 0.0243902 0.95122 0.0243902 0.0243902
ဆွဲ ချ ||| hswe: gya. ||| 0.6 0.2 0.2 0.6 0.2 0.2
ဆွဲ ချ ||| zwe: cha. ||| 0.6 0.2 0.2 0.6 0.2 0.2
ဇ ||| za ||| 0.777778 0.111111 0.111111 0.777778 0.111111 0.111111
ဇ ||| za- ||| 0.985816 0.0070922 0.0070922 0.985816 0.0070922 0.0070922
ဇ ||| za. ||| 0.962264 0.0188679 0.0188679 0.962264 0.0188679 0.0188679
ဇ ဌာ ||| za. hta ||| 0.6 0.2 0.2 0.6 0.2 0.2
ဇ ဌာ နီ ||| za. hta ni ||| 0.6 0.2 0.2 0.6 0.2 0.2
ဇ န ||| za- na- ||| 0.714286 0.142857 0.142857 0.714286 0.142857 0.142857
ဇ န ||| za- na. ||| 0.6 0.2 0.2 0.6 0.2 0.2
ဇ နာ ||| za- na ||| 0.714286 0.142857 0.142857 0.714286 0.142857 0.142857
ဇ ယ ||| za- ja ||| 0.6 0.2 0.2 0.6 0.2 0.2
ဇ ယ ||| za- ja. ||| 0.714286 0.142857 0.142857 0.714286 0.142857 0.142857
ဇ ယား ||| za- ja: ||| 0.904762 0.047619 0.047619 0.904762 0.047619 0.047619
ဇ ဝတ် ||| za- wu&apos; ||| 0.846154 0.0769231 0.0769231 0.846154 0.0769231 0.0769231
ဇ ဝတ် ||| za. wu&apos; ||| 0.6 0.2 0.2 0.6 0.2 0.2
ဇက် ||| ze&apos; ||| 0.942857 0.0285714 0.0285714 0.942857 0.0285714 0.0285714
ဇင် ||| zin ||| 0.846154 0.0769231 0.0769231 0.846154 0.0769231 0.0769231
ဇမ် ||| za- ||| 0.777778 0.111111 0.111111 0.777778 0.111111 0.111111
ဇမ် ||| zan ||| 0.6 0.2 0.2 0.6 0.2 0.2
ဇမ် ဗူ ||| za- bu ||| 0.714286 0.142857 0.142857 0.714286 0.142857 0.142857
ဇာ ||| za ||| 0.986207 0.00689655 0.00689655 0.986207 0.00689655 0.00689655
ဇာ ||| za- ||| 0.818182 0.0909091 0.0909091 0.818182 0.0909091 0.0909091
ဇာ တာ ||| za ta ||| 0.866667 0.0666667 0.0666667 0.866667 0.0666667 0.0666667
ဇာ တာ ||| za- da ||| 0.6 0.2 0.2 0.6 0.2 0.2
ဇာ တာ ||| za- ta ||| 0.6 0.2 0.2 0.6 0.2 0.2
ဇာ နည် ||| za ni ||| 0.714286 0.142857 0.142857 0.714286 0.142857 0.142857
ဇာတ် ||| za&apos; ||| 0.984962 0.0075188 0.0075188 0.984962 0.0075188 0.0075188
ဇာတ် ပေါင်း ||| za&apos; paun: ||| 0.6 0.2 0.2 0.6 0.2 0.2
ဇာတ် ရည် ||| za&apos; jei ||| 0.6 0.2 0.2 0.6 0.2 0.2
ဇာတ် ဝင် ||| za&apos; win ||| 0.714286 0.142857 0.142857 0.714286 0.142857 0.142857
ဇိ ||| zi. ||| 0.6 0.2 0.2 0.6 0.2 0.2
ဇိန် ||| zein ||| 0.6 0.2 0.2 0.6 0.2 0.2
ဇီ ||| zi ||| 0.939394 0.030303 0.030303 0.939394 0.030303 0.030303
ဇီ ဝ ||| zi wa ||| 0.6 0.2 0.2 0.6 0.2 0.2
ဇီ ဝ ||| zi wa- ||| 0.6 0.2 0.2 0.6 0.2 0.2
ဇီ ဝ ||| zi wa. ||| 0.777778 0.111111 0.111111 0.777778 0.111111 0.111111
ဇီ ဝိန် ||| zi wein ||| 0.6 0.2 0.2 0.6 0.2 0.2
ဇောက် ||| zau&apos; ||| 0.866667 0.0666667 0.0666667 0.866667 0.0666667 0.0666667
ဈာ ||| za ||| 0.6 0.2 0.2 0.6 0.2 0.2
ဈေး ||| zei: ||| 0.984252 0.00787402 0.00787402 0.984252 0.00787402 0.00787402
ဈေး တန်း ||| zei: dan: ||| 0.6 0.2 0.2 0.6 0.2 0.2
ဈေး တန်း ||| zei: tan: ||| 0.6 0.2 0.2 0.6 0.2 0.2
ဈေး နှုန်း ||| zei: nhoun: ||| 0.6 0.2 0.2 0.6 0.2 0.2
ဉာဏ် ||| jan ||| 0.6 0.2 0.2 0.6 0.2 0.2
ဉာဏ် ||| njan ||| 0.973333 0.0133333 0.0133333 0.973333 0.0133333 0.0133333
ည ||| nja&apos; ||| 0.6 0.2 0.2 0.6 0.2 0.2
ည ||| nja- ||| 0.777778 0.111111 0.111111 0.777778 0.111111 0.111111
ည ||| nja. ||| 0.973333 0.0133333 0.0133333 0.973333 0.0133333 0.0133333
ည တွင်း ||| nja. dwin: ||| 0.6 0.2 0.2 0.6 0.2 0.2
ည နေ ||| nja. nei ||| 0.777778 0.111111 0.111111 0.777778 0.111111 0.111111
ညင်း ||| njhin: ||| 0.777778 0.111111 0.111111 0.777778 0.111111 0.111111
ညင်း ||| njin: ||| 0.925926 0.037037 0.037037 0.925926 0.037037 0.037037
ညစ် ||| nji ||| 0.6 0.2 0.2 0.6 0.2 0.2
ညစ် ||| nji&apos; ||| 0.953488 0.0232558 0.0232558 0.953488 0.0232558 0.0232558
ညစ် အ ||| nji&apos; a- ||| 0.6 0.2 0.2 0.6 0.2 0.2
ညတ် ||| nja&apos; ||| 0.777778 0.111111 0.111111 0.777778 0.111111 0.111111
ညာ ||| nja ||| 0.99005 0.00497512 0.00497512 0.99005 0.00497512 0.00497512
ညာ တ ||| nja ta- ||| 0.6 0.2 0.2 0.6 0.2 0.2
ညာ တ ||| nja ta. ||| 0.6 0.2 0.2 0.6 0.2 0.2
ညာဉ် ||| njin ||| 0.777778 0.111111 0.111111 0.777778 0.111111 0.111111
ညို ||| jou ||| 0.6 0.2 0.2 0.6 0.2 0.2
ညို ||| njou ||| 0.931034 0.0344828 0.0344828 0.931034 0.0344828 0.0344828
ညို့ ||| njou. ||| 0.777778 0.111111 0.111111 0.777778 0.111111 0.111111
ညီ ||| nja- ||| 0.6 0.2 0.2 0.6 0.2 0.2
ညီ ||| nji ||| 0.977528 0.011236 0.011236 0.977528 0.011236 0.011236
ညီ မ ||| nja- ma. ||| 0.6 0.2 0.2 0.6 0.2 0.2
ညု ||| nju. ||| 0.714286 0.142857 0.142857 0.714286 0.142857 0.142857
ညု တ ||| nju. ta. ||| 0.6 0.2 0.2 0.6 0.2 0.2
ညောင် ||| njau ||| 0.714286 0.142857 0.142857 0.714286 0.142857 0.142857
ညောင် ||| njaun ||| 0.953488 0.0232558 0.0232558 0.953488 0.0232558 0.0232558
ညောင်း ||| njaun: ||| 0.945946 0.027027 0.027027 0.945946 0.027027 0.027027
ညွန့် ||| jun. ||| 0.6 0.2 0.2 0.6 0.2 0.2
ညွန့် ||| njun. ||| 0.95122 0.0243902 0.0243902 0.95122 0.0243902 0.0243902
ညွန့် ကျိုး ||| njun. kyou: ||| 0.6 0.2 0.2 0.6 0.2 0.2
ညွှန် ||| njhun ||| 0.894737 0.0526316 0.0526316 0.894737 0.0526316 0.0526316
ညှင်း ||| njhin: ||| 0.913043 0.0434783 0.0434783 0.913043 0.0434783 0.0434783
ညှစ် ||| njhi&apos; ||| 0.818182 0.0909091 0.0909091 0.818182 0.0909091 0.0909091
ညှပ် ||| njha&apos; ||| 0.968254 0.015873 0.015873 0.968254 0.015873 0.015873
ညှာ ||| njha ||| 0.846154 0.0769231 0.0769231 0.846154 0.0769231 0.0769231
ညှောက် ||| njhau&apos; ||| 0.777778 0.111111 0.111111 0.777778 0.111111 0.111111
